{"cc_unit": {"layers": [{"w": [[0.06963241100311279, 0.09527483582496643, -0.02844354510307312, 0.09011762589216232, 0.0037134585436433554, 0.07189980894327164, -0.22137446701526642, -0.05650664493441582, -0.022298289462924004, 0.08333156257867813, -0.27828681468963623, 0.03032752126455307, 0.01194077543914318, -0.13933676481246948, -0.019139740616083145, 0.09338885545730591, 0.05933111160993576, -0.03591921180486679, -0.06809511035680771, 0.01575959473848343, -0.02995620109140873, 0.06646404415369034, -0.09215296059846878, 0.05811670795083046, 0.05172041058540344, 0.1711684614419937, -0.09551205486059189, -0.13144813477993011, 0.04062312841415405, -0.11131955683231354, 0.12215103954076767, 0.06954549252986908], [-0.147682324051857, -0.1572224497795105, 0.5230489373207092, -0.2728504538536072, -0.5717732906341553, 0.0904650092124939, -0.004782311152666807, -0.23317056894302368, -0.26907995343208313, -0.22546376287937164, -0.6669831275939941, 0.684275209903717, 0.05741880089044571, 0.05274425819516182, -0.27174827456474304, -0.35548892617225647, 0.05202769488096237, -0.6411536931991577, -0.6271744966506958, 0.44726210832595825, -0.4111367166042328, 0.17335236072540283, -0.12074097245931625, -0.7598878741264343, 0.7120737433433533, -0.10953962802886963, -1.5574599504470825, -0.5578129887580872, 0.06285296380519867, 0.9010367393493652, -0.11793000996112823, -0.08480186760425568], [0.4931790232658386, -0.28804004192352295, 0.3083222508430481, 0.38973096013069153, -0.07157478481531143, 0.28439897298812866, 0.11355821788311005, -1.1026537418365479, 0.5661547780036926, 0.24370576441287994, 0.1425255984067917, -0.09462558478116989, 0.02810450829565525, -0.5052551031112671, -0.01091587170958519, 0.16519282758235931, 0.43720799684524536, -1.4182296991348267, -1.4893646240234375, -0.7967007756233215, 0.26453617215156555, -0.22750355303287506, 0.12844111025333405, -0.2762894630432129, -0.07712490856647491, 0.06624219566583633, -0.31999140977859497, 0.050766222178936005, 0.8152353763580322, -0.27934756875038147, 0.2318888157606125, 0.1207563579082489], [0.41795963048934937, 0.13288746774196625, 0.03220643475651741, -0.1657896637916565, 0.1826876699924469, -0.0810263380408287, -0.11665273457765579, -0.009728243574500084, -0.002392474329099059, -0.023685142397880554, -0.2584880590438843, 0.14391721785068512, 0.4357221722602844, 0.1571849137544632, -0.08437832444906235, -0.05696950480341911, -0.02897404134273529, -0.18697358667850494, 0.09520776569843292, -0.08730888366699219, -0.07085561007261276, 0.23661398887634277, -0.12072441726922989, -0.023205233737826347, -0.03874361515045166, -0.11256986111402512, -0.008399881422519684, 0.06266415864229202, 0.05830023065209389, -0.13373005390167236, -0.020382018759846687, 0.054474759846925735], [0.21080411970615387, -0.01687498390674591, -0.097854383289814, 0.14725792407989502, 0.3004952669143677, 0.12006284296512604, -0.010444185696542263, -0.13401658833026886, -0.2612394094467163, 0.16740953922271729, -0.051509108394384384, -0.06121206283569336, 0.035156093537807465, 0.25877657532691956, -0.1478053480386734, -0.40692752599716187, 0.006274513900279999, -0.2787603437900543, -0.02930886298418045, 0.05197984352707863, -0.2168387919664383, 0.12642613053321838, 0.1422324925661087, 0.12865705788135529, -0.026511110365390778, -0.2289867252111435, -0.03095433861017227, -0.11644872277975082, -0.01769796386361122, 0.037716299295425415, 0.17862585186958313, -0.20906659960746765], [0.22303126752376556, -0.04678699001669884, -0.3392946422100067, -0.01622600480914116, -0.1996845155954361, 0.006867178715765476, -0.1685732752084732, 0.09369828552007675, -0.024980464950203896, -0.00803446862846613, 0.0040194690227508545, -0.0026078305672854185, 0.09991420805454254, -0.40591540932655334, -0.05853288248181343, -0.06191740930080414, 0.18814709782600403, 0.07934095710515976, -0.15046748518943787, -0.028846105560660362, -0.35713133215904236, 0.5124208331108093, 0.18603841960430145, -0.06229209899902344, -0.20590344071388245, -0.22105826437473297, 0.003941690549254417, -0.12654337286949158, 0.052775733172893524, 0.0011364241363480687, -0.06406708061695099, 0.17258623242378235], [-0.06252941489219666, 0.1066429615020752, -0.04402875900268555, 0.048058267682790756, -0.08403230458498001, -0.05144840478897095, 0.025421615689992905, -0.022397102788090706, 0.06697003543376923, 0.07444645464420319, -0.08176953345537186, 0.05519306659698486, 0.04577130824327469, 0.0672517940402031, 0.018405359238386154, -0.12176842242479324, 0.039825189858675, 0.05461446940898895, 0.11714618653059006, -0.06314313411712646, 0.053450796753168106, -0.07170050591230392, 0.05918536335229874, -0.11397907882928848, 0.05836598947644234, 0.0606771782040596, -0.00047004595398902893, 0.06059617921710014, -0.11988922208547592, 0.03493994474411011, -0.06210372596979141, 0.019719529896974564], [0.07549456506967545, -0.07619418948888779, -0.1014646664261818, -0.02260471135377884, 0.042662035673856735, 0.03404705598950386, -0.09747633337974548, -0.11915026605129242, -0.021605895832180977, 0.09977871924638748, -0.020990608260035515, 0.00014457182260230184, -0.10705594718456268, 0.03068719245493412, -0.023764589801430702, 0.011487727053463459, -0.02243039198219776, -0.07545889168977737, 0.07501322031021118, -0.11777715384960175, -0.00743004260584712, 0.07736165076494217, 0.11028409749269485, 0.035739969462156296, 0.058839134871959686, 0.02357107773423195, 0.04127945750951767, -0.1210566833615303, 0.00030370245804078877, 0.12637214362621307, 0.022884715348482132, 0.01195506565272808], [0.11337564140558243, -0.07667135447263718, 0.10781493037939072, -0.03402404859662056, -0.03820624202489853, -0.044631458818912506, -0.12013326585292816, -0.046807486563920975, 0.11753807216882706, 0.10379236191511154, 0.09752503037452698, 0.07111424952745438, -0.12478785216808319, -0.06533512473106384, 0.0604717992246151, -0.008595050312578678, 0.021727783605456352, 0.01953711360692978, -0.06659377366304398, 0.0681276023387909, 0.09840282052755356, -0.016435135155916214, -0.1141282171010971, -0.02617000788450241, -0.11185495555400848, 0.03951116278767586, -0.002826400799676776, 0.04973817616701126, -0.11378110200166702, -0.00028107938123866916, 0.09889423102140427, 0.11573173105716705], [-0.7626680135726929, -0.8957102298736572, -1.0369070768356323, 0.26142650842666626, -0.6001023054122925, 0.2734856605529785, -0.487547367811203, 0.4314608573913574, -0.05912775546312332, 0.10470183193683624, 0.7431214451789856, -0.1439054012298584, -0.28536832332611084, -0.32077130675315857, -0.28367647528648376, 0.8938488960266113, -0.27067238092422485, 0.2638437747955322, -0.4368782639503479, -0.37216851115226746, 0.5681704878807068, 0.13439631462097168, -0.03212512657046318, -0.0033183377236127853, -0.0010007857345044613, 0.25987422466278076, -0.1311960071325302, -0.6318714022636414, 0.4828927516937256, 0.07311305403709412, -0.8683960437774658, 0.6430598497390747], [-0.15654823184013367, -0.03360731527209282, -0.1305244117975235, 0.15598319470882416, -0.32050588726997375, -0.17454887926578522, 0.45773032307624817, -0.10877647995948792, -0.37685999274253845, 0.09257979691028595, 1.0021692514419556, -0.24234162271022797, -0.5169161558151245, -0.6378784775733948, -0.1301039308309555, 0.2089914083480835, -0.05753523111343384, 0.35934340953826904, 0.5236919522285461, -0.2922112047672272, 0.10363032668828964, 0.1357744187116623, 0.8980878591537476, 0.1769687682390213, -0.8127641081809998, 0.17882375419139862, 1.2741084098815918, 0.7806996703147888, -0.3621874153614044, -1.1288745403289795, 0.17948170006275177, 0.0791831836104393], [0.10344818234443665, 0.12453152239322662, 0.16650785505771637, 0.22466041147708893, 0.008692535571753979, 0.17208637297153473, 0.18187227845191956, -0.047897741198539734, 0.25367575883865356, 0.1077912300825119, 0.19564791023731232, -0.10069353133440018, -0.03773137181997299, 0.061572734266519547, 0.10414785891771317, 0.2928329110145569, 0.12450128048658371, 0.319424033164978, 0.09207960218191147, 0.09222535789012909, -0.04561241716146469, 0.06893250346183777, -0.10792792588472366, 0.07010281831026077, -0.1177230179309845, 0.17420820891857147, 0.1591169387102127, 0.23148129880428314, 0.07419401407241821, 0.21612106263637543, 0.01397295668721199, 0.2103472650051117], [0.17189259827136993, 0.26881110668182373, 0.2643543481826782, 0.13692496716976166, 0.17864730954170227, 0.18761953711509705, 0.4740866422653198, -0.001563445432111621, 0.19663091003894806, 0.18543201684951782, 0.16117741167545319, 0.02302434854209423, -0.2906266748905182, -0.17264164984226227, 0.25682681798934937, 0.3689255118370056, 0.30511555075645447, 0.14906227588653564, -0.4393051266670227, 0.037931863218545914, 0.28701409697532654, 0.25854822993278503, 0.2556053400039673, 0.209938645362854, -0.015865983441472054, -0.35544610023498535, 0.1651727855205536, 0.17932988703250885, 0.36932021379470825, -0.07401062548160553, 0.1862262636423111, 0.17532266676425934], [0.4468434453010559, -0.3656517267227173, 0.16743284463882446, 0.31328898668289185, -0.2878476679325104, 0.25113892555236816, 0.0383911207318306, -0.06323603540658951, 0.1621183454990387, 0.4862023890018463, -0.025072580203413963, -0.06343207508325577, -0.08174524456262589, 0.08763043582439423, 0.4832707941532135, -0.26418665051460266, 0.2512098550796509, -0.5851069092750549, 0.08654723316431046, 0.17844949662685394, -0.5563642382621765, 0.10862094908952713, 0.14756742119789124, 0.41703563928604126, 0.060899242758750916, -0.7510241270065308, 0.11540943384170532, -0.39962130784988403, 0.24273169040679932, 0.0012952045071870089, -0.4002300500869751, 0.15645301342010498], [0.23697203397750854, -0.24311372637748718, -0.30260413885116577, -0.037908878177404404, -0.11918871849775314, 0.2747635841369629, -0.42002901434898376, 0.10026155412197113, -0.26073697209358215, 0.10272426158189774, 0.02446204610168934, 0.0392167828977108, 0.03091728314757347, 0.6581912040710449, -0.07301674783229828, 0.01678762212395668, 0.45383045077323914, 0.15894654393196106, 0.36182674765586853, -1.0085421800613403, -0.3388988673686981, -0.04009462893009186, -0.2615799307823181, -0.006302820518612862, -0.1480582058429718, 0.10641945898532867, -0.053573962301015854, 0.04431294649839401, 0.1432715356349945, -0.08688231557607651, -0.11474789679050446, -0.03936837613582611], [0.07084334641695023, -0.22998115420341492, 0.08340947329998016, -0.004808579571545124, -0.20918546617031097, 0.0028030790854245424, -0.25870752334594727, -0.09196078032255173, -0.1542164832353592, -0.05786789581179619, 0.09765073657035828, 0.113466776907444, -0.0418592244386673, -0.8086398243904114, -0.06528466194868088, 0.13371525704860687, -0.016973773017525673, 0.187261700630188, -0.08140947669744492, 0.43059736490249634, 0.11918100714683533, 0.05533863604068756, 0.3044634163379669, 0.07140722870826721, 0.026319749653339386, 0.3416648209095001, 0.028506793081760406, -0.20898886024951935, -0.07348255813121796, -0.08580311387777328, 0.07190777361392975, -0.08379950374364853], [-0.19322369992733002, -0.2481023371219635, -0.2767326831817627, 0.05598395690321922, 0.5625087022781372, -0.28934445977211, -0.5221272110939026, -0.5450809001922607, 0.19802677631378174, 0.24939344823360443, 0.08688607066869736, -0.21617668867111206, -0.2941059470176697, -0.03986475244164467, 0.06659961491823196, 0.21303029358386993, 0.035177987068891525, 0.30470481514930725, 0.38778549432754517, -0.14364157617092133, 0.22617211937904358, 0.38175517320632935, 0.7206299304962158, 0.557775616645813, -0.6725488901138306, -0.29096078872680664, 0.7028338313102722, -0.007810740265995264, 0.05550062283873558, -0.4700651168823242, -0.18120014667510986, 0.1838572472333908], [0.17293021082878113, 0.09018458425998688, 0.010114019736647606, -0.0025011117104440928, -0.14329294860363007, 0.1583428680896759, 0.16149351000785828, -0.02261207066476345, 0.14428703486919403, -0.043984994292259216, 0.0938243418931961, 0.014482595026493073, -0.17473693192005157, -0.19925139844417572, 0.08463127911090851, 0.0604172945022583, 0.06448790431022644, 0.06256706267595291, 0.0017724970821291208, -0.01824820041656494, 0.02386586368083954, 0.1386597752571106, -0.053710512816905975, -0.0493994876742363, 0.2413114607334137, 0.11736038327217102, -0.08469895273447037, 0.24054129421710968, 0.04551595449447632, 0.041005682200193405, -0.030445564538240433, -0.009862913750112057], [0.24611450731754303, -0.13865047693252563, 0.21365642547607422, 0.2046440988779068, 0.02131567895412445, 0.1406407505273819, 0.13985243439674377, 0.2584918439388275, 0.15305377542972565, 0.07161668688058853, 0.17429865896701813, -0.004934128373861313, 0.4531419575214386, -0.19237682223320007, 0.3286958634853363, 0.07004041224718094, 0.3017226755619049, 0.19632048904895782, -0.4393201768398285, -0.8488529324531555, -0.020888470113277435, 0.2421049326658249, 0.18714018166065216, -0.3545765280723572, 0.09066741168498993, 0.007476457394659519, -0.09573482722043991, -0.03966140374541283, 0.15511825680732727, 0.23369979858398438, -0.03327127546072006, 0.11529591679573059], [-0.2670764625072479, 0.2610878050327301, -0.18525342643260956, 0.11433789134025574, -0.01581447385251522, 0.08758919686079025, -0.02351975068449974, -0.12951818108558655, -0.38650819659233093, -0.00543538574129343, 0.02839512564241886, -0.08103179186582565, 0.34171316027641296, 0.31717750430107117, 0.22484028339385986, -0.3672918975353241, 0.09671894460916519, -0.3620632290840149, 0.5956089496612549, 0.10137932747602463, -0.3216235935688019, 0.05211092531681061, 0.25331562757492065, -0.13284136354923248, 0.2535344064235687, -0.3692266643047333, -0.07838066667318344, 0.1330300271511078, -0.1762414425611496, 0.05106263980269432, 0.2753904163837433, -0.08845118433237076], [-0.4525090456008911, -0.02298334613442421, 0.19288954138755798, 0.15332695841789246, 0.10569333285093307, 0.16810959577560425, 0.37991639971733093, 0.1677084118127823, -0.09562414139509201, 0.24939045310020447, -0.08810343593358994, -0.046010591089725494, -0.22876329720020294, 0.058938466012477875, -0.3005569875240326, -0.07838260382413864, 0.36966565251350403, 0.07256514579057693, 0.2714082896709442, 0.2273261398077011, 0.21589982509613037, -0.14977897703647614, 0.163253515958786, 0.01676681824028492, -0.10704893618822098, 0.5145496726036072, -0.027507200837135315, 0.06774131953716278, 0.07214594632387161, -0.0693468376994133, -0.10078957676887512, -0.033686451613903046], [-0.07338504493236542, -0.10416591912508011, -0.0937349870800972, 0.010952217504382133, -0.09873262792825699, 0.12412337958812714, -0.18320870399475098, 0.018513789400458336, -0.11753891408443451, 0.22360505163669586, -0.01558257732540369, 0.05464009940624237, 0.01947827823460102, -0.2006680816411972, -0.1392223834991455, 0.0903683751821518, 0.01574220508337021, 0.16114875674247742, -0.017690854147076607, 0.15355457365512848, 0.3025537133216858, 0.1741376519203186, 0.08892051875591278, -0.15731848776340485, -0.005673703737556934, 0.09279971569776535, 0.01133470144122839, 0.0365372933447361, 0.13817915320396423, -0.040772803127765656, 0.23713748157024384, -0.037386611104011536], [0.08822015672922134, 0.01881164126098156, -0.164426788687706, -0.15215478837490082, 0.6160269379615784, -0.7180238962173462, -0.04067308455705643, -0.6108452081680298, -0.2534058392047882, -0.2616332769393921, -0.11485234647989273, 0.0666075274348259, 0.42892587184906006, 0.36642494797706604, -0.26394620537757874, 0.029537640511989594, -0.3490748703479767, -0.26568689942359924, 0.6528395414352417, -0.07326734066009521, -0.07036242634057999, -0.16254960000514984, 0.23175568878650665, 0.5016787052154541, -0.3165509104728699, -0.22415705025196075, 0.35854417085647583, -0.7425363063812256, -0.28789037466049194, -0.6950540542602539, -0.5800692439079285, 0.10382116585969925], [0.30671426653862, -0.018966365605592728, 0.0199422687292099, 0.09587962180376053, -0.27366286516189575, 0.0402095727622509, 0.010860943235456944, 0.3084980547428131, 0.054446540772914886, -0.264295756816864, -0.011289265938103199, 0.11037439852952957, 0.1312563270330429, -0.21781030297279358, 0.049678221344947815, 0.053750455379486084, 0.05048881471157074, 0.09417012333869934, -0.08459766209125519, -0.129155695438385, 0.020372426137328148, 0.22107616066932678, 0.2869143784046173, -0.254357248544693, 0.15224051475524902, 0.46157363057136536, -0.04529498890042305, 0.26730093359947205, -0.1567123979330063, -0.03005482628941536, 0.039996493607759476, -0.07658103853464127], [0.2228231430053711, -0.2038416564464569, 0.09269237518310547, 0.012373204343020916, -0.02935696952044964, 0.19011183083057404, 0.08196329325437546, 0.1664688140153885, 0.07820092886686325, 0.061185456812381744, 0.06480247527360916, 0.16227953135967255, -0.3970080614089966, 0.2600594162940979, 0.0027997782453894615, -0.040827054530382156, 0.08910660445690155, 0.0565514862537384, 0.16758830845355988, -0.8753750920295715, -0.33168548345565796, 0.1409464180469513, 0.42119187116622925, -0.09071340411901474, 0.030578218400478363, -0.465810626745224, -0.09158732742071152, -0.11092409491539001, 0.17844414710998535, -0.14171400666236877, 0.0880841389298439, 0.06669861823320389], [-0.20645244419574738, 0.12442530691623688, -0.027702216058969498, -0.19516149163246155, -0.026007376611232758, -0.0635964646935463, 0.4888797402381897, 0.084096260368824, 0.41114702820777893, -0.39409640431404114, 0.008396502584218979, 0.08093725144863129, -0.33446627855300903, -0.11804558336734772, 0.15635794401168823, 0.007860713638365269, -0.135017991065979, -0.6248599290847778, -0.2338949292898178, -0.011311509646475315, -0.09088320285081863, -0.013055822812020779, 0.1526046246290207, -0.1204589456319809, -0.08424702286720276, 0.11171333491802216, 0.02169918455183506, 0.24188341200351715, 0.07676340639591217, -0.014627580530941486, 0.2090827226638794, -0.3957792818546295], [-0.2815084159374237, 0.4281814694404602, -0.24086104333400726, -0.03230832517147064, -0.43910354375839233, -0.06209156662225723, 0.5071135759353638, -0.2856360971927643, 0.11537566781044006, -0.48188352584838867, -0.20123150944709778, 0.2698180675506592, 0.405200719833374, -0.13199648261070251, 0.0746244341135025, 0.2784195840358734, -0.6083722710609436, -0.4159085750579834, 0.2676296830177307, -0.3243120014667511, -0.7442188262939453, -0.05485076457262039, -0.49454089999198914, -0.21640875935554504, 0.45578137040138245, 0.35605961084365845, 0.276986688375473, 0.5151271224021912, -0.32998526096343994, 0.3953408896923065, 0.21947038173675537, -0.3358416259288788], [-0.03616630285978317, -0.04867919906973839, 0.054873257875442505, -0.09557665139436722, 0.3160548508167267, -0.032765790820121765, -0.020629331469535828, 0.03377209231257439, 0.04514829069375992, -0.04958817735314369, -0.10861919075250626, -0.033851027488708496, 0.02163507789373398, 0.3847028613090515, 0.3847978711128235, -0.020058879628777504, 0.09453178942203522, 0.1617494374513626, -0.0065451133996248245, 0.3174842894077301, -0.120101697742939, 0.11684935539960861, 0.010452316142618656, 0.13218875229358673, 0.08606935292482376, -0.177021786570549, 0.015043815597891808, -0.046576354652643204, 0.061268605291843414, 0.043936923146247864, -0.1321353018283844, -0.009897500276565552], [0.11725670844316483, -0.10916803032159805, 0.12643860280513763, -0.10689737647771835, -0.2689884603023529, -0.12500815093517303, 0.12105953693389893, 0.5824409127235413, -0.15847782790660858, -0.277239054441452, -0.3363610804080963, 0.23009535670280457, 0.14362481236457825, 0.24321770668029785, -0.05704746022820473, -0.2250506728887558, -0.05216256156563759, -0.5671970844268799, -0.5561810731887817, -0.0799885019659996, 0.07548965513706207, 0.018227098509669304, 0.18105600774288177, -0.40980932116508484, 0.3708541989326477, 0.10725563019514084, -0.34672683477401733, -0.3614213168621063, -0.04624339938163757, -0.05711439996957779, -0.11269327253103256, -0.150625541806221], [-0.4768114984035492, 0.2100374698638916, -0.2781456410884857, -0.11156195402145386, -0.2801337242126465, -0.28821974992752075, -0.2354969084262848, 1.101348876953125, -0.12494005262851715, -0.6181516647338867, 0.30691206455230713, 0.08804207295179367, -0.09659554064273834, 0.21870310604572296, -0.31978553533554077, -0.11443286389112473, -0.5225801467895508, -0.9553279280662537, 0.7517409324645996, -0.8352339863777161, -0.3398759365081787, 0.7651953101158142, 1.030852198600769, -0.2259788066148758, 0.27617982029914856, -0.069711834192276, 0.11894090473651886, -0.30786821246147156, -0.37790343165397644, -0.1204819455742836, -0.058032501488924026, -0.11940637975931168], [0.22370645403862, 0.27334240078926086, -0.08779116719961166, 0.0312188807874918, 0.25856608152389526, -0.09301351010799408, -0.28570714592933655, 0.4055241346359253, 0.06793828308582306, -0.12103164941072464, -0.20456628501415253, -0.10258565843105316, 0.048599664121866226, -0.1768205463886261, 0.05706346407532692, 0.06033310294151306, 0.01177737396210432, 0.3900911211967468, 0.8976210355758667, 0.41842368245124817, -0.13110226392745972, -0.09656254202127457, -0.03742912411689758, 0.25345972180366516, -0.04975363612174988, 0.17647399008274078, 0.35985618829727173, 0.3395398259162903, -0.13608944416046143, 0.1508607566356659, 0.0393814817070961, 0.25555554032325745], [-0.47475191950798035, 0.18309429287910461, -0.06300942599773407, 0.27065250277519226, -0.2208651453256607, 0.20985816419124603, 0.3763529062271118, -0.2663623094558716, -0.1632869839668274, -0.11463868618011475, 0.002898507984355092, 0.05506819486618042, 0.228657528758049, 0.37410885095596313, 0.31801822781562805, 0.015235010534524918, 0.1253061294555664, 0.1723211109638214, -0.028842205181717873, -0.11441504210233688, -0.24337919056415558, 0.2639726996421814, -0.2526880204677582, -0.05885753408074379, 0.10626207292079926, 0.28778162598609924, 0.03326167166233063, 0.018111461773514748, 0.20225632190704346, -0.031201178207993507, 0.14408931136131287, 0.1574055403470993], [-0.5680766105651855, 0.8440077900886536, 0.5304839015007019, 0.27331241965293884, 0.21550387144088745, 0.565845251083374, 0.7661859393119812, -0.7627967596054077, -0.1633220613002777, 0.042749520391225815, -0.4078946113586426, -0.1489105224609375, 0.6577428579330444, 0.6358259320259094, 0.6089348793029785, -0.558843731880188, 0.234322652220726, -0.35167577862739563, 0.5450581312179565, 0.751156210899353, -0.3927706182003021, 1.3280632495880127, -0.41204243898391724, -0.031306859105825424, -0.2737070322036743, 0.2764865756034851, -0.23863796889781952, 0.23415806889533997, 0.03965339809656143, -0.6447418332099915, 0.5343804955482483, -0.05638701468706131], [0.09221391379833221, -0.04537089169025421, -0.16712720692157745, 0.11258212476968765, 0.2683872878551483, -0.09053447842597961, 0.09002497792243958, -0.26823899149894714, 0.10297732800245285, 0.18508242070674896, -0.07821425795555115, -0.2014954537153244, -0.03987947851419449, -0.17368783056735992, 0.1427001953125, 0.14269860088825226, -0.03598823770880699, 0.16584773361682892, 0.029647869989275932, 0.2334621548652649, 0.0695144459605217, -0.6189450025558472, 0.03531598299741745, 0.12367507070302963, -0.316858172416687, -0.08432384580373764, 0.25495877861976624, 0.13985082507133484, 0.1631360501050949, -0.08678710460662842, -0.06737389415502548, 0.08893725275993347], [-0.43340250849723816, -0.0031664653215557337, 0.6675629019737244, 0.02972518838942051, 0.5574814081192017, 0.07366722822189331, -0.20009711384773254, -0.8642376661300659, -0.24775704741477966, 0.39409443736076355, 1.5704599618911743, -0.39207011461257935, 0.11780597269535065, 0.07682792842388153, -0.18169435858726501, -0.45560282468795776, 0.34681686758995056, 1.307584285736084, 0.669533908367157, -0.27155187726020813, 0.5678450465202332, 1.4019052982330322, -0.723857581615448, 0.1557556390762329, -0.25170162320137024, 0.03109589032828808, 1.3207801580429077, 0.29205241799354553, 0.14117394387722015, -0.3498537838459015, -0.17538930475711823, -0.30745986104011536], [0.28841984272003174, -0.0257806908339262, 0.10595536231994629, 0.2214713990688324, 0.0758756697177887, -0.05144112557172775, 0.029962865635752678, 0.06498055160045624, 0.0003783466527238488, -0.10092311352491379, 0.0167811568826437, -0.13784396648406982, 0.044760603457689285, 0.025463595986366272, 0.06354965269565582, -0.029889557510614395, -0.014833498746156693, 0.245153546333313, 0.05474097654223442, 0.18062101304531097, 0.1069738045334816, 0.1370205134153366, -0.205262690782547, -0.09399612247943878, -0.3498266637325287, 0.11315186321735382, 0.2828681468963623, 0.015055635012686253, -0.11326904594898224, -0.5060107707977295, 0.04190504178404808, -0.12017012387514114], [-0.222476989030838, 0.10430600494146347, -0.05001808702945709, 0.5652973651885986, 0.2047397643327713, 0.1506572961807251, 0.1793803572654724, -0.8486961126327515, 0.5283626317977905, 0.38275423645973206, 0.35134729743003845, -0.6490428447723389, -0.05085836723446846, -0.13787353038787842, 0.40314772725105286, 0.40720808506011963, 0.24445751309394836, 0.8974081873893738, 0.08625613898038864, -0.10374437272548676, 0.23260216414928436, -0.4421987533569336, -0.18460553884506226, 0.38050347566604614, -0.7161489129066467, 0.23202748596668243, 0.8998938798904419, 0.7416583895683289, 0.34033265709877014, -0.6832545399665833, 0.1869833916425705, 0.25216835737228394], [0.911881148815155, 0.3582627773284912, 0.6978003978729248, -0.6078042387962341, -0.0284622423350811, -0.1614616960287094, -0.2906605899333954, 1.3608896732330322, -0.475648432970047, -0.6186555624008179, 0.8505754470825195, 0.45700162649154663, -0.05023477226495743, 0.5441611409187317, -0.3000427782535553, -0.4836105704307556, -0.1574903428554535, 0.18890400230884552, 1.5624136924743652, -0.5569453835487366, -0.1459275782108307, 0.9583848118782043, -0.3750244975090027, -0.41941213607788086, 0.49033698439598083, -0.06959236413240433, -0.02187558077275753, -0.46473428606987, -0.613723635673523, -0.2161458283662796, -0.37173354625701904, -0.20308081805706024], [0.10295026749372482, -0.4458546042442322, -0.15511758625507355, 0.17820462584495544, -0.2039673775434494, 0.09398716688156128, 1.1177458763122559, -0.5063089728355408, 0.25955188274383545, 0.17869609594345093, -1.1272552013397217, -0.2434156984090805, -0.22344033420085907, 0.13461638987064362, 0.5458482503890991, 0.7870738506317139, 0.01625836454331875, 1.6666713953018188, -0.6412933468818665, 0.5836066007614136, -0.5480424165725708, -1.674635648727417, -0.23461218178272247, 0.031892191618680954, 0.011656955815851688, -0.2555343508720398, -1.3830952644348145, 0.36566680669784546, 0.5795103311538696, 0.5101112723350525, 0.2580823600292206, 0.549606204032898], [-0.09100842475891113, -0.1412505805492401, -0.13020040094852448, -0.04419233649969101, -0.08886425197124481, 0.011760440655052662, -0.09027466177940369, -0.025094717741012573, -0.06284306198358536, 0.05343509837985039, -0.007250260561704636, 0.19020327925682068, 0.1421479731798172, 0.15533511340618134, -0.08651668578386307, -0.12106233090162277, -0.057744935154914856, -0.09974135458469391, -0.055639076977968216, -0.07276738435029984, 0.21177691221237183, 0.06829871982336044, -0.18555569648742676, 0.05702114850282669, 0.028200337663292885, -0.08838244527578354, 0.10298706591129303, -0.18673811852931976, 0.039995480328798294, 0.1066916286945343, -0.0820620059967041, -0.124857597053051], [-0.16953520476818085, -0.03893234208226204, 0.11241376399993896, 0.08578477054834366, 0.1481834352016449, 0.17311033606529236, 0.04547113552689552, -0.26912808418273926, 0.09125694632530212, 0.31624874472618103, 0.16926488280296326, -0.005237034987658262, -0.09634613990783691, 0.07012491673231125, 0.14348694682121277, -0.0768391415476799, 0.22476133704185486, -0.024424346163868904, -0.0908462405204773, -0.12995387613773346, 0.0023093323688954115, 0.12182758003473282, -0.2501160800457001, 0.14790396392345428, 0.07058680802583694, -0.1984216272830963, -0.19547607004642487, 0.03099864348769188, 0.25817182660102844, 0.39854198694229126, 0.09266190230846405, 0.22949127852916718], [0.24935142695903778, -0.19216123223304749, -0.04981574788689613, -0.2001170963048935, -0.389498233795166, -0.2939116656780243, -0.08229855448007584, -0.2085307389497757, -0.000945495325140655, -0.4435012638568878, -0.3971506357192993, 0.19658803939819336, -0.19021840393543243, 0.060250695794820786, -0.11475315690040588, -0.03506743535399437, -0.29337048530578613, -0.2645159065723419, -0.04676109924912453, -0.025074217468500137, -0.30558761954307556, -0.06084214150905609, 0.2993636727333069, 0.004622922278940678, 0.3983077108860016, 0.05282849073410034, -0.276876837015152, -0.06663277745246887, -0.15594163537025452, 0.007486305199563503, -0.23633994162082672, -0.21459820866584778], [1.85878586769104, -0.4168066382408142, -0.6621110439300537, 0.48784297704696655, 0.3147036135196686, 0.18690651655197144, 0.4695802927017212, -2.803231954574585, 0.5949968099594116, 0.5204285383224487, -0.8313043713569641, -0.5629738569259644, 0.07926058024168015, -0.14949844777584076, 0.5673497319221497, 0.3390609323978424, 0.4131377935409546, 0.33742639422416687, -0.9050225019454956, -0.4000212252140045, 0.03214065730571747, -0.6017782688140869, -0.22680096328258514, 0.4969750940799713, -0.9224851727485657, -0.07446612417697906, 0.13118404150009155, 0.8025457859039307, 0.6299224495887756, -0.20588243007659912, 0.3043152093887329, 0.16236326098442078], [0.01786842942237854, 0.02591458335518837, -0.598721981048584, 0.2808798551559448, 0.2078525573015213, 0.037077028304338455, 0.27889347076416016, 0.08368108421564102, 0.08718404173851013, 0.4209508001804352, -0.1586551070213318, -0.39793407917022705, 0.07239685207605362, -0.01662789285182953, 0.22994695603847504, 0.21023406088352203, 0.055461857467889786, -0.13121910393238068, -0.16196556389331818, -0.21041716635227203, 0.11871319264173508, -0.4323539733886719, 0.35364866256713867, 0.1522400826215744, -0.6467137932777405, 0.1098988875746727, 0.3442686200141907, 0.07527002692222595, 0.018316686153411865, 0.11068030446767807, 0.19194653630256653, 0.06287381052970886], [-0.11973267793655396, -0.27468329668045044, 0.22142167389392853, -0.017444226890802383, 0.023509269580245018, 0.07224725931882858, -0.06384235620498657, -0.5239855051040649, 0.1348065286874771, 0.23938634991645813, -0.023707833141088486, -0.24692721664905548, -0.6589798927307129, -0.4709336459636688, -0.031238624826073647, 0.1434870958328247, 0.014715518802404404, -0.3396780490875244, 0.3748229742050171, -0.3204587697982788, 0.11565256118774414, 0.3039054572582245, 0.09702182561159134, 0.2783404290676117, -0.2379707545042038, -0.4227469563484192, 0.011511517688632011, 0.14432664215564728, 0.10044378787279129, 0.31063905358314514, -0.08617114275693893, 0.34593072533607483], [-0.014957454986870289, -0.050325460731983185, 0.2651654779911041, 0.12935346364974976, -0.0438670888543129, 0.02038857527077198, -0.014354782178997993, -0.300468772649765, -0.1422845870256424, -0.04593254625797272, 0.08704572170972824, -0.25590863823890686, 0.16267135739326477, 0.027479590848088264, 0.1847756803035736, -0.03649352863430977, -0.0774572342634201, 0.05510026961565018, -0.11219039559364319, 0.03559005260467529, 0.04391889646649361, 0.4201721251010895, -0.2044781744480133, -0.19119778275489807, -0.362293004989624, 0.13955818116664886, 0.30971628427505493, 0.09438202530145645, -0.006903953850269318, -0.5784772634506226, 0.0660800188779831, -0.05154331400990486], [0.17602096498012543, -0.2940272092819214, 0.14044852554798126, -0.07005560398101807, -0.33374902606010437, -0.02428382821381092, -0.1982123851776123, -0.05608602985739708, 0.02562520280480385, -0.3013469874858856, 0.2625022530555725, 0.1450052112340927, -0.07582341879606247, 0.0003435635007917881, -0.013821916654706001, -0.07317157089710236, -0.1816527396440506, -0.02764100208878517, -0.14555299282073975, 0.00024097503046505153, -0.1695757657289505, 0.09990142285823822, -0.055113423615694046, -0.2099263072013855, 0.13412034511566162, 0.053201332688331604, -0.09272879362106323, -0.14220018684864044, -0.057091739028692245, -0.13404816389083862, -0.1173967570066452, -0.22298206388950348], [-0.0969412550330162, -0.17242613434791565, 0.3552365005016327, -0.18889220058918, -0.2369403839111328, -0.21185004711151123, -0.008461562916636467, 0.2586964964866638, -0.042389724403619766, -0.28184571862220764, 0.7173812985420227, 0.4015893042087555, -0.13370531797409058, 0.13998302817344666, -0.2373543083667755, -0.1354638785123825, -0.09853807091712952, 0.3532394766807556, -0.3509000539779663, -0.24858525395393372, -0.08704797923564911, -0.2535155415534973, -0.5615171790122986, -0.5504745841026306, 0.7598236799240112, 0.15141263604164124, -0.3737877607345581, -0.285689115524292, -0.12350792437791824, 0.5892648696899414, -0.17169050872325897, -0.07196817547082901], [0.06104772537946701, -0.19006282091140747, 0.15111272037029266, -0.13392773270606995, 0.1068153977394104, -0.12018951773643494, -0.13317929208278656, -0.12584999203681946, 0.21721301972866058, -0.09859040379524231, 0.08871546387672424, -0.12674419581890106, -0.11041020601987839, -0.06533532589673996, -0.0315994918346405, -0.07116162776947021, -0.09427205473184586, -0.040008559823036194, -0.20134064555168152, 0.13751620054244995, -0.11196105927228928, -0.007469174452126026, 0.3086632192134857, -0.09109299629926682, -0.065633125603199, -0.15212482213974, -0.07414282113313675, 0.0770394504070282, 0.0037906458601355553, -0.32034438848495483, 0.060031354427337646, -0.0451524518430233], [-0.5387978553771973, 0.2604849934577942, -1.0685802698135376, -0.9896901845932007, -0.3364897072315216, -0.5265141129493713, -1.2301007509231567, 1.700339913368225, -0.6329150795936584, -0.5051844716072083, -1.1200575828552246, 0.8629210591316223, -0.06676600128412247, 0.3332388699054718, -0.6036930680274963, -1.1690258979797363, -0.47183388471603394, 0.6861746907234192, 0.5431914329528809, -0.08245951682329178, 0.06778945028781891, 0.49970564246177673, 1.6675630807876587, -0.235323965549469, 0.20481058955192566, 0.5078736543655396, 0.16854794323444366, -0.5732631087303162, -0.9839959144592285, -1.4058568477630615, -0.44243738055229187, -0.8470904231071472], [-0.15385624766349792, 0.01700119487941265, -0.8139171004295349, -0.8826448321342468, -1.0140902996063232, -0.3381587862968445, -0.7275974750518799, -0.17399273812770844, -1.0886027812957764, 0.09633660316467285, -1.1200511455535889, 0.5539382100105286, -0.8849083185195923, -0.6165091395378113, -1.0730358362197876, -0.24479064345359802, -0.24158577620983124, 0.13858023285865784, 0.899053156375885, -0.1676250547170639, -0.4770430624485016, -1.2956877946853638, 0.7906519174575806, 0.4096461832523346, 0.3898788094520569, -0.3715244233608246, -0.6588296294212341, -0.36669957637786865, -0.5086662173271179, 0.41375723481178284, -0.14977452158927917, -0.18208108842372894], [-0.0032785343937575817, 0.17938488721847534, -0.31600940227508545, 0.14259016513824463, 0.0954597145318985, -0.02516244165599346, -0.21684186160564423, 0.5638891458511353, -0.0751558169722557, 0.23391026258468628, 0.01639648526906967, 0.062096189707517624, 0.04426385462284088, -0.05994073301553726, -0.09634450823068619, -0.038421329110860825, -0.06769366562366486, 0.11396533995866776, 0.49120742082595825, -0.038402676582336426, -0.058682892471551895, -0.10501109063625336, 0.23079396784305573, 0.3062571585178375, 0.04839571565389633, -0.0023204470053315163, 0.35610005259513855, 0.07161202281713486, 0.10142502188682556, 0.2541111707687378, -0.061534930020570755, 0.05560959875583649], [-0.3981578052043915, 0.21452635526657104, 0.8584712743759155, 0.4782803952693939, -0.022687016054987907, 0.8460123538970947, 0.9923244714736938, -0.8641171455383301, -0.12532766163349152, 0.2203700989484787, -0.41693851351737976, -0.34994953870773315, 0.16423960030078888, 0.1292196363210678, 0.3195917010307312, 0.12504807114601135, 0.20545044541358948, 0.012255681678652763, -0.006592492572963238, 0.7846192717552185, 0.10470190644264221, 0.6922388672828674, -0.8069483041763306, -0.12359025329351425, -0.6183741092681885, 0.1633986085653305, -0.4165109097957611, 0.19289185106754303, 0.3822009265422821, -0.46811985969543457, 0.6396830677986145, 0.18944334983825684], [0.4552038311958313, -0.19367140531539917, -0.9959470629692078, 0.8260648250579834, 0.34620219469070435, 0.228306382894516, 0.666573703289032, 0.38959282636642456, 0.4633321166038513, 0.4133688509464264, -0.508747935295105, -0.6255810260772705, -0.07077322900295258, 0.20685893297195435, 0.3783178925514221, 1.0383875370025635, -0.3690969944000244, -1.0534578561782837, -0.33481958508491516, -1.8622807264328003, 0.8399826884269714, 0.6104607582092285, 1.4039301872253418, 0.7977092266082764, -0.9713780283927917, -0.0926322415471077, 0.7591611742973328, 0.46317991614341736, 0.18094630539417267, -1.0257023572921753, 0.4624450206756592, -0.0014085668371990323], [0.36436647176742554, -0.25080549716949463, 0.1592683047056198, 0.035797614604234695, -0.2710078954696655, -0.11203277856111526, 0.3654332756996155, -0.40813231468200684, 0.03266369551420212, -0.35095474123954773, 0.036160800606012344, 0.17822933197021484, 0.02418031543493271, 0.014909482561051846, 0.13063356280326843, 0.10952203720808029, -0.1619403213262558, -0.2644748091697693, -0.3183063864707947, -0.23912660777568817, -0.18171855807304382, 0.3537236750125885, 0.2340133786201477, -0.46322405338287354, -0.15675221383571625, 0.20624808967113495, -0.07688320428133011, 0.049115151166915894, -0.11010601371526718, -0.6711284518241882, -0.04456257447600365, -0.342840313911438], [-0.3854902684688568, 0.09975474327802658, -0.11214135587215424, 0.1650649458169937, 0.19612736999988556, 0.1285553127527237, -0.04318482428789139, 0.0987958237528801, 0.08964871615171432, 0.14116165041923523, 0.34306636452674866, -0.013326096348464489, 0.00887521542608738, 0.1514972597360611, 0.08721186220645905, -0.08679386973381042, 0.24089118838310242, 0.264951229095459, 0.0729980394244194, -0.2262478619813919, 0.3242952227592468, 0.08056933432817459, -0.21763549745082855, 0.17912545800209045, -0.1344577968120575, 0.01274152658879757, 0.07441387325525284, 0.09129822999238968, 0.21146637201309204, 0.2116721123456955, 0.24861660599708557, 0.1660793572664261], [0.0921032503247261, -0.2788645625114441, 0.12490060180425644, -0.7538626194000244, -0.40270939469337463, -0.3481057286262512, -1.1682912111282349, 0.5047025680541992, -0.2673996686935425, -0.295123428106308, 0.5189619660377502, 0.7862633466720581, -0.6810449957847595, -0.7898576855659485, -0.830520749092102, -0.44724971055984497, -0.28946030139923096, -1.2082207202911377, 0.08581961691379547, -0.4095052480697632, 0.10938500612974167, 0.23524105548858643, 0.8334352374076843, -0.08181232213973999, 0.869788408279419, -0.34020623564720154, -0.2957025170326233, -0.42221128940582275, -0.337242066860199, 0.2614290416240692, -0.5330296158790588, -0.11200466752052307], [0.3626289367675781, 0.16191482543945312, 0.17987196147441864, 0.11422699689865112, -0.1991608887910843, 0.34709006547927856, 0.7638596892356873, -0.8971229195594788, -0.15532629191875458, -0.278329461812973, -0.8544219136238098, -0.2828843295574188, 0.4534246623516083, 0.3100469410419464, 0.34141749143600464, -0.08060429990291595, -0.014863369055092335, -0.2434842735528946, 0.1651521772146225, 0.3791140615940094, -0.3648308217525482, 0.34161120653152466, -0.07334420084953308, -0.11792786419391632, -0.3724243640899658, 0.2681170403957367, -0.4022591710090637, 0.11514883488416672, -0.13678918778896332, -0.9196173548698425, 0.20068971812725067, -0.1061403900384903], [0.5857829451560974, 0.6642345786094666, -0.10310757905244827, 0.0331147126853466, 0.021651359274983406, -0.1581134796142578, 0.2553335428237915, 0.7654336094856262, -0.16163308918476105, -0.14374610781669617, -0.0949498862028122, -0.05827454477548599, 0.6800654530525208, 0.6716669201850891, 0.3057951331138611, 0.002144511789083481, 0.03707679361104965, 0.07244563847780228, 0.808744490146637, -0.23288458585739136, -0.18491283059120178, 0.42673638463020325, -0.13132764399051666, -0.08308473974466324, -0.15006515383720398, 0.7811918258666992, 0.8168229460716248, 0.370819628238678, -0.36177727580070496, -0.7255907654762268, 0.055788397789001465, 0.08245444297790527], [0.21144342422485352, 0.24607817828655243, -0.49578648805618286, 0.09795162826776505, 0.24982894957065582, 0.14236487448215485, -0.016134800389409065, 0.29780155420303345, 0.04017182067036629, 0.1366271674633026, -0.4865654706954956, -0.47722238302230835, 0.11490333825349808, -0.028869587928056717, 0.07968970388174057, 0.18105337023735046, 0.07306579500436783, 0.07642550766468048, 0.740100085735321, 0.14380581676959991, -0.04210994765162468, -0.5584498643875122, 0.34941327571868896, 0.4539133310317993, -0.7160444855690002, 0.18012277781963348, 0.8481448888778687, 0.3403516113758087, -0.08569615334272385, -0.385426789522171, 0.2705250084400177, -0.018563738092780113]], "b": [-0.22586873173713684, 0.0048520066775381565, -0.13566292822360992, 0.07903781533241272, 0.20728471875190735, 0.09077216684818268, 0.09985917806625366, -0.02091476321220398, 0.12130381911993027, 0.27759209275245667, -0.11846200376749039, -0.0584632009267807, -0.054856881499290466, 0.12171394377946854, -0.060055870562791824, -0.06692487001419067, 0.23243871331214905, -0.08251453191041946, 0.15542180836200714, -0.039185475558042526, 0.15840137004852295, -0.061288341879844666, -0.010578056797385216, 0.11577706784009933, 0.07737691700458527, 0.057996224611997604, -0.13396815955638885, -0.11790865659713745, 0.2586081326007843, 0.17458602786064148, 0.01774345524609089, 0.08547123521566391]}, {"w": [[-0.4566745162010193, 0.05905110016465187, -0.27625706791877747, 0.2660500109195709, -0.18343648314476013, -2.0465574264526367, 0.22780919075012207, 0.053623609244823456, 0.038168765604496, -0.026564348489046097, 0.11618615686893463, -0.013284560292959213, -0.24571414291858673, -0.09318704903125763, -0.1628788858652115, -0.7236695885658264], [0.34102630615234375, -0.05459347367286682, -0.03303082659840584, 0.2282869517803192, 0.20133644342422485, 0.057311177253723145, 0.3802123963832855, 0.0068084681406617165, -0.0323423370718956, -0.11350979655981064, 0.06022467464208603, -0.16862446069717407, -0.25363412499427795, 0.13492923974990845, -0.16624921560287476, 0.20574967563152313], [-0.23777352273464203, -0.14111043512821198, -0.436644583940506, -0.14843252301216125, 0.40983524918556213, 0.8754065036773682, -0.04802859574556351, -0.0675743892788887, -0.024379536509513855, 0.001298379385843873, 0.09072010964155197, -0.13510450720787048, -0.7409008145332336, 0.1500694751739502, -0.1039380431175232, 0.6758919358253479], [0.16698193550109863, -0.0380224883556366, 0.04566042497754097, 0.233866885304451, 0.15813425183296204, -0.04357536509633064, -0.2252780646085739, 0.06527453660964966, 0.011520019732415676, -0.1896381974220276, -0.19744771718978882, -0.1736345887184143, -0.05494748055934906, -0.006729640997946262, 0.04796003922820091, 0.5184928178787231], [0.11692358553409576, -0.03189924731850624, 0.4896045923233032, 0.6600760817527771, 0.09589193016290665, 0.3231551945209503, 0.29249709844589233, -0.09845711290836334, -0.05244702845811844, 0.002234828658401966, -0.19500628113746643, -0.07814125716686249, 0.19092559814453125, -0.15827101469039917, -0.004005078691989183, -0.24715885519981384], [0.1616632342338562, 0.01292810495942831, -0.3836122155189514, -0.28504613041877747, 0.16902923583984375, 0.28681838512420654, 0.007639091461896896, -0.04830488935112953, 0.11086999624967575, -0.2067045271396637, -0.16491249203681946, 0.12316717952489853, -0.02613571099936962, -0.0842028558254242, -0.1018226146697998, 0.2670801877975464], [0.08579833805561066, -0.019882598891854286, -0.04333191365003586, -0.9635365009307861, -0.1253420114517212, -0.091547891497612, 0.214920774102211, -0.10968416184186935, -0.16835589706897736, -0.14158503711223602, 0.024846114218235016, 0.03641856834292412, -0.5291875600814819, -0.058238063007593155, 0.07919567823410034, 0.7378479838371277], [0.2877216339111328, 0.07060540467500687, -0.04891634359955788, 0.544024646282196, -0.6948443055152893, -1.7194509506225586, 0.6325089931488037, -0.17708720266819, 0.054662954062223434, -0.10124710202217102, -0.15226112306118011, -0.022795742377638817, 0.9511566162109375, -0.003687064629048109, -0.11449724435806274, -0.847483217716217], [-0.13453896343708038, 0.11650446802377701, 0.30152565240859985, 0.19697006046772003, 0.4354774057865143, 0.1380673050880432, 0.13803693652153015, -0.014138873666524887, -0.1433081477880478, 0.043157875537872314, -0.16280364990234375, 0.003875121008604765, -0.03272440657019615, -0.170119509100914, -0.18904437124729156, -0.4154081642627716], [0.1647188663482666, -0.07188277691602707, -0.1363822966814041, 0.3156956434249878, -0.2757725715637207, 0.20634068548679352, -0.1950894594192505, 0.008244886063039303, -0.18556632101535797, -0.04392780736088753, -0.11539256572723389, 0.03763860464096069, 0.21748386323451996, 0.007000690791755915, 0.015862317755818367, 0.3081030249595642], [2.3018875122070312, -0.16708984971046448, -0.6473552584648132, 1.501948595046997, 0.15981048345565796, 0.9834922552108765, -0.14545896649360657, -0.08868047595024109, -0.03613001108169556, -0.1710376888513565, -0.16228589415550232, -0.02927463874220848, -3.0628902912139893, -0.0731966570019722, -0.10710515826940536, 0.3536339998245239], [-0.8048197031021118, -0.0903736874461174, -0.47599977254867554, -0.7783697247505188, -0.25288456678390503, -0.1179557740688324, 0.41109952330589294, 0.06524159014225006, 0.05511562153697014, -0.17191515862941742, -0.03003406524658203, -0.14270104467868805, 0.14734487235546112, -0.06648895144462585, -0.00024389129248447716, -0.27271541953086853], [-0.008124815300107002, -0.08426018059253693, 0.6181994080543518, -0.048519790172576904, -0.5640546083450317, 0.051957037299871445, 0.5552663207054138, -0.200500026345253, 0.09320354461669922, -0.14397473633289337, -0.004969180095940828, -0.13880465924739838, -0.458329439163208, -0.11136740446090698, 0.08711133897304535, -0.04606916382908821], [-0.24698297679424286, 0.09923151880502701, 0.5265867114067078, -0.03229878470301628, 0.15032872557640076, 0.06731794774532318, 0.2432689666748047, -0.2125520408153534, 0.013180027715861797, -0.20799200236797333, -0.133192241191864, -0.15120339393615723, -0.5908195376396179, -0.06124568730592728, -0.1371874064207077, -0.29823026061058044], [0.34408822655677795, -0.11359761655330658, 0.25615108013153076, 0.48291534185409546, 0.20350536704063416, 0.4155493974685669, -0.04973974451422691, -0.14965049922466278, -0.04644307121634483, -0.007816219702363014, 0.0849551260471344, -0.03681890293955803, -0.12556952238082886, -0.1853775829076767, -0.1866380125284195, -0.3463464081287384], [0.1089463084936142, -0.017087077721953392, 0.4502331018447876, -0.062471650540828705, 0.07154766470193863, -0.2853924632072449, 0.16930794715881348, -0.1036243662238121, -0.04091816395521164, 0.018675552681088448, -0.0968782901763916, -0.19349464774131775, 0.13473576307296753, -0.10233990848064423, 0.015010836534202099, 0.06542465090751648], [-0.13405567407608032, -0.03784376010298729, -0.26794514060020447, 0.12355110049247742, 0.11436226963996887, 0.31213250756263733, -0.21882334351539612, -0.0622917115688324, -0.10263259708881378, -0.07601936161518097, -0.07947348058223724, -0.06439761817455292, 0.016463089734315872, -0.009784674271941185, -0.16957826912403107, 0.15461082756519318], [0.15411852300167084, -0.10686042159795761, 0.138539656996727, -0.19342978298664093, 0.8137505054473877, 0.7230623364448547, -0.5526555776596069, -0.07432451099157333, -0.015782659873366356, -0.07157579809427261, 0.13403518497943878, -0.06564057618379593, -0.2665724754333496, 0.10658477991819382, 0.13919954001903534, 0.9854609966278076], [0.6906626224517822, 0.07926791906356812, 0.33747702836990356, 0.49697381258010864, -0.48453184962272644, -0.14460988342761993, 0.39800092577934265, 0.03750311955809593, -0.04338020831346512, -0.06539439409971237, 0.12083234637975693, 0.14060944318771362, 0.2793988585472107, 0.1368185579776764, -0.12614735960960388, -0.3054124414920807], [-0.4150976538658142, -0.07385523617267609, -0.3017408549785614, -0.15326689183712006, -0.34762805700302124, 0.9423258900642395, -0.23052656650543213, -0.15449711680412292, 0.11864321678876877, -0.16375906765460968, -0.05028214678168297, 0.11082969605922699, -0.646578311920166, -0.1396249234676361, 0.08040384203195572, 0.41326209902763367], [-0.058547694236040115, -0.009645689278841019, 0.011371791362762451, 0.18592195212841034, 0.15765435993671417, -0.15100564062595367, 0.32388266921043396, -0.016804412007331848, 0.07261060178279877, -0.1457987129688263, -0.12625752389431, 0.10034722834825516, 0.1763313263654709, 0.06512527912855148, -0.1877514272928238, 0.27892905473709106], [-0.3812127113342285, -0.12385793030261993, -0.3056100010871887, -0.2614153027534485, 0.5783680081367493, 1.2046911716461182, -0.028927022591233253, -0.03861721605062485, -0.17209595441818237, -0.07652439177036285, -0.11877988278865814, -0.021083638072013855, -1.276222586631775, -0.12060244381427765, -0.15362341701984406, -0.030350442975759506], [0.30540215969085693, -0.01828998327255249, 0.44166770577430725, 0.1695205420255661, -0.24972085654735565, -1.3166331052780151, 0.06877254694700241, 0.004682505968958139, -0.030536813661456108, 0.11739115417003632, -0.0077352519147098064, -0.08940865844488144, 0.859266996383667, -0.15826986730098724, -0.02512396313250065, 0.09415894001722336], [0.35482069849967957, 0.024471590295433998, 0.3130302131175995, 0.5825720429420471, -0.24187146127223969, -0.02353893592953682, 0.004754203371703625, 0.13187240064144135, -0.13888119161128998, -0.13122273981571198, 0.07283614575862885, 0.01442792359739542, 0.2640625536441803, -0.034757718443870544, 0.004101240076124668, -0.2454422265291214], [-0.8857923150062561, -0.007166598457843065, 0.322498083114624, -0.9650745987892151, -0.29612961411476135, -0.20159383118152618, 0.5280846357345581, 0.06564246118068695, -0.05871275067329407, 0.015142190270125866, 0.057299938052892685, -0.15183867514133453, 0.19775572419166565, -0.11803540587425232, 0.0731501504778862, 0.09238915890455246], [-0.05500882863998413, -0.06627048552036285, -0.0835539698600769, 0.2126428186893463, 0.09925967454910278, -0.33472463488578796, 0.2531616687774658, -0.14028102159500122, -0.17104096710681915, -0.10773314535617828, -0.10741306841373444, -0.07698298245668411, -0.2758640944957733, -0.15980283915996552, 0.10512503236532211, 0.37097448110580444], [2.9985194206237793, 0.051761824637651443, 0.36430561542510986, 2.6154580116271973, 1.6372742652893066, 0.8028554320335388, -0.4648205637931824, -0.1442135125398636, 0.04579342156648636, -0.04855746030807495, -0.1664721965789795, -0.06607942283153534, -0.9125875234603882, -0.16455766558647156, -0.015922756865620613, 0.46107977628707886], [0.6775998473167419, -0.04564076289534569, 0.1831856518983841, 0.24057938158512115, 1.1652405261993408, 0.742011547088623, -0.801628053188324, -0.05436783656477928, -0.12682320177555084, -0.2025137096643448, -0.1835917979478836, -0.07171767950057983, 0.13599427044391632, -0.1210293397307396, -0.08457773178815842, 0.26912984251976013], [-0.29974693059921265, -0.09757374227046967, 0.05807928740978241, -0.04989133030176163, 0.11303845047950745, 0.37412214279174805, -0.25360292196273804, -0.13028092682361603, 0.14256151020526886, 0.10253094136714935, -0.08525323122739792, -0.19958145916461945, 0.13530698418617249, 0.11779388040304184, -0.01906801201403141, 0.29486608505249023], [-0.7734556198120117, -0.12971431016921997, 0.6781036257743835, -0.8359783291816711, 0.09931871294975281, 0.013422716408967972, -0.09993138164281845, 0.01812012866139412, 0.10168115794658661, 0.10246290266513824, -0.028175879269838333, 0.0374101921916008, 0.9045926332473755, 0.07383999228477478, -0.09407465159893036, -0.024057986214756966], [0.4669017195701599, -0.03728487715125084, -0.3410719633102417, -0.10909426212310791, 0.14976221323013306, 0.27730298042297363, 0.05826996639370918, -0.00974426232278347, -0.15161068737506866, -0.07851871848106384, -0.10828633606433868, 0.11464095860719681, 0.050226785242557526, -0.06965324282646179, -0.05554177984595299, 0.6133992671966553], [0.09137637168169022, -0.16684670746326447, 0.18823297321796417, 0.16615715622901917, -0.11288377642631531, 0.2785349190235138, -0.15386739373207092, 0.09911799430847168, -0.1969507485628128, 0.06947033852338791, -0.16923551261425018, -0.1293206810951233, 0.12418266385793686, -0.1439441740512848, -0.2206900417804718, 0.29655084013938904]], "b": [0.11649362742900848, -0.07377829402685165, 0.17451545596122742, 0.06873844563961029, 0.1271197646856308, -0.17079545557498932, -0.004304209258407354, -0.19653059542179108, -0.11027183383703232, 0.03581923991441727, -0.15642432868480682, -0.18468084931373596, 0.23953399062156677, 0.06907325237989426, -0.03501526266336441, 0.03412746638059616]}, {"w": [[-0.056466128677129745, 2.451451063156128, -1.578880786895752, -2.2585198879241943], [-0.08008436858654022, 0.09058277308940887, 0.1192459687590599, 0.21722327172756195], [0.5886549949645996, -0.029940389096736908, 0.5408633351325989, -0.1479177474975586], [-0.15540647506713867, 0.8343213796615601, 0.5425697565078735, -4.639220714569092], [0.09045428782701492, 0.8892648816108704, -0.05828950181603432, -1.087143063545227], [-0.2886848747730255, 1.4689053297042847, -0.542730987071991, -1.858393669128418], [-0.5668365955352783, -0.5675593018531799, 0.6178955435752869, 0.4543987512588501], [0.12779374420642853, -0.05372941493988037, -0.06735783815383911, -0.018527844920754433], [0.16182240843772888, -0.21153683960437775, 0.1626845747232437, 0.03596687689423561], [0.049384262412786484, -0.13829094171524048, -0.2164272964000702, 0.12984409928321838], [-0.06729761511087418, -0.2501774728298187, -0.13582319021224976, 0.06806522607803345], [0.22207041084766388, -0.01308099739253521, 0.20308679342269897, -0.15706121921539307], [4.0727925300598145, 0.5011382102966309, -0.11455341428518295, -0.3373889923095703], [-0.10151032358407974, -0.04185764491558075, 0.2237076461315155, 0.1392616629600525], [-0.08228319883346558, -0.16699132323265076, 0.011758612468838692, -0.15426865220069885], [0.08972243964672089, 0.3773973286151886, -0.6937168836593628, 0.5112665891647339]], "b": [0.23504458367824554, 0.002261391608044505, -0.23570948839187622, -0.05167372152209282]}], "architecture": [60, 32, 16, 4]}, "damage_aoe": {"layers": [{"w": [[-0.003361599985510111, -0.0438246913254261, -0.1549306958913803, 0.08854106068611145, -0.03427508845925331, 0.11030877381563187, -0.42899760603904724, 0.0159952063113451, 0.00034933790448121727, 0.02318035438656807, 0.0059126075357198715, 0.0713440477848053, 0.10349114239215851, -0.13461622595787048, -0.0502067469060421, -0.17458845674991608, 0.04211480915546417, 0.04493905231356621, 0.01622416265308857, 0.11315213143825531, -0.03369046002626419, 0.07154615223407745, 0.10108727216720581, -0.054143015295267105, 0.03948415070772171, 0.079490527510643, 0.007254238706082106, -0.03544458746910095, 0.10803085565567017, -0.04102686792612076, -0.04215695336461067, 0.026608197018504143], [0.08158109337091446, -0.10865958034992218, -0.09141985327005386, 0.07532358169555664, 0.10171417891979218, 0.0017885483102872968, 0.11689054220914841, -0.031682804226875305, 0.0969245657324791, 0.022388283163309097, 0.08276940882205963, 0.03663009777665138, 0.14393658936023712, 0.04351542890071869, -0.040993232280015945, -0.08080065995454788, 0.1846674084663391, 0.10161559283733368, 0.3323083817958832, -0.09191040694713593, -0.02853877656161785, -0.006431553978472948, 0.14829961955547333, -0.04715081676840782, 0.13162007927894592, -0.071600042283535, 0.03676603361964226, -0.0648406520485878, -0.07738837599754333, -0.06302382797002792, 0.05584298446774483, -0.0936599150300026], [-0.14944341778755188, 0.08525320142507553, -0.2850091755390167, 0.15919271111488342, -0.1279807835817337, 0.27385714650154114, 0.09901750087738037, -0.2707143723964691, -0.053847819566726685, -0.2126913219690323, -0.08547215908765793, 0.25694167613983154, 0.13932813704013824, -0.10221660882234573, -0.05506337434053421, 0.22073231637477875, 0.3152291476726532, 0.12234197556972504, -0.06388747692108154, 0.033507928252220154, 0.2784435451030731, -0.26316332817077637, -0.3030988574028015, 0.17992766201496124, 0.09002681821584702, 0.12410055845975876, 0.16894833743572235, -0.023396749049425125, 0.09832164645195007, -0.24482740461826324, -0.022670557722449303, -0.10532878339290619], [0.03851980343461037, -0.12749083340168, -0.0066408561542630196, 0.059305887669324875, -0.048803795129060745, 0.43791449069976807, -0.013258633203804493, -0.04284399002790451, -0.19694404304027557, 0.10374215990304947, -0.005029275082051754, 0.19203267991542816, 0.13189806044101715, -0.11391866952180862, 0.016260413452982903, 0.07853151857852936, -0.660307765007019, 0.061113737523555756, 0.1760365515947342, -0.01300287339836359, 0.23007801175117493, -0.061171796172857285, -0.20218031108379364, 0.6720508337020874, 0.10007842630147934, 0.10750653594732285, 0.22905604541301727, -0.06169477477669716, -0.019199788570404053, -0.27717798948287964, -0.027867747470736504, -0.049966055899858475], [-0.4833682179450989, -0.12506143748760223, 0.13782407343387604, 0.07169786095619202, -0.2544352114200592, -0.28389137983322144, -0.11083846539258957, -0.6004380583763123, -0.10313651710748672, 0.2946750521659851, 0.08914893120527267, -0.13249267637729645, -0.13670916855335236, -0.08711729198694229, -0.13080644607543945, -0.3127445578575134, -0.09253133833408356, -0.08977437764406204, -0.05372149124741554, -0.04115629941225052, -0.027784664183855057, -0.010845860466361046, -0.029678156599402428, 0.28221261501312256, 0.11850059777498245, -0.047125495970249176, 0.01006990298628807, 0.19347016513347626, -0.11971486359834671, -0.20675764977931976, 0.08981340378522873, -0.0909973680973053], [-0.2459573596715927, -0.09074173122644424, 0.11570221185684204, -0.04906558245420456, 0.0393623411655426, -0.21258483827114105, -0.238436758518219, -0.0559554249048233, 0.0253389123827219, -0.13482491672039032, 0.011910384520888329, 0.1014494076371193, 0.001366314711049199, -0.13432662189006805, 0.051930759102106094, -0.12907667458057404, 0.024936381727457047, 0.13175910711288452, 0.037598684430122375, 0.005257438402622938, 0.037730515003204346, 0.04469585791230202, 0.08409149199724197, 0.1756945252418518, -0.0401521697640419, 0.09760822355747223, 0.03422049805521965, 0.05635423958301544, 0.060070477426052094, 0.07139966636896133, 0.06760095804929733, -0.11245064437389374], [0.04865916445851326, 0.1108594760298729, 0.05615851283073425, 0.13182011246681213, 0.03555852919816971, -0.025037335231900215, -0.18227167427539825, 0.020111355930566788, 0.07911369949579239, 0.06280846893787384, 0.022216424345970154, -0.04388007894158363, -0.010997929610311985, -0.11066140234470367, -0.03431485593318939, 0.041683636605739594, -0.0037773798685520887, 0.11610003560781479, -0.0008002223912626505, 0.12004274874925613, 0.20789779722690582, 0.07508521527051926, 0.03526968136429787, -0.021851027384400368, -0.03736168518662453, 0.1283971071243286, 0.1313224732875824, 0.13141272962093353, 0.11156518757343292, 0.06677540391683578, 0.06970217823982239, -0.04171614721417427], [-0.7579687237739563, 0.08809982985258102, -0.164845272898674, -0.13452467322349548, 0.17490516602993011, -0.21694426238536835, 0.20231616497039795, -0.10426931083202362, -0.060360781848430634, 0.27462488412857056, -0.5995602011680603, 0.08290063589811325, 0.006237386260181665, 0.12123800069093704, -0.01729903183877468, 0.4192468523979187, 0.15550433099269867, 0.03063582256436348, 0.3825743496417999, 0.3739488124847412, -0.035628803074359894, 0.14212238788604736, 0.13208819925785065, 0.4847017824649811, 0.04379339888691902, 0.07004866749048233, -0.1059597060084343, -0.5171406269073486, -0.14278607070446014, -0.4627467691898346, -0.029799869284033775, -0.01856658048927784], [-0.03421958163380623, 0.09107435494661331, -0.03812086582183838, -0.14089065790176392, -0.10395582765340805, 0.15075814723968506, 0.44812148809432983, -0.04173460230231285, 0.06572600454092026, -0.05569973215460777, -0.0566684789955616, -0.10357796400785446, -0.12689916789531708, 0.07590655982494354, -0.009167973883450031, 0.000565124792046845, 0.08706589043140411, -0.04488563910126686, 0.13636678457260132, 0.10037139803171158, 0.043543461710214615, -0.020939763635396957, 0.11962350457906723, -0.034595850855112076, 0.11973800510168076, 0.016933539882302284, -0.04808161035180092, -0.024485137313604355, -0.028767229989171028, -0.12007491290569305, -0.039119377732276917, 0.06764407455921173], [-0.5022649168968201, 0.10427152365446091, 0.06975747644901276, 0.040546152740716934, -0.1549568474292755, -0.031817253679037094, 0.34705066680908203, 0.04443015158176422, -0.08708063513040543, 0.11818685382604599, 0.08936714380979538, 0.04099440574645996, 0.03744722902774811, 0.12042982131242752, 0.07591324299573898, 0.01989128068089485, -0.19470180571079254, 0.03694085776805878, -0.12379098683595657, -0.036208607256412506, 0.16702312231063843, 0.03336651250720024, -0.04073840007185936, 0.09318612515926361, -0.05000802502036095, 0.03383113816380501, -0.10022687911987305, 0.1626470535993576, -0.08719748258590698, -0.06614556163549423, -0.03452708572149277, 0.06247914209961891], [0.11699696630239487, -0.06335912644863129, -0.009356817230582237, -0.04975151643157005, -0.1206301674246788, 0.08438233286142349, -0.4816788136959076, -0.14443589746952057, 0.11716646701097488, -0.007782474160194397, -0.16033898293972015, 0.005771415773779154, 0.06322254985570908, -0.06590388715267181, -0.0844225063920021, 0.05242740362882614, 0.21645551919937134, 0.13959473371505737, 0.07230611890554428, -0.04048200696706772, -0.018457379192113876, 0.04874247685074806, 0.12992064654827118, -0.018197108060121536, -0.106901615858078, -0.03366655111312866, -0.03315477818250656, 0.13848009705543518, 0.025051143020391464, -0.09852466732263565, 0.021805159747600555, -0.0017839893698692322], [0.1714297980070114, -0.0757843405008316, 0.0190015509724617, 0.04832761734724045, 0.07171130180358887, 0.10212152451276779, 0.10886432230472565, -0.0046225725673139095, 0.09469471126794815, -0.12182434648275375, -0.013892832212150097, 0.08672654628753662, 0.11189449578523636, -0.0557430237531662, -0.12369005382061005, -0.015431065112352371, 0.0232910867780447, 0.07335414737462997, 0.29938235878944397, -0.032766349613666534, -0.07982157170772552, 0.08546186238527298, 0.01610446348786354, -0.019574565812945366, -0.10630922764539719, -0.01613355055451393, -0.065224289894104, -0.02367340587079525, 0.09455153346061707, 0.1641893833875656, 0.030207175761461258, -0.03104550763964653], [-0.04359254986047745, -0.08349312841892242, -0.1283075511455536, 0.16130337119102478, 0.04055685177445412, 0.22927320003509521, -0.14635790884494781, 0.006010108161717653, 0.06088848412036896, 0.0725376307964325, 0.1173824593424797, 0.06713270395994186, 0.005388977471739054, -0.04767554625868797, -0.09829231351613998, 0.050986405462026596, -0.006164039019495249, -0.0191696435213089, 0.15689624845981598, 0.009901355020701885, 0.2022271454334259, 0.14913590252399445, 0.006766283418983221, -0.10350026190280914, -0.06276296824216843, -0.003732498036697507, 0.09702548384666443, -0.11922741681337357, -0.013669876381754875, 0.11419422924518585, 0.11291255056858063, -0.02887466736137867], [0.025973111391067505, 0.0448479987680912, -0.0819777175784111, 0.07380831241607666, 0.04806676134467125, -0.02895100601017475, 0.11781128495931625, -0.037411779165267944, 0.05426720529794693, -0.04578873887658119, 0.020545674487948418, -0.08729924261569977, 0.1214231327176094, 0.002654416486620903, -0.09968597441911697, 0.03988174721598625, -0.028877582401037216, 0.0674014762043953, 0.1734803318977356, 0.00759168341755867, -0.04196074977517128, 0.032483771443367004, -0.008992170915007591, -0.00228908471763134, 0.021687254309654236, 0.0538385845720768, 0.11175831407308578, -0.0437183640897274, -0.05847969278693199, -0.06482628732919693, 0.13654303550720215, -0.11163316667079926], [-0.12123285233974457, 0.052862748503685, -0.09359244257211685, 0.1781630516052246, -0.022825447842478752, 0.049643587321043015, -0.17199349403381348, 0.05195325240492821, -0.0719776377081871, 0.10589353740215302, 0.06817235797643661, 0.08834371715784073, -0.08944623172283173, -0.09753245860338211, -0.06614712625741959, 0.33226442337036133, 0.11804191023111343, -0.008445476181805134, -0.11945540457963943, 0.03744945675134659, 0.18759460747241974, 0.0818466916680336, 0.05886505916714668, -0.27180734276771545, -0.01572074554860592, 0.12226635962724686, -0.11158718168735504, 0.1724068522453308, 0.11516362428665161, 0.16254010796546936, -0.06850320100784302, 0.09445386379957199], [0.0696302205324173, 0.02820223569869995, -0.09530936926603317, -0.05756895989179611, 0.08139945566654205, -0.10200096666812897, -0.07696156203746796, -0.12190514802932739, 0.12535415589809418, -0.04265514388680458, 0.013869195245206356, 0.08016743510961533, -0.03850869834423065, 0.019923187792301178, 0.10733723640441895, -0.04915831610560417, -0.004752845037728548, -0.004825472366064787, -0.05187110975384712, -0.12283622473478317, -0.08676749467849731, 0.11042971163988113, 0.060697924345731735, -0.003569016931578517, -0.03623685985803604, -0.013664339669048786, -0.07871388643980026, 0.011905255727469921, -0.08759383857250214, -0.08146046847105026, -0.06280338019132614, 0.12192443758249283], [0.10616093873977661, -0.10454805195331573, -0.11577059328556061, -0.06487634778022766, 0.12805767357349396, -0.03877408057451248, -0.08269613981246948, 0.12573853135108948, -0.06357266008853912, 0.13247142732143402, -0.06100509315729141, -0.07075976580381393, 0.051519475877285004, -0.08710800111293793, -0.10513263940811157, 0.08830148726701736, -0.09212661534547806, -0.08754053711891174, 0.0953444093465805, 0.012128361500799656, 0.024645961821079254, 0.045311469584703445, -0.014406949281692505, 0.06740842759609222, -0.06351112574338913, 0.05131690576672554, 0.13080178201198578, 0.12985333800315857, -0.02777605876326561, 0.02641262114048004, 0.01100880280137062, -0.12494854629039764], [0.012893925420939922, 0.01207070704549551, 0.10077585279941559, -0.01725180819630623, 0.04451195150613785, 0.031730931252241135, -0.022199148312211037, 0.025573423132300377, 0.006716837175190449, 0.04009099304676056, 0.11238688975572586, -0.08817051351070404, 0.03484157845377922, 0.021476995199918747, -0.07988595962524414, -0.11398565024137497, -0.03999899700284004, -0.0039747245609760284, -0.013156857341527939, -0.04322730377316475, 0.04018182307481766, -0.024144625291228294, 0.11965595185756683, 0.13035574555397034, 0.03534206748008728, 0.007517198566347361, -0.05801163613796234, -0.0992216244339943, -0.11315780878067017, -0.12178852409124374, 0.017191624268889427, -0.1297193020582199], [-0.432620108127594, -0.07210378348827362, -0.6642866134643555, -0.011857091449201107, -0.06598040461540222, -0.031948335468769073, -0.3503400385379791, 0.2817722260951996, -0.07546960562467575, -0.15611210465431213, 0.09844937175512314, -0.07140089571475983, 0.0897500216960907, 0.12450842559337616, -0.1107921227812767, 0.21572598814964294, -0.20053642988204956, 0.018344005569815636, -0.043312642723321915, -0.005330650135874748, -0.012357630766928196, -0.15216001868247986, -0.07032229006290436, -0.4520675837993622, -0.11195065826177597, 0.10478228330612183, 0.1509346216917038, -0.11072482168674469, 0.12196270376443863, 0.12917324900627136, 0.036619845777750015, -0.1272912174463272], [-0.12153370678424835, -0.02672451175749302, -0.01096868421882391, -0.059787169098854065, 0.04274911805987358, 0.001869156607426703, 0.10647130012512207, -0.04865504801273346, -0.09913011640310287, 0.0518757663667202, -0.049477554857730865, -0.06610450893640518, -0.09019386023283005, 0.02295742928981781, -0.06825565546751022, -0.03667731210589409, 0.11776860058307648, -0.0824238508939743, -0.11385621130466461, 0.13064827024936676, 0.10597623139619827, -0.0898362547159195, 0.034390222281217575, -0.13383328914642334, 0.1336667388677597, 0.11158104240894318, 0.13376767933368683, 0.06924504041671753, 0.043348874896764755, -0.057990286499261856, 0.048275042325258255, -0.021921228617429733], [-0.7127581834793091, -0.02104003168642521, 0.5805214643478394, -0.0714426338672638, 0.1429922878742218, -0.5653926730155945, -0.2289469838142395, -0.2377110719680786, -0.0016337577253580093, 0.07160300761461258, -0.03237148001790047, -0.07011974602937698, 0.019243372604250908, 0.09912172704935074, -0.0038158074021339417, -0.620092511177063, -0.436313658952713, 0.020815396681427956, 0.27848756313323975, 0.05749913305044174, -0.15336139500141144, 0.04083218798041344, 0.16168636083602905, 0.32541605830192566, -0.02104809321463108, -0.1704811006784439, -0.08720239996910095, 0.08294364809989929, -0.10524209588766098, 0.0843428373336792, 0.10112085193395615, -0.00032818043837323785], [-0.08776623755693436, 0.006755413953214884, 0.12004750967025757, 0.12279684096574783, 0.03408921882510185, -0.0353093147277832, 0.047610800713300705, 0.09922920167446136, 0.03294096887111664, -0.06738755106925964, -0.11312515288591385, 0.010161559097468853, -0.1275024563074112, -0.0967763364315033, -0.08287131041288376, -0.06673576682806015, -0.05648217722773552, 0.12546993792057037, -0.06781306117773056, -0.02356615476310253, -0.05647599697113037, 0.04247445985674858, 0.07656392455101013, -0.0748143270611763, 0.025355638936161995, 0.01931176893413067, -0.11001482605934143, -0.08830312639474869, 0.09669790416955948, -0.08551282435655594, 0.044621240347623825, -0.08874919265508652], [0.06808076053857803, -0.11917692422866821, 0.08381436765193939, 0.04664658382534981, -0.0810367614030838, 0.148074209690094, -0.0021468233317136765, 0.08931396901607513, -0.10576856136322021, 0.007846900261938572, -0.08994970470666885, 0.10799787938594818, -0.0076149143278598785, -0.019177692010998726, 0.0014367251424118876, 0.0789983794093132, -0.1743214726448059, 0.016480281949043274, 0.04760775715112686, -0.1162041500210762, 0.09565889835357666, 0.07520560920238495, -0.08310075849294662, -0.2035306841135025, 0.044775109738111496, 0.028266601264476776, 0.13264498114585876, 0.04693929851055145, 0.21284878253936768, -0.17526037991046906, 0.06060929596424103, 0.07508892565965652], [-0.11677531898021698, 0.11601702868938446, 0.2331651896238327, 0.2980380058288574, -0.36612096428871155, -0.0644351989030838, -0.07166760414838791, -0.24483296275138855, -0.30389246344566345, -0.16901634633541107, -0.23563463985919952, 0.2119101732969284, 0.2257227748632431, -0.08392089605331421, 0.04593401774764061, -0.1421833336353302, -0.21277208626270294, 0.2522938847541809, -0.2820088565349579, -0.36025407910346985, 0.3562958240509033, -0.2899625301361084, -0.3417495787143707, 0.8882639408111572, -0.052877090871334076, 0.11232299357652664, 0.3164716362953186, -0.26834428310394287, 0.32352414727211, -0.2478078007698059, -0.14821839332580566, 0.008948436938226223], [0.3387924134731293, -0.05783461779356003, 0.24584008753299713, 0.012505228631198406, -0.04113592207431793, -0.07300843298435211, 0.07457513362169266, 0.5565745830535889, 0.015261325985193253, -0.10558798164129257, -0.018897704780101776, 0.07533849775791168, -0.16826805472373962, -0.015080079436302185, -0.023126093670725822, 0.25662297010421753, -0.16311492025852203, -0.1067681610584259, 0.4119352698326111, -0.11778626590967178, 0.10858185589313507, 0.2446746975183487, 0.023567339405417442, 0.4915437698364258, 0.10725241154432297, -0.18271039426326752, 0.11454137414693832, -0.09887943416833878, -0.10100224614143372, 0.0686887577176094, 0.04452665150165558, -0.06877391040325165], [0.3980987071990967, 0.0424656979739666, -0.0728561207652092, 0.054593294858932495, -0.0759114921092987, 0.12043360620737076, 0.05419492349028587, 0.30669546127319336, 0.02565103955566883, 0.140832781791687, 0.0354890413582325, -0.005696823820471764, -0.12075401842594147, -0.05406177416443825, 0.058642733842134476, 0.1926954835653305, -0.14341913163661957, -0.055998366326093674, -0.28329166769981384, 0.011433630250394344, 0.06265462934970856, -0.15278518199920654, -0.058355607092380524, 0.37303805351257324, -0.001006914535537362, 0.02685173787176609, 0.04666901007294655, 0.047164324671030045, -0.022833816707134247, -0.04723462089896202, -0.14234690368175507, -0.1314321607351303], [-0.4355258345603943, 0.09360528737306595, -0.022404508665204048, 0.0338171049952507, -0.03671902045607567, -0.025498216971755028, 0.06324467062950134, -0.3978726267814636, -0.09244474023580551, 0.015940062701702118, -0.1200447604060173, -0.07892975211143494, -0.10859937220811844, -0.07715892046689987, 0.03119082748889923, 0.025262244045734406, 0.1687689572572708, 0.022052356973290443, -0.2473001480102539, 0.005486670415848494, 0.04441327601671219, -0.04787633195519447, -0.03528133034706116, 0.12804099917411804, 0.011150018312036991, 0.10291513055562973, 0.09674941748380661, -0.08282160013914108, 0.13520723581314087, -0.16239193081855774, 0.0509723499417305, 0.10582622140645981], [0.2628096640110016, 0.05476570874452591, -0.1014767587184906, -0.1719398945569992, 0.2323099672794342, 0.1934201419353485, 0.15306808054447174, 0.09453834593296051, 0.2049718201160431, 0.14223608374595642, 0.1232268288731575, -0.17853006720542908, -0.030676893889904022, -0.13123328983783722, 0.13124243915081024, 0.062187597155570984, 0.20763619244098663, -0.10876614600419998, 0.11131936311721802, 0.200056254863739, -0.022625792771577835, 0.12111040204763412, 0.27338969707489014, -0.5973373651504517, -0.12933091819286346, -0.235612154006958, -0.2761891484260559, 0.07019341737031937, -0.06997937709093094, 0.17175500094890594, 0.13709062337875366, 0.1347561478614807], [0.25078895688056946, 0.09515838325023651, 0.11272018402814865, -0.009274989366531372, 0.16970598697662354, -0.0035202845465391874, 0.022958457469940186, 0.07556670159101486, -0.06127236410975456, 0.05825558304786682, 0.02197864279150963, -0.1610971838235855, -0.040873195976018906, -0.05038699507713318, -0.006938580423593521, -0.0332145132124424, -0.3209599554538727, -0.007556720171123743, -0.0024518058635294437, -0.055024389177560806, -0.11095716804265976, 0.1652640998363495, 0.14489854872226715, -0.2702855169773102, 0.016817407682538033, -0.03586144745349884, -0.0582907609641552, -0.03841722756624222, -0.13315674662590027, 0.05895812809467316, -0.02091783471405506, 0.012617415748536587], [-0.26200562715530396, 0.07673634588718414, -0.07016026228666306, 0.18434622883796692, -0.15203805267810822, 0.5734395980834961, -0.1590503305196762, -0.5968911051750183, -0.21249349415302277, 0.3991110324859619, 0.07810180634260178, 0.13423703610897064, 0.17962412536144257, 0.018197165802121162, 0.11780795454978943, 0.2576298713684082, 0.11100892722606659, 0.15008752048015594, -0.5513803958892822, -0.01800837554037571, 0.06788725405931473, -0.054258160293102264, -0.22035127878189087, -0.38874053955078125, 0.04663990065455437, 0.21410274505615234, 0.1987820416688919, 0.01357507985085249, 0.26244229078292847, 0.12719596922397614, -0.24971143901348114, -0.06506691128015518], [-0.15015184879302979, 0.09950239956378937, 0.08130888640880585, -0.013742147013545036, -0.06509441882371902, -0.17986638844013214, -0.23214654624462128, -0.45307332277297974, -0.18751250207424164, -0.010166552849113941, -0.028927229344844818, -0.056052472442388535, 0.07903514057397842, -0.0239039845764637, 0.10171391069889069, -0.2554459869861603, -0.316200315952301, 0.20388856530189514, -0.27076417207717896, -0.097325898706913, 0.031205611303448677, -0.13895675539970398, -0.1979324370622635, 0.5127482414245605, 0.018935978412628174, 0.0043526822701096535, 0.1711059957742691, 0.019966749474406242, -0.012500801123678684, -0.004021963570266962, 0.0016888497630134225, 0.08640941232442856], [-0.15041829645633698, 0.02868562936782837, -0.02289455011487007, 0.03822927922010422, 0.07596907764673233, 0.05365893617272377, -0.03252318874001503, -0.17066463828086853, -0.04211847111582756, 0.17672032117843628, -0.026955509558320045, -0.08189210295677185, -0.19688992202281952, -0.12652544677257538, 0.06494688242673874, 0.072543203830719, 0.156142458319664, -0.1774049550294876, -0.13770844042301178, 0.08329436928033829, -0.0882425606250763, -0.03579914942383766, 0.18865720927715302, -0.10206416994333267, -0.01346852071583271, 0.027319910004734993, -0.15257534384727478, 0.18211862444877625, -0.06021230295300484, 0.17871533334255219, -0.03187529370188713, 0.08009221404790878], [0.5817561745643616, 0.08680861443281174, -0.029048768803477287, -0.00457914499565959, 0.19492346048355103, 0.05307547748088837, -0.046469349414110184, 0.822543740272522, 0.09768221527338028, -0.23341740667819977, 0.1489858478307724, -0.22315482795238495, -0.2341848760843277, 0.10207938402891159, 0.07690651714801788, 0.647891104221344, 0.6019203066825867, -0.1350938230752945, -0.020212549716234207, 0.2361554652452469, -0.17388063669204712, -0.008572706021368504, 0.06216698884963989, -0.6322361826896667, 0.10261216014623642, -0.08170321583747864, -0.11424428224563599, 0.042042326182127, 0.025648828595876694, 0.16308681666851044, 0.059132687747478485, -0.019500581547617912], [-1.8365787267684937, -0.05908013507723808, 0.1299358308315277, -0.6884874105453491, 0.5688164830207825, -1.0723919868469238, -0.054314419627189636, -1.753984808921814, 0.6988384127616882, -0.44826826453208923, 0.4046406149864197, -0.546156644821167, -0.6865889430046082, 0.10076054185628891, -0.09102758765220642, -1.4595423936843872, 0.8752546310424805, -0.5910577774047852, 0.45147353410720825, 0.5177702903747559, -0.5483387112617493, 0.34145432710647583, 0.5073375105857849, -0.6102405190467834, 0.10744459182024002, -0.7212437391281128, -0.6606507897377014, 0.061325058341026306, -0.5663725733757019, 0.3805088996887207, 0.5821240544319153, 0.1273987740278244], [0.12859784066677094, -0.07322017103433609, -0.22483031451702118, -0.02156202867627144, 0.10535421967506409, -0.014582092873752117, -0.21776999533176422, 0.09594795107841492, 0.2664588987827301, 0.1580764800310135, 0.315460205078125, -0.07999525964260101, -0.2741803228855133, -0.08193717896938324, -0.09103355556726456, -0.06179143488407135, 0.08518124371767044, -0.07267285138368607, -0.05279272422194481, 0.07595016807317734, -0.18425796926021576, -0.03327712044119835, 0.08196583390235901, -0.2729475796222687, 0.09358049929141998, -0.1613541543483734, -0.26219892501831055, 0.3571489453315735, -0.2832324504852295, 0.36193621158599854, 0.2143275886774063, -0.10041409730911255], [0.04341373220086098, 0.06487295776605606, 0.18474198877811432, 0.18777219951152802, -0.3064004182815552, 0.056704722344875336, -0.05101591721177101, 0.04702972248196602, -0.11254057288169861, 0.053406648337841034, -0.0742698386311531, 0.07586623728275299, 0.23997987806797028, 0.013815646059811115, 0.058041710406541824, -0.0554974339902401, -0.8511670827865601, 0.22557984292507172, -0.041917018592357635, -0.20751585066318512, 0.23820075392723083, -0.20890332758426666, -0.009476724080741405, 1.1082839965820312, -0.02358299307525158, 0.033357542008161545, 0.211595818400383, -0.20827895402908325, 0.19455786049365997, 0.0009104838827624917, -0.12873299419879913, -0.015576822683215141], [0.19960518181324005, 0.035652417689561844, 0.31324610114097595, 0.1237575113773346, -0.023044981062412262, -0.1310318261384964, 0.249297097325325, 0.1524878442287445, 0.01721128076314926, 0.024373875930905342, -0.1420302391052246, 0.038989897817373276, 0.029946543276309967, 0.09025289118289948, 0.04934031143784523, -0.1495005488395691, -0.3863294720649719, 0.20111316442489624, 0.31586095690727234, -0.26878297328948975, 0.2604447901248932, 0.1376139372587204, 0.013582293875515461, 0.977615475654602, 0.023471804335713387, 0.14693380892276764, 0.10472236573696136, -0.09470202028751373, 0.17085932195186615, -0.032307930290699005, -0.11736362427473068, 0.1151818037033081], [-0.26034438610076904, -0.005096368957310915, -0.012194391340017319, 0.14973674714565277, 0.01791917346417904, 0.10329519212245941, -0.00615077605471015, -0.33348220586776733, -0.08984693884849548, -0.04813838750123978, 0.10630917549133301, -0.07691773772239685, -0.025090627372264862, -0.1290161907672882, 0.12266289442777634, -0.2223753035068512, 0.37142854928970337, 0.06200164183974266, 0.33061012625694275, 0.21514372527599335, 0.08185925334692001, 0.030973847955465317, -0.10823626816272736, 0.018801623955368996, -0.09487243741750717, 0.07075489312410355, 0.0733986347913742, -0.07854503393173218, 0.12162863463163376, -0.2042735517024994, -0.049649957567453384, -0.08409393578767776], [0.1733805537223816, -0.11464396864175797, 0.5722677707672119, 0.16582635045051575, -0.33505624532699585, -0.11550943553447723, -0.09129984676837921, 0.24993343651294708, -0.11039002239704132, -0.30303239822387695, -0.28888922929763794, 0.24032557010650635, 0.08796833455562592, -0.12009970098733902, -0.01769125647842884, -0.01793079264461994, -0.499897301197052, 0.2953377068042755, -0.1834009438753128, -0.3728048801422119, 0.2977898120880127, -0.28442978858947754, -0.3647167384624481, 1.0505634546279907, -0.10173425078392029, 0.2825230658054352, 0.22107450664043427, -0.34333348274230957, 0.12215699255466461, -0.3466639518737793, -0.24755904078483582, -0.04192277044057846], [0.23998203873634338, 0.044413287192583084, 0.1808496117591858, 0.1072210893034935, -0.17425359785556793, -0.13908684253692627, 0.20980480313301086, 0.4199187457561493, -0.06930380314588547, -0.40927472710609436, -0.21296516060829163, 0.2101135551929474, 0.17824949324131012, 0.07540032267570496, -0.02498018927872181, 0.24538911879062653, -0.21350699663162231, 0.18296025693416595, 0.13767647743225098, -0.13703201711177826, 0.19041328132152557, -0.16754032671451569, -0.059955015778541565, 0.29051950573921204, -0.023747989907860756, 0.2458590269088745, 0.17170624434947968, -0.31264346837997437, 0.15949103236198425, -0.17207588255405426, -0.1069553941488266, -0.05778491124510765], [0.6542767882347107, 0.08804076910018921, -0.03428780660033226, 0.01454505231231451, -0.06212981790304184, 0.029817495495080948, -0.038145557045936584, 0.8338598608970642, -0.050229087471961975, 0.04738253727555275, 0.12171891331672668, -0.1661512851715088, -0.09546957165002823, -0.002691922476515174, 0.09318246692419052, 0.40525728464126587, -0.20330791175365448, -0.0410761684179306, -0.14339211583137512, 0.04065060243010521, -0.24810892343521118, -0.015605820342898369, 0.1541452705860138, -0.2741885185241699, 0.015192743390798569, 0.010394150391221046, -0.09597896784543991, 0.20716115832328796, -0.10207150131464005, 0.26235830783843994, -0.030126580968499184, -0.05563637614250183], [-0.09720493853092194, -0.015684552490711212, -0.2765122652053833, -0.1537378430366516, 0.1605982780456543, 0.09980123490095139, -0.06787331402301788, -0.015416163019835949, 0.01051601767539978, 0.09693262726068497, 0.24121655523777008, -0.06104079261422157, -0.20766103267669678, 0.04328028857707977, 0.004388150759041309, 0.12817446887493134, 0.2986408472061157, -0.013916900381445885, -0.3350011110305786, 0.1301078349351883, -0.10266029834747314, 0.10336943715810776, 0.08640685677528381, -0.32029250264167786, -0.07915472239255905, 0.06976649910211563, -0.050425250083208084, 0.1445140540599823, -0.16075313091278076, 0.18917128443717957, 0.18494364619255066, 0.11972535401582718], [-0.20920947194099426, 0.03122715651988983, -0.14414352178573608, -0.014203200116753578, 0.11623647063970566, 0.09031665325164795, 0.08273612707853317, -0.1447245180606842, 0.06306709349155426, 0.1235143393278122, 0.10981635749340057, 0.06450162082910538, 0.07870029658079147, -0.05651916563510895, 0.12754297256469727, -0.08348590135574341, 0.3219846487045288, -0.029660632833838463, 0.17876777052879333, 0.2138039618730545, 0.08245445787906647, 0.13943669199943542, -0.07089385390281677, -0.19875498116016388, -0.11344438791275024, -0.0007612759945914149, -0.11608961969614029, 0.04552936181426048, -0.03269610553979874, 0.07256601750850677, 0.07855822890996933, 0.08376853168010712], [0.9350425601005554, 0.060509875416755676, 0.5333514213562012, -0.25510647892951965, 0.02003560960292816, -0.43721386790275574, 0.476398229598999, 1.072349190711975, 0.22199846804141998, -0.7535884380340576, 0.08744319528341293, -0.28250741958618164, -0.07997641712427139, 0.024637477472424507, -0.06930489838123322, 0.18376703560352325, 0.18213416635990143, -0.21836110949516296, 0.5927625298500061, -0.12861406803131104, 0.028897838667035103, 0.09695105254650116, 0.22367988526821136, 1.3759584426879883, 0.06183493137359619, -0.2261861115694046, -0.14599095284938812, 0.4124950170516968, -0.20187455415725708, -0.12425265461206436, 0.120724618434906, -0.12357228249311447], [-0.08546803891658783, -0.13417790830135345, -0.11367478966712952, 0.13435831665992737, 0.046854168176651, 0.2266089916229248, -0.06283436715602875, -0.23765051364898682, -0.0954684466123581, 0.3181491792201996, -0.030608994886279106, -0.03050067462027073, -0.09532754868268967, 0.09014835208654404, -0.0445953831076622, -0.07132438570261002, -0.287908673286438, 0.08359482884407043, -0.24388109147548676, -0.12814728915691376, -0.013080447912216187, -0.020175989717245102, -0.06623299419879913, -0.04303542897105217, 0.04968208447098732, 0.1351538747549057, 0.057502735406160355, 0.16942216455936432, 0.024378398433327675, -0.037838395684957504, 0.051929377019405365, -0.08312401920557022], [-0.3549343943595886, -0.022362669929862022, -0.1980990320444107, 0.0267619825899601, -0.06733579188585281, 0.012304467149078846, 0.163881316781044, -0.4150244891643524, -0.04557785019278526, 0.19077254831790924, 0.2687569558620453, -0.1073434129357338, 0.006583638954907656, -0.03323866426944733, 0.005870923865586519, -0.07985764741897583, 0.3046659529209137, 0.01781110092997551, 0.2306871861219406, 0.2425258606672287, -0.029815753921866417, 0.2777165174484253, 0.18351994454860687, -0.12145011126995087, -0.08980299532413483, -0.08085229992866516, -0.00864311121404171, 0.1863119751214981, -0.0017465126002207398, 0.07693549245595932, 0.11818284541368484, -0.0017735421424731612], [0.3499181270599365, -0.05041041970252991, -0.11713992059230804, -0.005559246521443129, -0.0026354235596954823, 0.22773008048534393, 0.030957147479057312, 0.4385009706020355, 0.08526682108640671, -0.022611824795603752, -0.014235686510801315, -0.0062562511302530766, -0.016797946766018867, -0.04390183091163635, 0.07247169315814972, 0.368374764919281, 0.13513177633285522, -0.11841985583305359, 0.11639663577079773, 0.04813642427325249, -0.059603963047266006, 0.18676213920116425, -0.13747970759868622, -0.39577117562294006, 0.09044718742370605, -0.05279429256916046, -0.058592673391103745, 0.11724047362804413, -0.0133134163916111, -0.034823689609766006, 0.13709715008735657, -0.04419347643852234], [0.24811743199825287, -0.0694471225142479, 0.06095219403505325, 0.09354057908058167, -0.04534027725458145, -0.11055302619934082, 0.0739126205444336, 0.3527073860168457, -0.07860927283763885, -0.3797467052936554, -0.1739383190870285, 0.200416699051857, 0.09686898440122604, -0.12936195731163025, -0.11915632337331772, 0.26721811294555664, 0.10401685535907745, 0.16636112332344055, 0.14298543334007263, 0.039052415639162064, 0.03897261619567871, -0.10311958938837051, -0.24760372936725616, 0.21493831276893616, -0.10157379508018494, 0.045509643852710724, 0.22300471365451813, -0.08384871482849121, 0.23111528158187866, -0.15992654860019684, -0.07401493191719055, -0.07483433187007904], [-0.321422815322876, 0.0830676332116127, -0.49033841490745544, 0.17241770029067993, -0.15856336057186127, 0.36940938234329224, 0.014965799637138844, -0.499733567237854, -0.14224852621555328, 0.03131801635026932, -0.2303490936756134, 0.12362431734800339, 0.21734142303466797, -0.020971881225705147, -0.03803810477256775, -0.09674711525440216, 0.2947177290916443, -0.009122557938098907, -0.21419227123260498, 0.25922825932502747, 0.14153219759464264, -0.14115403592586517, -0.25909215211868286, -0.9157587885856628, 0.10279809683561325, 0.2519719898700714, 0.037292931228876114, 0.07370737195014954, 0.1383776217699051, -0.07436685264110565, -0.16827890276908875, -0.13354872167110443], [0.011245734058320522, 0.13470979034900665, 0.3340294361114502, 0.05152873322367668, -0.2552086412906647, -0.2934170663356781, -0.04310109093785286, 0.2268989086151123, -0.25568950176239014, -0.42344775795936584, -0.21128347516059875, 0.06730575114488602, 0.11747697740793228, 0.08612367510795593, 0.09868559241294861, 0.021941177546977997, -0.04216200113296509, 0.058874644339084625, 0.04567476734519005, -0.09058534353971481, 0.2880009710788727, -0.29809102416038513, -0.06882096827030182, 0.8350608944892883, 0.07218585163354874, 0.17856460809707642, 0.23432353138923645, -0.03989720344543457, 0.2126433253288269, -0.29665055871009827, -0.262890100479126, 0.10022137314081192], [0.051715243607759476, 0.02168653905391693, -0.05943998694419861, 0.056928426027297974, 0.06548286229372025, 0.09905771911144257, -0.179983451962471, -0.018529517576098442, 0.09119317680597305, 0.21524076163768768, -0.10853233933448792, 0.1045052707195282, 0.14511415362358093, -0.1283930093050003, 0.028299586847424507, 0.015264199115335941, -0.40000635385513306, 0.06194180250167847, -0.4074629545211792, -0.15049202740192413, -0.03469338268041611, -0.23591506481170654, 0.09526802599430084, 0.09332428127527237, -0.04593784734606743, 0.16626551747322083, 0.13656839728355408, -0.004631116054952145, 0.04752044752240181, 0.07834867388010025, -0.17004036903381348, 0.07608366012573242], [-2.6668834686279297, 0.084588423371315, 0.002573588630184531, 0.07567396759986877, -0.1960349828004837, -0.47895586490631104, 0.01240216288715601, -2.813570022583008, -0.2656092941761017, -0.15206539630889893, -0.34130337834358215, 0.10584383457899094, 0.28112828731536865, -0.01049852930009365, 0.09606456756591797, -2.395164966583252, -0.02100718766450882, 0.2742648124694824, -0.15877693891525269, -0.16603094339370728, 0.2100871056318283, -0.17483223974704742, -0.36518317461013794, 1.661982536315918, 0.12934400141239166, 0.2517731487751007, 0.2268497794866562, -0.3701261281967163, 0.19343331456184387, -0.30259376764297485, -0.17983478307724, 0.039431557059288025], [-0.029147805646061897, -0.10081429779529572, -0.14157217741012573, -0.05968980863690376, 0.1771397590637207, -0.005711995530873537, -0.10806121677160263, -0.1229545846581459, 0.1133435070514679, 0.021926425397396088, 0.09687116742134094, -0.10162762552499771, -0.13092096149921417, 0.09905240684747696, -0.04604233428835869, 0.039387769997119904, 0.37256377935409546, -0.12437793612480164, -0.20065172016620636, 0.03906838595867157, -0.00750598544254899, -0.12404237687587738, 0.12485013902187347, -0.20408128201961517, -0.07629967480897903, 0.08030934631824493, 0.004168132785707712, -0.011148790828883648, -0.040314096957445145, -0.12761665880680084, 0.12859906256198883, -0.03058912605047226], [-0.008573224768042564, 0.023938439786434174, 0.06409081816673279, -0.05246872082352638, -0.046129558235406876, 0.08847104012966156, -0.27663758397102356, 0.16491518914699554, 0.006592183839529753, -0.061121199280023575, 0.12161008268594742, 0.021056726574897766, -0.09167961031198502, -0.038786377757787704, -0.08567683398723602, -0.03802305459976196, 0.7321686744689941, 0.047385074198246, -0.11139638721942902, 0.04260693117976189, -0.12041649222373962, -0.1219044029712677, -0.09773331135511398, -0.3888538181781769, -0.06208987906575203, -0.0989958643913269, -0.13274754583835602, -0.11338138580322266, -0.016928108409047127, -0.13199083507061005, -0.11145633459091187, -0.1316933035850525]], "b": [-0.01786917634308338, 0.05195256322622299, -0.04703763127326965, 0.13946454226970673, 0.007065265905112028, 0.024684395641088486, 0.132241889834404, 0.07069651782512665, -0.11540556699037552, -0.0030134026892483234, -0.10374661535024643, 0.0061488077044487, -0.03200879693031311, 0.10376331210136414, -0.13086169958114624, 0.04387976974248886, -0.03375838324427605, 0.10244084149599075, 0.25952577590942383, -0.014826119877398014, 0.1013934314250946, 0.23430737853050232, 0.0988323986530304, -0.23660163581371307, -0.03521321341395378, 0.08667545020580292, 0.02536245435476303, 0.005297315772622824, 0.03349224105477333, -0.03781173750758171, -0.0057863639667630196, 0.009017852135002613]}, {"w": [[3.0690858364105225, -2.4164600372314453, 2.7693700790405273, 0.02806415781378746, -2.506636381149292, -2.4020442962646484, 2.4284775257110596, -2.7335126399993896, -0.172528937458992, -2.5043091773986816, -0.011679496616125107, -2.8008179664611816, 2.94701886177063, 0.12536907196044922, 2.5430660247802734, 0.0773375853896141], [-0.04975268617272377, 0.15980328619480133, 0.13296490907669067, 0.09448741376399994, 0.11007338017225266, -0.013377608731389046, 0.14175353944301605, 0.015056760981678963, 0.11542388051748276, -0.057008542120456696, -0.06299054622650146, -0.0713210180401802, -0.044719163328409195, -0.07858485728502274, 0.06125180050730705, -0.13721159100532532], [0.3339574337005615, -0.3281145989894867, 0.25467073917388916, 0.1040542796254158, -0.3072151243686676, -0.3280628025531769, 0.2875302731990814, -0.3860432505607605, -0.10008164495229721, -0.2643945813179016, 0.08581414073705673, -0.4249080717563629, 0.2833317220211029, -0.014286569319665432, 0.2406231015920639, 0.005548775661736727], [0.11965341120958328, 0.08350858092308044, 0.21904371678829193, -0.11942004412412643, -0.013373412191867828, -0.01102490909397602, 0.22544144093990326, 0.1263369768857956, -0.07955307513475418, -0.08897586911916733, -0.17739108204841614, -0.04279584065079689, -0.08823484927415848, -0.10093121230602264, 0.188503235578537, -0.15880058705806732], [-0.32323575019836426, 0.2481735348701477, -0.1312382072210312, -0.0027454975061118603, 0.07062708586454391, 0.2623136639595032, -0.30581429600715637, 0.10318990796804428, 0.05859829857945442, 0.34277647733688354, 0.16190172731876373, 0.07470416277647018, -0.27087071537971497, -0.10035058110952377, -0.31298595666885376, -0.0840592309832573], [0.5526015758514404, -0.036196473985910416, 0.3722453713417053, 0.15382762253284454, -0.16614902019500732, -0.08783359080553055, 0.3850235939025879, -0.009070968255400658, 0.02892065979540348, 0.009987265802919865, 0.03390328958630562, -0.2277282327413559, 0.5490687489509583, -0.04258817061781883, 0.5008598566055298, -0.05260128527879715], [-0.9551770687103271, 1.1730939149856567, -0.9252277612686157, -0.09893223643302917, 1.1250925064086914, 1.3046016693115234, -1.1677974462509155, 1.1456832885742188, 0.12036081403493881, 1.313138723373413, -0.021341843530535698, 1.2142378091812134, -1.0047409534454346, -0.002975173993036151, -1.3498941659927368, -0.06859133392572403], [2.3143534660339355, -1.7612860202789307, 1.963690161705017, 0.02182077243924141, -2.1173782348632812, -2.0970962047576904, 2.047804594039917, -2.274078369140625, -0.12320420891046524, -2.151906967163086, -0.005237235222011805, -2.0047473907470703, 2.4314920902252197, 0.07631013542413712, 1.981557846069336, -0.17392045259475708], [-0.0726543515920639, 0.16229841113090515, -0.05874305218458176, 0.12364602088928223, -0.04181478172540665, 0.17684604227542877, -0.10434489697217941, 0.11021414399147034, 0.09589317440986633, -0.16805335879325867, -0.1258995682001114, 0.017265943810343742, 0.136296346783638, -0.14765578508377075, 0.025842871516942978, -0.08769525587558746], [-0.32901230454444885, 0.16971349716186523, -0.11733722686767578, 0.0095206368714571, 0.3825884759426117, 0.28686168789863586, -0.4371052086353302, 0.2366625964641571, 0.09203314036130905, 0.22349032759666443, -0.17478060722351074, 0.22357073426246643, -0.28944647312164307, 0.09115498512983322, -0.3577258884906769, -0.1635822206735611], [-0.12659060955047607, 0.3015345335006714, -0.31183940172195435, -0.04807455092668533, 0.3111944794654846, 0.11034377664327621, -0.1723378449678421, 0.12289882451295853, 0.10927829891443253, 0.2814626097679138, 0.03846976161003113, 0.3432896137237549, -0.2806922495365143, 0.13608978688716888, -0.3013233542442322, -0.14757336676120758], [0.2262091040611267, -0.12221968173980713, 0.22312895953655243, 0.06082556024193764, 0.03947330638766289, -0.02878396213054657, 0.2983466386795044, -0.08386675268411636, -0.058767203241586685, -0.03243829309940338, -0.030465200543403625, 0.0448603630065918, 0.021221665665507317, -0.044700607657432556, 0.2225860059261322, -0.17615166306495667], [0.17981959879398346, -0.08250187337398529, 0.1733703911304474, -0.15090030431747437, -0.06388832628726959, 0.00956249050796032, 0.08025664836168289, -0.03577670454978943, 0.02998676523566246, 0.07050415128469467, -0.087337926030159, 0.0930945873260498, 0.2151973694562912, -0.034167684614658356, 0.1967540681362152, -0.10169211775064468], [-0.09346307814121246, 0.029614081606268883, -0.14330162107944489, 0.1450233906507492, 0.013897469267249107, -0.09717058390378952, -0.016350938007235527, 0.04981154575943947, 0.051961835473775864, 0.07665672898292542, -0.030070489272475243, 0.0016431144904345274, -0.1242520660161972, 0.043540336191654205, 0.0982789397239685, -0.03955916687846184], [-0.173929363489151, -0.024025768041610718, -0.02023312635719776, 0.138654887676239, -0.14164023101329803, -0.14409378170967102, 0.1645662784576416, -0.04283726587891579, 0.16646388173103333, 0.17175745964050293, -0.024337422102689743, -0.019124537706375122, -0.10615884512662888, -0.16162796318531036, 0.021550677716732025, 0.1590392291545868], [0.6856313347816467, -0.5741272568702698, 0.6602150797843933, -0.05129706859588623, -0.3563862144947052, -0.4856536388397217, 0.6616297960281372, -0.5111181735992432, -0.10727953165769577, -0.6453471183776855, 0.08770763128995895, -0.3358835279941559, 0.8128520250320435, 0.10738806426525116, 0.6046432256698608, -0.12422169744968414], [-0.630172610282898, 0.4036952555179596, -0.4229348599910736, -0.07398584485054016, 0.5994067788124084, 0.4469256103038788, -0.6654687523841858, 0.7071239352226257, -0.16210010647773743, 0.4426913559436798, -0.12650755047798157, 0.7792965173721313, -0.5370028018951416, -0.04118974134325981, -0.6735401153564453, -0.13421283662319183], [0.24263432621955872, -0.09334246069192886, 0.012004457414150238, -0.039893537759780884, 0.13677363097667694, 0.10710233449935913, 0.1716102510690689, 0.044929008930921555, -0.1596621721982956, -0.07096598297357559, -0.015033592469990253, 0.10590270906686783, -0.016741719096899033, -0.010119479149580002, 0.2237243801355362, -0.14369270205497742], [0.0763920471072197, 0.1039215698838234, 0.19400931894779205, 0.17234469950199127, 0.03542894497513771, 0.07804016768932343, 0.16030706465244293, 0.17277653515338898, 0.023385941982269287, 0.19051490724086761, 0.006746032275259495, 0.1554316282272339, 0.1468886137008667, 0.0628964975476265, -0.0677015483379364, 0.16516676545143127], [-0.1671663373708725, 0.19450561702251434, -0.23203733563423157, -0.06906631588935852, 0.2595458924770355, 0.23850303888320923, 0.07881101220846176, 0.12740355730056763, -0.13413819670677185, -0.03633594140410423, -0.10070928931236267, 0.1130729466676712, -0.31360650062561035, 0.052697401493787766, -0.2528330683708191, -0.022580282762646675], [0.16508448123931885, -0.02346894145011902, 0.24086548388004303, 0.05158654600381851, -0.04478522017598152, -0.028862783685326576, 0.2994190454483032, -0.19453202188014984, -0.03267070651054382, -0.008624876849353313, 0.18173964321613312, 0.0033550565131008625, 0.26212018728256226, -0.10742339491844177, 0.3115566372871399, -0.04696161672472954], [-0.04218784347176552, 0.12126174569129944, 0.10134460777044296, -0.17167338728904724, 0.2074635922908783, 0.11761967092752457, 0.1690644472837448, -0.013988950289785862, -0.08252972364425659, 0.10179875791072845, -0.07888156175613403, 0.05806170031428337, 0.06687155365943909, -0.15017127990722656, -0.011035392060875893, 0.09678224474191666], [-0.2053205966949463, 0.28034961223602295, -0.12338127940893173, 0.0481148399412632, 0.09868703782558441, 0.12407581508159637, -0.1265740543603897, 