{"layers": [{"w": [[-0.11974480748176575, 0.03630797937512398, -0.08200876414775848, -0.12581974267959595, 0.09020168334245682, -0.06043039262294769, 0.34381651878356934, -0.08858567476272583, -0.06740632653236389, 0.1289459466934204, -0.0697086974978447, 0.24799586832523346, 0.11591871827840805, 0.036648500710725784, 0.015625648200511932, 0.12202624976634979, -0.26230576634407043, -0.02796190045773983, -0.09222786873579025, -0.1127990335226059, -0.005803953390568495, -0.011503614485263824, -0.07066191732883453, -0.09309759736061096, -0.04474758729338646, -0.39718347787857056, -0.09653870761394501, 0.17478777468204498, -0.02350826933979988, -0.09105510264635086, -0.2770605683326721, -0.21777814626693726, 0.09697717428207397, -0.15004123747348785, 0.07576121389865875, -0.03139222413301468, 0.1979919970035553, -0.0599856860935688, -0.28912854194641113, -0.23241861164569855, 0.11357080936431885, 0.12149519473314285, 0.11553099751472473, -0.3754277527332306, -0.10585848242044449, 0.12305338680744171, -0.23856741189956665, -0.024291519075632095, -0.1257399171590805, -0.28546926379203796, 0.11982724815607071, -0.10468318313360214, -0.012743192724883556, 0.005200997926294804, 0.003692906815558672, -0.3077452480792999, 0.01904025673866272, 0.05618836730718613, 0.013292647898197174, 0.15118275582790375, -0.05268639698624611, 0.11862388998270035, 0.01640622317790985, -0.0712648555636406, 0.02273438684642315, 0.03829030320048332, 0.037700239568948746, -0.08658184111118317, -0.43474525213241577, -0.08888380229473114, -0.42469191551208496, -0.05445562303066254, 0.0611790232360363, 0.19067028164863586, 0.11584082245826721, -0.16385629773139954, 0.24328726530075073, -0.008059411309659481, -0.19710473716259003, 0.19373467564582825, 0.19314417243003845, 0.28061553835868835, -0.08991530537605286, -0.2104988992214203, -0.02557901293039322, -0.14841987192630768, 0.029652029275894165, 0.058385785669088364, 0.13184450566768646, -0.030949031934142113, -0.2894459068775177, -0.06929934024810791, -0.13993825018405914, 0.09345613420009613, 0.030893221497535706, -0.17825648188591003, 0.11344501376152039, 0.141074538230896, 0.02840210311114788, -0.02153378166258335, -0.08187522739171982, -0.34735459089279175, -0.12162172049283981, -0.06056626886129379, -0.15992817282676697, 0.2253730595111847, 0.1284322589635849, -0.0927613154053688, -0.07801137864589691, -0.04989716783165932, -0.004900866653770208, -0.04546155780553818, 0.043729186058044434, -0.017504055052995682, -0.3946263790130615, 0.013381872326135635, 0.15804123878479004, 0.09655459225177765, 0.06419786810874939, 0.15907810628414154, -0.020829297602176666, 0.14650604128837585, 0.11457670480012894, -0.20158198475837708, 0.018153240904211998, -0.15293242037296295, -0.024566037580370903, 0.041223496198654175], [0.167165145277977, 0.43899452686309814, 0.0632578432559967, 0.433883398771286, -0.023064687848091125, -0.05195041745901108, 0.3809463679790497, 0.2869981527328491, 0.21219535171985626, -0.15031659603118896, 0.36791229248046875, 0.36291196942329407, -0.0025316483806818724, 0.0683242455124855, -0.22501644492149353, 0.30526992678642273, -0.14588642120361328, -0.9062622785568237, -0.029923778027296066, -0.10363592952489853, 0.3672752380371094, -0.10117992013692856, -0.016349807381629944, -0.3643832206726074, -0.14811889827251434, 0.1663922816514969, 0.01626703515648842, 0.10991593450307846, 0.06279357522726059, 0.4910649061203003, -0.9136885404586792, -0.4584943652153015, -0.48142004013061523, -0.08457997441291809, -0.18552155792713165, -0.1328311264514923, 0.2648533582687378, 0.4624367654323578, 0.11488080024719238, -0.6100388765335083, -0.42204707860946655, 0.03699963912367821, 0.29670968651771545, 0.22219517827033997, 0.1946573555469513, 0.1764426827430725, -0.45016342401504517, -0.3752218782901764, -0.3846878409385681, 0.4172813594341278, 0.022528326138854027, -0.21746289730072021, -0.6111317276954651, 0.23694510757923126, -0.6267673969268799, -0.4632519781589508, -0.4835894703865051, -0.24027737975120544, -0.13106311857700348, -0.5836547613143921, -0.14691711962223053, -0.3003189265727997, 0.06465394049882889, -0.11785045266151428, 0.1545555591583252, 0.30584797263145447, -0.4148750305175781, -0.04623689129948616, -1.2651797533035278, 0.010436379350721836, 0.13854925334453583, -0.05715181678533554, -1.2114894390106201, -0.42292264103889465, -0.11971217393875122, -0.5250170826911926, 0.10520100593566895, 0.31675010919570923, 0.2921440899372101, 0.3660599887371063, 0.46647968888282776, -0.0566253662109375, -0.06522713601589203, -0.035755276679992676, 0.12411999702453613, -0.5605921745300293, 0.035714805126190186, -0.08009854704141617, -0.1876729428768158, 1.0265281200408936, -0.24455291032791138, -0.16339021921157837, -0.13947531580924988, -0.07325980812311172, -0.022123126313090324, -0.3558344542980194, 0.49409857392311096, -0.0025928395334631205, -0.34540149569511414, -0.7632761001586914, -0.28933268785476685, 0.17595911026000977, -0.04398643225431442, 0.2821176052093506, -0.3137345612049103, 0.012999634258449078, 0.451608270406723, -0.2874976098537445, -0.017854025587439537, 0.01446940004825592, 0.14099137485027313, -0.05581878125667572, -0.4616628587245941, 0.0397983118891716, -0.2778206467628479, -0.21948128938674927, -0.42337262630462646, -0.5376028418540955, -0.056615233421325684, 0.3919469118118286, 0.4615024924278259, -0.20856301486492157, 0.015131526626646519, 0.5544335842132568, -0.1702534556388855, -0.15346930921077728, 0.09051628410816193, -0.22715122997760773], [-0.16929084062576294, -0.08617721498012543, 0.0383911170065403, -0.09453457593917847, 0.006508787628263235, 0.030185068026185036, -0.03424305468797684, 0.07187861204147339, -0.018823452293872833, -0.04357064142823219, 0.01706981658935547, 0.053404249250888824, 0.059911489486694336, -0.0796341747045517, -0.08486911654472351, -0.06305025517940521, -0.05440087243914604, -0.10107646137475967, -0.153092622756958, -0.0062391795217990875, -0.18471936881542206, 0.03808045759797096, -0.004892358556389809, -0.08636007457971573, -0.07192331552505493, 0.015949541702866554, -0.0030833184719085693, 0.11107432097196579, -0.016195058822631836, -0.100218266248703, -0.1521301567554474, 0.04991375654935837, -0.09974084794521332, -0.0735907033085823, -0.004482331685721874, 0.039460666477680206, 0.08097131550312042, 0.05943949893116951, -0.16145288944244385, -0.11867458373308182, -0.09123534709215164, 0.045511435717344284, -0.15405221283435822, -0.02505611814558506, -0.0846075639128685, -0.02732294797897339, 0.051883265376091, -0.021818019449710846, -0.19341690838336945, -0.02933388575911522, -0.009957610629498959, 0.015293151140213013, -0.03909677267074585, 0.13261573016643524, 0.06339775025844574, -0.017286550253629684, -0.02547238953411579, -0.08556951582431793, 0.01646036095917225, -0.08458390831947327, 0.049452535808086395, -0.026369228959083557, -0.09220673143863678, 0.04501451551914215, -0.05778038129210472, 0.010945392772555351, -0.03528330475091934, -0.041965335607528687, -0.06594256311655045, -0.03562360629439354, -0.08982127159833908, 0.07117243111133575, -0.0582890659570694, 0.06819801032543182, 0.0009756131330505013, 0.0705687403678894, 0.0831930860877037, -0.12210539728403091, -0.05875158682465553, -0.00711806258186698, -0.03217209503054619, 0.04903950169682503, 0.03990194573998451, -0.006918013561517, -0.10680050402879715, -0.11438170820474625, -0.056536514312028885, 0.05374433845281601, -0.025725947692990303, -0.04794696718454361, -0.13033990561962128, 0.13664233684539795, -0.0680541917681694, -0.026334725320339203, -0.0805852934718132, 0.07935214787721634, 0.09209108352661133, -0.0003235235926695168, -0.030825333669781685, -0.1409239023923874, -0.045467525720596313, -0.03867393359541893, -0.006971870549023151, 0.08628016710281372, -0.051857151091098785, -0.007019744720309973, 0.019629478454589844, -0.06198439002037048, -0.042550962418317795, -0.051141202449798584, -0.08478142321109772, -0.029094573110342026, -0.05268649756908417, -0.044967856258153915, 0.011758818291127682, -0.0759962648153305, 0.04933037608861923, 0.018614495173096657, -0.05105222389101982, -0.008875892497599125, -0.13796818256378174, -0.06011154502630234, 0.0356074720621109, -0.0291801355779171, 0.07507050037384033, -0.11218395829200745, -0.06662584096193314, -0.037439391016960144], [0.07480397075414658, 0.02286958135664463, 0.07185480743646622, -0.08732733130455017, 0.0014909098390489817, -0.06563881784677505, 0.014139463193714619, 0.2304203063249588, -0.3636203408241272, -0.15284615755081177, -0.30852842330932617, 0.023098040372133255, -0.09552726149559021, -0.010237653739750385, 0.11612050980329514, -0.015351629815995693, -0.11657547205686569, -0.01852002739906311, -0.3144642114639282, -0.1680379956960678, -0.12959825992584229, 0.15040934085845947, -0.19658322632312775, -0.09533894062042236, 0.12452004849910736, 0.06589687615633011, -0.029880810528993607, 0.2176906168460846, -0.012754018418490887, -0.07571163028478622, -0.007694888394325972, -0.14660866558551788, -0.12908412516117096, -0.008158341981470585, 0.09402810037136078, -0.3560969829559326, 0.041890840977430344, 0.21318086981773376, 0.20720866322517395, 0.11501936614513397, 0.20709963142871857, -0.1006232351064682, -0.28469786047935486, 0.02301008068025112, 0.2430994212627411, 0.1407437026500702, -0.2505120635032654, -0.576447606086731, -0.23039628565311432, 0.05832687392830849, -0.08208006620407104, 0.14571616053581238, 0.05449385568499565, 0.22772479057312012, -0.0735839381814003, -0.1031925305724144, 0.18371498584747314, -0.04265027120709419, -0.1304217129945755, -0.09316384792327881, -0.43566250801086426, -0.24194590747356415, -0.07823600620031357, -0.5404191613197327, 0.2786484956741333, 0.12601473927497864, -0.2899021804332733, -0.015773601830005646, -0.15405680239200592, 0.26585879921913147, 0.04772971570491791, 0.058623138815164566, 0.0017998677212744951, 0.04465698078274727, -0.513403594493866, 0.12457769364118576, 0.13445010781288147, -0.30906933546066284, -0.1730835884809494, 0.07042762637138367, 0.09181962162256241, -0.09974221140146255, 0.06499166786670685, -0.12166319042444229, -0.1432654708623886, -0.04853605479001999, 0.11295966804027557, -0.12048449367284775, -0.1599728912115097, -0.12866035103797913, 0.06269394606351852, -0.21815592050552368, 0.06341050565242767, -0.509054958820343, 0.011013434268534184, -0.10404114425182343, 0.06501460820436478, -0.0631939172744751, 0.017767105251550674, -0.2033693492412567, 0.22725726664066315, 0.21285797655582428, -0.2919315695762634, 0.17351466417312622, -0.028635645285248756, 0.14952810108661652, 0.22732414305210114, -0.1299406737089157, -0.29829922318458557, -0.030044740065932274, 0.30762457847595215, 0.025493131950497627, -0.23775212466716766, -0.08790897578001022, -0.05378209054470062, 0.07884518057107925, -0.05997126176953316, 0.06206927075982094, 0.06580933928489685, 0.2272849977016449, 0.09412200003862381, 0.10007581859827042, -0.2752598822116852, 0.21728414297103882, -0.04705783724784851, 0.08055480569601059, 0.23547938466072083, -0.46980568766593933], [-0.14975252747535706, -0.04532723128795624, 0.042943261563777924, -0.047916002571582794, 0.043172501027584076, -0.06661424040794373, 0.016484152525663376, -0.04586225748062134, 0.17588268220424652, -0.0018487450433894992, -0.10576604306697845, -0.09202759712934494, 0.021641261875629425, 0.030587321147322655, 0.029720814898610115, -0.03770272061228752, -0.2185429334640503, -0.06936129927635193, -0.011096813715994358, -0.13890965282917023, -0.07733911275863647, -0.02515082247555256, 0.110148586332798, -0.16403436660766602, -0.08743415772914886, -0.057132698595523834, 0.008503672666847706, -0.019157826900482178, -0.0710146501660347, 0.05767035111784935, -0.24081072211265564, 0.023764802142977715, -0.1785084456205368, 0.11812832951545715, -0.01983756758272648, 0.09237048774957657, 0.018969278782606125, 0.0702134370803833, -0.128280371427536, -0.009888618253171444, -0.15086789429187775, 0.06486548483371735, 0.029015790671110153, 0.01403609849512577, -0.03776617348194122, -0.21922826766967773, -0.0981001928448677, 0.060637250542640686, -0.09326983243227005, -0.09590763598680496, 0.04005468636751175, -0.09045477211475372, -0.20279742777347565, -0.037794310599565506, 0.10320135951042175, -0.05244005471467972, -0.06420523673295975, -0.12814649939537048, -0.0729767307639122, -0.01918945461511612, 0.02909076400101185, 0.027112822979688644, 0.05444057658314705, 0.05266450718045235, 0.08317534625530243, -0.02880181558430195, 0.032808952033519745, -0.0011526470771059394, -0.02898826077580452, 0.08839718997478485, -0.2251468151807785, -0.059610962867736816, -0.1620800495147705, 0.054160818457603455, 0.07117468118667603, -0.008121303282678127, -0.11231855303049088, -0.1838153749704361, 0.005830094218254089, -0.0036120680160820484, 0.059908442199230194, 0.011331330053508282, 0.06488251686096191, -0.08949370682239532, -0.12252365797758102, -0.08842311799526215, -0.0371064729988575, -0.0044240085408091545, 0.07416298985481262, -0.02010161243379116, -0.19588884711265564, 0.12228826433420181, -0.12173016369342804, 0.10333304852247238, -0.12336336821317673, 0.08185210824012756, 0.018448790535330772, 0.04058945178985596, -0.050576869398355484, -0.05960196256637573, -0.024665454402565956, -0.12385258078575134, 0.0671105831861496, -0.14229822158813477, 0.06782007962465286, -0.002319765044376254, -0.01975945197045803, -0.09346342831850052, 0.009104208089411259, 0.05850295349955559, -0.06251723319292068, 0.017371412366628647, -0.06647172570228577, 0.07401419430971146, -0.03841209411621094, 0.06361470371484756, -0.06242058798670769, 0.03357435762882233, -0.09059195220470428, 0.0031706569716334343, -0.06166316941380501, -0.03877505287528038, -0.05506375432014465, -0.1532328724861145, 0.015010407194495201, -0.16408522427082062, 0.004909532144665718, -0.10242876410484314], [-0.119273841381073, -1.2672268152236938, 0.02073727734386921, -0.23875604569911957, -0.7497020363807678, 0.06977931410074234, -1.7403876781463623, -3.6982059478759766, -0.2659153640270233, 0.25411102175712585, -0.13711045682430267, -0.34462735056877136, 2.003971576690674, -0.8658065795898438, 0.008799361996352673, -3.379049777984619, 0.08729976415634155, -0.3367933928966522, -0.11480787396430969, 0.7651769518852234, 0.6639306545257568, -0.24014924466609955, -0.8327403664588928, -0.6059024333953857, 0.2671234905719757, -1.2380651235580444, -0.09147193282842636, -3.5740861892700195, -0.6409620046615601, 0.9561209082603455, -0.37362048029899597, -0.1343674659729004, 0.6603797674179077, 0.18854111433029175, -1.5800303220748901, 0.1601002961397171, -1.795697569847107, -0.40272974967956543, 0.45818161964416504, -2.957611322402954, -3.4508073329925537, -1.1797170639038086, -0.5968472361564636, 1.110028862953186, 0.34988951683044434, 0.2493147850036621, 0.1079268679022789, -0.16387592256069183, 0.8454515337944031, -1.8883075714111328, 0.8338154554367065, -0.1330743134021759, 0.7406285405158997, -1.908078908920288, -0.4545588195323944, -0.39545121788978577, -1.5980839729309082, -2.390350818634033, 0.8114863038063049, 0.5316935181617737, 0.10342016071081161, -0.17897991836071014, 0.07035067677497864, 0.16295544803142548, -0.4483575224876404, 0.42768368124961853, -0.1230059564113617, 0.030044574290513992, -0.07175889611244202, -0.1668267548084259, -0.4996050000190735, -0.04714774712920189, -2.553232192993164, -1.3309402465820312, -0.2675830125808716, -0.9330294728279114, 0.24597416818141937, 0.36573314666748047, 0.5203667879104614, -2.1651670932769775, -0.8976876139640808, 0.7241840362548828, -0.5429641008377075, 0.54178786277771, 0.5559008121490479, 1.1740342378616333, 0.6361580491065979, 0.4934680759906769, 0.6206058859825134, 0.19433903694152832, 0.3611184060573578, 0.1622873991727829, 0.31661391258239746, -0.2172229290008545, 0.03963605314493179, 1.722542643547058, 0.5967666506767273, 0.24344490468502045, 2.0959560871124268, -1.111863136291504, -1.647072672843933, 0.2237311750650406, 0.23225843906402588, 0.2120237648487091, 0.3795353174209595, 0.38248172402381897, -0.35919296741485596, 0.07603104412555695, -0.3053709864616394, 0.011045307852327824, 0.4271365702152252, 0.06913810968399048, -0.2616911828517914, 0.21188202500343323, 0.5565741062164307, 0.21924647688865662, -0.47755300998687744, -2.956395387649536, 0.022342756390571594, -0.12618006765842438, 0.5716634392738342, -0.6895077228546143, 0.3379552662372589, 0.1981152445077896, 0.15625527501106262, -0.8460245728492737, 0.12408626824617386, 0.01800658367574215], [-0.04527837783098221, -0.034577712416648865, -0.000910351809579879, 0.050949741154909134, -0.07724341005086899, -0.08100711554288864, 0.07451320439577103, 0.01786806248128414, -0.029301514849066734, 0.07287469506263733, 0.08960840851068497, 0.03003840520977974, -0.08239798992872238, -0.0053555043414235115, -0.015814388170838356, 0.08017866313457489, 0.04889676719903946, 0.013594062067568302, 0.043002188205718994, -0.032106734812259674, -0.07136712223291397, -0.06287610530853271, 0.01957068219780922, 0.006587243638932705, -0.07768590748310089, -0.05253089219331741, -0.051115039736032486, 0.00578756257891655, -0.08751741796731949, 0.022650515660643578, -0.022992931306362152, -0.049866244196891785, 0.07669585198163986, -0.05861429125070572, 0.06716012209653854, 0.017764991149306297, 0.04174836724996567, -0.04917282983660698, 0.0636381059885025, 0.029604235664010048, -0.06817770004272461, 0.07247218489646912, 0.07896141707897186, 0.041521068662405014, 0.030628560110926628, 0.021886680275201797, 0.05182695388793945, -0.06693269312381744, 0.019409673288464546, -0.035403888672590256, -0.031703654676675797, 0.06858192384243011, 0.0032977683003991842, -0.03751040995121002, 0.07439965754747391, -0.04691372439265251, 0.07380160689353943, 0.03789171203970909, 0.06909097731113434, 0.035986997187137604, 0.0036051790229976177, 0.08588668704032898, 0.07894916832447052, -0.013177745044231415, 0.02880469337105751, -0.031181575730443, -0.06208980828523636, 0.08338283002376556, -0.007656589616090059, 0.018946290016174316, 0.07723838835954666, 0.0016476335003972054, 0.06851939857006073, 0.00568827148526907, 0.057729966938495636, 0.07413942366838455, 0.062319573014974594, -0.009213428944349289, 0.043602000921964645, 0.06296218931674957, 0.051963865756988525, 0.058712080121040344, -0.013542704284191132, 0.013767142780125141, 0.07024692744016647, 0.00661034369841218, -0.07344198226928711, 0.013322601094841957, 0.08150139451026917, -0.0029718868900090456, 0.05967770144343376, -0.07466387748718262, 0.017239034175872803, 0.011971320025622845, -0.060386765748262405, 0.028099574148654938, -0.029553977772593498, -0.010775883682072163, -0.0038040278013795614, -0.022687867283821106, 0.06671564280986786, 0.08589071780443192, -0.06239323318004608, 0.052790116518735886, -0.01587548293173313, -0.019649986177682877, 0.04431731626391411, 0.08098515123128891, 0.052357811480760574, 0.04490198940038681, -0.005414487328380346, -0.06708361953496933, -0.03408888354897499, 0.012557572685182095, -0.04412974789738655, 0.03217111900448799, -0.05709904804825783, -0.08346147835254669, 0.04623005539178848, -0.020933855324983597, 0.03767332062125206, 0.032562557607889175, -0.04841955378651619, 0.07780405133962631, 0.003521461971104145, 0.08210925757884979, 0.03775366023182869, 0.03908717259764671], [0.05458385497331619, -0.006443975027650595, -0.07067537307739258, 0.07063940912485123, -0.050790999084711075, 0.011371907778084278, 0.07770807296037674, 0.025223685428500175, 0.056078679859638214, 0.0014987883623689413, 0.06371688097715378, -0.027881227433681488, 0.025860728695988655, 0.018034394830465317, -0.011241857893764973, 0.04491974040865898, 0.022212998941540718, -0.027227509766817093, 0.007718374021351337, -0.01032595057040453, -0.07556542009115219, 0.010241699405014515, 0.056372616440057755, 0.022727107629179955, 0.02685536816716194, -0.08581274747848511, 0.064118891954422, -0.016513170674443245, 0.08476755768060684, 0.04861316829919815, 0.01064820121973753, 0.09066559374332428, 0.07492747902870178, -0.029977288097143173, -0.0895405113697052, 0.07806803286075592, 0.06785248219966888, -0.050673678517341614, -0.06912942975759506, -0.03865758329629898, -0.025428881868720055, -0.0854044109582901, 0.08613692224025726, -0.009854317642748356, -0.03616185858845711, 0.05826490372419357, 0.06461136043071747, 0.05078104883432388, -0.017034148797392845, 0.00767145212739706, -0.02618330903351307, 0.06348901242017746, -0.08513599634170532, 0.029407208785414696, 0.03122580051422119, -0.02969006448984146, -0.08639901131391525, 0.08577239513397217, 0.072447769343853, -0.035983607172966, -0.06020841747522354, -0.06387066096067429, -0.08636181056499481, -0.0618743859231472, -0.008774644695222378, -0.045308880507946014, -0.0724879652261734, 0.05475315824151039, -0.027148472145199776, -0.03440815582871437, 0.09282130002975464, 0.005445368587970734, 0.08022850006818771, -0.0485515259206295, 0.07591640949249268, 0.06483016908168793, 0.061416760087013245, -0.09043583273887634, -0.07646384090185165, 0.0090536093339324, 0.006482026074081659, 0.03794829547405243, -0.0077285789884626865, -0.06446045637130737, -0.043718334287405014, -0.04283797740936279, 0.0025012416299432516, 0.06697279214859009, 0.004132864531129599, 0.038726892322301865, -0.06024313345551491, -0.07802288979291916, -0.08425308763980865, 0.060974251478910446, -0.07021716237068176, -0.0746668204665184, 0.006329454947263002, 0.045969702303409576, 0.0025945964735001326, 0.03358762711286545, -0.015468697063624859, -0.007202387787401676, -0.08868692070245743, 0.06806723028421402, 0.0322013758122921, 0.007490945514291525, 0.08024206012487411, -0.03748850151896477, 0.000886162684764713, 0.03037886507809162, -0.0741591826081276, 0.029091082513332367, 0.04478900134563446, -0.0007013710564933717, 0.0007593988557346165, -0.07147616893053055, 0.026534073054790497, -0.0479268915951252, -0.008068458177149296, 0.012821908108890057, -0.03921893611550331, -0.03191917762160301, 0.07634127885103226, 0.08137901872396469, 0.013863855041563511, 0.0036607496440410614, -0.03793195262551308, -0.04713521897792816], [0.08196212351322174, -0.062947116792202, -0.07965224236249924, 0.051785677671432495, 0.0896894559264183, 0.08213361352682114, -0.052016545087099075, 0.035731133073568344, -0.03416275233030319, 0.01957773044705391, -0.07238784432411194, 0.03231921046972275, -0.0189202893525362, -0.05561307072639465, 0.09094561636447906, -0.025430859997868538, 0.0659017264842987, -0.017703507095575333, 0.0398508757352829, -0.01795990578830242, -0.025196850299835205, 0.03302058205008507, 0.030798161402344704, -0.05778553709387779, -0.06977283209562302, -0.07578575611114502, -0.09050658345222473, 0.04501250758767128, -0.04678365960717201, -0.03434723988175392, -0.0007112646126188338, -0.07380587607622147, -0.013492003083229065, -0.07431463897228241, -0.06935722380876541, -0.06975182890892029, -0.06081352382898331, 0.06249973177909851, -0.04906810447573662, 0.016846749931573868, 0.005384695716202259, -0.033797625452280045, -0.03258901461958885, 0.08184988051652908, 0.07335036993026733, -0.04977383464574814, -0.06115971878170967, 0.004690759349614382, -0.023371009156107903, -0.08987512439489365, 0.02803216502070427, 0.0008651083335280418, 0.04073142260313034, -0.0034744178410619497, -0.09251011162996292, 0.049748677760362625, -0.012733478099107742, -0.07934124767780304, -0.007809054106473923, -0.0654396265745163, -0.07936610281467438, -0.007293352857232094, 0.04164798557758331, 0.020514925941824913, -0.01623193919658661, -0.02082531526684761, -0.018324676901102066, -0.04484342783689499, -0.049972448498010635, 0.0636792704463005, -0.04063433036208153, -0.026486683636903763, -0.07253596931695938, 0.0677371546626091, 0.014924686402082443, -0.008631800301373005, 0.09246844798326492, 0.04933694005012512, -0.02665628492832184, -0.0580952912569046, -0.032067958265542984, -0.06256753951311111, 0.03661954775452614, 0.07876596599817276, -0.0848751962184906, 0.032235682010650635, -0.03155602887272835, -0.06320012360811234, 0.038278836756944656, -0.037391599267721176, 0.05330789089202881, 0.009482888504862785, -0.043088462203741074, 0.09252399951219559, 0.03346170112490654, -0.014725036919116974, -0.028057532384991646, 0.06254567205905914, 0.008397801779210567, 0.013316554017364979, -0.09110479056835175, -0.04465259239077568, 0.025739939883351326, -0.08403698354959488, 0.023039598017930984, -0.0894647091627121, 0.06426794826984406, 0.07078713923692703, 0.064485102891922, -0.07575881481170654, -0.0011698328889906406, 0.07602537423372269, -0.020292043685913086, 0.04596849903464317, 0.004617480561137199, -0.07739467173814774, 0.040469300001859665, 0.059391334652900696, 0.08174294233322144, -0.032403428107500076, -0.05527869239449501, -0.08260665833950043, -0.018800711259245872, 0.05906357988715172, 0.005440566223114729, 0.07451234757900238, 0.0888860896229744, 0.04809331148862839], [-0.0681689977645874, -0.06376449763774872, -0.08697953075170517, -0.09221576154232025, 0.07947371900081635, 0.015930652618408203, 0.0854913741350174, 0.05103977024555206, -0.007977837696671486, -0.03753615543246269, 0.0848788321018219, -0.07949639111757278, -0.08351478725671768, 0.03592218831181526, -0.020092150196433067, 0.013681480661034584, -0.07374966144561768, -0.0392020158469677, 0.05914673954248428, 0.0424373559653759, 0.0821220651268959, 0.07206378877162933, -0.05803260579705238, -0.06264252960681915, -0.03498154878616333, -0.0583542138338089, 0.014597187750041485, -0.05146374925971031, 0.04149937257170677, -0.051608484238386154, 0.004735835827887058, -0.061924878507852554, -0.07611590623855591, 0.05831259489059448, 0.024664467200636864, -0.026516364887356758, -0.023313404992222786, -0.03765351325273514, -0.07343843579292297, 0.06166698783636093, -0.07017119228839874, 0.005658301990479231, -0.08881973475217819, -0.024079037830233574, -0.0006892431410960853, -0.011113564483821392, -0.016678515821695328, 0.09099496901035309, -0.017769327387213707, -0.019129497930407524, 0.03677566722035408, -0.010072153992950916, -0.07225072383880615, 0.04550473764538765, -0.09296230226755142, 0.08940214663743973, -0.0003812946379184723, 0.06938763707876205, -0.05179990455508232, -0.03959174454212189, 0.0580221563577652, 0.034911759197711945, -0.09170945733785629, 0.07273068279027939, -0.0442080982029438, 0.05657488852739334, 0.00542535912245512, 0.08738045394420624, -0.08694183826446533, -0.007207912392914295, 0.09264712035655975, -0.06778877973556519, 0.04400603473186493, -0.06675898283720016, -0.018645692616701126, -0.034737490117549896, 0.05918627977371216, 0.022880535572767258, -0.08724460005760193, -0.0481647253036499, 0.06971251964569092, 0.09113828837871552, -0.01472518127411604, 0.05608691647648811, 0.05267190560698509, -0.07210779190063477, 0.03255757689476013, 0.08782251179218292, -0.07018189877271652, -0.019816642627120018, -0.009955709800124168, -0.03648427501320839, 0.08903622627258301, 0.019124139100313187, -0.03827757015824318, 0.042899295687675476, -0.006965198554098606, 0.010398984886705875, -0.08747131377458572, 0.05590943247079849, -0.05960838124155998, -0.06739284843206406, 0.007124240044504404, -0.01943773217499256, 0.09138469398021698, -0.009161426685750484, 0.09159330278635025, -0.06088799238204956, 0.06278577446937561, 0.05582156032323837, 0.055103521794080734, -0.0715954601764679, 0.0677979439496994, -0.007434874773025513, 0.026214968413114548, -0.08454927057027817, -0.044406212866306305, 0.08638893067836761, -0.08648891001939774, 0.07546766847372055, 0.07608421891927719, -0.06538225710391998, -0.01663617230951786, -0.060323938727378845, -0.03714628517627716, -0.04411737620830536, 0.008763217367231846, -0.05985339358448982], [-0.016315732151269913, -0.10146651417016983, 0.034778330475091934, -0.44023752212524414, 0.21664972603321075, 0.0052210548892617226, 0.11214976012706757, -0.007968905381858349, -0.07529469579458237, 0.35044318437576294, 0.13169823586940765, 0.22962769865989685, -0.23993587493896484, 0.01147770881652832, -0.40652400255203247, -0.021079128608107567, -0.43426692485809326, -0.25880226492881775, -0.0648503378033638, -0.16203580796718597, -0.12974508106708527, 0.3329550623893738, -0.43964430689811707, 0.2253926545381546, 0.1858033835887909, -0.2983887493610382, 0.04978516697883606, 0.2568680942058563, 0.5774453282356262, 0.054835882037878036, -0.21194881200790405, -0.1301601529121399, -0.2931255102157593, -0.311675101518631, -0.2734321653842926, 0.19664955139160156, 0.36730149388313293, -0.5200762152671814, 0.043812550604343414, -0.4873928725719452, 0.105350561439991, 0.35306257009506226, 0.012315924279391766, -0.1381991058588028, 0.3961867392063141, -0.10694976896047592, -0.36159658432006836, 0.19630324840545654, -0.25383925437927246, -0.21026426553726196, 0.057267095893621445, -0.15158316493034363, -0.36070507764816284, -0.0644637867808342, -0.3216157853603363, 0.10054917633533478, -0.38644033670425415, 0.1069195494055748, 0.21390679478645325, 0.032375093549489975, -0.25367647409439087, -0.002347549656406045, -0.029137423262000084, -0.029202884063124657, 0.22609655559062958, -0.31505218148231506, 0.07733312249183655, -0.01368679478764534, -0.11911512166261673, 0.06874828785657883, -0.1615610420703888, -0.04551053047180176, -0.08815106749534607, -0.06920506805181503, 0.19456526637077332, -0.2156245857477188, -0.0423654168844223, 0.2205192595720291, 0.2077106386423111, -0.20302020013332367, 0.08614519238471985, -0.5487338304519653, 0.09587593376636505, -0.059630561619997025, -0.08851463347673416, -0.21251165866851807, 0.011646068654954433, -0.10897937417030334, -0.5436127185821533, -0.01650700531899929, -0.16873270273208618, 0.37177756428718567, -0.12353228777647018, -0.02155456133186817, 0.0683421716094017, -0.41057851910591125, 0.2900528907775879, -0.05403806269168854, 0.023383188992738724, -0.7447346448898315, -0.32463204860687256, -0.23715724050998688, -0.04817147180438042, -0.26633670926094055, -0.2649422287940979, 0.1389957070350647, -0.037015803158283234, 0.11536391079425812, 0.22265508770942688, 0.06539209932088852, -0.17263539135456085, -0.07607700675725937, -0.10760167241096497, -0.4089497923851013, -0.35178107023239136, 0.08919623494148254, 0.13194133341312408, -0.556077241897583, -0.02141723409295082, -0.2159721702337265, 0.23537109792232513, -0.41569623351097107, 0.09945686161518097, -0.3157042860984802, -0.15103381872177124, 0.23347623646259308, 0.02225651405751705, 0.08097615092992783], [-0.1645820438861847, -0.06059086322784424, -0.052061423659324646, 0.03591730073094368, -0.006465213373303413, -0.0702584981918335, -0.050979647785425186, 0.06600838154554367, -0.008016785606741905, 0.04520467668771744, 0.15249104797840118, 0.10274887830018997, 0.018216177821159363, 0.007102675270289183, -0.007017909083515406, 0.03807749226689339, -0.09001308679580688, -0.12180660665035248, 0.12628784775733948, -0.07690253108739853, -0.1745089441537857, -0.027089683338999748, 0.010670458897948265, 0.09917891025543213, 0.06758328527212143, 0.057348813861608505, 0.051609933376312256, -0.15228505432605743, -0.06708771735429764, -0.1488323211669922, -0.11629708856344223, 0.006113490555435419, 0.039533283561468124, -0.11273039877414703, 0.025289960205554962, 0.05035340040922165, 0.02031070739030838, -0.1307075172662735, -0.10971730947494507, -0.08902406692504883, -0.11077726632356644, -0.017137940973043442, -0.15949144959449768, 0.07260022312402725, -0.14185498654842377, -0.07471146434545517, 0.04893847182393074, 0.11044898629188538, -0.10052672773599625, -0.051019590348005295, -0.04442228749394417, -0.06550738215446472, -0.05292216315865517, 0.013078514486551285, 0.08825501799583435, -0.025380276143550873, 0.011881481856107712, 0.1402304768562317, -0.0136412987485528, -0.08370941877365112, 0.030099771916866302, -0.09047746658325195, -0.0006230371072888374, 0.23393531143665314, 0.02733798325061798, -0.08726256340742111, 0.046649690717458725, -0.05185604467988014, 0.02905549481511116, -0.023075738921761513, -0.02975349687039852, -0.0069647133350372314, 0.0015490053920075297, 0.1394195854663849, 0.13493892550468445, -0.030100688338279724, -0.131626695394516, 0.025036267936229706, 0.05097589269280434, -0.19406655430793762, -0.019176529720425606, 0.02676651068031788, -0.02961030974984169, 0.05385846644639969, -0.11962728947401047, -0.0864974856376648, -0.048650339245796204, 0.07500407099723816, 0.06400687247514725, -0.15335670113563538, -0.17381533980369568, 0.1612405627965927, -0.00966446753591299, 0.12850075960159302, 0.02387852594256401, -0.0855712965130806, 0.15150034427642822, 0.046106982976198196, 0.06615231186151505, 0.03646788001060486, -0.1079866960644722, -0.29382845759391785, -0.05830727145075798, 0.014792332425713539, 0.014221150428056717, -0.05741729959845543, -0.06732812523841858, 0.10214143991470337, 0.05941499024629593, 0.01880740001797676, -0.03502660617232323, 0.01804693415760994, 0.08075238764286041, -0.02260768972337246, 0.04805540293455124, -0.12353751808404922, -0.04622924327850342, 0.010965845547616482, -0.061277519911527634, -0.10201692581176758, -0.16450214385986328, -0.03914757817983627, -0.11684606969356537, -0.09076422452926636, 0.09910350292921066, -0.05771594122052193, 0.026334716007113457, 0.06915966421365738], [-0.059687502682209015, -0.08250787854194641, -0.024772975593805313, -0.007755779195576906, 0.11358713358640671, 0.0015580798499286175, -0.07037045806646347, 0.17181311547756195, -0.5031906962394714, -0.11293572187423706, -0.09151711314916611, 0.11142133176326752, 0.1789342314004898, -0.007303099613636732, 0.21232251822948456, -0.036327820271253586, 0.0284278504550457, 0.038401857018470764, -0.2808866798877716, -0.057206641882658005, -0.05492265895009041, 0.2057790756225586, -0.5247287750244141, -0.03984788805246353, -0.019627049565315247, -0.05273636430501938, 0.023807035759091377, 0.24344588816165924, 0.04499533399939537, -0.11391185969114304, 0.18327151238918304, -0.05125374719500542, -0.16195730865001678, -0.12139701843261719, 0.23056480288505554, -0.277410626411438, -0.11601486802101135, 0.1426924616098404, 0.0737689957022667, 0.007561360020190477, 0.03306269645690918, -0.1312413364648819, -0.22351451218128204, -0.012391632422804832, 0.18253359198570251, 0.16948069632053375, -0.1985892951488495, -0.438407838344574, -0.11232180893421173, 0.12525852024555206, -0.07680060714483261, 0.14617346227169037, 0.08289801329374313, 0.22379301488399506, 0.0041681150905787945, -0.03819005563855171, 0.2598816752433777, 0.10013961046934128, -0.013376019895076752, -0.21864750981330872, -0.434780091047287, -0.32721081376075745, 0.040986038744449615, -0.25936412811279297, 0.2805415391921997, 0.12003785371780396, -0.21828576922416687, 0.03473535552620888, -0.06718041747808456, 0.312127947807312, -0.05967482924461365, -0.003694460727274418, 0.03219291567802429, -0.14172065258026123, -0.4174555540084839, -0.13188503682613373, 0.22944773733615875, -0.25143080949783325, 0.03768187388777733, -0.08563058078289032, 0.03304501622915268, -0.08485490828752518, -0.10815204679965973, -0.03120861016213894, -0.09139323979616165, -0.25572389364242554, -0.0529668927192688, -0.1519322246313095, -0.24513179063796997, -0.23582129180431366, 0.05554107576608658, -0.17483696341514587, 0.2470599263906479, -0.3923155665397644, -0.015224934555590153, -0.11544432491064072, 0.06696528196334839, 0.07296951860189438, 0.12992848455905914, -0.11976830661296844, 0.10343942791223526, 0.27406996488571167, -0.31064459681510925, 0.2358848750591278, -0.18813399970531464, 0.1745709925889969, 0.08825799822807312, -0.11917926371097565, -0.21680955588817596, 0.06691108644008636, 0.30735209584236145, -0.03895917162299156, -0.43396493792533875, -0.2099103331565857, 0.019403599202632904, 0.16020318865776062, -0.20017099380493164, 0.07154405117034912, 0.028956357389688492, 0.1682504415512085, -0.024948900565505028, 0.11380483955144882, -0.2690585255622864, 0.07694702595472336, 0.1171681359410286, 0.014873652718961239, 0.15701504051685333, -0.3218401372432709], [0.08840318024158478, 0.16760113835334778, -0.05348560959100723, 0.02445094659924507, 0.09902049601078033, -0.015387285500764847, -0.008362269029021263, 0.023410014808177948, 0.09274126589298248, -0.03161788359284401, 0.06458913534879684, -0.029832392930984497, -0.12440688163042068, 0.13741464912891388, 0.07440732419490814, 0.001349421450868249, 0.13753952085971832, -0.08020364493131638, 0.24990665912628174, -0.0497039258480072, 0.20274288952350616, 0.08086752146482468, 0.19350585341453552, -0.5905361175537109, 0.008894364349544048, -0.01293172873556614, -0.08359191566705704, 0.038039885461330414, 0.05603271350264549, -0.03616297245025635, 0.014537929557263851, -0.0046721408143639565, -0.14787378907203674, 0.18297956883907318, -0.07480978220701218, 0.1296825408935547, 0.1668929159641266, 0.010377882048487663, 0.12338967621326447, 0.08892406523227692, 0.15051597356796265, 0.06495200842618942, 0.06647134572267532, 0.1344185173511505, -0.07073115557432175, -0.31789565086364746, 0.03443079814314842, 0.04354241490364075, 0.13730944693088531, -0.031767837703228, 0.08596399426460266, 0.18812376260757446, -0.11723227798938751, -0.016617687419056892, -0.9145323634147644, -0.08801035583019257, -0.28567612171173096, -0.13143543899059296, -0.036023546010255814, 0.09850098192691803, -0.2780406177043915, -0.0875995010137558, -0.028396090492606163, -0.5230205655097961, 0.016893737018108368, 0.2412356585264206, -0.056653060019016266, -0.016189752146601677, 0.222843199968338, 0.011933417059481144, 0.056590866297483444, 0.001113985781557858, 0.02331080287694931, 0.24093545973300934, 0.06388469785451889, 0.05544162169098854, -0.11418697237968445, -0.16708730161190033, 0.07703975588083267, 0.16803619265556335, 0.10882855951786041, 0.030994392931461334, -0.10064860433340073, -0.038272395730018616, 0.07797495275735855, 0.0829366147518158, 0.022731777280569077, -0.2738952040672302, 0.17838595807552338, 0.2986980974674225, 0.25938329100608826, -0.01116902194917202, -0.12995991110801697, 0.12323737144470215, -0.03458920121192932, -0.025315267965197563, 0.09370493143796921, 0.021025611087679863, 0.10804884135723114, 0.18640625476837158, -0.04905754700303078, -0.27506017684936523, 0.10611479729413986, -0.4082474112510681, 0.1449499875307083, -0.47331804037094116, 0.2174030989408493, 0.006389819085597992, 0.16578710079193115, -0.044310398399829865, 0.10076791048049927, 0.01964033767580986, 0.10054337233304977, 0.22146396338939667, -0.18004260957241058, 0.034609515219926834, 0.19140662252902985, 0.17912648618221283, 0.07573378086090088, -0.009997946210205555, -0.1341368556022644, -0.128528892993927, -0.23951125144958496, -0.2253236621618271, 0.024988291785120964, -0.039794471114873886, -0.31948304176330566, 0.18487396836280823], [-0.001653275336138904, 0.13235387206077576, -0.02220550738275051, 0.5170872211456299, -0.20565572381019592, 0.011964790523052216, 0.6744323372840881, -0.011170517653226852, 0.09414222836494446, -0.2233085185289383, -0.21979191899299622, 0.021288547664880753, 0.26099056005477905, 0.24291770160198212, 0.28322291374206543, 0.286672443151474, 0.3919033408164978, 0.34362390637397766, 0.10287511348724365, 0.2814444601535797, -0.031984537839889526, -0.030824773013591766, -0.07084417343139648, -0.5295284390449524, 0.1935620903968811, 0.02931644767522812, 0.0027281546499580145, -0.08932265639305115, -0.13159765303134918, 0.14015640318393707, 0.02037917450070381, 0.1754128485918045, 0.06147582456469536, 0.14994674921035767, 0.30834975838661194, -0.0700284093618393, -0.19904105365276337, 0.0132780522108078, 0.06332442164421082, 0.14338910579681396, -0.31821978092193604, -0.18861009180545807, 0.34457260370254517, -0.3189068138599396, -0.28755801916122437, 0.34885239601135254, 0.2137080878019333, 0.04642815515398979, 0.45755547285079956, -0.05151459202170372, -0.5967392325401306, -0.0361441895365715, -0.07071096450090408, 0.04879074543714523, 0.0956934317946434, -0.05821596458554268, 0.0908232256770134, -0.44545790553092957, -0.29103878140449524, -0.0763651505112648, 0.11377674341201782, 0.2054147571325302, -0.08227947354316711, 0.025010114535689354, -0.20756444334983826, 0.0625888779759407, 0.2819257974624634, 0.08875149488449097, 0.14111961424350739, 0.030479153618216515, 0.17251574993133545, -0.12396283447742462, 0.19956721365451813, 0.25951793789863586, 0.08108413219451904, 0.3529509902000427, 0.04299988970160484, 0.42529818415641785, -0.08814679086208344, 0.3629649877548218, 0.16638831794261932, 0.07101956754922867, -0.02083892561495304, -0.23235255479812622, -0.042516615241765976, 0.258943647146225, 0.05156317725777626, 0.5054188966751099, -0.12747983634471893, 0.02230122685432434, -0.1075228750705719, -0.560312807559967, -0.14481346309185028, 0.10384134948253632, -0.3891226053237915, 0.23868079483509064, -0.016268977895379066, -0.06416862457990646, -0.2585233449935913, 0.10917514562606812, 0.019937753677368164, 0.32194381952285767, -0.0020321467891335487, 0.11723429709672928, 0.025041503831744194, -0.08831200003623962, 0.06963314116001129, -0.1327691227197647, 0.21300141513347626, -0.06348951160907745, 0.3429983854293823, -0.04494941234588623, -0.10552845895290375, 0.13640925288200378, 0.05273296311497688, 0.014644586481153965, -0.09763070940971375, -0.22147981822490692, -0.11085092276334763, 0.43082693219184875, -0.17854884266853333, 0.1912740021944046, -0.13147976994514465, 0.14536118507385254, -0.2822459042072296, -0.32477012276649475, -0.0966954454779625, 0.15806014835834503], [-0.18344146013259888, 0.07667424529790878, -0.06806342303752899, 0.057360127568244934, 0.11580047756433487, 0.022286565974354744, -0.11726880818605423, -0.11341032385826111, -0.19622769951820374, 0.09269808232784271, 0.20660372078418732, -0.016788771376013756, 0.0833992138504982, -0.02021784707903862, 0.05319749191403389, 0.15904302895069122, 0.3048335909843445, -0.0023040883243083954, 0.2756778299808502, 0.19075706601142883, -0.021698450669646263, 0.14371654391288757, -0.4376906156539917, -0.04867367073893547, 0.20346100628376007, -0.10605478286743164, -0.059720687568187714, -0.06707901507616043, 0.1497330516576767, 0.07444325089454651, -0.4994257688522339, -0.034154485911130905, 0.10075746476650238, 0.11260675638914108, 0.07572636753320694, 0.1862688511610031, -0.29833829402923584, -0.5089945197105408, -0.19072304666042328, -0.2744424045085907, -0.26111751794815063, -0.06947361677885056, 0.00723000755533576, 0.09057391434907913, -0.07177102565765381, 0.29285046458244324, 0.03201047703623772, 0.14765231311321259, 0.2861872911453247, -0.4426959455013275, 0.29209133982658386, 0.21829117834568024, -0.1568318009376526, 0.049699749797582626, -0.5517404675483704, 0.2612111270427704, 0.07007476687431335, -0.005815895274281502, 0.05984768643975258, -0.09434353560209274, -0.10910071432590485, -0.31575557589530945, -0.09269092977046967, -0.11720747500658035, 0.287910521030426, 0.16733025014400482, -0.07458283007144928, 0.010372194461524487, -0.17220598459243774, -0.046264488250017166, 0.22547157108783722, 0.08966052532196045, -0.31746187806129456, -0.20036917924880981, -0.06201918050646782, -0.06020718440413475, 0.09539235383272171, 0.22560350596904755, 0.09521728754043579, -0.2391422837972641, -0.10635233670473099, 0.14760252833366394, -0.11222001910209656, 0.052651822566986084, 0.00270514446310699, 0.40064796805381775, -0.1131606325507164, -0.014725417830049992, 0.35338690876960754, -0.0301411971449852, -0.7599561810493469, 0.24636076390743256, 0.0055977045558393, 0.004925954155623913, 0.41821911931037903, 0.3110482394695282, 0.4524247348308563, 0.029977774247527122, 0.348980575799942, -1.1399080753326416, -0.19579918682575226, 0.18308115005493164, 0.19684895873069763, -0.04237920045852661, 0.23961098492145538, 0.30798450112342834, -0.018259096890687943, -0.04262686148285866, 0.13295550644397736, -0.0831301137804985, 0.2966476380825043, 0.008512726053595543, -0.01118621975183487, 0.1403372585773468, -0.22498956322669983, 0.05032923445105553, 0.35989993810653687, -0.1430821567773819, -0.05219453573226929, 0.17955756187438965, -0.1747649610042572, -1.0065616369247437, 0.11837035417556763, 0.01548419613391161, 0.1988593488931656, 0.1322842836380005, 0.41658005118370056, 0.11057024449110031], [0.0839625671505928, 0.07916931062936783, -0.06720416247844696, -0.10120466351509094, 9.029531793203205e-05, 0.0591457225382328, 0.02538357488811016, 0.10039444267749786, -0.14769676327705383, -0.06937306374311447, -0.20340178906917572, 0.03676602244377136, -0.08395423740148544, 0.04426726698875427, 0.12145616859197617, 0.013252087868750095, -0.0801028162240982, 0.02865314483642578, -0.1236017569899559, -0.10307500511407852, -0.12281975150108337, -0.07245512306690216, -0.038709647953510284, -0.1296818107366562, -0.025221770629286766, 0.05696059763431549, -0.0371764712035656, -0.0015571825206279755, 0.01538192480802536, 0.05071749538183212, -0.24023789167404175, -0.17112846672534943, -0.18716175854206085, 0.13883472979068756, -0.03737138211727142, -0.10069450736045837, 0.0423370786011219, 0.14689567685127258, 0.06864525377750397, 0.08987341076135635, -0.031693894416093826, 0.008987117558717728, 0.009076707996428013, 0.07475109398365021, 0.0908699482679367, -0.03859908878803253, -0.0875595286488533, -0.07885406911373138, -0.20889407396316528, 0.07771489024162292, -0.011767114512622356, 0.10054215043783188, -0.21952000260353088, 0.09775862842798233, 0.0918266773223877, -0.05108800157904625, 0.05587877705693245, 0.039810966700315475, -0.2376798838376999, -0.0626615583896637, -0.27053752541542053, -0.08394085615873337, -0.03976842015981674, -0.353451132774353, 0.13765831291675568, 0.05640381947159767, 0.07624872028827667, 0.061537548899650574, 0.05222504213452339, 0.018567025661468506, -0.07083236426115036, -0.06646785140037537, 0.051768939942121506, -0.000931484391912818, -0.14918109774589539, 0.08699362725019455, 0.08632650226354599, 0.04322929307818413, 0.06389809399843216, -0.022548360750079155, -0.009153543971478939, -0.24938471615314484, -0.16740451753139496, -0.15075398981571198, -0.11242900788784027, 0.06637672334909439, 0.031900063157081604, -0.0951538234949112, 0.007159307133406401, 0.006961922626942396, -0.09880336374044418, -0.03297058120369911, 0.07184792309999466, -0.027610106393694878, -0.06173310428857803, 0.04777918756008148, 0.028166677802801132, 0.02003214694559574, 0.009057987481355667, 0.02835146151483059, 0.049068134278059006, -0.06712330877780914, -0.15356571972370148, -0.20598956942558289, 0.027792634442448616, 0.027228249236941338, 0.05267496779561043, -0.030783379450440407, -0.041391097009181976, -0.023794569075107574, 0.04542887210845947, -0.08309463411569595, -0.06456729024648666, -0.047097597271203995, -0.01706145703792572, 0.03637479245662689, -0.023302428424358368, 0.09057815372943878, -0.08675309270620346, 0.13407622277736664, -0.04051591083407402, 0.02021406963467598, -0.093938447535038, 0.05810956656932831, -0.11692345887422562, -0.04008449614048004, -0.08306805044412613, -0.2229229360818863], [-0.3176310062408447, -0.1585359424352646, 0.027249064296483994, -0.31057387590408325, 0.06860347092151642, -0.08464687317609787, 0.18550638854503632, -0.14296281337738037, -0.2392987757921219, -0.20708493888378143, -0.2083926498889923, 0.12835492193698883, 0.04886140301823616, 0.1508193016052246, 0.026888832449913025, -0.06744170933961868, -0.4115125834941864, 0.06816817820072174, -0.2501451075077057, 0.01671445183455944, -0.06206262856721878, -0.026768092066049576, -0.3346686065196991, -0.4918209910392761, 0.042741961777210236, -0.5134962201118469, 0.06207428127527237, 0.10498099029064178, -0.07261624187231064, 0.3263106346130371, -0.07047804445028305, -0.031659360975027084, -0.13469095528125763, 0.0093074981123209, -0.11307171732187271, -0.09549883753061295, -0.23511004447937012, 0.052826181054115295, 0.1148749515414238, -0.12527281045913696, -0.25972315669059753, -0.48614946007728577, 0.09125968813896179, -0.03870006278157234, 0.393420547246933, 0.09707946330308914, -0.11237490922212601, -0.26236340403556824, -0.2532700300216675, 0.11617554724216461, -0.07725246995687485, 0.11442822962999344, -0.29889270663261414, 0.159077987074852, 0.16990573704242706, 0.14204098284244537, -0.004731122869998217, -0.20547913014888763, 0.03565293923020363, -0.08888410031795502, -0.2625032365322113, 0.0055119250901043415, 0.07123977690935135, -0.6101565957069397, 0.2159622758626938, 0.32559242844581604, 0.14411522448062897, 0.023938950151205063, -0.21615219116210938, 0.32411012053489685, -0.2191256731748581, -0.03907512128353119, -0.028344441205263138, -0.29089057445526123, -0.28459030389785767, -0.23216727375984192, 0.09513320028781891, -0.21155743300914764, -0.1531650722026825, 0.3082212805747986, 0.10677415877580643, -0.13115563988685608, -0.28238576650619507, -0.002835287479683757, -0.4883386194705963, -0.20938393473625183, -0.2784852385520935, -0.040780842304229736, -0.17352613806724548, 0.1704103946685791, -0.10639218240976334, -0.06152205914258957, 0.17080684006214142, -0.21880675852298737, -0.21390239894390106, 0.16695527732372284, 0.16684232652187347, 0.1765592098236084, 0.2788158059120178, -0.09238440543413162, 0.13655723631381989, 0.36744385957717896, -0.3046807050704956, 0.10420441627502441, -0.23832042515277863, 0.04903516173362732, -0.10058731585741043, -0.03328686207532883, -0.13951033353805542, -0.018881142139434814, 0.4398898482322693, 0.07282301038503647, -0.16274814307689667, 0.09254366904497147, -0.004323598928749561, 0.42817211151123047, -0.20590250194072723, 0.05786208435893059, -0.054007019847631454, 0.27995729446411133, -0.017130058258771896, -0.0787622481584549, 0.0329304002225399, -0.004175035282969475, -0.030221423134207726, -0.31227928400039673, 0.25282466411590576, -0.5491684675216675], [0.12326081097126007, 0.04673313722014427, -0.032566845417022705, 0.17055022716522217, -0.15524807572364807, 0.01862349919974804, -0.24912244081497192, -0.03847256675362587, -0.18174348771572113, -0.062225621193647385, 0.0664721429347992, -0.03021056391298771, 0.11601085215806961, 0.010043616406619549, 0.2361905574798584, 0.007018895819783211, 0.24147796630859375, -0.1208258643746376, 0.1050306186079979, -0.1594487726688385, -0.07510613650083542, 0.23048725724220276, -0.28789377212524414, 0.15263719856739044, 0.06340353190898895, 0.26901957392692566, -0.03789856657385826, -0.11407367885112762, -0.014889328740537167, -0.26797759532928467, 0.30165547132492065, 0.2993834912776947, 0.11091271787881851, -0.028194889426231384, 0.10996333509683609, -0.04252159968018532, -0.007081880234181881, -0.04164920002222061, 0.04726080223917961, 0.07790809869766235, 0.06091969087719917, 0.11929725110530853, -0.25234025716781616, -0.013034272938966751, -0.008736896328628063, 0.3281068801879883, 0.15501870214939117, 0.0364089198410511, 0.24255721271038055, 0.039566803723573685, -0.32907211780548096, 0.21158427000045776, 0.3041943609714508, -0.07024882733821869, -0.6074026226997375, -0.02122930996119976, 0.09287162125110626, 0.13132858276367188, 0.0860028862953186, 0.07816420495510101, -0.17947180569171906, -0.43103036284446716, 0.036889392882585526, 0.2534078359603882, -0.004928938113152981, 0.03924356773495674, -0.1070990264415741, -0.06076044216752052, 0.12369756400585175, -0.1171378642320633, 0.28994059562683105, 0.0831989198923111, 0.1207544133067131, 0.12007953226566315, 0.12473230063915253, -0.022835401818156242, 0.05349903553724289, 0.2939757704734802, 0.025430386886000633, -0.48746004700660706, -0.2077959179878235, 0.3732738196849823, 0.034160465002059937, 0.1778368353843689, 0.11701884120702744, -0.03718935325741768, 0.24903327226638794, 0.29759204387664795, -0.9925265908241272, -0.14160504937171936, 0.26572278141975403, -0.02444274351000786, 0.1626453846693039, -0.1535048633813858, 0.30794578790664673, -0.28033435344696045, 0.18363206088542938, 0.06563682854175568, -0.04661424458026886, -0.11764965206384659, -0.2759014070034027, -0.17225340008735657, -0.09347414970397949, 0.1898837834596634, 0.041318628937006, 0.22215425968170166, 0.1673535704612732, -0.08431465178728104, 0.1151333674788475, -0.053145818412303925, 0.12658986449241638, -0.05936397612094879, -0.12756071984767914, -0.2150018960237503, -0.032838258892297745, -0.28939923644065857, 0.014570651575922966, -0.07844174653291702, 0.0215438362210989, 0.10430973023176193, 0.209170863032341, -0.04201016575098038, -0.1295156478881836, 0.1425831913948059, 0.11516929417848587, 0.1639537364244461, -0.004941829480230808, 0.2576930820941925], [0.34294769167900085, 0.16717658936977386, 0.050892699509859085, 0.24494668841362, -0.07975658774375916, -0.06981825083494186, -0.04826667532324791, -0.127618670463562, 0.0750565230846405, 0.17177557945251465, -0.1266840100288391, 0.1549917310476303, -0.295637309551239, 0.268046110868454, -0.10269121825695038, 0.03561526536941528, 0.029263300821185112, -0.3168522119522095, 0.0015657591866329312, -0.34582388401031494, 0.1228533685207367, 0.020596686750650406, 0.03951169177889824, 0.06181231513619423, -0.17710278928279877, -0.2039095014333725, -0.07541503757238388, 0.22120387852191925, 0.03841380029916763, -0.2379014939069748, 0.22880582511425018, -0.2077697217464447, -0.266328364610672, 0.046214889734983444, -0.31552061438560486, -0.2026548832654953, 0.29652291536331177, 0.20504146814346313, 0.19748035073280334, -0.14180544018745422, 0.13385547697544098, -0.08271918445825577, 0.030971338972449303, -0.34341368079185486, 0.2794282138347626, -0.36082005500793457, 0.03958583250641823, -0.11922994256019592, -0.5391116142272949, 0.31543949246406555, -0.9289339184761047, -0.27013489603996277, -0.0190882571041584, 0.0636148676276207, -0.1502181887626648, -0.1906111091375351, -0.26518183946609497, 0.23573437333106995, -0.49514293670654297, 0.21788163483142853, 0.07927004247903824, 0.18360961973667145, 0.04463732987642288, 0.16925010085105896, -0.1510273665189743, -0.2931526303291321, -0.10552968084812164, 0.01956554688513279, 0.18024824559688568, 0.020696060732007027, 0.17172659933567047, -0.04157401621341705, -0.06990256160497665, 0.11037851870059967, -0.16203179955482483, -0.07689277827739716, 0.19554054737091064, -0.17435409128665924, -0.20556668937206268, 0.19796116650104523, 0.34848758578300476, -0.07028785347938538, 0.20444905757904053, -0.18275095522403717, 0.17695331573486328, -0.5590214729309082, 0.2830143868923187, -0.08118879795074463, -0.1702529937028885, 0.09812014549970627, 0.4890213906764984, -0.2116129994392395, -0.4716438055038452, -0.09168235957622528, 0.1354227513074875, -0.7163175940513611, 0.06162961199879646, -0.12566713988780975, -0.16297687590122223, 0.29431360960006714, 0.29511988162994385, -0.11251610517501831, 0.03140551224350929, -0.04767097905278206, -0.4152018129825592, 0.12461104243993759, 0.28874823451042175, -0.07705852389335632, 0.04377375543117523, -0.03795371204614639, -0.2795312702655792, -0.0833975300192833, -0.10511015355587006, -0.04611005261540413, 0.13333681225776672, 0.0163765549659729, -0.12215135246515274, -0.19715915620326996, -0.021889925003051758, -0.13647763431072235, 0.12949690222740173, 0.5346366167068481, 0.15174086391925812, 0.11116336286067963, -0.23601938784122467, -0.3641616702079773, -0.12300474941730499, -0.08009430766105652], [-0.08194887638092041, -0.04005756601691246, -0.0327589325606823, 0.07989975064992905, 0.2658747434616089, -0.07908975332975388, 0.07113117724657059, 0.23927077651023865, 0.05550992488861084, 0.2152542918920517, 0.07837598770856857, -0.3251037001609802, -0.07774914801120758, 0.5991721749305725, 0.16220414638519287, 0.10094037652015686, 0.20795612037181854, -0.26973819732666016, 0.05322306230664253, -0.43311387300491333, 0.11157222837209702, 0.26973626017570496, -0.2033676654100418, -0.37783387303352356, 0.06205339357256889, -0.13202492892742157, -0.07865933328866959, -0.17045526206493378, -0.2255839705467224, 0.16573722660541534, -0.43928930163383484, -0.11837649345397949, -0.4699682593345642, 0.2812822461128235, 0.15064802765846252, -0.027080172672867775, 0.1356746107339859, -0.3218778967857361, -0.2672179341316223, -0.07820270210504532, 0.2726365923881531, 0.07790885865688324, 0.08223915845155716, -0.44658535718917847, -0.08318587392568588, -0.5027417540550232, -0.2998306155204773, 0.15109947323799133, 0.02948143146932125, -0.22040624916553497, -0.023914355784654617, 0.28431421518325806, -0.2056024670600891, -0.24467667937278748, -0.005582525860518217, -0.21085044741630554, -0.10177342593669891, -0.5459818243980408, 0.26774752140045166, -0.4452420771121979, 0.18846212327480316, 0.15321779251098633, -0.07773115485906601, 0.34476757049560547, 0.46925532817840576, 0.6024040579795837, -0.14399755001068115, -0.05378319323062897, 0.12475303560495377, 0.14056946337223053, -0.22422218322753906, -0.08603585511445999, -0.007930127903819084, 0.4092295169830322, -0.24422049522399902, 0.08397999405860901, 0.2770351767539978, -0.35213756561279297, -0.21513308584690094, 0.4213203191757202, -0.2010917365550995, -0.30015572905540466, -0.11629238724708557, -0.26313045620918274, 0.2701030373573303, 0.005698368884623051, 0.3234460651874542, -0.28646132349967957, -0.16236072778701782, 0.17953139543533325, 0.3511298894882202, -0.3398248553276062, -0.31588542461395264, -0.18792328238487244, 0.5367023348808289, 0.07577699422836304, -0.12446224689483643, 0.12969587743282318, -0.3179790675640106, -0.3541007936000824, -0.33674749732017517, 0.15432050824165344, 0.006257661152631044, -0.18491612374782562, -0.6861089468002319, -0.2762303352355957, -0.8551498651504517, -0.05927325412631035, -0.4218984544277191, -0.03696788102388382, 0.11164898425340652, -0.05335674434900284, 0.024747701361775398, -0.08942380547523499, -0.29485228657722473, 0.04856714606285095, 0.05321855843067169, 0.26775527000427246, -0.102357879281044, 0.3376460373401642, -0.47859054803848267, 0.1804775893688202, -0.3949618637561798, -0.11652292311191559, 0.07021864503622055, -0.2330576479434967, 0.10735955834388733, -0.12187384814023972], [-0.007166120223701, -0.05367658659815788, -0.07462221384048462, -0.05042583495378494, 0.008506983518600464, -0.030259231105446815, 0.06954861432313919, 0.0014662062749266624, 0.02068311534821987, -0.00976781826466322, -0.047443099319934845, 0.12436363846063614, -0.18526551127433777, 0.04932954162359238, -0.04376647621393204, -0.009879210963845253, -0.098533995449543, 0.004195994231849909, 0.041864342987537384, -0.028614746406674385, -0.05830060690641403, -0.06399595737457275, 0.06328324228525162, -0.19533264636993408, -0.06970596313476562, 0.06895224750041962, 0.040858861058950424, -0.12524034082889557, -0.12119511514902115, 0.057386916130781174, -0.22884497046470642, -0.11231391876935959, -0.0031288571190088987, 0.1564396321773529, -0.01800474151968956, -0.05705703794956207, 0.07790609449148178, 0.11900093406438828, -0.04506102576851845, -0.05417419224977493, -0.12273772060871124, -0.018002048134803772, 0.23272006213665009, 0.021032216027379036, -0.1010928824543953, -0.0968802347779274, -0.03519595414400101, 0.07808379083871841, -0.023459434509277344, 0.04360286518931389, 0.03031332977116108, 0.1322334110736847, -0.2725812792778015, -0.0670517161488533, 0.21225057542324066, -0.11610332876443863, -0.2131417989730835, 0.019475651904940605, -0.16054992377758026, 0.0038457897026091814, -0.1745971441268921, -0.004986288025975227, -0.08607121556997299, -0.09179582446813583, -0.04796510934829712, 0.008671778254210949, 0.07834366708993912, -0.02489897795021534, 0.09669540077447891, -0.036940719932317734, -0.1231403797864914, 0.046057671308517456, -0.08127305656671524, -0.07897960394620895, 0.012012810446321964, -0.0796676054596901, 0.08152437955141068, 0.01778426021337509, 0.009759582579135895, 0.12348940223455429, -0.01763981766998768, -0.16192755103111267, -0.13198301196098328, -0.10341604053974152, -4.912920849164948e-05, 0.13150937855243683, 0.06296954303979874, -0.05421389639377594, 0.07161561399698257, 0.2422398030757904, -0.05519366264343262, 0.09680985659360886, 0.05110142379999161, 0.0719882920384407, -0.0340336337685585, 0.07050551474094391, 0.1636972278356552, 0.07214326411485672, 0.018370123580098152, 0.0010291864164173603, -0.0072406562976539135, -0.14295947551727295, -0.06599152833223343, -0.22343266010284424, -0.046486347913742065, -0.019033003598451614, -0.03215540573000908, 0.035636644810438156, 0.034880150109529495, 0.07987727224826813, -0.0580717995762825, -0.002228587632998824, 0.08577283471822739, 0.1401069164276123, 0.014576924033463001, 0.03368121013045311, 0.058313433080911636, 0.17972823977470398, -0.07363724708557129, 0.023342978209257126, -0.12518447637557983, -0.2060432881116867, -0.017715103924274445, -0.025533152744174004, 0.03514258563518524, -0.02610090933740139, -0.27517154812812805, 0.016279233619570732], [-0.06583699584007263, -0.02095356397330761, -0.021671513095498085, -0.041151195764541626, -2.0204042812110856e-05, -0.09964125603437424, 0.03056885488331318, 0.08932186663150787, -0.27218666672706604, -0.15775905549526215, -0.22446201741695404, -0.05353500694036484, -0.08735951036214828, 0.05152592062950134, 0.11789987236261368, 0.13528698682785034, 0.07234278321266174, -0.1087898313999176, -0.08112304657697678, -0.034477271139621735, 0.025587568059563637, 0.1922415941953659, 0.00880993902683258, 0.03713427484035492, 0.1302427053451538, 0.2057899534702301, 0.0009001686703413725, 0.13954031467437744, 0.03599375858902931, -0.12573961913585663, -0.032419510185718536, -0.14327776432037354, -0.04494957998394966, -0.012337583117187023, 0.05965244770050049, -0.12240689247846603, 0.2105981558561325, 0.1316467970609665, 0.16211098432540894, 0.220212921500206, 0.23707818984985352, -0.03572862967848778, -0.1680731177330017, 0.15931949019432068, -0.03785448521375656, 0.06398133188486099, -0.08612477779388428, -0.2966756522655487, -0.13602814078330994, 0.07721485197544098, 0.033052049577236176, 0.020251063629984856, 0.09242535382509232, 0.22823762893676758, -0.30158793926239014, -0.25092852115631104, 0.11546585708856583, 0.08508092164993286, -0.11029596626758575, -0.08771355450153351, -0.31308087706565857, -0.2497541308403015, 0.08354458957910538, -0.37167054414749146, 0.1408146470785141, 0.012031964026391506, -0.189559206366539, -0.029949229210615158, -0.009937627241015434, 0.16062575578689575, -0.023591743782162666, -0.04064150154590607, -0.025744717568159103, 0.2673010230064392, -0.1957603394985199, 0.021107567474246025, 0.06621614098548889, -0.2335624098777771, 0.07437700778245926, 0.1659395694732666, 0.07747139036655426, 0.04193532094359398, -0.018743034452199936, -0.10666711628437042, -0.0702119916677475, 0.042384881526231766, 0.06559666991233826, 0.006124570500105619, -0.07621923089027405, -0.04713352397084236, 0.05716368928551674, -0.02821088582277298, 0.12972816824913025, -0.20126715302467346, 0.04728160426020622, -0.13674941658973694, -0.06120150536298752, -0.09559862315654755, 0.09466100484132767, -0.10030275583267212, 0.1453414410352707, -0.018708111718297005, -0.17400389909744263, 0.011364303529262543, 0.09719889611005783, -0.07762923836708069, 0.1058632880449295, -0.06111462786793709, -0.1304171234369278, -0.008883913978934288, 0.08243006467819214, 0.08301906287670135, -0.13496629893779755, -0.17772746086120605, -0.1987055093050003, 0.04099332541227341, -0.045374032109975815, 0.1214740201830864, -0.07854045182466507, -0.01825842447578907, -0.09305774420499802, -0.06752985715866089, -0.40640977025032043, -0.018001357093453407, 0.006330579053610563, 0.15578670799732208, 0.1259974241256714, -0.17115183174610138], [-0.013812762685120106, 0.04889793321490288, -0.04889436438679695, -0.05142557621002197, -0.009195790626108646, 0.052214592695236206, -0.11267215758562088, -0.11265523731708527, 0.15536154806613922, -0.0027330496814101934, 0.19185766577720642, -0.009791430085897446, 0.13862471282482147, -0.037794481962919235, -0.06443000584840775, -0.017936475574970245, 0.048348210752010345, -0.14018526673316956, 0.2618963420391083, 0.04960101097822189, 0.11246798932552338, -0.04390760138630867, 0.030124390497803688, -0.32615727186203003, -0.09665898233652115, -0.0791422501206398, 0.06708677858114243, -0.001106877694837749, -0.05057642236351967, 0.1727466732263565, -0.058719560503959656, 0.126358762383461, -0.13827963173389435, 0.09433095902204514, -0.1469942182302475, 0.20372089743614197, -0.5016856789588928, -0.05762583389878273, -0.15889795124530792, -0.2825707793235779, -0.6592088341712952, 0.07050304114818573, 0.12631075084209442, -0.200039342045784, -0.06280332803726196, -0.029707076027989388, 0.12353712320327759, 0.1325852870941162, 0.07184334099292755, -0.16675330698490143, 0.05850300192832947, -0.20541255176067352, -0.08598293364048004, 0.030977880582213402, 0.11346405744552612, 0.23809733986854553, -0.019007841125130653, -0.4347652494907379, 0.251526802778244, 0.21612834930419922, 0.22098660469055176, 0.09275177121162415, 0.06073002889752388, 0.1312606930732727, -0.12032787501811981, -0.10628848522901535, 0.23634940385818481, -0.07364491373300552, 0.04165743291378021, -0.02126021683216095, -0.10463666170835495, 0.06468012928962708, -0.342585027217865, -0.011983535252511501, 0.30862507224082947, -0.006401315331459045, -0.10432623326778412, 0.09171921014785767, -0.07601995021104813, -0.1063670739531517, 0.052890144288539886, 0.08732160925865173, 0.022974148392677307, 0.11362500488758087, 0.01307695172727108, -0.1204514428973198, -0.12388598173856735, 0.09102430939674377, 0.021021662279963493, -0.024098442867398262, -0.18567630648612976, 0.11513648927211761, -0.07136087864637375, 0.20349715650081635, -0.26564979553222656, 0.25563228130340576, 0.21891801059246063, 0.07332780212163925, 0.09917169064283371, -0.010121147148311138, -0.24122993648052216, -0.14129170775413513, 0.22294718027114868, 0.10495813935995102, -0.09838337451219559, 0.04753033444285393, 0.2149515002965927, -0.07621058821678162, -0.306706041097641, 0.06684555113315582, -0.4034316837787628, 0.019436342641711235, 0.01214483194053173, 0.24530796706676483, 0.17045694589614868, -0.04895191267132759, 0.21071702241897583, -0.18434403836727142, 0.005464470945298672, -0.06356657296419144, 0.25734278559684753, 0.039310697466135025, 0.4170629382133484, 0.054677773267030716, 0.1839582324028015, -0.4509946405887604, -0.03862177953124046, 0.37222710251808167], [-0.4292755424976349, -0.1938103884458542, -0.0337233804166317, -0.06704505532979965, -0.2579702138900757, -0.014603156596422195, 0.03507007658481598, -0.3168492913246155, -0.009914860129356384, -0.1921999305486679, 0.3352646827697754, 0.28505584597587585, 0.13205187022686005, -0.22891776263713837, -0.12433683127164841, 0.02709268592298031, -0.5367832779884338, 0.054689910262823105, -0.10886652767658234, 0.18911580741405487, -0.026312528178095818, -0.3662336766719818, 0.3950742185115814, 0.036532238125801086, 0.06035351753234863, -0.32101529836654663, -0.0032789846882224083, 0.2987624704837799, 0.1686221808195114, -0.0033994000405073166, 0.18383599817752838, -0.11497639119625092, 0.12145940959453583, -0.15188340842723846, 0.18286734819412231, 0.09305749088525772, 0.10391055792570114, 0.05965801700949669, 0.1207410916686058, 0.295579195022583, -0.08500748127698898, -0.7449265122413635, 0.1570214182138443, -0.17762722074985504, -0.12038636952638626, 0.26312148571014404, 0.14593319594860077, 0.09951025247573853, 0.07514481991529465, -0.07983533293008804, 0.19961132109165192, -0.6788560748100281, 0.03040621429681778, -0.08717445284128189, 0.24749484658241272, 0.5102200508117676, 0.13030080497264862, 0.4234747290611267, -0.13299612700939178, -0.012163407169282436, -0.1459898203611374, -0.36891913414001465, -0.03964729607105255, -0.23118004202842712, -0.1976878046989441, -0.16995368897914886, 0.16456781327724457, 0.03596732020378113, -0.30046525597572327, -0.17926880717277527, -0.3768356740474701, -0.02940964326262474, -0.7213762998580933, -0.5694652795791626, 0.2399401068687439, -0.2903759479522705, 0.4099309742450714, 0.193246990442276, 0.12190946191549301, -0.12432922422885895, 0.31494519114494324, -0.22747507691383362, 0.21282099187374115, 0.3147318661212921, -0.3605397939682007, -0.2135944962501526, -0.5557315945625305, -0.02321302331984043, -0.4254469573497772, 0.3130636215209961, -0.10287029296159744, 0.4190596640110016, 0.06175578385591507, -0.04101511090993881, 0.05008470267057419, 0.2842479646205902, 0.15458039939403534, -0.16102491319179535, 0.47494491934776306, 0.4484310746192932, 0.41192427277565, -0.2694830298423767, -0.21667198836803436, 0.20929080247879028, -0.14552299678325653, -0.010034148581326008, 0.4174855053424835, 0.389754980802536, 0.393532931804657, 0.0038013693410903215, 0.35495346784591675, -0.01943647488951683, 0.33232030272483826, -0.0627741888165474, -0.12149936705827713, -0.11777647584676743, 0.050800301134586334, 0.030944522470235825, -0.07880628854036331, -0.04186813533306122, 0.35023507475852966, -0.2465725690126419, 0.2368878573179245, -0.3718835711479187, -0.06501542776823044, 0.369159072637558, 0.26107335090637207, 0.040645357221364975], [-0.07445433735847473, -0.09732379019260406, -0.0932927280664444, -0.010475588962435722, 0.0022241026163101196, -0.04928319901227951, -0.20270979404449463, 0.2406385987997055, 0.2993219792842865, 0.1616445928812027, -0.23549103736877441, -0.11202239245176315, -0.19834840297698975, -0.1706887036561966, -0.1905655860900879, 0.17247261106967926, 0.08954798430204391, -0.28323888778686523, 0.2609609365463257, -0.09313076734542847, -0.14520880579948425, -0.5013671517372131, -0.27956104278564453, -0.32925131916999817, 0.20622378587722778, -0.11063317954540253, -0.0958242267370224, 0.23419564962387085, 0.3990711569786072, 0.12313063442707062, -0.4363913834095001, 0.017191428691148758, -0.2359408587217331, -0.1747966855764389, 0.24415306746959686, 0.18870587646961212, 0.10183430463075638, 0.16504696011543274, 0.3311724364757538, -0.2973218262195587, 0.002030791249126196, 0.3244277536869049, -0.0489497184753418, 0.2969350814819336, -0.20719017088413239, -0.11950340867042542, 0.24106906354427338, -0.06726525723934174, 0.14272311329841614, -0.2162347137928009, -0.15338115394115448, -0.2141706496477127, -0.3976077437400818, -0.021969720721244812, -0.059018634259700775, -0.40264958143234253, 0.10826600342988968, 0.21838872134685516, 0.008001554757356644, -0.04866481572389603, 0.22726204991340637, 0.24134346842765808, 0.006930574309080839, 0.1409069448709488, -0.1881771832704544, 0.0011989412596449256, 0.14863568544387817, 0.06574323773384094, -0.2850073277950287, -0.21342751383781433, -0.20409458875656128, -0.05997737869620323, -0.13865841925144196, -0.32948845624923706, 0.04738244786858559, 0.13830651342868805, -0.2528826594352722, 0.29364708065986633, -0.06705350428819656, -0.3063216507434845, 0.08452147990465164, 0.15978510677814484, -0.3984260559082031, -0.16913031041622162, -0.11200378090143204, -0.05835316330194473, 0.3749389052391052, -0.2757100760936737, 0.042238105088472366, -0.6422858238220215, -0.9175028800964355, -0.26071158051490784, -0.2178751528263092, 0.17504189908504486, -0.25858449935913086, 0.1491277813911438, 0.0413454994559288, 0.25018346309661865, 0.3640563189983368, -0.4224443733692169, 0.07416155189275742, -0.055137984454631805, 0.12593725323677063, -0.08279155939817429, 0.43797749280929565, -0.2660329043865204, 0.08714023232460022, 0.05351642146706581, -0.10926026850938797, 0.022977380082011223, -0.2725568115711212, -0.06805772334337234, 0.33550822734832764, 0.08163682371377945, -0.12129092216491699, -0.03690936416387558, -0.0020080774556845427, -0.040916912257671356, -0.08611360937356949, -0.15307645499706268, -0.3301208019256592, 0.18375776708126068, -0.06350012868642807, 0.12061672657728195, 0.2929075062274933, -0.1256592720746994, 0.008698653429746628, -0.022153735160827637], [-0.3483777642250061, -0.15508383512496948, 0.04635273292660713, 0.013285419903695583, -0.03457985818386078, 0.03908570110797882, 0.09670433402061462, -0.03445085883140564, 0.0014783816877752542, 0.09063883125782013, 0.23201218247413635, 0.08110638707876205, 0.0746341273188591, 0.02833171933889389, -0.11841041594743729, 0.11955349892377853, -0.062184181064367294, -0.044389620423316956, 0.1701814979314804, -0.0560273714363575, -0.20413264632225037, -0.02194010466337204, -0.14232642948627472, 0.17249168455600739, -0.047365304082632065, -0.10326019674539566, 0.004830116406083107, -0.012292029336094856, -0.14954067766666412, -0.16949450969696045, -0.14609037339687347, 0.08107618987560272, 0.0813233032822609, -0.06304039806127548, 0.006213136482983828, 0.1900559663772583, 0.01001127902418375, -0.19965757429599762, -0.1079292893409729, -0.24577964842319489, -0.03479272499680519, -0.06788758188486099, -0.1545923799276352, 0.021435072645545006, -0.09294449537992477, 0.037316806614398956, 0.07094407081604004, 0.1786259114742279, 0.002365162828937173, -0.23510277271270752, 0.030789727345108986, -0.17148709297180176, 0.13797979056835175, -0.05741756036877632, 0.08835981041193008, -0.03320549055933952, 0.04813694581389427, 0.12509940564632416, 0.08057686686515808, -0.10779517143964767, 0.06825286149978638, 0.02707844041287899, 0.06446409225463867, 0.26859501004219055, -0.12319691479206085, 0.05260193347930908, 0.1302049458026886, -0.09165190160274506, -0.150588721036911, 0.05106993019580841, -0.15164563059806824, -0.06394626945257187, -0.09958455711603165, 0.1112242117524147, 0.11309493333101273, -0.24040351808071136, -0.08461460471153259, 0.007105398457497358, 0.11687104403972626, -0.13645635545253754, 0.02518659457564354, 0.07234640419483185, -0.12624309957027435, 0.031157009303569794, -0.14627999067306519, -0.15329736471176147, -0.034208327531814575, 0.08738773316144943, 0.052940186113119125, -0.22260499000549316, -0.17455221712589264, 0.11096460372209549, 0.07353314012289047, 0.06752632558345795, 0.0955156534910202, 0.06596419960260391, 0.12235051393508911, 0.17547357082366943, -0.03703034296631813, 0.0691174790263176, -0.2089417278766632, -0.16637706756591797, 0.1407393515110016, 0.20400385558605194, -0.00870615802705288, -0.0089311134070158, -0.09557458758354187, 0.05393823981285095, 0.1418449580669403, 0.04467282444238663, -0.000568337389267981, 0.037916675209999084, 0.13723224401474, 0.09537551552057266, 0.09143531322479248, -0.12087132036685944, -0.1989443153142929, 0.09401609748601913, -0.07945738732814789, -0.19959980249404907, -0.17440269887447357, -0.04646578058600426, -0.09819891303777695, -0.22507674992084503, 0.1565963327884674, 0.04445343464612961, 0.0026288272347301245, 0.29823386669158936], [-0.03176523372530937, 0.10381390899419785, -0.07011090964078903, 0.01246000174432993, 0.00293922983109951, -0.09576771408319473, -0.18259939551353455, 0.048376601189374924, -0.5457223653793335, -0.050297923386096954, -0.14239811897277832, 0.13756394386291504, 0.034175433218479156, 0.003260770346969366, 0.21703241765499115, -0.05869122967123985, 0.12441889196634293, 0.00831025280058384, -0.234236940741539, -0.12657126784324646, -0.05281923711299896, 0.25230634212493896, -0.18025287985801697, -0.0334775447845459, 0.1561623364686966, 0.13559967279434204, 0.08131372928619385, 0.2039088010787964, 0.019299538806080818, -0.09951428323984146, 0.13498371839523315, -0.08823513984680176, -0.10762088745832443, -0.05330447107553482, 0.12306272983551025, -0.4242253601551056, 0.022615397348999977, 0.2024598866701126, 0.25257638096809387, 0.20557157695293427, 0.17869850993156433, -0.05551654472947121, -0.28378942608833313, 0.04346752166748047, 0.11896077543497086, 0.2273663878440857, -0.2229725420475006, -0.2564683258533478, -0.03210640698671341, 0.06784625351428986, -0.08329170942306519, 0.1267433613538742, 0.1491519808769226, 0.13771167397499084, -0.20111708343029022, -0.21702493727207184, 0.1258779913187027, 0.03617098927497864, -0.04620195925235748, -0.07810041308403015, -0.3313352167606354, -0.43501657247543335, 0.08120628446340561, -0.22947631776332855, 0.09014222770929337, 0.07897499203681946, -0.18634545803070068, 0.050615761429071426, -0.049918461591005325, 0.08294571936130524, 0.18370497226715088, -0.011114289984107018, 0.20741087198257446, 0.16920459270477295, -0.36949270963668823, 0.07412968575954437, 0.20526380836963654, -0.007387406192719936, -0.014287865720689297, -0.04090990871191025, 0.0038876724429428577, -0.059812285006046295, 0.020519129931926727, -0.057380955666303635, -0.08972783386707306, 0.08812028914690018, 0.13590086996555328, -0.008604644797742367, -0.3591081500053406, -0.053205568343400955, 0.1349100023508072, -0.1757693588733673, 0.1550830453634262, -0.4833810031414032, 0.20986244082450867, -0.2136462926864624, 0.02302039973437786, -0.04905819892883301, 0.004326875787228346, -0.1771336942911148, 0.19308044016361237, 0.03988729044795036, -0.34719789028167725, 0.09964831173419952, -0.034651633352041245, 0.0772668719291687, 0.22455845773220062, -0.16226929426193237, -0.21575504541397095, -0.08793970197439194, 0.27044203877449036, 0.0022603936959058046, -0.18054646253585815, -0.22663499414920807, -0.14583417773246765, 0.07873552292585373, -0.08027351647615433, 0.1481245905160904, 0.06059771031141281, 0.1834677755832672, -0.0240235086530447, -0.04214033856987953, -0.2120162546634674, 0.15528514981269836, 0.01895996741950512, 0.1361614167690277, 0.20179009437561035, -0.23331038653850555], [0.027295272797346115, 0.013440972194075584, 0.04068397358059883, 0.059734445065259933, 0.10073588788509369, -0.04790174216032028, -0.18306109309196472, -0.05294426530599594, -0.04664614796638489, 0.05014576017856598, -0.05241399630904198, -0.08936277031898499, 0.051687467843294144, -0.0673711970448494, 0.08143379539251328, 0.022181900218129158, 0.021430283784866333, -0.16301129758358002, -0.13694173097610474, 0.06686317920684814, -0.07509483397006989, -0.08785700052976608, 0.006594689097255468, -0.7070784568786621, -0.07814932614564896, -0.013245323672890663, 0.03578533977270126, 0.10676876455545425, 0.08157901465892792, 0.1084316223859787, -0.036089323461055756, -0.023453164845705032, -0.22129321098327637, 0.12227146327495575, 0.046463288366794586, 0.1141284927725792, -0.2551249861717224, 0.0006532952538691461, 0.04839247465133667, 0.0451127290725708, -0.31505221128463745, -0.03515781834721565, -0.16457507014274597, -0.23045454919338226, 0.0917607843875885, 0.058175504207611084, -0.12124833464622498, -0.29663899540901184, 0.04197731241583824, -0.07337724417448044, 0.027052011340856552, -0.022238263860344887, -0.0463942214846611, 0.046265870332717896, 0.12244042754173279, 0.1720014214515686, 0.04994609206914902, -0.2381436973810196, 0.2061561942100525, 0.08805477619171143, 0.11700917035341263, -0.1999470442533493, -0.07437729835510254, -0.006005522329360247, 0.009885285049676895, -0.09485886991024017, 0.0434027835726738, -0.07338446378707886, -0.06346416473388672, 0.20608952641487122, 0.13033653795719147, -0.051206935197114944, -0.28340795636177063, -0.2733835279941559, 0.02670017071068287, 0.13686735928058624, 0.178353950381279, -0.10249199718236923, -0.21873269975185394, 0.025861535221338272, 0.10129478573799133, 0.15248741209506989, 0.21420805156230927, -0.03696692734956741, 0.09368158131837845, -0.026717673987150192, -0.00889955461025238, -0.07617717236280441, 0.12146031856536865, -0.11728553473949432, -0.025860987603664398, -0.029969342052936554, 0.053602300584316254, -0.03399987146258354, -0.2993377447128296, 0.07557445764541626, 0.09240816533565521, 0.06974926590919495, 0.04822535812854767, -0.10948669910430908, 0.09967774897813797, 0.0738295242190361, 0.08877983689308167, 0.18094761669635773, -0.09373633563518524, 0.09980511665344238, 0.28701043128967285, -0.1605125069618225, -0.731368362903595, -0.050511498004198074, -0.03156844154000282, -0.028145700693130493, -0.25371021032333374, 0.09090825170278549, 0.03891986608505249, -0.023937879130244255, 0.13810259103775024, -0.22305357456207275, 0.056768279522657394, -0.012060258537530899, 0.1990319937467575, 0.16123603284358978, 0.2557480037212372, 0.08301869034767151, 0.15877006947994232, -0.31246304512023926, 0.15711335837841034, -0.3146268427371979], [0.49539536237716675, 0.0076538859866559505, 0.03726784139871597, -0.30772465467453003, 0.11382925510406494, -0.05564554035663605, -0.38704320788383484, -0.28916528820991516, -0.3595125079154968, -0.7639514207839966, 0.39067137241363525, 0.3176058232784271, 0.17305223643779755, 0.08922071754932404, -0.025378761813044548, -0.17322160303592682, -0.017453035339713097, -0.2067732959985733, -0.19566220045089722, 0.46141517162323, -0.057008109986782074, 0.3654930293560028, 0.16417241096496582, 0.45326682925224304, 0.11780364066362381, 0.006700950209051371, 0.00827146414667368, -0.4401986598968506, -0.08373575657606125, 0.1947045922279358, 0.1688944548368454, 0.04128860682249069, -0.04454768821597099, -0.11190963536500931, -0.11412832885980606, -0.35981422662734985, -0.2701863646507263, -0.39889606833457947, -0.17285645008087158, 0.16010470688343048, -0.3412588834762573, -0.7424318194389343, 0.0628490224480629, -0.09862373024225235, -0.1557476967573166, 0.2402825653553009, -0.3287198841571808, 0.14255453646183014, -0.027320321649312973, -0.2059869021177292, -0.09692325443029404, -0.0042791105806827545, -0.0885457769036293, -0.17828510701656342, 0.12723156809806824, 0.47118645906448364, -0.20641633868217468, 0.04938196763396263, 0.41293588280677795, 0.1663840264081955, -0.14960603415966034, -1.2094682455062866, -0.04799473285675049, -0.09421300143003464, -0.06045059114694595, -0.302635133266449, -0.30839860439300537, -0.09101846814155579, 0.24352747201919556, 0.048255037516355515, 0.2984550893306732, 0.030299298465251923, -0.46834784746170044, -0.7176417708396912, -0.0868547111749649, 0.006998803000897169, 0.28056851029396057, -0.053717002272605896, 0.11699258536100388, 0.06375476717948914, 0.02157728001475334, -0.008881622925400734, 0.07380245625972748, 0.3036983609199524, -0.029381444677710533, -0.13660027086734772, -0.41332265734672546, 0.08091315627098083, -0.13258203864097595, 0.1911383867263794, 0.37386396527290344, 0.23062710464000702, 0.0034539038315415382, -0.13165408372879028, -0.6702148914337158, 0.13206163048744202, -0.04261724278330803, -0.22659994661808014, -0.27477002143859863, -0.10837384313344955, -0.06826609373092651, 0.37083473801612854, -0.19647157192230225, -0.22730334103107452, 0.33111581206321716, 0.3261498510837555, -0.26823732256889343, -0.1124008372426033, 0.21439926326274872, -0.07090555876493454, -0.16826997697353363, -0.03039771504700184, -0.3873343765735626, 0.1525864601135254, 0.04811475798487663, -0.0003615905879996717, 0.25774699449539185, -0.24299383163452148, -0.053808096796274185, -0.3627665936946869, 0.12685216963291168, 0.009925762191414833, 0.11394850164651871, -0.3173956871032715, -0.3277679681777954, 0.16134411096572876, 0.02355235256254673, 0.06467926502227783], [-0.09899028390645981, 0.1118132546544075, 0.060411449521780014, 0.28295987844467163, 0.07056077569723129, -0.06786713749170303, -0.2320294827222824, -0.004080277401953936, 0.049365684390068054, -0.12214981764554977, 0.35548126697540283, 0.014034973457455635, -0.06376535445451736, 0.19082878530025482, -0.0843159556388855, -0.013172869570553303, 0.16211767494678497, -0.32119086384773254, 0.34850218892097473, -0.06299139559268951, -0.014163567684590816, -0.054739076644182205, -0.24219325184822083, -0.14801999926567078, 0.1638241857290268, 0.12688502669334412, -0.07729599624872208, 0.09020394086837769, 0.13046224415302277, -0.23112617433071136, 0.15439945459365845, -0.10916996002197266, -0.008020696230232716, -0.0846090316772461, 0.1299712210893631, 0.2548750638961792, 0.10560493171215057, -0.13154752552509308, -0.201517254114151, 0.055186059325933456, -0.10243820399045944, -0.3067750930786133, 0.10465815663337708, 0.003481133608147502, 0.21025851368904114, -0.48124659061431885, 0.11414586752653122, 0.020430732518434525, -0.14806059002876282, -0.062400855123996735, -0.6856245398521423, -0.09634122252464294, -0.16064727306365967, -0.11375895142555237, -0.3396240472793579, -0.2034059464931488, 0.20975735783576965, 0.1615852564573288, -0.4210663437843323, -0.4707393944263458, 0.050137512385845184, -0.020747220143675804, 0.034477073699235916, 0.2691470682621002, -0.18624863028526306, 0.24393703043460846, -0.00993489008396864, 0.03203762322664261, 0.13501019775867462, -0.1106710210442543, -0.014866235665977001, 0.0006537633016705513, -0.2758060395717621, 0.09344236552715302, 0.021492183208465576, 0.3709884285926819, 0.28288039565086365, -0.07195635885000229, -0.12076094001531601, 0.07376808673143387, 0.004914623685181141, -0.16490674018859863, 0.14450867474079132, -0.018788248300552368, -0.11521995067596436, 0.013015379197895527, -0.003037447575479746, -0.09805231541395187, -0.4020087420940399, -0.11534937471151352, 0.2071148157119751, -0.09143567830324173, -0.6679474711418152, -0.012432755902409554, 0.005625936668366194, -0.032584767788648605, 0.02454834058880806, 0.10767541825771332, -0.06995110213756561, 0.03261539712548256, 0.21714510023593903, -0.01861690729856491, 0.004583092872053385, -0.29470720887184143, 0.06004222109913826, -0.22111395001411438, 0.32547658681869507, -0.22929880023002625, 0.3352833390235901, 0.08131810277700424, 0.05801856145262718, 0.013627489097416401, -0.05274274945259094, 0.11574123054742813, -0.2722066640853882, -0.29387715458869934, -0.2530232071876526, -0.3913539946079254, -0.001971436431631446, -0.0717947855591774, -0.15379156172275543, 0.1742190420627594, -0.41968438029289246, 0.013359084725379944, 0.1375613659620285, 0.06949290633201599, -0.058375488966703415, 0.017451267689466476], [-0.3840214014053345, 0.029553590342402458, -0.07656215876340866, -0.0309206023812294, 0.007707623764872551, -0.07767151296138763, 0.09156925231218338, 0.009457234293222427, 0.056137487292289734, -0.06217993423342705, 0.06453213095664978, -0.10536108165979385, 0.025831757113337517, -0.018156595528125763, -0.025726331397891045, 0.1577429473400116, -0.08095733076334, -0.2610172629356384, 0.04011162742972374, -0.14826372265815735, -0.14575159549713135, -0.013024481944739819, -0.0025709792971611023, -0.017275340855121613, -0.023582791909575462, -0.19601494073867798, -0.07386282086372375, 0.13865578174591064, -0.0827832818031311, -0.06590226292610168, -0.0972617045044899, -0.020126353949308395, -0.06874814629554749, -0.1022765263915062, 0.05357443168759346, 0.1595551073551178, 0.011851329356431961, -0.07935315370559692, -0.1567486971616745, -0.17977504432201385, 0.019672449678182602, -0.057047538459300995, -0.20295125246047974, 0.03909190371632576, -0.08486256748437881, -0.15984122455120087, -0.08139422535896301, 0.028507577255368233, -0.08230152726173401, -0.09291211515665054, -0.040571339428424835, -0.16211174428462982, -0.09891008585691452, 0.12674076855182648, 0.010678770020604134, -0.06823482364416122, 0.11566159129142761, 0.05410534515976906, 0.06296854466199875, -0.08959317952394485, 0.11409233510494232, 0.018828706815838814, 0.0685257762670517, 0.14262305200099945, -0.017078274860978127, 0.06997723132371902, -0.13528454303741455, -0.002059745602309704, -0.10896243900060654, 0.12110833823680878, -0.25038161873817444, -0.06384734064340591, -0.09269921481609344, 0.15458732843399048, 0.05564994737505913, -0.10440833866596222, -0.238186314702034, -0.2518208920955658, -0.013405361212790012, 0.025187833234667778, 0.07324230670928955, 0.12419536709785461, 0.07363492250442505, -0.052243828773498535, -0.04535294324159622, -0.08087759464979172, -0.05627676099538803, -0.1018877923488617, 0.11595015227794647, -0.21354658901691437, -0.12869447469711304, 0.2603299915790558, 0.010036492720246315, 0.16397911310195923, -0.04557091370224953, -0.007817398756742477, 0.06640995293855667, 0.11215367168188095, 0.12572546303272247, -0.06044892966747284, -0.07306291162967682, -0.16519053280353546, 0.02302980236709118, -0.00506867840886116, -0.08068855851888657, -0.055871233344078064, -0.00011154348612762988, -0.024158084765076637, -0.017299799248576164, 0.02530265599489212, -0.015174814499914646, 0.050329748541116714, 0.09952221810817719, 0.054485201835632324, -0.0384746715426445, -0.05223146080970764, -0.08859964460134506, 0.1534441113471985, -0.02619987353682518, -0.10734188556671143, -0.14763836562633514, 0.10041540861129761, -0.16371981799602509, -0.16253621876239777, -0.04835915192961693, 0.012678755447268486, -0.004304179921746254, 0.006719713099300861], [0.4065977931022644, 0.21272195875644684, 0.06079181283712387, 0.22477175295352936, 0.04359128326177597, -0.026573827490210533, -0.39417222142219543, -0.01900462619960308, 0.0561850368976593, -0.022487632930278778, -0.23103013634681702, -0.19490961730480194, 0.10354151576757431, -0.2535942792892456, 0.08345036953687668, -0.24660810828208923, 0.15924857556819916, -0.14760376513004303, -0.30177029967308044, -0.11490008980035782, -0.039056237787008286, 0.0862671434879303, 0.1596711128950119, -0.3739251494407654, -0.04244615137577057, 0.2169342041015625, 0.038693297654390335, 0.06527947634458542, 0.028848525136709213, -0.10302944481372833, 0.20715594291687012, -0.01382678933441639, -0.09859168529510498, 0.222862109541893, 0.06499889492988586, -0.07109760493040085, -0.4325800836086273, 0.19678601622581482, 0.12726137042045593, 0.013661406002938747, -0.21091176569461823, 0.07280223816633224, -0.030729098245501518, -0.2514735162258148, 0.06170611456036568, 0.2315455675125122, -0.15556471049785614, -0.2021402269601822, -0.02537279762327671, 0.06470818817615509, -0.08491657674312592, 0.2797713875770569, 0.2366567850112915, 0.06551762670278549, 0.038076724857091904, 0.28463712334632874, 0.0029505169950425625, -0.3500673472881317, 0.17261549830436707, 0.15707609057426453, -0.05169959366321564, -0.27238717675209045, 0.016162728890776634, -0.1876283884048462, -0.169529989361763, -0.16416949033737183, -0.03395400941371918, -0.0569864958524704, 0.03498637676239014, 0.10099641978740692, 0.24962623417377472, -0.03379390016198158, -0.15922103822231293, -0.25213518738746643, -0.06602659821510315, 0.19709093868732452, 0.3354323208332062, 0.10097649693489075, -0.23486372828483582, -0.10658105462789536, -0.15473444759845734, 0.17576733231544495, 0.12079422175884247, 0.024806668981909752, 0.2308414727449417, 0.008124317973852158, 0.09650052338838577, -0.003736028214916587, 0.023894669488072395, -0.04693460464477539, 0.04063529521226883, -0.28352588415145874, -0.15237946808338165, -0.11927500367164612, -0.14147664606571198, 0.06612304598093033, 0.030630504712462425, 0.08092895895242691, -0.08191968500614166, -0.09403930604457855, 0.10368327051401138, 0.1760176569223404, -0.04786483198404312, 0.14250826835632324, -0.03913961350917816, 0.18404540419578552, 0.32530438899993896, -0.3587821125984192, -1.430184245109558, -0.04745057597756386, 0.10831485688686371, -0.05589843913912773, -0.23355314135551453, -0.06198577210307121, 0.037508364766836166, -0.17922931909561157, 0.2364848405122757, -0.5139859914779663, -0.04922213777899742, 0.12800417840480804, 0.23718330264091492, 0.14900682866573334, 0.24944332242012024, 0.34169110655784607, 0.1549501270055771, -0.3371489346027374, 0.0998319759964943, -0.20871160924434662], [0.00026925746351480484, 0.07752437144517899, -0.048905935138463974, 0.044324155896902084, -0.012341109104454517, 0.05256621912121773, 0.09578082710504532, -0.03881840780377388, 0.060194216668605804, 0.13614743947982788, 0.06829667091369629, 0.08522050827741623, -0.0957934558391571, 0.03596807271242142, 0.07041116803884506, 0.03954547271132469, 0.12508365511894226, 0.04007406905293465, 0.12893179059028625, -0.08334073424339294, -0.040536459535360336, -0.06359963119029999, 0.07398858666419983, 0.12863637506961823, -0.024830279871821404, 0.18498201668262482, -0.07118552178144455, -0.171427384018898, -0.06619375944137573, 0.031210120767354965, -0.28112927079200745, -0.011766375042498112, 0.1149277612566948, 0.11786206066608429, -0.1123049184679985, -0.016974402591586113, 0.06725069135427475, 0.0054223728366196156, -0.03156342729926109, -0.07625456154346466, -0.06413426995277405, -0.09851578623056412, 0.14766758680343628, -0.009856567718088627, -0.05352896824479103, -0.05779527872800827, 0.16261105239391327, 0.2183496654033661, -0.05583157390356064, 0.007369129918515682, -5.049757601227611e-05, 0.057517435401678085, 0.037953197956085205, -0.2120826095342636, 0.05627787858247757, -0.11691943556070328, -0.10624269396066666, 0.12133582681417465, -0.12104401737451553, -0.033169329166412354, -0.050392996519804, 0.14343954622745514, -0.009174134582281113, 0.10723624378442764, -0.14930474758148193, 0.07059286534786224, 0.2373882532119751, 0.08325135707855225, 0.11101774126291275, -0.2431522011756897, -0.0567401759326458, -0.052543241530656815, 0.10105931013822556, 0.09784603118896484, 0.1909169703722, -0.09232162684202194, -0.08540216088294983, 0.36775803565979004, 0.1417989432811737, -0.148697167634964, -0.17062167823314667, 0.0074677434749901295, -0.17148859798908234, -0.05910429358482361, 0.029074419289827347, -0.004696136340498924, 0.1687551885843277, 0.18563275039196014, -0.0607878714799881, 0.11126081645488739, -0.05517140403389931, 0.08025787770748138, -0.04335114359855652, 0.20445680618286133, 0.10858841985464096, 0.04294557496905327, 0.06759054958820343, -0.013568321242928505, 0.030817097052931786, -0.0747600719332695, -0.17412972450256348, -0.3512115776538849, 0.015131219290196896, -0.20911073684692383, 0.14789539575576782, 0.0053992848843336105, -0.16077344119548798, 0.09892108291387558, 0.10899136960506439, -0.07425044476985931, -0.1079278439283371, -0.0265794824808836, 0.09828606247901917, -0.03830573707818985, 0.025729244574904442, -0.1799817681312561, 0.045073699206113815, 0.011432069353759289, 0.028566019609570503, 0.007989102974534035, -0.19709914922714233, -0.0730636715888977, -0.10149531811475754, -0.01394008006900549, -0.03832673281431198, -0.06932968646287918, -0.2004224807024002, 0.2620323896408081], [0.08955889940261841, -0.043172188103199005, 0.03320883959531784, -0.23968888819217682, 0.024407336488366127, 0.056897182017564774, 0.09685102850198746, 0.07430244982242584, -0.1274331510066986, -0.05236920341849327, -0.23648114502429962, 0.3929770886898041, -0.12978577613830566, -0.2292373776435852, 0.1873754858970642, 0.2613247334957123, 0.06136821210384369, 0.3637252449989319, -0.41653451323509216, -0.425710529088974, 0.416565865278244, -0.16161975264549255, 0.5196748375892639, -0.5865002870559692, -0.001670623430982232, 0.23036573827266693, 0.00223599374294281, -0.18292511999607086, 0.1993962526321411, -0.038677748292684555, 0.2192307412624359, 0.46285533905029297, 0.5600513815879822, -0.1538047045469284, -0.13274924457073212, -0.11827824264764786, -0.0894293412566185, 0.05642859265208244, 0.16178825497627258, 0.14056694507598877, 0.19771867990493774, 0.3838881850242615, -0.007633885834366083, 0.08921482414007187, 0.03688952326774597, 0.579653263092041, 0.2753823697566986, -0.001762263709679246, 0.031399331986904144, 0.4335441291332245, 0.16289424896240234, 0.09335047751665115, 0.5011101365089417, 0.10003864020109177, -0.027520742267370224, -0.3338199853897095, -0.5297960638999939, -0.19084326922893524, 0.22491687536239624, 0.7022554278373718, 0.1611466258764267, -0.26652345061302185, 0.0017152021173387766, -0.012960800901055336, 0.10888245701789856, -0.4213869273662567, 0.1997583955526352, 0.007586489897221327, 0.37079599499702454, -0.12078317999839783, 0.3287948966026306, -0.006847812794148922, 0.4489324390888214, 0.038742341101169586, 0.06920411437749863, 0.06675191968679428, -0.1816977560520172, 0.2040446400642395, 0.10335301607847214, -0.296721875667572, -0.25406691431999207, 0.1250716596841812, -0.8391550779342651, -0.31409531831741333, 4.4187090679770336e-05, 0.1287064254283905, 0.5782677531242371, 0.1505938619375229, 0.2726041078567505, -0.5100656747817993, 0.03658419847488403, 0.262386679649353, 0.3533693850040436, -0.07573853433132172, -0.05290522053837776, -0.10007074475288391, 0.05115645006299019, 0.09348741918802261, 0.5278261303901672, 0.017884958535432816, -0.2948387861251831, -0.26043227314949036, -0.07395307719707489, 0.14354945719242096, -0.3741515278816223, 0.36331310868263245, -0.10973070561885834, 0.17298196256160736, -0.3433447778224945, 0.047239020466804504, -0.526156485080719, 0.03951625898480415, 0.30482152104377747, 0.05784541368484497, -0.035461876541376114, 0.02925206907093525, 0.31921952962875366, 0.37733063101768494, -0.06349656730890274, -0.12351854145526886, 0.18410499393939972, -0.27647361159324646, 0.6869073510169983, 0.29763028025627136, -0.002965219784528017, -0.11439766734838486, 0.026072079315781593, 0.05940252169966698], [0.4804813265800476, 0.07851848751306534, 0.08126620948314667, 0.25584152340888977, -0.03813803941011429, 0.03875861316919327, 0.202676460146904, -0.264492928981781, 0.06384243071079254, 0.1488429307937622, -0.15605245530605316, -0.044507503509521484, -0.27573907375335693, 0.012059003114700317, 0.008579377084970474, -0.06012805551290512, 0.29184985160827637, -0.13365568220615387, 0.2057412564754486, 0.10630758106708527, 0.12275185436010361, 0.18363775312900543, -0.24190977215766907, 0.07034431397914886, 0.15730620920658112, -0.060487862676382065, -0.030683916062116623, -0.17262738943099976, 0.12203318625688553, 0.24839287996292114, -0.3906978666782379, -0.20286883413791656, -0.16209103167057037, -0.03094228357076645, -0.06807363033294678, 0.1339748650789261, -0.3602057993412018, -0.4524213969707489, -0.11266590654850006, -0.16751942038536072, -0.15137536823749542, -0.1552620828151703, -0.275781512260437, 0.11643757671117783, 0.23121438920497894, -0.20765654742717743, -0.29610830545425415, -0.11539306491613388, 0.033390920609235764, 0.009526544250547886, -0.13860933482646942, -0.05715927481651306, -0.8285788893699646, -0.033947087824344635, 0.1839400827884674, -0.29096856713294983, -0.012648778036236763, -0.16607780754566193, 0.08120770007371902, 0.24785363674163818, -1.132110595703125, 0.2294267863035202, 0.08175873011350632, -0.916854202747345, -0.2526935338973999, 0.21751274168491364, -0.08965697139501572, -0.058308959007263184, 0.2439943552017212, 0.2063920795917511, 0.2722510099411011, 0.0088294493034482, 0.03917194902896881, -0.16758544743061066, -0.06164407357573509, 0.14019057154655457, 0.21498173475265503, -0.20565995573997498, 0.36285489797592163, -0.3099201023578644, 0.18205931782722473, 0.06111485883593559, -0.12949195504188538, -0.012592777609825134, 0.48623499274253845, -0.2509709596633911, 0.3325570225715637, -0.06455188244581223, -0.03760780394077301, -0.0799260213971138, 0.11249010264873505, 0.0200185589492321, -0.031496305018663406, 0.06657133996486664, 0.04414883628487587, 0.22522024810314178, -0.14876441657543182, -0.03303045034408569, -0.147293820977211, -0.42362818121910095, -0.03813323378562927, 0.10797885060310364, 0.1423892080783844, -0.2917807102203369, -0.0008784621022641659, -0.09313073754310608, 0.20281007885932922, -0.17968520522117615, 0.1014954075217247, 0.012750630266964436, -0.04907518997788429, -0.06703245639801025, -0.27827805280685425, 0.33817076683044434, -0.12018921971321106, 0.03322403132915497, 0.5019976496696472, -0.9269358515739441, -0.010849419981241226, 0.28028780221939087, -0.4454290568828583, -0.1981852948665619, 0.15002815425395966, -0.135931134223938, 0.2722901701927185, -0.03941885009407997, -0.08466073870658875, 0.12854179739952087], [0.07371886074542999, 0.044798944145441055, -0.019685855135321617, -0.0902189090847969, 0.10581344366073608, -0.07934105396270752, -0.027626389637589455, -0.027528537437319756, -0.17821919918060303, -0.026557737961411476, -0.2923825979232788, 0.026131773367524147, -0.15904925763607025, -0.025292228907346725, 0.17333808541297913, -0.09384368360042572, -0.13771067559719086, 0.012222382239997387, -0.20457521080970764, -0.03126843646168709, -0.008926390670239925, 0.14055316150188446, 0.03717616945505142, -0.35878610610961914, 0.08749105036258698, 0.09319335222244263, 0.01633668690919876, 0.0592622347176075, 0.050763681530952454, 0.01028367504477501, -0.03672338277101517, -0.23308010399341583, -0.19672471284866333, 0.13390493392944336, 0.035288482904434204, -0.08676794916391373, 0.04879767447710037, 0.22062860429286957, 0.18687869608402252, 0.10484307259321213, 