{"layers": [{"w": [[-0.00019799958698780393, 0.008477549869491372, -3.308497249755546e-05, -0.00025343893530125315, 2.1080973194904866e-05, 5.701610952421201e-05, 7.530394619409003e-05, 6.192290497248243e-06, -0.0001279063784759339, 0.5817038923585506, 4.8933357434849975e-05, -4.320794698416401e-05, 0.0024768615500313246, 5.657902766934552e-05, -0.00010551864937461231, 0.0002972657352473306, 9.309802847421155e-05, 7.538376483912117e-05, -0.0004140201916205968, 0.00014657754275776912, 0.00030412443081717037, 0.07157686203427004, 0.0002590882602901182, 0.00017271002535568046, -0.014160262281429184, -0.00033381522825505906, -0.00015375780597168685, -0.002946309859008087, -0.0074222973230377775, 1.670255360311252e-05, 8.234757606958188e-05, -0.00018700010771450032, -4.1255008146707684e-05, 0.0002583817571527801, -1.4592664884531999e-05, -0.00011526205035030533, 9.788044787355121e-05, -1.2914875538888675e-05, 5.633188754479463e-05, -0.005026151441936928, -0.00014765318999546983, -0.00013704223716263464, 0.00020870024104125773, -0.00030474724404695453, 0.0008312245055928324, 0.00010997425499335953, 9.74485861708346e-05, -0.00024277291697554707, 3.9434342964936794e-05, 0.00024574646623549544, 0.00031963551347150243, -0.0001272460468296546, 0.0001432601438420461, 5.589977277973643e-05, 3.569762222803703e-05, -3.234369094100239e-05, -0.00015180395178151693, -0.00019424725758134673, 0.00012721079035646874, 0.001464600495754129, 0.00011002514467136367, 0.00010701261850888148, -3.0160657349186608e-05, -0.0002206764528193381], [-8.959174214250797e-05, 0.006636214846578988, -4.377079932497703e-06, 0.00015284066204334306, 0.00012149649905261662, -2.6038746748449924e-05, 0.00018435377798693125, -1.6251281493470397e-05, -3.535272267057239e-05, 0.17733734073407154, -0.0002834056369923139, 0.00013688108412558377, 0.0018875438288220806, 8.670140204668362e-05, -1.9128169114101233e-05, 0.0013391015386448667, 9.834589901108368e-05, 0.00013588046024799107, -8.945672674881215e-05, -2.7275707886498495e-05, 1.8007030007919535e-05, 0.20107232468841152, 0.00014115396272565528, -4.106549853741061e-05, -0.01169904026072508, -7.541420518526797e-05, 0.00029619549371041095, -0.002145806695953781, -0.006484026139274394, 5.87150481588041e-05, 0.00025255205612384653, -0.00021872298154246436, 0.00010136682460641075, -1.203109104544391e-05, 2.9063968182482987e-05, -0.0002081140543496649, 0.00015653243221145692, 6.204324805049921e-05, -2.789354108051109e-05, -0.005249011475320126, 0.00032119454277647493, 0.0003503393110487775, -6.429060768688428e-05, 0.0003569218857677382, 0.00035046748132910746, 0.0003441229402166938, 4.4151916091942435e-05, 7.878058040461444e-05, -2.4543986306652438e-05, 0.00015207867571622943, -2.540692805477534e-05, -0.0001001602022450755, 0.00018606963062323248, 5.3268978643692755e-05, 0.00031591974512516915, 3.916731809451261e-05, 7.343303661399701e-06, -5.3621722647219795e-05, -5.2140753573566556e-05, 0.0023570155056230903, -0.00016957723801402133, 4.667845602106472e-05, -8.186903586820539e-05, 0.00022125787157039166], [-1.2256995353742874e-06, 0.09875725791068932, -3.361684996583518e-05, 0.00013561553389072157, 5.967940364933784e-05, 0.00014551822841940145, 0.0001333426588400976, -5.484971913961815e-05, 6.6731031654052e-05, 0.3851786491472749, 0.00017542441909263173, 3.7278816529216126e-05, 0.0013140577139395943, -9.242254690540051e-06, -0.0003169985990535701, -0.11047280667358356, -1.7166209428373316e-06, -7.6036260757909706e-06, -9.637653269055688e-05, 0.00018196879843375945, -0.0001657439538188606, -0.002019814603979817, -0.0001441255154583991, 0.00024870898194645854, -0.004444951693889826, -5.4893905516204816e-05, 7.98489858171479e-05, -0.002919626641471349, -0.006365270586286259, -0.00032314323085630826, 9.00547213526899e-05, 0.00029816657266667064, 0.00011208856915135002, 5.9390439987604644e-05, -7.419947131512876e-05, -0.00023800940793610177, 1.7566391359377706e-05, -0.0002655330815833309, -0.00014706127161371734, -0.004227429884401221, -0.00011579648347448491, -0.00019360012216628012, 0.00016972544975959685, -0.00020364485681803962, 0.001677872083585883, -8.719931274561908e-05, 3.465228027139803e-05, -6.516571719566704e-05, 3.971833554873104e-05, -4.524080552966296e-05, 5.8176959626582834e-05, -4.0098961670896285e-05, 0.0001486117242330252, -0.00028333619719285853, -0.00024426750375713323, -0.00011670003032875008, 0.0001504773638806113, 0.00033073410426422893, 7.552650121296007e-05, 9.951303314156178e-05, 2.81954009447714e-05, 2.068052395720217e-06, 2.142735460099765e-05, -2.0995515088233667e-05], [0.00016925423216314524, 8.597321427165384e-05, 0.0001930431059300688, 0.00027345040406132764, -6.438172254647344e-05, -0.0003170019564719498, 0.00017724019528519806, -8.97999114477805e-07, -4.282328747777275e-06, 9.557784705922155e-05, -0.00010975044127892002, -0.00030535369527358536, -0.00016291839199399322, -5.233748025022873e-06, 7.88854967863806e-05, 0.000123322501281229, 6.560740638408345e-05, -0.0001125592400964149, -1.4222094172212068e-05, -1.1084713539622832e-05, 8.188416635337953e-05, -0.00011671669377112348, 0.00017863663476192765, 0.0001231796465034841, -0.00018322723304269576, -0.00018006444240329595, -8.751669334260225e-05, 8.683526760274459e-05, 9.717222594802183e-05, -0.00041013302221007435, -0.00023252011931955825, -2.666910003373284e-05, 0.00020502327223831667, 5.947398273314061e-05, -9.500324112246412e-05, -2.5142175123174457e-05, -7.15888499696132e-05, -0.0002906843710309428, -0.00019269898452597487, 3.079944052739261e-05, 4.5257404091897046e-05, 2.462168386888257e-05, -4.258650702745404e-05, 5.496709401815153e-05, 0.00015656425679994946, 6.711169206512812e-06, -4.640790511771441e-05, -0.000148338596591229, 6.596646221354112e-05, -3.6682611723270744e-05, -2.877235387851483e-05, -0.00019745174512791772, -3.5340965766636256e-05, -1.3609842126210682e-05, 3.337220649909805e-05, 1.939107517269606e-06, 0.00011763376122170237, 0.00043638070301209634, 2.242963230050656e-05, 7.58096860029187e-06, 0.00026569846798266795, 0.00010112604688495423, -0.00010557593439239913, 0.0002548861871294652], [-9.12172492961356e-06, -0.00021840481216834208, 0.00019038950482022426, -3.2221286060139743e-05, -0.00015005859116459834, 3.2131624567954986e-05, -4.047470628804664e-05, -7.541117893042867e-05, -0.00026137855599133017, 0.00013189226107225907, -6.073408689103048e-06, 0.00010446594883969443, 0.0002116494488951721, -0.00022293302248246682, -0.0001650370601618082, 9.299789783372836e-06, 0.00017424870312501134, -0.00019340708593863963, -0.0001815797867122565, 0.00016225201946870377, 0.0006163556866563372, 0.00018925120811065196, -0.0001558580283680936, 0.00011130626246663105, 9.62696351728841e-05, -0.0002533094992169987, 2.7290934194511412e-05, 0.00025459636184658573, 0.0005349448860085793, -0.00017516276436653928, -5.251854884324902e-05, 0.0002876288610468036, 0.00020802986400393012, -0.00017346120731640577, 4.248215090865404e-05, -3.6280740778920815e-06, -4.645615288905357e-05, 0.0001528651359145924, -6.699616444772708e-05, 0.00016002171296256504, 0.00015549590835094797, 9.569746664273487e-05, -2.234423607519493e-05, 0.0002121630120075095, -6.164768125473826e-05, -6.851203141382229e-05, 1.635593467339903e-05, -8.357147829343801e-05, -2.5604033233411758e-05, 7.64377885709491e-05, 9.099169018731603e-05, -0.0002410797816079172, 8.17033479094763e-05, 9.000269925116413e-05, 1.3455955306706163e-05, -8.757109277910926e-05, -2.485386017269246e-05, 6.58818139316509e-05, -1.0608293643881106e-05, 0.0002844874311148251, 3.9303327780705416e-05, -0.00021036521432849114, 0.00014621803859754025, 0.0001499448016661466], [-4.550792184097703e-05, 6.324141794749848e-05, 0.00016119169041042448, -0.00016984647770558345, 0.00023441511412975586, 2.3084807568361912e-05, -0.00016623891774641137, -0.00033734403267020937, -6.390861378032419e-05, -0.00015546704272004862, -0.00010531794019201857, 0.00017311286695710198, -8.861982108713718e-05, 1.3162859073983053e-05, -3.5792147540941215e-05, 0.000156209336187855, -8.98895929860437e-05, -6.52138458585268e-05, 2.7539180808521863e-05, 1.6224724646262767e-05, -1.7765407900165037e-05, 0.00017352822449129783, -9.638613017778952e-05, -0.0004498514905185516, -0.0002289935782295673, 3.604630592429399e-05, -2.6259681934586633e-06, -7.66961888531963e-06, 4.170178085207865e-05, -1.768479953772898e-05, 7.932096599532033e-05, -0.00012723249400281648, 0.00010042761169319561, 0.0002626954393356633, 0.00026185455457028114, -6.709721498390577e-05, -0.00027185343071642635, 0.000276182110119293, 8.684585043709598e-06, -6.979483687035466e-05, -0.00031236498862212533, -7.786198111035797e-05, -0.00017767879842977983, -0.00010163126747957824, 4.7625467681692695e-05, 6.631014745628655e-05, -0.00021436176454725145, 6.932401785939287e-05, -2.270765554795868e-05, -0.00019802567043247923, -0.00026866295576078716, -1.9676767801690475e-05, 4.634282210597131e-05, 3.0233227865678807e-05, 0.00016834305652434976, -0.0001373024670175536, -0.0002367834504701726, 2.2595705904985408e-05, -1.2134285469061133e-05, -0.00023912000527190005, -4.0166526419492274e-05, -0.00027204996286000116, -9.412489440128172e-05, 0.00038085675648219725], [0.0001657238275694662, 0.004950409981428281, 0.0001933473826372301, 5.236127214295133e-05, 6.12746573037167e-05, -0.00011921159731170556, -0.00019321455776506288, 9.191019850841285e-05, -3.175866253777134e-05, -0.0034391195529077114, -9.639015407226625e-05, -0.0002847194832751851, 0.0009135246591316212, -5.995452483651191e-05, 8.061812622171875e-05, 0.004643158390887543, -4.264120273089903e-05, 0.0001355238183549297, 6.965058199773597e-05, -0.00011714170386701244, 0.0001099851259914213, -0.0018110123159068435, -0.00017927277006690641, -5.98602447697114e-05, 0.0002279392753398392, 0.00014995923301404243, 0.00020414157950569996, -0.003911574847725235, -0.003644976658131202, -7.678110054564643e-05, 0.00040332113150724617, 8.842000319804567e-05, 0.0001158754412361162, 0.00014024758775641475, 1.052547501983675e-05, 0.00021613035621241943, 8.723778664209129e-05, -0.00013190921392691, -0.00011522216724277355, -0.0018172521891769028, -3.777525673181769e-05, 5.2434105796630984e-05, 0.00038246379593963006, -5.2900130635783764e-05, 0.0008157098947035063, -0.00034462313618718545, 0.0001666241900649734, -0.00027008101977446075, 5.6943039436512595e-05, -6.5927568176347124e-06, 0.00010960947727491974, 6.373204199335274e-05, 7.917435344490388e-05, -2.875681248219856e-05, 3.5972914716933465e-05, 4.363717647899953e-05, 4.7459718374371234e-05, -1.171160930844449e-06, 0.00010133605708430143, 0.0008238569262985025, -0.00038290545074877533, 0.00015883050616682113, -0.0004206209434664702, 0.0002673558248127852], [0.0004222930826130114, 0.007428825519616532, -1.387804888789183e-05, 9.998232400757159e-05, -0.00013117205028360357, -2.4843670687554274e-05, 3.099042239624072e-05, 0.0002772293981202118, 0.00024781592348942856, -0.001645799379769897, -9.33496774153447e-05, -3.661035053466694e-05, 0.0010570349967409776, 0.00020950747049026987, 9.291542858740949e-05, 0.004136410531036628, -0.00011074347700486218, 3.292320662248257e-05, 0.0002402450701541059, -0.0001734520678692496, -4.336205608761754e-05, -0.0010368610777337075, -0.00012768209928800734, 4.206523900630318e-05, -0.005193728446113353, 0.00016648802509630693, -0.0002280938825660784, -0.004573066396991117, -0.00524769904988394, -2.551711149744159e-05, 9.222039167166068e-05, 0.00014113255033972532, 7.039319450329973e-06, -0.00021355144016586326, -0.0002091369060886167, -6.720378516431795e-05, 2.580191042590489e-05, -0.00017605255129687466, 1.06505837676048e-05, -0.0027288205232313782, 7.318355782359644e-05, 0.00021034182716836767, -0.00014158270430137543, -5.482104614036607e-05, 0.00033330710400228126, -3.810029395948184e-05, 0.0001380464788419301, 8.269227556301379e-05, -0.00013367564672147133, -2.9819914444783493e-05, 0.00021801727631448237, -1.6217026441184505e-05, -0.00017397631058545124, 8.02816118255804e-05, 9.936857306161944e-05, -0.00011762453774289092, -4.1213868889536635e-05, 0.00041458367328327267, -2.363449912589897e-05, 0.0010243858723492487, 6.443130837542331e-05, 8.663470836307134e-05, 0.00030300148866915024, -0.000110256547908807], [-9.933514737784277e-05, 0.00256993300296287, -7.55036428437924e-06, 6.211256463928146e-05, -0.00016822523148882516, -0.0002620411262759723, -1.3640883300321258e-05, 6.512243216866056e-05, -5.690386188690727e-05, -0.00039471925692964924, 2.5859242237044914e-05, 2.749897057238715e-05, 0.00230774066306305, 0.00010059880564581887, -0.00012461107645104542, 0.0041245515312440875, -1.9901681458989957e-05, -2.312523084239932e-05, 0.00011971288282079192, 0.00022846840006197404, -0.00020030657365815505, -0.0034697498938815003, -2.5863693907594816e-06, -6.516272859846208e-05, -0.002536104285137885, 5.994205369638881e-05, -9.848453460476793e-05, -0.001633173284673861, -0.00251987169581737, -4.119455901670231e-05, 0.00010968295745429231, -6.116808645223316e-05, 3.6879277463944856e-06, 8.585143972881311e-05, 6.806610632913869e-05, 1.6869885367068753e-06, -0.00043514588077539897, 0.0001476125092051949, -2.3212090638430715e-05, -0.0038103870441915997, 0.00010540552448424613, 4.9068226611286585e-05, -0.00013284270728418777, -5.683826741546233e-05, 0.0029513870168188312, 0.00012566208072083032, -3.306655750382564e-05, -8.006695568953959e-05, 3.7262066640608854e-05, -6.43873469164191e-05, -0.000294002262958136, 7.086375822465861e-05, 2.3515435173652424e-05, 0.0001515191342278359, -0.00010589876691791194, -0.00016678312758049935, 3.745601499570882e-05, -4.280782532918509e-06, 3.145784165895685e-05, -0.0018033373487925958, 5.6209370111721026e-05, 0.00022836782437460606, -9.218660784925182e-05, 7.693642852658977e-05], [5.147388397543018e-05, 0.054188271338128716, -5.737015885341751e-06, -6.734295750279878e-05, 0.00011764412820994475, 5.4725018915381985e-05, -8.782197328921216e-05, 0.00024504880302990916, 8.261980442502e-06, -0.0014346553306046478, -0.00012731327141372363, 0.00011250209405291582, 0.001466321093865922, 4.580766036985297e-05, -0.0003598637605413298, 0.004276095256041814, 0.0002834380329009389, -0.00012108055846243785, -0.00022906743729481056, 0.00010554049250488464, 2.4416172688404915e-05, -0.0002464331927302814, 9.931744767392527e-05, -3.457924221353938e-05, -0.003837803070711498, -7.153863036402666e-05, -5.108331591258062e-05, -0.0036160283478195256, -0.004436515706325848, -0.00016030458315739214, 0.00043243540731593023, 0.00017929450806186914, -7.91517758679902e-05, -0.00015033667981210572, -0.00021612813690692381, -3.835331450337169e-05, -0.00011303222054392009, 5.86656368259442e-05, -9.308800888059042e-05, -0.0032933463484802485, -3.0076600786800762e-06, -0.0004278957187792586, -2.457174775729222e-05, -0.00016989427193218182, 0.0013231655149766148, -0.00014480099588102835, 0.00011336090732212006, 0.0001825982912171839, -6.849480809742693e-05, -0.00026536586027902905, 3.439432140624557e-05, -0.00027871659307248124, 0.00029006652879366246, 0.00011198820464578148, 6.548711421868416e-06, 9.354484999788738e-05, -5.64092347068328e-05, 0.0002343962858301261, -0.00013524274709598834, 0.0009076868374589396, -3.6736232661007304e-05, -0.0001971420204882331, 0.00018426807147821556, 0.00014204753661258617], [-0.0001534038396633988, 3.0306644589991305, -2.5845425600907755e-05, -9.064065401185093e-05, 0.00011907527233716135, 0.00017017577033682645, -8.461610174709368e-05, -2.426752081145e-05, -8.49208674049522e-05, -0.0007011159044725955, -0.0002758638214548011, 0.0002986347866976612, -0.006986816704298945, -5.130924030583883e-05, -0.00032419507430234926, 0.008898260229828257, -0.00019927425364271882, -5.8627649945655373e-05, -0.00011269115226901483, -3.4675125130394994e-05, -1.177566772690235e-05, 0.004905021685559031, 0.0001765580305838278, -7.749165033490917e-05, -0.6611338063755221, 3.904989411662296e-06, 0.00019392723129169369, -0.0007713510359512641, 0.0008462927062237215, -5.356061460552457e-05, -0.00015798626338321415, 3.97690062213754e-06, -9.534163564147577e-05, -0.0001651358446512234, -9.128322304833505e-05, -4.696985710017243e-05, -1.6338698041792183e-05, 0.00023884596352935248, -4.3648686046703766e-05, 0.09365965224535733, 9.186553605770818e-05, -0.0001219809510620121, -7.221464415637262e-05, -0.0001942733886950362, 0.00030814364188834617, 3.348210306718066e-05, 6.54572204429017e-05, 0.00017574008305448562, 0.00012296736104227182, 0.0004320989010173198, 8.351603401720059e-05, 2.5603265199723298e-05, -0.00016088827929623136, -0.000191262285333168, -2.8166798613158847e-05, -1.1773583751212296e-05, 0.00028091008446836925, -0.00014719699214122878, 0.00010139848097022, -0.00400849091554635, -0.00023763548504037238, 7.933889852818543e-05, -2.5103525792196844e-05, 0.0001232782111394923], [-7.781598823468785e-05, -0.0001341715195510744, -6.183701208349525e-05, -3.2465656899414227e-05, 0.00026077877745229333, 0.0004664897567867928, 0.0001195270838554233, 6.819073341503715e-05, -0.00017825976970062762, 4.133653161569597e-05, 0.00010898380482014782, 0.0003113250073611375, -2.3697171975242627e-05, 0.00028136250228462926, -0.0003195991305409394, -3.2083498231865484e-05, -0.00043535412424584245, -9.772016887983078e-06, 0.00010547503236117426, 9.655864128608819e-05, 0.00013763304557757743, 0.0001126890859669502, 0.00026550189693606884, -8.142390925162214e-08, -0.00012436436630862478, 0.00012077848984026487, -0.00022258911022420398, -9.15019898542128e-05, 6.303782749730093e-05, -0.00011087138630161577, -0.0002168454184304385, -5.565199659191616e-06, 8.280335230269705e-05, -0.0002843869093851571, 0.00014957809233476482, -0.00015427856701857173, -0.00014903368792596936, 0.00012813011547624256, 4.4022537891375734e-05, -0.00022407152616036975, 0.0001286114891669429, 3.890034987730751e-05, 5.337588331022377e-05, -4.410149080847027e-05, -9.655831443675604e-05, -8.049948441592403e-05, -0.0004719099766409523, 8.082793447864563e-05, -0.00021971005889646477, -0.00031820195099186934, 1.35975160191058e-06, 0.00010363622753730002, -0.00013343956091621274, -6.850581207043037e-05, 2.593204113074011e-06, 5.1045426882208046e-05, 2.0193983516170308e-05, 4.5817067269532554e-05, -0.00017468735819793396, -4.627850423641207e-05, 3.541022741691989e-05, 1.1230936746861021e-05, -8.543729604890661e-05, -0.00041503125983246604], [-8.75412102660878e-05, -0.00016636765043529457, 0.00022282646397160126, -0.00026189462079139673, -8.389029370366905e-05, 0.00019085050664267123, 7.198938334704807e-05, -7.842902833318449e-05, -5.533729450642095e-05, -5.4183078822055903e-05, 7.988036066511575e-05, -0.00011712354335092267, 0.00017556069122596861, 8.527756105660919e-05, 5.715297807560576e-05, -6.629229510088792e-05, -0.00011577315540056297, -2.4916352088996972e-05, 1.1002624331215931e-05, -9.174694792013542e-05, -0.00015448611610672987, 5.3827440738460754e-05, 0.00015643302244231074, 8.11870351300774e-05, -4.094141126521982e-05, -7.167248432468127e-06, 0.00012892451969870287, 8.746198236427139e-05, 8.591279210525361e-05, 0.00022755349034668044, 0.00015921453625834868, 7.669768706575919e-05, 0.00019811023483860802, 9.477672629745873e-05, 5.116053071864975e-05, -9.108996163283064e-05, 1.217076416893851e-05, -5.518048897582665e-05, 9.87122287060248e-05, -0.0003581772966060333, -4.700818689609893e-05, 0.00021330478832924204, 0.0002299201433088292, -1.3400452097401576e-05, -0.00039334681270794254, 5.80141661383236e-05, -6.577097030658968e-06, 7.363411617277384e-05, 1.867666207418158e-05, 0.00011508334734008635, 5.47584287852175e-05, 3.488419009235135e-05, 0.00011228214245089928, 0.0002669069818446886, -9.134495139131896e-07, -1.0621652251912114e-05, -0.00015567662063059243, -1.535892580474363e-05, -6.053056209940232e-05, 0.0001713388265959412, 0.00020192808531961268, 6.994686845898348e-06, 5.4442419235600016e-05, 8.717062125075689e-05], [-0.00020986509625998877, 0.00010930395114438825, 0.00015035810197493141, 4.845987324390756e-05, -1.546376773999961e-06, -4.044788324391877e-05, -3.6659506613880244e-05, 7.46690445910358e-05, -3.8639085783134374e-05, -0.0001198099808365169, 2.4032747072088792e-05, -0.00024508630776927626, 0.00012274118470439406, -5.887648294621609e-05, -0.00024869025007009455, 7.778219259275516e-05, -1.559131393989194e-05, 0.00012344481663977895, 0.00018363460590157025, -5.766506914483455e-05, -0.00011249719104283935, -0.00016460073832895807, 6.941636469577438e-05, -5.477166183363098e-05, 7.968019302792295e-05, -9.926885822576339e-05, -0.00023349840964982608, 0.0001103022491801641, 0.00011940814525596049, -0.00014219501084539345, 0.00021510310196633733, 7.730720264409477e-05, 0.00022677833223264712, -1.202342440911956e-05, -3.7706613937935586e-05, 1.0046458704348883e-05, -8.441170607698804e-05, -5.5927753587146646e-05, -0.00012058950812129682, -0.0004486085057883719, 1.9985288904020288e-05, 5.981301151613855e-06, -5.607874008680506e-05, -1.1503207249287352e-05, -0.00012478760353649802, -0.0002350395178876028, 0.00015145979806489832, -0.00017508623014033162, -0.0003470193478316794, 0.00013372609219421575, -0.00013024733014190584, 0.00011931065570112393, 3.437529979895518e-05, 6.64903019591424e-08, 0.0002522623411163658, -2.9984495313280167e-05, -0.00016781955200939996, -0.0002689887250850613, -8.427981939419256e-05, -8.346458775882159e-05, 0.00013066034356823034, -0.00011011963757653744, -8.523243193148598e-05, 0.00047465969785615903], [-7.03642792081175e-05, -6.200852272551213e-05, 0.00027402948942386153, 0.00016213705649585327, 6.806534321148887e-05, 0.00011089333121071853, -0.00011607117130667016, -0.00022602590214430978, -0.000299364845041535, 1.1926141884868553e-05, -0.00034012831424251973, 4.71881696657546e-05, 3.24884284231659e-05, -0.00035405013907605483, -0.00032676660706029714, 0.0002205762160644782, -0.00023464035786925438, 7.624394708866952e-05, -3.2796360584535527e-05, -2.5251892820474134e-05, 7.837037337169887e-05, 4.073435640884444e-05, -0.00011182967975007012, -8.65874292059345e-06, -0.00018427761263226696, -8.149839476833469e-05, 5.9805317220008454e-05, -3.5883720357514126e-05, -2.189176850795468e-06, 0.00011097483351941599, -3.731090009137841e-05, 0.0002433861082325813, 0.00011223364844938919, 5.825527665575763e-05, 9.00413585121175e-05, -0.00013153257722713942, 0.00013310679783698135, -5.754850808318335e-05, 3.6126282384798676e-05, 9.534053491364066e-05, 0.00019012792035117584, 0.0001261038853248318, 0.00018263026725600317, -1.3289984572311037e-06, 5.9716552440007106e-05, -0.0002258232382819291, 0.00010472976720128833, -0.00010877223818900801, -7.015079693054358e-05, 0.00011750665906307278, -0.00015050654886599504, 0.0001741987023572524, 0.0001387525800729482, 0.0001456401486028023, 4.804957494918468e-05, 1.4104763743126717e-05, -1.1479618939755022e-05, 0.0001819646327671959, -4.410830982231454e-05, -7.532004724931074e-06, 0.00012955372837404773, 0.00023800928490502263, -0.00020437060194953627, 3.229183523877035e-06], [-6.396128849861392e-05, -6.977090780756486e-05, 0.00010184906649702358, 5.751317772598388e-05, -0.00032262172281791055, -0.00019465556050953872, -0.0001394498647329467, -0.00011597167236668356, -5.635909744754338e-06, 8.10527588304671e-05, -9.805155087771333e-05, -2.5785208437072084e-07, 1.994230038903215e-05, 0.00015645432846824614, -9.176861976137551e-05, 4.586760528412623e-05, -6.651051003788619e-05, 0.00013948052026750457, 0.00026971986109191286, 6.963927316763042e-05, 0.0005052120718182459, -1.7698148925771792e-05, -0.00011473791909646053, -0.00012987146879740778, -2.3731421901830428e-05, -8.152890584985233e-06, 0.0001932088977717577, -0.00015961004703023574, 0.00012663149332367424, -0.0002383102386198504, 7.453546006674413e-06, -2.4167632196023776e-06, 0.00016330074478021207, -5.870004285761235e-05, -0.00022089413062773312, 0.0002021316459224639, -3.194512795699001e-05, -0.00019879604173881688, 4.146419237082655e-05, -0.0002164720659301931, -0.00018214008318161385, 8.953943920968834e-05, -2.371011394905242e-05, 8.101583652787928e-05, 0.00014568268148889532, -7.733684888941394e-05, 3.2883122911784256e-05, 0.000191368936307226, -0.0002009844944511445, 0.00021025399989424564, 2.703796813669274e-05, 1.644888979544879e-05, -0.00015290130921138582, -1.0710708598549097e-05, -7.038607783266448e-05, -0.00013204071686625775, -1.4832684800390408e-05, 3.959998812454662e-05, 7.26021608772605e-05, -0.0001639396627980623, -0.00017330812769561862, 6.638812975157145e-05, 8.711967500953868e-05, 0.00017932948425647958], [0.00037073528433417135, 4.586039020674102e-05, 0.00017939091856019153, 0.00019818323282091651, 0.0002956198369426043, 0.0003991148778871486, -0.00012564325084970325, 0.00018124019887622464, -0.00040272755727281375, -8.45873392434293e-05, -0.00016323903997568707, -1.6636785870713117e-05, -0.00011982339704712992, 0.000197045693714459, -4.728896449783152e-05, 0.00010269505591497429, 0.0005196000715964881, 0.00011546937839996836, 7.876924175166477e-05, 1.1427140415009587e-05, -0.00014100994724328768, 2.633163764045903e-05, 6.679473302849292e-05, -0.00010974967054369417, 3.399448400146624e-05, 0.0002019814113078516, -2.378630990083046e-06, 0.00014639956151418158, -1.9070907096957246e-05, -6.243071070522312e-06, 0.00017147473565789757, -4.8941230261525306e-05, 0.0002671334075866551, -0.00037611827144880467, -0.00014218983226166765, -8.293518602275727e-08, -2.901935860870551e-07, -6.501812285690993e-05, 9.910054133715584e-05, -0.0003281900977296179, 5.665047988626739e-05, -3.100446216199477e-05, 0.00010710769332391995, -7.78003283738265e-05, 0.00015349059042457715, -3.1903645024219105e-05, -1.6137294432477881e-06, 0.00015611669960431787, 8.427827301108029e-05, 1.3077869051183783e-05, 6.924922760192216e-05, -0.00039194435376992, -4.410925296890606e-05, 0.00027957199431754464, 6.480052389594842e-05, 0.00017874727348757326, -4.919453558016379e-05, -6.292859846805015e-05, 0.00015999180868054913, -4.768359786416975e-05, -0.0001383470032724761, 3.395166956012807e-05, -8.302694864769882e-05, 3.7742842195986092e-06], [-1.1048334679256842e-05, -0.00018202585802338796, 6.821084343599968e-05, -0.00031647928277422834, -9.707894549023204e-05, -0.00015350047102108516, -0.0002876740749948904, -0.0001612543391433408, 5.900374846148547e-05, -0.0002909144164495538, -0.00034619207306001496, -3.313923806855717e-05, -0.00039607615820847863, 0.00010119082265500745, 0.00022377138995982297, 7.684511876538862e-05, -2.9480811054910917e-05, 0.00018234215565561052, -0.00022796373677807282, 0.00033634628830828855, 2.6760066314299437e-05, -0.0003401414607544756, -6.787457206648066e-05, -4.523457865094947e-05, 1.8933714972047607e-05, -6.348558119874055e-06, 0.0001909154819048257, -5.689198630969722e-05, 3.669899755603733e-05, 0.00023432523761335016, -0.00010403258711416376, 0.0001291664040552894, -0.00013403758157502218, -0.00021792771711304487, -1.178606194338213e-05, -3.670316196544849e-06, -0.00022738511753825718, 8.67443588123875e-05, -5.98398575470856e-06, -0.00018373808430975614, 0.00010636436381977854, 7.765855436695944e-05, 4.095076508537311e-05, -4.923586979568317e-05, -0.00017539950044139472, 0.0001092377276224182, -0.00016605057854130858, -0.00012119591312673162, -0.00014212057287868213, 0.00012097701070797822, -0.00017305946106390189, 0.00012198092939229749, 8.1102839842117e-05, -0.00037331679834960827, -0.00017827313672055784, -0.0002789252323697061, -2.307335143922638e-05, -0.0004520588334285506, 5.90132855846709e-06, 0.00019998032124992707, 0.0001276583368534556, 4.604257981268657e-05, -0.0003194304769623615, 4.4074095679526204e-05], [-9.61633783003787e-05, 2.7564055681952548e-05, 0.0001263476639699342, -9.424809167648808e-05, 0.00010869378374786858, 4.934440577532786e-05, -0.00012514849349073184, -0.0001013909452633024, 0.00013130412281902524, -0.00018740412227790548, 0.000195683335366872, -8.137431001869271e-05, -0.00041692462521091564, -3.972658413851396e-06, 0.0004892872639185729, 5.8428728515992016e-06, 0.0001397708661319758, -0.0001234107638067513, 6.915988819389702e-06, 0.00021123976440026585, -0.000305219591996439, 8.322986306028533e-05, -0.0001587776708570699, -0.0002857613723284343, 8.832728631542872e-05, 5.483463813506361e-06, -3.590471072242792e-05, -0.0003343734779986038, 3.161580748593113e-05, 0.00015248939984840938, -5.6817044622836345e-05, -1.7429083295448974e-05, -0.00012440152545975606, -0.0001840178886765072, 4.023957098127652e-06, 6.157912095576122e-05, 0.0002642714747937291, -7.42562076652414e-07, -0.00015901668408715148, 0.00023771077569254925, 0.00014767165203254844, -0.00010410000674059423, 0.00021130688945334927, -0.00017714605086602676, 1.0136155186669002e-05, 5.0518226749437484e-05, 0.00027719300112961047, -0.00013498453716204842, 4.123680222202982e-05, -0.00020798634785959604, 0.00023534918697550275, 0.00010276135399212461, 0.00017897757482005948, 0.00023083717344988468, 0.0001323970483453073, 0.000222537546857185, 0.0002698334710193722, 0.00014579510461825888, 0.00020910168746161818, 5.974886397556533e-05, -0.0001522569107235964, -0.00027979274728021883, -2.8793307556117462e-06, 9.027417439201424e-05], [2.52284017166724e-05, -0.00017915096742924445, 0.00022179735624677763, 0.0004487393171243428, -0.00020674005263690193, -0.00015970048449472082, -7.029190143362799e-05, -2.775665732986679e-05, -0.00023874556857942972, -0.00015656916293826603, 5.3535483939976534e-05, -5.492249508178674e-05, 0.00010028107573922245, -0.0001597998129673237, -3.6493097143212248e-06, -0.00019536991358212464, 7.362840141481595e-05, -0.00011218672153932724, 0.00013135889713723889, 1.3890677345092969e-05, -2.6685535683657635e-05, 0.00010288627327830885, -8.674434400465013e-06, -0.00013407351152728268, -0.00014285616817413474, 0.0002168781808955472, -5.709189288304116e-06, 0.0001981839180804265, -5.155453457599424e-05, 6.01264276256438e-05, 1.0664509898624915e-05, 9.395702631641862e-05, 5.644816514570091e-05, -0.00022090223602365432, 0.0002980924041441336, 6.62082484736069e-06, -4.6903023798306467e-05, 2.5438583878147507e-05, -0.00011607287738694344, -0.00029404236544938587, -7.885508675616805e-05, 2.2068536753292335e-05, 1.0259386579787019e-05, -0.00010378439974491604, 7.117209780120603e-05, -0.00012768659915682345, 0.00033106639767573564, 7.514893357769732e-05, 7.862342690076491e-05, 4.787438331980686e-05, -0.00010942813913284535, 0.0002585279447313122, 0.0002174999863133683, 0.00011763859922618938, 0.000266440078891985, -4.958898519209647e-05, -0.00011951917487762748, 0.00020919618727922992, -0.0004264136325057682, -2.0957849303580693e-05, -0.00020104099779436768, -0.0001125734509595933, -0.00027094307114874005, -5.0716102502290286e-05], [7.163705007575086e-05, 0.00012999160574927635, 0.00010623401961767183, 1.0881315784442831e-05, -0.0005203928977710972, 0.0001042391686681235, 0.00017410998531241194, 1.2409491737198333e-05, -0.00031651593210446324, 7.247978171926862e-05, 3.0180258428050375e-05, 1.3638128768942114e-05, -0.00025578667173464277, 0.0001489559496526801, 8.324440000291023e-05, 0.00016109476780734646, 1.304051057098009e-06, 0.0002603213018804926, 5.8877064435736354e-06, -0.00015495861921948587, -1.340627147894249e-06, 0.00014645117092646837, 0.00017926525274740787, 7.225260432977638e-05, -1.0595976415751044e-05, -0.00011459925790512356, -3.933080801758249e-05, 0.00015854847250927056, -8.877454621697214e-05, 0.0002692497499390211, 0.00021024885607752098, 0.00012558262768763993, -8.907822815482617e-05, 2.5995738197202934e-05, -0.0001838193648876958, 0.00010200823500511724, 5.068147716692664e-07, -0.00010012654968248982, 0.0001522489541094563, 0.00022192822234121232, 5.757012680857198e-05, 0.00019496640922841572, -2.387562350477267e-05, 2.6813265107420922e-06, -7.941433487499775e-05, -0.00016539732472299861, -0.0001238095298031571, 0.0002434671231992768, -0.00029835379649770217, 9.379065331525436e-05, 0.00026364223474710047, -0.0003198008098509132, -1.7341844795249064e-05, 0.00011394316728093681, -0.000102688432147367, 0.0001695655485802841, 4.6705688911660405e-05, 0.00026034609903738436, -0.0001406305676542638, 0.00038613112859203243, -4.949998355572384e-05, -5.6236180098024474e-05, 1.912333345478863e-05, -0.0002003176085323429], [6.019553534027985e-05, 0.006766280649965313, 8.039198798376993e-05, -2.392224956366943e-06, -6.883245076801041e-05, 0.0002210449304160189, 0.00010856464848630888, -9.63125063060623e-05, -5.411316727024429e-05, 0.000504581059383147, 8.661056615415058e-06, -0.00016044446124790807, -0.0013360489538090082, -0.00041009748323403775, 0.00016859343246110081, -0.00018454736175599245, 0.00022461579326540332, -0.0004030079731057745, -0.0001133559807589699, 0.00012015128762198552, -8.584889603960552e-05, -0.0010319031612702955, -6.901686011488775e-05, -0.00010812008706586823, -0.004882761581021785, -1.5257070498810247e-05, 0.00014815971641952573, 0.004578914985383837, -0.014034598304477158, -9.363944764335751e-05, 0.0001185752811133868, -7.280300699654335e-05, 2.34619206589153e-05, 6.116624248264695e-05, -8.542118020229007e-05, -0.0001290891770176765, -7.710855583104706e-05, -1.8010196473016444e-05, -7.305230716053504e-05, -4.0801235025089374e-05, 0.00010126048395546915, 0.00012240952446441992, 0.00018623692858118563, -6.056488679066924e-05, 0.021346444650972258, -0.00022403354251765927, -3.554659676573648e-05, -0.00022961503390688507, -0.00016566877747168474, -0.00016185871394031295, 0.00018205863256679975, 0.00010006561280663959, 0.0002509058639330017, 7.732772667843268e-05, -0.00036507422387228416, 5.159552869654363e-05, 1.9317187413866373e-05, -8.264017045678152e-05, -6.142517005581721e-05, -0.011218237054089565, -4.0270215592320694e-05, -2.899997999395988e-06, -9.670124485369829e-05, -2.5187546799995505e-05], [8.057470347313758e-05, 0.0002605046857732677, 8.737364881004499e-05, 0.00011300146337220634, 0.00019723299502606568, 0.00013857203396899125, 0.00014286417172459633, -0.0001286803157829536, -7.503485168125116e-05, -4.054702699211833e-06, -2.3142792849924633e-06, 7.82876090748942e-05, -0.00045403881525412206, 0.00044056181974059345, 5.75539965094673e-05, 2.6463856428645152e-05, 8.174581866760239e-06, -0.00013641277978063493, -8.777633442570515e-05, -0.0003038301915254778, 0.00010342050754693423, 0.0001445269803349947, 0.0001772415115592874, 2.0813662707320964e-05, -0.0004700699889071286, -0.00022606134576818308, -7.065465552317822e-05, -5.861239197377332e-05, -8.95788503919798e-05, -8.444506667960481e-05, 0.00030675809744136294, 0.00016619653254038434, 0.00011100445342343612, 8.93318874617371e-05, -0.0001776551268890568, -0.0001287161973863904, 7.752830333602551e-05, 0.00012819069422989374, 0.0002712518440186007, -2.076047500554622e-06, 0.00012592778130518525, -4.512624806815521e-05, -5.708066535009971e-07, 8.131275037831666e-05, 0.0003255060172629703, 0.00037991977777976496, -0.0001306588098239352, -5.6412115852044485e-05, -0.0001201850608728019, -0.0002363221482814055, 3.6950088579619283e-05, 0.00020765357659088617, 8.448733282413601e-05, -0.00026357378976169286, 0.00020223783873574814, -0.00027339961183947716, 5.9560808375638013e-05, 0.0002030500440341282, 1.016760002632599e-05, -0.00026797264813669926, 0.0001057678703293531, -1.5653346547481128e-06, -0.00016871152616229553, -2.7267407069531534e-05], [0.00013300368256040758, -0.0005234987260897596, 0.00026387439096425564, -0.00011023519275331264, -0.0001824028519049125, 1.0734936996732976e-05, -9.997406418822735e-05, -8.55809037603341e-05, 0.00014402454691186777, 0.00017112967049688507, 0.00032428463363842264, -3.3651557695074624e-05, 0.00026053959094429334, 5.19373655378936e-05, -0.00010579774357030578, 5.58407871980201e-05, -0.00013929356986939678, -0.0002683572682676612, -0.00023122439570332973, 0.00025957909216886744, 0.00018478347749314083, 0.0006230850268387895, 0.00010844082902778715, -2.3615391872395532e-05, -8.146955270755808e-06, -8.317149155573909e-05, 0.0002796024536194082, 0.00013442919346812773, -0.00010040889009318025, -0.00021408159595812708, -0.00015130797407213772, -5.440925519406098e-06, 7.67563233660849e-05, -8.467882216092677e-05, 0.00012637604669032268, -5.883521392809932e-05, 6.496953578920267e-06, 0.00032134508074151786, -0.0001458877520915173, 5.255819631843614e-06, -0.0002520196711028699, -2.5715597432242505e-05, 0.00015025818427636084, 0.00015586056081783717, 6.658718216621419e-06, 4.281733023503055e-05, -1.538399996111788e-05, -0.00010637419087879067, 3.747055871741251e-05, 0.0001911479560990765, 0.0004232405572751753, 0.00010266883948873978, -0.0001204525724850074, 0.0001038530277911056, 0.0002436539312882101, -0.00029010758679306857, 2.2036339738372353e-05, -2.6798187968514692e-05, -0.00014270892040051927, -1.2059638219253993e-05, 0.00026881515820100605, -0.00017337749733947, -0.0002702880166105795, 7.373498812944869e-05], [0.0002233300120868067, 0.00028610521063507865, -4.323213209706634e-05, -0.00015003790112940086, 0.00018786377681082893, 0.00028101267984695475, -0.0002238100597906687, 3.683759441916497e-05, 0.000101611467663672, 0.00040731024402727915, -0.00026179949492341145, -5.1463268921432233e-05, 3.5706019962050865e-05, 0.00016013779674016083, -0.0002934714328848421, -7.299893187903006e-07, -0.0001063624749174566, -0.0003307082247682151, 0.0004236587947660098, 7.694019956484367e-05, 0.00021803252115185458, -3.635101261128969e-05, -4.172926405138272e-05, 2.1919786117941825e-05, 3.745039514718128e-05, 3.6701017877769508e-06, 5.639090413338401e-07, -0.00014604351879722783, 4.866032671099612e-05, -0.0002221545679466564, -0.00020032808249005645, -0.0001032370732547986, 0.00018534792514109108, 0.00023628718978529353, -0.0001345326399561107, 8.788694966791603e-05, 0.00018086506546551926, -0.00010525470337389228, 0.00014113690112065199, -0.00018971448671453834, -0.00033753515512207667, 7.048079228512251e-05, -1.0267103249550635e-05, 9.121664641517803e-05, -0.00019518973227796682, 0.000135159777710661, 0.0001666969697089675, 7.01399670841858e-05, -3.586962570646646e-05, -1.557942985254371e-05, -5.1456417914355476e-05, -3.3119577415124055e-05, 0.0001486302409470501, -1.664957825056975e-05, -0.0001756743826486477, -2.623147991479953e-06, 0.0001680403947945949, -0.00025634832992196496, -0.00030626988571052046, -5.1954181247051924e-05, 0.00016854899785555895, 7.431027506604856e-05, 0.00015852206633737382, -3.922598067428912e-05], [-6.3550642717058665e-06, -0.0001370862624342654, -5.719603556899823e-05, 6.217630387899954e-05, -8.10262022081115e-05, 0.0001361960384712621, 5.152720106461206e-05, 0.00014046970564087998, 0.00026172424028508465, -0.0001294624873173409, -9.482616021854616e-05, -0.00024738885796909965, 4.05211889652906e-05, -0.0002099465839458739, -8.919982756032127e-05, 0.0002626428180353941, 0.0001805225738214506, 0.00014047822236869288, 8.317750413236199e-05, 8.465779316088986e-05, -0.00012058630102620806, 4.577974440139846e-06, -0.0003231710245362861, -5.6424984821333424e-06, -5.8220415750390625e-05, 3.579744678692053e-05, -8.258013804596244e-05, -0.00016949304611341343, -4.2434085790739164e-05, -0.0001269714964905535, 0.00022075522061592394, -0.00013292258131353442, -1.7426703235102385e-05, 0.0002012885420334716, -9.80021927217581e-06, 5.128306452644456e-05, -3.3320316217869936e-05, 6.216465334537904e-05, 3.0946683059370755e-05, 9.332458022012221e-05, 6.593916153660237e-05, 0.0001092558482062928, -1.4652722334434245e-05, 7.17611829941863e-05, -0.00015939328268746184, -0.0002641808546550235, -0.00018229437070058275, -0.00023752463194391817, 1.602857398113915e-05, 0.0001073932247893883, 0.00011444590943338566, -6.777821390504587e-05, -0.00011890556524719442, -3.437101673956391e-05, 0.0003224920123685517, -2.6441166288342233e-05, -0.00024328648016268113, -2.6496625175509104e-05, 3.581245271108089e-05, -5.289116309863802e-06, -2.1787266345812477e-05, -0.00010013610957813334, -0.0002433595250758467, -0.0001053922960690424], [-0.0004209390341401466, -0.00011182481377718352, 4.728213993194125e-05, 7.254559521822771e-05, 1.8059036716037855e-05, -0.0002611455542637556, -9.863753758182657e-05, 0.00022143043381703777, 0.00012625742644072137, -0.0001707308407906369, -8.779270671349862e-05, 9.661761277599451e-05, -3.361551927831234e-05, -0.0001965086661886969, 9.644061019231594e-05, -3.155340779879255e-05, 4.543406440174185e-05, -3.174385564321078e-05, 0.0002750327910836898, 6.352969766493388e-05, 3.767120300387604e-05, -5.1109107190212925e-05, -3.5938075528570696e-05, -9.917266747073002e-05, -0.00013506774698875172, -4.971591325381527e-08, -7.45468319487574e-06, 3.671332656869513e-05, 8.039955813334004e-05, -5.187979599419915e-06, 1.975117900091657e-05, -0.00019323872653973127, -1.78837932508108e-05, 8.906724706052026e-05, -0.0001788441970037574, 0.00014225037408076784, 0.0003362002097936968, -6.238414124369788e-05, 3.527458479010977e-05, -8.518692988516166e-05, -6.897965484899796e-05, -5.483069265316527e-05, -0.0002333762816978807, 6.111754648571439e-05, -5.805794137522906e-05, -3.0690543269136924e-05, 9.748311994866645e-05, 0.00011458804139494313, 0.00012254949007761595, 9.491731739602751e-05, 0.00020279742291489205, 1.0599279816956414e-05, -9.258430772028225e-05, 5.7307752425391204e-05, -4.830694402517079e-05, -0.00011119823195518233, -0.00022237235124128617, 0.00014122346527525528, -3.6010560765750454e-05, -0.00018724639552522544, -0.0004983594354219074, 8.427820018778079e-05, 1.7184302765177882e-05, 0.0002198332821233697], [-0.00016904855547919927, -6.2536596333476074e-06, 7.696319097995699e-05, 8.680268337704885e-07, -1.2439638488304702e-05, 0.0002982645957550782, -3.0719959574970164e-05, 5.162535849139762e-05, 0.00031494208849191743, -9.607546101899389e-05, 9.432478291219327e-05, -5.232840525461955e-05, -0.00015008227850059767, 0.00021435759040415114, -9.127464423181876e-05, 3.18452183807584e-05, -0.0001554794205152916, 6.761123249716907e-05, 0.00026801607599028545, 0.00014476417146144918, 8.702446530264337e-05, 0.00011848114964856338, -0.00022764425498747663, -9.156134129801158e-05, 0.0002668956156707782, 3.352367825109106e-05, 8.533440551628209e-05, -6.308003056787142e-05, 0.0003674209033942721, -0.00011036553048317184, -0.00017518969942086562, -0.00018271927869678264, -6.024032390350358e-05, 0.0003426863094927936, 6.204550354034432e-05, -0.0003002573832122076, -0.00019637133413048056, -5.854577506705131e-06, 0.00018379861741181887, -6.737367463004044e-05, 6.875215192205916e-05, -0.00012399682765022014, 3.677342153071754e-05, -4.0876925138690854e-05, -0.00016944134754740906, 1.7912026851034837e-05, -0.00012308726708884878, -8.16290446173581e-06, -4.670039216657368e-06, -0.00030160855004672657, -2.2883595687778338e-05, -0.0001389674127695708, 0.0002908086402977878, 5.853412257112551e-05, 2.8531994912617855e-05, -0.0001122243959142408, -0.00011881855661251242, 0.00023313694938560285, -1.4711175262784932e-05, 0.00011017637903213742, 0.00010793586162235388, 0.0002452058207874075, -2.26009346080156e-05, -0.00014325088263697906], [0.0002471166902844026, -1.6794321433702736e-05, -4.6204506534933294e-06, 0.00033779860137540536, -9.235401799961355e-05, -0.00016528253811729242, -0.00013250203271014213, -4.191283980379457e-05, -0.00010425446106355521, -9.770508484170994e-05, -0.00013013808466494565, 5.185146466112177e-05, -5.978718105397418e-05, 0.0002510306200731364, 8.742931346487743e-05, -0.00022520976914616677, -0.00021523974280230409, -0.00028122956880104725, 0.00010151389711522313, -5.564772797213058e-05, 5.6251625809939745e-05, -0.00027148492932983043, -2.9589960897368616e-05, 0.00010284785803984256, 2.775701382745551e-05, 1.691559157947586e-07, 2.708673172142575e-05, -0.00014147196837581698, -6.632118933647267e-05, 8.668313858334879e-05, -9.245083859858452e-05, 3.28761986338521e-05, -0.00022775433471754043, 8.87717191892134e-05, 0.0001867552667603201, -7.882636345339471e-05, -7.871134416324018e-05, -8.045584039216154e-06, 0.00011471348600317554, 0.00015242112702122988, -0.0001515919579908163, 0.0001313638354772032, -0.00014174181538773002, 7.408229803333588e-05, -8.595056584200802e-05, -1.6731818980260175e-05, -6.434012549494316e-05, 4.291472797059554e-05, 6.332110963927436e-05, 8.151809495021315e-05, -0.0002716159053406681, 0.0002929803720275418, -0.00026928208233407047, -2.0420470401594715e-05, -7.303038126275815e-05, -0.00028107861900558733, -0.00012614805333052806, -0.00012823162140161053, 6.824280470529266e-05, -0.00015450745633817403, 5.074195949969466e-05, -0.00032916496526200494, -0.00017990996633768138, 6.426843079268397e-05], [0.00017649073299397683, 0.03473444120761199, 5.500932334749446e-05, -0.00017462945655725967, -9.794293303959507e-05, 0.0001158975046766686, 4.79767122128702e-05, 0.00018738697822515368, 4.4425269037140286e-06, -0.0011697777912301206, -2.960757741826105e-06, -0.00021933475211800976, -0.00083312598435072, -0.0001538059418453222, -6.842386533791953e-06, 0.00446307652916978, 0.0003537089289919788, -0.0002464843437864026, -0.0001023838702758513, 5.4504419194418197e-05, -0.00023862564688159637, -0.00014165680986443906, -7.9740383386325e-05, -2.7988066303440586e-05, -0.0005359219969177471, -0.00013000882970343061, -6.160372865916617e-05, -0.00016112672721602862, 0.0011228143154686208, 8.844838303968918e-05, -0.0001559568625074433, 6.110136748766393e-05, -0.0001472557260693618, -4.4746093629473066e-05, 3.346766697332265e-05, 6.760204496917157e-05, -0.00019027832385672778, -4.0432800457314657e-07, -0.00013614972042561908, -0.001997665946028775, 5.289680353461729e-06, -0.00017686122529497704, 0.00012735686153109448, -0.0001694264273365228, -0.0030806711205555925, -0.00017382857975864843, -0.00010483219144869009, 0.00018639539841349868, 3.764810225884362e-05, 0.00013662701739415974, -0.00011275719957186429, 3.491437408767724e-05, -0.0003045789625587247, -0.00014951775884985418, 3.442105078338512e-05, 0.000127075185412476, -3.31883944857747e-05, 0.00013272976910068618, -8.353837224432247e-05, -0.0008946386449404195, 2.5495308655433686e-06, -2.2884168923211458e-05, 9.346728965993813e-05, 3.0409748537126244e-05], [0.00015732965072155455, 0.008686352843233072, 8.489892123921397e-05, -0.0001403726801452267, 0.00018946381159746077, 5.6440302249756034e-05, -8.553980929975451e-05, 6.54322765724514e-05, -7.501212381072779e-06, -0.004631355402743891, -2.1662171256742088e-05, -0.00013768103496638746, -0.00528921639116248, 4.788591073754414e-05, -2.604371408132842e-05, 0.017717881822313295, 8.160356270512551e-05, 7.299851930377448e-05, -7.106637256964034e-05, 3.5494664257519306e-05, -0.00017351666668440917, -0.0027746978264168148, -0.00018852904108824508, -6.0223025105274694e-05, -0.0015117458339174675, 0.00011486409338599223, -0.00018993832408656055, 0.00022322030148806254, 0.0010991845323219162, -0.00011969473727669065, 9.220765360260645e-05, -0.0001691737703308229, -0.0003790403692134431, 9.740150614820066e-05, -0.0001450892533564527, -1.5118460143604941e-05, -1.3113957122799346e-06, 0.00028934188211816934, -4.313704185388938e-05, -0.0045653846063695835, -4.945526480412408e-06, -7.825981372451345e-05, -9.010272361127322e-05, 0.00012643152420792564, -0.003628465590980981, 0.00016284518997715852, -4.5942528162013475e-05, -1.759669197417673e-05, 0.00016295945179071992, 0.0001097332259355059, -9.378375153314224e-05, 2.228103471850107e-05, 6.7104938829983e-05, -6.0474030103804165e-06, 7.322112290900032e-05, 0.00019537142879621122, 4.820428891900473e-05, -0.00016206693258604294, 8.179399517164123e-05, 0.0006313832204740575, 5.7001848916650915e-06, 4.441043125571563e-05, -0.00011939264673429987, -8.081067379386484e-05], [-2.229796251182905e-05, 0.005493255306576619, -8.854234499959509e-05, -6.929252535441461e-05, 4.6170981219249325e-05, 2.462725753127104e-05, 7.270222188406789e-05, -8.878890993411913e-05, 0.00011746977064827075, -0.0007734315090929517, -0.0001424798528372396, 0.00016106756316482178, 0.0002670445714454846, -5.520931151818334e-05, 4.342950535307196e-06, 0.004673783781167517, 5.538101210489818e-05, -1.1958814189407554e-05, 0.0001698518667772775, 4.7013209611474e-05, -0.00011678889209046664, -0.2155795528333615, -0.0001543500448544588, 0.00023223388792391233, -0.0031522477421896335, -8.420367084262413e-05, -0.0001658002729751808, 0.0012745450004494029, -0.002678754624926609, 0.00017853299580564833, -0.00012033129287351656, 0.00021502196732388183, -5.991559011932249e-05, -2.8584172410764894e-05, 0.00024213827173782357, 4.216260974618897e-05, 0.0001533580660167435, 0.0002807118277152155, -7.404644387015637e-05, -0.00339647999167917, -9.939157197109314e-05, 9.004425237363567e-05, -4.5435105990646044e-05, 2.8928523203417512e-05, -0.0009725739556646447, -7.522148458431516e-06, -0.00014986957041021915, -0.00010122986486747388, -0.0001366027145653329, -0.0003010494728932646, -0.00017171620718025478, 0.00011537899114943394, -0.0002700541419169238, -1.3051090804454214e-05, -5.95122943058717e-06, 0.00011731761524610873, 7.294671586615023e-06, 8.732696098608674e-05, 0.00011009713828392682, 0.005988906571347029, 9.128731001253715e-07, -0.0001267963114006864, 0.00016329692512344964, 4.8822066531430025e-05], [7.118127271118617e-05, 0.11921221665750271, 4.0514947574274565e-05, 2.9001091377732416e-05, -0.00013122961730479212, 0.00011430570431225737, -2.6635217623736186e-05, -0.0002458946103631461, 4.0079853751198176e-05, -0.003957579375937861, -0.00011082099803105077, 5.822323495755763e-06, -0.009653417622374868, -0.00021834738098408502, 0.00010024440014884377, 0.006344611331839976, -0.0001259270749977616, 2.3738980900318624e-05, -8.436138366289654e-05, 6.033216104927062e-05, 5.029193164586482e-05, 0.23166899418590567, 7.219504917910138e-05, -0.00010497010915149469, 0.1317878375441755, 0.0001884899983420016, -0.00018517987041671006, -0.004533592183031176, -0.0034441452463485835, 0.00015977049719416962, 9.809101919140684e-05, -0.0003436065889187029, -0.0001910416365580196, -4.005283260889152e-06, 0.00016528533944182116, 8.982282977108571e-05, -1.948843120524798e-05, 9.908484439132887e-05, 3.546191299662214e-05, -0.004922212115824915, -6.4438236362565e-06, 5.48493701997459e-05, -3.370773652949075e-05, -0.0003099058252296112, -0.0014251142297787758, 4.800094256188763e-05, -4.384024353144783e-05, 0.00012690600453367463, 4.0855810387683026e-05, -3.545297753245724e-05, -4.7945890815234636e-05, 0.00013015813061274372, 1.2445351250171412e-05, -0.00013357377472327528, 0.00012811657677913786, -5.5254723453177996e-05, -7.3542895782615e-05, 0.00014213213574358722, 3.603201410938819e-05, -0.0017069763169280392, -5.32864670442822e-05, -3.02959660079577e-05, 8.93933175446681e-05, 0.0002098607252543183], [0.00012588858704132923, 0.02634954181456456, -0.00019845312009746425, 0.00012023471465750885, 8.72393623089758e-05, -9.36652145417006e-05, 5.3656097516189584e-05, 7.949821280527792e-05, -2.4130925426342736e-06, 0.0063513818641753195, 0.00016635942092658822, -6.541396315949924e-06, 0.000991154688865672, 1.687301064139099e-05, -0.00015809217791753458, 0.0015576699731516047, 2.0747876558369478e-05, -0.000355846394121893, -0.0001241896601464574, 4.002220843770677e-05, 8.786188772072511e-06, 0.7535271309913482, -1.010668082896846e-05, 0.00013003470696018962, -0.001481908742343969, 1.5216351274809097e-05, 3.741814170398237e-05, 5.1835985183528555e-05, 0.0004889371475728826, -0.00017389919307644606, -7.492980064036867e-05, -2.6460146448331395e-05, 0.0001494690692629797, 2.9794253239395206e-05, -0.00012196094442512618, -7.868563899526695e-05, 3.135854588210606e-05, 1.711406465561326e-05, -7.384636978848145e-05, 0.000523674316048163, -0.00017388629284651683, -1.6266874605449678e-05, 0.00012769081592365017, -0.00015134946899564668, -0.00027245410652213133, 0.00018313010798181884, 3.2870624758963776e-05, -1.7080492256913053e-05, 2.8070555940701007e-05, 2.6571462663270515e-06, -7.940847816492618e-05, -9.56625816038278e-05, 8.047119185026909e-05, 0.0002773408216078346, -8.536985415710243e-05, -0.00016776594963396663, 8.76950695459237e-06, 8.223675845874147e-05, -0.00014756479774183828, 0.0005127947337746462, 0.0001262722724590354, 6.256196037830795e-05, 9.943040869307175e-06, 9.25955284456215e-06], [-9.134850013300548e-06, 0.004217270511813264, 7.888001275426512e-05, 0.00014095724306982714, 3.453480696942514e-05, 0.00013620912922348004, -6.715773595262609e-05, 8.722403889452794e-05, 1.0879318096122727e-05, 0.0010793553194073666, 2.3974932399650528e-05, -8.031574111726358e-06, -0.00011050807924811548, 2.3407833629532783e-05, 0.00017161394597640456, 0.0007113096509052375, -1.7740016110113612e-05, 1.5803309941239948e-05, -5.718026776776263e-05, 3.804532428676391e-05, -8.654665301416128e-05, 0.0036843159020115883, -0.00010976371990071933, -0.000133819972254488, 0.00472542995586874, -0.00021839203429429712, -0.00024678459094424124, -0.0006461845610302626, -0.000151769529830668, -3.360752075332439e-05, 0.00019146476602345278, -9.962359978126806e-05, 1.841851662376462e-05, 0.00019596400820651074, 3.749829875315125e-05, -0.00013712808870845362, -7.162654709730235e-05, -7.546938948217101e-05, 0.00011304239356613035, -0.0005620338984734887, -7.790016363324099e-05, 0.00019191274874741458, 1.4103450942836793e-05, 5.626690094892151e-05, -0.006651463714504128, -4.182695892965505e-05, 5.023030048136749e-05, -9.041139718049986e-05, -0.00014228504578761152, -2.8030541677453476e-05, -9.086230048073955e-06, -0.00027191636465950336, 4.889342169250446e-06, -6.29593402843972e-05, 6.642816673231264e-05, -0.00017091220508645732, -7.297178422271471e-05, 0.00010723783584998782, 0.0001956261796408469, -0.0002259256246609313, -0.00021683762025984863, 3.367124525262487e-05, 1.5696686702165163e-05, 1.6157283943133804e-05], [0.00010392166801753067, 3.898310703424197, 0.00012414114495497286, -8.324272564666775e-05, 6.471137382894879e-05, 0.0002829893292505854, 5.718203630916238e-05, -6.903107418493578e-05, -0.00011769344909275536, 0.0009710934663219395, 6.922149339627596e-05, -0.000135096946125418, 0.00178304834627368, -0.00024023801275110075, -2.286360208676223e-05, -0.001003898609929138, 0.0001570089522848558, -0.00012779815537570952, -3.1124118162017086e-05, 0.00017662664252386174, 0.00014316287060214008, 0.006809804727465542, -0.00012352532492136922, -0.00011045809078074741, 4.599981159128862, 0.00014747915090764549, 2.0081335583662787e-05, -5.7403574155884545e-06, 0.0004368714986600927, -2.7393139245244777e-05, 7.52344879632208e-05, -5.8303705855841496e-05, -4.562457007559564e-05, -0.00010085654464095476, 6.516573419528869e-05, 2.4224326759882922e-05, -3.2058275104265456e-05, -3.896754144864537e-05, 0.00022870427799739682, -2.0710673238130832, 0.00022255319407418826, -0.00029936972660005916, -0.00025958004498535374, 3.138807149131918e-05, -0.0038404187145689543, -3.1429027663612666e-05, -2.5088436555925647e-05, 1.5123482561583653e-05, -0.00037948001518164, 0.0001379902118008146, -8.902755129563195e-06, 3.0000806523017965e-05, -6.75550162877829e-05, 0.00014244619342580406, -8.426858061982605e-05, -6.978036371085557e-05, -4.4785483629456394e-05, 5.7593355930504385e-05, 5.108150273885338e-05, 0.0031184265931122807, 7.095489380459482e-05, -3.4202767958769306e-05, 7.805518982516454e-05, -6.909508241706276e-05], [0.00010004742616366202, 0.20032523184901965, -0.0001533406263609991, 3.472137572971936e-05, -3.983710352122917e-05, 8.551910079475237e-05, 0.0001788711435974331, 3.350122100594665e-05, 0.00016677831874381267, -0.00044210064788077357, 8.88718903223292e-05, 3.151174879472256e-05, 0.001688559893325931, -0.00023916352231578538, 0.00030826186345976966, 0.0011948831688360219, -8.891343410627223e-05, -5.234096034108791e-06, -0.0003382278200491672, 5.319436206120252e-05, 5.225987791308367e-05, 0.13123515483387743, -0.00011466985327448771, 4.0114286547982475e-06, -0.0030722453219345805, -0.0001629561403561049, -5.38293166974537e-05, -0.004524677458961729, -0.004764920084074651, 9.996869034628768e-05, 0.00017375658985746488, -3.4670137611112276e-05, -0.0003294595446333288, 5.8270867669954416e-05, 4.677704061224858e-05, 6.604717959579154e-05, 6.723953629265803e-05, -0.00015646224137977943, 5.183466629718307e-06, -0.0036528073485574773, 3.0644599633112044e-05, 5.0163895868375313e-05, 1.584215912880745e-06, 5.160881531434368e-06, 0.002183265464493863, -0.00011042759494145906, -0.00014917939379739605, -0.00010617111425817972, -0.00010292732563991221, -9.648621268642661e-05, -0.0001288977852190986, 0.00020257985274078758, 2.465202673723636e-05, -9.591322343449499e-05, -1.3808986697081205e-05, -6.69424844732087e-05, -5.2814800455976085e-05, 0.00010085020573729623, 1.7620330163123333e-05, 0.00017685211555745352, -0.00017489913701732352, -3.285714826581817e-05, 0.00019581449304016, -5.885045957898088e-06], [0.00015912185480861828, 0.0049044896270498415, -0.00017587586039329885, -0.00015558593712117983, 3.7150491487715525e-05, 0.00010009097778166541, -0.0001022087413781731, 4.6340184233646995e-05, 9.222438023627926e-05, -0.003882640548022711, 0.00020342860318297684, 7.155404209956479e-05, -1.996545975618488e-05, -0.00017350206861236809, -0.00017169358466825614, 0.004733427777362245, 6.853776460242166e-05, 4.239046967644337e-05, 8.911829563711219e-05, 0.00023343779316040153, 4.497909994828524e-05, -0.0011711771894365674, 0.00012835286894247172, 6.216801540543797e-05, -0.0010331123940002707, -3.254650439739277e-05, -0.00015218520127477787, -0.003861451504291123, -0.0040117559090871386, -0.00011446342242683386, 3.6393859267117104e-05, 2.4433716517122044e-05, 0.00023977452508114328, 8.753578848763924e-05, -7.809412239960282e-05, 6.640985000420696e-06, -3.7328943316334936e-05, 0.00015628285429904691, -0.00015544856384147333, -0.0015058776499255067, -9.884255519258186e-06, -4.6287254143993094e-06, -0.00020898766966522252, 0.0004365804739652117, -0.0006448557306208004, -3.006143105550689e-07, -0.00017683771887441768, 4.409644090577874e-05, -3.43847728544919e-06, 0.0001938347881891537, 0.00021860089296791297, 0.0001689972596764802, 0.00026912356671610733, -0.0002496552966897689, -9.77162023265992e-05, -0.00010672144057194648, -4.7026600113217725e-05, -0.00010946509323883527, -0.00014228944367029276, 0.0006970408752593185, 0.00023883705413297858, 0.00014764678609214415, 8.612774702004661e-05, -0.0001643987965706672], [-0.000191637082604, 0.004714659769355238, 0.00012506117479505637, 0.00011562118674253807, 6.269937374499058e-05, -4.9896886019053954e-05, -0.00015343277184233354, -5.416000147021444e-05, 7.34048163116415e-05, -0.0010451241009881052, 1.3668866132848242e-06, -2.3550610049920875e-05, 0.0014420466921438036, 5.237615388149343e-05, -1.2810111600583195e-05, 0.001291439135932854, -0.0003872376313167615, -2.6382404548954705e-06, 0.0002626200059434005, 0.00016989375961806486, 4.414311873347935e-05, 0.02058432538487257, -4.468666066810654e-05, 5.232033499037924e-05, -0.002052116116630458, 8.124558574128936e-05, 6.177799591589469e-05, -0.004074492243443006, -0.004847835252533358, -0.00041217883662219234, -0.00023029193716258544, 7.762482836702779e-05, 5.6457223829575654e-05, 0.0001193414180819195, -0.00029015277099096943, 0.00011989151312665236, 5.9267548191623064e-05, -0.0002414560517256521, 3.3862729193967505e-05, -0.0034609700569523207, -8.598352224837587e-05, -8.163547616527907e-05, 0.00018557731901615846, -2.2014798395964168e-05, 0.001755458268051949, 3.861520757363893e-05, 7.746127224972871e-05, -0.0002528297160597572, 4.550134187439335e-05, 0.00016074275399911107, 5.8907705000978274e-05, -0.0003781893416206177, 0.00014973482537756005, -0.00014323678241987478, -6.559242568033803e-05, 0.00015696256127225848, 0.00011632040255616737, -7.750525178363193e-05, -0.00027358376880948974, 0.000637380794838356, -2.6637458331631995e-05, 0.00016155109583997632, -0.0001684628611131615, 0.00020064213408844625], [7.388107010197761e-05, 0.08927205621231785, -6.558892646021084e-05, 1.5994816558088205e-05, 5.607773726341804e-05, 0.00025043115884278513, -7.628538508779152e-05, -8.615617691945823e-05, 1.9248759091802792e-05, -0.002718935534433355, 6.060390919782432e-05, 0.00016988914872673497, 0.0007716854472478507, -9.616319671882684e-05, -0.0001009904279929511, 0.00622141068900667, -4.820075140769424e-05, -5.4685972541035236e-06, 0.00040671969623668527, -2.1467600777191114e-05, 5.443837709493385e-05, -0.1146757811440431, 0.00011730997413994321, -5.3610601890725896e-06, -0.003740984817109566, -4.185122522461796e-05, -0.00012089520526661971, -0.00206773382729741, -0.003674297561071289, 0.00011874641654340414, -0.00018466207987582513, -6.369556617425396e-05, -6.055785488014471e-05, -5.9955216481841206e-05, 8.562687961507127e-05, -6.673569404381236e-05, 0.0002714963524686067, -0.00011002359568947987, 1.8062698390552235e-06, -0.0024355465833731287, 0.0001514346919411874, -2.1888666261243853e-05, 0.0004339964232376271, 0.00026099060507030897, -0.0002769985733417334, -1.136909745437151e-05, 4.814890415663224e-06, -9.226633766628962e-06, -0.00032564964495218054, -0.0002101959064638527, -8.028240875545414e-05, 2.2528725569716036e-05, 0.00011904334954628743, 0.0001325730607323184, -0.00012793732500927804, 0.00014849645434399385, 3.0973400014388275e-05, -9.36536175626259e-05, -0.0002690012559726287, 0.004103204342627604, -5.885888075677698e-05, -8.59647686325869e-06, -2.9235459219390067e-05, -0.00011705053308484005], [0.00016873834425424364, -0.0018114853080299707, -0.0001823567640108187, 3.8954717749000533e-05, -5.9569943213912775e-06, -4.6110576141677746e-05, -0.00020123577561149682, 3.41508620177197e-05, -0.00014812767234923535, -0.01037605914220558, -0.0002977899174773297, -5.890883630714479e-05, -0.0020366136129197107, 0.0001291973541739084, -0.00013654810946421732, 0.01417392742235023, 3.847700608978409e-05, 0.00012419555339291007, 0.0002543710268096235, 3.6092466787349834e-05, 0.0002603576572659333, 0.0023881635601817742, -0.00012916487950773273, -5.920542814555895e-05, 0.00034096028775695744, 9.089373519596223e-05, 0.0004048432663623626, -0.0005563153165467122, -0.0005406738135547404, 4.818626683094165e-05, 0.00019506614827679224, -0.00013221070711480362, -0.00010201199661928265, 4.2193710692367716e-05, 0.0001315078479385016, -4.809146699448221e-05, 2.1711728885416415e-05, 6.490841478790129e-05, -0.00024117062046414195, -0.0030075123172502004, -9.950355499509266e-05, -1.9999018052882996e-05, -4.076493783656854e-05, 2.664140978222415e-05, 0.0007162642641985041, -3.6651611500427184e-06, 7.812766716947688e-07, -7.684026532948092e-05, -8.192390940134228e-05, 7.478723509149552e-05, 0.00010417208001817547, -0.00022010964241170872, 4.8257324497320896e-05, 4.6174355074754276e-05, 0.00026230511121516653, -9.745278343383654e-05, -8.86659408862572e-05, -0.0001298646669077294, 0.00013180641336772565, 0.0010415202467044576, 0.00017730465030580815, -6.041780668481037e-06, -0.00012770014882297463, -0.00014315888403228854], [-8.582422234038356e-05, 0.00042079922255893924, -4.815529657344019e-05, 0.00012001962905163177, 3.6978414492184205e-05, 8.938931520613011e-05, -7.273087659673065e-05, -0.00017556053244981124, 4.100944760400437e-05, 0.00011148701393287235, 4.636224612042221e-05, -1.0081235812427872e-06, 6.176220456276127e-05, -0.00019307154148602907, -0.00021698930242336603, -3.7725393732144336e-05, 4.5186741099192347e-05, -3.578440723058375e-06, 0.00015025596889898694, 6.966627473448976e-05, -1.4713764455104517e-05, 7.871580547791898e-05, 7.961777496019543e-05, 0.00010428045372473836, -0.0004489083848436128, -0.0001185439740631603, 4.8052149059430916e-05, -7.376420270580916e-05, -0.00015036863796664493, -1.5145224561661927e-06, 0.00028424296441573063, 0.0003659632504437581, 6.36760717264784e-05, 8.718946409141541e-05, -3.606242649527357e-05, -0.0001299163648284862, -4.8374918515523224e-05, 0.0002787010244279157, 7.8114469575215e-05, -0.0004755026887805361, 9.932306119875624e-05, 1.0329339309752274e-05, -0.00040787200088817353, 6.697709286988715e-05, 6.103676493359603e-05, 0.0001741177242025941, 0.00018956670541656761, 0.0001859636338915007, 2.0274947468925937e-05, 3.615890090232023e-05, 0.00010769125432680898, -8.087197295905769e-05, -0.00010291587839642892, 0.00019571307017569864, 8.978788964099797e-05, -7.606630543054786e-05, -0.00032716901980234855, 0.0002794822575533786, 4.8965120993283836e-05, 0.00017628790484899604, 0.00013017612831570154, 4.551807406642034e-05, 1.941409688113754e-05, -0.00010716606680729994], [0.00019237544426004035, 1.536751368373787e-05, 4.1948083577606e-05, 5.045440845407025e-05, 6.864428706246888e-06, -7.4298616601381105e-06, -3.741223481931177e-05, 4.7610225061998755e-05, 3.102372416208664e-05, -6.920917605477875e-05, -4.6132917601550026e-05, -3.5217365788025505e-05, -3.9666705588958086e-05, 0.0002399979097574971, -0.00014686531562155643, -0.00012277608068048533, -0.000240661782772938, 0.00015530208514114079, -3.338156282917879e-05, -4.366565104498474e-05, -0.0003990816190577402, -0.00014226940232297028, 1.883333665625825e-06, -4.978918184981259e-06, -0.0001749359226558096, 0.0001860882450950307, 0.00017243001905673324, -3.587957613780351e-07, 9.831693859148514e-05, 0.00021223710790646173, -0.00012154370571303891, 0.00023601208420596234, -9.36833712647357e-06, 6.735304232923047e-05, -4.991479528986007e-05, 0.0002301591839699116, 7.778418531248588e-05, 3.119998586639236e-05, 0.0001563584683544455, 0.00011741840135866118, -0.0001241818543505673, 6.54480485857704e-06, 0.00017739365019025176, 0.00011797894922154232, 1.0612854487313764e-05, 2.9454811957082942e-05, 7.542500700535096e-05, 0.00012553839402244308, -2.85374624637354e-05, -3.060340000045573e-05, -0.0001273282430932124, 0.00032191686783814726, -0.0003378845847278948, 4.08145845945636e-05, 2.9734185818996214e-05, 6.157192238608462e-05, 6.22840414203948e-05, 0.0003163969078308087, -0.00010802338524990227, 0.0001248479488017253, 4.1273282111962625e-05, 0.00017020534196221727, -9.271564740651218e-05, 0.00024384497692552431], [-0.00025176846051667, 9.007876470054545e-05, -3.737726548404072e-05, -2.6473525441794318e-05, -5.205685186081532e-05, 0.0002695252818015124, 0.00012399593154904394, 0.00017440283915290985, 0.0002042045500391547, 0.0003050449049935456, -6.497872387656125e-05, 4.6346288850882496e-05, -7.755498152948873e-07, -2.330738380491935e-06, -5.56296943556475e-05, 4.943095961194142e-05, 6.390840954574424e-05, 0.0001750458857378487, 9.424873659663564e-05, -0.00010636314263301702, -0.00012895293719702712, 3.397691436448318e-05, -0.0003210952786269792, 6.535324938461671e-05, -0.0002571426164640358, -4.47508414599002e-05, 0.00019209745772966812, 0.0001661260441198912, -0.00020477462696035875, -0.0001145716790355695, -6.39127221533937e-05, -0.00013370986665550032, 4.122357867471395e-05, -0.00013591156224388674, 1.1536378688825665e-05, 3.1390931957555196e-06, -0.00044229197500315995, 0.00018254692990853219, 2.727926549792026e-05, 1.1838736711049225e-06, -4.1462280069273156e-05, -8.96612141264626e-05, -1.9667669861410562e-05, 0.0003874715710497827, 0.0002194487707559987, -5.8809205202522616e-05, -0.0001733664659801606, 3.5983008392717406e-05, 3.616505254665564e-05, -0.00016730283819863537, -0.00015257849545438325, -0.00020295342298297297, -7.509136864982611e-05, 0.0001459531260447913, -0.00015556724795429182, 2.6500081496863166e-05, -0.0001729079686947301, 6.318149780838822e-05, 0.00014706712159727616, 0.00021372481503132137, 3.392613427618391e-05, -0.0002252292513657554, 0.00017714058148092797, -4.306402561673998e-05], [0.00012682669386510087, 0.07536241169369735, -1.1871736600009824e-05, 0.00013092148319529016, 4.583616216778474e-05, 1.6222056410254094e-05, -2.7706151900757545e-05, 1.0724813055817084e-05, -0.00023240449385925687, 0.007763418560144993, 6.279663049081648e-05, -0.00010757626561397102, 0.00029266845207017226, 6.747622926564904e-05, -0.0003197040158596407, 0.006954032008382516, -7.474496542540576e-05, 0.00018370755634292103, -0.00024921766541067045, 4.818131145074653e-05, -0.00010047026646480589, -0.006351110908637201, 3.1800099148220084e-05, 0.00012352236376187862, -0.08206840140871027, -0.00012419641739059212, -3.432133540020563e-05, -0.0010196198547195324, 0.00017537129666367427, -0.00010117893374875682, 0.0002495129963383774, -8.010467051572903e-05, 5.2030412353527465e-05, -0.0001276033971339002, -8.13490701872471e-05, -9.43060458589137e-05, -0.00021927883761427736, 0.00019715883927087232, -1.5225029489374156e-05, -0.0010857091086996333, 6.373186173663686e-05, 0.0001249784148333539, -9.75954266320778e-05, -5.3255899661457634e-05, 0.0002965897681899608, -0.0001190692110608382, 4.418545442751379e-05, -0.00023557609405374803, 0.0001816907003448916, 0.00021856438334070367, -0.0002288823818128135, 0.00015705278862979854, 9.19362301391652e-05, 0.0001160667243051586, 6.715154843086189e-05, -1.832334963922352e-05, -3.361932172870251e-05, 0.00012884848770752474, 2.8044855248524905e-05, 5.703554093324328e-05, -0.00014674728392172621, 4.9359354415363376e-05, -0.00010041318193077236, -6.570170444829274e-05], [3.13116878265449e-05, 0.07558896983438644, 6.791742522544057e-06, 0.0002548531194540005, 4.585879583744101e-05, 0.00014867034683928, -0.00013764589826564566, -9.745408967822275e-05, -8.302159927421504e-05, 0.0077761827979766236, -5.249085398802813e-05, 0.00012053258268466711, 0.0017068434719948165, 4.349738832844057e-05, -6.435222046917647e-05, 0.0070437917188608465, 7.575701395032352e-05, 0.0003245875683343237, -0.00019015938812877897, -6.9586607843963e-05, 3.763878262249222e-05, -0.0062940966099120105, 0.0001693889581795901, 8.718482691033958e-05, -0.08195875222173882, 6.632332050444527e-06, 5.801933951010479e-05, -0.0013122823485510885, -0.0001394451399536009, 9.258214686018234e-05, -1.300043074876312e-05, 3.8061027543744426e-05, -0.00014368873931026486, -0.00017134033457592894, -0.00012643628615440148, -0.00016029399218939606, 1.1811013142366453e-05, -0.00012122539122465081, 4.205842165382649e-05, -0.0017472733072507476, 3.52153796467546e-05, 0.00012268433527831934, 0.00012384452832255063, 3.1062583087306813e-06, 0.0005924621549555823, -9.588561249606219e-05, 0.00020332164840179877, 0.000151116210983695, -8.759081292019875e-05, -2.415311930995071e-05, 3.0556852143497065e-05, 0.00012178923746293007, 7.810130934944733e-05, 4.769108558209362e-05, -0.000372931008088141, -8.114635943654029e-05, 6.829606050390321e-05, 0.0003152787039996682, -3.539694134368822e-05, 3.6335756763277033e-05, -7.566196180586516e-05, 0.0001857339955671547, -0.00021270419890762185, 0.00016590521007746887], [-0.00016570901555565702, -0.008334677628997263, 8.011361283777839e-08, 3.3858012589741465e-05, 0.00013735069967581035, 0.0001457392470284226, 5.709465244367e-05, 4.6754773470031926e-05, 0.00013930336908983895, -0.0004941694779154494, 6.840897792085592e-05, 0.00017723327617348854, 0.0002589366225006863, 6.265272086179991e-06, 0.00014641337553617615, -0.003751668455024396, -8.789988037343621e-05, -1.3572675061628177e-06, -0.0001248481304010175, 7.232260027721275e-05, -0.0001176613420337607, 0.00020806699459864652, 0.0001507501665971768, 2.932856127877693e-05, 0.0019532578205099026, -0.00020162775103893036, 1.3325831365293162e-05, 0.00041337503224359197, 0.00035077645062503145, -0.00013008389762617778, 0.00012292500552889336, 1.9040094868767506e-05, -4.711345714471774e-05, 0.00021446161007590193, 2.2354192009801962e-05, 4.658498089384194e-05, 5.9658595695997755e-05, -5.307724051858658e-05, 4.47228682097327e-06, 0.00011091108311414437, -0.00024966962160806753, 4.479969946462621e-05, 0.00019126530766806565, 3.362605329922764e-05, 6.429819729490695e-05, -0.0003604497572688191, -4.115847177417546e-05, 5.661947025514969e-05, 3.2369858394064584e-05, -0.00013769100698400333, -0.00018687431732005498, -7.86140919914596e-06, 0.00019258562121955851, -9.775174741752928e-05, -0.0002520894668688546, 0.0001378897385723536, -0.0002706342005424187, -7.933848594667692e-05, -0.00022716031155504984, 3.218255785651872e-05, 0.00014457331873128813, -0.00012507380568515977, 0.00011556697007669952, 4.272722535295125e-05], [-0.0001200829904354839, 0.07518204674554892, 8.418242398791048e-06, -5.407848033880632e-05, 9.65004135686096e-06, 0.00018510590411959877, -0.00016947398794104728, 7.225141377029276e-05, 1.8467180116942355e-05, 0.007925461297636247, -3.3291097786517534e-05, 0.00019291615668724747, 0.0005146753171678521, 0.00025633032225216097, -7.916907390710524e-05, 0.0069357297246821865, -1.252102662909995e-05, -3.340939585119016e-05, 4.0009360810911926e-05, 0.00013731784849780143, 7.588060851317333e-05, -0.0062893688030084445, -7.765653190292684e-06, -6.971314275857303e-06, -0.08210182228956459, -0.000201153318908218, 3.81907671660782e-05, -0.001030448001262206, 0.00019046746793195769, 5.5087115485558646e-05, -0.00018171584315439737, -1.5975550818074578e-05, -0.0001606670805720427, 0.00017902979570054385, -6.723449491546487e-05, 6.508239523393381e-05, 0.00010211271195480236, 0.00020501729972948114, -0.00016664867521306952, -0.0016485030604926475, 2.733914144914038e-06, -0.000170504806017361, -8.509257557616784e-05, 0.00015425280006489046, 0.0004732483232641041, 0.00019026288795750233, -0.0001819869812517996, 0.00014719703375614795, 0.0001355725168441973, 0.00014912452769821476, -9.839110885817085e-05, -8.38414565712212e-05, -0.00011664064082235217, 0.00015606979818640068, -3.6333419417077884e-05, -0.0001335675364689068, 3.498273632182149e-05, 9.457835802722672e-05, -2.425647548782463e-06, 1.0542515334893975e-06, 0.0001284341167803859, -4.690332343302297e-06, -0.00015930376574102375, -8.78963611500721e-05], [0.00019517177532059798, 0.07501506791678832, -3.7943738438299914e-05, 7.421864797011891e-05, -7.240276328475628e-05, 0.00015846251623305378, -0.00017872159146431802, 9.157295230247358e-05, -0.00015834582138596427, 0.007926442389095985, 4.765021598288671e-06, -9.088566470868982e-05, 0.0002842939256311429, 0.0003847641569536178, -3.157350811474301e-05, 0.006939364392899058, 7.831170603129897e-06, 6.98010306194651e-05, 7.120573205818476e-06, -6.158794040869783e-06, -5.551826479860185e-05, -0.006304866205126973, -0.00013410070427795524, 6.609924476782048e-05, -0.0823963097446967, -0.00011530302709980201, 0.00012171575850994364, -0.0013459600324697073, 0.00011518346926315919, 5.9328603059246175e-05, -0.0001440336927242591, 2.9022521591300175e-05, -0.0003375973271858069, 0.00024225910037825355, 0.00025730709508020133, -8.857861979402066e-05, 2.1991431501954095e-05, -0.00015418597771852058, -0.00012886721528254742, 0.00027359158896617537, -7.034887263852909e-05, 4.176105019782228e-05, 4.167784001189515e-05, -0.00017255270531403024, 0.0004697855451582749, 0.0002670476720684643, -6.398996145245574e-05, 0.00011204753272464167, 0.000181670953031614, -6.306877782650271e-05, -0.00011719818660567947, 0.00014988801401067108, 1.3156375619323305e-05, -5.6939968514679e-05, 8.042324257648422e-05, -0.00022422693689747543, 0.00032788081999382166, 0.0003327055980846244, -6.287947480659143e-05, -3.201027286265451e-05, -4.3575545034439675e-06, 0.00021899344847219033, 0.00023417457273192284, 1.5186385448337066e-05], [7.954359152262779e-05, -0.007944697438197017, -4.736182690621101e-05, -6.586935164874024e-05, 1.8271799579699233e-05, 8.531828570990422e-05, 5.236521658808601e-05, -9.910020711539727e-05, 2.1648644397003904e-05, 0.003188670660707137, -7.081707683790999e-05, -0.00011694766359913623, 0.00015917020673764204, -1.7576493042727734e-06, -0.00022827401996550252, -0.0028942812274919153, 3.6246302859124184e-05, 0.00023297275987089913, 0.0001623569413488802, 0.00012418631731493809, 4.961931096340318e-05, -0.0009470127612737497, 0.0001792826714970554, 8.174251194865863e-05, -0.00014504369597312177, -0.00010981560192465678, 5.917711992099895e-05, -0.0009045280876007144, -3.967472510544885e-05, 2.1506079881042773e-07, -0.00011373670073837498, 0.00010283706001765987, -6.638693992919548e-05, 2.6456704615798765e-06, 0.00016320026508719163, -1.8817346519805518e-05, -0.00019817648220845502, 8.251201697611284e-05, -5.6166884205050585e-05, 9.764603913382377e-05, 2.8858881587183396e-05, -3.67423556295759e-05, -0.0002071351736879092, 1.8205460291276102e-05, 0.00019808611813588377, -4.162759836529194e-05, -2.4411398099629224e-05, 4.177388673955016e-05, -2.473970254661202e-05, -4.503615105150332e-05, -0.00019562833060275916, -6.019904328760608e-05, -0.00014427216273991294, 9.050148275991892e-05, 0.0002543406787435483, 0.00017380456210009372, -0.00011405423536513612, -9.24080280164895e-05, -7.90839996750515e-05, 6.765409783681929e-07, -6.87575450627478e-05, 6.335168270807528e-05, 4.9067928666214705e-05, 0.00020886243899025648], [-0.00011687819829197976, 0.002157854920768118, 0.0001496703771763177, -0.00022596944659436895, -6.92518529640205e-05, -0.0003291397595924891, -2.381932964869892e-05, -0.0001919784398985265, -1.284418687918319e-05, 0.005033931652446614, -5.682623681315435e-06, -0.00017890120322287383, -0.41127915640073637, -0.0002736629834747453, 9.472316366093033e-05, -0.002751104141992719, 0.00011672723671648488, 0.0001571652344120105, -0.00017472127190471768, 5.0429229612856446e-05, -3.761281072231089e-05, 0.2187647376968653, 3.6147900163848766e-05, 0.00015562612065333283, 0.002652866871927965, -2.2293352443289314e-05, -0.0001564866256940472, -0.0006810625039411262, -0.0032623495447193997, -0.00029181801181229626, 3.977116171970185e-05, -0.00021782039179027806, -0.00018236669735494172, 0.00022628036439743563, -1.4595890426843849e-05, 9.420685383855895e-05, 0.00018735839684785633, 0.00015837931593256667, 5.283846055586952e-05, -0.0005311702789741379, -4.2177423676145985e-05, -5.456207250166213e-05, -0.0002418987063020615, 7.162482220966564e-07, 0.003996396134588924, -7.907318944816444e-06, 5.338445252533867e-06, -0.00011299475586231542, -8.726986773804786e-05, 0.0002256393723730584, 4.384578718882057e-05, 3.174614848847133e-05, 0.00035491209945246447, -6.0939807021885036e-05, 0.00017006876967993692, 3.646075786245717e-05, 5.103063972362809e-06, 4.297142320426848e-05, 2.1938219164186168e-05, -0.43316947502860004, 3.944880600064351e-05, 3.202781498046592e-05, -0.0001617675930613732, -0.0001586708865409673], [-0.00015215283471195335, 0.022992308248467076, -3.14754652808771e-05, -2.7656323235749745e-05, 0.00014770358041737863, -2.8037555512663162e-05, -0.00013190151062973828, 2.4307611617740133e-05, -3.0240223919229087e-05, 0.0021147931472862854, 6.197776464625515e-05, -0.00040362745838159217, 0.003361223573784111, 0.00012216925006679788, 0.0001996266586086025, -0.0011118191738627554, 0.0001402428218223857, 0.00018477651520154564, 0.00013739656085665048, -0.00011490877485357536, -8.954526685834933e-05, -0.0011734922734213745, -0.0001466197609115272, 0.00010808621388110621, 0.000382070920530395, 1.85080126415255e-05, 4.572550592260826e-06, 0.002637027784341674, -8.548550719172861e-05, -1.2378221068578647e-05, -8.380325435411513e-05, -0.0001333044019568641, -5.818723151300686e-05, -0.0002729993804395568, -3.724093926087558e-05, -0.00012448215892615303, 2.517177110199048e-06, -0.0003228012338693492, -0.00015465873422532622, 0.001243950657937014, -2.988537091032405e-05, -0.0001036308843680629, -7.072283654536476e-05, 7.735082208367553e-06, 0.0011682457976348241, 7.726652982885374e-05, -0.0001728027245765067, 7.588715514151431e-05, -3.758117616187882e-05, 5.248036524806722e-05, -9.49352690375434e-05, 0.00018879548042508883, -0.0002517048813947817, -6.937339330665679e-05, 0.00016248993769485726, 0.00019580635312903142, -0.00015097601701499422, 8.961226189121814e-05, 0.00014951708941303698, -0.0057406742180743705, -9.467772708744341e-05, -0.00017706624760112133, 0.00017928094922066515, -0.0002314936099121291], [-0.00014744970435629363, 0.00016640400690366326, 0.00032925667927106213, -8.857986794958962e-05, 0.0002444669256814263, 8.97044685264618e-05, 1.0310483382821646e-05, 4.401535710694706e-05, -0.00034474021970381553, 0.00012826873498473956, -0.0001028215837404013, 0.00011605272379450424, 0.00017320300380859488, -0.00029809153253620166, 0.00012591397471003744, 6.0363516123097356e-05, -7.160111412184072e-05, 7.778945357753212e-06, 0.00010471537209295987, 0.00014369985784989426, -0.00034412795257334535, 1.1503101142116541e-05, 0.0003083690281383151, -1.688863948061815e-05, -0.0002634112976718995, 0.00010612094037930884, 5.674628564345656e-05, 3.9548951050215043e-05, 4.0666843464549913e-05, 5.600241514041022e-05, 2.4737401580123962e-06, -5.47079971522322e-05, 0.0002595107239928971, 6.553107256991023e-05, -4.664432247821878e-05, -0.00017497810781174337, -5.8894556409979454e-05, 8.216934304920801e-05, 0.0003708620754156337, 0.00017949929342531991, -0.0001461869576327152, 0.0001686440298825538, -0.00012913296460687111, 8.250169603259427e-05, 0.00024326105600844906, 1.7895051817570827e-07, -2.1574478126817456e-05, -0.0002796804853590956, 5.414606841274942e-05, 5.933724952402849e-06, -0.00011039308780581953, 6.168469858663925e-06, -0.00016140548575429938, -0.00020815657407474895, -0.00013167116577288325, 0.00012574125372414018, -4.526271701195345e-05, -8.921100784090849e-06, -3.0364955121540963e-05, 0.0002344744203366205, -3.3601907665928955e-05, 0.00011570319387179275, -3.9611122749056874e-05, -3.190060392875199e-05], [1.929939482810564e-05, -7.703995892433702e-05, -0.00015980059110343848, -6.383434105377889e-05, 3.3931113430448e-05, 7.471214496239274e-05, -0.00010646575393189736, -2.546087384960039e-05, 0.00034320450735647915, -0.00020492506536595246, -0.0002291476040978773, -9.80594476767199e-05, -0.0002487869006298032, -0.00014623224135487193, 6.55352384220231e-05, -0.00025575633495120376, 0.00014756695164092182, 2.387926472395574e-05, -7.494990656553231e-05, -4.8664002524101134e-05, 0.00011965108690993209, -0.0002523486713796487, -0.0002693381232540681, -5.680097889773972e-05, 2.645359479449099e-05, 9.039423474961774e-05, -1.8999917140826228e-06, 0.00018035156310460682, 1.54058123351442e-05, -0.00011129692806938576, 0.0001039939194325778, 0.00018404427541263325, 0.00012168751817007613, -0.0004044262646790854, 0.0002614335243472666, 0.0005100796420340896, -0.00018468144024119158, 4.045612567631031e-05, 0.00015038592448927642, 8.9728872062425e-05, 0.00017238414724857345, -0.00030464416396228783, -0.0004202999186111589, 1.0577292016672023e-06, 0.00019935035187111278, -6.572310624051685e-07, -1.137476732007608e-05, -8.039865511785777e-05, -6.481559379549806e-05, -5.715825632678899e-05, -0.00012266676943748005, 6.806157198232996e-05, 0.00019007746962488366, 7.278495248818701e-05, -0.00010105624670361159, 2.7779459570686702e-05, -1.1889588412049995e-05, -6.55133209370524e-05, 0.00013061429740824292, 5.8515513481721394e-05, 0.00013411676719404377, -0.00010272146823514126, -0.00014253641292985125, 2.838310926449905e-05], [-6.657258102053397e-05, -0.00017031882362045735, -0.0002638352037826825, 0.00023672844962183503, 0.00011703555581943896, -6.0501715937190116e-05, -0.00012851575082812328, -3.645725087708871e-05, -0.00012051579915841348, -5.186171613460105e-05, -8.642297728249121e-06, -0.00025089901698428395, 5.519308048347408e-05, -0.00022932969063774896, 0.00013382019838231182, -0.00017423882078720194, 0.00011380461851709655, -0.00034300772752274435, -0.00026756376619059953, 0.00027299037657998185, -4.822348586538529e-06, -1.5329905600764722e-05, -0.00023882350273224056, 3.26219554700231e-05, 0.00026864871157664734, -0.0002742214678250654, 3.74973613106914e-05, 0.00010269044620390567, 0.0004347088769742148, -3.774158996020184e-05, -0.00012362435421129159, -7.371047997337422e-06, 0.00019897501321997866, -0.0001069820845557389, -6.938572689132538e-05, -1.8456746449371932e-05, -0.00020700109776837015, 0.00020371993532324433, -6.349280609344691e-05, -4.5627273095412565e-05, 3.4652161314276464e-05, -3.420477507742857e-05, 7.607308559564254e-05, 9.4451663274256e-05, -1.7254943523912694e-05, -2.3815325427461334e-05, -8.417001198789706e-05, 0.00016008255739263918, 0.00011435109109295511, 3.4071541900214513e-06, 3.99561929682826e-05, -0.00019559319381535914, -0.00015986999544014262, 0.00024154905485571646, 3.2576292711353143e-06, 0.00015872313671556348, 0.00010790446913564625, 5.47434152015278e-05, -2.2832449434859908e-06, 0.00017156287884618503, -0.0001772651522138622, 2.6128726148467194e-05, 0.00018641769606084663, 2.1774528381634844e-05], [-0.00010292045998023065, 1.7662832703892032e-06, -9.582375205637587e-06, -5.968694670844384e-05, 8.220717654901976e-06, 0.0001706592066394921, 0.00012988022148506225, 5.4280559622498456e-05, 0.00023031972932626522, -0.0001298344093997259, 4.942301207631983e-05, -0.00010091545715140888, 7.003015167257454e-05, 5.4455984278855685e-05, -0.0001231609979843064, -0.00015073003991045427, -0.0003428708501723504, -2.341678879538343e-05, 6.593369039802619e-06, 0.00022888990043404953, 0.0002957741734806771, -0.00011806620684684971, 0.00021078660115305653, 7.881909775837462e-05, -0.00014407610001889115, 0.0003085809236639011, -8.523762848845914e-06, -3.501101326079454e-05, 6.928376611193372e-05, -0.00020447767265868133, 0.0001289489422307157, 1.9200459433913608e-05, 2.0997552882680694e-05, -2.6961970924177037e-05, 6.815203973188555e-05, 0.0002621619383475376, -3.535063445502551e-05, -1.9214819523148883e-05, -8.614950922280042e-05, 8.18862127978621e-05, -0.00010972333474072978, -4.189679282532193e-05, 8.597864032496667e-05, 1.6732531206432935e-06, -0.00010554236851862038, -3.3476540881448865e-05, -8.575937180793641e-05, 0.0001614746465924324, 1.453617779726767e-05, -0.0002497138883531564, -2.809250753963282e-05, -0.0001034604109980816, 0.00019548605863243057, 0.00010587887345228601, -0.00011149258844712944, -5.711268070795652e-05, -0.00019872581781609446, 4.1192072782380906e-05, -2.8598017498200398e-05, 0.00017669148614921993, -0.00013736106135970195, -2.371793766507135e-06, -0.0004207411892843425, 6.26230195259965e-05], [1.735530807552707e-05, -0.00040251019193425925, -8.284262429648806e-05, 1.485755456680806e-05, -4.66190404460577e-05, -9.915289044321848e-05, 0.00015281037105262758, 0.00032563985352444173, 4.555042927602499e-06, -0.00015892403626148745, 5.906876977089976e-05, -8.09791606333856e-05, -8.990981151055652e-05, -6.894421662453187e-05, -0.00018335093163993082, 2.9185783606905017e-05, -7.548219890499066e-05, 4.1931709620200196e-05, 2.3674494710714855e-05, 7.419822931288466e-06, -0.0003244782488625288, 0.00019596150669566153, 1.775275286731229e-05, -6.871262009797208e-05, -0.0002875741576897949, 0.0003099558800545837, 6.1693530954050075e-06, 0.0002208458546483338, 6.841642979464932e-05, 0.00014770207255704402, -6.371136546010992e-05, 2.9541561052682212e-05, 0.00023160716893082608, 0.00012312260154649044, -0.0002700468477478041, -0.0002101070639707835, 4.87047619562591e-05, 0.0004043466315851312, -0.000157886403978162, -3.368717267969355e-05, 0.00012085315435853269, -0.0004389941407239147, 7.948926819385235e-05, 9.753101445961006e-05, 0.0001834430512717144, 0.00017539468061269332, 0.00017985925899696058, 4.95347525341276e-06, 2.6702198179335948e-05, -6.71286833936181e-05, -0.0001691949827168797, 8.886473580249265e-05, -0.00013712467484402997, 0.000212559446494777, 1.6371339063944777e-05, -0.00024263966181042466, 0.0001628432266890213, 1.105683657552312e-05, -0.00013197144682441415, -8.697073393492546e-05, -0.0002911328540533884, 3.9683211968275925e-05, 0.00011785733612392255, 3.7184659425174406e-05], [7.525940558578033e-05, 6.821352429797913e-05, 4.70085769202161e-05, -5.1839968408058784e-05, 5.345550765213703e-05, 2.1116247311220662e-05, 2.1393025853166365e-05, 0.00036194866389804826, -7.329914117002665e-05, 0.00020562230111655192, -0.00021850207612612965, -0.0001780643546324557, 0.00020315352954222097, 0.00015674038757693197, -0.00014030683222017437, -0.00010940164599610981, 3.0053876407917476e-05, 0.00011775379950609204, 1.308471334918884e-05, -4.402371818888049e-05, 0.0001230348940534596, -6.011260186630502e-05, -3.22905552479014e-05, -0.00023720407788952616, -4.827041599756727e-06, -8.054549337696809e-05, 6.223732112663728e-05, -7.352846040882092e-05, 0.0006485608399999864, 2.0278086872909783e-05, 0.00013406533193531804, 0.0002762523201185011, -2.1081478951000493e-05, 7.377107553903317e-05, 3.8656657357469514e-05, -4.982581052280426e-05, 0.00010369290634319683, -0.0002745897962419408, -4.8514512020134885e-05, 0.00024531209879550295, 0.0003208410930207285, -3.2273361544715865e-05, 6.984601478885193e-05, 0.0003409901302044711, -0.00012379085180105138, -0.00027337678458752053, -0.0002467016538241102, -3.5925696099355694e-05, 8.132490422519172e-06, 7.240759901832366e-05, -6.676438413872631e-05, -0.0002705303341116864, 7.829682668562302e-05, 6.518672601550258e-05, 0.0003467321969053034, -1.2799864865641625e-05, 0.00014503129096663805, 0.0003134881642085966, 3.4278725162667415e-05, 6.83621391253784e-05, -0.00017188378519530326, -0.00018953187677637305, -1.6031853172669106e-05, 0.00016274858884203632], [9.851834911844031e-05, -0.0832283893498998, 0.00023071856499497348, -6.012398073195185e-06, -0.0003123815445048914, -3.199546400194427e-05, 6.70694935359141e-05, -3.169042399819455e-05, -7.727545633996237e-05, -0.005482637411022775, -0.0002661203164873572, -7.498622771595233e-05, -0.008784381702920133, 0.00022425021625618115, 0.00013383121208058817, 0.12862042606410862, 0.00011073921909806006, -0.00012171954341586233, -0.00015759010927433444, -5.085316971129949e-06, -4.5005227094634215e-06, 0.013519661977901307, 1.849333349504218e-05, -7.227491254731234e-06, 0.0026760534341305777, -5.4310320910282356e-05, -2.8087653978726767e-06, -0.00019623666384577964, -0.00014147656929602292, 0.00028897467859306006, -9.12396056688336e-06, 0.00012447359103766643, 0.00032446309020046893, -1.0029030235895949e-05, 9.481120379230018e-05, 0.00011225599915831978, -0.00027278784850257715, 0.00010909137859140957, -0.00019390702842401596, 0.007405755216099285, -1.8199518658613636e-06, 2.545728752858516e-05, 0.0001944184217745089, -7.769684155120075e-05, 0.00016187586223966128, -0.0002979034344147248, -0.00037504866944850954, -5.329954439589251e-05, 8.14444145117082e-05, -3.931102004978311e-05, -0.0001376162466748946, 0.00010629993312419597, 0.00027834204661042006, 3.3229806940445063e-06, 3.507270697257201e-05, 0.00011196652257425312, 0.00016232031172458113, -0.00019835904799919208, 0.00017444724444892057, 0.0010424248225133954, -5.5133098255775446e-05, 0.0001663747164268193, -5.67368169001028e-05, -0.00018159357578771213], [-6.929184564840612e-05, -0.1391420588855877, -0.00010946684503415765, -1.4530086570785979e-05, -9.801626526697449e-05, 9.270123059708452e-05, -2.5486080308132885e-05, 2.098051610481045e-06, 9.628081178194236e-06, 0.0009281453156749547, -0.000166985722049962, 8.659600611203755e-05, -0.0006638454106431013, 0.00010534105150227317, 8.421095517649e-06, 0.0020156349983311687, 7.60922720684127e-06, -4.040314832608099e-05, -0.00020629336352612744, -0.00013164821921699378, -0.00010040872960256, 0.0014912805049027938, -5.661375941046597e-05, 0.00013480458413928288, -0.00287765634476836, -6.341127966003098e-05, -0.00014039063826487222, -0.0007635480992252704, -0.0032319750908136693, -0.00012350913247076247, 7.645218238976572e-06, 0.0001943422133208192, -9.48762516660013e-05, -9.913945902297852e-06, 8.707518337158921e-05, -0.00012609997476764102, -0.0001150979266812656, 9.597696416753369e-05, 0.0001220333759190187, 0.00205903712120208, -9.507822520988831e-05, 0.00019542609586908959, 4.569829545199625e-05, -0.00011115887853849976, 0.007106876698137163, 1.0128215394698336e-05, -0.00012448760550174456, 6.243754511902294e-05, 2.9629026732113814e-05, 2.3561053544651433e-05, 9.752633905691612e-05, 0.00014408860444464587, 5.1387145928163536e-05, 0.00010885718738689018, -0.00015320820682275646, 4.5648348216390564e-05, -0.00010949431449548115, -0.00011526282756195391, 8.097473758686707e-05, -0.01187376802792644, 6.599042376257731e-05, 8.857610732512071e-05, -0.00013802510719078924, 4.279375250955083e-06], [0.00010344068410240236, 0.003896577128750914, -9.803676510005938e-05, -2.359945108723634e-05, 0.00013822606514289198, 0.00015207576794183523, 8.859044990043034e-05, -0.0001761306234223535, 1.118520278459921e-05, -0.0014377231761277828, 0.00013326954080274302, -0.00017033521804674434, 0.0010851001097793708, -5.439661284701513e-05, 8.750777122123842e-05, 0.010507023536791072, 6.7070865412422e-05, -0.00026782035602353904, 3.660129867691096e-05, 7.76717138681231e-05, 8.720160720967769e-05, -0.0022630964137647872, 0.00012974826543520702, -1.8733298817382837e-05, -0.00542187265432092, -1.2887590594643707e-06, -0.00017933703520631243, -0.0005544912777770612, -0.007305979331993099, 0.00015614046598621644, -3.001101842146258e-05, -7.857555924236769e-05, 1.2161004591149978e-05, 6.22711148035997e-05, -2.9311009198385574e-05, -0.0001220880978186779, -6.281476316481133e-05, -0.00019225903053847392, -0.00021051891793338203, -0.0039251051044869685, 1.4573174499647626e-05, 9.636972438521244e-05, 2.5893617250698366e-05, 0.00017056548394186848, 0.0026592361436544717, 6.550820899121374e-05, -2.8121488586162208e-05, -2.5328264442372444e-05, -6.543156329277441e-05, 9.09449788094061e-05, 6.048161589310398e-05, 0.00021028735691322578, 1.324030416858759e-06, -1.8068455052723927e-06, -3.130657786643895e-08, -0.00016605882721293272, -0.00016202261128623645, 5.5373013545012185e-05, -1.9739660045896894e-05, -0.00812283171049034, -9.645358437604004e-05, 6.276140577410712e-05, -6.192784338963319e-05, 3.5641905008951616e-05], [-9.877567434071866e-05, -0.07079753872933646, -0.0001457966267636385, -6.465698135329947e-05, 0.00010265289352744995, 0.00013217575536341578, -1.1388995849528146e-05, 6.789265848620954e-05, 0.00020812578758479022, 0.024482369859139878, 3.658049741077113e-05, 7.172880997452239e-05, 0.000907645937726809, 7.459999122850684e-05, 8.763277294545179e-05, 0.004210988044502795, -2.973548442507684e-05, -2.2743950227410024e-05, 8.866229607153495e-05, 0.00018013157375442148, -0.00012291366920065593, 0.020813530819590004, 0.0002425883907666352, 9.51246188626924e-05, -0.00596142626724864, -0.00015869355391519275, 0.00029787913036458536, -2.7459430089397984e-05, -0.004379447035501417, 4.507985725699676e-05, 1.4108709094513177e-05, 0.00023543646682192899, -5.506177272189984e-06, -0.00012590272026598127, 0.00010291885694225039, -6.255014982178635e-05, -0.00024308146415277356, 8.022984892619713e-05, -2.788078690762707e-05, -0.0021251463883730794, 0.000197442770706763, -5.591742544006718e-05, 4.6615435017505627e-05, -0.00011601862338246383, 0.006306331559430015, 0.0001693975662710359, 8.377851654273939e-05, 0.00012769058233524737, -1.5911497111815122e-05, 0.00014201676564160406, 1.666655010226242e-05, 0.0001772085612999281, 5.101414560823378e-05, 1.8712546729325312e-05, 1.1635770727490746e-05, -3.444069555928607e-05, 3.4566970543366846e-05, 4.9369917079873746e-05, -0.00023704053667443153, -0.002515072409447355, 0.00013250524893349577, 7.471781719819266e-05, -0.0001575935788042988, 5.911288227261591e-05], [-0.00011513272701611401, 0.0049566720331911535, 5.685985877118285e-06, -0.00023787249502890112, 7.173839685399498e-05, 5.133833074302439e-05, -3.8323580216393776e-05, 7.867357890675372e-05, 0.00042485503221783693, -0.004204597974778329, 4.4625448380505726e-05, -7.496021026783824e-05, -0.0008781700161012983, 8.454461266837293e-05, 1.7620286755597116e-05, 0.012980598752859606, 0.00014341486869602467, -6.182760283520966e-05, -6.270269819713441e-05, -0.0001934301323688181, -4.824952590317831e-08, -0.11949053900787378, 0.00015778397000622027, 0.0001832918815292535, -0.007462890571777814, -3.9157166068175966e-05, 0.00012424780090259134, 0.004477037458163356, -0.009462473882055417, 0.0002121876204790532, -8.6858318722167e-05, 0.00018261052043838048, 1.2926105955932768e-05, 4.099017818625614e-05, -0.00020453903590154695, -0.00010150451230653064, -5.77416826812976e-05, -0.00017356434458693637, -6.091550226426862e-05, -0.006614031110741537, -8.776222692814367e-05, -5.453567090378441e-05, 8.652251139773683e-05, 2.52494757683374e-05, 0.005553218983017325, 0.0001713583071468412, 0.0001321790847176673, 0.00012524617569301772, -3.37933733042888e-05, -0.0002759477077810927, -0.00021131762204319046, -0.00012295928876109513, 1.8845463740120116e-05, 0.0001905818547360371, 4.646714573257278e-06, -0.0002605128471570625, 6.852898704652397e-05, 9.866340318542512e-05, 0.00013521354866681637, -0.18353440815698058, 1.58638511293168e-05, -0.00017948956763308045, -4.334678965176901e-05, -7.639373867097466e-05], [-0.00024393046295777713, -5.2472816679997786e-05, -1.965780480491037e-05, -5.593912558330284e-05, 0.0001556996663437528, -0.00023958758830230857, 0.0001538117278661905, -0.00013714633037630383, -1.6251222491356967e-05, 8.140732810506589e-05, -2.7229680053310316e-05, -4.781290841718247e-05, 7.070125635993355e-05, -6.776321671362081e-05, 6.866753173051702e-06, 3.585593465038912e-05, 0.00023588095910703001, -0.00016579274713571078, -0.00012909319157485797, 0.00010709044631975591, -2.938215661257051e-05, -0.14896611880746813, -7.060755299458171e-05, 6.379662595647797e-05, -0.0799428049940215, -9.867715375389803e-05, -5.758937568607411e-05, -0.0010522046295437723, -0.0008078922393405339, 0.00040717463661675806, -0.00013204350449916, 0.0004168038012536599, -3.125787494633273e-05, 0.00011931204998237887, 6.562000057953586e-05, -6.15704619527983e-05, -0.00011607901243964801, -8.403189471169999e-05, -0.00010691866408032138, -0.005643532581615554, -0.00017054797622360473, -3.370579912043781e-05, -5.343629883107155e-05, 6.050476065298437e-06, 0.015800641644545588, -4.713936734700239e-05, -2.654014090106657e-05, -0.00017061048188326676, -6.532920044572763e-05, -7.375736612944427e-05, 0.0002460569822611097, -8.850029908729263e-05, -0.00019884731389358855, 0.00017822679859667143, -2.0003496094545277e-05, -4.147232939850546e-05, -6.540357254654255e-05, 0.00014754522212138613, -3.894485862952715e-06, -0.002974144782234709, 0.00010370725614315123, 2.99853999619122e-05, -0.00023896412806871827, 9.71587883074308e-07], [0.00018452072338660076, -0.00309392695494062, 5.126814253491328e-05, 2.5523916716251547e-05, -0.00018668722581972208, -4.982079773686938e-05, 8.534153484073531e-05, 0.0001065529244677803, 0.00038633410370947444, -0.0014983363917714344, 4.631704828667015e-05, -6.470607621773583e-05, 4.9777241955508195e-05, 0.00010516479623494645, -1.1263037312930242e-05, 0.0009159474861862921, 3.228850234736951e-05, -0.0005173305563400107, -0.00014359855196156645, -8.790544193992967e-05, 8.247157731282141e-06, -0.0038993058644120407, -4.6949530375166366e-05, 0.00013441583418717954, -0.007019494072346083, -0.00015367434069034257, 4.0703371821118904e-05, -0.0002696174889483793, -0.000968389495715928, 5.5275413913600675e-05, -0.0002449475734601723, 5.073950668742828e-05, -8.307649206072161e-06, 1.1752895144834144e-05, -5.704105285549345e-05, 7.970882990273402e-05, -0.00010853330526533467, 9.625671141159837e-05, -6.652934782249532e-05, -0.0009739866963488874, -0.00012819407006043633, 8.101794027625456e-05, 6.808347908901366e-05, -0.00010466390757628977, -0.003402471579635205, 2.9661716939873526e-06, -0.00011649594877850785, 6.474141895153635e-05, -0.00018215071300647448, 2.263182286979723e-05, -4.158020977377099e-06, 8.508995203838869e-05, 0.00024073579873777943, -8.82022746577355e-05, 9.249905796172342e-05, -0.0003092144093058136, -0.00011190924696527328, 7.84981931150369e-06, 0.00012268002439534903, -0.001230238189531422, 0.0001072481417924362, 0.00014502794213863224, -2.9074497238869836e-06, 0.0002577538866705702], [9.233723184928292e-05, 1.90430956481334, -8.292711531055096e-05, -3.891155150850038e-05, 2.8039948266950308e-05, 0.0001661918588739674, 0.00015142390901657043, 3.509466103594522e-05, -0.0001384341378981838, 0.002863495927998619, -0.00012925110740095316, -0.0002373066329072525, 0.0025053392598093065, -7.402524114332595e-05, -0.000185939669173352, -0.001215783455214147, -0.00015854167915144745, -7.430744643780028e-05, 2.963970267043283e-06, -0.00015716247380006352, 6.425255670870688e-05, 0.0021503000759166826, 0.00015201137786894484, -7.092847531034848e-06, -0.00026545528868860937, 8.407598862555743e-06, 4.816542212820568e-05, -0.00021065836701020108, 0.0002102802736183363, 1.6809472825164853e-05, 0.00021622590785028595, 7.310155213331256e-05, 2.0828851858474315e-05, -3.3521262123450244e-05, -0.00010172201678215883, 0.0002429094609953179, 