{"layers": [{"w": [[-0.00016020188474491005, 0.00020451892257944182, -7.884556010123516e-05, -2.125506039755123e-05, 7.188253707324708e-05, 0.00010113513791859371, 0.0001435146053628982, -0.00016072025035137572, 2.5062266979530787e-05, -9.328582257178514e-05, -0.00020357844188393913, -7.685065194325665e-05, 2.638875263727384e-05, 0.0022009035406426116, -4.058840044404487e-05, 0.00011495878656539091, -0.00019018974377125152, 4.559032047294956e-05, -2.5113110124508465e-05, -9.614637572435577e-05, -2.328798960127565e-05, 0.00015446730877397222, 0.00016786581893233398, -0.00021658126256347997, -0.00013653868058328625, 4.700826134669831e-05, -7.258965345085642e-05, 0.00010087973159897095, 4.219768187210788e-05, -0.000258949238264291, -9.596729405855546e-05, 0.0001025327208519172, -0.00011794101329988474, -2.5373230606428595e-06, 0.0004062498026704543, 0.00042855086566379253, 8.487327385681747e-05, 0.002328730749605234, 0.00040655736962207664, 0.0002834053942712429, -4.440964546766105e-07, -7.877195027597002e-05, 2.9916672377185284e-05, 3.58320473415935e-06, 0.000825771081514743, -0.0001579853589937082, 0.00028882775871960615, -7.367763579088055e-05, 0.00013463339356463902, -1.0784272680085282e-05, 2.3043888794785995e-05, -3.640711134823768e-05, -0.00012729204948535113, 3.866690662882009e-06, 0.00010303089665470836, 6.173124530032257e-05, 7.4995736185335155e-06, -0.00029189702818377183, -0.00015939600059799682, 0.00013911016276795874, -0.0002870425909756614, -7.389888031145539e-06, 0.00027589558655353227, -0.00012640973967083819], [-5.431095851472664e-05, 0.0001013280779511295, -4.3979132206745e-05, 0.00028385158793449395, 5.601995086276185e-06, -0.00025706666379325595, 0.0002471910123430779, 0.00010461822222510726, 7.063129291172193e-07, 0.00011643239142567322, -7.356653723913312e-05, 0.00012991110929999088, -2.1626747456140357e-05, 0.0018224738293343727, 0.00011064540855194702, -0.0001724754080676544, 9.953440710551702e-05, -0.0002506700962901055, 1.9382932847911965e-05, 0.00015258077048106337, -6.899691100639378e-05, 5.280689269362567e-05, -0.00019180932239835197, 6.615946024977475e-05, 0.00010873263619556815, -4.7489299130688595e-06, -4.027306408564274e-05, 0.00023363048998706432, -0.00016401975750421387, -3.9778485040410855e-05, -0.00021252898047890916, -8.395880297322749e-05, -4.9903541200613675e-05, 2.2270616459023987e-05, 0.00014855323047490752, 3.398156746584406e-05, 0.00020762541158022614, 0.0025631514571537884, -6.720399192639424e-05, 0.0001477199024171581, -0.00020291010639122108, 1.1881367472388614e-05, -3.4218541612295936e-05, -0.0001338197033556847, 0.0008889142875468535, 0.00010938388609469029, -4.9170650171216214e-05, 6.34076080758599e-05, -0.0002714598977093119, -0.00017159832717118857, 0.0002656662566568389, -0.0002501889467229667, 3.66037620956943e-06, 4.5147060869736883e-05, -8.260885995817746e-05, 0.00010745312827177488, 0.00022981945866812307, 0.00017368921993496858, -3.4579517206509766e-05, 0.00028346094426404155, -0.00035930304112781936, -0.00019661520471754888, -0.00017923074225369671, 5.790612091404002e-05], [0.00035060098003594314, 1.5981645447668913e-05, -9.125835786427146e-05, 5.285749675417096e-06, 0.00012495790398354408, 5.732223083085866e-05, -0.0002425126691014643, 5.8502380429394736e-05, -7.648315740584913e-05, -0.00010366912020570487, -2.6808313223791174e-05, 5.993903549108859e-06, 0.0001443120992511755, -0.00017006054938445116, -0.00012615242390440396, 9.558552647341875e-05, -9.986391240487271e-05, -0.0001335566357459924, -0.00016276986550969804, -0.0004305892556389354, -4.594596206223382e-05, -0.00010334502520149448, 0.00014917736241904108, 7.573077489451171e-05, -0.00010625969924466674, 0.00016094984331731086, 7.053274514755628e-06, 8.991610034641097e-05, -7.570545586747503e-07, 4.6778161085366635e-05, -0.0003172850645116319, 7.689908115142161e-05, 0.00030871914469219784, -0.000185231208186799, 3.0275936626103354e-05, 0.0001283216936611764, 0.0001775827274944597, 0.0016390139324561814, -3.802727287866443e-05, 0.0002510745512165204, -2.8766962983601635e-05, 9.36436939105852e-06, 0.00011999071410441898, -6.178487313203551e-05, 0.0010043939593286841, 5.1018032365988435e-05, 3.2079320481584266e-05, 7.70794075586643e-05, 4.564723278489663e-05, 0.0001172374432543111, 8.566184696580078e-06, -1.0713079770215484e-06, 3.645583581531007e-05, -6.093610214105222e-06, -5.205224563039777e-05, 3.863002272566714e-05, -6.709060700949013e-05, -7.391786934500538e-05, 6.018488153962146e-05, -0.00023847570018295487, -0.0001307127782988846, -5.477782686782531e-06, -1.3393012197273843e-05, 0.0001727192074011981], [-2.0435269744818418e-05, -0.0002545286915784504, 0.00010765664202134746, 0.00010089373578795095, -0.00010470624958214256, 0.0002470557253897835, 0.00019899795805594582, 7.350536809048003e-05, 6.957668218935641e-05, -9.798300445956149e-06, 6.443116183186038e-05, 0.0002580544757414262, 0.000353820655704061, -0.00027103581303273465, 3.895718894496017e-05, -0.0001353849764252485, 3.879102262363446e-05, -0.00023495915950109622, -1.995125967337178e-05, -0.0001315226500074023, 0.0003209147058157374, -0.0004334539826464248, -2.832863570952825e-05, -0.00028117411637648004, -0.0002044692869957914, 0.00018466781182280883, -3.5589561476692825e-05, -0.00028729054218853685, 0.00014914475956551043, 1.3889728107264993e-05, 0.0004771488718633332, 1.3451939609519961e-05, 0.00022716390529545184, -0.00014834926045725473, 0.0004440993535505056, -9.147314943793899e-05, 0.00015018508897176905, 0.0002729940077802907, -7.347425166532646e-06, 8.656600506562438e-05, -0.00015242629488917297, 1.6598308178739654e-05, 1.3810141037955123e-05, -0.00020757267113315667, -8.53301097946896e-05, -2.8861979692164152e-05, -0.000129193224850271, 7.092514916796733e-05, -0.00019430511318229657, -0.0003201885943299945, 1.0756154110779046e-06, 7.116916231077986e-05, -0.00011369473114218179, 0.00011674944757482867, 3.991673296185769e-05, 1.8386750397189112e-06, -9.456261393815744e-05, -1.7678164647420537e-05, 4.831493273562142e-05, -6.131379409821136e-05, 0.00010634173899056173, 0.00019554766079680097, 0.00011367693176067777, 0.00016834716772119902], [0.00017771894192691426, 2.1954524073800748e-05, 0.00023685522904904718, 8.004510142013905e-06, 0.00016101013633427978, 3.769973155029383e-05, -8.678567877108281e-05, -0.000258534560857476, -9.155531419304062e-05, 3.9290289330296875e-06, 5.0463299780314905e-05, -0.00012828002026749188, -0.0003037772552175765, -8.337880927815484e-05, 2.3457745786839636e-05, 0.00017025029470657324, -0.00036056956210958786, -0.00010652541080438035, 0.00013996847081944693, 2.757247023780067e-06, -5.016299341098029e-05, -3.5999313511705534e-05, 0.00012789303054631606, 3.5117465868983374e-05, -8.197826748902436e-05, -6.513910915208741e-05, 0.00017793688323122192, -4.363659875446158e-05, 0.00011345126724570344, 8.70887042427541e-05, 0.00021309857663915035, 8.448967772186498e-05, -0.00010536801341438024, -0.0001948115241544978, 1.6041527545766543e-06, -6.345983722751955e-05, 0.00013332986641209862, 0.00011213606323309932, -0.00018687269837588556, 8.563416742766853e-05, -6.62925942582256e-05, 0.00018989514160368045, 0.00018426331157231978, -0.0003040357065849663, -0.0003007682601836163, -0.00018772660751374313, 9.270471563122355e-05, -0.0002036310160414624, 3.65703655870338e-05, -4.185411130100328e-05, -0.0001707737823747514, -0.00017367570283612524, -0.00012634711010860584, -1.0991419094970245e-05, -0.00011650480720384707, 0.00023397128894380294, 8.709519719933868e-05, -0.0001479532677899598, -1.3566269931457081e-07, -2.0000443940969474e-06, 0.00013420707626284013, -0.00014316388610612402, -0.00011485876506348773, 0.00016916866304344022], [-0.00028529667422670516, -9.215766586887486e-05, 1.4670599400820042e-05, -7.285333704659821e-07, 9.46147351373558e-05, 9.666835656844787e-05, -0.00022831348013036242, 6.98359968239231e-05, 2.5660705081573254e-06, -3.591315305961869e-05, -8.353156691961758e-05, -3.389433130830399e-05, 1.3432091179589692e-05, -5.992674745212741e-05, 5.460622315767589e-05, 0.00011226056780228591, -0.0002742712548293761, -0.00011586186972328344, 6.886614436526668e-05, 0.0003675722958295862, 9.017583128966903e-05, -8.749024888135608e-05, 2.5549807750332965e-05, -0.00013896645540050121, 4.048681897846274e-05, 2.7385273008497783e-05, 0.0002534418386849112, -3.280119078253983e-05, -0.0001496758970333561, -5.209448816200662e-05, -5.566255463952953e-05, 1.027628107508238e-05, 3.8731504705995833e-05, 0.00017592243524909232, -0.00010293320190104966, -0.000139231923309999, -0.0001849517145028403, 0.00011856544133518419, -0.00017930337479965023, -2.936308374108771e-05, -7.585702034927491e-05, -5.0517027651541895e-05, 3.0054433131573814e-05, 3.2837731120703364e-05, 1.256421481896547e-05, -2.2391311768356204e-05, -4.8979833527814715e-05, 2.779289135288877e-06, -7.576527251263362e-05, -0.00021926772438558275, -0.00013237298176255137, 5.941097151251972e-05, -0.00014660067829545714, -3.7531890004458856e-06, 0.0001170793849579905, 4.196595983537192e-05, -0.00025921334337184794, -0.00019599073053236946, 0.0001366153126569644, -9.888820191542842e-05, 0.0001158116574845601, 1.533806296699175e-05, 0.00016739065358076046, 4.886982261657277e-05], [-0.00015940030185351107, -0.00015820144693535189, -0.00014053920533711376, 4.2750845794645864e-05, -0.00011184694575465116, 0.00015712140900194118, -0.00013028103920550846, -0.0001312943143127779, -9.958790304014487e-05, -0.00010336118952217556, -0.00013980044661243642, -0.00028438504628904075, 2.368020636783717e-05, -0.0011044181269342199, 6.915980049883682e-05, -9.916569966936918e-05, 2.4988792966048088e-05, -0.00010542940095066375, 9.217101389859034e-05, 0.00018810664220532874, 9.2105854445446e-05, 1.4594452327244575e-05, 2.8571070667092547e-06, -0.00013412382389312805, -2.130282329103022e-05, -8.318024688696985e-05, -0.00023531214886488055, 2.766281859901718e-05, -0.00019248358421988587, -4.2305905669996066e-05, -0.0001173534899479919, -0.00010540080020028483, 0.0001494006688143996, 0.00014422804054363037, 9.005371569590217e-05, -0.00010104048973106727, -0.00024094634106493413, -7.606613645975228e-05, -2.1705369476132127e-05, -5.559431835124353e-05, 0.0001292238266298248, 8.18941180454705e-05, 8.296099739580452e-05, -0.0002064785503330534, 0.000797868433701741, 9.93649797897825e-06, 0.00010495820603141951, -0.0002122095742576592, -5.459471758162376e-05, 1.124421377228029e-05, -0.0002161578190171359, -6.968634899827362e-08, -5.241883428021898e-05, 9.461264249400394e-05, 0.00028284572686291523, 9.481122474019389e-05, 4.3789085755634483e-05, -0.00019997285976880048, -0.0003535556021227695, -9.180272843726483e-05, 0.00023638214277906295, 3.165138896606128e-05, 1.386441771863132e-05, 1.3445336898428945e-05], [0.00018605196681032067, 0.0002170704451015643, -0.00012944305762694144, -1.8681249058519406e-05, 0.00017953984973606904, 7.473613098633319e-05, 0.00022788985163251632, -5.090810797674877e-07, 2.182203238713606e-07, -0.00029527260695315534, 2.3392375735875853e-05, -8.999302992706807e-05, 5.8103653007110024e-05, -5.512307355591794e-05, -0.00031840591760967397, 0.00019752007277250823, 1.768686995445173e-05, -9.532940245289372e-06, 9.589262048691075e-06, 7.771420887429763e-05, 0.00028781260257093133, 0.0001675002647401317, 6.362314878243251e-05, 0.00017785642747011356, 0.0002595500359272522, -7.205651993146873e-06, 2.68306553644889e-05, 0.0003975889906849507, 4.4994846480052376e-05, 0.00015038761038599238, 7.23540244494851e-05, 0.00012897730136700563, -0.00010119734789838306, 2.8662247178798227e-05, 9.54884756214196e-05, -4.147078403686172e-05, 0.00026470188739275737, -0.00048614807924751566, 4.292640907231727e-05, -2.487973115803966e-06, -2.7267549875398695e-05, -0.00011274340519332631, -0.00010653632047134081, 2.8107948911115672e-05, 0.0007433144201057272, 0.00041341354947297467, 7.825173606741623e-05, -2.1198934310402587e-05, -6.938204036113503e-05, 0.0002510507110783877, -4.4157519648632356e-05, -0.0002150853045571808, 7.99619220219212e-05, 3.193667527101379e-05, -1.2027869515658163e-05, -3.0311786332502135e-05, -1.8203094898996242e-05, 5.512028367689698e-05, -3.159310116698209e-05, 0.00011191646547914674, 0.0002410270002866528, -0.00017791749963169543, -3.457631148421088e-05, 9.209126648659158e-05], [5.427759559159824e-05, -0.00015292292575635438, -0.00010549017573629862, -3.8387507179822076e-05, 0.00017121207605541258, 0.000133862454546895, -7.274920078733589e-05, 2.5458499292813704e-05, 9.285261390805339e-07, 0.0001499415036194876, -6.763960339038533e-05, -0.00014777683722461113, -0.00013442733924769383, -0.0013077642537750213, 0.0002705910936973287, 1.3015682136064732e-05, -4.006118488905365e-05, 0.000125947309703231, 0.00010642507163117945, 3.054354207902771e-05, -0.00013546739763955028, -7.497620108628965e-05, -0.00014958839351652083, 0.00018933076313757885, -7.700583526956108e-05, -0.0001968956632819694, 0.00016874870177718777, 0.0001252230100312857, 8.525539005752245e-05, 3.462788955765209e-05, -3.942216287971528e-05, -0.0001853083835269239, 0.00019655902583021445, -8.938865362243298e-05, 0.00011915729572440861, 0.0001087686921974708, -1.2893836300346316e-05, -0.0002237825186088829, 9.627743668604448e-07, -0.00026146201294967173, -2.868907215523312e-05, 0.00017677257331471014, -0.0001600682208651443, -0.00023295555495458377, 0.00042489657306069055, -1.7185654902069199e-06, -0.00012092916181774976, 1.5159363646975049e-05, -0.00019843204161281108, -9.056564426174756e-05, -8.55208871326914e-05, 0.00016403917930788638, 0.00035989886629336743, 0.00012996577107510536, -7.706898882349698e-05, -1.2366214188594192e-05, 0.0001501692750215051, -0.00028532339236850615, 2.734963155953298e-05, 2.4115956898262432e-06, 0.00011906449034990289, -2.0808076662642615e-05, -0.000288636542072019, -1.9016842483273576e-05], [-0.00015492120449272915, 2.7989922551926677e-05, -2.9636173714073737e-05, 0.00016413955731921445, -0.00011990648757829827, 8.831923115491066e-05, -4.779238288540847e-05, 0.00020949830141201288, 0.00010750505633658195, -8.279712967945007e-05, 2.932115647383019e-05, 0.00013845525115294686, 0.00014110938991804235, -0.00011990351099716476, -0.0001491724176583005, 0.00013859869928002698, 0.00035776756777493616, 7.433512969578934e-05, -1.8447706889648367e-05, -3.661142232734533e-05, 1.8335092400421983e-05, 1.5315920644407835e-05, -0.00013206258233936153, -0.00015946599535541839, 2.6661198447790008e-05, -3.922285706841277e-06, -3.832870003184861e-05, -0.00010612506103965222, 0.00012293808771219206, 0.00016201099846162027, -0.00027156733041625936, -7.07966365263009e-05, -0.00018407124169267914, 3.5092322899293616e-05, 8.105379216711543e-05, 0.0001869982024369314, -2.4784581448883262e-05, 0.0001937808723443317, 0.00017737400968033008, 0.0001515769494225741, -7.171434100615802e-05, -0.0002870034630849599, 4.88577508002891e-05, 0.00012315436860461777, 0.0005939341358872931, 2.5844038798960157e-05, 6.830109641450393e-05, -0.00020711610785869878, 0.00015378381256199084, 7.536619006559057e-05, 2.6668431930808336e-05, -8.267681838032848e-05, 0.00017739268857919219, 5.807051433855515e-05, -4.144238839583365e-05, 9.067730169305881e-05, 9.616574627715506e-05, 0.00019390069592062928, 0.00010684799573506744, -0.0001363008625417295, 0.00018096616285135156, 6.065610539945078e-05, 0.00015373124792047356, 1.1334114946035e-05], [3.304516664076486e-05, -0.00023339360478542512, 2.706299387995973e-05, 0.00020530520185565646, -0.0001347590190692568, -0.0001325046224263201, 0.00010778166755796029, 0.0003287661358093781, -8.196961570148781e-05, -8.368096204284578e-05, -2.8413980519859486e-05, -0.0001089856561678843, -0.00016254085867364052, -0.0010092133058563998, -0.00010592873648661036, -8.825962338265735e-05, -3.5647829849619027e-06, -5.373806511169676e-05, -9.684148322895745e-05, -0.00020659407315000487, -6.0094305508979644e-05, -4.0010447814750734e-05, -5.809996621797784e-05, 0.0002856995801526193, -4.9707338702147116e-05, -6.2079040998519974e-06, -0.00018328526484830606, -0.0003250831342175858, 4.801575441025866e-05, 0.00016318726201750906, 0.00023293271348420326, 7.388469417645652e-05, -0.00010304869968755721, -0.00019552093944442088, -0.00016539778479677205, 0.00015352931617727546, -2.2874804735512966e-05, -0.00018710888407762877, -2.4339440591592356e-05, 3.817108230894697e-05, -0.00014997194822171864, 3.308283561361258e-05, 0.00016570435972266596, 8.124111974312181e-05, 0.0012269348741330947, 0.00014238837849471836, -0.0001947275364133654, 5.248269242417452e-05, -0.00022025457672483648, -2.961127188857372e-05, 0.0001294664763087414, 3.183993224062575e-05, -7.152807954246366e-05, 6.896351508625735e-05, -7.756998788584926e-05, -2.9746638849345816e-05, 0.00012835239122082064, -7.619602974151494e-05, 0.0001555805536229449, -0.00011541524129990706, -4.473056225172134e-05, -0.00018411177226445644, 5.5346402221301846e-05, -7.338168957751249e-05], [8.004462499185746e-05, -2.6080351803372445e-05, 0.0001319513993889104, 3.1075448208266755e-05, 0.00017539292139430245, 0.000331981508420258, -0.00041758756791529777, 0.0003079794858007652, -9.260487685645478e-05, 0.0003246372953184186, 4.793393877930626e-05, -9.722291576547585e-05, -6.702637259089903e-05, -4.6496374688899465e-05, 0.0002448319076242136, 4.745510893575694e-05, 4.483060294575791e-05, -6.804526593928131e-05, -0.000156977475901408, 0.0001959856185568419, 2.943524960557892e-05, -2.1936954993249575e-05, 0.00017860018072245816, 0.00012800008847471147, -0.00014788532076529564, -2.4387811996087917e-05, 9.82832224302856e-05, 0.00017004746893897862, 0.0001823620060576746, -0.00034936191009192485, -0.00015061085456090625, -1.1431195543785936e-05, 2.548713183521059e-06, 1.3761668199150612e-06, -3.0338432287430332e-05, -0.0001122622826245233, 0.0001360964315309728, 9.04640235520313e-05, -0.0001079069332229871, -0.00013720157224638292, 5.0697695368415815e-05, 4.562593579543738e-05, -0.00013962327134622513, 0.00010413142231389646, -7.555055185239613e-05, 6.545836017176819e-05, 0.00020671486105132525, -2.789819239367057e-05, -0.00016112401294439, 0.00024520622002315175, -5.104196406672309e-06, -6.278882936224367e-05, 0.000176604275278666, 0.00011007601105894557, 7.714478135048707e-05, -5.257653018627694e-05, 6.385616779285632e-05, 0.00017570632697368345, 3.2067581060985165e-05, 0.00013250625101073304, -6.853590230790964e-05, 0.00017507362983157417, 0.00015794457640965894, -0.00028302498388386326], [0.00017289401343538314, -0.00011638205603695283, 1.6469760205416542e-05, 2.4983850021355286e-05, 2.6574564315968486e-06, 0.00021194847794268494, -9.10540855290936e-06, 9.40905057044395e-05, -0.00034206881159934253, 0.00015318949459518775, -0.00014132352387633877, -0.00015961739746750672, 0.00019723219729865805, -5.83557590952723e-06, -0.00012705676079578733, -0.00018635183284891965, -0.00023579647779463895, -1.77177021676009e-05, 8.4417459411946e-05, -0.0002116974402192861, -1.9705282684600326e-05, 0.00015184069424538555, 0.00011337458267847276, 8.656272699757244e-05, -0.00016438594986863502, 0.0001440843207716024, -0.00016857648387852883, -0.00017414148405579734, -0.0002881253863957678, 0.0001508920042207966, 0.00020093314561469438, 0.000171095503393898, -0.00011576212146941136, 0.00033486836364844414, -0.0001276242245284953, -0.00018517574391624557, -9.248780652208368e-05, -2.0394264284861216e-05, -6.41947499186315e-06, 4.991944382260353e-05, -4.3469781059994324e-05, 0.000156068673239944, 8.952851896361396e-05, 0.0001216766380532123, 0.00028356807122431366, -0.00014138077646525218, -0.00021130916365270366, 5.9491610247619734e-05, -0.00022373967706909982, 0.0001376022420346361, 7.796254476200663e-05, -0.00014460033094527752, 0.00013848790026002404, 0.0004511273691990869, -1.2050264086333681e-05, 0.00012439996701635916, 0.00013845660172493997, 0.00011835182174038233, 0.00011152472383664797, 0.000193515913063214, 7.291786168555706e-05, 5.418589160123422e-05, -4.770373516909491e-05, -5.211390254058938e-05], [0.0003066039408054819, 2.562210530060056e-05, 1.0259461448898431e-06, -1.4842959821999594e-05, 7.09130163970285e-05, -0.00010272594776070735, 3.7426938322135017e-06, 0.00019116609143069623, 2.355580995579128e-05, 0.00013172448797055809, -0.0005143065732515745, -0.00015847371014163355, 3.535174295161362e-05, -0.00013204090635732469, -1.991923528440895e-05, 2.784607470419879e-05, 4.702836791978262e-05, -0.0001099499242793567, 0.00020588417880319557, -9.256192699288145e-05, 6.292608538876519e-05, 0.00013779881284252794, 2.2466146330545267e-06, -1.3296070143175559e-05, -0.00014743209664183483, 5.6023935480904155e-06, 0.0002099016424794105, 4.876842465849635e-05, 1.701721887217428e-05, 3.7613514829559444e-05, -7.992963872831614e-05, -0.0004631380894747543, 8.757206390594937e-05, 6.2527955585545405e-06, 0.0001539833065487645, -0.00012031283099669399, -2.043088689146712e-06, 0.00017554049980498073, -0.0001422610634786683, -0.00031474832801359036, -9.231724831639005e-06, -9.559852884955134e-05, 0.00034392622895943457, 3.343571568932685e-05, -4.687380973797457e-05, -9.555256904468863e-05, 6.458221281636478e-05, 3.265870115706607e-05, 0.00012058080834889683, -9.966864872669208e-05, -4.301688873103212e-05, 3.016578429997232e-06, 0.00012927904828113348, 0.0002730656903888579, -0.00010642267796050416, 3.2434091847961414e-05, -7.841633610716501e-05, 5.3547806210269396e-05, -0.000271551784330562, -0.00017825005766729666, -4.882417749194312e-05, -6.823591213577434e-05, -3.2613263667090536e-06, 0.0003409077167350048], [0.00010911677533596593, 4.457488467117315e-08, 0.00013685109592106965, -0.0003530180782385873, -0.0002711097952855549, 0.0001532230551864541, -7.64908048160766e-05, -0.0001599713464016928, -0.00014053929995266987, -5.63396447891667e-05, 0.00037101645919019547, -0.00010573082166621123, 6.139708909287767e-05, 5.213981610358435e-05, -0.00017445218146124064, 8.07694536439675e-05, -0.0001479316568569227, 0.0003148244699616021, 5.190284058485544e-06, -2.3699190523093082e-05, -8.861082379365887e-05, -0.00015226479824761007, 9.61478547057749e-05, -2.5263901940063304e-05, 0.0001435632181590507, -0.00033524665900824016, -0.00011965118630238161, 6.773823671093131e-05, -6.609385968789812e-05, -6.515521813379035e-05, -6.489899997281777e-05, -0.0002726301515642117, -2.365507469435368e-05, -0.0001493530796999488, -0.0001529145140499362, -4.264097767695712e-06, -0.00011693925110733009, -0.00012090037826093715, -9.895080776582829e-05, -6.4036782024449e-06, 8.532350826136154e-05, 0.0001696500861823471, -7.838820611665069e-05, 3.297233838939433e-05, -0.00011871994459728143, -0.00024825313118360444, 0.00014630627790262164, 0.00011714201218880384, -1.0790350479150174e-06, 0.00016032487284212536, 0.00016099420048174974, -0.0003410465604306384, -6.387494824646145e-05, -0.0001153783247698317, -4.063276074171291e-05, -0.00015167672695137087, -4.5140025691263344e-05, 9.566104634079072e-05, -6.731242579910367e-05, -7.971921268619506e-05, -0.00013520930244719713, 3.183387196442768e-05, -0.0001468999585279829, 9.69124311315258e-05], [-3.53465109808457e-07, 0.00013397680898538696, -3.123159110929175e-05, 9.796384070933324e-05, 0.0003876065196766064, 0.000320049510519561, 0.00025307408747605087, 9.365073114656655e-05, 0.00012451101430505215, -0.00013116241085468495, -0.00021776315150769901, -1.9678563475134536e-05, -0.00012624578863421328, -0.00012687608299850322, 0.00011620891469446311, 0.00028695010051578364, 0.0001946594939053247, -5.6791530584123016e-05, -0.0004393009364844902, 0.00018870934408329887, 8.469052876495384e-05, 5.5573080089083956e-05, 2.071878948410526e-05, -2.6812610642029245e-05, -0.0001433472963262572, -2.3781933192746908e-05, -6.871857419708804e-05, 4.1694793065285424e-05, 0.00024641037117466855, -0.0004235669462918688, 0.00010130956103751452, 0.0002187634674723401, 0.00012143577054512531, 6.234028319112574e-05, -0.0002363090108898767, 9.667345346216819e-05, 0.0002532320105839129, 2.2326992769436926e-05, -2.5315181671851103e-07, -0.00023868544515985888, -9.788847333629558e-05, -0.00013913055492657383, -2.9278220931381506e-05, -4.412311332557338e-05, -6.247627334814532e-05, 7.911630558295096e-05, 7.54838733231956e-05, 0.00010402143248077263, 2.3941620851409393e-05, 0.00012375138804291975, -0.00023027210900081852, -9.683620486422593e-05, 3.8962923052056255e-06, 0.00011990459639579786, -0.00018964110588594833, -0.00013930441919289297, -0.00011224077870524994, -1.1633676881260396e-06, -8.213608852152163e-05, 0.00017558361686948942, -0.0001954852141628914, -0.00014085354904746133, -0.00028692946338362574, 7.799811107102322e-05], [-3.826263992518628e-05, -0.00018013952798819183, 0.00018438716641622623, 8.918416229685661e-05, -0.00018010122278809673, 0.00026656859623228513, 5.325721775271562e-05, -2.474831544804556e-05, -4.873129564547384e-05, 8.122654835975417e-06, 0.00022721069727049028, -6.1019480039633254e-05, -9.7336156765668e-07, -6.341010914748092e-05, -5.706140004047538e-05, -0.00010571608058537655, 9.843044931210084e-05, 0.00023541987069912104, 0.0003177097681016615, 0.00014427540318384392, -0.00044843663154086526, 3.112887218859381e-05, -3.548695104210926e-06, -2.4375948372471547e-05, 1.8772995273840518e-05, -0.0002224842383904361, -0.00016397425613278626, -6.154112039766787e-05, 0.00016244971670520064, 0.00023579250385275842, -0.0001733663602279062, -7.907214457302948e-05, 0.00018026345367268542, -0.00024367999697828382, -6.12545962810345e-05, 2.2791667096572934e-05, -8.602855717765499e-05, 0.00019462688732307438, -0.00024519574898701263, 0.00023723404176207152, 0.0001272850044051554, -7.344318330915206e-05, 0.00015008791242216674, -0.00011538793879383133, 0.00013240201735313612, -7.540056104622894e-05, -0.0001537513493762768, 2.1042225444200695e-05, -0.00017662057131558295, -4.891189539848724e-05, 9.533867545903488e-06, 0.00022370893076501962, 0.00016420820592807675, -0.00028428798791089825, -0.00015227447753042602, -0.00011350366230042087, 0.0001503797616411587, -0.0001354855687755492, -0.00019918740478826484, 0.00012953295651379028, -0.0002582421649242174, 3.0104526559677414e-05, 9.861275306938948e-05, -2.033340132041197e-06], [6.271698057237644e-05, 0.00035209455518693165, -2.071946526605038e-05, -0.0002494759749659347, 4.502446703834193e-06, 0.00020188311251435886, 0.0001721857822813029, -0.00014392903992390242, 0.00012931995472494168, 3.827806514218292e-05, 6.089790191923374e-05, -7.663615409056354e-05, 0.00028116273623960655, 0.00019520584178214816, 0.00015528686234721572, -5.416056640483269e-05, -0.0001445033367807653, -1.4173712134992104e-05, -8.875746845138202e-05, -0.00022706188270673022, 0.0001867802449818707, 6.622849245066306e-05, -4.44598613964913e-05, 0.00013396915874147318, 6.155247375714748e-05, 0.00011682611951594552, -0.00022617027755739198, -0.00012996437787130433, -0.00032026481325896615, 0.000256167110750089, 0.0001566654945608087, -0.00026362775820530106, -0.00013568830879789198, -7.913581857227997e-05, 3.4548613503927966e-05, 7.073305100841299e-05, -0.0001416752649726461, 4.0844148311282286e-05, -0.0001504341727873269, 0.0003325508520407734, -0.0004327382308532174, 0.00010286278267540057, -0.00017638689292720028, 9.757065468389477e-05, 0.00010699221174510484, 0.00034862971742412427, -7.604483528773982e-05, -2.6623373246540594e-05, -0.0001321997656183441, -1.2895736867625881e-05, 3.416415256738243e-05, -0.0002705610649201051, -9.73975107904124e-05, -0.00020575864690813928, -5.722983179137913e-05, -7.01755271149859e-05, -6.619519277681162e-05, -3.211519423544111e-05, 0.00010069894496796778, -0.00031472474977917267, 0.00024717566425373923, -1.1290113046470265e-05, 0.0002454536527146827, -0.00013373240687470026], [-3.347674865721134e-06, -5.058733492505318e-06, 0.00011465032397920328, -0.00021459601969324373, 4.8113414043637624e-05, 9.338436751748752e-05, -2.3594490411058406e-05, -0.00034087575364795733, -1.6506327225686605e-06, 0.0001915231462198811, -6.415616032096402e-05, 0.00012746883186540555, -0.0002843783435561028, 3.5069420977703014e-05, 6.833363976378306e-05, -0.00012468205810742933, 0.00044689287604291524, 1.073202899080458e-05, 0.00021496849446937707, 0.00021419518713365602, -6.841193503766739e-05, -3.462411060483497e-05, 0.00035751126549346594, 6.01575583747323e-05, -8.875439656140426e-05, 1.860630243251499e-05, 2.96163566281859e-05, 7.417444512800489e-05, 0.0002602565064054659, -0.0001323167226445407, -0.00034492509858819224, -2.5087385580444864e-05, -4.9168617827662946e-06, 7.614562697207816e-05, 0.00027121196505704766, 3.8464100784830666e-05, 0.00010604937314503257, -4.398313606426865e-05, 4.810025030210465e-05, 0.00015178492467307278, -9.356558971286249e-05, -0.0002439823204407452, 0.0001545748052828615, 0.0003382806532467307, 3.629773634108291e-05, -0.00014177664758149662, -9.440987187199537e-06, -0.00012518973077230952, 0.00017112370055637509, -0.00011646240254786631, 2.941513800028896e-05, -7.383386340578137e-05, 9.36807108493946e-05, 9.028138944102462e-05, 3.065934613120698e-05, -0.0002699318707040863, 0.00020386891519775784, -0.0001879702052927217, 0.00015211760425015445, 8.598787684848384e-05, 0.00013206305771732365, -2.4357320289809022e-06, -5.833524925318465e-05, -2.7895167871678313e-06], [-0.0005134351331977819, 0.00012842473508322593, 0.0001355114490544161, 0.00031390707228364087, -0.00015501380332855498, -0.00011989988041360289, 6.896296663663507e-05, -8.029220818144974e-05, 0.00027713221484258554, -0.00019821449085258487, 0.0006479910289628879, 4.830008624987227e-05, 4.453796009441877e-05, 4.691348141815685e-05, -1.7044653533934836e-05, 6.777418803758717e-05, 4.5240896902712114e-05, 0.0001844663133384598, -4.6775723852898125e-05, -0.00012205204526343557, 0.00010686321337221232, -3.147309963722744e-05, -6.380402243817812e-05, 0.00011175149077130277, 0.000192970988889058, -0.0002025109667922821, -0.0003849491272037143, 9.000386210971943e-05, -0.0002260225751465818, 7.557492358190433e-05, -9.146741384110728e-05, -8.379075408960468e-05, 6.385743822321998e-05, 2.0069271061865587e-05, -0.00041231010120582664, 0.00016593341000955677, 1.7669728522671548e-05, 0.00012835210943978707, 1.7799870188660722e-05, 0.0004169944074477117, 5.533130709587579e-06, -0.0002647085614144564, -0.0001239915325085971, -0.00024339566285235922, -3.401543092179679e-05, -5.020126453403755e-05, -0.00014690358833276492, -8.092375117993802e-05, -5.6257940983634884e-05, -8.221198392654278e-05, -0.0002943254902575414, 0.0001922033603558878, 0.00013114199909938594, -9.714466738947764e-05, 0.00019867555015125449, -8.964357071303175e-05, -4.975218269379736e-05, 0.00010086547225200038, 2.6477502713750115e-05, 0.000221163448332659, -0.00022451492380744643, -0.00015490317493532853, -0.00018419331657942666, -1.5929877811324852e-05], [-0.0001483389966488446, 3.2597016937435036e-05, 5.774158242719295e-06, 0.00014301129666954463, -9.987135471780514e-05, 0.00030235041422733326, 0.000158168308623188, -9.280656851534945e-05, 9.203199102215013e-05, -3.874862510091442e-06, -0.00014881576225369902, -7.302371795267574e-05, -0.0004410197507026663, 0.00011964999065995121, -0.0002908814097883711, -0.00019425486648776423, -1.3503140774830699e-05, 0.00028233132442257694, -0.00017618258014076915, 0.0002042205942493205, 6.737392326611598e-05, -3.297934334981113e-05, 5.8456531222046384e-05, -0.00014845962333722944, -2.744828877532059e-05, 0.00042519800789359713, -6.734265801815282e-05, 7.166567958987293e-05, 9.50465379304154e-05, -1.6174365311455305e-05, 0.00012337800976881596, 3.2256881892482337e-06, -0.00032980072681284677, 7.450419806943708e-05, -9.693768975345205e-05, 0.0001913155691205518, 7.811090356369513e-05, 4.720432203980249e-05, 0.00027230849065740335, 8.15365979960088e-05, -0.00010525945688341977, -6.625829099903799e-05, 3.813498836894414e-05, 0.00014923899788554633, 0.00045968825979797196, 2.5563453741390705e-05, 0.00011064639600681123, 0.0002653714860113432, 0.0004126829763993441, 6.525903955020894e-05, 0.00011720961396205403, -8.379769994567415e-05, -5.17515334195267e-05, -2.1891556347780546e-05, 9.920277758175455e-05, -9.103379698630683e-05, -0.0002812204266737824, 0.00011725334944092949, 0.00013700799798036027, -0.00017815987476749504, 5.535595004328718e-05, -1.6472121533062945e-05, 0.0002852870303055522, 0.00031456746308561415], [-0.00021501290007616453, 5.9387521098771236e-05, 9.782844203062864e-05, -1.1637854864043022e-06, -0.00020820023757518792, 0.00018979135609307904, -3.787009935840385e-05, 0.0002494621311617121, 9.994127099113281e-05, 8.052711143600994e-05, -2.2488963957152116e-05, 3.62217816545505e-05, 0.00013767360142243155, -0.0004588738708041214, -0.00014107138336919906, -0.00011750931288944736, -0.00023173144364116476, -8.736482541065081e-05, -5.490600040134437e-05, 3.829920599510728e-05, -0.00015016319153823862, -4.555844655817988e-05, 8.010098816828775e-05, 2.9142005797647586e-05, 0.00010200316753473663, 0.00011576287237566079, 0.00012827469979507003, -9.168454751792767e-05, -3.883593857705868e-05, -0.00015733880644521454, -2.509462572318777e-05, 4.8944174114559993e-05, 0.00012166191029775388, 0.00018105202784152898, -3.3210894890563876e-06, 0.00010536802062080542, -6.280759040021834e-05, -0.00020264669314001092, 4.068674890962188e-05, 0.00019226122440266252, -0.00016477030830106573, 0.00021227997204630652, 8.830080358163125e-06, -1.2642583328048732e-05, 0.0001917711779104402, -0.00016372573395088426, 0.00016823924327966897, 0.00010346316316318798, 0.0004180881599056516, -3.2775583617618544e-05, 0.00014707028942481697, -0.0001303737526058218, 0.00022199249387249033, -6.895017288983114e-05, -3.3574071905701554e-05, -0.000159203506580975, -0.00017826795391851408, 9.553742271256186e-05, -1.9620723770275367e-05, -0.00011116893807665619, -2.479839986410567e-05, -0.00013509491055176682, 0.0001753761796132808, 0.00018660638675744714], [-3.020000243990863e-05, -0.0004494783159268025, 0.0003261341705090732, 0.0003718377649937208, 0.0003993510606083758, 3.9674070902247276e-05, 0.0002496741599994076, -7.583266838724787e-06, 5.052991967588142e-05, -6.443613702745543e-05, 7.947011281273804e-06, -7.88160505250224e-05, 2.5979388297286634e-05, -0.00023817103621498912, 0.0001306263880710744, -0.0001458954059246001, -0.00023329503882328216, -3.27492772773344e-05, -5.658833110857965e-05, 0.00010471773160113554, 0.00022319938539791181, 0.00026434632742742257, 0.00018204330273855732, 8.691459325719959e-05, -5.0736300474698e-05, -8.59919743281919e-05, 0.0001088263990209052, -9.411411225242926e-05, -1.936518381692118e-05, 2.454297684132926e-07, -0.00025776497826509253, 7.877684104701016e-05, 0.00026835451788153475, -4.091968822042404e-05, 1.1126840531141421e-05, 7.987494609587805e-05, -0.00018274297551649097, 0.00020305063982249818, 0.0002046565140694254, -0.00012211752567848082, -0.00013330256678462424, 0.0001620524119578699, 6.335438618879595e-05, 0.00031980327416862694, 5.808133700269043e-05, -9.773805048013471e-06, -0.00014922594622185787, -0.0001680572784955059, 1.1036442806645511e-06, -3.367518547358511e-05, 4.15643849450676e-05, 0.00022896776671394787, -0.00017625613635874273, -0.00010486505579642284, 0.00024015877698961056, 1.5170240157845886e-05, 5.871259699662367e-05, -0.00011056987370621945, -7.929600259182023e-05, -0.0002900580863547358, 0.00027776471546820406, -6.492839128795044e-05, 3.807964123728412e-05, 9.871113099940095e-05], [-2.9580120927036347e-05, -0.000103555086896714, 0.00017755245193713212, 9.695226422694072e-05, 0.00021155868905166415, -8.467636889941227e-05, -0.0002571619201386262, 0.00012798259181329657, 0.00016530265508430753, -7.417279652852622e-05, -8.471329062093559e-05, -0.0001028585188152588, 0.00011706637806423372, 7.452776116301943e-05, -0.00019669879738948163, -0.00016983955373891849, -7.307053606211522e-05, -0.00013296085096836777, 0.00011146050936401048, 7.398420892821634e-05, -1.2801731225206065e-06, 0.0003232146344522479, -3.124592164169588e-05, 0.000132858593815068, -5.662265330140046e-05, -0.00021271270143787227, 7.660228723889427e-05, -2.0644042587439517e-06, 8.816867191493397e-07, 0.00020585231689015132, -0.00014081401036430274, -0.00012505679994383287, -0.00018396431577250607, -0.00032407081196263285, 0.00024654156413195303, -5.8257488599003624e-05, 0.00012605146675523783, -8.747284527024717e-05, 3.3650772295356116e-05, 0.00012501389836994136, -0.00018452529299086266, 4.920976846530419e-05, 0.00010827436988253889, 0.00012724770013359992, -9.654094984365033e-05, -8.874468563827871e-05, -1.4190829447868433e-06, 0.00012606578121166032, -4.290816135229375e-05, 0.0003675246625046831, -3.0362678602896483e-05, -2.925758425207049e-05, -0.00016222986258682871, 0.00013091641825509225, -9.289309197583628e-05, 3.652892307019106e-05, 1.885228399191116e-05, -6.923690911567198e-05, 3.573138394424315e-05, 0.00027569147196811016, -0.00013917009852903103, -3.434285873257804e-05, -0.00020297480345268622, -6.397448243722418e-05], [0.00022611780650203382, -1.2052888904180026e-07, 1.977139091260739e-05, 0.00016243483769574178, 0.00037312048448270586, -7.221756941368652e-06, -1.9163159609660496e-05, -0.0001885175938724742, -3.6527715407589056e-05, -1.57031938823683e-05, -0.0002828794616748111, -9.115474281547425e-05, -0.00014356240659604375, 2.4522136275322888e-05, 0.0002707696938681385, -0.00019576864916573758, -2.149278785262254e-05, -6.2860563705564e-05, -2.9944441112072633e-05, -0.0002868450769453433, -9.582182965007338e-05, -6.426391727443258e-07, 4.3281714320383e-05, -0.00011264417972741585, -0.00016972826487884709, 0.0001051432331829704, 8.62885136094443e-06, 7.039948880942637e-05, 1.226309427836933e-06, -0.0002251099906800418, -6.340312415171513e-05, -0.00034332871060579074, -6.245597873710269e-06, 0.000169691859836102, 3.262689961571627e-05, 7.872161665848788e-05, -2.653959593171333e-05, -4.319855097490432e-05, -3.791430890565312e-05, -0.00012271117890622673, 0.0002277989853067182, 5.387386831974174e-05, -0.00012092970669590425, 0.00021142051461796302, 0.00032040995732065197, 0.0001016543308729198, -9.34125352561111e-05, 6.829874908071971e-05, -1.5948318991945784e-05, 0.0001342503538883893, 9.68099284811392e-07, -3.9056421351333964e-05, -0.00013457396190965962, -7.703571386648376e-05, -0.00019670034383413194, -2.3346672197158846e-05, 0.00012568198717642488, -0.00019002374554654054, 0.00025960424885889544, -0.0001708441532534744, 6.181873233805367e-05, 0.0001924442413995353, 0.00011646364537841584, -8.767578426900058e-05], [0.00014410704250886953, -0.0004456297967033605, -1.5666178415936046e-05, -8.287288455883964e-05, 1.4249596184237099e-05, -4.183052865354214e-05, -5.1677849833379775e-05, -3.92448861184441e-05, -0.00014626101644497, 0.00017096369259981718, 5.995143819802746e-06, -0.00023503528805672165, -0.00016731023482741882, 0.00030585390807088354, -4.576068206965135e-05, 0.0002821387878078946, -1.695946528575819e-05, 6.757133987228919e-05, -2.621644109129868e-05, -8.842047284671553e-05, 7.19661726038869e-05, 2.078995966442439e-06, 5.988443200155081e-06, 6.307205193187688e-05, 9.539714664597369e-05, 9.094077481711102e-05, 2.9647638693532615e-05, -0.0001110939714479836, -4.8684883454597953e-05, -5.004677513609676e-05, 0.00013351655815437886, 0.00011877939341850826, -0.00021170566434806746, 8.15252462153406e-05, -7.557323132144158e-05, -1.7695813266829666e-05, -0.00013013707344114136, -4.125749218334809e-05, 1.729408702144343e-05, -7.0449631624132855e-06, -0.00014732626248139543, 5.973882063874705e-06, -1.1058301248509151e-05, -0.00018940882094902438, -0.00018540819787367597, 0.0002996791275734194, -0.00013135070146675254, 0.0004719281767835428, 0.0002816506195935511, -3.304951775471711e-05, 0.0003537469363259735, -6.67462313768627e-05, 6.438860954122296e-05, 6.482300033804086e-05, 0.0002552713280757808, -0.00012941146893434742, 0.00027233595014259244, -0.0001306310837247816, -2.8268660594750736e-05, -8.294720843964122e-05, 1.716848643904975e-05, 0.00016079236110394166, -7.119864887406198e-05, -4.387654996213659e-05], [0.00025608384942849287, -0.0002696368045962691, -0.00013009262825333504, -0.0001317970775935646, -0.00012812905230720758, 5.1260395615999054e-05, -0.00014051082014901003, -0.00021982643060811986, 1.916573010139416e-05, -0.00019186482180217357, 0.0001718847902964166, 2.414409118082132e-05, -8.346916065889688e-05, -0.00021940659835284297, 0.0003052866747107118, 0.00017595224163304606, -8.596403551982374e-05, -1.4179732704420805e-06, 0.00020870820670826538, 0.00030301450604957605, -0.0001401933474855806, 0.0002037733706972479, -1.3829606354804955e-05, 0.00016152541420424245, -0.0003749917585347132, -0.00015954746531875717, -0.0001487896913272581, 4.325785303145477e-05, -0.00024256475666882896, 8.269609878938894e-05, -0.00024581558990643623, 0.00032110634809938047, 0.0002250617865204687, -1.2550220596413512e-05, 0.00021465917912212668, -2.935139463831211e-05, -7.180426100117661e-05, 0.00022896955365438518, 7.59068899062779e-05, -0.00020560686506044634, -0.00011023791266108753, 0.00017911442143285887, -0.00025566197985307386, -8.563834456695267e-05, 0.00014129086688099803, -0.0002587577190147889, 3.560697092023852e-05, 0.00023969396870021742, -0.0002990700731745404, -0.00011334977582687108, 0.0001162948110635688, 0.0001856948431985543, -0.00018733324368946463, -7.511951737496471e-05, -8.350148299263896e-06, -8.065512576309149e-05, -2.3611743299794895e-05, -0.00019109183413580524, 0.00031868540628613264, 9.575831747161904e-06, -7.772983154870114e-05, 5.5504197640785054e-05, 4.263048843170324e-05, 7.960147876688701e-05], [-3.4857727018079875e-05, -8.44157506660683e-05, 0.00019665560673109175, 5.487640175177188e-05, 5.0490126000322846e-05, -6.350302311545925e-05, 1.5610797456690168e-05, 0.0001256008436088391, -0.00024846608252310367, 6.801763994818572e-06, 0.0002786164048239967, 4.9553496137794644e-05, -0.0004605314506338812, -0.00030126483990112243, 0.00012903576245282023, -0.00019467848308319483, 0.00020061093815061762, -4.970982520324001e-05, -2.0643808160293568e-05, -3.413945316950196e-05, 0.00017317322315951302, -6.536004044536498e-05, -1.984738951072996e-05, 1.7650999684256865e-05, 0.00020039079449287586, -3.943417766799891e-05, -9.650499285602054e-05, -1.2283842397132889e-05, -4.023102370930294e-05, 4.2569360991150795e-05, -9.831636610983867e-07, 7.71742168750116e-05, -0.00030114282105747864, -0.00022201770805010843, -2.1564741515908313e-06, 0.0001086505419783631, 0.00018431367733215043, 1.2750480082744444e-05, 2.1806411074954296e-06, 7.12247902511677e-05, -0.00024033206549051064, 0.00022811915636067537, 0.0006312289665536564, 1.584371940397185e-05, -0.00019079166438549928, -0.00011394933149634095, 1.2207333127317886e-05, 0.00013171798739668227, 0.0001480978437813175, -0.0002346052422384235, -9.528098047614518e-05, 4.024692204912235e-05, 8.298339572432127e-05, 0.00015177478289732442, 2.1639349049166402e-05, -0.0002323922247139124, -0.00027670661455340387, -0.00021665007925461132, 9.865448733516271e-05, -2.7854507123025086e-05, -1.9500247563737603e-05, 0.00017726128805883534, -5.581134458925498e-05, 9.833740791292345e-05], [0.0001603436861978316, -0.00024949679580496976, -1.4251977834411535e-05, 1.1815484989216384e-05, 3.72808670070637e-05, 6.38740869959143e-05, 5.5477638319844624e-05, 0.00016526582022223055, 2.9132289732783763e-05, 2.0848267604674627e-05, -0.00017368428552246094, 8.824167511434352e-05, 5.1015692973374754e-05, -0.0004579901775032671, 0.000295335414377789, -0.00021354170475647907, -4.855488628674847e-05, 6.0803844666843014e-06, 8.746130278043479e-05, 6.405369638046602e-06, -5.600505559869996e-06, -0.00015251637180391622, -0.00013257968543039714, 0.00034321032453070975, -0.00014940554114380248, 0.00010387146030260404, 0.0001721474634665781, -9.871592092995837e-05, -0.00018035734882924784, -0.00017421570574331445, -0.0002501168735931341, 5.3917199750126974e-05, 0.00028786809558773314, 1.954434051367926e-05, -7.330023280596065e-05, -0.00019937583031354942, 6.539569638310036e-05, -1.4718766617805163e-05, 0.0001582596868606808, 0.00010819786839341613, 2.6434609133985803e-05, 2.8912245907430524e-05, 0.00016478258565460642, -0.0001460582549441665, 0.00017660180790718668, -2.2335177099124532e-05, 0.0003356648435513074, 2.0367298165181513e-06, 0.00018303271026924624, 0.0001235941544427277, -0.0002930204955257028, 8.40731512547553e-05, -0.00018250907824751488, -7.266586305787386e-05, -0.00031366287989855997, 0.00028371548217211276, 0.00026518815381609373, 5.017474613118282e-05, 0.0002525718608950308, 0.0001280126918613981, -0.00043059658412030675, -7.2749877054455745e-06, 8.280476298108764e-06, -3.8363961074102515e-05], [0.00021197643274528622, -3.794204196396644e-05, -2.0809477710659343e-05, -0.00012231977180099173, -0.00018654382077453762, -0.00013899689108379988, -6.219624347871501e-05, 0.0001341945049022794, 5.602382095112384e-05, 8.9381926123403e-05, -0.0002229797693627571, 0.0001848811384487242, -9.504987441141281e-05, -0.00016948999801813741, -0.000164611211087121, -6.535512150390019e-05, -0.00019490981284014426, 2.3694919385132818e-06, -6.309475373130324e-05, -1.941600131623858e-05, -0.0001636229124232475, 0.00011321708508441874, 9.395660683273634e-05, 0.00025075692689357023, -0.00014470178890624058, 0.00013504131844706534, -0.00018856765050994498, -6.10822586436962e-05, 7.090837553033589e-05, 4.0245641664838334e-05, -0.00018908383836981638, 0.00010020025951752511, 0.00016262398771560695, -7.210338866684651e-05, -5.567994276945413e-05, -0.00022592267054813496, 0.00016621493627617508, -3.064478656639848e-05, -0.00011711384620468415, 0.00011368199882690386, -0.00016927730482943802, 0.00025834731993677507, 8.145079138989753e-05, -9.449425640675266e-05, -0.00025832300364422823, -6.225832796286853e-05, -1.3077545103761822e-05, 0.0003468605202196293, -3.289451838986531e-05, 0.00025334584165363614, -0.0001488577105870777, -0.0001460516178721615, 5.1999324574709125e-06, -0.00013076767864407814, 4.3533060141804756e-05, -0.0002569541869830404, 7.554486459609239e-05, -8.340535809916346e-05, -6.642322540521645e-05, -6.721589393072331e-06, -0.0002591950915142668, -7.288992563216945e-05, 0.0002352386609733857, -9.513749850328323e-05], [-0.00016183027667342735, 0.0002903747460662005, 2.234249594406156e-05, 7.652810066607599e-05, -6.6871475686778e-05, -9.20475149247508e-05, 5.270239746098677e-05, -9.502973877812834e-05, -3.1614343333843844e-05, -0.00014010127128078593, 5.921331335665859e-05, 0.00016302559236341458, 6.958524417591718e-05, 0.0008299528042764832, 9.931025960493245e-05, -0.000191282985452662, -0.00012293700109376876, -9.043456554553794e-07, 4.978021266489877e-05, 4.980403703387122e-05, -3.8357113031436016e-05, -0.00012676866059708748, 0.00012299953530297083, 0.00012927143247755028, -9.305647948373977e-05, 8.670953016555696e-05, -9.987188995183176e-05, -0.00018667723378389882, 0.00022936313783349343, 3.0341069883563698e-05, 9.987388927355673e-05, 8.857282447795552e-05, 0.00010987479002813143, -0.0001126461584745253, 0.0001140204029406646, 0.00011000508502093497, 0.00014423108152400443, -0.000695893146291705, 0.00036789507081212876, -1.8763045458091728e-05, 2.7179964548703805e-05, 7.517774062241004e-05, -0.00012473462041686945, -0.00012200888710386823, 0.0005010597589554076, -0.0002560635102198585, -7.5834077789467975e-06, -0.000122034151129126, 7.454137220836557e-05, 7.173378784904899e-05, 4.937233896330041e-05, 0.00013453116957089082, -7.639633340988247e-05, 0.00022717414729760688, -5.2812413436345606e-05, 3.832909258721886e-05, -0.00029484793651431287, -9.736841130431119e-05, 4.209450480763595e-05, -0.00010944957079450663, -7.51556295965534e-05, -0.00010319391686517607, 0.00017612935127313986, -0.0001240342283440202], [0.0003495451801213903, -0.00016647393628666023, 0.00019557254798867096, 9.05211040145395e-05, 0.0001571999472054977, -8.177807091955386e-05, 9.05616263986551e-05, -0.0002513012422310865, 8.608593768126796e-05, 3.117270926572086e-05, -8.820379572591498e-06, 0.000282116119447986, 0.00016881832642471047, 0.0013446779586511514, 2.9009165939413204e-06, -0.0002202318763650306, 8.380507116752031e-05, -0.0001013756507959069, 0.0001317135779645619, 0.00022183339051378947, -6.349376371195623e-05, 0.00011505210566983925, -0.000198230788263663, -6.894558711995989e-05, 3.835685422185978e-05, -9.039332223070952e-05, -0.00017243124302310307, 0.00016971190025291596, 0.00017126394127145236, -3.410957477721623e-05, -0.00010428593661799152, 9.139767173587971e-05, 3.4546387811270365e-05, 3.385226255190845e-05, 9.84937619572879e-06, -0.00013569900799331952, 3.460711612983107e-05, -0.0005161534126638109, -0.00017196969816079776, -1.4004184554344663e-05, 0.00011843503414424784, -0.00022259687422261103, 0.00015865986399694784, -3.4133396524926846e-05, 0.0002713525881376357, -0.00010834583611379585, -5.990100420921947e-05, 8.268398153883028e-05, 0.00020199328733894645, -0.0002009008720743228, 5.269721640571701e-06, 0.0002819816945013162, 3.0148713392475698e-05, 5.042447514084216e-05, 0.0001328109590636408, -1.316894423110103e-05, -0.00013738246414796195, 0.000132956387826743, 0.0003004581770722319, 9.411873568971856e-05, -3.083449192242568e-06, 0.00028364310013804497, -5.067373425315317e-05, 1.6422782061813326e-05], [0.00012435220450688646, 0.00017693702164574675, -0.00025868585483404977, 7.919666612116942e-05, 0.00033222089790753244, 8.380235036240872e-05, -0.0004119678895229457, -3.369558911887397e-05, -0.00011953993132172381, -0.0001442683904416127, -1.081858474552372e-05, -5.783856535784146e-05, 2.9703217366442117e-05, 0.00047506284428993647, 0.0001731635591335065, 0.0002853846787027206, 5.614675503298694e-06, 1.603748239482684e-05, -0.00013374491225796636, 5.194551221415766e-06, -8.067180253525541e-05, -8.353432914817648e-05, -1.6100462430180667e-05, 6.8449026297609e-05, 9.503874484501334e-05, -3.6524328222075568e-06, -2.902865039251672e-05, 0.00011031609441887302, -0.00026735269368259525, -0.00014329230451901113, -0.0002843761593113794, -8.857291043498754e-05, 0.00019733743992107647, 0.0001496066966608, -0.00011621771583888985, 0.0001089675750445561, 1.1563153256666063e-06, 0.0005712955831881047, -0.00018761147519762684, 6.401188594575688e-05, 6.275898109603898e-05, -9.184066379499121e-05, -0.00015031796866689227, 0.00010153194090643138, 0.0008307613810272165, -4.006396527002739e-05, 0.00013271948890332278, -2.4589506527596618e-05, 6.37242310781712e-05, 0.00016660614103391328, 0.0003820223241311454, 0.0002639714835422496, 5.9168332999833254e-05, -0.00024399767666260345, 0.0001378953522142692, -3.941968652377199e-05, -9.713951798606923e-05, 0.00026220177895743235, -0.00021798906102783006, -2.3115846405176617e-05, 0.00015843290314066362, -0.00029126644801633105, -0.00010483002120091151, 6.19404522089478e-05], [0.00017808923994092063, -0.00012912648685162105, -2.1145095579150505e-05, -0.0002081215213941908, 0.0001922067742818783, 0.00012504046830766783, -0.00010198169215698659, 0.0001934867895612492, 2.9706474426364625e-05, 1.4454723016691311e-05, -0.00016486101856092684, -3.313311523429137e-06, -0.00022202578716382416, -0.00039935274679138845, 0.00015397597005961251, 8.78408750348783e-06, -4.488559078780717e-05, 4.329828357725031e-05, 0.00017367258936909694, 0.00013908116351620952, -4.2187484710964245e-05, -0.00011896095014723388, -0.00018328137678667414, -7.512126785260247e-06, 0.00022642353850204204, -2.676451511391167e-05, 8.086178784467564e-05, 4.688091640327581e-05, 0.00011996158988198528, -7.018861235567982e-05, 0.0001321040143885217, -5.426879697651937e-05, 0.00035616441281034435, -0.00019302611811042845, -0.00016168948324211293, 4.652780998597629e-05, -0.00014836306927646967, -0.00021459762816734525, -0.00025469771785988684, -0.00043481290112910533, 0.00015335844144548564, 0.00022431667340656842, 4.8939876837481224e-05, 4.8464392674323574e-05, 0.00037829969390478597, -9.853722323225605e-05, 1.0698331653155607e-05, -4.4023571564961954e-05, -4.525648274270718e-05, -5.5739601599501365e-05, 6.471293297212553e-05, -7.890492514824798e-05, -0.00014589141558791477, -7.488621911602649e-05, -0.00042298187811255734, 0.00018872269232496827, -1.0177123193285157e-06, 7.560370976796731e-05, -4.7619691326175064e-05, 0.0001853845125607816, -1.1016478907878582e-05, 0.00010635300554305263, -0.00013100660730877282, -0.00018479860846744019], [7.931166461218557e-05, -0.00015533014587117768, 0.0001224712895702873, -2.8630091240717132e-05, -1.5538205189456042e-05, 0.0001386515551198621, 0.0001585978162591784, 3.010337252102353e-05, -8.365788005501732e-05, -0.00010438111717905841, 4.026437565628915e-05, 3.669377881894241e-06, -0.00018166387524222672, 0.0005133508251687267, -2.4102832228582815e-06, 1.0993204036341643e-05, -0.0001598860149998774, -3.941907331554532e-05, 4.3806873718815e-05, 5.953841758284297e-05, 0.0001844400906366489, -7.567562631686923e-05, 3.351762697213367e-05, -0.0001335564152864291, 4.741048249067711e-05, 7.190333004022645e-05, -6.403848861834068e-05, 2.919046371543523e-05, -5.028706860706706e-06, -3.44567257559438e-05, 0.00029603239937611096, 0.00028803454802684694, 8.436127609734823e-05, -4.704935290708435e-06, 1.6807779210820762e-05, -0.0002600144053838317, -3.261892410302778e-07, -0.00035398276145974023, -8.034726711114364e-05, -8.139898987084601e-05, 5.8891803088463016e-06, -0.00012649146826120925, 0.00023657535085150783, 0.0001367290608055794, 0.000596591887910304, -8.878060598507966e-05, 8.79030459976795e-05, -6.970099477313297e-05, -0.0001452193975764045, -0.00035636440119117297, -6.833127067192137e-05, -6.114917692410265e-05, 0.00012196257426913653, -3.3998800265926235e-05, -0.00010384930984358006, -0.00012220621084665673, -0.00026967591460683366, -5.254068121966966e-05, 7.791844422964536e-06, -0.00018841978418781305, -0.0001291358725765233, -7.865702938171241e-05, 4.032528536201748e-06, -0.000273877357235323], [9.736084322495698e-05, 0.00028628687263000023, 2.336787410091385e-05, -0.00012158461630351124, -0.00019811322776327976, -5.5740795695386063e-05, 0.00012167119835406953, 9.863392865940949e-05, -8.723709478658398e-05, -3.45436940618512e-05, -5.5301065595819024e-05, -1.1699473550653088e-05, 0.00014743079498191845, 0.0007677462217665315, 0.00017016190196937568, 7.288151549763749e-05, 0.00011832626621925558, 0.00017407487632969815, -0.00025001746920841946, 0.00012713409007845066, 0.00022693609700068175, -0.00017454209645423828, -1.4949400447527225e-05, 0.0002430800853589234, -0.00016878932521077468, 8.401705385349536e-05, -0.00015195527409984471, 0.00015343648149010377, -5.1073707671883635e-05, -0.00019538339819522452, 0.0001379527922767581, -6.448126195015622e-05, -0.00016788258519165962, -9.75741035984104e-05, -2.3640414085428135e-05, -0.00021640987461376044, -0.0001946989731080447, -0.0005510288337711475, -0.00029358456796197134, 0.00030337969905178434, 0.00018970914798056886, -4.839460254122874e-05, -0.0002514625480567043, -4.016788107158317e-05, -0.004933085884371759, 5.1414667723868635e-05, 0.00010235151480771542, -4.009626924976673e-05, 0.00017810589319320225, 7.524407076797027e-05, 0.00020562173141092498, -4.6637676581757065e-05, 7.220291165581305e-05, 3.068483969176856e-05, 3.171142686097555e-05, 0.00023819545490342032, 2.2701949897259705e-05, 3.576394321245191e-05, -5.804297322083656e-05, -4.6388837432631226e-05, -7.402305228195735e-05, 2.8801868120849076e-05, -0.00011251143954561302, -0.00011014737597164934], [0.00010288644140315732, -0.00018124720889816853, 6.152787056190682e-05, 1.6193721977866623e-05, 0.00016305965693237516, 0.00010519515202478572, -0.00013735300977174775, 8.885202380480186e-05, 0.00014845019373014212, -9.191591554585433e-05, 0.00016679770843607152, 6.992916151554741e-05, -5.7465178912036126e-05, -0.0006454957884087783, 8.100432564817473e-05, 1.7120135412052528e-06, 5.164546271556558e-05, 0.00011990256123024239, 0.00015214659829825532, -0.0003233614570545976, -0.0001061195904777704, -2.6409784628891947e-05, 8.304032297405564e-05, -8.702412062149814e-05, 0.0001121081320248359, -3.1852434918353704e-05, -0.00015307178690286558, 0.00014912092541967582, -5.0043283357606505e-06, -0.00019510562251576853, 0.00011884121855156768, -9.221302024991907e-05, 0.00021080034316662557, -6.482758727657402e-05, 0.00011521307021513528, 1.6007536051561034e-05, 5.37584746900849e-05, 0.0015369936607949042, 0.0001485851741782684, 0.00018011444743655855, -8.727639527849866e-05, 0.00020053577423186067, 0.00016940100053213137, -0.0001729010574284263, 0.0009279388603227912, -0.00013733050484060288, -0.00014329580300127522, 7.309423204622032e-05, -4.309020781571255e-05, -3.091098097381501e-05, -3.7435380588908773e-05, 0.00022454542565014863, 4.5864995974691345e-07, -6.794151627067079e-05, -9.263846116331e-06, -7.55647951478534e-05, -0.0002693499323028572, 0.00013173262291430043, -0.00017710576046313918, 2.312521504437763e-05, 0.00023032925220172227, 0.00022914335314685422, 3.849060069503872e-06, 8.865743646565744e-05], [0.0001493901897397151, -0.00012484875808152843, -5.0130863734548595e-05, 7.075304414618137e-05, 0.00013241053980764673, -5.870288835676903e-06, 0.00010712784862116801, 0.0001021569072545569, -3.876167530818726e-05, 0.00010299105941573349, 3.678697839973072e-05, -4.499738322633367e-05, 0.00012901447568953816, -0.0004882563205579956, 2.4118793480350112e-05, -0.0002608261216778525, -0.00026448667404069097, 0.00015009231125706244, 0.0002382773400724658, -5.673029004429713e-05, 0.0001657628436029151, 4.864713340277947e-05, 0.00013212260797168925, 0.00015205667846098934, -0.0001610953153356147, 6.698934586149982e-05, -9.631996474924352e-05, -1.4914517110075097e-06, 8.23457772571984e-05, 6.35055432854488e-05, 0.00016197063152632721, -0.000285914910552605, 8.208441269562521e-05, -1.6511145918271855e-05, 2.331717437697569e-05, -0.0001187435952006243, 9.718595219173231e-05, -0.0002848827663175705, -0.0001509574349159863, -3.2920194276746996e-05, 0.00019014031208641608, -0.00013272043859061076, -7.615041977515006e-05, -0.00014926657537901576, 0.0003681246753371964, 0.00028351970175862385, -0.0001097740584723741, -1.9504634101914607e-05, -0.000450434173925316, -0.00013328696652862296, -0.00013574397467936594, -0.00011531408608118018, 0.00014599675373168944, 4.258177883545241e-05, -1.1971476629265635e-05, -3.981263169167044e-05, 6.425743596406874e-05, 8.291066766824638e-05, -2.726500678355198e-05, 0.00014386170816677306, 1.6239458151027456e-05, 0.0001133670843306611, -8.125557655852482e-05, -7.64039644817372e-05], [0.00018667603238812548, 0.00024319150797846685, 2.6256142541917777e-05, -0.00016965190169170586, 0.00014168811270269413, -1.3861166351738152e-05, 6.338794841398039e-05, 0.00015636261642128636, -8.191811910710585e-05, 4.331145993211348e-05, -2.7005032530140118e-05, 3.7273926353060226e-05, 1.1228827727104084e-05, -0.00040516101129732486, -1.9544019818226305e-07, -8.032381129867568e-05, -0.0001690427032257125, 1.809339478447191e-05, -5.819277405043761e-05, -0.0001709790077686325, 7.834970252342557e-05, -1.6914981143586143e-05, -0.00011005597009408662, -0.00011872649534964196, 1.3557817698069302e-05, 6.846364039760642e-05, 0.00019939263538940906, -9.933564900247646e-05, 4.321795654258658e-05, -6.612961832995632e-05, 0.00010429292096001825, -6.950700769277901e-05, 3.32413380218492e-05, 6.56783553587023e-05, -8.750335469228762e-05, -0.00029429240004032024, -8.461188723116268e-05, 0.0017863279612432502, -0.00013852235591575615, 5.6460052430284464e-05, 0.0002825881422975207, -6.988687301113208e-05, 7.302305096985916e-06, -0.00020903444627634076, 0.000695315666627926, 0.00018406518813246213, 0.0002382721667986755, -9.503153052196091e-05, 4.052912631258477e-05, 2.659108083722166e-05, -3.548362462361352e-06, 0.00016445373324882153, -0.000135929624033348, 0.00016259457740213005, -0.00018709888439595124, -0.0001159188380598041, 0.00011571320654126461, -0.00024282074868355716, -4.213449343895106e-05, -6.806624746315756e-05, -0.0002218003992429561, 4.8729594710602515e-05, -2.4648582049866785e-06, -0.0001258146220118342], [4.809486953056578e-06, -0.0002413957435562587, -0.00012519751762060573, 1.8312301041217267e-05, -7.821407050355577e-05, -0.00017900055994484552, -0.00018386414302212125, 5.008288272943846e-07, -7.3729942084564e-05, 4.668179924224172e-05, 0.00022131633200429216, 9.242807194169405e-05, -7.187121269072402e-05, -0.0005250514164172815, -0.00042386455493959783, -8.99913869497363e-05, -0.00017166911067958526, 0.00014193135495805653, -2.777530362957783e-05, -0.0001088714087371568, -6.946783972271706e-05, -2.758451183359524e-05, -0.00025831739511787704, -0.00015418502530500832, 6.892147801110748e-05, 2.5153159169726886e-06, -7.901615977459406e-05, 0.0001565965866272664, 5.567476346663112e-05, -4.449465509796505e-05, -9.919921132039355e-06, 0.0002908656078515286, -6.704375271008473e-05, 7.442953287330374e-05, -5.4186541923160175e-05, 0.00017721313679114838, -2.8005936704177318e-05, -0.0007231347964405239, 0.0001401714301146241, -5.733589115396286e-05, -5.996861818243111e-05, -0.0001488099084948405, -5.18492366944973e-05, -5.6318353775691534e-05, 0.0005763475706777587, -5.47076140663467e-05, -2.4661436385445174e-05, -7.017879412915189e-05, -2.2175157138635976e-05, 1.7729643878593976e-05, 1.5417919807733064e-05, 8.869041802342216e-05, -4.905278136035831e-06, 0.0001221837736957195, 0.00011664005236215565, -0.00014338885883206638, 0.00016192136740401328, 1.5125957730102867e-05, 0.00013996342481794688, 4.7303323988963456e-05, 0.00010064289730526585, 1.8122778624143012e-05, 8.405798816493658e-05, -0.00012927739251780528], [-9.842100286151014e-05, -9.035490910141221e-05, -2.2326103488105024e-06, -4.808936563371099e-06, 0.0001399702673459208, 7.042730776902307e-05, 0.0001077369192226159, -0.0001079637095070973, -9.833217963636053e-05, 3.209431469434542e-05, 2.507484315907813e-05, -9.294415282483107e-05, 4.762935131668004e-05, 3.579063370783531e-05, -5.095679082406359e-05, 0.0001082764597200169, -0.00027949576178725924, -0.00033825448824651886, 1.981277982167981e-06, 5.663293754548486e-05, 3.3240336864126315e-05, 0.00018594766225435726, -0.00018703516807426075, -7.459426647728781e-06, -2.2265437320080205e-05, 1.585901494540836e-05, -0.00012988383067770288, -9.33653362756342e-05, 3.711899848638932e-05, 0.00024373126035664747, 6.7921439039138286e-06, -0.0001023728280497287, -0.00017881369650633446, -0.000300803467856095, 2.41205320525484e-05, -0.0001432830676248124, -5.41255006532654e-05, 0.00017308713272581565, -7.756287085293462e-05, -0.00016838357322305396, -2.6147989448163043e-05, 0.00025908537871467924, -6.247571045137994e-05, 9.715996450219206e-05, 0.0003727030811461261, 0.00016513835305402607, -0.00017532259439455788, -7.910646490967033e-06, 0.00030533392709320193, -0.00011035119460295586, 0.00023705646836958837, -0.00015430812274593408, -2.405249073751099e-05, -0.00012358025303522258, 0.00028367348075854346, -0.00013763372539274572, 0.00020857974176408646, -0.00015540824420819487, 2.7582915301337606e-05, -0.0002722556417060055, 0.0002406364478957995, -0.0001305214555234766, -0.00012335189379340355, 0.0001766355962908964], [9.054242582602636e-05, 1.4655341264216133e-06, 0.00012954725294302117, -8.813932578542382e-05, -0.00017980758527996147, 7.966479916258581e-05, -3.326205172208641e-05, 0.0001449450959102697, -0.0003075253200479156, -2.3496506701996327e-05, 1.865993851463138e-05, 3.1512849813435434e-05, 3.4241503018751055e-06, 0.0003219935492845178, -5.070045290203392e-05, 2.4146613324635893e-05, -6.513033035862684e-05, 4.337467263996602e-05, -5.678724777889725e-05, 0.00040345049714454127, 1.62852222814477e-05, 9.864082938124121e-05, -7.534865930404868e-05, 1.2940428307021151e-05, -2.8964745650503313e-05, 0.0001218750954298378, 6.157220138383715e-05, 8.187645740602087e-05, -6.384784570878665e-05, 0.00010228869146089209, 7.587745551924127e-05, -4.240463047316167e-05, -0.0001963794278217105, -0.0001347105972533512, -9.710964628746848e-06, 4.443008087049528e-06, 0.00043467360009496694, -8.608928839815849e-06, -3.569967060789479e-05, -0.00034153445638975487, -0.0003865253887677395, 4.5879722875314646e-05, 0.0002694749289785345, 9.666858089054452e-05, 5.0878701802042664e-05, 0.0001641891343034884, -8.596961396581295e-05, -0.0002207199611056264, 0.00023527156859970452, 0.0001319437096156278, 7.819032942485115e-05, 0.0001418021165533499, 3.285382563539754e-05, -0.00031890200161186914, -0.00015363750440279173, 0.00013177948419952, 0.00023650935900886998, -6.772107465868116e-06, 2.3006848907971045e-06, -0.00014508022859277433, -0.00010384361295737752, -1.7843925209842034e-05, 6.232213088624652e-05, 6.890550784042883e-05], [0.00013515288210470523, -5.6320701375856566e-05, 0.0002824005729634054, 7.305180959648976e-05, 3.3557867780143524e-06, 0.0001274269844108395, -0.00016763043539291334, 6.984059841221564e-05, 0.00016022016198862215, 0.00017274920538642419, 1.136208603865224e-05, 0.000153465414753665, 0.0001225992449148251, 0.00017223338101677116, 4.35776180322849e-05, -8.90634914164607e-05, -0.00015395308176060628, 0.00011049289691856173, -3.901129002380553e-05, -0.00017366020158741935, 8.922851737112474e-06, 4.849752788791209e-05, 5.0310351680739785e-05, 8.40122536489348e-06, 5.0387155736596366e-05, 0.00010183663524971243, 0.00012810991559746352, 8.228204628147654e-06, -2.4276292202542445e-05, 0.0001247093154522917, 1.3642565658851074e-05, -6.980009488816723e-05, 0.00011933918903329556, -0.00011164241022567023, -7.193111055019689e-05, 8.944130983078417e-05, -0.00014488990419992166, 0.000150815860290838, 0.00019736748353818936, -9.447197636632275e-05, 1.1112745865606309e-05, -9.807714545862158e-05, -0.00014433462109100597, -9.712837823978102e-05, 6.557910005987398e-05, -0.00014862577356120543, -0.00011089009798530584, -0.00010785654383286578, -6.813118011229612e-05, 0.0001257734224663694, 0.0001553517613771245, -8.645101307878014e-05, 6.95673870717721e-05, 4.384246119570127e-05, 0.0006241897308419351, -4.194733082104254e-05, 0.0001572904237356376, 0.0002496345353676495, 6.473483954230713e-05, 3.79359086087627e-05, -2.3813060036928835e-05, 4.9417838301792815e-05, -0.00018840206952019925, 0.00025358770013040097], [-0.0001844552473587645, -0.00017153924170432136, 8.841712089813255e-06, -7.512266062877985e-05, 5.0918902923815444e-05, -1.6399891602149475e-05, -0.00010896603972677267, 0.00019575315599099495, -0.0003119941685533211, -0.00025854333140382595, -0.00016894165848028222, -0.00013255853630780116, 0.0002698738807535041, 0.00023930093895782167, 0.00010369359283366552, -8.200392055455249e-05, 0.0003040000468967271, -0.0001456522467375803, -3.500728376912247e-05, 0.00015760121886434727, 0.0001356903265031849, -4.4367649127282664e-05, 0.00024342779707946948, -0.00019528471614647263, 0.0003072114462049639, 0.00014731963106760388, -1.4975954756926973e-06, 7.595048854929602e-05, -2.0367455690607417e-05, 7.010522686028028e-05, -0.00030276324457666106, 1.8008504398319628e-06, -6.154139900187169e-05, -0.00012487822493076665, 6.630823217081933e-05, 9.3204099466642e-05, 3.84440382994866e-05, -0.00019816477409921517, -4.736866998667253e-06, 0.00028887439270924273, 0.00011420791112311498, 0.00017099031658972412, -8.565969859221137e-05, -0.0002898753588169256, 0.00024083527903606108, -9.699401215203674e-05, -1.3945752360169312e-05, -0.00031946350246493866, 0.00027575103606915664, 3.840833820093342e-05, 2.588351104397074e-05, 0.0003135156140824977, 0.00012968449398334446, -3.14794259749226e-05, 0.0001800443370486971, -3.505797941161278e-05, 3.602078164469436e-05, 1.4761884237387781e-05, 0.00014116124329734828, 0.00012729464060395624, -0.00014604438977784814, 0.00019453860361979655, 8.892875652223655e-05, -0.00013669119084279305], [0.00011405312314676277, 2.1711758912117146e-05, -0.00011967754302734527, 0.0001885430202174479, 0.0002134172048207678, -7.346700555598867e-05, 2.388631216343465e-05, -1.5453982875442746e-05, 3.0303792747927264e-05, 0.00031242234708161787, 0.00030236571036351483, -0.00012509281264600484, 3.619670381726619e-06, -0.0007270578020883356, 8.286308793498606e-05, -3.0748980072179603e-06, 0.00022442258497869035, -4.735632398949292e-05, 8.091316644149247e-05, 0.00018270384882243691, -1.0468892406747643e-07, 9.317608566182898e-05, -0.00013908763898033807, 0.00026791130651781316, 3.18946927631419e-05, 2.751731309776176e-05, 0.00011254321330525343, 1.929864671961748e-05, 6.6214287173725595e-06, 9.794753986913937e-05, 6.24923204872071e-05, -0.00011120483144448661, 7.771492677166863e-05, 4.54850541550102e-06, 0.0001648844748613723, 0.00011070280409335749, -0.00015494501722127137, 2.5636009975114894e-05, 0.00017624457291136734, -0.00011236611523575292, -0.00010041423483214644, -6.542783410173105e-05, -4.710923075286954e-05, -0.000170342244063933, 0.00017496559391791308, -3.7451629265082225e-05, -0.0002351586151838655, 0.00013627147125474626, -0.0003058392530141542, -7.269097227436189e-05, 9.707896045157872e-07, 5.9738741904760665e-05, -4.3453448738680565e-05, 5.9147058900588286e-05, 9.41109714925266e-06, -0.0002454914574914081, -0.00016554299969336403, 0.00010321912485391504, 1.4652149201530045e-05, 2.732684146649352e-05, -5.330213330645333e-05, 4.9186271141951366e-05, -0.00011265023423266872, 3.973209348855739e-05], [0.00011130551697442721, -3.3712899236810054e-05, -0.00014625785257306, 1.7547575779045515e-05, 6.996112951459606e-06, 0.00015226483727965074, 0.00014287847477094707, 5.62971244904573e-05, 1.360435726694184e-05, -6.0209038724713085e-05, 0.00020360236213872894, -0.0001476615619315341, 0.00011609040940919655, -0.0007402580094540994, -4.770683680925216e-05, 0.00016955091702815423, 0.00016770025520853585, -2.810157433905175e-05, -0.0004414400360025092, 0.00011950073101969946, 0.00021967571087301525, 0.0001489248485705538, 0.00022092924334507862, -8.276523703038726e-05, 1.7108861169826638e-05, -0.00017244489676636047, 8.962252367144687e-05, -8.525008171594724e-05, -0.00011061618630817889, 6.712470604093019e-05, 9.630504914598378e-05, 7.679008459436343e-05, -6.442416215237691e-05, 3.701371546159792e-05, 0.00011910906951301096, 0.00012820221012693503, 8.280070859979159e-05, 3.955507209940041e-05, -0.00020644247617922966, -3.928728510642796e-06, -0.0001380348332909843, 5.889655924410602e-05, -2.1782626977181824e-05, 9.620504481944311e-05, 0.00017664265694742405, 6.202214470387379e-05, -0.000294013548207745, 0.00010354583463709046, -0.0001911438502410223, -9.796343064582285e-05, -0.00010268705605338326, 1.9211328992091805e-05, -9.318481269053128e-05, 0.00013963971706749953, -4.1196820174879296e-05, 0.0001315712176018526, -0.00017892530452746694, 0.000273396716708747, 0.0003396684687841389, 0.00013680253126237683, -7.409013836269247e-05, 0.00016810770167962946, 0.00011469480949184936, -0.00011094803316596597], [9.187165529404098e-05, -0.00019864621128022711, -1.0604398706291004e-05, 1.0303127897157274e-06, 5.907048666623212e-05, 8.68299183732203e-05, -3.872437549867368e-05, -0.00015593253220487916, -0.00013633228845049816, -3.8136763203879254e-05, -0.00015878984047511122, -0.0001930311956053188, 6.272487061135241e-05, 7.170993549705851e-05, -6.516340245866424e-05, -8.067559319748244e-05, 0.0002539866910581634, -4.6838189626099797e-07, 0.0001664448422105839, 9.647978919213887e-05, -4.126984366760614e-05, 1.5913777932707532e-06, 0.00011987542150333022, -0.0001324510830485026, 0.00022937146688988003, 4.0330883465199396e-05, -2.978081012958816e-05, -0.00010031043424751598, 0.00014270446855546646, -0.0002057618451249801, -8.965226540988386e-05, 0.00014771539394339923, -0.0003885189478117265, -0.00016052127804260492, -0.00012659785573981153, -6.754183992130236e-05, 0.00013795058201264136, -0.0002836519091061013, 0.00013939228720672534, 8.94087504168176e-05, -3.2808555948416353e-05, -0.0001035665912686332, 0.0002718780882847768, 6.512444579726261e-05, -2.2155369094474297e-05, 1.9202663435413157e-05, -0.00036845043593326793, -0.0001256753773966247, -0.0002014479009783019, -9.049650083993869e-05, 8.045686710078052e-06, 1.0199869859581278e-05, -9.910028448666793e-05, 6.611840338831653e-05, -0.0001160228402205179, 0.00012888398023217363, 0.00015850787689308826, -0.00019833649220884797, -6.313508391440166e-05, -7.551978783231724e-05, -3.0264056779315218e-05, 6.45127942649e-05, 2.811903353336812e-05, 0.00015001496238436097], [-2.4849368533557694e-06, 0.00013176588384178426, 6.654881341291741e-05, 0.00010326478109783549, 0.00013086848078507242, -0.00011940366082474632, -2.3240550770430376e-06, -0.00010036030348664866, -7.050560944188876e-05, 6.426653603254436e-05, 4.083305882459418e-05, -0.00016604414108322584, 5.283077156484039e-05, -0.00027601017132512215, 5.1023369971723304e-05, 0.00014212572334447316, -0.0004901016791745123, 0.0003243957388545627, -0.00016838447603765888, 8.061618602457326e-05, 4.032547341842712e-06, 8.057567230995455e-05, 0.0002119060983299664, 1.0107105297479805e-05, -7.107008971869148e-05, 0.00016976397109666827, 9.898625023624608e-05, -3.510442809659818e-05, 0.00019441845681706833, -2.1749542852606696e-05, 0.00014547139434260874, 0.00012637597942763263, -9.72689872944998e-07, -0.00028848597809833236, 3.0145174966749677e-05, -7.125692512545764e-05, -6.595370601621258e-05, 0.0001539620091876884, 0.00017659278419421807, -0.00014513978304597048, -4.224187907564148e-05, -3.9893657734109804e-05, -0.00014000230093119296, 6.505434599702152e-05, 0.00014193016875661466, 0.00016250112654641338, 4.977124137787032e-05, 0.000437072350929747, -2.639606269448724e-05, -1.2091493482845912e-05, 3.3995917242627e-08, 1.2859030621361007e-05, 1.4418279500337435e-06, 5.838059862610587e-05, 0.00041656688303045637, 0.00011441935888993574, -1.2840779609594606e-05, -8.36989629140557e-06, 0.0001415298287946557, -0.0001201237062307453, 5.8851857273334985e-05, -0.00012190978236504807, -0.00015272003873291674, 6.564895774111297e-05], [-8.323808105996873e-05, 3.133479814708008e-05, -0.00024249483046502344, -9.265180616202244e-05, -0.0002168453784367013, -3.5502157244012055e-05, 8.106194943246298e-05, -0.00014470173520791967, -0.00025565647375816783, -5.859623485443883e-05, -8.865336771001694e-05, 6.353653627842805e-05, 8.944317770001597e-06, -0.0007396445554832494, 1.339579645642382e-05, 0.00014563016077770463, 0.00010585786745332125, 0.00043956531902942305, 1.9373185921776434e-05, -0.00016960322536482226, 9.535321802582947e-05, -0.0001134813460820159, 4.1841103436399834e-05, 7.140559940119027e-05, -9.108270465534948e-05, 0.00017823936774414754, 0.00013516705700468158, 0.0002020406999563489, 8.319633171235933e-05, 6.609367621700994e-05, -1.5263424902672996e-05, 7.994745631760994e-05, 0.0002036338879358307, -0.000248524820837243, -0.0002082916734452451, -0.0001273733611905564, 0.00012931704720771923, -0.00012006624603220077, -4.3896493086351644e-05, 3.195429670030563e-05, 2.7095694515066372e-05, -0.00018670074785928252, -5.643156218675013e-06, -6.0479901427370764e-05, 0.0003969305551586861, 3.2485989286555146e-05, 1.3257052401620971e-05, -0.00014986191477413618, 1.0920962707263636e-05, 2.9044118479226594e-06, -0.0002519048599722472, -0.00011265532840622116, -5.446049448811678e-05, 3.7879778099187486e-05, 0.00018160628509431085, -2.2138866138763993e-05, -9.540030131379721e-05, 8.173585643084805e-05, -0.00019239229755056518, -0.00014637576234257095, -5.147672407932568e-05, 0.00017248371701032692, -0.00017794499894732116, 4.056911487005071e-05], [0.0001340626019644259, -1.2528858898505472e-05, -2.224802429940649e-05, 0.00014564892879680174, 7.35487629794545e-05, -6.172316811464611e-05, -0.00013320816803644094, -0.00011290163823489039, 0.00020633918554430818, 0.00019117303432120088, -0.00014314357486288845, -1.2848389003668609e-05, 2.4544568482869076e-05, -9.431904210135687e-05, -0.00011080369903984439, -8.305198904965559e-05, 8.109548675956685e-05, 0.00014866405057823435, -0.00014348564080363842, 7.492674071383839e-05, 5.92755778889935e-05, 9.993998638980052e-05, 0.0001282969967523558, -2.3712508141526435e-05, 1.9293048526597406e-05, 3.1435338571933605e-05, 0.0002404314747216578, -0.0002089020093182721, 4.63870079039697e-05, -0.0001127029732615915, 0.0001399440949069197, 0.00017724455180218263, 0.00010135267109702765, -8.42418606622585e-05, 3.356547539593624e-06, -0.0002179952073693888, -9.259791411152372e-05, -0.00016518408617786532, -7.633932392789468e-06, 0.00010570503821205223, -2.986720636753456e-05, 0.0003781749507386012, -0.00016502706528079367, -0.00011151650719364188, 0.00011323990684032194, 0.0002468945143675054, 0.00015866841091260854, -5.647137474806647e-05, 0.0001521034514764848, 6.48472180378822e-05, -5.06889041036453e-05, 0.0002363081813286697, -6.24361806329016e-05, -3.215298349101825e-05, 5.8882923565515985e-05, 1.7838703644831774e-05, 0.00016714131520299927, 1.791774370542378e-05, 6.16623713973621e-05, -0.000188937695219551, -0.00019694943524003894, -0.0004762720618257763, -3.2611172254306105e-06, 0.00013633205865052166], [0.00011360078197386193, 3.846219686539771e-05, -0.0001163873370884403, 5.7558703590320425e-05, -2.6827559392892433e-05, 0.00010528590959085835, -4.05565672450382e-05, 0.00012819324943929807, -2.6614062305405206e-05, -0.00026024889083911215, 3.508272553960935e-05, -7.640422153438708e-06, -6.0490339434044076e-05, -0.0005941569901184964, 0.00011456824163555772, -9.519325021204273e-05, -0.0001401975175260308, -5.077128345569744e-05, 0.00010693706315255768, -0.00016313988120262598, 1.1958194884471919e-05, -0.00010702869482382137, 7.877005820379064e-05, -0.00016334854781060534, 0.00016600794005542592, 0.00018668820851533115, -4.364694037810429e-05, -5.7258797172049454e-05, -7.176717306960046e-06, 4.616977692428437e-05, 8.985865813098751e-05, -0.00014631247662998055, -6.560602584328694e-05, 2.9644434148692697e-05, 0.0001456683360551274, 8.681157473223861e-05, -1.3378328387925217e-05, 0.00023850604868988132, -0.00010508559779028905, -4.832415778530851e-05, 7.417754101364722e-05, -9.336698645341227e-05, -0.00019299098760419654, 9.566306912109086e-07, 0.0001025730270835079, -0.00015467882453762557, 0.0001443305751135142, -9.322579231619074e-05, -0.00016824639097694062, 5.980849776962201e-05, -9.60958431387846e-06, 3.393870779577892e-05, 2.9534108722941652e-05, 0.0001428718002703278, 0.0001257486662206672, 0.00012023788680413434, -3.5745670207589964e-05, 0.0001899498463385434, 5.749574556322645e-05, -4.6762340368513116e-05, 0.00015346878583526378, -1.165752755418285e-06, 0.00012434629138592923, 0.00019245419043779346], [-1.0681919290753514e-05, -0.00010484122386613679, -4.334496828276752e-05, 0.0002290940605982705, 0.00015111512576292154, -2.9624144859705692e-05, 3.86186687298539e-05, -0.00010300079810205583, -0.00031253314910926886, 0.00017302595987907544, 7.534725910550476e-05, -2.5292403504685564e-05, 7.291583883598829e-05, -0.0002635400433841923, -0.00014433729302311112, 0.00018609468657143605, 1.786307934530809e-05, -9.842839417171301e-05, -0.00021154361017132196, 0.0001279795393621847, 5.706047466920716e-05, 0.00013020991736774706, -8.145028875441223e-05, 4.208133385176137e-05, 7.34065849538398e-05, 4.7421728078649174e-05, 0.00010222856510400673, -5.396340001121778e-05, -0.00023464206550828545, 8.824038186592165e-05, -0.00013958999782893614, 5.939754704144636e-06, -3.376690030111186e-05, -9.176898946802929e-05, 9.458654218393359e-05, 0.0001018437141231139, 0.00017816365818953232, -3.813857068307067e-05, 0.00013868801247355586, 0.0003219807702668915, 5.811416913257266e-05, 0.00023279839278985722, -5.712751379910336e-05, 3.340021375836168e-05, -0.00011580576988450773, -6.78117886800301e-05, -0.00012593267342145555, 1.1924162105197968e-05, 3.51224907233541e-05, 3.338930294778795e-05, -0.00017029438343245775, 6.523969180399346e-05, 9.533401881243245e-05, 3.495928997455633e-05, 0.00018347989645301955, 9.282999780090221e-05, 5.427060562754072e-06, 0.0002993158296461998, 0.00013834504856793378, -7.027200283099304e-05, -7.815118499398909e-05, -3.0026062210260516e-05, -0.00032777747786990664, -0.0001284915863527296], [-1.0159515807002263e-06, 7.891223519354811e-05, -0.00014898398436735666, 0.00012019127464065232, 0.00017634239420736753, 0.00015718714635242062, 6.351645948151472e-05, -0.0001469121666139519, 0.0002204139221173407, 4.0633516266787095e-05, 4.538817315410128e-05, -0.00042439256832437107, 1.639382008493366e-05, 0.00010983537095071426, 2.413510299709051e-05, -0.00023592030542924565, 0.00014897481221647985, 1.1990204375984112e-05, -0.0001559225934381484, -3.6162667319384386e-05, 0.00021955042623787317, 4.616566033741477e-05, 7.186105986546467e-05, 0.0002878768087130344, 0.0003004486845565434, -0.0001547779488606723, -5.0005548833563564e-05, 6.293185899863642e-05, -0.00010707762704180955, -3.1497460125567896e-06, -0.00021056662355830073, 7.77463134120717e-05, 0.00019336616662743165, -0.00012611536390195235, 0.00010703078990163467, 3.460279961982911e-05, -9.934521939332881e-05, 1.713800390083707e-05, 3.887514155000229e-05, 0.0002011707994980094, 7.340299636539073e-05, 9.38823640182471e-06, 0.0001317659246331004, 1.6793776196834427e-05, -0.0001449937116704612, -0.00027207150280417355, -4.541944936632536e-05, 8.013945748684356e-06, -0.00015284591434313216, 0.00011356125998131675, 0.00012301983661352144, 6.122164282180992e-06, 0.00019333634830487562, 0.0003067284975432082, -2.8800180508286516e-05, 0.00015662771418274086, 0.0001271345726111983, 0.00012160383017492122, 0.00010498370504775147, -0.00028132607168013707, 5.286721198195989e-05, 4.662416157264986e-05, 0.000166689808588715, -8.029634043033536e-05], [0.00011439105444598958, 5.412108140852561e-05, -0.00011716936860409248, -0.00015601475500326645, 9.817196090748663e-05, 7.221543649674748e-06, -6.024135283433531e-05, -2.1632162720264867e-05, -0.00022131856834996954, -0.00014745442194439215, -2.3442851236018397e-05, 7.113499560462356e-05, -0.00010945321831222416, -0.00026402421144705113, -5.5505087626713893e-05, 3.062517313466854e-05, 6.083804599807418e-05, -2.404100713023852e-05, -0.0002583254966967464, -6.682606266755002e-05, -0.0001271647674662375, 0.0001768501782932164, -0.00011111602160536463, 4.6421602433919395e-05, -0.00012984130127373632, 9.576992661711318e-05, 7.261137749228751e-05, 0.00018575933188607512, -4.4629708288737525e-05, 0.0001496019611705954, -0.00038669491497095597, 0.0002673629420009997, 0.00012298544147559118, -0.00015349892190022496, 9.161028254897705e-05, 8.912601787929977e-05, 3.3132567977834097e-06, 1.3185819403220545e-05, -2.8665285537019577e-05, -0.00011889827144900661, 0.00019380695169332853, -0.0002375969454575328, -0.0001880290092860971, 0.0001465453042916317, -9.271005496263729e-05, 0.00014776332897351518, -2.4661451022921335e-06, 0.000241725552639597, 0.00014273513016291192, 3.973506041938561e-06, 6.035014254142558e-05, 6.564788853883572e-05, 0.00010431407420406324, 0.00031332744921079016, 7.732766495034972e-05, -0.00015035516120483748, 6.386631555620636e-06, -6.394765961087413e-05, -3.7996363443030385e-06, 0.0001385778728675273, 0.00025382836782403154, -0.00022193604433505456, 1.6708042098970059e-07, 9.960868657676243e-05], [0.0001255058574608174, 0.00034569743617634104, -5.510796417220105e-05, 0.0002593743811887892, -9.184358568938376e-05, -7.763631891352848e-05, -4.135958630510254e-05, 4.230150101352658e-05, -0.00016268823428726645, 0.00017605695417490392, -0.00021233243944558856, 0.0003215596762515162, 5.42539089103312e-05, -2.332604429513722e-05, -0.00026991972905820045, -0.00015691352156776194, -9.17765815621904e-05, 0.00036792104045903586, -0.0002000693880785977, -0.0004362464197950939, -0.000168863200261008, -0.0001737244390007468, -0.00017267894536676602, -0.00019406374731570372, -1.7605653442603587e-05, 0.00019564183344150893, -6.562695394959686e-05, -0.00043641214846906404, 1.5483220298667194e-05, -6.15567019047285e-05, -3.7459447750577766e-05, -1.5963050752161638e-07, 6.266898217978237e-05, 2.137671514266223e-05, -0.00011904834111825191, -5.286643507364957e-05, 9.453538014410386e-05, 0.00011721732347191414, -0.00010482440106308061, 5.609263004910839e-05, 3.129267800653944e-05, -2.5676496723478223e-05, -1.7386236311678653e-05, 0.00021432819720242617, -1.0128297203828817e-05, 1.1701191996316871e-05, 1.6937449319192568e-05, 5.465375468585112e-05, -4.065821524987804e-05, -8.25149472047565e-05, 4.594431635720673e-06, 0.0001710637195244795, -0.0002217880505097046, -0.00020890474459458325, 2.5669175216503037e-05, -0.00012176700617945563, 0.0001450801985520084, 6.358273195756261e-05, -1.0237634236226659e-05, 4.5389469220372025e-05, 4.8992854132688345e-05, 0.000323194008065334, -1.1772141561745116e-05, -8.992261015217863e-05], [-0.00012243621452057035, -1.528738548705004e-05, 0.00012587433332113837, 4.976950649613277e-06, -0.00012147730818772038, -6.92823653576962e-05, 0.00013714392381169747, 1.1724412893897212e-05, -0.00021919730198187751, -2.1077997472113873e-05, 7.679459356906568e-05, -0.0002218753923860663, 0.00032459383294653914, -7.57563830634924e-05, -0.00014647292578005248, -0.00011176489684215589, 0.00022080752863887508, 3.2853184465982845e-05, -0.00023559495360552928, 0.00014211689634749272, -0.0004146283318693342, 0.00034675959131520826, -0.0003055924103628446, 2.5134639070972662e-05, -3.699514496679983e-05, -2.8792855802477744e-05, -8.303632359716389e-05, -8.504465473625915e-05, 4.6808954735755586e-05, -0.00013747436485036973, 7.029167666928053e-05, -0.00019496802255276175, -0.00022147625844890168, -0.0001294766483429248, -0.00019136345899124698, 0.00012587751402562294, -0.00013331905524624672, 0.00011241724271086805, -0.00016812706218139557, 2.8459954962229675e-05, 9.020619624322392e-05, 0.00014116697392141774, -1.3580903604898515e-05, 0.00010084732361767237, 6.872924764856343e-05, -8.248900233626515e-05, -0.000325643812097928, 0.00011257462269623955, 0.0002808532728302014, -0.00018338930397772686, 2.4753468817913105e-05, -4.333023564182752e-05, -0.00022172261914267126, 8.886053000695598e-05, 6.665343931066085e-05, 4.986061839423892e-05, -0.00040057247657750486, 6.491612380933194e-05, -3.698291913160493e-05, -0.0003382835899417936, -3.082010096850131e-05, 5.714132016413899e-05, -0.00021838548785766733, -3.753308504270188e-05], [6.861623204644815e-05, 8.550470207996476e-05, -0.00022199184303592018, 5.0083912746806496e-05, 7.275905287832696e-05, -0.00010439266692585136, -0.00012908370722852875, -8.254766512601298e-05, -4.39033038914125e-05, 0.00014511523849864254, 0.00017777873146295563, 5.714725046453599e-05, 6.956469645004682e-06, 1.733321596856556e-05, -0.00011661432012564579, 0.00010205724415334472, 5.071837858742165e-05, -6.472982636099562e-05, 7.117016439320585e-05, 0.00016733350824749553, -0.00014008943386985688, -6.431006893877536e-05, -0.0001164440834628967, 1.695451530516322e-05, -2.1408599016354906e-05, -9.749609174508788e-05, -9.596257064432719e-05, -0.00022075614586084756, -0.0002703633640376104, -6.0238609354805426e-05, 3.832911418092898e-05, 0.00012461497816792567, -0.00047784563979665095, -0.00013751536398460797, -0.00011308408950759619, -0.00015287094888148545, 0.00018166330435288432, -3.6578392097052364e-06, 2.7652194731278342e-06, 8.545265843472013e-06, 0.00011195990558022641, -0.0003050259083331613, 5.16402592294724e-05, 5.445600158463711e-05, -0.00019602421143789336, 1.6690222554806498e-05, -0.00010753175928998871, 0.00021330241919472536, 3.2397602304953845e-05, 6.157399136519672e-05, -0.00019129892819487516, 0.00015970543325995558, -0.00014207138156041934, 0.00023409245279930725, -4.932739327858591e-05, -0.0002791684902061847, -4.445299004049033e-05, -6.807808724183478e-06, -9.266739010364669e-05, 0.00015641113852364009, -0.000475785306191286, -0.00015237722541753892, 0.00015839327498175555, 1.0555644013676084e-05], [0.00019269654798213088, 0.00010799849339314068, 0.00016633275548058187, 0.00018442288594990787, 6.071247676899043e-05, 6.495888471225126e-05, 0.00012446868354030007, -0.0002024823742671021, 3.16672889162552e-05, -0.00021634137670543713, -0.00013172907203955696, 8.935742038592093e-05, 0.0003802103158356805, -8.60901131269636e-05, 0.00010109504482885376, 2.583584240281016e-05, -3.270927384173183e-05, 0.00010265845904461781, 9.019896388695241e-06, 6.775777436920898e-05, 0.00016518343343043226, -8.609596711054324e-05, 0.00014568200229000787, -0.0002596339707912015, 6.957632560520111e-05, -1.6664131591950825e-05, -0.0004768652735463808, 0.00010513412426138504, 0.00034877104503877783, 0.00023557111333837377, -7.260563639917815e-07, -4.633751198446524e-05, -6.352020009815779e-05, -8.268207893333179e-05, -1.4420517845066877e-05, -7.313421047140488e-05, 1.9021591079109113e-05, 1.398005575538223e-05, -1.8687533715410713e-08, 0.00026692138818025567, -9.902326263403285e-06, 1.1542519914837052e-05, 4.618400050332297e-05, -6.767239584794008e-05, -1.096684740383241e-05, 0.00019572607814104514, -0.00026913154672579976, -3.3616223171864084e-05, 0.00010255155671987071, 0.00010931103453572833, -4.396296925034117e-06, 0.00015773453549773869, -4.8806802236977295e-06, 0.0003038572481068176, -6.0357778073945285e-05, 2.2902031515090988e-06, -0.00016526717158196077, 0.00016117373860954107, -0.00014064628124680075, -0.00019345733349832836, 0.0001676394944722554, -0.0004234768371485025, 0.00016645508821834068, -0.0003520464818611855], [-1.3500543352304803e-05, -0.00013051506537962808, -0.00021473811435427682, -3.911096106378955e-05, 2.17523226351143e-05, 9.319603202608212e-05, -0.00010849831004597077, 4.142795768535014e-05, -5.528095552401568e-05, -0.00016924997946744544, 0.00010443069238597416, 0.00040071888150504295, -0.00012558441517345032, -0.0007357136697254065, 0.00012706388569707597, 8.597713674827357e-05, 0.00011021707168546065, -0.0002056802148852664, 0.00015356806182548124, -0.00014175867778244748, 0.00010843058237818157, -0.000180315474086748, 0.00017562595428279542, -0.00018418470506854608, -0.00014986714476209308, 0.00015512988566987826, -2.3421797298461646e-05, -8.303540185775049e-05, -3.6262209489480124e-05, -1.5861989136551274e-05, 3.965548480000504e-05, -0.00011741928433715234, -2.066223026577906e-05, 0.00027569424393881386, -0.00021653318140320784, 0.00014148313771509017, 7.143564304003722e-06, -2.9057780003785285e-05, 0.000347305713078835, -0.0001346309067918077, -0.00013808909638124783, 0.0001512374794466552, -0.0003314095857294724, -0.0001472704374609176, -0.00018681411719922406, 0.00013869003819672865, 0.0001288799328454517, -0.00010768005663089276, -9.253361323821051e-05, 7.614219383174261e-05, -8.65189199610716e-05, 2.458406970602251e-05, 0.00018630927689821796, 4.5664928694299714e-05, 4.197841917074572e-05, -0.00014865590586603407, 2.865696493864272e-06, 2.0290304528016665e-05, -8.646882854191525e-06, -0.00015664562440543994, -3.7884503445248264e-07, 0.0003852595997795864, -0.00022893546789954373, 0.0003429835208829642], [6.68272815684777e-06, 5.7305943393802586e-05, -4.2507117713660906e-05, -1.1542505431716857e-05, -4.6735636344199074e-05, 0.000146752416857922, -2.282739086588487e-05, -8.980723693069272e-05, -9.36413150120688e-05, -4.577318509347445e-05, 2.2898056434537595e-05, 4.649052158834369e-06, -0.0002665144314914306, -0.0005663157473187112, 4.67721250143581e-06, 0.00026184283275902404, -0.0001362636973462944, 3.531554658219518e-05, -6.729272034184599e-05, -3.274643474229368e-05, -0.00017310838889697864, 5.100780033613655e-05, 0.00012769911134759455, 5.2683162514286544e-05, -6.204967119859578e-05, 0.00019175437345206125, 4.496680201322287e-05, 0.00016374801061076516, 0.00015452539238224652, -0.00022207756265503885, -0.0001466437260218227, -9.980890311527395e-05, 6.058504271674856e-05, 5.602996218405612e-05, 6.322854138190908e-05, 0.00016559305877318693, -9.225121455892212e-06, -5.2329370230821146e-05, -1.421851667323934e-05, -9.898460708973567e-06, 6.146234586067257e-05, -0.00013383313090822375, 0.0001500539482654449, 2.668709536377449e-06, -1.0022406216704906e-05, 0.00012321954540324122, 1.6059977290504697e-05, -7.688769582760524e-05, 0.00015299211302026314, -6.394764449015969e-05, 7.84387756585691e-06, 1.817471858249389e-05, 4.8910472667527484e-05, 0.0002648125000605513, -7.328881580035584e-06, -1.5017026333243497e-05, 4.269487905328578e-05, -7.827446522187727e-05, -0.0001071719220568657, 0.0001762302857125204, -1.1890296292903159e-05, -7.665962437644796e-05, 3.0461578592970385e-05, -4.577354251229569e-05], [3.116451831061079e-05, 0.0001662427769863075, -1.3664701602551416e-05, 0.00019031486919377042, -2.5528059429317645e-05, 3.783865480357475e-05, -1.526811049249374e-05, -3.1852839772312255e-05, 3.09789875607758e-05, -5.055690421710238e-05, -6.043378242092675e-05, 0.0002850454504903948, 3.261627312545168e-05, -0.00088504171257882, -0.0001111407378588896, 0.0002716177457558038, -8.38437875428795e-05, 8.476777641380625e-05, 0.00013791802912817408, -0.00022402433002751285, -2.0290768992656862e-06, -0.0002519041705000201, 4.720291906144155e-05, 0.00016072950946549377, -6.0029484745169166e-05, 6.6905794958391e-05, -9.894661692903532e-05, -0.00022768942633902018, -7.297290389490171e-05, 8.521559653277018e-06, -0.0001553105961084923, -7.957984634965328e-05, -0.00011429412764499717, -0.00020160005624053764, -0.0001400412388454386, 5.728868334632211e-05, -0.00013317379760596553, 0.00019636870346807992, -1.7209517302638446e-05, 7.1806346012608726e-06, -8.052147821565436e-05, -0.00015555878960622955, -0.00011022846273178098, -7.55310760333641e-05, 0.002293307252261523, 0.00020488603779135735, -6.626450967687677e-05, -9.324386191709553e-05, -0.00015135147945543118, 6.604626987095983e-05, -0.00034527872786482654, -7.338299231315729e-05, -2.972693509682608e-07, -9.494804883053909e-05, -0.00024821568723576, -0.00012382700957329966, -4.515440671364603e-05, -1.7957223315596095e-05, 7.854511488471867e-05, 0.00013005168360236173, -0.00014820007940338412, -1.2978161323312358e-05, 1.7239557090536566e-05, -7.33161421329297e-05], [-9.068486482237368e-05, -0.00010924858994581526, -0.00011498470117336421, 3.661531702442268e-05, -5.683668684124808e-06, -0.00018021459839086734, -1.077891104419657e-05, 0.00031276160657270786, 0.00014307945295674915, -9.759811727715475e-05, 8.590103235972393e-05, 0.0002091394777280688, 1.910076686000384e-05, -0.0002628739688051462, -0.00017633319374344664, -0.00015262229704950938, -0.00011020186141033825, -4.814289772232581e-05, 2.5493278699618533e-05, 0.00012825869911824137, -2.059750038662812e-05, -0.00016585183260389396, -1.7576915028014184e-05, 7.569216507516955e-05, -5.687232775998939e-05, -2.14424471623477e-05, 0.00023412896902368687, -0.00010324635769245535, -9.368650634701828e-05, -0.0002709149971345575, 1.2238877104493975e-05, 0.00015535761642593385, -9.629207654501188e-05, -1.4282405534178094e-05, -2.2037413550387287e-05, 0.0002667643553658058, -0.00025013937595538366, -0.0003826631518835522, -4.713136480813523e-05, -2.3050641626427232e-05, -5.135314147981001e-05, 9.338311480214542e-05, -0.00014277508036479591, -0.00021470652675324083, 0.02657145018306027, 0.0002502157510117318, -0.00012263379524688698, -0.00016826370842794463, -3.4358719547257944e-05, 5.9251677454120896e-05, 0.00019177156612555895, -0.00013782011095615407, 5.756088754533316e-05, 5.199375547607828e-05, -5.062278125267951e-05, -5.3824791437486895e-05, 0.0001506812865700025, 0.00011069855780277436, 0.0004201625002720676, 5.932850484502197e-05, 0.00011493815111690076, 8.942071139296932e-05, -0.0001593415266827982, -4.666754138459455e-05], [0.00010105973070739694, 9.101526514765377e-05, -0.0001070480888601029, 0.00017781345946971672, -0.00017175576740716234, 0.00013246134269369013, 0.0001277701586915704, 0.0004391032691828761, -0.00018675942876526385, -3.7165933283738324e-05, 0.0002949213450057977, -0.00018285942223612828, 0.0002721334868609319, -0.0019261563011484272, 8.344064119780511e-05, 6.1009597915661425e-05, 1.0046072285408255e-05, 2.5775271438715813e-05, -0.00027149098171301225, -0.0002264920464211438, -3.398092399487987e-05, 9.331570741122851e-05, 0.0001668007042653195, 7.045123408454021e-05, 2.492177536402269e-06, 9.232999706854737e-05, -5.876937684333206e-05, 5.0304136582019415e-05, -0.0001254458987308262, 4.807768406204916e-05, -9.768418244199899e-05, 6.62371585855943e-05, -8.181029065985792e-06, 8.378044662786199e-06, -9.863347296520524e-05, -0.00011098392449367697, -0.00022396168058802578, 0.00013266940475955319, -4.188615049187962e-05, -1.8707291775068552e-05, 7.72965262282758e-05, -6.044590525642466e-05, -5.6926398876737877e-05, 2.3992829924135935e-05, 0.0010106627302685785, 0.00013690595153609592, -0.00015984233141412086, 2.3382862962270596e-05, -0.00018748017882177996, -0.00013604459067930548, 4.246726783406294e-05, -0.0001685834191615807, -1.0950004816729178e-05, 8.672113849548202e-05, 0.00014087131959580505, 0.0001141445171357444, 1.973618276966548e-05, 0.00014427979209046023, -2.4850363913005234e-05, -5.300274807149591e-06, -2.767034008366987e-06, 6.875787767683666e-05, 4.843989879706568e-05, -3.245256513106923e-05], [-0.00023548687541448274, -0.00010802824237557881, 0.00011471970112749154, -7.938159171840524e-05, -0.00012770798284372065, -0.00032146583328330407, -0.00029115803758430803, -3.398288036715724e-05, -0.00023815006510852622, -3.0609458385314614e-05, -0.00017376607129668972, -1.2433649876125076e-05, 0.00012166250268008446, 0.00036650088519035235, -0.0001458300479427579, 0.00016077488294608138, 4.602685804596797e-05, -0.00018360596627263066, -6.698094946015988e-05, 7.700221817540063e-05, 0.00011390655916153411, 9.810452702281385e-06, 0.00010889247484174341, -5.985146740299076e-05, 0.0001714422404932166, -0.00015101809322723512, 0.00018536708169623813, -6.293562803703926e-05, 8.71011993088725e-05, -3.6059015204005726e-05, -7.209993232135513e-05, -0.0001768808337477544, -0.0002111169981243588, -3.829909610659011e-05, -7.112917836139801e-05, 1.6327406348282897e-05, -0.00021001591100423155, 0.0004443435722048287, -4.9804820206356744e-05, -0.00014934581189273796, -2.8142134359324355e-05, 4.589684621538982e-05, -0.00011638228864571705, -9.271548469013077e-05, -0.0003142948453201642, -9.431484575451866e-05, -9.345021599989199e-06, -5.6939514145485536e-05, 5.9562908735010455e-05, -0.00021570911672172022, -0.00018610468530450323, -5.832952310984444e-05, -0.0001830552885159553, -0.00016495812019621487, -7.651754615007018e-05, 4.034149079933889e-05, 4.444680672088302e-05, 3.363402885824325e-05, 5.4737024629203856e-05, 0.00013319079778646926, 2.9001209758749692e-05, -2.03962693070433e-06, -4.7541439836158276e-07, 0.00012702980329666618], [0.0002884580726219831, 0.00010995321924724995, 0.00012970698249738352, -0.00016913661240230689, -0.0001779385423019299, -5.4134275913377114e-05, -0.0002759593469152319, 7.672538631936375e-05, 4.6752858875417505e-06, -6.910642363701619e-05, 4.365769811108826e-05, 1.810573282368413e-05, -4.632722241385169e-05, 0.00026799656069015777, -0.0001641794879463965, 0.00010849503725960995, -2.5634166454414765e-05, 3.7767129345675005e-06, -0.00014791963259987533, 6.28859708012474e-05, -3.459685781881246e-05, -3.68307156796423e-05, -5.600711742496765e-05, 4.027361297425612e-05, 4.6089562269717194e-05, 3.97549417665578e-05, 0.00010137479330259005, 7.946325224516326e-05, 0.00011815866046065694, -9.428501719488005e-05, 5.584395465848441e-05, 9.125097138006476e-05, 0.00027292540723953445, 1.4243681937567578e-05, -3.853946098654058e-05, 4.810243160070424e-05, 0.0002291928768189527, -0.0005363418370668891, -0.0001404395620042164, -5.0578332813180595e-05, 2.1973289892752545e-06, -0.00024865257188957154, -8.673028113647616e-06, -9.914995932263828e-05, 0.00021243814206908237, -3.889021326469833e-05, 2.8675915854682585e-05, 4.624249871542225e-05, 2.7751941910666948e-05, 8.295968166719489e-05, -0.0003114401125790201, 0.00013763512537402756, 0.0001049685678497783, 3.331242193277341e-06, 5.7412117412428845e-05, -0.00025152459854150085, -0.0001565361135372133, 0.0001244623956619471, -0.00012535816776523655, 4.3846244502317454e-05, -8.228338321946801e-05, 0.0001803587526419647, -0.00028931947460388675, -0.00018788344805487883], [-6.546045713260812e-05, 7.004408631741723e-06, -2.869480855656115e-05, 2.5622355186999407e-05, 0.00013623238922379902, -0.00011228507223180502, 5.4639825366195355e-05, 0.00018303480199473803, -0.00011947726088260964, 7.37935858802574e-05, 9.52646833897826e-05, 5.590189319005323e-05, -0.00013784519566303606, 0.000347297240441679, 5.609104281382597e-05, -9.910566540020075e-05, 