{"layers": [{"w": [[0.0018684646743902466, 0.006547141137235536, 0.03564615074841828, 0.06278399511566482, 0.05175854608878094, 0.0996739795978624, 0.17206449420206976, 0.04743792664678667, -0.036520171171607115, 0.10141295316400073, -0.03473364505478841, -0.053202018615411455, 0.010519191010825995, -0.11299511088759266, -0.12417781275274654, -0.08641886923343149, -0.0692660886490128, 0.0030012796401762947, -0.002082403917310636, -0.18924924559749928, 0.07033556105409661, -0.0017900160652426227, 0.014352799292793813, -0.1377170446996432, -0.03974111778571513, 0.030917134844608805, -0.04187217421026056, 0.032949206639126524, -0.0321120712355545, 0.04871001736475702, -0.04074349474257984, 0.21792678643578653, 0.0, -0.12250385798519822, 0.08181671068022817, -0.09070993334561514, 0.04842683964861203, -0.1501128616805975, -0.07700054869773544, 0.02796383440653728, 0.048938140968648736, 0.005022392556721435, 0.0034959232375216163, 0.0864192215268821, -0.042766028874963696, -0.0559541891947978, -0.013335744863665091, 0.09202957206482468, -0.014474442448184638, -0.11768839391846761, -0.0, -0.08995533408043889, 9.87770131795495e-05, 0.10053788879375214, 0.07088863070395769, 0.1480108474185322, -0.029647793104745756, 0.02713834179245693, -0.0, 0.046076250512531926, -0.0008700067985975893, -0.10085705398490907, -0.04066920259767117, -0.08261928288709404], [0.04717058886364451, 0.11978489562304907, -0.0011653956348808216, 0.05282032087093747, 0.09042630467170022, 0.05803804838955116, 0.0606286493699716, 0.11319304707629824, -0.0018517982077335049, 0.1645199694930445, -0.20359290410095018, 0.030995197816136206, 0.028194586976389824, -0.0014939597913498316, 0.007288584153889596, -0.16996581672249284, -0.01828261305723656, 0.005295002455839464, 0.16292639495927777, -0.08835775647111332, -0.0843997801223689, 0.0034085241689267042, 0.07263955912569149, -0.006275380619414743, -0.03859152135657394, 0.06254279753988505, 0.0351143806065427, 0.0693729656061482, -0.037891170391028545, 0.031999937267665764, -0.02465216923824166, -0.036528993493095255, 0.0027548289154221165, -0.0027957105609378824, 0.01983495689176481, -0.006347936535494609, -0.08234893045681752, -0.020559571125331758, 0.013480052825483936, -0.008528192132004479, -0.00137660445961287, 0.044565450358012335, 0.15245644551618243, 0.0995963803038938, 0.05541301435032136, -0.004197960519913774, -0.1150761336906208, 0.004640992595697666, -0.02381679491502537, 0.1982136759367104, -0.01959551039030475, -0.012259535945564443, 0.033040879174037585, -0.025550017200643836, 0.07985604401532817, 0.12122904288516834, 0.07928819446422264, 0.0001798998978922409, 0.08550115073395392, -0.10790252697943237, 0.06649302978933194, 0.0923954140631836, -0.03609466348036645, -0.034329995974263214], [0.013398691056482313, 0.01479980552076524, -0.14839950369314237, 0.007208311196889706, 0.0044943318363617375, 0.12067630145424667, -0.02506029415477907, 0.11749250906495114, -0.06180179633663957, 0.043991286837427895, 0.0707567307662851, -0.0768664350752069, 0.011891431530080376, 0.16967035716567408, -0.0879814369399844, -0.01891389317676812, 0.03112458812178556, 0.03105119448962263, -0.041991702590712075, -0.12723911345372454, 0.0030802958862066114, 0.0010717297565656797, 0.012549767987265219, 0.05378982849007681, -0.05061879059521555, 0.0423337248681122, 0.039747689487826796, -0.02955152029328709, 0.16984593718108312, 0.10005998622844442, -0.05485757882204174, 0.12691502314762496, -0.0709791728294931, 0.058563834247119806, 0.152818993310212, -0.06476673288524418, 0.07117366193444183, 0.046734625670503786, 0.053131586084248415, 0.15197328205038138, -0.00590220628105295, -0.07105531977917798, -0.022449509937090814, 0.008157568082521974, 0.011321574869846505, 0.005545392307220492, 0.006101793455600825, 0.058253615660470826, -0.01901551870516123, 0.11834797009914279, -0.025754962836894116, 0.169199838618234, 0.055108762671557385, -0.005546297243601856, -0.07408775078066736, 0.09835754277999877, -0.006236951758043152, 0.07939445500286456, 0.010184823534456587, -0.002885556873801664, -0.06191957884483367, -0.13291276581099098, 0.005261735892599742, 0.07484345841244307], [0.005378754155396338, -0.08810914593121857, 0.0020978447499442883, 0.019109639154889044, -0.05908890832483207, 0.0005376301047980872, 0.0, -0.0798678693816403, 0.016901933125726243, 0.03318082129634449, 0.0750627938178589, 0.07271722237214766, -0.09868901533523254, -0.06341671516336668, 0.02951206592607604, 0.029411880122558576, 0.029513060136339954, 0.29717091544993746, 0.033991246057145645, 0.07927406774180351, 0.06471397314335013, 0.04044682059573636, -0.013492289025632768, 0.04907378858957182, -0.05018493805592181, -0.00720112244972277, -0.0271326100738229, 0.0, 0.17382871212304782, -0.13795102871774198, 0.04324305130256594, -0.1175380278553506, -0.026055488409727164, 0.0755358849480568, 0.0, -0.0746372527054755, -0.04557213224149591, 0.042708773222423974, -0.04678006903300934, 0.005568397373309438, 0.0, -0.040463588334225836, 0.16013864710266004, 0.039045672423030926, -0.15061164636813112, 0.003162273503675909, -0.04128043722288612, 0.05656892467565773, -0.05176437489614717, 0.0, 0.028706291966173195, 0.0576372418430905, -0.08446500204483844, -0.015034555307601026, -0.026297143641999705, -0.04060223286747147, 0.12978653579162291, 0.020686573739953844, -0.08932367892544452, 0.061815821544897766, 0.15839141816097174, 0.0710061673885233, -0.11005237022578121, -0.027042034172880428], [0.089807018069132, -0.04495991859234856, 0.023801076007517855, 0.05032999237745547, -0.06254305289395215, 0.0, -0.24813596812856104, -0.07035840116272696, -0.008464120804386, -0.08827309502762365, 0.11911746469557306, -0.10289688600096607, -0.02349835332172722, 0.0, 0.10378959122082018, -0.10335565667947798, 0.0814872371475608, 0.0, -0.06691982458798217, 0.025267323443152478, 0.004173133204617846, -0.03634300741772115, 0.0, -0.019109335633967127, 0.0, 0.04130804089728085, 0.11539695781315822, -0.08747375953515077, 0.15926368471213118, -0.14475317635059048, -0.00038205531792367227, 0.035388742419074005, 0.010743496009977302, -0.038145950373044954, -0.004899884178039434, -0.027745072275536017, -0.035472748406517714, 0.05634188146635026, 0.016840033977083512, -0.04377628737387361, 0.060351335486580136, 0.0128531767310038, 0.05339560148738021, 0.038701632653003304, -0.054689341492584545, -0.03313242524383425, 0.04813748629367366, 0.037157236944724586, 0.0, 0.0, 0.09066939031622266, -0.03564970349392331, 0.032083213164983304, -0.00442437324521602, -0.005666441800873893, 0.07632387305992135, 0.05440235887601991, 0.0534475298542416, 0.09289986280445768, 0.0, 0.04289764449342543, -0.013091127574071937, 0.014205773505845253, 0.0], [0.0, 0.0359372453537612, -0.05382532019481516, 0.1560041663618887, -0.06888523966388628, -0.0855790528844105, 0.08108202954701726, 0.05169556407422738, 0.03825984958640462, 0.03859871755111707, 0.0, -0.060163243332275754, 0.0, -0.04251342046527892, 0.06640747649193077, -2.927812343972503e-06, -0.054408845142020545, -0.013982795564948802, 0.021324084782474845, -0.03341659252460328, -0.054146067721496605, 0.007751934055359344, 0.007854528906824022, -0.028863138195019667, -0.025983831182941283, 0.006818709987393687, -0.104335785484558, -0.10107831291312785, -0.04582397812897365, -0.005326902266247588, 0.013142515817087998, 0.10652278995288902, 0.056988036880325235, -0.001035901521872452, 0.0, -0.06860553198973375, 0.0, -0.011358314681210385, 0.014089670778391048, -0.054547876843686366, 0.02985779776549502, 0.1111244634802733, 0.0, 0.020424346002989553, 0.04355450678716519, -0.02038495042128197, 0.006180579953386039, 0.0, 0.0, -0.0501997364933116, 0.0, 0.028145825049319954, 0.1045811164268929, 0.06513651250551362, 0.16087950582412944, -0.04974566919412513, 0.05816374309583193, 0.002912689683541409, 0.16381619263002206, -0.05302961739369065, -0.05554955802415165, -0.036276911554599015, -0.15853091350877016, -0.030371713654654714], [0.004898918835116088, 0.04123207416436163, 0.01569370813700707, 0.19333213627403986, 0.11502630346219107, -0.0017844281291520905, -0.04417574190102207, 0.0437183716402027, -0.1055965598049921, 0.14411274349794512, 0.10651795628190609, 0.007848789130693848, -0.0858290633907769, 0.12215091427921963, 0.0031264587469259867, 0.11406033578361029, -0.09933127348831383, -0.06325199247502725, 0.010162189802858376, 0.024079582361159344, -0.05328723714207417, 0.0339750019202406, -0.09168704619330433, 0.012802919738299305, -0.0, 0.03378883300610302, 0.05258358431569344, -0.08583029287188211, -0.07357731593036591, 0.12393840038667901, 0.025043992465087376, -0.0056199109217201695, 0.09601698043147058, 0.06083258073411514, 0.16386872074435907, 0.0011676854438990053, 0.14839800278758705, 0.16792510114439074, 0.006141522199902461, 0.10193635826873126, 0.06263173486687817, 0.10924737855381807, -0.04339946352636274, 0.04696657035358968, 0.05021035764705755, -0.13927039139197023, -0.06701716915171069, -0.16433082521657383, -0.02203464062030019, 0.0742186233012103, 0.09144592848358159, 0.014520778973886442, 0.11734795689106357, -0.10395947910715934, -0.12480883091105563, 0.034434278162342354, 0.026328694492009662, 0.011105776361050163, -0.1699718544364807, 0.0007314831075864068, -0.09472811525010734, 0.08254754101760066, 0.07660114420981995, -0.05968361510796306], [0.0054717870864869865, -0.035914657608223335, -0.02015590050351633, 0.09235325279665728, -0.00721398957967069, 0.09107933978378666, -0.015760257526981705, -0.04114701069077259, -0.008135690824122424, -0.0322447521620999, -0.016928908815662107, -0.055129982274558134, 0.1926011894532703, 0.04087870304927037, -0.01711938491826648, 0.004479829905423435, 0.00598435557083648, -0.029104132669058227, 0.051449181672934226, 0.05667957360096517, -0.066111983332838, -0.03278855742210788, -0.024966781827299084, -0.16744877206473785, -0.11761544800387765, 0.13110200137667058, 0.1625490324873433, -0.010441603516602355, 0.0873389610485601, 0.06717430755665257, 0.2645191497975244, 0.14429534714282408, -0.014044378760669177, -0.016315938441386645, -0.0438859068838181, 0.020460882994847395, -0.042131891264896006, -0.051564234825940976, -0.0071625395802422664, -0.03356228335733473, 0.11367939203664885, 0.05366236257730015, 0.009529307339591418, 0.1319039067894053, -0.004013904262168222, -0.06730086611367077, 0.13010195444200434, 0.04685366972755206, -0.10157675263263957, 0.004519000850447191, -0.07608588494399239, -0.1046968740558405, 0.09869892227026442, 0.1789188082481394, -0.10036490013077093, 0.09922918383417274, -0.02348697011446361, 0.008017557544341936, -0.05213976611475206, -0.035009370459726026, 0.003930325292660684, -0.05559817508241995, 0.040523514143297544, 0.008839815212087442], [0.031426137334706734, -0.020840568402300672, 0.005202337055778993, 0.15256079481235102, 0.0497739489262923, -0.07452544994492469, 0.07227043828060592, 0.06790982066214095, -0.13344212815607498, -0.005003028410106826, -0.05528399230575213, 0.11335239116913043, -0.027561242418550156, -0.20002059943760028, -0.10390976692950284, 0.05200733940535769, 0.07662103907462489, -0.08421852685360318, 0.08000487549569713, -0.1247752801585709, 0.003962154257266917, -0.10935184536811096, -0.07547179151123878, -0.006995005096246125, -0.06510403980620538, -0.06751594683927792, 0.017325718470472536, -0.024410681147567816, 0.08800459712161815, -0.09597136996817943, -0.011210359210397695, 0.07908362022934826, -0.19922122728864175, 0.011480335381550915, 0.10853966442514804, -0.028886732126546313, 0.023721757333509435, 0.00730845173207441, 0.02302583475268499, 0.033251748957786605, 0.11159282092307762, 0.003020234015900375, 0.01533977834108769, -0.005402697944521708, -0.05409311618597143, -0.032919326640288446, 0.02998193700599538, -0.05485761989425827, 0.04084873097271735, 0.1961750180859477, 0.04137131648053242, 0.028760510037279897, -0.01378526394104575, -0.10989591651680326, -0.15165269923101812, 0.005743622685983833, -0.11101859736768305, -0.043568435104856605, -0.00037788192227920943, 0.07654982163811733, 0.03610823279167046, 0.07084665866708141, 0.18698649586064367, -0.17912778306554755], [0.05633876753444921, 0.0930724406836581, -0.10108366666817452, 0.1305594686504474, 0.07619230711406215, 0.019644011785428517, 0.0761738089899516, 0.1822352277508308, -0.0, 0.031718529134300975, -0.014437006320448273, -0.023287753948093123, 0.09485578618866303, -0.047200989379466825, 0.007605897351454226, -0.005029931294401635, 0.04406914764703119, -0.0014833272260231537, 0.10565075756409342, -0.029347993597365923, -0.034582269629098904, -0.06098268201255268, -0.043151972101265854, 0.028184679806722127, 0.04101647164689609, -0.057834800893379425, 0.07287986023552216, 0.09079476250264769, 0.053646682030416615, 0.17169829207193804, -0.04497460649356457, -0.0310401268882264, -0.1444703594767665, 0.16727143612531006, 0.10871936127271166, -0.005193450247048079, 0.018015895280880344, -0.04870101423942909, 0.22162453401507515, 0.0517880311849724, 0.019748605498394804, 0.059756554312872245, 0.04439262638747456, 0.04552184370692182, -0.057293159583716426, 0.015995915055860527, 0.1601453506914795, 0.08822353386655599, 0.10558355619075731, -0.004787353648857862, -0.08426566667556647, -0.0042722881139516675, -0.0007316744068706629, 0.0847568463808009, -0.12393329493768339, 0.17809468122517397, 0.0019730683192844237, -0.002923479888289232, -0.08550643229980713, -0.12486107696623444, 0.06891756912445851, 0.02967448278135684, -0.025666117825384308, -0.08769404789403376], [0.29726323004463884, 0.6682080358508127, -0.341713515874915, -0.2648735533300746, 0.621581990371329, 0.11237783860261896, 0.07615287584708423, 0.21206996579428086, -0.01623442133444733, 0.18558566811514146, -0.218768037413039, 0.3276911605808512, -0.03571510471210576, -0.13976857522287575, -0.14952575327920906, 0.012013389645323854, 0.2223682760139393, -0.019145969635159535, 0.09437965991887781, -0.3281023656219703, -0.2089468524477297, -0.234427989203954, -0.4594497157163363, -0.39467308661646755, -0.045375025276817894, -0.09289900675470115, -0.12636897574925363, -0.3460400923091043, -0.08649434325477104, 0.05153099841462594, 0.016651722400470057, 0.2503262876479901, -0.018055566071310973, -0.012869181156420348, 0.4691242498792225, -0.5845408725581955, -0.1441219815143776, 0.26657244185917195, 0.01732673309171991, 0.1406824664742145, -0.23347495336373192, -0.17431604644274445, -0.31335405924157467, 0.2337372614160458, -0.3213906103475542, 0.03537033801818488, 0.15403819390051865, -0.28084158413032534, 0.002315379112456112, 0.19398020848249872, -0.02618473134537293, -0.09575716728158076, -0.4563186813154294, -0.2034389676242847, 0.03577238808451891, 0.4443698968633715, 0.06409019094131534, -0.41972291249021215, 0.045074447648251456, -0.14113628587824056, -0.043476159372352996, 0.33726447917262015, 0.49436513588441533, -0.008039799735363817], [-0.11304028753940766, 0.03680757128296318, -0.09089108008564735, 0.12893167747979606, -0.155165530884849, 0.12425340196352107, 0.005132059758841349, 0.0, -0.031908528509670776, 0.020217801210589983, 0.0, 0.07668675024653593, 0.0, 0.00026310260071052893, -0.01736904226484103, 0.0, 0.012893454196334916, -0.12535300807512312, -0.09632462081250547, 0.04781434883847342, 0.0019121592536586844, -0.0029641197503065546, 0.0, 0.01608351405402896, -0.031494784084457286, -0.050624350313429614, 0.003915359099448661, -0.06666834674949636, 0.020948887514344827, -0.12474476170731771, 0.07074076104662862, 0.026108865073271034, 0.008741713391799195, 0.0670146378321889, 0.1217688800737172, 0.06955506970977027, -0.13583466097671926, -0.09082272813000326, -0.03831588385046166, 0.0, 0.02972247045303383, -0.04640935288085236, 0.0031873295142693606, -0.048786194151306514, -0.037249258752421105, -0.10101394735825349, -0.06224656314173885, -0.09660522709978116, -0.06646790344460578, 0.07270437411642938, -0.06434485346344386, 0.1993078165420788, 0.02777049155526435, 0.003032506359914179, -0.05704402334581195, 0.04436973530428958, -0.03437194733065511, 0.0, 0.1935100793880636, 0.0, 0.0803733201439858, -0.04459961296882045, 0.0, 0.13021526984850773], [-0.038488178577255165, 0.1335551280358457, 0.04496653391448922, -0.03331572798138638, 0.038924479147831204, 0.06620176100472723, 0.03807461578660912, -0.11413055381035712, -0.04652108681897379, -0.008059185655693631, 0.0, 0.03798336831575277, 0.002460321623531946, -0.09529485797194234, 0.018699090064105486, 0.03717451612791713, 0.03310110284066392, 0.07488071950356555, 0.055084463594778074, 0.02503288818493591, 0.0, -0.12140693017936852, 0.022662241609203892, 0.004865035435339282, 0.009988639477171986, -0.09059590479411969, -0.07490284068193764, 0.07266516016928923, 0.0, 0.04286137493822072, 0.0, 0.0, 0.06345350572298855, -0.029593017584872407, 0.0, -0.02528110138106465, -0.023053422719269134, -0.013003345499568175, 0.0060235054863659425, -0.026602141539740446, 0.08891246782446119, -0.059950969881215864, -0.0031957408676920682, -0.02347321844349265, 0.10424705221850367, 0.003972257322665332, 0.07095638995732907, -0.10734109191808887, 0.009625480278992165, 0.05955189005739483, 0.0, 0.07365373976161253, -0.029692754081828296, 0.10122936595524426, 0.17256484144447515, -0.01730700211041568, -0.023936047220629704, 0.10476081993209536, 0.11488015011049102, -0.030139555998316775, -0.02190591288043112, -0.010807065718654831, -0.09602510541078726, -0.0618791737700801], [-0.06873475064490035, -0.0497817571147624, 0.0, 0.006992310810122835, 0.11254881307904142, -0.06827069822436141, 0.0671454625193203, -0.005370341607009374, 0.0, 0.042325591203111766, -0.0782441041472448, 0.018876468168858955, 0.0015582514687759908, 0.027700992433931145, 0.011399213527956451, 0.18510712895403036, -0.039352085158455036, -0.03079207818186576, -0.038181316535269474, -0.032755208486105525, -0.03932379318464683, 0.08356044277952995, 0.1021240595956262, -0.033979683582970606, -0.05495883461224695, 0.02601408289813508, -0.03249425219111326, 0.038966508430766766, 0.0044829432234317484, -0.10976160196244264, 0.1123086157031654, 0.13222627042098373, -0.037351174864186376, -0.01930083343641099, 0.011134316240836311, 0.01503099192417916, 0.041020441679158505, 0.14941371859725538, -0.0023998743564645196, -0.05222760518127591, -0.09882132177804573, -0.046825248241732974, 0.0, 0.13212042526673318, -0.029718646567403396, 0.0061561584688143885, 0.0, 0.08351045503462604, 0.19085152290350094, -0.030781796709376922, -0.02745946625779863, 0.07194407093652921, 0.0428927164608192, 0.13630243690589086, 0.035036772866220256, -0.01702260061665178, 0.03557620363224923, 0.07711992957046612, 0.054006677530552924, 0.028889671181437867, 0.07374951853694095, 0.08197896016049303, 0.09904905328676653, 0.040231793947022705], [-0.0016116496416765528, 0.0, 0.08496320654391425, -0.0537222712569318, 0.017774904705798778, -0.019752897975498417, 0.0, 0.09073250354855306, 0.0035347486432229054, 0.0, -0.09726052638026947, 0.04805408256821675, 0.03997311764383759, 0.16168722518584705, -0.012891566152804887, 0.005784255717147715, 0.008208749772342695, 0.11471022619278863, 0.0, 0.010585488275870528, 0.03695885853807446, 0.0031746879873679806, -0.024010713367421034, 0.003774599479463678, 0.07430742345042199, -0.07052902293955714, 0.0, -0.04435457359776489, 0.08404401135635527, -0.11035846271078377, -0.03303145076390547, 0.018459635955998883, 0.1137535856051949, 0.0, -0.0327329439120223, 0.13906505087817184, -0.10433013569353904, -0.16453818047590524, 0.023495944273780045, -0.028471079981187933, -0.07010541288941712, 0.04501501122456911, 0.0077610360981240495, -0.03344498487540929, -0.0908810615052956, 0.05817470330802018, 0.04035138597011468, 0.0, 0.13629679667458594, -0.07402298371780179, -0.11054597650238643, -0.043695971436063276, 0.0, 0.0077240459794708505, -0.007555369604455152, 0.016442271003876737, -0.08857432161816148, 0.10398937012558247, 0.0, 0.077808965081929, 0.015694068032068385, 0.024838271525774787, 0.03390117443112065, 0.024112954509464865], [0.03975167164712183, 0.09479832642282984, 0.003969561483295872, 0.045066920472002316, 0.0, 0.1036968811137102, -0.042451722070631796, 0.1326322619180815, 0.0, -0.1029477054409946, 0.0, -0.0428253682751531, 0.055623468953531055, -0.04054567281914025, -0.02399065230743235, -0.13973735689000152, -0.02448166312166573, -0.18258741775670895, -0.11522743540344701, 0.049189700122744505, 0.0512254316755357, 0.022328588468520056, -0.06575442374425033, 0.0, 0.0, -0.08110238217828528, 0.1087715597338657, 0.05856804730339554, -0.0059297127416368355, 0.0, 0.004920779323081263, -0.15194222473152683, -0.008031819779186544, -0.042900153918370404, -0.06853261049076127, -0.010752190569929512, 0.1323713295223744, 0.03960091495614178, -0.0340143805652098, 0.03412695575816992, 0.10042808028109985, 0.062358865882847885, 0.0, -0.040089602759854834, 0.04420240684895861, 0.019764654033883496, 0.05999795587589991, 0.03914614023811368, 0.0723764568041911, -0.031131954696413132, 0.09385537534579176, 0.004056044631649547, 0.1546307604794321, -0.04347782832056081, 0.12742161548462166, 0.004080999070280939, -0.040448966751546446, -0.02701410785813564, -0.013899513725846361, 0.022225008966505578, 0.030137586697217097, -0.03421654939849111, 0.0, 0.16000442871703163], [0.1267463364017143, 0.02319997074612714, 0.0, 0.0, 0.03740966119490394, -0.07023049218838877, -0.008849719041430941, -0.12201825477510593, 0.020224777411937015, 0.04011038557825627, -0.02695802340557972, 0.11443223926717018, -0.08650745407662477, -0.10564216821162709, 0.006209396516504175, 0.07217963185107833, 0.1232486951335528, -0.025009165754456084, 0.0747123251401151, 0.0, -0.0020534482428106312, 0.059073072658465, 0.040521529761241064, -0.1146251351777974, 0.1066177465928069, 0.09888324004611661, -0.0383755603655817, 0.01995055223380722, 0.02782761084686901, 0.009114131173061719, -0.03234045073119997, -0.04206928570901752, 0.0, 0.08225429904531277, 0.03180275983313283, -0.017930560750242835, 0.05009459875790268, -0.21664231224026897, 0.08033261488144977, -0.12772233541031344, -0.017275115684114856, -0.07799934678775447, -0.09203399170201516, 0.08129982851281299, -0.025716218937023624, 0.015997079899209923, 0.0, 0.02646518907588632, 0.0, -0.09109660437856937, 0.06810332197046005, -0.02780567130306438, -0.11303649233291944, -0.022541707954275455, 0.10855997458221943, 0.056391572860117846, -0.016169353116646756, -0.01621791646415333, -0.014002780147224881, 0.15475000835281735, 0.01883843245647868, 0.02269619771360218, 0.07083120550150257, 0.007359145718364917], [-0.008983287366502175, -0.0039558229792042605, 0.0, 0.0, 0.046560573217965105, 0.0, 0.04696238234015459, 0.0, 0.0, -0.1484510936286487, 0.06169278324488126, 0.015995844306165588, 0.06824311844925186, -0.22046853044094247, 0.15568238638608728, 0.0, 0.07707816317966766, -0.07160285606201107, 0.03734998945964094, -0.07268622977911296, -0.03823171534787866, 0.1417013332289372, -0.0035013350525984247, 0.005646527721489124, 0.05798307405950763, 0.027960065465250334, 0.00027249740971881445, 0.017477205649755034, 0.18094637811897793, 0.0, 0.004336674818210422, 0.07246480768168238, 0.07686510583205368, 0.08340115882359402, 0.039431497703285176, -0.07987064169872236, 0.11919927672863619, -0.08013852400656277, 0.01247915291777649, -0.048697413086681796, 0.0, 0.014574343502192146, 0.013980501233570537, 0.02204496131159642, 0.1176178514678859, 0.024580137736363573, -0.007789577819462497, 0.06552274885347316, 0.08359684617073174, -0.08665518033824271, 0.03611712093381705, 0.04443893329462941, -0.012072418152909298, 0.09853163376239775, -0.0002433617911433866, 0.0, -0.0020890964166003995, 0.0, -0.07612325290032038, -0.10369155635296981, 0.1160776572539458, -0.05613010990027937, -0.06771242526188843, -0.16089615884605], [-0.03945006266802096, -0.09431213848434769, 0.11988762394068461, 0.06918995555006188, -0.043394630128956536, 0.16883890464445991, 0.06694042099195911, -0.01425910476074728, -0.18864407020676116, 0.17192686436589272, -0.09964356234544493, -0.12015895730530611, 0.070212682441065, 0.18386031280536944, 0.09921856613676387, 0.03343139096199308, 0.035904952639612145, 0.05664769193978779, 0.04907052872707187, 0.010759498971340688, 0.0, 0.0, -0.0486724526732291, -0.010718091069820072, -0.12397276699710354, 0.0, -0.06748778632067126, -0.0767097987171734, 0.0026361964632469533, 0.09983841799745803, 0.06185228229438402, -0.11415267498872918, -0.06757094627341922, 0.06365297393704336, -0.06699830984054693, -0.00622393803657818, 0.03232016023807345, -0.06586415014241578, 0.0, -0.09518909885511848, -0.03643529211755476, 0.013854174391911948, -0.11595645919888918, 0.023532856719756363, 0.0, 0.03251565639092964, 0.006166277426163939, 0.09760409294445033, 0.0, -0.022645187079292136, 0.0, 0.03177853073780697, 0.0, 0.0, -0.04450460375047516, -0.041369810989783554, -0.10068869720624242, 0.12851326791411344, -0.08795874294965934, -0.043775933664452794, -0.04582101461761007, 0.05997639872065829, -0.01186280947214827, 0.0882697969262674], [-0.04221902907030551, 0.010583294321490064, -0.05519873085712975, 0.16023529581196938, -0.0834467204208807, 0.013055357513927699, 0.03903427724385222, 0.021393665161377695, -0.0030687161669059188, 0.0, 0.0, -0.0, 0.06550606237255333, 0.1654777856530167, -0.03291676765399157, -0.09805818892277904, 0.0, 0.19508383775812704, -0.052658829543677836, 0.11965518905263871, 0.12274934346878855, -0.032603734816569765, 0.03383828585207105, 0.11879551264491871, -0.01861327490077288, -0.004535657876775866, -0.03485655791631471, -0.06958607186251906, -0.04027731730545308, -0.0863610661749775, 0.0, -0.04995622667650822, 0.006957922128662596, -0.11298146661869743, 0.014744176602611053, 0.05505293087789805, -0.14809303453792846, 0.018206604663975702, 0.08666008447156374, -0.08521436891183555, 0.12233808456923541, 0.021812263531413183, -0.044746799106593085, 0.0, 0.03298373823095167, 0.0, 0.031414296071793586, -0.062041296961096754, 0.0017915013224472174, -0.10157957652070801, 0.0, -0.06069679009429126, -0.04719412892878734, 0.08733564078617932, 0.075725100368765, 0.037058427740034046, -0.07580550712385906, -0.01358364643320099, 0.08549157194090014, 0.0, 0.17420328083997746, 0.019751217855749542, 0.003610935979516626, -0.012998881113094638], [0.0, -0.0004369675105410369, 0.04499514135886194, 0.064930534126173, -0.051240612501488564, -0.09496515299317182, -0.1354602547749289, 0.02894719198103372, -0.07669194117127925, -0.16085610364407116, 0.019371164252868837, 0.18813035029173983, 0.0, 0.055450834856887725, 0.0, 0.0, 0.061913220691762146, -0.011487896605511885, 0.009652909488605005, 0.014007813336685947, -0.0417859740226583, 0.06776454960288836, -0.0022404948033878194, -0.04881524134252673, 0.031234171939171766, -0.060260566001427526, 0.0, 0.0, 0.07529088859571458, 0.026277331134577003, 0.0, 0.05378888334461408, 0.09969448694232831, 0.032942311210002906, 0.0, -0.09340968235613595, -0.07362433408111446, -0.012686792297437844, -0.03708842612280484, -0.0032037327886596857, 0.0, 0.030687490130016256, 0.0, 0.02722387666410737, 0.0, -0.1466279892363384, -0.06353783674071084, 0.0, -0.08521868034288387, 0.036319901588799226, 0.11096503612862622, 0.08594579219551184, -0.005326559311505108, 0.1077553430081484, 0.00013204370058426723, -0.015241831418127488, -0.037400412171535315, -0.012465860135353678, -0.01933894562650387, 0.00187613586109143, 0.001086859577755092, 0.0, 0.023249248682260883, 0.08369113363066429], [-0.014701830068819624, -0.008495787693858824, -0.17702108027121244, -0.06853083180729858, -0.05012472595555825, 0.07933187291362888, -0.12294079706607071, -0.10453027353817385, 0.021896229925713433, 0.08470326502447056, -0.044096524138284444, -0.2750783025253637, -0.11568485419448021, 0.1153921610262276, -0.19391487149948083, -0.009120871020441469, 0.029403471788276937, 0.035665497556262804, 0.020049905853828914, -0.10504372481371176, 0.06292678876255577, 0.03339779081433195, -0.02495244260766396, -0.04617592357334329, -0.029101510302588642, -0.05652903515438455, -0.0952714946843439, 0.08773298631368537, -0.1294050839912193, 0.006286687261394826, 0.06672706563481887, 0.06321578438757532, -0.048978544166331295, 0.06950553306075483, 0.009124146729289358, 0.013679170947183026, 0.13655922112326355, -0.038696194858339, 0.08669330553710361, -0.17756422239512992, 0.0670092096628184, 0.04114242570650001, 0.1937652836984219, 0.18407511214695446, 0.054441528017603685, -0.048628607044619084, 0.051644090845621, -0.15395381916617717, 0.12870688096607122, 0.10317959272749881, -0.015117091830153893, 0.0034612954045174825, -0.08182299179259166, -0.08435855048402176, 0.08447442792291747, -0.0037245234798417523, -0.051056530979496424, -0.006549545447558938, 0.06922017511079814, 0.0093127367570137, 0.02172005676492519, -0.008254017241852811, -0.04678910240121025, 0.16835576856037243], [-0.014086566261244837, -0.008324974386151367, 0.09472146632165802, 0.03281558286035312, 0.02476886800158234, 0.16182737059420263, -0.03981545883929459, 0.06261599829220982, 0.0, 0.009749137570495, 0.11078199628321118, 0.028934716554164422, 0.031377414694888, 0.07421725622725624, -0.017476543639555264, -0.055508484712623665, -0.07199606622138911, -0.14589743588664303, 0.1531027931397932, -0.07667925543070027, -0.005952923727413597, -0.0104084041323249, 0.01286177091395821, 0.05362616267146769, 0.05721368915123464, -0.03496854996671619, -0.0016119400179916135, 0.01087084813097055, -0.008153211418453345, 0.1171073722959371, 0.027582604934812797, 0.04714182773307701, 0.041368233636961, 0.08231402813886023, 0.002726606264157389, -0.09220644894394796, 0.020262053127048218, -0.040444062618225404, -0.030601194591051355, 0.035232111283794186, 0.08751125273375722, 0.0, 0.012976150502950198, 0.12471520307139446, 0.0075166455926614015, 0.19684597985377406, 0.03355973968317876, -0.1294103132441581, 0.04862249360746742, 0.01877611746027364, 0.09163874532353893, 0.042194226392135076, 0.0, -0.08638977399634802, -0.004972137691990838, -0.05641552472373553, -0.03476373787249284, 0.03540968775261474, 0.12212413816821263, 0.01985977318894063, -0.08411108231031315, 0.023863885718926312, 0.0841710981952829, -0.03711013145361462], [0.0, 0.0, -0.05115311243854998, 0.04019735507706356, 0.0, 0.021853437219938918, -0.05938038878686952, -0.023290960104703398, 0.04613970680576492, -0.01810849570834123, 0.12669988575101854, -0.020257901821210678, 0.00622807380788035, 0.06299697201757044, -0.1019525678848151, -0.1294140032937915, -0.11055649218787013, 0.08946001956759782, -0.032464989906326326, 0.19335888295023604, -0.03345853577011216, 0.003009665813057863, 0.1118759526037953, 0.14908398493934263, 0.1535275312361942, 0.08511214688921984, 0.07033233182244143, 0.03572633416195731, 0.05062887205818761, -0.0324110683390801, -0.05382357076713924, 0.0, -0.0018575637265700914, -0.02455557883090209, 0.04405518725218671, 0.06481849905705818, 0.0, 0.10669712089878072, -0.07976512157475041, -0.0037400733771135917, -0.04569391343911131, -0.13789259974530887, 0.0, 0.0, 0.10957761570533407, 0.038796488915923376, -0.0703423026042228, 0.13689468031233323, 0.08612798122637409, 0.03488998345658178, -0.006372370522073484, -0.06515001560164611, -0.01805826419072838, 0.07551968123269781, 0.1393400551729989, 0.11196685592494492, -0.027412152842907524, -0.07799514051356099, 0.0, -0.13002592059180249, 0.014125689391101266, -4.664916467100671e-05, -0.02558272230980801, -0.11609353593902615], [0.029396976528313946, -0.030928715175155375, -0.08202878539025764, -0.21854444678884638, 0.0, 0.130331630688242, 0.12143084858398685, -0.024865779603028746, -0.0365030083522128, 0.025802270703279586, -0.06827321720902045, 0.01241150599104551, 0.049644039873782145, 0.08660108191628607, 0.0, -0.004543146717790231, -0.05861779127559056, -0.054519761724588535, -0.006371952284582653, 0.017670029862526953, 0.06147281422399011, -0.05261908503240644, 0.10791271502126912, -0.009952130929115371, 0.0, -0.048130918770103386, -0.18261636457093136, 0.05910398399393009, 0.04729949609733408, -0.010770413774887074, 0.0, 0.029584557237915064, -0.11351476482814617, -0.03063615924528467, 0.05190422395336651, -0.08879484510246889, 0.011751202200238352, -0.0969979497137413, 0.02561427653604468, 0.0, -0.1177317745805306, 0.08161358788850458, -0.04711887963943734, -0.05318632500668319, 0.004294184279070686, 0.08032231906938982, -0.06967148790778897, 0.0, 0.02259795014211364, 0.04379200354381471, 0.0023593232443179725, -0.01764295197240641, -0.05457668982191174, 0.0, -0.0741877167107611, -0.22248096497052988, 0.023218906149783364, 0.06069896970910061, -0.17769991833816343, -0.06918302475735671, 0.037861649256278856, 0.1532060954100995, 0.0, -0.04659051902230848], [-0.002876957862253475, 0.09846504079414366, -0.04001160983256499, -0.052299360395131146, -0.02692250428792999, -0.0646599894379624, 0.0, 0.11849734516288564, 0.01411859847318532, -0.008446906149263467, -0.011611130879666857, -0.11356648288129781, 0.05902894979814674, 0.0, -0.002683170508288379, 0.2442739010001022, 0.012167800200103558, -0.048498150406479625, -0.022400764309794565, 0.08030695660886952, 0.0, -0.10354938428523008, 0.06192544278620844, -0.04179027589399254, 0.13843479804856287, 0.07482196550085385, -0.02408194757685905, 0.09093815211775806, 0.0, 0.056596217659345006, 0.027082029626646287, -0.05608161825062834, -0.03981799694338179, 0.07080533691521265, -0.015056535480190494, -0.02057965789772681, -0.06480385357509359, 0.022179550136145233, 0.1536094388663982, -0.07381833891857478, 0.0, 0.10145977418390636, 0.0, 0.02448691379462203, -0.07340620052532607, 0.022557099093937973, -0.0032176027388198434, 0.06725834362313085, 0.08342968501039709, 0.19587408196251355, 0.034692345927772546, 0.01433648347640773, 0.0037982012185533037, -0.01653135558942337, 0.015353931015312326, -0.01189903600863964, 0.001719339820743793, 0.09387169377771966, -0.06892735976410556, 0.07961992863736264, 0.09383300561485369, 0.0, -0.15836725120378736, -0.036952883716776894], [0.09221948839394777, 0.0, -0.06834673619012269, -0.02868926133554663, 0.05562158568985806, 0.032054036917623055, -0.007370609010506419, -0.017626638320335546, -0.019626140946706453, -0.062180558095900396, 0.1177513241958162, -0.014057746113233922, 0.0858172236009024, 0.1102084325580735, 0.06826724238772289, -0.02282279461718337, 0.02058620391194042, 0.0, -0.06068028524793888, 0.014221243513148896, -0.08276038074878729, 0.08345321146673837, -0.02546891391373211, 0.0043415347378538555, 0.010927618493011455, -0.008972286525529106, 0.03525855823278571, -0.02629380252193011, 0.058081677730345616, -0.09614773742295545, 0.0, 0.14369793687201457, -0.06842926042188459, -0.04256019614625327, 0.029421654930201383, 0.0026111464274747994, 0.016327972672454397, 0.027439233122956583, 0.03911002363833418, 0.07719982010100007, 0.021074461528519883, -0.007557101107667184, 0.04214549574963217, 0.1405666525263889, 0.0, -0.06636013200796889, 0.07698978362303414, 0.0, -0.16244223228414906, 0.056167029516041286, -0.031139411273392488, 0.0, 0.014832396034033798, 0.0034866824008482856, 0.04510285065735733, -0.02313282570438517, 0.02935733717389742, -0.009023746466400737, 0.04745720270044746, 0.03755797537893755, -0.06322534880699138, 0.07529782894813383, -0.03119035020984695, 0.05301033067054211], [0.017663758690093033, 0.13561889823002174, -0.00613033887605911, -0.016222655692406555, 0.0, -0.012522802572247953, 0.05235949577652687, -0.11782630103331493, -0.07270763397892933, -0.07383999167095714, 0.06441772716384594, 0.12538869448776918, 0.0, -0.0017482687105023244, 0.0, 0.08138415475067824, -0.06257694686020895, 0.007325451311139455, 0.0664137237650795, 0.028394090823876117, 0.0034130606528197374, 0.06848658046748488, -0.20498947964778202, 0.04257064969359548, -0.04066209101715896, -0.13501338594044174, 0.02920471155881554, 0.09836737875514225, 0.0, 0.06462357648704656, 0.11750293414497731, 0.09365653329300894, 0.11972317773914781, 0.04772320174461487, 0.0, -0.11667595195939749, -0.007942413748254103, -0.055832214870096854, 0.1623037502660427, -0.0023147570522594647, 0.0, 0.03243509668041037, 0.0, 0.12414071205399219, -0.038141930513275954, 0.003816095808339499, -0.04775071460172588, -0.09406615748145564, -0.037269410629693515, 0.0, -0.022636901197116685, -0.04373710210587569, -0.1009863867025721, 0.0, -0.10887757696296961, 0.049160934943089526, 0.0, -0.10509497973762535, -0.013006309010931763, -0.04852744615026582, 0.013805462868837194, 0.09570432920496381, -0.1385851341121236, 0.0], [-0.0010514802709237136, 0.04204656704851568, 0.005306812527116667, -0.04851244695888043, -0.01379579560797774, -0.05204545916912687, 0.07449791031310231, 0.0, 0.14067159906751628, 0.0, -0.04501904542390922, -0.109598838270583, -0.13280862908307142, -0.11524612464446576, 0.009631605665786424, 0.029006032021172082, -0.11500994234850204, 0.059985533027458016, -0.026947966586371667, 0.0, 0.11749831680307855, 0.060129961187719794, -0.009744195198317658, -0.05967710319236363, -0.16076987502310475, -0.04588084408815532, -0.00514110205339308, -0.06737458496643915, 0.0, 0.0, -0.0062418075321149236, -0.0403354594864639, 0.0017348719661889342, 0.023650410133821576, -0.07565203547408138, 0.10135647191360005, 0.0, 0.0, 0.04500362082524744, 0.006912230280271627, 0.06464459351844286, 0.011235259651694342, -0.03732300238680412, 0.017199940482548946, -0.07992848752859684, 0.0, 0.0, -0.004899451600977493, 0.0, -0.13912054501838358, -0.032213727161407225, 0.0, 0.001029314878874022, -0.07062203895751756, 0.08971052231524787, -0.05767089681649542, 0.06595338529345911, 0.022467866332823192, -0.04003270812153094, 0.13057696163057686, -0.08393094861797726, 0.06191944884548272, 0.06844939317972885, -0.041988840715067165], [0.20708180237608997, 0.13954778069712506, 0.007085227462086684, 0.03558439968446218, 0.038013913650067496, -0.00014118574744573334, -0.02831830183482045, -0.11952503618019153, 0.08076790947795864, -0.14131471441674115, 0.24180640668601994, 0.05635394427047589, -0.049247353083331565, 0.035181328350207375, 0.16458828024045072, 0.055308277568931155, -0.06899854802195046, 0.03908873606346325, 0.16450452621270323, 0.1356509851527051, -0.006184983056513873, -0.00926612387899255, -0.14544904351833626, -0.08947242092610878, 0.06025004641181498, 0.11305235893147356, -0.14596937925949846, -0.035392400502870514, -0.11707056598970389, 0.0884213610765926, -0.08677203498505222, 0.08261074516493558, -0.03817793272865742, -0.0592261758751684, 0.12264982623444577, -0.07691981188078532, -0.03143738098350626, -0.057362726292580955, -0.05410798853702148, -0.24375935702423587, 0.08025120515852768, 0.1657109655063188, 0.07425389624694113, -0.054407737825413034, -0.025775983928076975, -0.014979883302799826, 0.12531350441374484, -0.04923807168157589, -0.032599447314965536, 0.09431451720868046, -0.1313178988180017, 0.015831449084897028, -0.08461399332737787, -0.03243902913697733, 0.12714504339668609, 0.09723433533559682, 0.036027656929694486, 0.051255795178947613, -0.15209262085049838, -0.01509679247823094, -0.10288910960074414, 0.036832305451086476, 0.06917892020034004, 0.0010951611995039623], [-0.12699543075628075, 0.06795938396314995, -0.047193625904361734, 0.004880563670509048, 0.21329848899821716, -0.009910304875842909, -0.27364876537064015, 0.028609987771478124, 0.06567695801090297, 0.19772495903961337, 0.03052262607791223, -0.08310788334384189, -0.0019220203664479163, 0.03527784291409531, 0.3081072931457129, -0.004973537919983985, -0.02985491898955291, 0.010479570096754893, 0.12884509007390174, 0.04945080767314039, 0.022087594765187336, -0.0002913657904184812, 0.015225363545685225, -0.07744222557078127, 0.03015900173426138, -0.019214409466701343, 0.05650069050400621, -0.03407997003551875, 0.051923173817241326, 0.04077703705862846, -0.1647643049108031, 0.12648697605274417, -0.06784876897906895, -0.08882484969500691, -0.037798744151309654, 0.09189551140742848, -0.1699938009157774, 0.12147056885160656, -0.0016235479005835515, -0.0828619074910678, 0.03192650391562059, 0.06627535756288587, 0.044155542001208685, 0.07864643600114168, 0.007106127810336112, -0.0, -0.027496311312761784, -0.045515229710314374, -0.034835351268079774, 0.12507761038183773, 0.019475826837645295, -0.1673448898190151, 0.03528142050050865, 0.04759808004026646, 0.0, -0.03382391508010631, 0.07021747276066591, 0.07516107102444318, -0.0643473986817012, 0.04455945958507469, -0.1619929552623454, -0.10992531608744502, 0.022430401518795582, 0.18562024401331867], [0.07813076219300985, 0.042009453867241885, 0.05374208078679094, 0.01200395763029868, -0.017270171949749353, 0.04475693370494159, 0.1098817554884029, 0.0376392690926588, 0.07269217662154062, 0.05423981604419801, -0.0006455362032245838, 0.08625595070599883, 0.0022469944961467057, -0.07513798969542015, -0.08058734285765823, -0.024830351698086717, 0.021684150537123657, -0.011643114442762711, -0.04747140768562885, -0.02972690984285659, -0.14454366775175106, -0.07774157817970884, 0.006760962471296618, -0.10413384927050125, 0.03317944214452426, 0.048399897283880354, -0.15144219912929938, -0.011596126126262509, -0.03765053651763486, -0.04116327220592824, -0.008694052740475577, -0.006763068547731363, -0.02155076560286795, -0.23210016719299514, 0.027284798210710493, -0.08747605034647374, 0.025909915670646648, 0.006525272121100744, 0.02999422731583135, -0.12447133425910362, -0.2904928292838988, -0.03487911011505592, 0.08506551252901202, 0.17445008221115646, -0.012226609197340473, -0.037653572062574636, 0.034328149566639786, -0.044056940896684424, 0.01728117401583848, 0.03252166002581434, 0.05686632671406193, 0.18826385624335049, -0.032744850851954777, -0.07776583792722504, 0.0, -0.06374375797503481, -0.018890011573775706, -0.035675137828999066, -0.04476155790036934, -0.0590732611874431, -0.0623893402177378, 0.06629853175582043, 0.09071985566362359, 0.0011336183220469827], [0.0004749057708139572, 0.031002679378351494, 0.0734880927036419, -0.002772083064086987, 0.03126584818674426, 0.07051039097631318, -0.16151372965888083, 0.008822892190557385, -0.03750012739407648, 0.12625136006181342, 0.11956327128614465, -0.08183312163066613, 0.08714152935975106, 0.026828179416064846, 0.12412866677821884, 0.030804556831647664, -0.07212291201425722, -0.06464167758955415, -0.10237841904451514, 0.018168529056251298, 0.10304515592214628, 0.19312934498785933, 0.030330624973683735, 0.05017685171639939, -0.0, 0.052134812005526776, 0.02434228184433522, -0.1009536534100183, 0.06906263994005553, 0.12785160828685152, 0.022619492690452957, 0.02619186040893269, 0.0, 0.12968294150051657, -0.01602197754409625, -0.1676328544365572, -0.06025463091935559, -0.1442526901581951, 0.0012694609835192353, -0.004194332178135002, 0.05394053316579657, 0.19535529114514727, 0.0874202108717145, 0.02513747278766035, 0.06268536312725485, -0.08955693759602631, 0.07467288062707278, -0.049211991935870905, -0.003797282258530891, -0.027832443339582943, -0.12945070369620593, 0.11798421452344215, 0.09132410498088864, 0.026470983336283206, -0.05795062361007631, 0.09149811427603535, -0.10887539942072001, 0.1689780369504537, -0.07579583108311849, 0.12159246538797697, -0.0746413043956469, 0.06901333805825967, -0.021431597002213545, 0.06739871481495484], [0.0637298521750115, -0.008297170002779526, -0.05724040183523144, -0.018465877696308954, 0.0940270664513137, -0.008062611347581395, -0.2012490245995365, 0.00713839290732084, 0.17185934758561874, 0.23416288606063873, 0.04153378842237507, -0.12142430219780002, 0.16382967810985954, 0.0669704795391646, -0.06865718938482797, 0.10548356354709569, -0.1272877452576043, 0.04068740972104833, 0.1815109378532668, 0.06958541896109023, 0.042076734910444474, 0.32725207636786896, 0.0021178935204529694, -0.15219332044167516, 0.004274963583471271, 0.31884055046083165, 0.0918511254805749, -0.25989963975320357, -0.00680260704260481, 0.007210160743751693, 0.08167552094333036, 0.1407086274180919, -0.007248916292284277, 0.24891318802216772, -0.0517650832664513, 0.005259884415310595, 0.01820725599613262, -0.08006861830099676, 0.07068721423974113, 0.15856066766758767, 0.028848698733719872, 0.11970956067631983, -0.15955711226974614, -0.0594673349520534, 0.007432134205735719, -0.003672842263269709, 0.16494133731486502, 0.12387607959843623, -0.16738944259569333, 0.10055674361002631, 0.021781785532267676, 0.09448293067543255, 0.16251049986231975, 0.049142859256264874, -0.053234850115333486, -0.14027860252521493, -0.10189792551681531, 0.11233523221146577, 0.051185591252484, 0.17099287611788358, 0.07579636857334672, 0.05459947962467746, -0.005599553479678043, 0.32034692588547997], [-0.03544766105633107, -0.05096821342931548, 0.16164481196113706, 0.021648520353327153, 0.017056469852424525, -0.04020424962068492, 0.0626142501555622, 0.13318982125113943, -0.15810630466803402, 0.07421489757151954, -0.08350489395353773, -0.0012510113041994194, -0.1303355083327188, -0.0017223030996897225, -0.17472466570020403, 0.18094388852752336, 0.018972603838889938, -0.09629549881515113, -0.0175982213217594, -0.11405818747844858, 0.05679933470548801, 0.10349736301759173, -0.016286871429138854, -0.09205738513899649, 0.1407852534050136, -0.018124446005094597, 0.07537602882053576, -0.1023280488543673, -0.04758819603863634, -0.030669244399510274, 0.16196101413295477, -0.08802246148356449, -0.0006690515805253444, 0.01524777817830269, -0.026032352097629937, 0.08410682822963031, -0.07841083776770082, -0.017673737087552408, -0.007378152826187553, -0.017447814371648947, -0.08233168235630085, 0.08763993126863193, 0.15395811898903283, -0.0892935783963781, -0.07961757422951823, -0.03015777651748623, 0.008601421002242282, -0.008839988932674422, -0.1295117741497404, 0.11311882542655886, 0.0912341631201711, 0.004227097257203961, -0.20563352766938975, -0.006310557815225973, -0.04311230787300419, 0.09302705108943976, -0.19191310932622366, 0.024573286668158712, -0.09799042964003689, 0.08871797498797149, 0.02907407617131162, 0.06493808017775357, -0.0015895281058264186, 0.02709097023120937], [0.14400682746429683, 0.3409661029181108, -0.1707563294816043, -0.23286442436066165, 0.4219939801456856, 0.0016473112744505344, -0.3191314917427292, -0.029263591231227525, -0.014542540342998386, 0.46480579731614385, 0.3361422952583541, -0.18531819534671926, 0.16626301804687985, 0.34086790691117, 0.591611160846952, 0.1433496409019705, -0.24265456769105498, -0.03268906007766896, 0.13150934024867336, 0.2446196922449102, -0.0025816526096404373, 0.24436486576100036, 0.34826961106691007, 0.03184352248482199, 0.03486484284634546, 0.4377429189106063, 0.057214140545177365, -0.06818608960486654, -0.24159331582580415, 0.2687178684300133, 0.04750396377660178, 0.21272934530757873, -0.05210246330824082, -0.19544148768858166, 0.13655400388414282, -0.029884680517472322, 0.0035578955691427014, -0.21065638670466294, -0.15747104576932874, -0.2794560429448768, 0.06266409527848175, -0.015378003671864829, 0.2053496509187116, -0.24552652365286134, 0.132991604777537, 0.015255039013128281, -0.01323661652150049, 0.03779865212625203, -0.154862667338552, 0.42855579265202637, 0.11069564571084185, 0.18113504731983587, 0.015461141323674397, 0.13396980649542722, -0.054805573276178854, -0.17705397405144027, -0.24246954878027097, 0.1842232339346781, 0.02689163682503159, 0.09401470787277658, -0.0956842492191017, -0.470153808768345, 0.26020526296184515, 0.42582347514729413], [0.18793844721460062, 0.2834855994649884, 0.04215139592629847, 0.02379751463497781, 0.10509403601324246, 0.14808445131930112, 0.0009202470982531396, 0.15075510409605627, -0.0, 0.06407877610830735, 0.07435137852772675, 0.04119896843346704, 0.08949510950151529, -0.006235795497070125, 0.0062771276834363045, -0.06970897900002365, -0.0007706204203642548, 0.02426205861922917, 0.07910931386494088, 0.11273184824016655, -0.01925574963426365, 0.09561324449928521, -0.09399072238726176, 0.003836124390334305, 0.03608824772512406, 0.0820657954843199, 0.009574013493157613, -0.006940416641110821, -0.0775031598287086, 0.016943231297380585, 0.0915004610970746, 0.10023851636196411, 0.01420363925620537, 0.06316146840232348, 0.08441703739001395, -0.04790664969573898, 0.04400423927202718, 0.05065726290301113, 0.09244698827201302, 0.016103684495857716, -0.1074168250926164, 0.1167907495313291, 0.010737953248524234, -0.02896702313148187, 0.06973352092627903, -0.029668925984055728, 0.09485309058353371, 0.023034610376606056, 0.016650818028325614, -0.06960140470475881, 0.0686053565977102, 0.01662794702818407, 0.005401425836148737, 0.05056505522726084, -0.13065108765352293, 0.07835908907432552, -0.05978566444530198, -0.04451736086969397, -0.12621346968421776, 0.09652635164135674, -0.01568756524952471, 0.12910852978874804, 0.0017585067547935523, -0.12702215891364504], [-0.0418147470282036, 0.1403263012112782, -0.02702929410890079, -0.03812928415364515, 0.04899312091389121, 0.05882193614835812, 0.0893337243812394, 0.10115366461876525, -0.02821302085326851, -0.05566440765725415, -0.0154052292479148, 0.025566511089198753, -0.03695136401992704, -0.024197064563005816, -0.024944013679214543, -0.0056387365938950235, 0.047418302932938, -0.07332132136670638, -0.0015907388692325036, -0.026369065626455874, 0.04047009136739823, 0.019565994995350118, -0.13882678112709865, -0.02013949072096163, -0.11611640094608333, -0.027568165744807995, 0.0012403947463446724, -0.0942903672336494, -0.033812787199962134, -0.027927003480046737, -0.002354121691848371, 0.06440773238698089, -0.059190046378541535, 0.007724535511698724, 0.0010378596660237105, -0.020656216819094405, 0.11796052796967724, 0.0992143681844639, -0.14819081052192912, 0.03719403739918557, 0.03417717129739418, -0.10603283401466884, 0.04406417392433799, 0.15918733035224517, -0.10794263024318987, -0.07180775235581557, 0.06381723839801787, 0.0195926941812118, 0.03190215389514996, 0.029539080971052137, 0.003013426906320597, -0.11829239162300749, 0.04169227608147346, 0.09538685586551618, -0.0066054614454981835, 0.0278306220683976, -0.10018950989282427, 0.019385515065216186, 0.01779383169763891, -0.01694808760423365, 0.06051085470701426, -0.006896213857061552, 0.1089992751699054, -0.04050435291168465], [0.024674416088652874, 0.017272817472505232, 0.00968132033803161, 0.007961930298563503, 0.04651807041813224, 0.13675440603557537, -0.001954983222669997, -0.10159049801353304, 0.11718681166753661, 0.13114892333940723, -0.06327379903521334, 0.06184122521940117, 0.0004675600685390783, 0.03508647713930679, 0.04711988203275082, -0.006076267097589155, -0.0649412218329126, -0.06947119532702836, -0.011739517615709596, -0.06087039031196625, -0.022645834521766047, -0.0036483577689571875, 0.02630674460548262, 0.12640809849072487, -0.04262483224530494, 0.03060791800078723, 0.058650401887660734, 0.016656911714281294, 0.0294847615978873, 0.0982178141635668, 0.0524143598783429, -0.02706273959930847, 0.04381601811638386, 0.12435994658273827, 0.024893852363672937, -0.005050457126019495, 0.04226019688225702, 0.0027820072362393657, 0.12454709226637528, 0.23816885550858877, -0.008667153591518314, -0.06535366807817182, 0.053818357772178804, 0.07608564030978172, 0.0021996685256837722, 0.094728636739037, -0.07698533813199497, 0.03118385277722391, -0.061092088363435826, 0.15259691202239006, 0.13122938506663845, -0.04299221864527943, -0.0005445588939157354, 0.10100546894273502, -0.01925504957577204, 0.04241336409982641, 0.0030974330756485353, -0.09801163529325484, -0.005308626893813852, -0.03023822982045701, -0.008319310601055034, 0.124366439830267, -0.0505631632830414, 0.0521783586988894], [0.02226700261164777, 0.010676904228798079, 0.04799125015303916, 0.05886191603591722, 0.07921055801262374, 0.09103804513128626, 0.014963008107487021, -0.03480566180417481, -0.08641922325892364, -0.04128903184799488, 0.21669331425978985, 0.12828211481959553, -0.05540733207389768, -0.09618387898664979, 2.439221687112927e-05, 0.06506549491681791, 0.09871008806934542, -0.030109806655827513, 0.0015657154732703778, 0.025353985629900645, -0.002175090405348179, -0.2349590519566199, -0.022176646296652926, -0.07410599380609081, -0.0, 0.2173961267294369, 0.006310144015547749, -0.004664883142709718, 0.09445800368014676, 0.049395119008156976, -0.001053947273694082, 0.07739275539325581, 0.14015024321306715, -0.04688129038196604, 0.06477107278700496, -0.06600878835337276, 0.03097774664208609, -0.027579740744030995, -0.03993311628068288, -0.0002317052808915381, 0.04124568336682878, 0.03247954279217934, -0.10099450323362573, 0.04343081263088232, -0.08454112085911024, -0.09915531541260358, 0.0017002154404983376, -0.00883831071205364, 0.17602229960047966, 0.043367272378851685, -0.11519402938386372, -0.03708520744468898, 0.02609832788923728, 0.11120814929428073, -0.11539427153350283, -0.06248625810681929, 0.16583505067160956, 0.010151718670193594, -0.07424795107724862, 0.0005880424471451431, -0.21189857865279152, 0.027814717304472363, 0.1071455583979578, 0.07695165371733603], [-0.08621908870938029, -0.03346083873788151, -0.005371179169097469, -0.0161580576984875, -0.0689536455352163, -0.03369659593418846, -0.038491110962693344, 0.061929961557760364, 0.05173733861474545, -0.06407107010418235, -0.027372398419152746, -0.09585761547144636, -0.052386976488943304, -0.052463877612619836, 0.184873028161971, -0.043824722025058306, 0.10857850621473675, 0.044846556393275484, -0.05886133089644605, 0.14664219196013417, -0.04631658444125334, -0.05145660348242018, -0.014260411891883566, -0.08036683995960738, 0.07613882567455034, -0.07845390681262258, -0.1798844752378119, -0.00841171230583863, -0.03695047520232722, -0.00190646031363338, -0.0074556549758823315, -0.08338311988998291, 0.0, -0.05014628495475369, 0.03205073887075783, -0.09491827591910065, -0.07489890655702466, 0.012071818606861727, 0.038504552449731916, -0.032204269082987014, -0.23976006376288925, 0.02860106408719609, -0.13405976949894202, -0.08492388945679749, -0.07952085988732005, -0.0030075853802820534, -0.033735706831517255, -0.15799860178434344, 0.06791949768943266, 0.08020873756108951, 0.0404573028222208, -0.03865865753062621, -0.026044673742259696, -0.08925387273594033, 0.03622893612950812, 0.07787772665730325, -0.03367697963165068, 0.046778927493402477, 0.02796174282358842, 0.024772899360779983, 0.025188235518683974, 0.05717091122341075, -0.0027528720972240578, 0.058890483463362786], [0.02106998280247523, -0.05726295991758287, 0.10075002277204059, 0.044176743796521326, -0.02373889245738138, -0.026661832394431578, 0.011993192022503641, 0.02535403721960821, 0.004031398493797106, 0.013174681865025548, 0.12453416120622159, 0.07413992770009468, 0.0034975816698592957, 0.06369623164323769, -0.07101087076784875, 0.020120841810573196, 0.13330315309222793, -0.005695687356161192, -0.05618405058695379, -0.04050276404250968, -0.07559060475142838, -0.05114217134578988, -0.01792204304500103, -0.10092620830246306, 0.0, 0.06056603710501535, -0.06100541590352421, 0.11004546811221827, 0.02917179268339451, 0.07085503786869428, -0.04096352314154942, 0.0567366785382652, -0.07577511679281114, 0.059601347238167554, 0.0019902597277318846, 0.0325767047250196, -0.082484095452274, -0.05998806157183115, 0.03610334060597636, -0.06426057980400603, 0.025355760358070425, -0.09784446239517973, 0.05622737521114668, -0.08704936558845651, 0.03250041820669234, 0.03838102852203323, -0.04408600777036805, 0.03488427630727835, 0.009095566208325936, -0.031421179065928374, -0.06908871817799601, -0.14559824551520342, 0.016249379873106283, -0.11369574933503461, 0.0, -0.009336621568540288, 0.04267228857365255, -0.012431841892813888, -0.014629304688344148, 0.046900683945507456, 0.015079206342121957, 0.013563398958787817, 0.025841831190054978, -0.11135166920471991], [0.04889892229969185, 0.037325521371463166, -0.06974055684198878, -0.00778347035713213, 0.0, 0.0, 0.01498313121565718, 0.10299515986166835, 0.07495978789868894, -0.09344038815774838, 0.03809547030286612, 0.0947807461086439, 0.019229216838409908, 0.07569865819963051, 0.14957938844219415, 0.0703040255090621, 0.008202728347439011, 0.07201846463146941, 0.0, 0.0, -0.016390854081718448, 0.11358433086747785, -0.05384200189587797, 0.11109469453064033, 0.02829545130411046, -0.10042413211918644, 0.017692786761885102, -0.15661679107874135, 0.03837117245682077, 0.05919909836913028, -0.03571262075211514, 0.0, 0.1449191521063797, -0.02876719212469495, -0.07312665536631283, 0.10702857530522718, 0.14559515772755685, 0.0, 0.06932194652231055, 0.09578657142516048, -0.04775180918898759, -0.027127983172210077, 0.08691714518307, 0.1233358319273563, 0.0333489336482297, -0.05876468106222693, 0.14755778614680778, -0.0307899846044831, -0.015085601790838867, 0.01566299418146403, 0.11284231542060576, 0.056692632155659554, 0.021479181583645396, 0.025362354170854407, 0.0, 0.03296871036042404, -0.19106223812116627, -0.011995751635947516, 0.0075622561834827184, -0.08051292064863905, 0.01919030641219167, -0.004607097620066541, 0.12898632080545505, 0.114354690866585], [-0.025564202753714096, -0.00030608188023240534, 0.0, -0.024429789723160327, 0.003849578706891032, -0.04901868161778016, -0.07887709105507949, 0.03814689200488145, 0.03869367419103495, -0.05271024646583617, 0.06001096186690045, -0.03885791963857638, 0.008512003022264653, 0.053995597821938725, 0.0, 0.02467689877231328, -0.029623885901624115, -0.003965184329213278, -0.004718422880411216, -0.04808012800921708, -0.0023859960415545454, -0.11239787475349391, -0.02759694211599842, -0.011054932375148398, -0.008753744291963964, -0.007576330472531253, 0.0, 0.026657707377807746, 0.05833988082768413, -0.04031642609573839, -0.08469791491858847, -0.07177434777282218, -0.027280114072088513, -0.016431518715469648, -0.04995805736175379, -0.09214909065949138, -0.02478755724260111, 0.002759088977623708, 0.03592701645969978, -0.0329112564788267, -0.021329407153286715, -0.06252443535078896, 0.0, -0.056247775640985084, 0.034170662770925835, -0.13142344563287306, -0.01704967133698677, 0.012356609332963519, 0.0029521856422468074, 0.20417162698914373, 0.016261405993414014, -0.06872783897162334, 0.0, -0.13065197670693202, 0.0, -0.055015007492158145, 0.061617610433243826, -0.032279115605687726, 0.0, -0.03917709459229208, 0.12765317087897288, -0.013971323908057484, 0.13516768928534403, 0.053499023254112536], [0.20184015695789567, 0.1613013658919813, 0.014536303537233774, -0.08629032510813152, 0.11773787887399455, -0.0046663705183416, 0.10505977777533822, -0.06773869692420352, 0.0, 0.1764655330832386, 0.06602137093984128, 0.10929415929463755, 0.12411536562348244, 0.04536007522177027, -0.007917042018067838, -0.024617317152272142, 0.2698242763107024, -0.01018224280664111, -0.04710518330232748, -0.06730995087898317, 0.11358759981667822, 0.006531954956090967, 0.11963451900340696, 0.0392845752618351, 0.011916924623604538, -0.1844960568701261, 0.1738909221985405, -0.11053843811685207, -0.053011829103823745, -0.0912977124940645, -0.05047300307174667, 0.01595765328106403, -0.03695715690896891, -0.015475982402336165, 0.005517012417380143, -0.007870200217803422, -0.08525649827459983, 0.05987032198242932, 0.15948639088144034, -0.021848832486197543, 0.024974526883964735, -0.03550691103940894, 0.06224231005076721, 0.06068643001836324, -0.09353576896284886, 0.01699086753161102, -0.012382907012611435, 0.05763172085508569, 0.0857487995739562, 0.0012540159578373353, -0.05545845394900637, -0.08833221507099054, -0.001018149863966477, 0.036262115415929774, -0.039317426415072146, 0.14832248886469693, -0.06467225044212814, -0.030011839851849294, 0.0, -0.07884903067017054, 0.030404321424999298, -0.0348846506251318, 0.1667673564665372, 0.06870742770123439], [0.006012139712046414, -0.014752993603534614, -0.042129516160273786, 0.08141805506940196, -0.05744753378847998, -0.08933657441935873, 0.0685797412101183, 0.132701807269953, -0.01908593584383736, 0.07052164132586464, -0.003462446181660748, -0.033109447124434165, 0.10942068937026761, 0.08576448709909096, 0.14590044505568134, 0.3407936910974052, -0.00349860886298935, 0.12651806954900524, -0.05063875714577495, -0.027783440581310444, -0.01917998836881814, -0.13429872507335827, -0.08041188597796757, 0.0644630307685142, -0.1098762420536432, -0.01504143698952315, 0.03603582030477025, -0.107514356404876, -0.10508338953942356, 0.0739321182250308, -0.04618014654787635, 0.10146534721181232, -0.046827351378829714, 0.0649575162916654, 0.08411687450006046, 0.06686743250165693, -0.010733518956204929, 0.09580574008593788, 0.06967926422047897, 0.11346521073759594, 0.0249012707949996, 0.019143462818579208, -0.02439632974210329, 0.043452993034277874, -0.04377838451587088, -0.0, 0.043452152426462075, 0.021997620406405488, 0.17953501979819397, 0.08200386945364113, 0.05790984664968467, -0.05375782660510034, -0.09719233415592023, 0.01431498119831242, 0.05846255107870871, 0.22966065407096833, 0.033446881981974694, -0.0031178933013116224, -0.1196846520914212, -0.03737238285569781, 0.17508296715316785, -0.020543128375998972, 0.19469743534875217, 0.06847288955927995], [0.01748724991577171, -0.053230690687284324, -0.1376341293679328, -0.4006567381819942, 0.0005682008064087134, -0.08057433154246053, 0.18828523038694506, -0.0038998955827144427, 0.025633603887978022, 0.25915120290473626, -0.14234955869174643, 0.22450841084920042, -0.006209833468642238, 0.04342496738513578, 0.008933672483297088, -0.17915485459243508, 0.08033863987178023, -0.037014448275426964, -0.005972593260551202, -0.10179039903058919, 0.1134207777029506, -0.04876335729133349, 0.05257839576917763, -0.0517863126437777, -0.13420907939664928, 0.0717046158082802, -0.0875783671375416, 0.02067146197956429, -0.01609167584394111, 0.08298563981245688, 0.07184291633956097, 0.013298421166137032, 0.08955004339505242, -0.12120841145313721, 0.03712401674890713, 0.02217645348378746, 0.02363949706765995, 0.1523443610313084, -0.05534772366273489, 0.031184713286646803, -0.26937322084104987, -0.1738885588485225, 0.0, 0.12737419278810613, -0.09644480332026412, 0.17158661604044217, 0.010636873677163854, 0.07808425860236748, 0.11338468717379382, -0.12157235815793681, -0.06454690758015626, -0.09925234130776862, 0.006217279181563281, 0.0007027818346424005, 0.015008507476672182, 0.05629962846626646, -0.19469373405554416, -0.13954769156503757, -0.021378142575646637, 0.06931674060589778, 0.07276869702513392, 0.0008956305924900446, 0.0001203534496897416, -0.0940279200602036], [0.25000584186825847, 0.0994909074038605, -0.00859230200928949, 0.15103413711440633, 0.04552117193765929, -0.16130053897095234, 0.06414057232782143, 0.10463766056761904, -0.11005045828296599, -0.16372947319820275, -0.046569880249816224, 0.15841201113171482, 0.14406830524595926, 0.03937820169518125, 0.08310760466801505, 0.11847251211771062, 0.004292395526918708, -0.01936652779154193, -0.029136961957025677, -0.017901059684620708, -0.056413010991941986, -0.09769615348883252, -0.23426111578248132, 0.0067321242075261455, 0.024578084787765735, -0.14164520732701594, 0.06460167469714521, -1.513899554275256e-05, -0.09646558931138577, 0.002947884573920494, -0.08045430263348763, 0.06065127004198607, 0.037144876234424196, 0.016765803864759024, 0.0030233095302279293, -0.04539697412730393, 0.03707191201390843, -0.09862580507170422, 0.15476423627755928, -0.011399408631259446, 0.10040755928390024, 0.055409935015503654, -0.11878123901001841, -0.001471569802021459, -0.07407576165712099, -0.06108380995296965, 0.19156211188412178, -0.04213519541084343, 0.015510687720887262, 0.02024851289033517, -0.08461360780015137, -0.048957588256641454, -0.005624286155903672, -0.06540611804302282, 0.0, 0.0710546581417218, -0.018817383481480064, 0.019079658257957204, 0.12894281454669473, -0.0069033913479098485, 0.11322982821932549, 0.05063769418528062, 0.05070460203552953, 0.2159390829944901], [0.17940721958028777, 0.2625946646751179, -0.05224725464627744, 0.19051022117423752, 0.20146409639799595, -0.018931875479009434, 0.12748802583928895, 0.007034659714207867, 0.08448386336071058, 0.05402455809767829, -0.16813485864216443, 0.030168897401738875, 0.033572613914614524, 0.09335091486970684, 0.11104302897379247, 0.12369065336700381, 0.00022245918757458758, 0.0, -0.17337621774005613, 0.0025982552454791893, -0.02310513766053644, -0.06866841767166881, -0.10399255067791217, 0.14040258067511957, 0.07174870861967009, -0.02731641275580971, 0.05420459419080756, 0.006029269349974732, -0.12568326369258548, 0.041727248288614384, 0.10544613456321938, 0.15857512690097886, -0.046718786485924514, 0.03316074815922821, -0.05097633520284288, -0.022715969803676704, 0.015900529474138936, -0.08418109622215043, -0.0077716096565933175, -0.007392954117535584, 0.04881962154617965, -0.11401173472881686, -0.0, 0.06528676160088476, -0.06651522876200605, -0.058841459519993256, 0.13653152220793519, 0.1357432172786103, 0.02026338081395123, -0.022533310677263222, 0.027601265496689332, -0.04593822426356174, -0.037060356018434125, -0.0017183647106365793, -0.14132641080258673, 0.21728143616412324, 0.08494052007406021, -0.016128513261772136, 0.0, -0.010771958819461759, -0.022664403536470125, 0.1149695176085234, 0.14664964830090313, 0.11493538140972479], [0.20139356239131032, 0.05471979357652262, -0.013053841983194493, -0.004253331964814605, 0.20775121247321165, -0.21718371673695072, 0.1009668751809455, -0.054471429792492365, 0.022874331035767595, 0.09889363260613271, -0.09579631398077637, 0.10426171314114394, 0.018241730902510328, 0.02663741780947956, 0.09876589532762052, -0.02950729079365318, -0.0352223042192959, -0.01826798997798684, -0.0605792458987971, -0.2262994045960562, -0.14113763161095658, -0.0797855223133683, 0.008175133959643316, 0.04290460246440575, -0.03684713893952415, -0.02427912900694573, 0.020189882108269087, -0.08102953116870669, -0.0981190222090462, -0.19155573018829133, -0.05956457144464057, 0.08102119853913778, 0.0, -0.03513505608589646, -0.05475421368927431, -0.02651318091296903, -0.006121618953550297, 0.18043626171312208, -0.004833026670281942, -0.014746760401729446, -0.059629167190900695, -0.09496568382769145, 0.005236845446339715, 0.08525205367903493, -0.008302260059479448, 0.030082016079292766, -0.045265640050924705, 0.0066654902638363074, 0.12929124793428046, 0.08013758222530298, -0.08418370745814927, -0.02168842471472245, 0.04483943614225529, 0.08523075765632024, -0.021063871755252084, 0.16128099555438102, 0.22080546786236568, -0.00012279266855429129, -0.11130901376051236, -0.1720059800300848, 0.15684011730083278, -0.08183602114916663, 0.1704256667430677, 0.17271335540032917], [-0.13471146342493245, -0.06122066289560592, 0.13201136654919654, -0.03356773020507448, -0.06644421460420856, 0.16919636981212444, 0.06110224504993494, -0.0029406281489776642, 0.06041539035074706, -0.024860271825309633, -0.10259387907685086, -0.14151336870583223, -0.18038105718300373, 0.09570439405879493, 0.004615083955932766, -0.006402473530783325, -0.07437946827066304, -0.03537958759081808, -0.11516630621908308, -0.16089299488826958, -0.05104151350205683, 0.0023377675983269315, 0.12070662184386542, 0.05337189975798195, 0.010964757982197093, -0.1522327966097822, -0.27863504512015336, 0.23328939986894853, 0.016467832017491465, 0.08285865024530777, -0.01895664762362844, -0.32391264917398405, -0.07859406489492549, 0.058164671872053465, -0.033625848480675326, 0.02300542114892176, 0.03236542085967754, -0.09719043227708087, 0.04299564493662964, -0.02315463524241014, 0.0164051132254515, 0.28574733687151005, 0.04393874135506437, 0.20947153969105006, 0.019411924340286702, 0.05011235592679904, -0.050724403803157986, -0.1586307229194773, -0.10072324836333381, -0.17346417699758507, 0.029659756654785437, 0.08282453608584785, -0.010473547577885574, -0.1465191593176147, 0.017690425512508306, 0.09205951566523493, 0.00014534289114453183, -0.032894583638020974, 0.07497190121610973, -0.034449171504340924, -0.034465373265982285, -0.1105159422410535, -0.24843487211612908, -0.07156588541752369], [-0.011213300382921685, 0.08347904412867262, -0.0412637247037309, -0.025049798648023588, -0.0014831206457754744, 0.08311978099772689, 0.05810874576496691, -0.050091565380168394, 0.05289509260632076, -0.02520359586414471, -0.21799877081618887, 0.15546480316334896, -0.0671030598462527, -0.123572845534147, -0.3265642329596486, 0.024865396734804004, 0.03234801273825899, 0.0, -0.23161520432358843, -0.1588369177275928, -7.974715001632776e-05, -0.06233888914041697, -0.11089511033580626, 0.0354604529876804, -0.03065126206331567, -0.1802667593494319, -0.010916472434522125, -0.17882157959572764, 0.16029961621894806, -0.07526245609661274, -0.13292468459615506, -0.1564649417525114, 0.12264447340537388, -0.12237449084920211, -0.1345339377842104, -0.04083303409648444, 0.10423655899292372, -0.13693520143148863, 0.025423962389044246, 0.011671177425363683, 0.09969228542919358, 0.024828994544918125, 0.010364060706173073, 0.15418064686597824, 0.15243728397832115, 0.0, -0.19858759223939118, -0.0604411159733341, 0.14338157019863398, -0.18598629165578912, 0.0, 0.007751402972446599, -0.09571428193770111, -0.15872056107481117, 0.07817480577990717, 0.28002556421489483, 0.06602459544024543, -0.06549859538466547, -0.10300088281327228, -0.12709896154711853, 0.1870551551754965, 0.055728127907849194, 0.01897229096088306, -0.15180909011504926], [-0.07579354792154985, 0.05515095618603442, 0.061487808635518476, -0.112166233321716, 0.1157034709255797, 0.03424631834812407, 0.10044726662725059, -0.09583884394172858, -0.09773911434606113, -0.00015625009158920752, 0.028529638009761053, 0.13226501594213413, 0.04483236810728823, -0.007671265603092458, -0.07051731228981392, 0.08684706291917814, -0.0655723255306718, 0.11880127715250657, -0.011015570252440068, 0.11576305662341593, 0.042655329640881555, 0.0, -0.029861793725978827, -0.015548320631264205, 0.022557868650921097, 0.0, -0.035829335301270214, -0.001492429252469279, 0.0, -0.1589189231836908, 0.02495173577214394, -0.06677648623512517, -0.08069882840827691, -0.12352268609868741, -0.13206707250247446, -0.09690698903430724, -0.04506830185068631, 0.14484711010110224, -0.030381708335721274, 0.002464260225731297, 0.020325680194010185, 0.0, 0.0, -0.08406382864363501, 0.10456378466527293, 0.13313396527250915, -0.12314693197721288, -0.07032960730392974, -0.010648744903912061, -0.0655588845726808, 0.02878473897988162, -0.04661210963654935, 0.16183167246553687, 0.08368329466512188, 0.005256884530425731, 0.0705667933698718, 0.0768951328939667, -0.033434469189925584, -0.053664659640052154, 0.0, 0.05730692026276184, 0.0, -0.11467359336844908, -0.05259065444274411], [0.0, 0.0, 0.14639347033062358, -0.09935611130289076, 0.02875456374240043, 0.10762599051698472, 0.17036367903959743, -0.02063971919133839, 0.02761905134472791, 0.03390061996770424, 0.0038862067513736006, 0.0, 0.02317204204145383, -0.1912776375987289, 0.04290698911393481, 0.0, -0.006050861803158957, 0.15235338803393977, -0.042334778088338895, -0.02053374976080489, 0.14791802485233735, -0.0549352364580501, -0.03232522688653378, -3.64614007319281e-07, 0.055630763015371114, 0.0048742426349588225, -0.09186910575363064, -0.030886031051805613, -0.03691539051817044, 0.0, 0.02235954999248401, 0.021747047161986072, -0.13063316318963025, 0.07353029517374789, 0.008464175772741937, 0.09923935851487939, 0.023831461558708716, 0.07652805899287271, 0.025623525559413298, 0.09616746867280851, 0.03009068673995978, 0.0, 0.17044266139729414, 0.05950428268129583, 0.03422011039198445, -0.09056028529947216, -0.09152286246950847, 0.011683643700862573, 0.0, -0.037458143284840865, 0.0, 0.11560627731256815, 0.043976200114632956, -0.07971054516708996, 0.0, -0.05276243294497762, -0.019300699600413924, -0.02137895515134311, -0.026513685505394347, -0.08886269039326695, 0.0, -0.03316663468065557, -0.2231303754671473, 0.15284336161919607], [0.07552137330208929, -0.01838656867138675, 0.0, -0.08216811822291677, 0.1241945810428109, 0.14035869050637748, 0.0007756920795423698, 0.07028967637823388, 0.0022667194890270744, -0.095405616819228, -0.021235224850209032, 0.0, -0.02466140725565297, -0.005744395294343167, 0.0, 0.0, 0.0, -0.07326277613504238, -0.04570945753419905, -0.09122427436005565, 0.06662366464590468, -0.15706749335857303, 0.08071951562953758, 0.0993850963559695, -0.012442675438790622, -0.19696257012664614, -0.01718446808531678, 0.0, -0.06925259079668847, -0.02952674964689692, 0.11092047830131753, 0.04153230222979202, -0.062353287789684485, -0.11632577963279053, -0.014434398847832156, -0.005327674213159231, 0.028001549844483543, -0.031138488760984143, 0.029228529586436135, 0.14339521896608087, 0.05360722487788293, 0.0, -0.002897329612949639, -0.016812578478256963, 0.08288877726854335, -0.03851595432650326, 0.0, 0.0, -0.02844942722880559, -0.09827170513666866, 0.01411019548451243, 0.0, 0.02832562893152017, -0.031000847997716536, 0.08611094581589049, -0.05852085099500183, 0.12550312426526006, -0.12835768356752494, 0.023075383772430444, 0.026336068407789043, -0.05200786559352258, 0.022243294309604627, 0.09081805342982005, -0.16598267239223172], [0.028526459404830753, -0.18815210820097703, -0.06564926210955623, 0.11885723971870797, -0.03486466933370828, -0.08234659808471749, -0.004083159565662135, 0.15404098347922138, -0.13509753054373955, -0.07251737654938685, 0.10829307692492887, 0.13718415801427153, 0.0, -0.0875729702478325, 0.15628134071181107, 0.11607262884434176, 0.04265658674328256, -0.05335873445004572, 0.0, -0.0010697070607740538, 0.014741858371947598, 0.10456971168800011, 0.058732823315068315, -0.07460769406955221, 0.09859495730843781, 0.013320909641462052, 0.043307655850292205, 0.1058158586566757, -0.07735061503083643, 0.0, -0.030828773144346847, -0.11394086996365946, 0.016013606254918978, 0.18961849186253776, -0.13577079252697685, 0.0, 0.039576862715526316, 0.0, 0.0, -0.09239766234489806, 0.0068777961901695245, -0.0488969434388781, -0.16382571410524185, 0.08400756972629718, 0.06506554118821269, 0.0, 0.006580116253553932, 0.07436245872435808, 0.006200402020522827, 0.06070560415066943, -0.012065898427909401, 0.09342150772244809, 0.013934671964289727, 0.003771547540744884, -0.09005962395387879, 0.011221763725347413, -0.05492670441323717, -0.03939561053664351, -0.053597168058674864, -0.07371425275171423, 0.15860113916837315, 0.09497367069841363, 0.14220944159179583, -0.08627724660195828], [0.0, -0.09193985719750784, -0.043999645313404584, -0.06183707756914598, 0.08761557789346967, -0.019984725821700734, 0.07388621288851507, 0.036656083273856305, 0.17294499303442523, -0.10685062122770063, 0.0891913055646328, 0.08014618133753772, -0.06626787120742048, 0.0689747377070667, 0.015166369425139294, -0.00645193363240032, -0.05428360810776654, -0.04587732611337532, 0.15258995271846687, 0.0, 0.05093111197841766, -0.05163435322499809, -0.05074850709999296, 0.07497727261573413, -0.0964361539966313, -0.0215071102883187, 0.0, 0.0, -0.0025719731091194695, 0.019951854744850082, 0.04377197116296825, 0.047122564909213675, -0.06726426108614396, -0.010997163022986544, 0.08402124967714007, 0.05995416760557432, -0.09830329999169017, 0.01639611909424586, -0.14684921057977338, 0.0, 0.14039705363896485, -0.06422407125594941, -0.05511661291321602, 0.04947960801181623, -0.11193140850515075, -0.03895233137479191, 0.036040222593788925, -0.03907509244310012, -0.007133069235143553, 0.047888254987995725, 0.02201491513025526, 0.009606886635114154, -0.015405128064046862, 0.017886198897072703, 0.0, 0.024922664681638545, -0.02806031818676633, -0.0028506973276864337, -0.06759738366269667, 0.0, -0.05324634567151, -0.07754838639564274, 0.008952734520314969, 0.005270176117884284], [0.050990755034538475, -0.02278312180376758, 0.020932858263767735, 0.032379941910048324, 0.023877608688482543, -0.05442139226674543, 0.00018786048114608297, 0.01741139179819814, 0.0, -0.15553027221570842, 0.0010800948850819927, 0.16563882859634263, -0.017082518514552242, -0.046596465164463814, 0.01814982713214924, 0.013260449229787773, 0.08385864850041973, -0.0890818372787474, 0.04686135050194135, 0.035557533510658615, 0.0, 0.015370249447240223, 0.0707649662426693, 0.058163322468412576, -0.07987179842412558, 0.05398069422769408, 0.0, 0.0, 0.0, -0.0002583896616710122, 0.0837762342053697, 0.0, -0.07798942380454348, -0.019768219807233877, 0.0025400102051060364, 0.0867840452839885, 0.03657378847523222, -0.056416714908137995, 0.18750407430318655, 0.00944304508549244, 0.09048701965079295, -0.0003763887974050652, 0.030981513475997636, 0.05552923885188289, 0.08590031663565184, 0.0730032107784482, 0.058153824892477966, -0.01347765310338226, -0.034059856125069794, 0.014882692079716663, 0.06304005286905437, -0.00607057273861961, 0.07362900878129768, 0.10469924581373123, -0.061692243121035974, -0.055324923862791364, 0.0, 0.012878287709953189, -0.030276441544172368, 0.09664677361715587, 0.022217064844108347, 0.0, -0.1033594518859662, -0.0937288142911383], [0.017828275360250705, -0.2905240722222836, 0.1466497241685726, 0.03270367761225638, 0.20240979763903985, 0.17219082899563956, -0.03547048890976373, 0.010833989105411774, 0.059456294413318365, 0.0367016830775298, -0.13259102805098552, -0.13014835441508238, -0.03940562267170725, -0.03204671052700785, 0.01970897156124622, 0.12639209351586245, -0.07422078976233541, -0.17394780704100785, -0.013430859091955674, -0.006230312411792003, -0.12657601951040098, -0.026156985793706643, 0.0019329590888868425, -0.03571974928485048, -0.024926096618991863, -0.08797134676413804, -0.12304442785639502, -0.11464085356291823, -0.0041515221165913845, 0.009748005230902421, 0.026078258622643853, -0.08834767103745189, -0.06801363751285515, 0.028373158228184057, -0.15397299496409905, 0.05235890652087009, 0.008910751186108214, -0.061739876948113635, -0.04387467549071237, 0.1031531731701208, 0.08158342872371595, 0.02140547416185241, -0.049323159721980876, -0.1987208691457481, -0.037972263627649334, 0.14194708040466955, 0.04910539435565456, -0.05297719972408766, 0.010135145372939252, 0.0001275742877000079, -0.053407814022112435, 0.16240213045156435, 0.048348891527836245, -0.10708388547747173, -0.06642723164106902, 0.10992047530721072, 0.108338470978558, 0.03172506570713447, 0.051966181688170805, -0.04013732941258132, -0.1579634533810302, 0.005350575061882194, -0.19915064013945655, -0.059084903275640574], [-0.21500475218064147, -0.1405505370228499, -0.06835270291272266, -0.022186841089185068, -0.037070506194632154, 0.034015210353114264, 0.06654204295107224, -0.12579747664143257, 0.01773288307505416, -0.15263097454074057, -0.1965939743413908, 0.00994372089666129, -0.1959721653454618, 0.018009600043260313, -0.09619333733109187, -0.0648723321279717, 0.12472768235239985, -0.01663869997094961, -0.08361935583154327, -0.17099690712542356, -0.029874786706455273, -0.06708948145685814, -0.06312392505943734, -0.12042809148983934, -0.09956096641582746, -0.19629436426808025, -0.2981287556960014, 0.12183973422064498, -0.06764894563873688, 0.08015770409507023, -0.013755109061629654, -0.27501244035266237, 0.029410507815919116, -0.024034723602886294, -0.013857226341659227, 0.05488975602536835, -0.030808279525289903, 0.11153454737702984, -0.11399477485022032, -0.17300329358395622, -0.042154961428644194, -0.009335906862113993, 0.02560053345179869, -0.06070935619648381, -0.047431479680195024, 0.009805470575616922, 0.00784189957077323, -0.03578625502000798, -0.10480499242476134, 0.09233851184965132, -0.09137486830046976, 0.07691352154867083, 0.018361399856334577, -0.1765621632197284, -0.004450963589918682, 0.009985053407034213, 0.12481451762777218, -0.11883301009291612, -0.08084771772938087, -0.1393229093921286, 0.05055081976085546, -0.03582939538260559, -0.16076276343858892, -0.18988521339889475], [-0.036579167666649606, -0.04303339742671292, 0.09678076725524773, -0.13389247634387605, 0.12935175040691235, 0.08237604489987253, 0.15750676026751156, -0.06406470308777869, -0.010938970313628543, -0.15982078001836578, -0.058954366162080864, 0.08218930977834452, 0.12685048003644941, -0.16757225391010006, -0.213723497333392, 0.04340254072139921, -0.09536475089128585, 0.02210963395702705, 0.004505113239220481, -0.044563310229141215, -0.06724557415543457, -0.03661065344917917, -0.0004605290342523895, -0.022385932095971967, -0.01803028529755616, -0.09512659214495399, 0.004879552520990089, 0.14468289043098875, -0.01386247573461114, 0.10004075178423999, -0.1199390088896891, 0.00031784576546485, -0.08277892413102955, -0.17218563623885313, -0.029606113169202534, 0.08713200609031377, 0.09103627609236177, 0.0180720800209226, -0.11979325357838397, 0.011925116993096828, 0.0791706959603447, 0.03957175028563123, -0.15413450911917573, -0.024637642805782425, 0.023833342583157877, 0.021200840090571865, -0.11200734870194022, -0.004435129508279636, -0.008511589244637853, 0.09031284339667102, 0.04662503342241531, -0.002430154294571425, -0.05696330679661619, -0.154714449087813, -0.01972995944157283, 0.09601564818921232, 0.12200354590061338, 0.015263789408792396, 0.008267055771684288, -0.029861458674940684, -0.07143653677660607, -0.023369890005991757, 0.16449351460187525, -0.10383135634822357], [0.05783113428800631, -0.04863234079768383, 0.1557644265538349, -0.12275225790199262, 0.031245817774998883, 0.01065017074181355, -0.018744977369193547, -0.015788898634706016, 0.0583992902150264, -0.09470052812489173, -0.14764832916244114, -0.0012868866196047337, 0.006789199463381007, -0.03984930854832589, -0.0583545274109428, 0.012552659309466802, 0.14946174579505908, -0.0, -0.00619063013572208, -0.15986688766492496, -0.03203112381878131, -0.019617211607849624, 0.08338739285122646, 9.196859044835503e-05, -0.08278678467906547, -0.02774115404079256, -0.002190362447236511, 0.16719016684078045, 0.05664085531629073, 0.06614898152101589, -0.019900842426512824, -0.009899616190655635, 0.0819252306298629, -0.14432213509115555, -0.03961215383608781, -0.02188765755918928, 0.052463846827047717, 0.07266247283383444, -0.05136587405020797, -0.14495007261785825, 0.003386848697539828, 0.07235316953169234, 0.04481921669288189, 0.10040674482167558, 0.01274701598355462, -0.10079812467236074, 0.016605829089779877, -0.04441620246393028, 0.11638730167623333, 0.016102196586076895, -0.031487744850152176, -0.03434642020353288, -0.006412426711425786, -0.047695836850640626, 0.07777191163017004, 0.044882465087520695, -0.007803515303484448, 0.16823197060245842, -0.0, -0.02510051167596315, -0.0980834289187274, -0.032519202397953556, 0.012047061085511417, -0.2182100924130164], [0.17924611803808438, 0.1130512596257736, -0.005808254713331892, -0.08088859676830032, 0.02948982907105658, 0.006437442663514857, 0.10677449051197446, -0.022958373793516302, 0.01797051834731766, 0.04143022961059043, 0.018584710989186515, 0.019858084799196492, 0.11201191524540768, 0.06735254479182434, 0.05725809278836397, -0.022154884756672807, 0.006172362569484506, -0.18109910291512502, 0.06080866131590259, -0.07031081307092185, 0.11882340933178197, -0.08119289065547315, -0.10866471896246607, 0.02777236612858244, -0.14662969086544395, -0.00973447893779945, -0.22120356607865466, 0.02863440446006976, -0.2043753444169244, 0.007098124668954664, 0.08457360445211372, 0.008754046491468277, -0.06400585703902698, -0.04370477446929213, 0.022060888248000877, 0.0014283434810622997, -0.10002301328408175, 0.025481021391623362, -0.24053260239654897, -0.03498445893553868, 0.0269631958311135, 0.06692783832857055, 0.014180076566381431, -0.07643121982683146, -0.015113295830354482, -0.0, 0.01803469558059946, -0.0516361665565489, -0.0457562312232277, 0.08865024670629293, -0.02677519433752567, -0.040434021079300844, 0.1365321071528945, -0.12164991068337251, -0.13671425982857505, 0.0582246811818857, -0.030893318269672593, -0.04436517531975346, -0.06621913818989283, -0.11351276646327074, 0.051175696531313625, 0.0716202496513828, 0.13267694411831907, -0.12862847297886643], [0.037040184409622354, -0.20668330420539735, -0.06345379486618173, 0.07311527895157277, 0.11845076520798928, -0.0936466358750001, 0.18149270481702756, -0.055676120047218405, 0.012966434074614147, -0.0035737830563795482, -0.14941112919776672, 0.19760654340237396, 0.16894403298043775, -0.1843756631515963, -0.13349573203317985, 0.33374364480091184, 0.09125555008786629, 0.015734910610797712, -0.04056832741297709, -0.02067489345805217, 0.03736153526110731, -0.16955107067305844, -0.017555907153587045, -0.11606593820680351, 0.10546743575774419, -0.06530905469028433, 0.02343060153156649, -0.043031910233589064, 0.0060315817063535905, -0.10769439052872153, -0.2216768610498288, 0.08660112623212268, -0.06137128742424055, -0.04776678434914875, -0.02072286720728735, -0.062139738493407974, 0.017974399883145135, 0.020657698295988108, -0.04824464385825762, 0.06792951923429745, -0.20368357159238978, -0.15667051262605614, -0.2179221586097864, 0.11291138077290593, 0.006566276141177984, -0.15920893976051134, -0.037475763145240586, -0.0180005041679693, 0.06527749328719616, -0.11503784080694647, 0.12438067297415772, -0.2804539062286519, 0.014275198484716391, -0.02734880191283571, 0.057142426262654325, 0.12003470439153671, 0.06865886911876508, 0.00828365832779607, -0.09028560793687514, -0.07107049497000097, -0.020955931632918652, 0.3172425237341743, 0.34341226734467695, -0.11803474417646412], [0.07064470924700947, -0.05891734512643304, 0.03162488927495468, 0.013385630738061607, -0.17558910647641643, -0.20227618850137827, 0.15913088311333848, 0.09854289005132143, 0.0, -0.12081280762767838, -0.006623737862801079, 0.2446055302925104, -0.022211400710849385, -0.06505837677606278, -0.029910041538678607, 0.048696866077847206, 0.17171731268213897, -0.09382591220382978, 0.04312731382194943, 0.008191386284159836, 0.010595864049235197, -0.33663895152012585, -0.029878819984494962, -0.18428729258759832, -0.03693879747808577, -0.1179354854280969, -0.030517644039968334, -0.0020576056651135937, -0.005732747665721062, -0.20292379983975367, -0.21020991238462972, 0.06842955059467651, -0.042987857607305204, 0.11289126745289588, -0.06864227785236651, -0.04541227064905487, 0.07032917360366744, 0.061550055944479695, -0.06276371707378456, 0.06631807692347942, -0.023115290553481615, -0.05346305311045069, -0.059759260206068775, -0.04521683756305998, 0.022611421726870536, 0.10961308822740329, -0.005657783981410169, 0.010548446771013992, -0.05465840035105169, -0.26469308719553475, 0.020300505231082833, -0.019256475896496254, -0.06619965496493727, -0.011711410622391012, 0.0, 0.0927992744036678, -0.011126453270241749, -0.03749820979549783, 0.07756955742889625, -0.1383309455408334, 0.04823073695475045, 0.3688541698365031, 0.03506193975312438, -0.04569907593634458], [0.09969924397920758, 0.2937458485763689, -0.19159275290614927, -0.19255605917129032, 0.21483039735523904, 0.1290748040321361, -0.08158780615693914, -0.0005259685263926391, 0.0562272465364881, 0.16611505189972542, 0.0775555070284821, -0.045020838548193505, 0.11515686539507067, 0.10899247920122529, 0.22587042623740236, 0.03784577822294574, -0.09672110818702233, 0.0022153986254447155, 0.3694769711814822, 0.0099361916362787, -0.007961495780899778, 0.0020817866851264534, -0.019514085106967515, 0.05051680165557898, -0.026602939775865798, 0.1544720950193449, 0.2711930044145374, -0.0716977232040118, -0.15940354539410634, 0.17173010646662978, 0.00904225322090241, 0.2071143428761276, 0.08506005068914703, -0.3536880484536779, 0.001041659041901904, -0.1524563443808465, 0.0630382727305073, -0.19971739195366453, -0.2988930867590739, -0.05861528808902672, 0.1677182718056167, -0.12389901724016343, 0.030238126607523712, 0.0015068887941436504, 0.15883107909523322, -0.04844579252809925, 0.024822215543932713, -0.22273058440644342, -0.09983588467449188, 0.05132542283756244, -0.002302242365221937, -0.02653494157953213, 0.028412067526704405, -0.0003643268412776319, 0.0, 0.0025019425407832923, 0.05047618509460525, 0.051982460361102635, -0.0, -0.13264195996012387, -0.21066278284230297, -0.09906679555026021, 0.2185189533259927, 0.2712327658896211], [-0.11460827279994222, 0.024169866816246954, 0.18360498651455084, 0.03877023327992792, 0.0437981761167058, 0.0738427433075116, -0.04341594624303234, 0.0818070559403779, -0.048028229009367866, 0.010885841884686819, -0.1081742621777495, -0.06243984172351792, 0.09313392475964105, -0.06171680859875912, 0.0002704635371266159, 0.005603148316226083, -0.13545350808277068, 0.032957310744134063, -0.03346470344295422, 0.024866763173615122, 0.0027691341728463452, -0.14695503556742634, 0.0028116190905521066, 0.20591787555851107, 0.027743913160204293, -0.06162590272013124, -0.007882077922379901, 0.038006054991665476, 0.007704824965725467, -0.05468353433761697, -0.019900132679344484, 0.04406458576491627, -0.06163873838424145, 0.08792269597567211, 0.005820831583267271, -0.072707586174122, 0.04977723086903812, -0.05560770119662017, 0.013071378537493914, 0.0018383997402546134, 0.04286703113651707, 0.03614024479090448, 0.07379335369790845, -0.07497362454608082, -0.017729337051506304, 0.052719385938328124, -0.026227877024933264, -0.05752565775090012, -0.1508559883526325, -0.07492760480821982, -0.146121913398773, 0.002117588285075123, -0.07814540775718024, -0.1079551131045387, 0.0, 0.07199729753550804, 0.18342739455621976, -0.07145493666394606, 0.06579153488325144, -0.030814258903165144, -0.13744366739790048, 0.005801627119168593, 0.004009531653797538, -0.031223279780915273], [0.08139630694355084, 0.050349935852217906, 0.0601584568164852, -0.014440317103619996, -0.09203801267570884, 0.03389613051933583, 0.11976936561211834, -0.1370439673022954, -0.08379089330699255, 0.0023956753869368913, -0.0667022859385496, -0.052624015871714246, 0.002592066995984968, -0.11378248674217704, -0.15195085766036245, 0.05783395130566017, -0.08710930486048546, -0.14107242957932573, -0.027367027495916574, 0.0761294834806475, -0.03234129523067172, -0.04113255246252721, 0.0027142881829990005, -0.039318718107829116, 0.02788177857675268, -0.00020886869468956108, -0.06798548688652481, 0.10549889463454322, -0.08808225374780813, 0.12812062236794006, 7.775608510778287e-05, -0.012989423013293243, 0.0, 0.0015022179171866412, 0.08639456044730148, -0.06185718643169852, -0.045078050199429814, 0.03372924065042057, -0.07132445269039099, 0.0525008258471432, 0.18470576994786833, -0.007900092238011719, 0.08348532033391282, -0.023532755143788303, 0.08799215299707565, -0.0, 0.02099722734104164, -0.03699369256995214, -0.16492083385732023, 0.02816906051841969, -0.1502148618017, -0.007356301966968728, 0.06527571781693578, 0.012490182061833355, 0.14445284837317582, 0.08708488509137548, -0.012902610949374742, 0.023601810899717815, -0.008624907323689866, -0.19068514130961084, -0.16605797720951146, -0.0828026394051632, -0.14152665212515064, -0.02230149321679769], [-0.026828151768336066, -0.12968534229802892, 0.06792526476334364, 0.06520715751396873, 0.036172231066022846, 0.04535681835421113, 0.10654952317991356, 0.02526418789071701, 0.0019838728337747496, -0.07353262326308119, 0.011312695908909157, 0.1026179313292129, -0.040252922550799757, 0.10678013198488431, -0.13405218958193207, 0.015640512229837113, -0.038001615232254204, -0.011885601010239754, -0.12308475098515274, -0.048729559178656734, -0.08535827368783883, -0.01735045974594063, 0.07000018420738309, 0.07863484659699714, -0.1783997467668182, 0.0853410806301007, -0.0538148836054027, -0.016353265721842276, 0.007772916201054105, 0.024468052646630857, -0.08832013905850403, -0.007534245834158802, -0.043323409989815743, -0.031642824077929586, -0.023679818249720937, -0.1102704340934907, 0.002426394620889637, -0.0012326545793627506, 0.0018549116171800335, 0.07579104321396692, 0.07109699795477752, -0.022219771878495612, 0.11490284864706687, -0.024388584330763425, -0.00216520250235042, -0.07555430613124621, 0.05548205251468537, 0.03991264401200572, -0.008730313687062372, 0.07320084497210455, -0.05464134959364425, 0.037255850933275235, -0.03647033706676518, 0.013366933965158095, 0.0, 0.011641633994628902, 0.06134110680369338, 0.09528735336520328, -0.05742620087884438, -0.10105672251569811, -0.16013140428354108, -0.19417239271039144, 0.043571176519763735, -0.008042369602154646], [0.001402530171205951, -0.16209764527586418, 0.0042387902723906, -0.14068453316805882, 0.10414563753992859, -0.01358716280869997, 0.15858265954756826, 0.038821225737979234, -0.0713539293994457, -0.1144273490834251, -0.0002445440966864964, -0.037235869198047604, 0.017169922754694273, -0.0908814455312669, -0.2393328219732994, -0.14209966267031376, 0.012783940889676649, -0.05523017443257885, -0.01897041955052705, 0.04511724796731092, 0.059975432416539874, -0.019198971627159618, -0.017212681751019664, 0.048339562298396, -0.09702632294511916, -0.024509411899018074, -0.01136291078039135, 0.07777590499410059, -0.1315823789955764, -0.03329785999228686, -0.07599888480189336, -0.017926630038383837, 0.02029310446031265, 0.12978101728097244, -0.014650567447937834, -0.012624071316867758, 0.0811951866578774, 0.015444158252615029, 0.0698693083425381, 0.0543653655655769, -0.03104662101523026, -0.0772933145079018, -0.07639593377048637, 0.08841319088239967, 0.12499630794374599, 0.12649310926285315, 0.0515868253845739, 0.07305502992748877, -0.08621923702440352, -0.07679720770053172, 0.05981959224387006, 0.039959334754481844, 0.006253187492878666, 0.0027609395029372253, 0.014127113788498603, 0.12898971063702652, 0.11439990875049282, 0.05749112607510126, 0.03940298536728606, -0.03075455423916164, -0.12056888515964648, 0.045932997468713176, -0.0901336287732908, 0.008634796363027181], [-0.08078799889500474, -0.053087248094783136, -0.011525262365801254, -0.014634471568429907, 0.0017819095267915836, -0.1193815265616927, -0.04415815154139208, 0.03401249831955255, 0.052867091762858746, -0.06660403140368196, 0.030367508546485747, -0.07448064337366504, -0.0777226445209932, -0.0131189286808345, -0.0030994413060546617, 0.19993163227080696, -0.0821715522567788, 0.07456535409590917, -0.17695539603117874, -0.07996885398768329, -0.16733450789807733, -0.13063704440926038, -0.1393869563220557, -0.05538849357598142, -0.0053766653578707115, -0.03628384398329766, -0.01137792785286131, -0.013962047566462238, 0.03845092300243042, 0.06800826534338428, -0.07485710600946914, -0.002276310639433555, -0.030339232049075127, -0.1431103559849475, 0.025928009170199343, -0.06255139256165353, -0.034597625085702945, 0.0075152923137143226, -0.004932593901012703, -0.13502517253435242, -0.0634968297630041, 0.14272984802633434, 0.06217009891463693, 0.07153735772778558, 0.02036703351150033, 0.07997394396902868, -0.04973294191036416, 0.009300331873452973, 0.004745690852250789, 0.03139286749824794, 0.001683603219598821, 0.126438833322142, 0.004253613956832893, -0.1401874922130783, 0.047749782529603456, -0.029424267602777065, 0.03857405954345442, 0.011075747662310285, -0.017818633792663966, 0.02893639379973251, -0.04786813300546067, 0.13596774217930727, -0.15967865991869618, -0.03572762999559111], [0.017898289545450446, 0.03506772722039866, 0.0, 0.0, 0.02113311754416227, -0.006740083729046307, 0.09993295400995655, 0.055519664798235675, 0.0582041376676605, -0.06568871026969124, 0.0, -0.012305173291377078, -0.06885188582147478, 0.017092537094903992, -0.03132526167474585, 0.0407686005715378, -0.07403154922161398, 0.12606449935495073, -0.06008933240289635, 0.005796445547558999, 0.051711332822595914, -0.03397119455687103, 0.0565717591308813, -0.08678154063890056, 0.10465922885060869, 0.0, -0.03603783744512694, -0.01220219127149232, 0.05307941394431307, -0.035079045921864754, -0.04830301274290129, -0.005975616098701734, -0.082593764492155, 0.1342043186590394, -0.03363070622062267, 0.0548995882842603, 0.005007969890276569, -0.06716243579166241, 0.0, 0.05108129508655325, -0.003307183234534177, 0.08388894323432688, 0.07012806941177746, 0.06190025771947495, -0.025071115091597686, -0.07480547499407258, -0.03741524406792438, 0.003947090180395747, 0.03197810888857365, -0.16235416819808005, 0.0, 0.000887600482445689, -0.010467021909111009, 0.09176072727514993, 0.02203368084898663, 0.09327781566017027, -0.0055284556929352455, 0.06338884381697782, 0.1193303786474756, 0.09339822981867278, -0.07579177937444577, -0.008552968787009247, -0.015889688461207564, 0.027444639141266613], [0.043250541338544564, -0.055483065432895315, 0.0, -0.15019340887730187, 0.10384345064992492, -0.029298669208612432, 0.0, -0.01304164410408554, 0.08011303780883589, -0.21575729303053204, 0.0, 0.0, -0.02458832324154123, 0.1266407589194579, -0.05936733977715564, 0.05010241382415989, 0.016778870926424643, 0.08937462264175604, -0.04171368824467189, -0.046988752811433505, 0.07610680063239542, 0.02231766171533108, -0.11210268990225218, -0.03145832333497105, 0.019195064759873048, 0.05539256839959387, -0.04267933408292663, -0.22191204726643318, 0.030168674887392558, -0.08607080457648496, -0.1499858292458535, -0.215341846976213, 0.053485319403984447, 0.0, -0.0063059926473860994, 0.09959960678012304, 0.03931878389447095, 0.11782545021876215, -0.09989721023902602, 0.0, -0.11785860330717803, -0.0066047874856558185, -0.008147175653978551, 0.03845983402501953, 0.0, 0.038202696835800666, 0.04462075905635678, 0.1610195365159161, -0.01349448775987027, -0.06367314493374392, 0.007944108207574092, -0.052546995228558546, 0.10705242679184704, -0.010922016500562862, -0.03356509312306138, -0.02600607663759635, 0.04582182719330653, -0.0008601557382974727, -0.03966699169983576, 0.12175905268764699, -0.056868564353659126, 0.0, 0.04052018662141337, -0.11903115959689416], [0.026723382613510507, -0.07282192992042315, 0.05419116567265062, -0.06540757819814137, 0.04376501647097789, 0.0768897316555137, 0.05729091730139844, 0.008363758146158091, -0.006758646303853567, -0.03443463993556615, 0.10617623119820234, -0.04430440421829353, -0.07137512455329029, 0.041567725750301, -0.05205435448307468, -0.06439815364927515, -0.10397651231015012, -0.02693584008906614, 0.0, 0.0077041808936207205, 0.06449780888866141, 0.030463362633502227, -0.0035165577023003503, -0.00410384559195855, 0.029120901545510423, 0.09026082725603841, 0.0, -0.0258308661980097, -0.06783059766744011, -0.1041048992701921, 0.041639958949859994, 0.034559657096396315, 0.034510338531477724, 0.0, 0.10103588690205813, -0.027032766030083658, 0.0648156120234072, 0.0, -0.036995285828561424, 0.03572660183395144, 0.02105982321634086, 0.016836606819587232, 0.0, 0.0, 0.17973998044143075, 0.08317873295618547, 0.046175436237124334, 0.0, 0.06897664964988193, 0.02974939538772915, 0.0, -0.01255364220985744, 0.0, -0.24245497420284318, 0.005098648558145392, -0.0273822118184212, 0.11593049501545853, 0.0, -0.08355617914705202, 0.0, -0.07210127087479656, 0.026173816160632538, 0.011541854021685897, 0.065021738578316], [-0.02468295391088982, 0.007787337494027944, -0.14760748736553647, -0.0636810527707746, 0.049363525943423754, 0.0025320034993198703, 0.013287736749747687, 0.05974513436515166, 0.11086138634133784, -0.03791116896597447, 0.028084068307870465, -0.015352107366349113, -0.11266960501142577, 0.029108069911807696, -0.039714192812307425, -0.041514720831012555, -0.06929728005682968, -0.020839223254320915, -0.10700554731461404, -0.020034036651909632, -0.06767360134748185, 0.14100236336462124, -0.11335210729532112, 0.07245846865016023, -0.09005460510398884, 0.002364942077210708, -0.019193490621459048, -0.0006384808446451739, -0.028015620931371842, -0.01619425009927419, -0.027422236998757725, 0.007190963614257588, 0.07076141002903298, 0.06094318205657006, 0.056829231689709644, -0.15021033500893544, 0.0524455181298374, 0.02526849265967431, -0.1919439043030559, 0.10980257595574391, 0.038401930986300306, 0.10492464882246798, -0.11557668371448024, -0.2942380545096378, 0.028054112946710938, 0.011591277743459319, -0.16530516893876876, -0.10481611217459587, 0.2047760386139458, 0.011577432474094497, 0.046827571252253467, -0.15271213965483313, -0.17431460405558905, 0.012789175567654548, -0.009509544846534292, -0.04126978737996349, -0.04114845181703065, -0.0026315866466947017, -0.006253690980385449, -0.14288457736173402, 0.0, -0.07263291495206435, -0.14935364887078678, 0.002377796680093274], [0.055819312586312696, 0.0032016025750247353, -0.15004748010717722, -0.1657850934261934, 0.003403477716819005, -0.14162697463320972, -0.028886794709324266, 0.07879550553279535, 0.0966645704374903, -0.04868429515982083, 0.07763057863378713, -0.08174634828423517, -0.00823824599460083, -0.019626629794572706, -0.09929472603330951, 