{"layers": [{"w": [[-6.489961833722191e-06, 0.0006009499775245786, -7.072903827065602e-06, 0.0004268191405571997, -8.162739686667919e-05, -0.00028029116219840944, -9.522274194750935e-05, -8.95834673428908e-05, -0.00029592012288048863, -5.06048854731489e-06, 2.610251783607964e-07, -9.471690987084003e-07, -0.000138899777084589, 5.402779152063886e-06, 0.0007146107382141054, -0.0003777673118747771, 0.00031200205557979643, -0.0002464259450789541, 7.735816325293854e-06, 2.502536744941608e-06, 2.250863190056407e-06, -0.00013558378850575536, -8.229301602113992e-05, 4.9051750465878285e-06, -5.198497547098668e-06, 1.0328086318622809e-05, -0.0001659283007029444, -5.777535534434719e-06, 0.0004615927755367011, 1.024699304252863e-05, 2.413407855783589e-06, -4.433642061485443e-06, -6.43710291114985e-06, 5.521773346117698e-06, -2.0034853150718845e-05, 2.6122065719391685e-06, -6.328691142698517e-06, -4.973016075382475e-06, -0.00023193183005787432, -2.872789991670288e-06, 7.542808816651814e-06, 2.3156751922215335e-05, -1.4252815162763e-05, 9.142841577158833e-07, -1.6673736524808191e-07, 0.0003577336319722235, -9.488379873801023e-05, -2.310790250703576e-06, 0.00010725398169597611, 0.0001171264739241451, 0.0002523530856706202, -5.524652237909322e-07, 0.0004432649875525385, -8.7450556748081e-05, 0.0008181823650375009, -3.291862230980769e-05, 5.221600645199942e-07, -0.0001075302207027562, -0.0006583906942978501, 2.573653091531014e-06, -6.721253885189071e-05, -6.127244432718726e-06, -1.0472388566995505e-05, 0.0002236620057374239], [-5.88630769016163e-07, 0.00026990496553480625, -1.2430213246261701e-05, 0.00037798640551045537, -0.00013723160373046994, -0.00011249057570239529, -7.299621938727796e-05, -0.00013092186418361962, -7.958702917676419e-05, -4.384404746815562e-06, -1.766827040228236e-06, -6.889620181027567e-06, -0.0003858322452288121, -0.00011473131598904729, 0.0007667129393666983, -7.573698530904949e-05, 0.00023948322632350028, -0.0002420080272713676, -7.10208678356139e-06, 0.00011192786769242957, -2.0926977413182613e-06, -0.00011611199442995712, -6.834918167442083e-05, 9.374682849738747e-05, 7.614321930304868e-06, 1.2920362678414676e-05, -0.00018137249571736902, 3.4192056773463264e-05, 0.0004556604544632137, 9.006715117720887e-06, -2.6837207656171813e-07, -0.0001175255310954526, -8.073580829659477e-06, -2.1310205511326785e-07, -1.3497967302100733e-05, 4.406638709042454e-06, -9.951771062333137e-06, -0.00011733662540791556, -2.392340866208542e-05, -2.7443932140158722e-06, 2.8067488528904505e-06, 3.8165529986144975e-05, 1.5972530036378885e-06, 1.3611859230877599e-06, 3.2629893667035503e-06, 0.0001350130478385836, -0.0002791320439428091, -2.5428606022614986e-05, 0.00030078316922299564, 1.844914436333056e-06, 5.839058303536149e-06, -4.436254585016286e-06, 2.5227302558050724e-06, -0.00019318584236316383, 0.0008609904325567186, -0.00015847435861360282, -5.186768703424605e-07, -1.920580643854919e-06, -0.0005030677421018481, 2.4310431854246417e-06, -0.00033119693398475647, -2.227985896752216e-05, -9.937939466908574e-06, 0.0005438501248136163], [0.2885017693042755, 0.40087494254112244, 0.1084357500076294, 1.6782011985778809, -2.2970144748687744, -0.46925216913223267, 0.18875941634178162, 1.406606674194336, -0.736297070980072, 0.01582839898765087, -0.41008031368255615, 0.16858844459056854, 0.08427879959344864, 0.005534192081540823, -0.07293115556240082, 0.08777415007352829, 0.00728656305000186, 1.919994592666626, 0.6088473200798035, -0.48381778597831726, 0.056031037122011185, 0.022328956052660942, -0.5055907964706421, -3.8805651664733887, -0.039806969463825226, -0.03861183300614357, -1.6659629344940186, 3.6231162548065186, -0.05931590124964714, 0.007754437625408173, 0.04553013667464256, 1.731502890586853, -2.500910758972168, 0.5393822193145752, -1.2971181869506836, -0.045527778565883636, 0.137703076004982, -0.4125629663467407, -0.4395374655723572, -0.005431254860013723, 0.18178120255470276, -0.04684731736779213, -1.4265320301055908, -2.45664381980896, -1.9764621257781982, 0.030734438449144363, 0.09251108765602112, 0.2330528348684311, 0.12625648081302643, 0.5972962975502014, -0.07194861024618149, 0.4989449083805084, 1.996823787689209, 0.21397674083709717, 0.39776960015296936, 0.0006821866845712066, 0.015988996252417564, -0.05321945250034332, 0.0391596294939518, -0.011863712221384048, -0.01440748292952776, -1.9579944610595703, -0.0037170290015637875, -1.818369746208191], [53.515357971191406, 34.312896728515625, -2.6670684814453125, 58.95374298095703, -16.96619415283203, 62.15862274169922, -29.06106185913086, 26.667070388793945, 45.650753021240234, 6.884403228759766, 21.44986915588379, 22.656078338623047, -9.311063766479492, -57.84998321533203, -67.4058837890625, 17.099624633789062, -34.310813903808594, -9.723760604858398, 12.128241539001465, -7.12237548828125, -36.68941879272461, 55.19524002075195, -4.318329334259033, -49.144248962402344, 44.36347579956055, 20.608442306518555, -71.01785278320312, 27.084985733032227, 4.094450950622559, -21.02476692199707, -48.978515625, -20.05445098876953, 72.79237365722656, 0.051061201840639114, 8.52554988861084, -8.585456848144531, -6.911157608032227, -10.36374568939209, 61.40550994873047, -30.442073822021484, 18.477149963378906, -37.94417953491211, -40.725128173828125, -47.144287109375, 19.101058959960938, 20.539945602416992, 25.20293426513672, -60.605281829833984, 7.66343879699707, -24.9881534576416, -2.0542709827423096, -22.242551803588867, 23.69438362121582, -11.347146034240723, -3.8190340995788574, 82.83091735839844, -5.291306018829346, 3.220885992050171, -74.9911117553711, -72.8886947631836, -44.90449905395508, -61.29000473022461, 40.61635208129883, -13.25426197052002], [5.3653998374938965, 57.83710479736328, -86.0961685180664, 19.813106536865234, -34.97685623168945, -14.231841087341309, 57.006492614746094, 8.724279403686523, 25.62584686279297, 22.56326675415039, -70.02101135253906, -95.80194091796875, 54.7985954284668, -28.85249900817871, 22.288572311401367, -23.9395809173584, -25.240642547607422, -30.303762435913086, 21.823978424072266, -0.896952748298645, -48.080360412597656, 25.194538116455078, -16.401458740234375, 58.238128662109375, -31.201528549194336, -40.059268951416016, -24.713886260986328, 25.421133041381836, -8.689909934997559, 51.74491500854492, -10.579877853393555, -2.695909261703491, 36.40589141845703, -9.32688045501709, -61.40986251831055, -133.185546875, 64.83678436279297, 23.09459114074707, -81.74114990234375, 37.25029373168945, 24.323495864868164, 27.931303024291992, 13.253938674926758, 59.219268798828125, -1.2805209159851074, 10.70830249786377, -5.511556625366211, 92.55648040771484, 19.771203994750977, 58.38946533203125, 73.95756530761719, -1.1817134618759155, -9.749046325683594, 47.15080642700195, -4.829196453094482, 71.07347869873047, 71.47770690917969, 94.5837631225586, -14.658400535583496, -2.1077146530151367, -54.69560241699219, -25.92671012878418, 33.69840621948242, 80.64083099365234], [-69.75791931152344, 82.86054992675781, 45.04008483886719, 45.68525314331055, -78.80280303955078, -40.18059158325195, 45.847557067871094, 47.1153564453125, -71.06997680664062, -25.934341430664062, -1.985205054283142, -127.58404541015625, 61.09867477416992, -23.406570434570312, -36.01359176635742, 21.6912841796875, -27.00013542175293, 32.52922821044922, -27.734825134277344, 0.2883615791797638, -31.212589263916016, 42.41801071166992, -70.90166473388672, 42.02688217163086, 47.08852005004883, 2.561295986175537, 10.653162002563477, -16.674327850341797, 0.5710883140563965, -61.5245361328125, 31.51955795288086, 11.062858581542969, -133.1699676513672, 58.17652130126953, 10.8345947265625, 13.9767427444458, 22.601276397705078, -70.90193939208984, -62.75481414794922, -21.153465270996094, 56.34056091308594, 5.303922176361084, 21.748146057128906, -66.36189270019531, 4.4181623458862305, 12.023977279663086, 57.347442626953125, 40.542518615722656, -7.710800647735596, -67.09967041015625, 38.97047805786133, -24.973783493041992, -58.512725830078125, 55.12877655029297, -2.692598342895508, -68.70211791992188, -20.674406051635742, 26.796966552734375, -10.448070526123047, 34.14542007446289, 42.92229461669922, -26.836679458618164, -107.65556335449219, -58.9997673034668], [-0.025030454620718956, -0.13910716772079468, -0.05834632366895676, -0.22144196927547455, 0.04203878343105316, 0.010049575939774513, 0.16730691492557526, 0.1973605901002884, 0.03165312111377716, -0.012976021505892277, 0.0006263616378419101, 0.06097698584198952, 0.1869402825832367, 0.21930919587612152, -0.3322058916091919, 0.16486422717571259, -0.0703614130616188, 0.08868438750505447, -0.23837895691394806, -0.04490165412425995, -0.01024251151829958, 0.057676296681165695, 0.0037646766286343336, -0.0025929491966962814, -0.010005153715610504, -0.02170574478805065, 0.17452740669250488, 9.058680007001385e-05, -0.12774483859539032, -0.0041802264750003815, -0.11639087647199631, 0.2031596451997757, -0.12911184132099152, -0.0014027024153620005, 0.003611284075304866, -0.16595695912837982, -0.08127221465110779, 0.018530644476413727, 0.010395826771855354, 0.0015970113454386592, -0.037508510053157806, -0.015125086531043053, -0.16509726643562317, -0.02596225216984749, -0.10319367051124573, -0.03175797313451767, 0.40611129999160767, -0.014870631508529186, -0.18384714424610138, -0.038202136754989624, -0.027993042021989822, 0.0009065271588042378, -0.12676452100276947, 0.021773336455225945, -0.525288999080658, 0.0006911692908033729, -0.0011179535649716854, -0.00023799337213858962, 0.03701004385948181, -0.0009505038615316153, 0.08039040863513947, 0.003870379878208041, 0.004316419363021851, -0.21544764935970306], [-0.004439806565642357, 0.010281656868755817, 0.000498067238368094, -0.0008371852454729378, -0.06554045528173447, 0.01564396172761917, 0.11112958192825317, 0.012761940248310566, -0.00013210992619860917, -0.021027153357863426, -0.010259420610964298, 0.033646080642938614, -0.005825074855238199, -0.0009893457172438502, -0.00017967249732464552, 0.008055836893618107, 0.0013527419650927186, 0.011701592244207859, -0.02187781035900116, -0.0003629427228588611, -0.023757794871926308, 0.0002829295990522951, -0.008490264415740967, 0.00026857302873395383, -0.0011970654595643282, -0.01663540117442608, 0.00252554751932621, -0.03831635043025017, -0.0015586562221869826, 0.0004928592243231833, -0.0058043114840984344, 0.025674059987068176, -0.0022620977833867073, -0.034752558916807175, -0.0016782291932031512, -0.004579625558108091, -0.0004295344406273216, 0.0032794408034533262, -0.023904195055365562, 0.010747343301773071, -0.005073214415460825, -0.003512364812195301, -0.06396729499101639, -0.0007604237180203199, 0.004408345092087984, -0.00017788105469662696, 0.06913699954748154, 0.004441617056727409, -0.0014019663212820888, -0.00010181584366364405, -0.001432607532478869, -0.00010859974281629547, 0.02409367635846138, -0.0008726157830096781, 0.010508938692510128, -0.01118509378284216, 0.004960180725902319, -0.0022057376336306334, 0.038048867136240005, 0.0315856970846653, 0.014257536269724369, -0.0144643634557724, -0.00044953179894946516, -0.002206195844337344], [0.09431923180818558, -0.08399291336536407, 0.03580060228705406, -0.0012884004972875118, 0.06548959761857986, -4.21136155637214e-06, -0.003484198357909918, 0.0002991689834743738, -0.0003216121986042708, 0.0021136535797268152, 0.00013815509737469256, -0.002025520894676447, 0.14453625679016113, 0.003494684584438801, -0.0005748893599957228, 0.002995590679347515, -0.0077300649136304855, -0.001662087277509272, 0.08114227652549744, 0.002398128155618906, 0.0005308172549121082, 0.005343621596693993, 0.006425759755074978, -0.0008800110081210732, 0.003106836462393403, 0.002109599532559514, -0.020146524533629417, 0.1349339783191681, 0.0021109271328896284, -0.0016164144035428762, 0.07228998839855194, -0.0025649950839579105, 0.08926692605018616, 0.06612470000982285, 0.004023598041385412, 0.000102845391666051, -0.0014291208935901523, -0.002482235198840499, 0.04018357768654823, -0.0010942390654236078, 0.06688231229782104, 0.0027977314312011003, -0.003742435248568654, 0.0007829468813724816, 0.0008328987169079483, 0.00048230530228465796, 0.004044809378683567, 0.13742031157016754, 0.001958628185093403, 0.004480297211557627, 0.0026057781651616096, 0.0007921459618955851, -0.00022552792506758124, 0.0009748509619385004, 0.0005164280300959945, 0.09289377927780151, -0.05569801479578018, 0.046055395156145096, 0.02352798730134964, -0.07879582792520523, 0.0001708143827272579, 0.0013422140618786216, 0.004382898565381765, 0.0035498267970979214], [-5.558523480431177e-05, -9.683866665000096e-05, 0.0022648447193205357, 0.001401589484885335, 7.188016752479598e-06, 0.0006807153695262969, -0.003422955283895135, -0.0015534400008618832, -3.786166871577734e-06, 4.26155784225557e-05, -2.5870454919640906e-05, -0.00014403933892026544, -0.00036416578222997487, -0.000702994700986892, 0.001356946537271142, -0.00041865240200422704, -3.224123065592721e-05, -0.0006488704821094871, 0.0021710724104195833, -1.1767388969019521e-05, 0.002115178620442748, -6.708180080750026e-06, 0.0006027508061379194, 1.0062336514238268e-05, 1.1373679626558442e-05, 3.827198452199809e-05, -6.931359530426562e-05, 4.320806965552038e-06, 0.0005702474736608565, 1.6370950106647797e-05, -5.457372390083037e-05, -4.473481567401905e-06, 0.0006134269060567021, 0.0010618106462061405, 4.4771539251087233e-05, 0.000126331826322712, -0.0001621308911126107, -0.000202588940737769, 1.929466270667035e-05, 0.0003172038705088198, -8.054516911215615e-06, 0.0003581635537557304, 0.00045104901073500514, 0.00015277732745744288, 0.00011309998080832884, 0.0004016185412183404, -0.0007784214685671031, 0.00041882199002429843, 0.0010682629654183984, 0.000858789193443954, -0.00017002680397126824, -4.283034741092706e-06, 2.4594473870820366e-06, -2.4868322725524195e-05, 0.0014441512757912278, -0.00022365553013514727, -0.00014450396702159196, 5.775484532932751e-05, -0.0003343417192809284, 3.576496965251863e-05, -0.001694205217063427, -0.0006038860883563757, -9.308223525295034e-06, 0.0001865618978627026], [0.0008918076637201011, 0.00033984673791565, 0.00015567339141853154, -0.00021683411614503711, 5.592186425928958e-05, 0.000366559048416093, 6.161387136671692e-05, -0.0008817572379484773, 0.00021355797071009874, -6.327405571937561e-05, 0.0011555810924619436, -0.0011324629886075854, -0.00019489589612931013, 0.0005626262864097953, 0.00020904811390209943, 0.00020772538846358657, -8.589224307797849e-05, -0.001681339112110436, 1.5012236872280482e-05, 5.621933451038785e-05, 0.0036865470465272665, 0.0004863402573391795, 4.1773939301492646e-05, 0.0006955214194022119, 4.1700011934153736e-05, 3.267421561758965e-05, -2.1918474885751493e-05, -4.666072709369473e-05, -0.0002716191520448774, -0.00016770993534009904, -1.2498348667122627e-07, -0.002927886787801981, -5.795806646347046e-05, -0.00032296430435962975, 0.0006440512370318174, 0.00032394667505286634, -4.106179403606802e-05, -2.0830855646636337e-05, -0.0006817348767071962, -0.0004530600272119045, 6.839327397756279e-05, 0.0001641868584556505, -6.38689671177417e-05, -0.0013425166253000498, 0.0011809648713096976, -3.020576150447596e-05, -0.0008673239499330521, 0.0001475545868743211, 0.0001550900051370263, 0.0019708003383129835, 3.1694369681645185e-05, -0.0004589171730913222, 5.6708322517806664e-05, 0.00029660965083166957, -1.4180506695993245e-05, -1.3427868907456286e-05, 4.820745971301221e-07, 5.92835531278979e-05, 0.0006399179110303521, 9.030579349200707e-06, 0.00040852188249118626, 0.0009574299328960478, -0.00015335735224653035, 0.0022944179363548756], [-1.2877670526504517, -10.376066207885742, 68.56913757324219, 33.489463806152344, 7.8750319480896, 58.08929443359375, -38.47346878051758, 25.501815795898438, 76.75558471679688, -141.2228240966797, 46.32807922363281, 19.6871337890625, 45.190303802490234, 12.170820236206055, 43.97629928588867, -69.4215087890625, -4.355833530426025, 49.82455062866211, 28.213558197021484, -70.43484497070312, 40.124019622802734, 13.884103775024414, 71.7032241821289, -19.971240997314453, 17.851348876953125, -44.55802536010742, 52.753116607666016, -5.174941539764404, -8.782938003540039, -55.37191390991211, 10.686030387878418, 30.380096435546875, -10.311607360839844, 80.28667449951172, -2.581411361694336, -61.29594802856445, 24.42720603942871, 34.62240219116211, -10.758073806762695, -11.326672554016113, 0.885587751865387, 57.27440643310547, 117.05220794677734, -80.27615356445312, 18.191423416137695, 14.173955917358398, -70.64125061035156, 3.886154890060425, -61.41571044921875, 16.27958869934082, 8.599891662597656, 2.6570334434509277, 2.5977895259857178, -75.13482666015625, -6.588715553283691, -25.651466369628906, 44.422584533691406, 49.07282257080078, 29.439538955688477, -4.4896559715271, -27.184581756591797, 16.95311164855957, -89.11334991455078, -66.35398864746094], [22.224777221679688, -80.69786834716797, 51.745628356933594, 48.86339569091797, 21.786712646484375, 40.53525161743164, 20.810007095336914, -26.79884910583496, 4.351665496826172, 10.804305076599121, -48.60774612426758, -56.800628662109375, -44.26621627807617, -13.920042991638184, -2.5805084705352783, -37.035614013671875, 47.92786407470703, 4.318897247314453, 0.8684892058372498, -72.79857635498047, 10.266432762145996, 29.270496368408203, 8.0049467086792, -10.766295433044434, -6.530908107757568, 20.216856002807617, 16.819067001342773, 15.079239845275879, 12.145517349243164, -30.19755744934082, 32.95341491699219, -6.803728103637695, 10.869462013244629, -21.36864471435547, 4.52150821685791, -21.519420623779297, 61.313331604003906, 33.434181213378906, -47.72074508666992, -22.20843505859375, 25.49744987487793, -31.579744338989258, 58.653072357177734, -10.3808012008667, -2.588833808898926, -22.716245651245117, -36.64372253417969, 7.0223236083984375, -38.13058090209961, -8.085775375366211, 48.1324577331543, 34.5771369934082, 16.195098876953125, -7.650778770446777, 13.575848579406738, -89.13957977294922, 104.20072937011719, 68.44115447998047, -19.901378631591797, -54.616363525390625, 2.691951036453247, 70.77751922607422, 10.83594799041748, -8.08350944519043], [-10.147677421569824, 24.09140396118164, 40.624786376953125, -1.1733936071395874, 7.639064311981201, -50.54768753051758, 29.260196685791016, 59.07417678833008, 14.191765785217285, -9.954917907714844, -16.216279983520508, -2.1019375324249268, -16.01142692565918, -1.2888033390045166, -27.149702072143555, -25.624839782714844, -0.9897772669792175, 68.4062728881836, -21.506086349487305, -17.842208862304688, 45.743492126464844, 27.73421287536621, 2.3220691680908203, -40.59592819213867, 18.474546432495117, -68.02540588378906, -21.2440128326416, 40.36013412475586, 74.74951934814453, -42.029296875, 59.07033157348633, 58.24627685546875, 68.64281463623047, -72.94528198242188, 7.019288539886475, -61.445674896240234, 41.08127975463867, 40.70321273803711, -77.51315307617188, -69.3271255493164, -4.557088851928711, 59.83957290649414, 9.37911319732666, 26.809690475463867, -62.149112701416016, 48.865478515625, -78.01704406738281, -13.489950180053711, 10.95661449432373, -55.922515869140625, 40.120750427246094, 22.998598098754883, -57.072784423828125, -10.99744701385498, 7.767643928527832, -27.992874145507812, 16.40641975402832, 24.607341766357422, -76.04031372070312, 23.230472564697266, -8.483086585998535, -51.785762786865234, -3.2164759635925293, -44.09651184082031], [-8.080060958862305, 2.3873114585876465, 22.0800724029541, -11.336480140686035, -44.74756622314453, 40.747772216796875, -55.32900619506836, -57.21485900878906, 32.58277893066406, -33.57357406616211, 11.955204963684082, 26.27415657043457, 83.07984161376953, 9.081201553344727, -1.0001014471054077, 5.953217029571533, 40.29004669189453, 39.57148361206055, -7.686492443084717, 6.549745559692383, -50.3140869140625, -45.80081558227539, -54.03866195678711, 23.989070892333984, 36.9078483581543, -60.247562408447266, 13.054757118225098, -23.411212921142578, -16.244016647338867, 21.499610900878906, 55.07186508178711, -59.219635009765625, 70.28608703613281, 2.6579973697662354, -54.8483772277832, -28.62224578857422, -2.3261935710906982, -50.535640716552734, 10.76916217803955, 24.58184242248535, 82.05374145507812, 61.107566833496094, 31.269268035888672, -37.214927673339844, -35.03109359741211, -0.8795195817947388, 128.19342041015625, 49.1514778137207, 10.044557571411133, 42.85796356201172, -12.786901473999023, 10.309919357299805, 23.102725982666016, 94.79962158203125, -13.626311302185059, -8.06753158569336, -9.242631912231445, 10.289361000061035, 58.140342712402344, -127.55718231201172, 47.121116638183594, 29.050626754760742, -58.073856353759766, -49.12269592285156], [-66.6734390258789, 76.5257568359375, -5.590292930603027, -57.991764068603516, 35.82525634765625, 34.548004150390625, -11.30357837677002, -51.421409606933594, -73.84532165527344, 16.989465713500977, 12.045848846435547, 5.213364601135254, -67.92503356933594, -59.459930419921875, -9.65938949584961, -37.05031204223633, -31.139204025268555, 0.16439427435398102, -27.732263565063477, -4.599996089935303, 35.203826904296875, 77.94854736328125, 19.10747528076172, -77.18754577636719, -51.722198486328125, 15.860939979553223, -20.767690658569336, 77.99308776855469, -13.47907829284668, -32.06996536254883, -26.770530700683594, 3.503702402114868, -93.18587493896484, -20.335073471069336, -26.021617889404297, 0.5139274001121521, 78.48503112792969, 28.449811935424805, 8.113848686218262, -34.74814224243164, 72.39205932617188, -27.406604766845703, 6.566380023956299, -21.37944221496582, 23.780330657958984, -48.85590362548828, -10.873957633972168, 10.972694396972656, -22.278493881225586, -4.916845321655273, -0.32659053802490234, 11.626729011535645, 32.42203140258789, 28.199941635131836, 41.6175537109375, 18.065048217773438, -27.14942169189453, -59.21266174316406, 41.65171432495117, -104.00468444824219, -10.39587116241455, -8.035990715026855, -9.976418495178223, -24.743450164794922], [-40.009517669677734, -6.530771255493164, 37.11288833618164, -23.288597106933594, -2.36984920501709, -40.530521392822266, -16.945384979248047, 36.356929779052734, -4.144073009490967, 15.974055290222168, 35.749942779541016, 8.243830680847168, 7.237008094787598, 3.8015429973602295, 22.233064651489258, 41.38105010986328, 2.6097538471221924, 73.02982330322266, 7.839004039764404, 141.65097045898438, 26.3515567779541, -25.647436141967773, 53.80425262451172, 20.638925552368164, -40.88018035888672, 58.41872787475586, 75.5446548461914, -0.16549614071846008, -19.334701538085938, -41.82192611694336, 80.28209686279297, 17.86994743347168, 4.045774936676025, 77.26962280273438, 75.46886444091797, -25.20114517211914, 55.331451416015625, 60.905941009521484, -25.24229621887207, 45.00208282470703, 24.686681747436523, 80.31649780273438, -1.4316012859344482, 2.875967025756836, -43.84831619262695, -128.2091522216797, -61.52104568481445, -60.08800506591797, 36.5689811706543, 48.952571868896484, -25.642545700073242, 58.111576080322266, -28.87632179260254, 70.7837905883789, -4.468158721923828, -57.550289154052734, -2.2422292232513428, 5.986291408538818, 0.31865519285202026, 0.1313266009092331, -29.88506317138672, -26.428180694580078, -73.5093994140625, -9.014573097229004], [-95.79437255859375, 18.05411148071289, 3.969250440597534, 9.787550926208496, 23.371795654296875, -10.389110565185547, 21.377159118652344, -19.560728073120117, 37.407745361328125, 3.2961013317108154, 8.913291931152344, -6.5849175453186035, 5.241207599639893, -38.45768356323242, 82.16654205322266, 60.0849494934082, -93.18499755859375, -11.406648635864258, 45.475162506103516, 0.855588972568512, -5.369663715362549, 61.22505187988281, 22.291038513183594, 15.96667766571045, -33.9330940246582, 37.254180908203125, -9.844164848327637, -20.179119110107422, 17.436954498291016, -73.90555572509766, 2.7320926189422607, 24.86514663696289, 27.440134048461914, -22.206560134887695, -38.44304275512695, 8.624180793762207, -3.383835792541504, -57.21730041503906, -0.6545840501785278, 2.6183433532714844, -8.167807579040527, -48.081321716308594, -6.9120283126831055, 23.406190872192383, 22.24838638305664, 23.28789520263672, 13.586153030395508, -75.02645874023438, 48.07011795043945, -14.198430061340332, -82.36776733398438, 17.901453018188477, 72.21903991699219, 44.05027770996094, -22.087440490722656, -40.902503967285156, -30.996601104736328, -8.411211013793945, -8.102276802062988, 36.67597198486328, -71.60230255126953, 52.19302749633789, -35.73892593383789, 43.985591888427734], [26.569110870361328, -67.64010620117188, -19.670791625976562, -60.86396789550781, 12.748666763305664, -49.666908264160156, -43.852989196777344, -66.35552215576172, -21.9821834564209, 131.25743103027344, 10.974202156066895, -23.94750213623047, 36.16237258911133, -73.50405883789062, -40.0139274597168, 30.311368942260742, -131.246826171875, -6.600488185882568, 20.797224044799805, 21.13892364501953, -8.470410346984863, 49.421268463134766, 8.598873138427734, 31.613319396972656, 10.75118350982666, -63.55622482299805, -9.443304061889648, 39.81724548339844, 58.991600036621094, 9.110962867736816, -30.084016799926758, 7.107693195343018, -72.27658081054688, -25.098051071166992, -0.15365450084209442, -26.803936004638672, -13.41644287109375, -0.013444377109408379, -4.906285285949707, -6.518284320831299, -6.046401500701904, -24.434118270874023, -1.1399734020233154, 0.7468666434288025, -28.451993942260742, 38.42579650878906, -32.28083419799805, 14.272629737854004, -9.918299674987793, -32.14731216430664, 19.767480850219727, 20.57147979736328, -104.00519561767578, -0.18103595077991486, -43.355064392089844, 18.012876510620117, 1.9181866645812988, -56.56193161010742, -18.063291549682617, 1.8168259859085083, 27.369150161743164, 45.68455505371094, -30.246257781982422, -36.56620788574219], [6.808160781860352, 29.471162796020508, -42.841796875, 8.371393203735352, -16.60011100769043, -5.704990386962891, -131.4705810546875, 5.322680950164795, 4.944016933441162, -8.03778076171875, 25.188993453979492, -21.12980079650879, 35.575111389160156, 8.449990272521973, 9.956993103027344, -45.568939208984375, -131.2416229248047, 25.612924575805664, 7.097463607788086, -4.146444797515869, 44.535484313964844, -33.434444427490234, 36.16462707519531, -49.12113952636719, -3.836638927459717, 94.80807495117188, -68.5233154296875, 71.67127227783203, 14.032760620117188, -38.65690994262695, -10.855658531188965, 94.53952026367188, -13.844602584838867, 0.15605558454990387, 40.79582977294922, 0.5999332070350647, 41.80928421020508, -16.444190979003906, -104.21583557128906, 2.40812087059021, -31.235639572143555, 19.105234146118164, 37.013328552246094, 46.12253189086914, 41.71466827392578, -22.706676483154297, 21.470829010009766, 42.76640319824219, -27.348207473754883, -44.0865478515625, 8.73661994934082, -0.0135605214163661, -5.811236381530762, -25.240280151367188, 17.013317108154297, -34.896400451660156, 68.75680541992188, 16.74663543701172, -10.722195625305176, 14.402833938598633, -8.263599395751953, -9.010741233825684, 11.879841804504395, 6.819550514221191], [-39.102787017822266, 13.497762680053711, -9.918421745300293, 0.35328182578086853, -53.56155776977539, -38.142120361328125, 23.22186279296875, 38.0985221862793, -2.7134830951690674, -14.26184368133545, 10.347332000732422, 35.32005310058594, -0.9964420795440674, 6.413687705993652, -18.067073822021484, 38.71066665649414, 76.52703857421875, 58.141029357910156, -6.380011081695557, -20.41628074645996, 9.903093338012695, 131.3958740234375, -68.58522033691406, -0.8783554434776306, -13.447240829467773, 119.64302825927734, 12.536824226379395, -2.3308210372924805, 6.979679107666016, -81.25816345214844, 24.575912475585938, 43.08791732788086, -15.290132522583008, 23.548242568969727, -71.91193389892578, -22.25535774230957, 68.71212768554688, 6.1538519859313965, 56.72315979003906, 40.87860107421875, -3.113687038421631, 52.10728073120117, 44.386234283447266, 6.015293598175049, 5.5767741203308105, -27.18791389465332, -8.228594779968262, 21.458541870117188, -58.070438385009766, 26.41731071472168, -35.034271240234375, 31.985265731811523, -10.496665000915527, 26.588829040527344, -13.459741592407227, 38.076316833496094, 16.280447006225586, -50.75621795654297, 27.085378646850586, 51.721923828125, 0.343667209148407, -25.574251174926758, -131.39402770996094, 10.333711624145508], [-6.732507608830929e-05, 0.003938652575016022, 0.0018463153392076492, 8.18978005554527e-05, 0.00010666245361790061, 0.003847455373033881, -0.006257625762373209, 0.0004589690361171961, 0.00019488763064146042, -0.0033285932149738073, -0.0003436384431552142, -0.002027044305577874, -0.010627197101712227, 7.060187635943294e-05, -0.0018032534280791879, -7.214112702058628e-05, -0.00036773819010704756, -0.0024037379771471024, -0.00711005087941885, -0.0014145865570753813, 4.5284391489985865e-06, 0.004555698484182358, 0.001706183422356844, -0.0013456960441544652, -0.00035127915907651186, 0.0002201233000960201, 0.002757980953902006, 0.00036418819217942655, 8.140478894347325e-05, -1.3918935110268649e-05, -0.009532367810606956, 0.00016712037904653698, -0.004424508661031723, -0.0011565745808184147, 0.0048047564923763275, 1.1804901077994145e-05, -8.132783113978803e-05, -0.004314495250582695, -0.00021604448556900024, -0.00020741111075039953, 0.000277347193332389, -4.2907558963634074e-05, -0.0008260543690994382, 0.0004971381276845932, -0.0009421137510798872, 0.0009182140347547829, -0.004992508329451084, -0.0003749213647097349, 0.012628873810172081, 3.409154305700213e-05, 9.866483742371202e-05, -0.0020275264978408813, 0.0016680501867085695, 0.0004301856679376215, 0.00693755317479372, -0.004708374384790659, -0.0017181301955133677, -0.004725289531052113, 0.00017069789464585483, -0.00926500279456377, -0.000123455494758673, -0.0001521514932392165, -3.365363591001369e-05, -0.015320684760808945], [2.1030726432800293, 58.5396728515625, 16.282337188720703, 32.811134338378906, -10.925274848937988, -0.26848018169403076, -10.89745044708252, -43.913330078125, 71.65593719482422, 0.3925638198852539, 10.755289077758789, 18.14946937561035, -48.31929016113281, -25.43556022644043, 22.286418914794922, 9.000123023986816, -28.4610595703125, 71.94217681884766, 0.1574380099773407, -40.96525955200195, 10.75585651397705, -33.54658126831055, 5.924338340759277, -58.5462646484375, 10.319840431213379, 15.56022834777832, -35.527156829833984, 60.58061981201172, -17.78661346435547, 19.558923721313477, -13.954964637756348, -45.855186462402344, 10.716102600097656, 44.48021697998047, -55.74153518676758, 81.20845031738281, 12.16123104095459, 95.76897430419922, 39.96255111694336, 15.225752830505371, -15.050934791564941, 19.148162841796875, -72.78611755371094, -57.98727035522461, 47.68589401245117, 9.717293739318848, -14.006356239318848, -8.128475189208984, -54.65200424194336, -18.784547805786133, 39.5267219543457, -25.188005447387695, 9.968649864196777, 31.716564178466797, -34.93551254272461, -24.410762786865234, -71.92383575439453, -63.62943649291992, -38.417537689208984, -8.586926460266113, 33.79410934448242, 41.59214782714844, 67.74506378173828, 78.18587493896484], [49.06170654296875, 45.23321533203125, 16.20871353149414, 39.62077331542969, -20.57281494140625, -23.406509399414062, -32.08777618408203, 60.58686447143555, -10.927379608154297, 1.8998079299926758, 2.9801390171051025, 2.659762144088745, -21.372936248779297, -39.73050308227539, -35.34952926635742, -135.95053100585938, 52.075164794921875, -57.954620361328125, 13.841415405273438, -104.25667572021484, -7.781599521636963, 20.54062843322754, 0.32718607783317566, 10.563325881958008, -47.247337341308594, 26.835296630859375, -56.401885986328125, -86.06777954101562, 8.608244895935059, 13.068685531616211, 60.96736145019531, 1.37253999710083, 48.16956329345703, 58.980220794677734, -4.452554225921631, -41.227928161621094, -3.5287091732025146, -25.699337005615234, 7.830432891845703, -8.461858749389648, 3.811241865158081, -18.65888214111328, -8.262085914611816, 18.30540657043457, 43.7587776184082, 33.94706344604492, -24.219783782958984, 40.54984664916992, 3.8180665969848633, -29.20819091796875, 32.58202362060547, -38.1843147277832, 17.11695098876953, -53.78789138793945, -81.10173797607422, 27.12689781188965, -70.83536529541016, -54.660858154296875, 68.86758422851562, -32.04753112792969, -2.6678295135498047, -12.423405647277832, -48.2790641784668, -10.26549243927002], [-73.0611801147461, 24.461898803710938, -8.477192878723145, -23.02178382873535, -68.30223083496094, -25.660676956176758, 120.48505401611328, 43.865360260009766, 29.121158599853516, -0.056023113429546356, 5.87505578994751, 14.276893615722656, -19.647945404052734, 10.290472030639648, -12.691518783569336, 1.8177863359451294, 40.321495056152344, -13.895613670349121, 2.5635645389556885, 62.157073974609375, 13.629414558410645, 13.367839813232422, 1.855846881866455, -21.743244171142578, -67.74230194091797, -135.61236572265625, -6.500007152557373, 10.3847017288208, -67.6282958984375, 20.62949562072754, -58.088741302490234, 25.641834259033203, 25.612281799316406, 132.44659423828125, -26.173818588256836, -75.79840087890625, 76.51903533935547, 60.903541564941406, -44.551551818847656, -37.029327392578125, -67.0931625366211, 58.050994873046875, 30.99182891845703, -17.126699447631836, -17.460176467895508, 70.35627746582031, 46.58399200439453, 44.62316131591797, -9.830151557922363, -21.040847778320312, 6.250792980194092, -0.5193697810173035, -5.302816390991211, -0.5626102685928345, 42.93044662475586, -32.8408203125, 1.2019444704055786, -26.78085708618164, -21.091354370117188, 21.113052368164062, -14.474442481994629, -2.374244213104248, -7.3955512046813965, -46.5096549987793], [-35.88835906982422, 0.0471612885594368, -5.3577165603637695, 140.65194702148438, 48.974586486816406, -71.99047088623047, -79.39827728271484, -64.83174896240234, -64.61363220214844, 44.65862274169922, -80.64027404785156, 45.12712097167969, 43.70819854736328, -12.526244163513184, -8.404848098754883, -56.8382453918457, -78.57060241699219, -40.367130279541016, 10.94139289855957, 53.967594146728516, 15.624103546142578, -22.87255096435547, 44.065216064453125, 10.437926292419434, 68.64037322998047, 115.74339294433594, -71.43470764160156, -24.45942497253418, 10.342089653015137, 8.410407066345215, 26.80561065673828, -47.64533233642578, 59.523170471191406, -70.61347961425781, -76.7049789428711, -9.009559631347656, 54.05266189575195, 20.444963455200195, -59.11058044433594, -13.070297241210938, -5.7403950691223145, 8.468766212463379, -12.63822078704834, 7.031162261962891, 1.8809664249420166, -24.61630630493164, -31.363121032714844, 21.147104263305664, 16.309812545776367, 40.7015266418457, 8.803709983825684, 8.012063980102539, 81.61701965332031, 46.88393783569336, -23.922470092773438, -16.406232833862305, 4.95851469039917, 0.1454128623008728, -0.5937777757644653, 21.819353103637695, 56.16908645629883, -50.258323669433594, -1.7060816287994385, -6.375827789306641], [94.6313705444336, -6.891402721405029, -1.8633993864059448, -3.0976192951202393, -2.812788248062134, -2.652100086212158, 22.451786041259766, -6.652947902679443, -78.51094055175781, -10.272505760192871, -82.4018325805664, 20.55530548095703, -21.754199981689453, 55.87590026855469, -0.11308377981185913, -81.21908569335938, 81.33439636230469, -9.06362247467041, -98.25508880615234, -19.196823120117188, 46.16038513183594, -32.96858596801758, 43.762760162353516, -8.154899597167969, 40.17535400390625, -1.8986397981643677, -3.6961727142333984, 6.379371166229248, 37.06522750854492, -68.07268524169922, 5.4726881980896, -59.199462890625, -18.076156616210938, -13.500280380249023, -58.65834045410156, 41.11573791503906, 59.40135192871094, -25.554792404174805, 5.569890975952148, 78.49909210205078, -2.6174557209014893, -10.704657554626465, -55.71051788330078, 8.440142631530762, -9.682528495788574, -48.94242858886719, 36.190181732177734, -52.085182189941406, 77.99674224853516, -33.26723098754883, 21.391332626342773, 46.57077407836914, 39.59035873413086, 15.881443977355957, -3.023036241531372, -58.93035125732422, -10.774765014648438, -75.5274658203125, 16.847431182861328, -47.141212463378906, -2.485496759414673, -38.18027877807617, 8.512102127075195, 10.894014358520508], [56.632930755615234, -23.135948181152344, 104.28376007080078, 59.25112533569336, -24.680994033813477, -49.56525421142578, -45.1856803894043, -51.09572982788086, -0.752011239528656, 54.025203704833984, -72.35039520263672, -49.07674026489258, 58.265499114990234, 31.196945190429688, 11.107673645019531, -17.415679931640625, -4.9798479080200195, 23.24512481689453, 63.24235534667969, 7.92631196975708, -60.91305923461914, 7.128370761871338, 70.87390899658203, -46.88408660888672, -14.462182998657227, -67.66804504394531, 44.19366455078125, -48.82868194580078, 2.7180135250091553, -12.41519832611084, -10.085208892822266, 49.40243911743164, -60.16331100463867, -24.480743408203125, 44.090938568115234, -2.3410449028015137, -9.053424835205078, 51.757225036621094, -60.872833251953125, 7.328490257263184, -39.866268157958984, -104.19617462158203, -60.14031982421875, 10.895978927612305, -1.0276340246200562, -22.666017532348633, 1.2900879383087158, -27.96076202392578, -8.115381240844727, 48.58646011352539, -6.797529220581055, 25.43724822998047, -27.301939010620117, -39.492252349853516, 19.678213119506836, 30.535625457763672, -27.078250885009766, 74.8456802368164, -7.38607931137085, -48.980525970458984, -17.359935760498047, 10.883379936218262, 38.50538635253906, -23.40603256225586], [-8.464070320129395, -46.545894622802734, -34.53828430175781, 0.29274359345436096, -8.581949234008789, -9.491480827331543, 21.7960262298584, 73.05175018310547, 11.277254104614258, -73.87686157226562, 23.49367904663086, -28.459226608276367, 71.61177062988281, -41.362205505371094, -10.73404598236084, -72.22260284423828, 49.79404830932617, 22.531558990478516, 71.91145324707031, -3.771780014038086, 47.893280029296875, 10.368708610534668, 40.891807556152344, -38.515926361083984, 33.77275085449219, 104.0201644897461, -21.739168167114258, 13.366384506225586, 5.695269584655762, -3.6968019008636475, -49.94532775878906, -30.9234676361084, -38.2759895324707, -56.24373245239258, -93.17567443847656, -8.471996307373047, 10.520675659179688, 8.825630187988281, 15.437705039978027, 46.806156158447266, -7.856812953948975, -36.35337829589844, 31.20675277709961, 36.712745666503906, -11.554869651794434, -23.918970108032227, -2.7098772525787354, 23.304353713989258, -56.33073806762695, -70.27761840820312, -26.804523468017578, 94.57539367675781, -78.55917358398438, 19.98196792602539, -10.545515060424805, 116.76412200927734, -2.5902822017669678, 1.8747868537902832, 50.57640075683594, -35.27831268310547, -38.39458465576172, -59.511985778808594, 14.00137996673584, -77.96894836425781], [-0.11203107982873917, -0.25154775381088257, 0.06538239121437073, -0.006537834648042917, 0.23896118998527527, 0.03060290217399597, -0.007237807381898165, -0.012567127123475075, 0.051687177270650864, 0.0845550149679184, -0.28388696908950806, -0.2229047417640686, -0.01227915845811367, 0.001180250197649002, -0.026054121553897858, -0.05391114577651024, 0.0016351877711713314, -0.02984537184238434, 0.0028996148612350225, -0.21561850607395172, -0.128573939204216, -0.2613354027271271, 0.037466395646333694, 0.1075357124209404, -0.17034009099006653, -0.06471619755029678, -0.00779379578307271, 0.31909334659576416, -0.017729371786117554, 0.1356162130832672, -0.002421616343781352, -0.00693921372294426, 0.07994990795850754, -0.0478852353990078, -0.26427239179611206, 0.001926909084431827, -0.01382275577634573, -0.021296683698892593, 0.0016331628430634737, -0.10696617513895035, -0.06191691383719444, 0.001724720699712634, -0.021925143897533417, 0.2785702049732208, -0.20617103576660156, -0.5861779451370239, 0.11205515265464783, -0.20246267318725586, -0.007703566923737526, -0.09045300632715225, 0.04004301503300667, -0.023643719032406807, 0.12631183862686157, -0.03643421828746796, -0.43947386741638184, 0.01573118381202221, 0.0019206310389563441, -0.003079193877056241, 0.07679755985736847, -0.007205988746136427, 0.006184189114719629, 0.004960163030773401, -0.020313575863838196, -0.08763805776834488], [-0.0003950893587898463, -0.0005932758213020861, 4.2335508624091744e-05, -0.0001010307387332432, -0.0008008273434825242, -0.0005339288036338985, 0.001958990702405572, -2.3595139282406308e-05, -0.0010061380453407764, 2.9863831514376216e-06, -7.117973291315138e-05, 0.00031658646184951067, 0.0007759233703836799, -0.0004942705272696912, -3.247976928832941e-05, 0.0001380802714265883, 1.161574346042471e-05, -0.0008727275999262929, -0.0011322658974677324, -0.0001814980641938746, 3.391636346350424e-05, 3.47949935530778e-05, 2.2389051082427613e-05, 0.0005099528934806585, -3.404658491490409e-05, -0.0007431827834807336, -7.249504415085539e-05, 1.596090805833228e-05, -0.0007914165034890175, -0.00028837041463702917, 0.0003801329294219613, 0.0003300843818578869, -0.0006508456426672637, 0.0008583369781263173, -0.00012460756988730282, -0.0010777836432680488, -0.0002107992477249354, -0.00012078647705493495, 0.00038978300290182233, -6.125357322162017e-05, -1.9153416360495612e-05, -0.00025965951499529183, 5.746390888816677e-05, -0.0005798173369839787, -0.000677594100125134, -0.0015201392816379666, -0.0008485346334055066, -0.0012537947623059154, -3.115920117124915e-05, -0.0006683241226710379, -0.001213903189636767, -0.0003576815943233669, -0.0006124133942648768, 3.534845382091589e-05, -0.00031472271075472236, 0.000713168759830296, 2.955471018140088e-06, -0.0003825699968729168, -0.0007828259840607643, -5.426511052064598e-06, -0.00120699149556458, -5.6111151934601367e-05, -0.0012305090203881264, 0.001137743005529046], [-3.438356361584738e-05, 0.00017038793885149062, 1.7181833754875697e-05, 1.0469678272784222e-05, -8.495797374052927e-05, 3.1283474527299404e-05, 1.5426494428538717e-05, -0.0002013576595345512, 8.830425599626324e-07, 2.485218101355713e-05, -5.23760354553815e-05, 5.361938019632362e-05, -0.000312969321385026, 0.00010914658923866227, 3.199486309313215e-05, 0.00015562199405394495, -5.43629994353978e-06, 1.1166574950038921e-05, -0.00011484057176858187, 5.315829912433401e-05, -1.8121127141057514e-05, -0.000800635083578527, 0.00033851375337690115, -4.400663237902336e-05, -2.685324398044031e-05, -1.3349921346161864e-06, 6.763528290321119e-06, -0.0005089363548904657, -0.00024160592874977738, -0.0003268815344199538, -2.7839894300996093e-06, 1.455600249755662e-05, 7.564209226984531e-05, -0.0007258040132001042, -4.493305095820688e-05, 2.018360282818321e-05, 5.720129411201924e-05, -0.00011750621342798695, 0.00013105286052450538, 6.289868179010227e-05, 1.4306001503427979e-05, 0.0004998332588002086, -2.6649297524272697e-06, 9.764764399733394e-06, 0.0008070412441156805, 0.0003554136783350259, -6.532225961564109e-05, 0.0007298829732462764, 1.2569193131639622e-05, 3.800433114520274e-05, 0.0006004748865962029, -0.00017189839854836464, 0.00034802232403308153, 0.0004866036761086434, 0.0005813153111375868, -0.00043296325020492077, -6.858065262349555e-06, -1.1010994057869539e-05, 5.757715189247392e-05, 8.173269634426106e-06, 0.0003116899752058089, -0.0006460954318754375, -0.00030587604851461947, -4.713642283604713e-06], [-0.2983401119709015, -0.7875053286552429, -0.4434889853000641, -1.0754259824752808, -1.2082123756408691, -0.8288673162460327, 0.9359204769134521, -0.02872355841100216, -0.36824020743370056, 0.0006273263716138899, -0.9535414576530457, 0.0005129467463120818, 0.25337281823158264, -0.6653672456741333, -0.015558592043817043, 0.12019771337509155, -0.4313497841358185, -0.7031433582305908, -0.12013127654790878, 0.007235406897962093, 0.5489814281463623, 0.08598775416612625, -0.002628036541864276, 0.17487280070781708, 0.5133445262908936, -0.34729328751564026, -1.558874487876892, 0.19394522905349731, -0.017116637900471687, -0.01158210914582014, 0.5372544527053833, 0.014493786729872227, -1.2114332914352417, 5.572026252746582, 0.49166491627693176, -0.4604462683200836, -0.7716870307922363, -1.2449733018875122, -0.9942669868469238, -0.043038029223680496, -0.7191139459609985, -0.07995039224624634, -0.04776614531874657, -0.7602439522743225, -0.7653931379318237, -0.755344808101654, -0.9119658470153809, -1.2203054428100586, 0.16883023083209991, -0.7617276310920715, -0.5139535665512085, -0.15193313360214233, -0.5362130403518677, -1.0153145790100098, -1.3259540796279907, 3.5573947429656982, -0.000712530396413058, -0.5115820169448853, -1.3517546653747559, -0.07082497328519821, -0.6722280979156494, 0.2644938826560974, -0.289265900850296, 0.7038953900337219], [-0.010071301832795143, -0.00027237756876274943, 1.5763573173899204e-05, -0.006953751668334007, -0.0006925581255927682, -0.0001724174799164757, -0.0036910991184413433, -0.004603667184710503, -0.01249766442924738, 0.0001227482862304896, -0.019200041890144348, 3.3805838484113337e-06, -0.00020521064288914204, -0.019275452941656113, -5.9787358622998e-05, 0.00033132947282865644, -0.007313871756196022, 0.007861104793846607, 6.453991227317601e-05, -0.0022284919396042824, -0.0029043685644865036, -0.01009785570204258, 0.0011912175687029958, -8.905994036467746e-06, 8.170456567313522e-05, -0.024515680968761444, -3.1464154744753614e-05, 0.0002418588992441073, -0.005203905515372753, -0.010481573641300201, 5.2382994908839464e-05, -0.001990059856325388, -0.003654564032331109, -0.0066989087499678135, -0.008653171360492706, -0.02632720209658146, -0.010447099804878235, -2.645133645273745e-05, -0.0038184623699635267, 5.9720227000070736e-05, -0.015122251585125923, -0.021226752549409866, 4.3519587052287534e-05, -0.0005523244035430253, -0.023290490731596947, -0.014630001969635487, -0.013121217489242554, -0.030670003965497017, -0.00014248426305130124, -0.024516373872756958, -0.004226760007441044, 0.0006060993764549494, 0.00012503954349085689, -0.011911152862012386, 0.0024594618007540703, -0.004229217767715454, 0.001206004642881453, -0.016632886603474617, -0.027512378990650177, 0.0008488030871376395, -0.004145088605582714, -0.006420527584850788, -0.025521308183670044, -0.00464514410123229], [0.0010436071315780282, 1.5574963981634937e-05, 0.0003573050780687481, 0.0012539600720629096, -0.001229908550158143, -1.0202252269664314e-05, -5.6739732826827094e-05, -3.07671471091453e-05, -3.4288612368982285e-05, -1.8706254195421934e-05, 3.893727989634499e-05, 0.002088660141453147, -0.0031960606575012207, -4.3765063310274854e-05, -0.0007622424163855612, 0.0007624036516062915, 0.002267399337142706, 0.0003356010711286217, 0.0002940658014267683, 3.950674454245018e-06, -3.257937714806758e-05, -0.00707187969237566, 4.993988113710657e-05, -0.00404878705739975, -0.0024652762804180384, 4.7900990466587245e-05, 1.5348314263974316e-05, 8.981265273177996e-05, -0.002568647265434265, -0.006740977987647057, 0.0015830519841983914, -1.4185825421009213e-05, 4.579548476613127e-05, -7.447793905157596e-05, -0.006438790820538998, -3.980307883466594e-05, 0.0011698773596435785, 0.0011531544150784612, 4.408643508213572e-05, 2.1224861484370194e-05, 0.004377315286546946, -1.134034482674906e-05, -1.5247485407599015e-06, -0.003480000188574195, 2.331209361727815e-05, 0.0001252039655810222, -0.0006093066185712814, 0.0025988095439970493, -0.006400281097739935, 0.005190473981201649, 6.947055226191878e-05, -1.281462664337596e-05, -1.4417278180189896e-06, 0.0006204814999364316, 7.618508243467659e-05, -1.5236000763252378e-05, 0.0006498174625448883, 1.3785104783892166e-05, 6.010799188516103e-05, -7.261366408783942e-05, -2.710416265472304e-05, -4.243123112246394e-05, 4.728313797386363e-05, -6.834701707703061e-06], [0.001464576693251729, 1.0873299288505223e-05, 0.0001922128431033343, 1.4816964721831027e-05, -0.0004375483840703964, 0.0002133481320925057, -0.000577914877794683, -0.0002252857229905203, -4.9462301831226796e-05, -4.696623363997787e-06, 1.6159032384166494e-05, 0.00287725985981524, -0.0023708748631179333, -5.146961848367937e-05, -0.00011511096818139777, 0.0006667808047495782, 8.601103763794526e-05, 0.0008159031858667731, 0.0001222064602188766, 2.647478595463326e-06, -5.393274477683008e-05, -0.004818379878997803, 5.039449388277717e-05, -0.004209565464407206, -0.00040347498725168407, 4.6216951886890456e-05, -0.00010140518861589953, 8.600828005000949e-05, -0.001782906474545598, -0.0065260473638772964, 0.001479908125475049, 8.542505383957177e-06, 8.31296438263962e-06, -0.00010020180343417451, -0.004307469353079796, -5.790513750980608e-05, 0.0016907608369365335, -6.701265192532446e-06, 4.3449046643218026e-05, 2.3946577130118385e-05, 0.0035011107102036476, -2.3862738089519553e-05, 1.0908213880611584e-05, -0.004143466707319021, -3.8968646549619734e-06, 4.359332888270728e-05, -0.001099335728213191, 2.6069919840665534e-05, -0.003476186655461788, 0.0018544138874858618, 4.755820191348903e-05, -1.5122657714528032e-05, -1.0915807251876686e-05, 0.0009274008916690946, 0.0002802868839353323, -0.0005833759787492454, 2.2034770154277794e-05, 5.9994522416673135e-06, 2.9717812140006572e-05, -2.7526359190233052e-05, -3.148868927382864e-05, -5.6411608966300264e-05, 4.9695183406583965e-05, -6.894576017657528e-06], [-0.00717594800516963, -0.1143585592508316, -0.014741159044206142, -0.05464855208992958, 0.31930026412010193, -0.05344518646597862, 0.24079620838165283, 0.04134702682495117, -0.0007632611086592078, -0.37192291021347046, 0.04475975036621094, -0.045317769050598145, 0.2671337127685547, -0.5159528851509094, -0.02741202898323536, -0.34833598136901855, 0.005776171572506428, 0.27672243118286133, 0.021019386127591133, -0.2888859808444977, 0.015543583780527115, 0.033894773572683334, -0.7049916386604309, 0.30338209867477417, 0.0879531055688858, -0.10411430895328522, -0.005808152724057436, 0.07819216698408127, 0.32473981380462646, 0.2928183674812317, 0.00740267988294363, -0.2691793143749237, -0.16137391328811646, 0.34545400738716125, 0.06818469613790512, -0.017328375950455666, -0.016262458637356758, 0.03867543861269951, -0.3740224540233612, -0.053881872445344925, -0.012246855534613132, 0.016940563917160034, 0.0022739251144230366, -0.008370418101549149, -0.06448251008987427, -0.8434149622917175, 0.07984673231840134, -0.36640170216560364, 0.009829055517911911, -0.032548002898693085, -0.008328690193593502, 0.04688300937414169, -0.1544927954673767, -0.41796138882637024, -0.9105253219604492, 0.3711625635623932, 0.005873413756489754, 0.007765237707644701, 0.0006794575019739568, -0.006955561228096485, 0.004248384386301041, 0.19443073868751526, 0.3212451934814453, 0.0040163216181099415], [0.0003345492295920849, 0.0007918616174720228, 0.0006877030828036368, 0.007004184182733297, -0.004888803232461214, 0.002608169335871935, 0.000618260120972991, -0.0020061146933585405, -0.0037762541323900223, 0.0002866231370717287, -0.0020922995172441006, 0.022988934069871902, -0.0006818895926699042, 0.027220502495765686, -0.0057926964946091175, 0.0030981863383203745, -0.0074110208079218864, -0.007397311273962259, -0.0009817566024139524, 0.0003576534800231457, -0.0007246408495120704, -0.025229105725884438, 0.026872020214796066, -0.0017594528617337346, -0.016429906710982323, -5.4608921345788985e-05, 0.0002712207206059247, -0.0010467380052432418, -0.014658806845545769, -0.02920130081474781, -0.0010998654179275036, 0.009636134840548038, 0.00236450950615108, -0.011638997122645378, -0.0017977065872401, 0.000810838071629405, 0.013896528631448746, -0.000281884684227407, 0.024038119241595268, 0.0025151448789983988, 0.0005700174369849265, -0.0005179500440135598, -0.00010638962703524157, 0.0003906195343006402, 0.018288983032107353, 0.013850555755198002, -0.0010426559019833803, 0.007835379801690578, 0.0014757993631064892, 0.001518906094133854, 0.010171936824917793, -0.0013392317341640592, 0.03140707314014435, 0.010480384342372417, 0.020843466743826866, -0.017335306853055954, -0.00027475913520902395, -0.00045782176312059164, -3.2541629479965195e-05, 0.00032430741703137755, -0.00019886174413841218, -0.013245279900729656, -0.014992045238614082, -0.00018723090761341155], [-0.01676655374467373, -0.05474865436553955, -0.04272743687033653, -0.3836500346660614, 0.5826080441474915, -0.11669603735208511, 0.4338696002960205, 0.4238048493862152, -0.0018096029525622725, -0.014462103135883808, 0.1046871468424797, -0.8462463617324829, 0.09681762009859085, -0.3111479580402374, -0.06396359950304031, -0.9216199517250061, -0.17623962461948395, -0.02217690274119377, 0.04905401170253754, -0.01790033094584942, 0.0363202840089798, 1.1183340549468994, -0.6786646842956543, 0.9918151497840881, 0.05367507040500641, -0.32004883885383606, -0.013527625240385532, 0.8471836447715759, 0.07251076400279999, 1.1077549457550049, 0.007341353222727776, -0.029400935396552086, -0.32262954115867615, 0.8626659512519836, 0.09052035957574844, -0.044742077589035034, -0.1550740897655487, 0.014067452400922775, -0.14640043675899506, -1.4487446546554565, -0.02849082089960575, -0.13246461749076843, -0.18061603605747223, -0.01952776126563549, -1.1674704551696777, -1.302411675453186, 0.13084495067596436, -0.22862723469734192, 0.35494348406791687, -0.07635178416967392, -1.2636699676513672, 0.06707054376602173, -1.3729475736618042, -0.040901921689510345, -1.892966866493225, 1.462175726890564, 0.013741882517933846, 0.022911127656698227, 0.0016878066817298532, -0.01634765788912773, 0.009908176027238369, 0.36332014203071594, 0.7495912909507751, 0.009395423345267773], [1.003074248728808e-05, 2.3753678760840558e-05, 0.0006152833229862154, 0.00023903932014945894, -0.00046914201811887324, 3.75112249457743e-05, 1.8518931028665975e-05, -2.3678656361880712e-05, -0.00026598022668622434, 0.0005900190444663167, -6.281301466515288e-05, 0.0009409123449586332, -0.0004779005248565227, 0.0004684162267949432, 3.8400903576985e-05, -6.374330951075535e-06, 0.00014699068560730666, 1.338481069979025e-05, -2.945945379906334e-05, 1.191187766380608e-05, -2.1736837879871018e-05, -6.608341936953366e-05, 0.00047654981608502567, -5.278106254991144e-05, -3.219543941668235e-05, -1.6160764744199696e-06, 8.116471690300386e-06, -0.00047813027049414814, -4.513085150392726e-05, -0.0008887281874194741, -3.362000825291034e-06, 0.00037234288174659014, 0.00042580594890750945, -0.0012412918731570244, -0.0005140374996699393, 2.4224396838690154e-05, 6.793173088226467e-05, -8.454497219645418e-06, 0.0005935800727456808, 0.0003474414406809956, 1.7193102394230664e-05, -1.5158439055085182e-05, 0.0004952385788783431, 1.1708333659044001e-05, 0.0009808465838432312, 0.000515409919898957, -3.129156903014518e-05, 0.0004937238991260529, 8.95471475814702e-06, 4.5609816879732534e-05, 0.00021830140030942857, -4.0190425352193415e-05, 0.0008241909090429544, 2.4043640223680995e-05, 0.00023086143482942134, -0.0005338886403478682, -8.227227226598188e-06, -1.3738325833401177e-05, -1.0129494967259234e-06, 9.800064617593307e-06, 0.00039745093090459704, -0.0010773342801257968, -0.00011420551891205832, -5.60474563826574e-06], [-9.980147979149478e-07, -3.5423418012214825e-05, -0.00040212433668784797, 6.143039354356006e-05, 2.060291990346741e-05, -2.01494312932482e-05, -0.0002950440102722496, -3.0317713026306592e-05, 0.00036850161268375814, -0.0005077107343822718, 0.0006225830293260515, -0.0011701567564159632, 7.210638432297856e-05, -0.00010497072798898444, -0.00040734652429819107, -0.0008160794386640191, 0.0006237960769794881, 0.0002455834182910621, 5.956788754701847e-06, -5.752217839471996e-05, -0.0002029477764153853, -0.0006091967807151377, -1.7270820535486564e-05, -4.434750007931143e-05, -0.00022096422617323697, 9.662752563599497e-05, 1.89611928362865e-05, -2.334804412384983e-05, -0.0007209756295196712, 2.0103367205592804e-05, 0.00028996641049161553, -0.00010139960068045184, 0.0012971509713679552, -4.949255890096538e-05, 0.0006948532536625862, 5.8510846429271623e-05, 5.961792794551002e-06, 1.428735504305223e-05, 9.613260044716299e-05, -5.2868104830849916e-05, 0.00046732265036553144, 2.3792983938619727e-06, 5.840161065862048e-06, -0.00034780256100930274, -2.0260880774003454e-05, -0.0002877178485505283, 2.2984506358625367e-05, 0.0016787403728812933, -0.0016137168277055025, 5.270140172797255e-05, 0.0011169573990628123, -5.366400728235021e-05, -7.99284825916402e-05, 0.00011131928476970643, -4.02772485585956e-07, -2.5003322662087157e-05, 3.0150890779623296e-06, -5.25842588103842e-05, 2.8671320251305588e-05, 0.0001320041628787294, -8.443037700089917e-07, -0.00018540158635005355, 0.0004138182557653636, -0.0007441507768817246], [21.862659454345703, 12.738383293151855, 51.74869918823242, 9.84823989868164, 10.379273414611816, -48.99280548095703, -7.019405841827393, -50.9258918762207, -6.97078800201416, -0.7931126356124878, -23.14118766784668, 28.43259620666504, -25.232845306396484, -22.24418067932129, 23.416828155517578, -27.31233787536621, 0.14801764488220215, 26.56771469116211, 53.808021545410156, -19.795988082885742, 62.72454071044922, 98.30634307861328, -23.23919105529785, -68.79922485351562, 46.946022033691406, 70.82921600341797, 54.79412841796875, 15.630273818969727, -35.19921875, 74.67412567138672, -21.849781036376953, -5.2064208984375, 25.67598533630371, 55.17646789550781, -38.574256896972656, 24.11201286315918, 83.89046478271484, 27.660377502441406, 13.611456871032715, -42.948890686035156, -61.27408981323242, -1.5110692977905273, 21.625335693359375, -32.68828582763672, -16.239286422729492, -14.946351051330566, 0.8645310997962952, -21.38918685913086, -50.93689727783203, 58.10304641723633, 17.448265075683594, 31.519222259521484, -24.02176856994629, -12.73968505859375, 52.77283477783203, -11.4503755569458, -25.528379440307617, 21.077966690063477, 22.67905044555664, 36.40230941772461, 3.8245275020599365, 4.954051494598389, -61.271385192871094, 55.863616943359375], [11.359661102294922, 0.4754207730293274, -53.80703353881836, -44.484580993652344, -82.44393157958984, -46.515113830566406, 22.948514938354492, -59.268558502197266, -22.219669342041016, -97.8365478515625, 42.044315338134766, 71.60028839111328, -44.96915054321289, 4.262021064758301, 14.497682571411133, -6.1546525955200195, 57.07477569580078, -38.383209228515625, -11.335956573486328, 0.668277382850647, -17.964309692382812, -23.489500045776367, -10.85175895690918, 22.24338150024414, 16.448266983032227, -28.226770401000977, -10.464905738830566, 20.834875106811523, 21.851600646972656, -74.7508773803711, -59.56260299682617, -20.557567596435547, -17.88505744934082, -22.604907989501953, 0.5233838558197021, 50.820274353027344, -54.51649856567383, -70.09854125976562, 12.477507591247559, 32.10942077636719, -51.77463150024414, 52.77414321899414, 75.01539611816406, -6.977452754974365, -69.3520278930664, 38.27277374267578, -74.76579284667969, -75.17001342773438, -12.4920015335083, -44.072845458984375, 10.78586196899414, -14.466890335083008, 132.44422912597656, 39.16663360595703, -10.378778457641602, 3.157362461090088, -79.30409240722656, -75.16526794433594, -21.599597930908203, 26.56331443786621, -42.38959884643555, -3.6599292755126953, 10.331062316894531, 44.021484375], [-39.4825325012207, -8.051679611206055, 2.6456573009490967, -32.693233489990234, 95.78515625, -44.06645202636719, -86.1026840209961, -17.115291595458984, 10.711736679077148, 18.26327896118164, 80.3071517944336, 6.078226089477539, 8.275516510009766, 6.603733062744141, -32.594390869140625, 23.249099731445312, -28.981828689575195, -19.151525497436523, -15.099634170532227, -51.70574188232422, 38.67683792114258, -2.5164194107055664, -51.72901153564453, -71.9699478149414, -20.792247772216797, -77.89099884033203, -85.97367858886719, 2.637173652648926, 32.94452667236328, 47.130558013916016, -50.922996520996094, -6.13114595413208, 29.01072120666504, 3.0276200771331787, 98.29295349121094, 2.1851418018341064, -41.364444732666016, 50.947227478027344, -5.347695827484131, 20.145872116088867, -30.421846389770508, -28.380634307861328, -30.41927146911621, 54.02558135986328, 71.05998992919922, 4.957389831542969, 29.053234100341797, 3.115453004837036, 0.660061240196228, -38.37117004394531, -37.153926849365234, 5.760894298553467, 0.7505292892456055, 22.29031753540039, -26.56552505493164, 62.152061462402344, 23.403244018554688, -33.093162536621094, -27.134552001953125, 51.73858642578125, -36.87034606933594, 72.2229995727539, -29.255441665649414, -65.93889617919922], [-32.69019317626953, 16.66895866394043, 28.028696060180664, 31.194442749023438, 78.55193328857422, -24.77358055114746, 59.68081283569336, -59.3315544128418, -51.45225524902344, -27.239543914794922, 66.28143310546875, -58.19319534301758, 6.510295391082764, -11.34128189086914, -11.445571899414062, -52.40558624267578, 2.7080891132354736, -52.12677764892578, -53.924293518066406, -0.6555659770965576, 52.78390884399414, -21.74667739868164, -22.191062927246094, -20.998905181884766, -0.015885209664702415, 66.43008422851562, -13.842424392700195, 48.46453094482422, -4.676095008850098, 7.846437454223633, -5.446796894073486, 8.945112228393555, 10.988686561584473, -22.881956100463867, -86.35486602783203, -38.61859130859375, 29.41699981689453, -36.60254669189453, 24.734472274780273, -40.09695053100586, 21.233915328979492, -7.661731719970703, 23.505502700805664, -42.74604415893555, 51.087249755859375, -13.05955696105957, 26.362003326416016, -6.3124165534973145, -28.297815322875977, -80.90435791015625, -14.288400650024414, 20.566530227661133, 0.3009936809539795, -21.105892181396484, -10.796713829040527, 2.085261106491089, -30.436172485351562, 40.907527923583984, -21.47602653503418, -78.02748107910156, -26.49161720275879, 10.331216812133789, -26.428722381591797, -3.8870861530303955], [74.55912780761719, 80.88532257080078, -58.049861907958984, 19.320514678955078, 58.591243743896484, -2.1070854663848877, 39.70899200439453, 51.11244583129883, 37.030826568603516, 27.12122344970703, 3.31693434715271, -39.890953063964844, 73.06995391845703, -28.85921859741211, -40.38144302368164, -82.00538635253906, -39.70375442504883, -67.71404266357422, 9.78609561920166, -6.518065929412842, -59.37203598022461, 25.93214225769043, -8.0730619430542, 23.651424407958984, 34.84185028076172, 44.78882598876953, -49.405303955078125, 19.035593032836914, 14.70845890045166, 39.72462463378906, -131.22784423828125, 40.936485290527344, -72.7441635131836, 20.571460723876953, 78.44666290283203, -10.973334312438965, 60.83089828491211, 37.28959274291992, -75.17156982421875, 41.13111877441406, 5.21342658996582, 23.710983276367188, 7.246143341064453, 119.00421142578125, 2.3843867778778076, -26.43099021911621, 59.24851989746094, -71.6740951538086, -21.39373207092285, 65.741943359375, -10.401939392089844, 38.65024948120117, -22.705976486206055, 19.746253967285156, -27.438739776611328, -5.569672584533691, 10.382125854492188, 0.05235603079199791, -10.94996452331543, 42.799259185791016, -54.843101501464844, -23.48408317565918, -38.901268005371094, 3.3325839042663574], [24.08063507080078, 70.90225982666016, -26.310142517089844, -34.92958068847656, -7.2394185066223145, 21.6593017578125, 23.225553512573242, 3.1735193729400635, -63.63013458251953, 18.858871459960938, -21.14394760131836, 17.0824031829834, 21.398330688476562, 10.353471755981445, -6.575780391693115, -13.36527156829834, -21.11382293701172, -37.8941535949707, -78.49699401855469, -55.40286636352539, 21.303730010986328, 32.13840866088867, -39.88450622558594, 9.75320816040039, -135.65016174316406, -41.52806091308594, -34.9728889465332, 10.635831832885742, -9.472371101379395, -1.6135410070419312, 78.60298919677734, -28.746559143066406, 16.58909797668457, -51.70985794067383, -0.8713995814323425, 0.018787367269396782, 41.99037551879883, -2.5692739486694336, -8.057708740234375, 6.5712971687316895, -24.920764923095703, -10.74722671508789, -58.372947692871094, 48.05604553222656, 14.486884117126465, -17.734643936157227, -22.196279525756836, -37.03514862060547, -8.057767868041992, 24.72606086730957, -3.1480586528778076, -43.15861129760742, -68.76542663574219, -60.82149887084961, 8.863334655761719, -43.88972473144531, -92.95381927490234, 88.81951141357422, -68.62503814697266, -17.159330368041992, 81.31221771240234, -9.76051139831543, -29.143089294433594, -94.86006927490234], [-21.8472900390625, -56.97531509399414, -11.026885986328125, -38.43207550048828, -28.94757843017578, 26.44471549987793, -29.0272274017334, -84.6124496459961, -0.17210106551647186, -2.612013339996338, 20.53839683532715, 44.98981475830078, 58.57341003417969, -44.20672607421875, 27.015819549560547, 74.00874328613281, 16.19565200805664, -0.24176403880119324, -48.50533676147461, 22.874431610107422, -62.508995056152344, 68.42478942871094, 30.558574676513672, -38.179683685302734, 19.716310501098633, -71.96820068359375, -27.4794921875, -4.300326347351074, 0.48048481345176697, 19.544342041015625, 80.4620590209961, 120.83413696289062, -13.248190879821777, 16.5983829498291, -22.04540252685547, -61.48393630981445, 16.228853225708008, -131.4080352783203, 2.5710575580596924, -10.820974349975586, -18.401639938354492, 82.9774398803711, 57.72782897949219, -54.24861145019531, 45.159034729003906, -3.246366262435913, -25.096620559692383, -10.118675231933594, 2.616955280303955, -44.039432525634766, 16.2164249420166, 44.1060791015625, 9.739995002746582, 71.07352447509766, 70.0325698852539, 58.17692947387695, 28.37973976135254, -18.638395309448242, 2.9732959270477295, -2.631298780441284, -44.08536911010742, 36.69448471069336, 45.125633239746094, 54.0052375793457], [72.89894104003906, -27.002506256103516, -37.9315185546875, 51.499229431152344, -4.924205303192139, -86.0042495727539, -71.6512451171875, 76.50525665283203, -2.0718955993652344, -0.7965075969696045, 67.3322525024414, 77.95652770996094, 13.32199764251709, 56.366031646728516, 107.59930419921875, 127.93074798583984, -78.5484848022461, 16.424997329711914, -35.749149322509766, 10.3344087600708, -76.33550262451172, 11.922798156738281, -30.561790466308594, 5.315297603607178, -74.82398223876953, 10.362524032592773, 0.958689272403717, 6.06427526473999, -28.375839233398438, -9.05963134765625, -17.996557235717773, 6.946703910827637, -2.7494699954986572, 0.18425096571445465, 4.7419281005859375, -15.14699649810791, -21.292999267578125, -1.928853154182434, 58.20449447631836, 2.758009195327759, 22.49117088317871, 60.425621032714844, -37.193485260009766, 74.02368927001953, -13.057899475097656, -59.077850341796875, 41.39826202392578, 11.449166297912598, 70.27278137207031, -21.761098861694336, 11.085184097290039, -61.46572494506836, -97.75924682617188, -61.41218948364258, 9.727377891540527, -13.293557167053223, 71.0744400024414, 75.71699523925781, 13.926549911499023, 12.378016471862793, 9.849272727966309, -109.656494140625, -25.184541702270508, -78.0511245727539], [7.798527717590332, -60.659523010253906, 3.8794610500335693, -109.64920806884766, 55.828365325927734, 29.590803146362305, 59.349159240722656, -59.07868576049805, -83.57331085205078, -28.172428131103516, 31.23480987548828, -44.42731475830078, 10.021881103515625, 47.893951416015625, -42.803794860839844, 73.84187316894531, -45.55629348754883, -21.07831573486328, 25.31785774230957, 11.352545738220215, -8.457386016845703, -18.51273536682129, -58.59442901611328, 3.158618211746216, -107.67327117919922, 38.29770278930664, -45.98128128051758, -21.26044273376465, -68.59539031982422, -86.09817504882812, -48.42451477050781, 18.273971557617188, -28.40618133544922, -57.73053741455078, 68.52366638183594, 76.74385070800781, 26.499868392944336, 57.07066345214844, 0.18697312474250793, -109.62403106689453, -8.073905944824219, -14.735889434814453, 7.0076189041137695, -28.66146469116211, -13.583372116088867, 7.049803256988525, -10.53243350982666, 59.83595657348633, -2.601138114929199, 37.118927001953125, 71.9661865234375, 31.93317413330078, 22.151357650756836, -62.16542434692383, 27.21016502380371, -14.321633338928223, 41.54448699951172, -12.775077819824219, 74.75352478027344, 32.946598052978516, 10.434215545654297, 17.53254508972168, -11.482645034790039, -16.41698455810547], [-0.0006239711656235158, -0.0014090047916397452, -1.0694691809476353e-05, -0.00027561269234865904, -0.0018355670617893338, -0.0001869131374405697, -4.560269371722825e-05, 0.0007687031757086515, -0.004965951666235924, 0.0002943269209936261, 6.139836477814242e-05, -0.0010623111156746745, 0.002000607782974839, -0.0031909553799778223, 0.002204506192356348, 0.003176410449668765, -0.0004281527653802186, -0.0014647127827629447, 0.00240838760510087, -0.0001329294464085251, 8.316926687257364e-05, -9.12087198230438e-05, -0.0007710555219091475, -0.002311943331733346, -0.0011632139794528484, 0.0004659770929720253, -0.00038382053025998175, -0.0027612331323325634, -0.0006147152162156999, 0.0012876319233328104, 0.001949615660123527, -0.00021137965086381882, 0.0004354137054178864, -0.0006295280181802809, -0.00017878785729408264, 0.0003241699596401304, -0.00015801847621332854, -0.0006153045687824488, 0.00011718665336957201, -0.00025960360653698444, -0.00017719068273436278, -0.00033973416429944336, -0.00031038065208122134, 0.005025395192205906, 0.00019167062419001013, 0.0004506791883613914, 0.00022903007629793137, 0.00024218883481808007, 0.0018473794916644692, -0.003936104476451874, -0.004923179745674133, -0.0006618999759666622, -0.0012790844775736332, -0.0011746578384190798, 0.0018132540863007307, -0.0002197835419792682, 0.0010256264358758926, -0.0004480060306377709, -0.0011388721177354455, 0.0005821168306283653, 0.0002585304609965533, 0.004676504526287317, -7.157767686294392e-05, -0.001941655995324254], [0.0023447182029485703, 0.0238345880061388, 0.005003008525818586, 0.014526977203786373, -0.01924089901149273, 0.04267032817006111, 0.02501591481268406, 0.027838410809636116, -0.007114484440535307, 0.0323357954621315, -0.046906013041734695, -0.020740818232297897, 0.0468747541308403, 0.06779500097036362, 0.09352815896272659, -0.00771349435672164, 0.010769763961434364, 0.016587894409894943, 0.002529599703848362, 0.009195303544402122, 0.039743658155202866, 0.010536844842135906, -6.137989839771762e-05, 0.019744349643588066, -0.013670581392943859, -0.013954225927591324, 0.0010461206547915936, 0.001013229601085186, -0.008614713326096535, -0.00013816957653034478, -0.007256205193698406, -0.021661333739757538, 0.10224573314189911, 0.0070884572342038155, 0.0550200529396534, -0.0013322291197255254, -0.0060353511944413185, -0.009898257441818714, -0.006253629457205534, -0.04498646780848503, -0.000300173502182588, 0.007810893468558788, -0.03193817660212517, 0.013968806713819504, -0.03773276507854462, -0.019370174035429955, -0.0032728237565606833, -0.013278153724968433, 0.0007566282874904573, -0.004209253471344709, -0.009947620332241058, -0.0008732322603464127, -0.023682447150349617, 0.004266973119229078, -0.032807935029268265, -9.900310942612123e-06, 0.015738286077976227, 0.03974027559161186, -0.017024604603648186, -0.021263446658849716, -0.0009573291172273457, 0.034646276384592056, 0.00416122330352664, 0.07942259311676025], [-13.450345993041992, 42.737850189208984, -10.643171310424805, 93.07301330566406, -50.996734619140625, 2.702956199645996, 8.189305305480957, 35.71382522583008, 10.913935661315918, -48.82094955444336, -17.735544204711914, -54.038543701171875, 3.106332540512085, 54.902713775634766, -10.61187744140625, -3.0473673343658447, 43.95763397216797, 70.88502502441406, 74.85252380371094, -49.08624267578125, 56.65787124633789, 44.6300163269043, 30.332860946655273, 4.979789733886719, 17.61223793029785, -23.322463989257812, 2.5876541137695312, -16.030010223388672, -62.38283920288086, 19.11237907409668, -46.50257110595703, 48.12720489501953, -22.925025939941406, 61.07890701293945, 46.746341705322266, -35.821346282958984, -6.503121376037598, -23.95806121826172, -66.31957244873047, -39.88449478149414, -8.572053909301758, -19.723600387573242, 58.072444915771484, 10.352934837341309, 75.0274658203125, -38.385101318359375, -21.66309928894043, -11.00192928314209, -3.1232330799102783, 38.62019729614258, -48.82278060913086, -20.570890426635742, -30.438810348510742, 7.7170515060424805, 28.613203048706055, -10.866375923156738, -41.08776092529297, 2.6439733505249023, 1.8394715785980225, -91.37928771972656, -6.506570339202881, 33.79050064086914, 7.805517196655273, -89.11721801757812], [61.07457733154297, 41.145233154296875, -0.07973996549844742, -36.4753303527832, -1.27134108543396, 2.5434787273406982, -17.8010196685791, -22.78787612915039, -18.908002853393555, 14.32990550994873, 51.077178955078125, 73.48687744140625, 51.07101058959961, 64.56785583496094, -11.654072761535645, -66.37794494628906, -57.23607635498047, -45.18260955810547, 57.73513412475586, -36.345523834228516, -38.6673469543457, -19.62383270263672, -1.854245901107788, -53.81494140625, 83.28839874267578, -6.5591607093811035, 24.391773223876953, -0.17142760753631592, -11.306225776672363, -40.72936248779297, 40.8292350769043, 60.75289535522461, -2.6619887351989746, 19.991994857788086, -57.0872917175293, 59.22193145751953, 66.19307708740234, -38.18593978881836, -2.406942129135132, -62.13789367675781, -25.615251541137695, -4.319491386413574, -13.811816215515137, -26.887174606323242, -48.95893096923828, -77.48681640625, -0.4954451322555542, -6.528194427490234, 60.18707275390625, 9.912115097045898, -7.572962284088135, 10.66328239440918, -51.49027633666992, 22.200878143310547, -2.163783073425293, 5.3089423179626465, -23.734472274780273, 9.460107803344727, -22.47858428955078, -62.14228057861328, 26.751890182495117, 8.14093017578125, 29.616601943969727, 6.502204418182373], [42.457767486572266, 57.40845489501953, 20.605398178100586, -36.04047775268555, -2.0560171604156494, 21.64813995361328, -96.51472473144531, 48.99733352661133, -46.5871467590332, -25.038572311401367, 46.58563232421875, 59.076351165771484, -57.968177795410156, 6.031494140625, 7.968075752258301, -5.366476535797119, -7.202611446380615, 27.718141555786133, -80.61267852783203, -55.030540466308594, -8.625301361083984, 1.927678108215332, -11.477762222290039, 12.7688570022583, -26.56024932861328, -30.634775161743164, -4.144528388977051, -76.1285171508789, -1.8474096059799194, 29.53264808654785, -1.1492626667022705, 9.203880310058594, 29.831647872924805, 12.88929271697998, -27.115081787109375, -0.1550462245941162, 54.012123107910156, 13.831622123718262, -24.904510498046875, -34.95817565917969, -71.9223861694336, -16.49024200439453, 36.46943664550781, -16.69940185546875, -43.95942687988281, 1.675123929977417, 56.03986358642578, 0.8913648128509521, 24.991191864013672, -19.933330535888672, 104.20855712890625, -34.46859359741211, -5.263510704040527, 17.676898956298828, 71.98046112060547, 37.5569953918457, -82.17002868652344, -14.99350643157959, 55.792301177978516, -55.15864944458008, 24.005298614501953, 58.48782730102539, 35.5786018371582, 44.38981628417969], [-44.26658248901367, 7.830197334289551, -24.721797943115234, -11.020846366882324, 56.837562561035156, -59.971126556396484, 28.668901443481445, -67.64627075195312, -21.782258987426758, 56.25602722167969, -34.02613830566406, 27.722965240478516, 8.76056957244873, 22.245956420898438, -7.639981269836426, -46.453182220458984, 11.652230262756348, -3.1282339096069336, -38.42961502075195, 28.156726837158203, 68.81198120117188, -8.466044425964355, -80.31362915039062, -59.23637008666992, -2.3994479179382324, 6.137956142425537, -28.654539108276367, -22.262996673583984, 28.474308013916016, 72.22402954101562, -4.672806262969971, 35.72145462036133, -67.64886474609375, -5.929944038391113, 10.6260404586792, 20.31515884399414, 8.746089935302734, 21.82282829284668, -131.39401245117188, -13.623390197753906, -9.387466430664062, 1.0083577632904053, -33.447044372558594, -3.3662681579589844, 70.88150024414062, 46.48560333251953, 55.07693099975586, -46.10560989379883, -26.675945281982422, -32.95734405517578, 107.486572265625, -42.76261520385742, -41.51219940185547, 32.28533172607422, 81.68326568603516, -20.834562301635742, -22.70388412475586, -68.60977935791016, 24.2246150970459, -46.619659423828125, -67.65986633300781, -36.34272766113281, 5.573387622833252, -21.870779037475586], [32.50049591064453, -86.38447570800781, -30.26272201538086, -21.75893211364746, -12.85351276397705, -42.902740478515625, -22.95355796813965, -21.298906326293945, 74.7668228149414, -0.20881898701190948, 25.252796173095703, -1.1343482732772827, -0.9400836825370789, 57.08314514160156, 68.68328857421875, 72.7945327758789, 20.049591064453125, -30.293996810913086, -28.948606491088867, -6.867665767669678, -49.0404052734375, 5.157373905181885, 54.859683990478516, -36.56271743774414, 0.08240305632352829, 54.65330505371094, -24.424030303955078, 8.74374771118164, 26.423450469970703, -19.778398513793945, -28.84552764892578, -20.992765426635742, -22.270389556884766, 0.18107959628105164, 39.812896728515625, 45.86793899536133, 23.242813110351562, 1.412339448928833, 35.70055389404297, -13.616387367248535, 21.97992515563965, 98.29036712646484, -0.1727413535118103, 10.684503555297852, -81.32474517822266, -12.068317413330078, 37.625614166259766, -44.48382568359375, -4.012425899505615, 3.0494489669799805, 102.72261047363281, -21.721187591552734, -2.0807645320892334, 36.35854721069336, -25.99997901916504, 86.04728698730469, -52.18402099609375, 18.555652618408203, -83.33300018310547, 3.1441991329193115, 38.18230438232422, 66.17901611328125, 33.9505729675293, -2.5936779975891113], [27.248567581176758, 103.51310729980469, -1.8927208185195923, -25.182926177978516, 28.841999053955078, -12.149694442749023, 42.03715515136719, 7.402434349060059, -2.665633201599121, -10.869796752929688, 10.778642654418945, 1.618867039680481, -6.823333740234375, -16.70212173461914, -19.755334854125977, 2.5096864700317383, -0.2711649239063263, 20.40260124206543, 68.75354766845703, 23.195335388183594, 58.91190719604492, -34.98867416381836, -5.983391284942627, -74.84202575683594, -117.16683197021484, -58.60271072387695, 95.79583740234375, 26.275028228759766, 86.05363464355469, -56.14152145385742, 23.69864273071289, 22.718603134155273, -32.51604461669922, 19.82857894897461, -67.29071807861328, 14.330618858337402, -4.906503200531006, -12.542847633361816, -97.86792755126953, 24.795705795288086, -49.66463851928711, 25.676116943359375, 43.2590217590332, -0.07635213434696198, 12.749466896057129, -10.259452819824219, 4.81422233581543, 39.114280700683594, -13.871588706970215, 70.78923034667969, -38.3913688659668, -41.98591613769531, -50.75310516357422, -129.80914306640625, 14.31596851348877, -0.01731518656015396, -28.42571258544922, 27.129125595092773, -7.638147354125977, 70.03738403320312, 28.426950454711914, 56.15654373168945, 26.170806884765625, -27.219186782836914], [0.4682861566543579, 0.2548879384994507, -0.053478024899959564, 0.6051182746887207, -0.7154239416122437, -0.3180398941040039, 0.8934000134468079, -0.07264982163906097, 0.06228066235780716, 0.07227598130702972, 0.3208443820476532, 0.18566250801086426, 0.9643235206604004, 0.3871850371360779, -0.14506201446056366, -1.0671359300613403, -0.4656541645526886, 0.6136943697929382, -0.7971382737159729, -0.0006499522714875638, 0.35419178009033203, -0.8123927712440491, 0.0640757605433464, -0.09169808030128479, -0.6805578470230103, 0.058374304324388504, 0.6171907782554626, 0.008519850671291351, -0.6342368721961975, -0.3299660384654999, -1.0369511842727661, -0.7285414338111877, -0.3345348536968231, -0.06950494647026062, 0.41555583477020264, -0.07184121012687683, 0.5945132970809937, 0.7646203637123108, -0.2049122005701065, 0.9921044707298279, 0.13283944129943848, -0.605112612247467, -0.8257273435592651, 0.35937178134918213, 0.30269578099250793, 0.15891678631305695, -0.3183251619338989, 0.41866734623908997, 0.11072114109992981, 0.07507594674825668, 0.3237181603908539, -0.4507905840873718, 0.4251965582370758, -0.075478196144104, -0.5039688348770142, -0.09512606263160706, 0.006292464677244425, 0.43874669075012207, -0.3696724772453308, 0.7498425245285034, -0.03585632145404816, -0.43341708183288574, 0.0460771806538105, 0.024316508322954178], [0.0037481116596609354, -0.013212925754487514, 0.012572654522955418, -0.02907860092818737, 0.03151416778564453, 0.10085591673851013, -0.0011500348336994648, -0.21821221709251404, 0.17923013865947723, 1.0072481632232666, 1.2006806135177612, 0.05008238926529884, 0.4444648027420044, -0.49642008543014526, -0.8235678672790527, 0.28727850317955017, 0.4123135507106781, 0.37358683347702026, 0.05487922951579094, 0.1130325198173523, -0.02945858985185623, 0.49885356426239014, 0.04156409576535225, 0.2256641387939453, -0.43814748525619507, -0.01885853335261345, 0.2956397831439972, 0.11970047652721405, 0.26849082112312317, 0.1675090193748474, 0.08560125529766083, -0.23426519334316254, 0.32025864720344543, -0.2376432567834854, -0.917754590511322, -0.2805125415325165, -0.0130684282630682, 0.2794050872325897, 0.8134604692459106, -0.10676216334104538, 0.006001089699566364, -0.028656883165240288, -0.021284444257616997, 0.19439361989498138, -0.39807096123695374, -0.49971088767051697, 0.3738844394683838, 0.5922212600708008, 0.2330925017595291, -0.06959611177444458, 0.7102308869361877, 0.06625381112098694, 0.34256500005722046, 0.39005234837532043, 0.5324095487594604, 0.6455215215682983, -0.050011590123176575, 0.21387819945812225, 0.49752962589263916, 0.05525955557823181, -0.006547560915350914, 0.07342056930065155, -0.023452268913388252, -0.3600764870643616], [6.28835114184767e-05, -1.5419689589180052e-05, 1.633438114367891e-05, -1.1059624966947013e-06, 8.951406925916672e-06, 0.00023102415434550494, -8.676900506543461e-06, -1.6980794725895976e-06, -0.0010117772035300732, 6.802890857215971e-05, 2.6915291527984664e-05, 1.1009467016265262e-05, 0.0001450130803277716, -6.524262516904855e-06, -0.0003991208504885435, 2.025274261541199e-05, -0.00022535731841344386, 8.843105206324253e-06, 2.5542058210703544e-05, 1.8390553577773971e-06, -0.00023690995294600725, 0.00033460138365626335, -4.666739550884813e-05, 6.933485110494075e-06, -1.9868351955665275e-05, -0.00045017534284852445, 0.0005401097005233169, -0.0008231187821365893, 6.287138967309147e-05, -4.3973748688586056e-05, 1.6829209926072508e-05, -0.0002621360181365162, 3.6719575291499496e-05, -0.0012385890586301684, 0.00010101200314238667, 2.1707666746806353e-05, -0.0002577267587184906, 3.8487883102789056e-06, -0.00010124770051334053, 7.059408380882815e-05, 5.579508979280945e-06, -0.0002647660730872303, -2.012616278079804e-06, -7.599835225846618e-05, -9.32858165469952e-06, 7.872135029174387e-06, 1.6408552028224221e-06, 7.257659490278456e-06, -0.0005976030952297151, 8.729769433557522e-06, -3.190923962392844e-05, -9.925271115207579e-06, -0.00041172371129505336, 1.3048996834186255e-06, -6.454495633079205e-06, 0.0002094544324791059, 2.1098410343256546e-06, -5.8691753110906575e-06, -2.0595720343408175e-05, -1.4432824173127301e-05, -3.712916395670618e-06, -0.00032295368146151304, -2.8295189622440375e-05, 0.00013415403373073786], [2.0324203433119692e-05, 7.207113230833784e-05, 3.4002698612312088e-06, -0.00015006554895080626, 1.7254545809919364e-06, -0.000231131401960738, 3.052299871342257e-05, -1.642251299927011e-05, -0.0003876610135193914, 5.25713330716826e-05, 3.223662861273624e-05, -3.13007585646119e-05, 4.958407589583658e-05, 0.00012815192167181522, -0.00020604791643563658, 4.996393272449495e-07, 1.2734199117403477e-05, -0.0001425016380380839, 7.432074198732153e-05, 0.0002794860047288239, 5.272650741972029e-05, 8.556625107303262e-05, -3.407739495742135e-05, -2.5407798602827825e-05, -2.6885025363299064e-05, -1.063924082700396e-05, 9.41710368351778e-06, -4.6070297685218975e-05, -1.6076932297437452e-05, 0.0005144980386830866, -3.8548954762518406e-05, -1.1110140803793911e-05, 0.00017995857342611998, -0.00042952035437338054, 7.92947867012117e-06, -3.4781180602294626e-06, 4.007649295090232e-06, -0.0001318120484938845, 2.764483906503301e-05, 0.0001020834461087361, -5.944131316937273e-06, -1.4241505596146453e-05, 3.7685690585931297e-06, 1.787427436283906e-06, 0.0006426004110835493, 0.00032958650263026357, -2.437838338664733e-05, 0.00032561711850576103, 1.6277743270620704e-05, 5.344723831512965e-06, 2.3081187464413233e-05, -1.384371080348501e-05, -1.800201425794512e-05, -9.15083887775836e-07, 0.00015209273260552436, 0.00010088010458275676, 4.289636308385525e-06, -4.9827540351543576e-06, -2.3646878617000766e-05, -6.431637302739546e-05, 1.1159621635670192e-06, -0.0007874378934502602, -0.00012172328570159152, 9.002466686069965e-05], [0.008938664570450783, -0.07116970419883728, 0.011175164952874184, -0.0008278614259324968, 0.19517426192760468, 0.2660179138183594, -0.002883411478251219, 0.016439182683825493, -0.0363830141723156, -0.006129348184913397, -1.560007095336914, 0.027656959369778633, 0.01727120578289032, -1.044438123703003, -0.23649097979068756, 0.024815918877720833, -0.053575463593006134, 0.4599246680736542, -0.014301645569503307, -0.286465585231781, -0.9105591773986816, 0.6319960355758667, 0.001482799998484552, 0.22496676445007324, 0.10385054349899292, -0.761347770690918, 0.00955081358551979, -0.31172823905944824, 0.0747193768620491, 0.0032550261821597815, 0.01714739017188549, -0.032637957483530045, 0.012900463305413723, -0.4805575907230377, 0.0031823087483644485, 0.032413989305496216, -0.003507820190861821, 0.008134388364851475, -0.18375568091869354, 0.0026531058829277754, 0.00571333896368742, -0.13023053109645844, -0.23049037158489227, -0.0693005844950676, -0.471890926361084, -0.46010807156562805, 0.00586711335927248, -1.5353190898895264, -0.2021997570991516, -0.0052224756218492985, -0.287013441324234, 0.01194929052144289, 0.05918493866920471, 0.004854217637330294, -0.12966229021549225, 0.01573626510798931, -0.0013911235146224499, -0.34266218543052673, -0.4760281443595886, -0.003202220192179084, -0.5269100069999695, 0.01599886640906334, -0.25517383217811584, 0.020025430247187614], [-0.013369504362344742, -1.26162740343716e-05, -0.002178072463721037, -0.007208484224975109, -0.003130897879600525, -6.557520100614056e-05, -0.002570566488429904, -0.010134181939065456, -0.005494079552590847, 0.00011368845298420638, -0.020589007064700127, -0.0012487266212701797, -0.0001916206383612007, -0.028704650700092316, -4.5363307435764e-05, 0.0037066086661070585, -0.0053057544864714146, 0.004937322344630957, 0.00017172330990433693, 4.7505356633337215e-05, -0.0021486496552824974, -0.013092241249978542, 0.0038951090537011623, -0.0018649689154699445, 6.627115362789482e-05, -0.009241963736712933, -0.00505457166582346, -0.0026006177067756653, -0.009490073658525944, -0.01511022262275219, 5.7994999224320054e-05, -0.004735742695629597, -0.006243087351322174, -0.004420239012688398, -0.017912397161126137, -0.017890295013785362, -0.008730928413569927, -0.0011916280491277575, -0.005905788857489824, 7.723008457105607e-05, -0.017289182171225548, -0.010747076012194157, 9.618327567295637e-06, -0.0030575876589864492, -0.005341660231351852, -0.007335839793086052, -0.025693615898489952, -0.02190771885216236, -0.0033190881367772818, -0.026642639189958572, 0.00015255181642714888, -0.00013090249558445066, 0.004303354769945145, -0.012547198683023453, 0.008656008169054985, -0.0022495356388390064, 0.0022793200332671404, -0.01033102348446846, -0.020103231072425842, 0.00031477247830480337, -0.014080563560128212, -0.0024711177684366703, -0.023295411840081215, -0.004805660806596279], [0.0015551203396171331, 1.995703496504575e-05, 2.9454227842506953e-05, 0.0008123682346194983, -0.0013017684686928988, 0.0013941045617684722, -5.2556730224750936e-05, -5.615268673864193e-05, 0.000729384075384587, -2.3121161575545557e-05, 4.537446511676535e-05, 0.0010087608825415373, -0.002593936398625374, -3.862854646285996e-05, -0.0014205676270648837, 0.0009653365123085678, 0.0021371173206716776, 0.0008588027558289468, 0.0004889280535280704, 0.0007602514233440161, -2.3947073714225553e-05, -0.006093629170209169, 4.8088124458445236e-05, -0.003782134735956788, -0.0018236339092254639, 0.0008832981693558395, -0.0007645961595699191, 9.08728688955307e-05, -0.0006407283362932503, -0.008655600249767303, 0.0009757989319041371, -2.8005566491628997e-05, 8.57452232594369e-06, -7.290370558621362e-05, -0.007443041540682316, -4.301560329622589e-05, 8.076758967945352e-05, 0.0003585167578421533, -0.00046908046351745725, 0.0001210340196848847, 0.0043723140843212605, -1.502718987467233e-06, -1.2112720469303895e-05, -0.003818701021373272, 0.001701630768366158, 0.003399424720555544, -0.002295791171491146, 0.0038666364271193743, -0.00514266500249505, 0.004919522441923618, 0.0006303488626144826, -1.5450204955413938e-05, 1.386979602102656e-05, 4.77667163067963e-05, 0.0019011831609532237, -1.5602603525621817e-05, 0.0004143135738559067, 2.6557585442787968e-05, 6.13478769082576e-05, -0.0003595190355554223, -2.7860871341545135e-05, -4.651802737498656e-05, 4.704613456851803e-05, -8.319308108184487e-06], [5.706487354473211e-05, 1.3951778782939073e-05, 0.0003982704656664282, 1.4261980140872765e-05, -0.0009316899231635034, 5.432605576061178e-06, -0.0008264374919235706, -2.7822696210932918e-05, -3.679519795696251e-05, -8.865884410624858e-06, 1.6620964743196964e-05, 0.0022134047467261553, -0.002998895477503538, -4.8512032662983984e-05, -2.3013169993646443e-05, 0.0012555174762383103, 2.275072802149225e-05, 0.0007258677505888045, 0.00012909954239148647, 2.001145367103163e-05, -4.7631332563469186e-05, -0.005169570911675692, 4.888987314188853e-05, -0.0036921927239745855, 4.005452137789689e-05, 3.784599539358169e-05, -0.0005482930573634803, 0.0012743279803544283, -0.0009634292218834162, -0.008164460770785809, 0.0022582809906452894, -6.2822559812047984e-06, -1.7258918205698137e-06, -0.00010475192539161071, -0.0064501650631427765, -5.866390711162239e-05, 3.302238474134356e-05, -8.507880920660682e-06, 2.6015857656602748e-05, 0.0017674672417342663, 0.0016605587443336844, -1.3813925761496648e-05, -3.6734954846906476e-06, -0.005326161161065102, 2.02130941033829e-05, 0.0012117987498641014, -0.001754464115947485, 0.0005977061809971929, -0.004295942839235067, 0.00235335947945714, 9.663207310950384e-05, -2.0123856302234344e-05, 1.5513343896600418e-05, 0.0004733558453153819, 0.0013529312564060092, -2.2962001821724698e-05, 2.1735984773840755e-05, 1.493215313530527e-05, 3.3734988392097875e-05, -2.7156131181982346e-05, -3.160509731969796e-05, -5.553778464673087e-05, 4.422540223458782e-05, -5.289622549753403e-06], [-0.003823539474979043, -0.00466133002191782, 0.00018143962370231748, -0.003995145671069622, 0.005643957294523716, 0.009820409119129181, 0.03760150074958801, 0.0029172049835324287, 0.15945173799991608, -0.0017647312488406897, -0.004907690919935703, 0.09213436394929886, 0.011388920247554779, -0.0016159529332071543, -0.2812868356704712, 0.20311316847801208, 0.022441599518060684, 0.15279532968997955, -0.009833404794335365, -0.0016186066204681993, 0.017413469031453133, 0.0019078333862125874, 0.013859480619430542, -0.027551494538784027, 0.006388337351381779, 0.09388963133096695, -0.13184818625450134, 0.3237176537513733, -0.25774094462394714, -0.10138652473688126, 0.0010704094311222434, 0.06333652138710022, -0.3512865900993347, 0.002337356097996235, -0.08574367314577103, -0.0017416401533409953, -0.005914424080401659, -0.024042336270213127, -0.13550101220607758, 0.014061477035284042, -0.004465627484023571, 0.0002901654224842787, -0.08641592413187027, -0.19125896692276, 0.002103308215737343, 0.11751408129930496, 0.0034910389222204685, -0.09856731444597244, -0.11669344455003738, -0.006475949194282293, 0.18063174188137054, 0.008052417077124119, 0.12305279076099396, 0.00023225480981636792, -0.1948455572128296, 0.0006461889715865254, -0.000597681209910661, 0.0036776333581656218, 0.004207145422697067, 0.0014249422820284963, -0.016302283853292465, -0.06860476732254028, 0.005580447148531675, 0.0004109104338567704], [0.0003553429269231856, 0.0008001778041943908, 8.885845454642549e-05, -0.0003921278694178909, 0.000157564616529271, -0.0028704684227705, 0.003960667178034782, -0.0004421569174155593, 6.382318679243326e-05, 0.0009822080610319972, 0.01400357112288475, 0.000332708383211866, 0.002796498592942953, 0.0003795421216636896, -0.016050487756729126, 1.6632815459161066e-05, 0.001074412139132619, -0.009632520377635956, 0.004623121581971645, 0.00033854731009341776, 0.0034601432271301746, 0.008386562578380108, -0.0006603930378332734, -0.0026365886442363262, -0.0007474765880033374, -0.00018859122064895928, 0.004418431781232357, -0.0005612463573925197, -0.0005796307232230902, 0.001175109064206481, -0.0016228794120252132, -7.500173524022102e-05, 0.0002821716479957104, -0.00039572728564962745, 4.1229297494282946e-05, 0.00012984521163161844, -5.698706445400603e-05, -0.002333390759304166, 0.00016141704691108316, 0.005168709438294172, -0.0002152864617528394, -0.0003092207189183682, -0.004042960703372955, -0.004062406253069639, 0.005214444361627102, 0.004056099336594343, -0.00032484476105310023, 0.009824413806200027, 0.0004950016154907644, 0.00010493903391761705, 0.006557187996804714, -0.0002935177180916071, 0.012672362849116325, -1.3539067367673852e-05, -0.0008467831648886204, 0.0013274135999381542, 9.574249997967854e-05, -5.3815074352314696e-05, -0.0005270921974442899, -0.0008238894515670836, 4.12019835493993e-05, -0.021340155974030495, -0.0018137992592528462, 0.0038158742245286703], [-0.005097153130918741, -0.007983371615409851, -0.03954219073057175, -0.21438951790332794, 0.01129418145865202, 0.01713646948337555, 0.10856021195650101, 0.0025185670237988234, 0.5659806728363037, -0.0037601690273731947, -0.006866831798106432, 0.1296187788248062, 0.02465239353477955, 0.0004606751899700612, -0.001817065291106701, 0.3111098110675812, -0.0068697622045874596, 0.08232682943344116, -0.01589278131723404, -0.0018516083946451545, 0.06204736977815628, 0.0034743924625217915, 0.020921973511576653, -0.09127078205347061, 0.007874763570725918, 0.008090727962553501, -0.12213897705078125, 0.6272134780883789, -0.2893712818622589, -0.20456165075302124, 0.002130271401256323, 0.09275969862937927, -0.3197546601295471, 0.0036391732282936573, -0.1580117642879486, -0.0014910507015883923, -0.009462014771997929, -0.0003143043431919068, -0.39131492376327515, 0.06167403236031532, -0.008536186069250107, -0.0006108178058639169, -0.3644712567329407, -0.39140427112579346, 0.0045832376927137375, -0.002358601661399007, 0.006428309250622988, -0.015101386234164238, -0.5221535563468933, -0.0113828768953681, 0.027860449627041817, 0.012267585843801498, 0.007409155834466219, -0.031874243170022964, -0.043628863990306854, 0.002837603446096182, -0.0008839499787427485, 0.07227715104818344, 0.004440685268491507, 0.0008361086947843432, 0.0013370701344683766, 0.010146979242563248, 0.0036702253855764866, 0.001517183380201459], [1.2697156307694968e-05, 3.478173312032595e-05, -0.0001107481584767811, -9.9711432994809e-05, 4.2264982766937464e-06, -0.0001148635710706003, 0.0001310946827288717, -1.4235385606298223e-05, 1.2865237977166544e-06, 3.281628232798539e-05, 2.0767089154105633e-05, 8.914113095670473e-06, 8.217930735554546e-05, 1.4775725503568538e-05, -0.0002250855613965541, 4.198126646315359e-07, 0.00032927270513027906, -0.00020445759582798928, 7.96649037511088e-05, 1.0965951332764234e-05, 9.476158447796479e-05, -7.45882016417454e-06, -2.3196309484774247e-05, -6.706849671900272e-05, -2.385294828854967e-05, -6.672657036688179e-06, 7.3833575697790366e-06, -2.0911174942739308e-05, -0.00020620091527234763, 0.0001443759392714128, -6.273244798649102e-05, -3.422633199079428e-06, 4.639012331608683e-05, -1.721985790936742e-05, 8.372109732590616e-06, 3.3537301078467863e-06, -1.018011971609667e-06, -0.00020403985399752855, -3.885324622387998e-05, 0.00021724773978348821, -6.805119937780546e-06, 8.475485810777172e-05, 1.9714022982952883e-06, -9.717327338876203e-05, 0.00022911034466233104, 0.000509333040099591, -1.399589928041678e-05, 4.8112582589965314e-05, -0.00015760704991407692, 3.6779747460968792e-06, 2.769561433524359e-05, -1.0467746506037656e-05, 5.081243216409348e-05, -6.324576133920345e-07, -2.4344766643480398e-05, 0.00015836730017326772, 3.045530547751696e-06, 0.00039366495911963284, -1.8086535419570282e-05, -3.0258344850153662e-05, 1.1615975381573662e-06, -0.0007181799737736583, -6.795527588110417e-05, 0.00011881454702233896], [-2.468191996740643e-05, -1.237179617419315e-06, -0.0015011782525107265, -6.080032471800223e-05, -0.001577128772623837, -1.3246601156424731e-05, 0.0002478969399817288, -0.0003607729740906507, 1.8350307072978467e-05, -0.0010146868880838156, 1.089445868274197e-05, -0.00151566241402179, -7.356060086749494e-05, -0.00017286693037021905, -0.0002190352970501408, -0.0006632179138250649, -0.000809644756373018, -5.478814273374155e-05, -5.505986791831674e-06, -8.327034447574988e-05, 0.00033694744342938066, 0.00010528560233069584, -9.715197666082531e-05, -5.394603431341238e-05, 1.829608117986936e-05, -7.678303518332541e-06, -0.0018229892011731863, -0.000323707441566512, -7.561335678474279e-06, 2.9463997634593397e-05, -0.0003328995080664754, 1.3957946976006497e-05, -0.0035812160931527615, -0.00012802224955521524, -0.0007758905412629247, 0.0011716930894181132, -1.5656360119464807e-05, 0.0014911178732290864, 4.678328332374804e-05, -0.00037216293276287615, 3.8014546589693055e-05, -2.3771005999151384e-06, 0.0007090658764354885, -0.00022034940775483847, -0.0006227773264981806, -0.0001186094232252799, -1.5874422388151288e-05, 8.969689588411711e-06, -9.000935961012146e-07, -0.0006575924344360828, -2.2169731892063282e-05, -1.3861319985153386e-06, 0.0010719068814069033, -0.00014159023703541607, 3.699883018271066e-05, -6.838544504716992e-05, 1.073545263352571e-05, 0.0005844924598932266, 0.0002997826668433845, 4.000492481281981e-05, 3.9628306694794446e-05, -0.0006182510987855494, -0.00019917594909202307, 5.205284105613828e-05], [-11.617677688598633, -31.284969329833984, 47.16313934326172, -43.847694396972656, 4.490443229675293, -39.484127044677734, 17.12982940673828, -64.3858413696289, -27.13807487487793, 0.17464765906333923, 10.830469131469727, -0.6522045135498047, -102.73399353027344, 7.9010796546936035, 22.720237731933594, -6.903241157531738, 10.395099639892578, -51.10141372680664, -15.790643692016602, 57.84528350830078, 48.158111572265625, -28.874982833862305, -10.781888008117676, -0.5055286288261414, 7.972616195678711, 33.06380844116211, -22.288433074951172, 32.25769805908203, -5.208600997924805, -45.7303352355957, -39.39430618286133, -5.777378082275391, 4.963662624359131, 10.852726936340332, 73.50423431396484, 40.081260681152344, 18.79981803894043, 20.324676513671875, 70.85675048828125, -30.426124572753906, -43.8615608215332, -1.9414701461791992, 22.172767639160156, 1.8361945152282715, 20.523563385009766, 2.2522354125976562, 8.512552261352539, -76.11465454101562, 2.6229825019836426, 74.31985473632812, -5.920409202575684, 109.64253997802734, -1.973793387413025, 71.00430297851562, -11.528850555419922, -58.07548522949219, 78.85319519042969, -1.9277327060699463, 10.784696578979492, 42.42509841918945, -32.584632873535156, 36.438575744628906, -59.33320617675781, -37.37602233886719], [-40.652305603027344, -54.65950393676758, -40.573917388916016, -10.605766296386719, 33.789703369140625, 10.445934295654297, 21.885984420776367, 53.98770523071289, -10.932558059692383, 68.71886444091797, 10.854894638061523, -6.496194839477539, -7.733142375946045, 46.202659606933594, 20.465036392211914, 10.554041862487793, 8.471573829650879, 21.74089813232422, -6.856620788574219, 40.52759552001953, -72.47160339355469, -19.129770278930664, -31.886415481567383, -41.22408676147461, 58.50995635986328, -7.43405294418335, 10.715359687805176, -16.188871383666992, -1.840261459350586, -10.358260154724121, -4.901155471801758, 5.306788921356201, 30.47438621520996, 42.01435089111328, 46.33523941040039, 10.743188858032227, 31.713396072387695, 55.92207717895508, -74.69808959960938, 38.302947998046875, -30.53843879699707, 0.0013620465761050582, -33.59515380859375, 125.27777099609375, -54.15205383300781, 24.493396759033203, 27.79508399963379, -83.34440612792969, -15.600860595703125, -27.13068199157715, 12.441177368164062, -2.3738222122192383, 31.533628463745117, -28.432523727416992, 0.02913377806544304, -82.31216430664062, 26.802162170410156, -29.690990447998047, -35.73102951049805, 21.5157470703125, -0.41109001636505127, -10.776044845581055, 16.082910537719727, 1.148384928703308], [22.170387268066406, 