{"layers": [{"w": [[-0.010203058831393719, -0.010814140550792217, 0.011958719231188297, -0.01052470039576292, 0.012085000984370708, -0.01102609746158123, -0.01043946947902441, -0.010473368689417839, -0.011167882941663265, -0.010781078599393368, -0.010391884483397007, -0.010821457952260971, 0.011772102676331997, -0.010282893665134907, -0.010971431620419025, -0.010775999166071415, -0.010593844577670097, -0.01120381522923708, -0.010080360807478428, -0.010595789179205894, -0.01095821987837553, -0.010796369053423405, -0.011501719243824482, -0.011153063736855984, -0.011024640873074532, -0.010289295576512814, -0.00970274768769741, 0.011784154921770096, -0.010513931512832642, -0.01123050320893526, -0.010901895351707935, -0.011094333603978157, -0.010503557510674, 0.012089913710951805, -0.009897565469145775, -0.009920857846736908, 0.01224072091281414, -0.009942976757884026, 0.01189727894961834, -0.010918915271759033, -0.010756049305200577, 0.004321007989346981, 0.011730904690921307, -0.010476858355104923, -0.010522566735744476, -0.0038676680997014046, -0.010078968480229378, -0.010474605485796928, -0.010770739056169987, -0.010832510888576508, -0.0028551523573696613, 0.012059145607054234, -0.010736288502812386, -0.008949979208409786, -0.010397800244390965, -0.01121676154434681, -0.010787456296384335, -0.011084114201366901, -0.011118088848888874, -0.010413802228868008, -0.010733545757830143, -0.010458570905029774, -0.011286798864603043, 0.012113584205508232], [0.012607750482857227, -0.011279735714197159, 0.012185806408524513, 0.01232675090432167, 0.012075189501047134, 0.012278840877115726, 0.012173768132925034, 0.012063123285770416, 0.012328773736953735, 0.012021097354590893, 0.011560595594346523, 0.012016374617815018, 0.011828840710222721, 0.012135638855397701, -0.011145689524710178, -0.0055628493428230286, 0.011923990212380886, 0.011914735659956932, 0.012334572151303291, 0.011835194192826748, -0.010871203616261482, 0.012415519915521145, 0.009274194948375225, -0.011296028271317482, -0.011126801371574402, 0.01207711361348629, 0.012086247093975544, 0.012710629031062126, 0.012313636019825935, -0.011366579681634903, 0.011791719123721123, 0.010293097235262394, 0.012465013191103935, 0.012681281194090843, 0.012814715504646301, 0.011244868859648705, 0.012407543137669563, 0.011791867204010487, 0.012299164198338985, 0.01195326168090105, 0.01238128449767828, 0.011583765037357807, 0.012233098037540913, 0.012048983946442604, 0.012265624478459358, 0.010630707256495953, 0.012325180694460869, 0.012304204516112804, -0.010789642110466957, 0.012048402801156044, -0.002694796770811081, 0.012544676661491394, -0.011557329446077347, 0.011959345079958439, 0.011871530674397945, -0.01151502039283514, 0.01203517708927393, 0.012074076570570469, 0.011977948248386383, 0.012095841579139233, 0.01185845211148262, 0.011995290406048298, 0.012380952015519142, 0.012356561608612537], [-48.770626068115234, 36.45500564575195, 42.40055847167969, -47.22352600097656, 44.50806427001953, -49.221099853515625, -49.92604446411133, -45.9599609375, -49.7916259765625, -49.31683349609375, -47.80569076538086, -49.82586669921875, 44.22517395019531, -48.98219299316406, 43.17038345336914, -31.67522621154785, -47.83082962036133, -48.39487838745117, -48.78635787963867, -50.994789123535156, 35.39418411254883, -49.4354362487793, -49.37329864501953, 34.539852142333984, 35.17420959472656, -47.450889587402344, -48.796207427978516, 19.713022232055664, -51.8575439453125, 45.85869598388672, -49.934757232666016, -49.34730911254883, -47.558921813964844, 48.79874801635742, -48.394859313964844, -50.500518798828125, 44.4498291015625, -47.28082275390625, 40.744510650634766, -49.99223709106445, -49.94397735595703, -33.03586196899414, 21.783733367919922, -51.79725646972656, -50.34791946411133, -38.61803436279297, -48.420345306396484, -47.790950775146484, 35.64613342285156, -49.89638137817383, -5.996679782867432, 44.06163787841797, 37.786407470703125, -50.45794677734375, -49.782623291015625, 38.219329833984375, -49.147804260253906, -50.065025329589844, -49.57388687133789, -48.571510314941406, -49.17845916748047, -50.93264389038086, -50.663726806640625, 43.98323440551758], [-16.65640640258789, 19.752685546875, -20.995147705078125, -14.552389144897461, -20.805065155029297, 13.519139289855957, 21.640439987182617, -0.7675646543502808, -12.709922790527344, -19.732545852661133, -2.940319538116455, -13.463047981262207, 21.969823837280273, -19.453908920288086, -19.710777282714844, 3.2067337036132812, 19.726329803466797, 19.91205406188965, 13.594223976135254, -12.291268348693848, -6.5108642578125, -3.57999849319458, 19.26285743713379, -26.431154251098633, 16.08188247680664, 21.927305221557617, 0.36808833479881287, 21.03648567199707, 31.101863861083984, 1.9025626182556152, -22.271678924560547, 20.640718460083008, -4.1097612380981445, 19.45136070251465, -21.643991470336914, 24.377872467041016, 32.455360412597656, 17.44913101196289, 3.8027565479278564, -31.207895278930664, -20.637510299682617, -22.676902770996094, 2.940392255783081, 1.6336039304733276, -11.376655578613281, -2.912489175796509, -19.6439208984375, 1.640172004699707, -17.66412925720215, 4.122062683105469, -4.123496055603027, 16.64182472229004, 22.671846389770508, -6.323896408081055, 3.8130297660827637, -12.944023132324219, 10.741501808166504, 1.0324510335922241, 21.636903762817383, 19.317676544189453, 16.08418846130371, -5.339953899383545, 1.8197710514068604, 13.525017738342285], [-12.6925048828125, 16.655933380126953, -16.942630767822266, 16.657316207885742, -4.879734516143799, 17.808988571166992, -19.70356559753418, 27.707866668701172, 6.3223466873168945, -19.726804733276367, 21.64291763305664, -14.75744342803955, -22.67277717590332, -19.807987213134766, 19.261425018310547, 15.006052017211914, -20.994543075561523, -19.71774673461914, -21.64823341369629, -14.493410110473633, 12.71707534790039, -21.633005142211914, -1.0819348096847534, -21.003747940063477, 6.9021735191345215, -13.52477741241455, 20.994600296020508, 16.65281867980957, -12.962762832641602, 25.94301986694336, -19.737207412719727, -29.02973747253418, 7.616230487823486, 19.719053268432617, 13.53218936920166, -4.118252277374268, 20.82049560546875, 3.2972047328948975, 6.902158737182617, 13.562976837158203, 14.48109245300293, 19.80743408203125, -27.708354949951172, 24.51276397705078, -31.23796272277832, -14.490288734436035, -21.95949935913086, -16.651901245117188, -22.130327224731445, 12.545854568481445, 18.834196090698242, 1.6420804262161255, -3.207253932952881, -12.71267318725586, 20.64203643798828, -21.931650161743164, 20.642854690551758, -12.706263542175293, -27.66313362121582, -21.929630279541016, 18.918724060058594, -19.80933380126953, -19.71036148071289, 20.63854217529297], [27.70493507385254, 18.39752197265625, 5.413506031036377, 1.6450817584991455, 7.410190105438232, -19.694435119628906, 17.120031356811523, -28.943754196166992, -1.5901134014129639, 16.94375228881836, 23.389034271240234, 15.718100547790527, -1.9044398069381714, 12.706073760986328, 12.735607147216797, -11.667580604553223, -19.277965545654297, -3.615551471710205, -6.832455158233643, -12.967411994934082, -2.0478250980377197, 18.56599235534668, -1.3624467849731445, -19.910795211791992, -17.663314819335938, -27.70475959777832, 12.716609954833984, 20.99350929260254, 18.889667510986328, -10.374133110046387, -27.622011184692383, 0.9020364284515381, -16.00347328186035, -27.764209747314453, 12.944357872009277, 1.2764965295791626, 18.882701873779297, -20.818883895874023, 22.978710174560547, -21.008258819580078, 6.853953838348389, 10.68173885345459, -14.507904052734375, 7.502194404602051, 30.44590187072754, -12.690671920776367, 4.891056060791016, -28.16212272644043, 12.71636962890625, -19.78633689880371, 12.693836212158203, -14.95519733428955, -1.8225067853927612, 22.964542388916016, 13.593997955322266, 3.154493808746338, -1.0584261417388916, 14.509716033935547, 28.151853561401367, -4.892773151397705, -21.64136505126953, 27.507144927978516, -27.647233963012695, -16.648948669433594], [-5.810597896575928, 5.48220682144165, -5.79504919052124, -5.81080436706543, -5.573566436767578, -5.567078113555908, -5.820806503295898, -5.65010929107666, -5.594468593597412, -5.860116958618164, -5.511082172393799, -5.659379482269287, -5.598026275634766, -5.651156902313232, 5.717844486236572, 4.639491081237793, -5.627155780792236, -5.428349018096924, -5.76552677154541, -5.452571868896484, 5.781281471252441, -5.624007225036621, -6.109944820404053, 5.619808673858643, 5.785401344299316, -5.751510143280029, -5.65277624130249, -5.559545040130615, -5.589622974395752, 5.716216564178467, -5.683835983276367, -5.623525619506836, -5.7226176261901855, -5.688862323760986, -6.004328727722168, -5.251040935516357, -6.041149616241455, -5.71398401260376, -5.729813575744629, -5.650369167327881, -5.566181659698486, -4.697299957275391, -5.950088977813721, -5.77610969543457, -5.7152533531188965, -4.42451810836792, -5.703751564025879, -5.852727890014648, 5.565939426422119, -5.252196311950684, 3.7099127769470215, -5.815693378448486, 5.513422966003418, -5.782700061798096, -5.678036689758301, 5.4897894859313965, -5.68853235244751, -5.600368022918701, -5.877414703369141, -5.609710693359375, -5.8207855224609375, -5.879865646362305, -5.533382892608643, -5.69691276550293], [0.8524675369262695, -0.8148959279060364, 0.8529469966888428, 0.8213112354278564, 0.8558980226516724, 0.8428958654403687, 0.8869319558143616, 0.8079029321670532, 0.8571463227272034, 0.7828240990638733, 0.8175179958343506, 0.7874953150749207, 0.8383204340934753, 0.8042361736297607, -0.8200485110282898, -0.7106650471687317, 0.82209312915802, 0.7565706968307495, 0.8222987055778503, 0.8275426626205444, -0.800553023815155, 0.8302148580551147, 0.2394779622554779, -0.7817999720573425, -0.828492283821106, 0.831085205078125, 0.8505327105522156, 0.864309549331665, 0.8393620252609253, -0.8475375175476074, 0.7826846241950989, 0.42917346954345703, 0.8101868033409119, 0.8945262432098389, 0.8473668098449707, 0.6319878697395325, 0.8922911882400513, 0.8005296587944031, 0.839942991733551, 0.7989563941955566, 0.8024477362632751, 0.058010127395391464, 0.8444148898124695, 0.8205701112747192, 0.8576090335845947, 0.41611143946647644, 0.8635539412498474, 0.7976316809654236, -0.8038579225540161, 0.7899406552314758, -0.7031644582748413, 0.871955156326294, -0.7836786508560181, 0.8365805745124817, 0.8738434314727783, -0.8147212266921997, 0.8563864827156067, 0.8137930631637573, 0.8192747831344604, 0.858695387840271, 0.7965505719184875, 0.8807032108306885, 0.8644815683364868, 0.8791683912277222], [-2.7950801849365234, 0.6884865760803223, -2.9571073055267334, -2.884833812713623, -3.022200107574463, -2.9546937942504883, -3.0373828411102295, -2.8874645233154297, -2.9465389251708984, -2.5314550399780273, -2.8476529121398926, -2.7159316539764404, -2.9921841621398926, -2.933255434036255, 1.1457898616790771, -0.6102977991104126, -2.9204070568084717, -2.7538411617279053, -3.021198034286499, -2.784121036529541, 0.6653914451599121, -2.9669487476348877, 0.5549789071083069, 1.0645949840545654, 0.6826281547546387, -3.0090222358703613, -3.079871892929077, -2.907594680786133, -2.8789613246917725, 1.09271240234375, -2.5529417991638184, -0.7949862480163574, -2.8730628490448, -2.9198155403137207, -3.003786563873291, -2.5912587642669678, -3.062241315841675, -2.989128351211548, -2.84330677986145, -2.4781084060668945, -2.964688301086426, -2.845841884613037, -2.9732413291931152, -2.8096351623535156, -2.887225389480591, -2.4578747749328613, -3.0426979064941406, -2.827702045440674, 0.7328634262084961, -2.923989772796631, -0.9723758101463318, -3.0530850887298584, 1.0199071168899536, -3.0310490131378174, -2.997051954269409, 1.0397629737854004, -2.822059392929077, -2.7448666095733643, -2.89546275138855, -3.000883102416992, -2.971163511276245, -2.968933343887329, -3.0480237007141113, -3.05147385597229], [0.03394702821969986, -0.033922381699085236, 0.040070466697216034, 0.03603050112724304, 0.04131429269909859, 0.03730210289359093, 0.03768565133213997, 0.03410866856575012, 0.036200620234012604, 0.03382743149995804, 0.036690764129161835, 0.03610893711447716, 0.04076242446899414, 0.036293964833021164, -0.0333881750702858, -0.022595636546611786, 0.0356312021613121, 0.03177626058459282, 0.03658781200647354, 0.0358419343829155, -0.03541654348373413, 0.03876132890582085, 0.037913136184215546, -0.03384093567728996, -0.03418958559632301, 0.03895798325538635, 0.04027378186583519, 0.0370354987680912, 0.036662325263023376, -0.035389646887779236, 0.03521529585123062, 0.034110456705093384, 0.03457288816571236, 0.03494279831647873, 0.03932895511388779, 0.018852462992072105, 0.04008952155709267, 0.03519298508763313, 0.038003407418727875, 0.034805186092853546, 0.035136058926582336, -0.001005268655717373, 0.039237719029188156, 0.03610643744468689, 0.03742498159408569, 0.012862143106758595, 0.03873613104224205, 0.03669805824756622, -0.03400459140539169, 0.03342427313327789, -0.028167186304926872, 0.04035721719264984, -0.034827787429094315, 0.03718110918998718, 0.03666888177394867, -0.03480838984251022, 0.035964932292699814, 0.03613242879509926, 0.03609750047326088, 0.037400249391794205, 0.03657638654112816, 0.03891454264521599, 0.03720100596547127, 0.03899696096777916], [0.027032433077692986, -0.020549345761537552, -0.020020833238959312, 0.02637023851275444, -0.024869795888662338, 0.02723103016614914, 0.02689630724489689, 0.0265218373388052, 0.026711463928222656, 0.026129504665732384, 0.025430114939808846, 0.026067689061164856, -0.02494022622704506, 0.027087319642305374, -0.02287392131984234, 0.02115962654352188, 0.02657620795071125, 0.026637256145477295, 0.025287626311182976, 0.027198361232876778, -0.0172578077763319, 0.027571141719818115, 0.02708439715206623, -0.01980067603290081, -0.018125634640455246, 0.026546811684966087, 0.026940125972032547, 0.0214347243309021, 0.027292391285300255, -0.021959736943244934, 0.02710661292076111, 0.025708341971039772, 0.026260823011398315, -0.02578098326921463, 0.026923537254333496, 0.02806582860648632, -0.02517053298652172, 0.025186549872159958, -0.020475544035434723, 0.02738381177186966, 0.026814930140972137, 0.02483663335442543, 0.0225553996860981, 0.026990141719579697, 0.02609723061323166, 0.024853313341736794, 0.025576554238796234, 0.026056837290525436, -0.0168028362095356, 0.02664746716618538, 0.02066141366958618, -0.022263703867793083, -0.021927349269390106, 0.026609200984239578, 0.026681765913963318, -0.023109588772058487, 0.026159197092056274, 0.02623896673321724, 0.02586885541677475, 0.02543497458100319, 0.0261058546602726, 0.02740342542529106, 0.02615182101726532, -0.022998258471488953], [16.082748413085938, 14.510777473449707, -32.552677154541016, 2.0495786666870117, -5.415153980255127, -16.656763076782227, 19.73401641845703, -21.04298210144043, 5.414914131164551, 6.8953375816345215, 4.123765468597412, -14.490797996520996, -17.188396453857422, 23.389385223388672, -13.455517768859863, -4.139285087585449, 21.56789207458496, -4.043069839477539, -17.237913131713867, -21.650171279907227, 17.184249877929688, -17.238554000854492, 18.401714324951172, -13.094853401184082, -14.505480766296387, -12.922333717346191, 1.5899896621704102, -2.8057236671447754, 0.8961647748947144, 17.450586318969727, -17.824848175048828, 13.12984561920166, -13.524937629699707, -14.50331974029541, -12.948752403259277, -1.5641199350357056, -19.713335037231445, -20.634628295898438, -25.899654388427734, 21.642484664916992, 14.509716033935547, -2.688446044921875, 17.45030975341797, -1.0838992595672607, -29.02525520324707, -27.767412185668945, -0.8995262384414673, 1.9051092863082886, -12.91948127746582, -21.929729461669922, 3.615493059158325, 12.716182708740234, -29.302988052368164, 17.809518814086914, -20.644126892089844, 5.463627815246582, 7.409768104553223, 14.361771583557129, -6.900827407836914, -0.7681540250778198, 19.734975814819336, 9.986472129821777, -19.75303077697754, 26.429418563842773], [-28.161155700683594, 23.323474884033203, 0.7862529158592224, 1.635310173034668, 13.90818977355957, 11.378110885620117, -21.040771484375, -14.489270210266113, -13.460079193115234, -27.506439208984375, 23.32753562927246, 21.576400756835938, 20.644819259643555, 3.1280405521392822, 8.95701789855957, 21.638486862182617, -6.4920196533203125, -30.614294052124023, 6.895381450653076, 3.11588978767395, -21.029441833496094, -20.992149353027344, 4.116103649139404, -12.917364120483398, 21.706668853759766, 13.525483131408691, 15.822850227355957, -21.640844345092773, 17.808530807495117, -11.666693687438965, -19.43621253967285, 4.121160507202148, -8.911306381225586, 15.822675704956055, -1.3606351613998413, 31.203420639038086, 6.3333330154418945, 15.126047134399414, -21.95921516418457, 15.996654510498047, 15.00725269317627, 28.157426834106445, -6.325497150421143, -21.00325584411621, -27.647117614746094, -1.131029725074768, -12.926273345947266, -23.363344192504883, 19.369949340820312, 27.6608829498291, 21.6428279876709, -10.393956184387207, -18.91847801208496, 12.6922025680542, 27.768394470214844, -21.586950302124023, 14.95509147644043, 3.616293430328369, 3.6173412799835205, 20.645145416259766, -17.728809356689453, -14.507445335388184, 13.525618553161621, 27.7681827545166], [19.436315536499023, -1.56136953830719, -22.274044036865234, -14.489474296569824, -21.95172119140625, 1.1304477453231812, -11.666671752929688, 1.6348007917404175, -19.399213790893555, 7.652362823486328, -28.15397834777832, -6.895453929901123, -12.547542572021484, 13.52047061920166, 2.0493385791778564, 20.645837783813477, 23.379161834716797, 16.652469635009766, 7.621050834655762, -12.69385814666748, 0.9414542317390442, 15.008060455322266, -15.799079895019531, 3.614816427230835, -19.708702087402344, 12.627033233642578, -26.427644729614258, -18.401437759399414, -28.156946182250977, 12.929919242858887, -13.526691436767578, 21.042892456054688, 20.118627548217773, 1.8211534023284912, 31.3305606842041, 13.131525993347168, -21.706632614135742, 18.612293243408203, 15.816935539245605, -12.7133207321167, 0.8335423469543457, -16.660429000854492, -14.957962036132812, -21.030839920043945, 16.874561309814453, 14.509519577026367, -7.65315580368042, -27.598493576049805, -3.203277587890625, 13.0945405960083, 14.492034912109375, -12.714601516723633, 14.501981735229492, 14.491656303405762, 22.88259506225586, -1.1303821802139282, -21.6508846282959, -14.212286949157715, 27.595903396606445, -14.996899604797363, 3.1284844875335693, 6.448193073272705, 0.8338661193847656, -21.03759765625], [4.105459213256836, 8.955060005187988, 19.807884216308594, -3.2693960666656494, 22.12496566772461, 25.443115234375, -0.7723304033279419, 21.64315414428711, 0.9418616890907288, -12.712457656860352, 6.3335442543029785, 13.515541076660156, 25.9408016204834, 12.547993659973145, -8.94378662109375, 12.967244148254395, -18.84524154663086, -20.650428771972656, -31.2045955657959, 12.644918441772461, 15.009042739868164, -31.33363151550293, 15.821548461914062, -15.8237886428833, 15.819605827331543, -22.674530029296875, -4.758742809295654, 7.411106586456299, 27.479358673095703, -27.768138885498047, 4.883503437042236, -6.849384784698486, -23.42894744873047, -12.917342185974121, -1.3723130226135254, 0.36688053607940674, 14.988484382629395, -14.476734161376953, 31.238727569580078, -6.494130611419678, -23.431758880615234, -3.1539626121520996, 24.088531494140625, -12.644477844238281, 16.628982543945312, -17.189050674438477, 13.460108757019043, -12.924811363220215, 19.8160343170166, 22.978782653808594, 1.900787353515625, 31.236587524414062, 6.84138822555542, 1.809739589691162, 14.597990989685059, 30.61427879333496, 14.486373901367188, 4.092617034912109, -14.510181427001953, 21.045795440673828, 18.386085510253906, 12.735264778137207, -12.719942092895508, -13.095232009887695], [-1.6363142728805542, -2.803802728652954, -19.712966918945312, -10.368672370910645, 14.4965238571167, 13.131293296813965, 30.61231803894043, 27.717979431152344, 17.668554306030273, 0.36666953563690186, -26.42927360534668, -14.5101957321167, 20.994630813598633, 21.03373908996582, 0.7886030673980713, -29.4206485748291, 14.511839866638184, 21.010738372802734, 21.92947769165039, 6.323459625244141, -19.720561981201172, -3.153911590576172, -21.64753532409668, -13.551939010620117, -13.125509262084961, 19.912708282470703, 19.71864891052246, 19.703922271728516, -32.455265045166016, 17.66022300720215, 30.498870849609375, -4.1232123374938965, 6.833990573883057, -21.647869110107422, -34.32733917236328, 27.595415115356445, 19.317262649536133, -6.326480865478516, 19.9178466796875, -3.4987123012542725, -17.66025161743164, -19.848543167114258, 23.32013511657715, -8.955023765563965, 19.737285614013672, -6.326479434967041, 27.58997344970703, 22.054292678833008, -18.398759841918945, 21.92781639099121, -16.10658836364746, -22.562952041625977, -20.639524459838867, 23.380661010742188, 19.718154907226562, -21.04570770263672, -18.845226287841797, -23.428430557250977, -23.317829132080078, 19.810184478759766, -20.648216247558594, -20.636585235595703, 1.7045401334762573, 21.03858757019043], [21.043561935424805, 21.649553298950195, -27.505056381225586, 21.637243270874023, 1.7489235401153564, 3.614816427230835, 1.5678472518920898, 21.63840675354004, 1.8493441343307495, -6.323030471801758, -27.598974227905273, 4.12257194519043, -15.363712310791016, -19.787029266357422, -17.112028121948242, 12.715622901916504, 19.761606216430664, -1.5675032138824463, -19.703020095825195, -26.430391311645508, 3.8138082027435303, 21.968353271484375, -12.292293548583984, 19.441051483154297, 17.45172882080078, 12.739099502563477, 14.988462448120117, -13.06442928314209, -1.5642144680023193, -17.452077865600586, 19.76224708557129, -24.3836612701416, 21.95092010498047, 26.106868743896484, 23.391427993774414, -16.627519607543945, 16.080455780029297, -19.91228675842285, -2.0486326217651367, 21.927921295166016, 6.8518147468566895, -18.963294982910156, 29.030502319335938, -12.691951751708984, 21.92911148071289, -1.9043234586715698, -19.729578018188477, 19.720905303955078, 6.854288578033447, -13.523642539978027, -14.994057655334473, 40.45928955078125, -20.807392120361328, -12.285334587097168, 20.64366912841797, -4.88346004486084, -15.823708534240723, 18.83176612854004, -21.98797035217285, -14.551777839660645, 22.273178100585938, 1.6250219345092773, -29.025415420532227, -21.638078689575195], [19.445947647094727, -12.706634521484375, 20.821535110473633, 21.96709442138672, -1.8770182132720947, 4.124922275543213, 1.5426908731460571, -1.8128318786621094, -4.119401931762695, 23.379627227783203, -21.004621505737305, -14.994057655334473, 12.847702026367188, 18.9208927154541, -31.34740447998047, -19.75248908996582, -22.975311279296875, -19.26177406311035, -1.3629634380340576, -14.509955406188965, 16.08570098876953, 13.531075477600098, 14.49697494506836, -19.918405532836914, -21.64516258239746, -14.508893013000488, -14.513513565063477, 13.904253005981445, 6.314237594604492, -18.611732482910156, 22.565021514892578, -34.32852554321289, 22.238672256469727, -23.318883895874023, 14.494370460510254, 22.681995391845703, 23.36062240600586, -16.63043785095215, 19.454715728759766, -21.969524383544922, -3.736433744430542, 31.10350799560547, 19.262413024902344, -14.600436210632324, 1.6373255252838135, -16.64673614501953, 13.526240348815918, -18.88776397705078, -21.944772720336914, -18.60976791381836, -17.108142852783203, 27.50688362121582, 18.410051345825195, 17.452667236328125, -16.65949821472168, 13.517367362976074, 5.685177326202393, -19.733062744140625, 21.63996124267578, -3.296426296234131, 6.853357315063477, -4.116891860961914, 12.737746238708496, 21.644296646118164], [0.7409022450447083, 17.23345947265625, -1.5668576955795288, -19.437267303466797, 17.35529899597168, -13.590557098388672, -16.629186630249023, -19.71844482421875, -4.873149871826172, -0.9413450956344604, 8.932286262512207, 20.64358139038086, -14.49461841583252, -22.05411148071289, -16.654630661010742, 19.818340301513672, -28.94156837463379, 19.756244659423828, 17.66623306274414, -3.6165263652801514, -29.105493545532227, -1.8203516006469727, 21.03848648071289, 17.230024337768555, 27.631244659423828, 4.087458610534668, 14.4937744140625, 1.0882655382156372, 21.005210876464844, 19.71293067932129, -27.677888870239258, 14.508631706237793, 19.71877670288086, -20.994586944580078, -19.80883026123047, 29.106781005859375, -3.2079615592956543, -6.833102703094482, 13.594376564025879, -17.184024810791016, -22.672536849975586, 0.3679791986942291, 30.61616325378418, 30.453786849975586, 14.169904708862305, -21.035863876342773, -8.63186264038086, -3.2092931270599365, 1.0853326320648193, 31.347091674804688, -1.902759075164795, 21.63905906677246, 19.911741256713867, 29.09965705871582, -13.593757629394531, -17.618436813354492, -5.340150356292725, -4.12649393081665, 22.082778930664062, 17.10991096496582, 15.015445709228516, 1.812329888343811, 24.217453002929688, -19.911113739013672], [21.63875961303711, -1.6389189958572388, -21.642004013061523, 14.498954772949219, -4.880593299865723, 17.828275680541992, 19.435375213623047, -21.029550552368164, -0.24900612235069275, -19.78199005126953, 7.651424407958984, 12.637125015258789, -14.506892204284668, -21.630355834960938, -15.799101829528809, 21.03683090209961, 22.56340217590332, 12.717482566833496, 12.548240661621094, -19.44117546081543, 19.73130226135254, -21.607528686523438, 23.3798828125, -18.920827865600586, -17.449501037597656, -33.5945930480957, 12.692482948303223, -6.510194778442383, -21.587203979492188, -3.2972192764282227, 5.465301513671875, -18.400026321411133, -3.2022080421447754, 12.292184829711914, 17.235017776489258, 19.733949661254883, -26.42926025390625, 20.459213256835938, -21.006032943725586, -20.994382858276367, -20.99210548400879, -13.128965377807617, -19.717124938964844, -0.2491079866886139, 10.3944730758667, -12.545148849487305, -19.761133193969727, -4.1248931884765625, 21.967792510986328, 27.506338119506836, 18.401081085205078, 19.73605728149414, 12.712593078613281, -19.728792190551758, -14.506288528442383, 14.395590782165527, -13.524551391601562, -14.50859546661377, 21.568269729614258, -4.121796131134033, 18.39851951599121, 29.69734764099121, 19.7369441986084, -20.645437240600586], [12.960586547851562, -14.509271621704102, -22.239158630371094, -10.373740196228027, 16.086647033691406, 6.3328094482421875, 21.968761444091797, 25.925695419311523, -1.1291452646255493, 4.108893394470215, -21.00385856628418, -22.97431182861328, -21.64254379272461, 1.819814682006836, -21.988689422607422, 29.10492515563965, 1.902511715888977, -31.33394432067871, -21.038827896118164, -0.9022256135940552, -7.534476280212402, 29.030231475830078, 12.694164276123047, 6.448905944824219, 22.054759979248047, -0.9020801186561584, -17.23355484008789, 7.616448879241943, 1.633043646812439, -25.93662452697754, -12.286142349243164, 22.68205451965332, -6.840166091918945, 4.126968860626221, 16.083337783813477, -18.88438606262207, -4.121511936187744, 19.705806732177734, -20.190486907958984, -5.458884239196777, 12.29189395904541, -21.640430450439453, 0.3685539960861206, -32.45436096191406, -27.5937557220459, -21.641742706298828, -17.185144424438477, -12.68732738494873, 12.92221736907959, 18.84693717956543, -14.485116004943848, -13.524944305419922, 7.623633861541748, 7.8009490966796875, 17.35537338256836, 5.459146022796631, -13.520674705505371, 4.085239410400391, 1.820251226425171, 20.458965301513672, 0.942101776599884, 0.8970451354980469, 12.692337989807129, 15.36451244354248], [0.02421109564602375, 0.15350627899169922, -0.16767093539237976, 0.01676352508366108, -0.16746695339679718, 0.035901252180337906, 0.0034555024467408657, 0.03472766652703285, 0.03093745745718479, 0.01760021038353443, 0.026802247390151024, 0.041472919285297394, -0.1621084064245224, 0.02618245780467987, 0.15113529562950134, 0.11856035888195038, 0.015447224490344524, 0.03373267501592636, 0.017641466110944748, 0.030751492828130722, 0.15294356644153595, 0.02837216667830944, -0.007263559382408857, 0.1501239389181137, 0.1513075977563858, 0.026006238535046577, 0.003057478228583932, -0.15960237383842468, 0.03321779519319534, 0.15651534497737885, 0.0333704948425293, 0.0057977125979959965, 0.02623443305492401, -0.16678431630134583, 0.02041962556540966, 0.04354892298579216, -0.16474272310733795, 0.0071087065152823925, -0.16128213703632355, 0.03213806822896004, 0.02384561114013195, 0.01808890700340271, -0.16754001379013062, 0.01847926527261734, 0.027876200154423714, 0.019940746948122978, 0.026902925223112106, 0.03214945271611214, 0.15390531718730927, 0.03588499128818512, 0.12288457900285721, -0.17232152819633484, 0.15262217819690704, -0.0047029475681483746, 0.017014069482684135, 0.15787242352962494, 0.021892745047807693, 0.03663913905620575, 0.032902173697948456, 0.021618928760290146, 0.030885964632034302, 0.020725741982460022, 0.033554233610630035, -0.16872534155845642], [30.671798706054688, 29.024789810180664, 21.001741409301758, 13.269144058227539, -20.639575958251953, 31.154905319213867, -18.833629608154297, -16.1108455657959, 14.488862991333008, 31.33832359313965, -20.643705368041992, 4.088011264801025, 23.386157989501953, 19.782703399658203, -1.8207095861434937, 21.928983688354492, -13.520696640014648, -14.499856948852539, 12.621711730957031, -19.709518432617188, 10.375494003295898, 3.812687635421753, 18.84972381591797, -31.203405380249023, 21.951080322265625, -18.539045333862305, 8.844432830810547, 1.9018423557281494, -20.99411392211914, 14.396739959716797, -15.77867603302002, -4.884777069091797, -18.920114517211914, -12.736516952514648, -7.622178554534912, 17.66704750061035, 20.991989135742188, -3.2065372467041016, 13.502215385437012, -5.4660725593566895, -5.415030479431152, 19.44108009338379, -19.7842960357666, 1.7063446044921875, -16.644371032714844, 21.649415969848633, -14.481375694274902, -17.449691772460938, -14.493912696838379, -17.192819595336914, 12.644947052001953, 21.03394889831543, 20.806934356689453, 19.783292770385742, 4.120585918426514, -7.410168170928955, -2.0468428134918213, 12.918316841125488, 3.5806643962860107, 4.873528480529785, -6.332278251647949, -17.190521240234375, -23.32836151123047, -4.205002784729004], [17.451778411865234, 19.81641960144043, 25.9420166015625, -30.673582077026367, -19.718761444091797, -19.911630630493164, -30.452098846435547, 8.844258308410645, 13.572166442871094, -18.400083541870117, 14.501683235168457, 0.36667680740356445, -16.94168472290039, -4.118315696716309, 4.084715366363525, 6.453062057495117, 4.20713472366333, 19.43689727783203, 22.080013275146484, -22.27061653137207, 11.378117561340332, -17.453044891357422, -27.70762062072754, 31.205453872680664, -14.450984001159668, -18.611913681030273, 19.84836196899414, -18.839828491210938, 25.89790153503418, 12.547440528869629, 8.930336952209473, 1.7082946300506592, 22.563846588134766, 14.220189094543457, 13.095464706420898, -2.9456491470336914, 20.644062042236328, 22.081228256225586, -20.994651794433594, 14.955062866210938, 19.712465286254883, 18.831445693969727, -17.659072875976562, -19.912832260131836, -12.687385559082031, 17.66374397277832, 22.72943115234375, -16.94208526611328, -15.364330291748047, 6.853240966796875, -21.62994956970215, 18.968610763549805, 21.634044647216797, 29.02945327758789, 0.24931898713111877, 23.328330993652344, -0.7418553829193115, 22.68196678161621, -1.6277540922164917, 0.8750990033149719, -21.970653533935547, 28.14887809753418, 12.928831100463867, -30.707706451416016], [-12.692737579345703, -16.642822265625, 19.260841369628906, 6.5098748207092285, 17.662885665893555, -31.350656509399414, 23.39157485961914, -29.03023910522461, -11.876379013061523, -27.591100692749023, 6.82596492767334, -8.917651176452637, -10.368257522583008, 14.597052574157715, -12.737004280090332, 16.940404891967773, -22.26969337463379, -20.99431037902832, 27.70594596862793, -20.637968063354492, -18.874671936035156, -18.39859962463379, 19.712610244750977, -29.029722213745117, 19.718332290649414, 12.91767692565918, 12.644331932067871, 28.943710327148438, 16.874670028686523, 18.647357940673828, 14.486956596374512, -20.647125244140625, 5.466931343078613, 1.9020824432373047, 16.942136764526367, -13.519830703735352, 20.641504287719727, -12.706743240356445, -1.903086543083191, 8.932439804077148, -3.1167919635772705, -2.0475049018859863, 1.6400576829910278, 15.778778076171875, -21.650070190429688, 12.714405059814453, -14.508914947509766, 17.827722549438477, 1.5620899200439453, 21.637407302856445, 16.628822326660156, -23.386062622070312, -21.966564178466797, -10.373543739318848, 14.597576141357422, -2.9254441261291504, 4.090172290802002, 1.3676490783691406, -12.692265510559082, -4.122050762176514, 13.909841537475586, 19.31236457824707, 32.4549446105957, 21.034690856933594], [11.377950668334961, -10.36832332611084, 23.681781768798828, 1.132703185081482, -1.6345970630645752, 12.9445219039917, -17.452760696411133, -24.49920082092285, 17.274490356445312, 19.7065486907959, 3.1274802684783936, 19.73529624938965, 12.91976547241211, -19.711410522460938, 1.6401013135910034, -2.8735573291778564, 21.636940002441406, 12.292730331420898, 19.717998504638672, 23.389631271362305, -0.7880064249038696, -27.5887508392334, 17.35527801513672, -19.733776092529297, -5.415248870849609, 13.908880233764648, 22.127737045288086, 19.91762924194336, 6.333340644836426, -16.62925910949707, 13.130151748657227, 27.59366226196289, 8.911328315734863, 19.71015167236328, 1.369795560836792, -12.691973686218262, -1.0808725357055664, 12.686788558959961, -19.751310348510742, 30.67254066467285, -20.63971519470215, 17.45282745361328, -21.63985824584961, -28.323463439941406, -14.493446350097656, 18.648853302001953, 21.00074577331543, 20.64487648010254, 15.996814727783203, 27.676651000976562, -1.818394422531128, -20.64935874938965, 24.0891056060791, 21.929950714111328, 10.398231506347656, 3.209176540374756, 31.207569122314453, 3.205231189727783, 17.662513732910156, -6.825375556945801, 16.10936164855957, -4.104571342468262, -19.817903518676758, 17.451576232910156], [-7.659173011779785, 21.005104064941406, 0.832945704460144, -0.9000791907310486, 0.24977737665176392, 14.513447761535645, -21.951305389404297, 2.9409379959106445, 22.241779327392578, -27.679147720336914, -21.640077590942383, -14.495636940002441, 11.377018928527832, 17.6304931640625, -19.783201217651367, 1.13142991065979, -21.951139450073242, -20.992156982421875, -19.7565860748291, -8.917716979980469, 18.395790100097656, -27.767288208007812, -0.3687795400619507, 4.874699592590332, -18.85146141052246, -13.594216346740723, 4.138986587524414, -8.957555770874023, 22.08285140991211, -1.0582369565963745, -0.768554151058197, -3.201895236968994, -30.45053482055664, -24.38355255126953, -17.65973472595215, 12.038467407226562, -21.637672424316406, 1.3622139692306519, -2.0486180782318115, -4.117180824279785, -19.785587310791016, -30.44989585876465, 14.520854949951172, -19.260652542114258, 14.998740196228027, 19.72073745727539, 0.3666040301322937, 15.362467765808105, -21.647375106811523, -21.650775909423828, -8.631345748901367, -0.36827751994132996, 1.5588631629943848, 4.210845470428467, -12.687531471252441, 14.490346908569336, 12.285807609558105, 18.61077880859375, -12.692479133605957, -11.91761589050293, -10.740962982177734, -12.68825912475586, -19.91078758239746, -14.487807273864746], [17.66123390197754, -15.79916763305664, 19.260944366455078, -19.644147872924805, -13.04732894897461, -27.506847381591797, 14.507125854492188, 4.1256303787231445, -15.364105224609375, -13.12804126739502, 21.03473472595215, -17.45044708251953, -23.328441619873047, 17.18985939025879, 16.941335678100586, -16.6451358795166, -13.51597785949707, -19.750823974609375, 6.829654216766357, -25.44532585144043, -29.106483459472656, 1.901413083076477, 14.395729064941406, 0.7406912446022034, -17.235454559326172, 18.39781379699707, -1.90232253074646, 31.332271575927734, -12.694579124450684, 20.997072219848633, 12.1292085647583, 17.6666259765625, 14.454025268554688, -28.1610107421875, -14.477206230163574, 1.6406303644180298, -21.92914390563965, 19.852636337280273, -21.630319595336914, -29.02804946899414, -1.6346334218978882, -20.993968963623047, -20.642498016357422, -6.512304782867432, -34.32640838623047, 12.929839134216309, 23.36065101623535, 12.687596321105957, -1.869873285293579, -8.91120433807373, -20.995288848876953, 3.2067227363586426, -30.615392684936523, -5.415896415710449, 17.450162887573242, -17.827970504760742, -31.103471755981445, 19.785743713378906, 17.631460189819336, -19.703697204589844, -20.997573852539062, 28.147014617919922, -23.386844635009766, -14.488222122192383], [-2.9421348571777344, -23.38020133972168, -14.992166519165039, 34.32456588745117, 19.261613845825195, -21.639938354492188, -18.401567459106445, -21.952957153320312, 24.36377716064453, 15.998909950256348, -19.717731475830078, -21.63924789428711, 17.449581146240234, 14.989067077636719, -7.656073570251465, -22.1265869140625, 17.18907356262207, -0.7863984704017639, 4.1250386238098145, -14.997467041015625, 13.836982727050781, 29.30265998840332, -23.31844711303711, 22.68377685546875, 20.6452693939209, -17.659975051879883, 5.414309978485107, 15.376765251159668, 16.97008514404297, 13.503706932067871, -12.736559867858887, -12.645089149475098, -23.32965660095215, -19.733163833618164, -14.51992416381836, -16.93947982788086, 19.703516006469727, -23.431882858276367, -20.996206283569336, -0.7701985239982605, 19.43309783935547, -22.558454513549805, 0.36864131689071655, 6.833714008331299, 19.78207778930664, 20.640666961669922, 20.996143341064453, -14.494400024414062, -12.694491386413574, -14.45395278930664, -27.59925651550293, 12.94134521484375, -18.850589752197266, -10.401265144348145, 19.752384185791016, -16.082223892211914, 24.22804069519043, -21.928327560424805, -16.146535873413086, -30.4469051361084, -19.37061882019043, -16.64082908630371, 17.82485580444336, 7.652915954589844], [3.872249126434326, 4.004203796386719, -4.090812683105469, 4.042052745819092, -4.119942665100098, 4.086589813232422, 3.9964709281921387, 3.9500484466552734, 3.9199225902557373, 3.955720901489258, 3.875544786453247, 3.9665205478668213, -4.218550682067871, 3.850003719329834, 4.114621639251709, 4.193123817443848, 4.010458946228027, 4.0046257972717285, 3.8932175636291504, 3.9605870246887207, 4.0960869789123535, 4.109381198883057, 3.8744707107543945, 4.116672039031982, 4.271975994110107, 3.794264793395996, 3.803027629852295, -4.162192344665527, 4.161672592163086, 4.313134670257568, 4.088905334472656, 3.9371745586395264, 3.9521892070770264, -4.168177127838135, 3.8779821395874023, 3.88682222366333, -4.373989105224609, 3.8241028785705566, -4.32362699508667, 4.0132646560668945, 3.9721877574920654, 2.4886977672576904, -4.337140083312988, 3.8850109577178955, 4.003636360168457, 2.8980281352996826, 3.8640897274017334, 3.8307600021362305, 4.208708763122559, 4.012448310852051, 3.4785571098327637, -4.090295791625977, 4.162177562713623, 3.572678327560425, 4.002190589904785, 3.9869272708892822, 3.966489791870117, 3.9608209133148193, 4.034206390380859, 3.8518710136413574, 4.076572418212891, 4.001721382141113, 4.0528035163879395, -4.220214366912842], [0.020597588270902634, 0.015834713354706764, 0.02022196166217327, 0.02031424641609192, 0.019690899178385735, 0.020764777436852455, 0.020526055246591568, 0.020193539559841156, 0.020117927342653275, 0.01961289718747139, 0.020152784883975983, 0.02052628993988037, 0.01963322050869465, 0.020158857107162476, 0.01591327413916588, 0.018221335485577583, 0.0203498937189579, 0.019413435831665993, 0.01954810321331024, 0.019774744287133217, 0.015096857212483883, 0.01988670602440834, 0.020451929420232773, 0.015535417944192886, 0.015288712456822395, 0.020165489986538887, 0.02090693823993206, 0.017004674300551414, 0.019465703517198563, 0.01563338190317154, 0.020604761317372322, 0.019888941198587418, 0.019677659496665, 0.019522422924637794, 0.019740190356969833, 0.018092377111315727, 0.019322343170642853, 0.02008390612900257, 0.0202022772282362, 0.0196586512029171, 0.020406166091561317, -0.004346814937889576, 0.0182485394179821, 0.020150277763605118, 0.019392115995287895, 0.004691377282142639, 0.019819440320134163, 0.019560249522328377, 0.014964393340051174, 0.019195450469851494, 0.0015667250845581293, 0.019546443596482277, 0.01558790821582079, 0.020732177421450615, 0.020642006769776344, 0.014782143756747246, 0.020458988845348358, 0.020625390112400055, 0.02057473547756672, 0.020171720534563065, 0.01961420848965645, 0.020419135689735413, 0.019651539623737335, 0.01930733025074005], [0.01945342682301998, -0.01670107990503311, -0.018511837348341942, 0.019728371873497963, -0.018655570223927498, 0.020581623539328575, 0.021339109167456627, 0.019400572404265404, 0.0210700836032629, 0.020500829443335533, 0.019235733896493912, 0.020302027463912964, -0.020597079768776894, 0.020026685670018196, -0.018392082303762436, 0.004626438952982426, 0.02070658653974533, 0.021059948951005936, 0.019220992922782898, 0.02052329108119011, -0.014983437955379486, 0.020340410992503166, 0.020462892949581146, -0.017207158729434013, -0.015755530446767807, 0.01941436156630516, 0.02053518407046795, 0.010852184146642685, 0.020691847428679466, -0.01835370622575283, 0.0211792029440403, 0.019905006512999535, 0.020033441483974457, -0.019392751157283783, 0.02068745344877243, 0.02047889493405819, -0.01889047771692276, 0.019394904375076294, -0.016303209587931633, 0.020596055313944817, 0.0204483475536108, 0.018441271036863327, 0.010080036707222462, 0.02011857181787491, 0.020581044256687164, 0.018868403509259224, 0.020032020285725594, 0.020153963938355446, -0.01674226112663746, 0.02053987979888916, 0.005927836988121271, -0.020591003820300102, -0.018043741583824158, 0.020711863413453102, 0.020429443567991257, -0.01820465549826622, 0.020696144551038742, 0.020628705620765686, 0.020370403304696083, 0.0196787491440773, 0.020921923220157623, 0.02062954567372799, 0.020452897995710373, -0.01758553646504879], [11.135650634765625, 13.69245433807373, 15.115184783935547, 11.32717514038086, 14.307758331298828, 7.21617317199707, 13.427821159362793, 10.717629432678223, 6.034865379333496, 5.608201026916504, 8.92287540435791, 9.427538871765137, 14.63465404510498, 10.44593620300293, 14.528253555297852, 13.84010124206543, 11.866351127624512, 2.12495756149292, 9.77104663848877, -4.786048412322998, 13.722577095031738, 4.650603771209717, -0.1272640824317932, 14.726019859313965, 13.900409698486328, 9.638752937316895, 13.793530464172363, 13.481240272521973, 6.518599033355713, 15.030529022216797, 8.751192092895508, 3.395383358001709, 8.495565414428711, 15.482903480529785, 12.170778274536133, -13.627062797546387, 14.795026779174805, 12.366937637329102, 14.021482467651367, 6.298916816711426, 8.868555068969727, -14.189809799194336, 14.487500190734863, 9.750768661499023, 7.156051158905029, -14.050680160522461, 12.566230773925781, 7.284576416015625, 14.058290481567383, 3.368421792984009, 5.431941509246826, 15.641879081726074, 14.563104629516602, 14.198760986328125, 10.711631774902344, 14.463260650634766, 9.562337875366211, 4.480378150939941, 6.6803436279296875, 10.972437858581543, 7.4401535987854, 12.832637786865234, 0.44444239139556885, 14.090956687927246], [-0.176517054438591, 0.09176979213953018, -0.1476326435804367, -0.17419247329235077, -0.15589894354343414, -0.178060382604599, -0.17418985068798065, -0.17488154768943787, -0.1796545535326004, -0.17547868192195892, -0.17018696665763855, -0.1725667119026184, -0.15274982154369354, -0.16786232590675354, 0.10567384958267212, -0.06325133889913559, -0.1750738024711609, -0.17175045609474182, -0.17219063639640808, -0.1739180088043213, 0.08189517259597778, -0.1726638823747635, -0.1359245628118515, 0.10740698128938675, 0.09207624197006226, -0.17488549649715424, -0.18040993809700012, -0.15809117257595062, -0.1785392165184021, 0.10195747017860413, -0.17405037581920624, -0.1533135622739792, -0.17776000499725342, -0.13846635818481445, -0.17335422337055206, -0.17749719321727753, -0.15659712255001068, -0.1702623814344406, -0.14211483299732208, -0.17315270006656647, -0.17287935316562653, -0.1719781458377838, -0.15681923925876617, -0.1750936061143875, -0.17688299715518951, -0.16391578316688538, -0.17455808818340302, -0.17381951212882996, 0.09213394671678543, -0.17606772482395172, -0.042897433042526245, -0.15179014205932617, 0.1057344302535057, -0.18155014514923096, -0.17224054038524628, 0.09754209220409393, -0.17459377646446228, -0.17048121988773346, -0.17479561269283295, -0.17478910088539124, -0.16856250166893005, -0.18260204792022705, -0.17589199542999268, -0.1553346812725067], [-0.05817372351884842, 0.04903498291969299, -0.0553068146109581, -0.05640983209013939, -0.05770961567759514, -0.05950405076146126, -0.056283704936504364, -0.05558762699365616, -0.05738985538482666, -0.05424749106168747, -0.05624083802103996, -0.0561225526034832, -0.05725244805216789, -0.05523204803466797, 0.05136212706565857, 0.0180179625749588, -0.05562707781791687, -0.056017741560935974, -0.05674079805612564, -0.05500871315598488, 0.04801320284605026, -0.05748171731829643, -0.034178685396909714, 0.04951861873269081, 0.04954900965094566, -0.05744950473308563, -0.055696040391922, -0.05619772896170616, -0.0577273927628994, 0.05215749144554138, -0.05549865588545799, -0.041659094393253326, -0.05570324510335922, -0.05681991204619408, -0.057028450071811676, -0.05016886442899704, -0.057200804352760315, -0.05458183214068413, -0.05527612939476967, -0.05689544230699539, -0.05586136505007744, -0.03505304083228111, -0.05749940499663353, -0.05434689670801163, -0.057873643934726715, -0.04695019870996475, -0.05533044785261154, -0.05696449428796768, 0.049267932772636414, -0.05677926167845726, 0.03648674860596657, -0.056187305599451065, 0.050576385110616684, -0.057667456567287445, -0.05631953477859497, 0.05195755884051323, -0.05544963851571083, -0.05489064380526543, -0.05446883663535118, -0.05558640882372856, -0.05719286948442459, -0.05668853595852852, -0.057206910103559494, -0.056543465703725815], [-0.054889827966690063, 0.047568999230861664, -0.05353172868490219, -0.05556045472621918, -0.05550218001008034, -0.05600380897521973, -0.05504823103547096, -0.055124323815107346, -0.0566897988319397, -0.05322641506791115, -0.054125815629959106, -0.05367704853415489, -0.05357741937041283, -0.055619534105062485, 0.04717188701033592, 0.01149753388017416, -0.05602391064167023, -0.05435091629624367, -0.0562024861574173, -0.05305071175098419, 0.04841642454266548, -0.0542641207575798, -0.03710483759641647, 0.046139754354953766, 0.04681220278143883, -0.05565311387181282, -0.057379815727472305, -0.054221343249082565, -0.05603986606001854, 0.048210881650447845, -0.05534021556377411, -0.04241393133997917, -0.053663916885852814, -0.05256703123450279, -0.054253000766038895, -0.05140078812837601, -0.053983885794878006, -0.05460301414132118, -0.05346355587244034, -0.05639496445655823, -0.052620381116867065, -0.03890064358711243, -0.0534077063202858, -0.05414501950144768, -0.05519157275557518, -0.046549487859010696, -0.05470231547951698, -0.05445631593465805, 0.0475943349301815, -0.056161727756261826, 0.03328319638967514, -0.05586743727326393, 0.04717114567756653, -0.05474147945642471, -0.05559374392032623, 0.04676107317209244, -0.05481242015957832, -0.05433560907840729, -0.05481921136379242, -0.05438458174467087, -0.05602080374956131, -0.054862700402736664, -0.05642465129494667, -0.05310042202472687], [-17.044300079345703, 14.346358299255371, 15.554288864135742, -17.188339233398438, 16.610824584960938, -17.76872444152832, -17.53485107421875, -17.17612075805664, -18.277053833007812, -17.92276382446289, -17.1834659576416, -17.319509506225586, 17.653514862060547, -17.611186981201172, 15.518254280090332, -4.175198078155518, -17.73872947692871, -17.32863998413086, -16.588298797607422, -17.834714889526367, 13.574335098266602, -18.28588104248047, -18.45003890991211, 15.138406753540039, 13.836529731750488, -17.315345764160156, -17.572769165039062, -9.872804641723633, -17.617813110351562, 15.744370460510254, -17.712305068969727, -17.773067474365234, -17.268051147460938, 16.24936866760254, -17.50804901123047, -17.59705352783203, 16.712406158447266, -16.71673583984375, 13.637673377990723, -17.611623764038086, -16.928539276123047, -14.94594955444336, -9.066380500793457, -17.535608291625977, -17.006261825561523, -16.716018676757812, -16.754650115966797, -17.015634536743164, 14.548105239868164, -17.124652862548828, -4.209160327911377, 17.54897689819336, 15.63528823852539, -17.753896713256836, -17.92319107055664, 15.570038795471191, -17.146495819091797, -17.714740753173828, -16.73816680908203, -17.134931564331055, -17.01158905029297, -18.35968780517578, -17.145828247070312, 15.720351219177246], [0.819291889667511, -0.6925970315933228, -0.7309642434120178, 0.8067171573638916, -0.7651606798171997, 0.8298050165176392, 0.8328241109848022, 0.8007832765579224, 0.8205673694610596, 0.8014744520187378, 0.7781699299812317, 0.8355464339256287, -0.7829263210296631, 0.824998140335083, -0.7466757297515869, 0.18212851881980896, 0.8048774003982544, 0.8142480850219727, 0.8111474514007568, 0.8040155172348022, -0.6265034079551697, 0.8204724788665771, 0.854973554611206, -0.6726967096328735, -0.6576285362243652, 0.7811699509620667, 0.8318830132484436, 0.47249141335487366, 0.8226616382598877, -0.7502740025520325, 0.8230597376823425, 0.826484203338623, 0.8006764054298401, -0.7437098026275635, 0.8219525218009949, 0.8330287933349609, -0.7423244714736938, 0.8131750822067261, -0.6299460530281067, 0.8300973773002625, 0.79599928855896, 0.7140504717826843, 0.41087374091148376, 0.8308668732643127, 0.809248685836792, 0.7543383240699768, 0.8167365789413452, 0.7845175862312317, -0.6557680368423462, 0.7965396642684937, 0.22326691448688507, -0.7871121764183044, -0.7045803070068359, 0.8194909691810608, 0.814768373966217, -0.7329872846603394, 0.784661591053009, 0.8072657585144043, 0.7983580827713013, 0.81639564037323, 0.8043645620346069, 0.8380299806594849, 0.805546760559082, -0.7231399416923523], [-39.83021545410156, 33.68552780151367, 35.755706787109375, -40.369319915771484, 38.59621047973633, -41.428688049316406, -41.04358673095703, -38.77996826171875, -42.225826263427734, -40.872440338134766, -38.97160339355469, -41.474117279052734, 40.66509246826172, -40.1922492980957, 36.508941650390625, -9.849309921264648, -41.81157684326172, -41.387027740478516, -40.38724136352539, -39.73038101196289, 30.12409782409668, -41.16874694824219, -41.352115631103516, 35.60688400268555, 31.665077209472656, -40.47959518432617, -41.01044464111328, -21.8741397857666, -43.07594299316406, 37.16139221191406, -41.77766418457031, -40.13774108886719, -40.23820877075195, 38.023311614990234, -40.99739456176758, -42.212806701660156, 37.6223258972168, -40.533206939697266, 32.92998504638672, -42.92146301269531, -39.21621322631836, -36.01533508300781, -21.8839054107666, -41.4538688659668, -40.715476989746094, -38.33845901489258, -39.953857421875, -38.74189758300781, 34.332984924316406, -41.76810836791992, -11.91844654083252, 40.136383056640625, 35.42913818359375, -40.372711181640625, -41.589229583740234, 37.3507194519043, -39.87615203857422, -41.07791519165039, -39.41635513305664, -39.270782470703125, -40.8841552734375, -43.12895202636719, -40.28277587890625, 37.152339935302734], [0.023740170523524284, -0.021176917478442192, -0.020858051255345345, 0.024230435490608215, -0.023277295753359795, 0.024476423859596252, 0.02529269829392433, 0.024210210889577866, 0.024463409557938576, 0.025161193683743477, 0.023192694410681725, 0.02531762234866619, -0.024818815290927887, 0.024401724338531494, -0.021958807483315468, 0.005219881888478994, 0.025128182023763657, 0.0252128466963768, 0.023863045498728752, 0.024564694613218307, -0.01823865808546543, 0.02531486190855503, 0.025319606065750122, -0.020127657800912857, -0.01904161274433136, 0.02360627055168152, 0.024853050708770752, 0.013154310174286366, 0.025538481771945953, -0.022520922124385834, 0.025483008474111557, 0.024877790361642838, 0.02437514439225197, -0.02364162728190422, 0.024070018902420998, 0.024488946422934532, -0.022805562242865562, 0.024020787328481674, -0.019024033099412918, 0.025231068953871727, 0.023433640599250793, 0.02142299711704254, 0.013517104089260101, 0.02430795691907406, 0.02470964565873146, 0.022737035527825356, 0.02462718077003956, 0.023802639916539192, -0.020161082968115807, 0.024028318002820015, 0.006611115764826536, -0.023530321195721626, -0.021257072687149048, 0.023941747844219208, 0.02394595742225647, -0.022060636430978775, 0.02434360608458519, 0.02402544394135475, 0.024090958759188652, 0.02349795214831829, 0.02512972429394722, 0.02445107139647007, 0.0251352209597826, -0.021320737898349762], [0.031851980835199356, -0.015183757990598679, -0.0239624734967947, 0.03133988752961159, -0.02624497003853321, 0.032838527113199234, 0.032922934740781784, 0.031236883252859116, 0.033297184854745865, 0.03185305744409561, 0.030000360682606697, 0.03247520700097084, -0.02725515142083168, 0.03122064843773842, -0.019535984843969345, 0.024491487070918083, 0.03287377581000328, 0.03105403482913971, 0.03179660066962242, 0.03346243128180504, -0.01694837585091591, 0.03165799006819725, 0.03206918388605118, -0.01477163378149271, -0.015882503241300583, 0.030264222994446754, 0.032424718141555786, 0.0011681548785418272, 0.032128337770700455, -0.016769785434007645, 0.032366011291742325, 0.0321003682911396, 0.031156275421380997, -0.030089741572737694, 0.031732942909002304, 0.03377382084727287, -0.02809753455221653, 0.03115071915090084, -0.02560257352888584, 0.03257564827799797, 0.03204264119267464, 0.02334585227072239, 0.0024499627761542797, 0.031812191009521484, 0.03190142661333084, 0.02749500423669815, 0.03136971592903137, 0.031089533120393753, -0.0175618976354599, 0.03216177597641945, 0.0013141725212335587, -0.02673543430864811, -0.017884908244013786, 0.032256536185741425, 0.03252920135855675, -0.0173664391040802, 0.030911153182387352, 0.032446809113025665, 0.031199807301163673, 0.03151249140501022, 0.031284015625715256, 0.03298525884747505, 0.0329732671380043, -0.02414623275399208], [14.957757949829102, 21.043270111083984, 22.08196449279785, -13.52522087097168, 15.823046684265137, -16.630517959594727, -22.672842025756836, -16.660436630249023, -16.657352447509766, 19.709924697875977, -28.16046142578125, -6.511104583740234, -8.407792091369629, 22.966886520385742, -16.652957916259766, -4.087807655334473, 25.899553298950195, 19.782258987426758, -1.8212989568710327, -0.16497284173965454, 14.509191513061523, 21.03394317626953, -8.93010425567627, -26.10702896118164, -14.486614227294922, -20.646520614624023, 0.2489042580127716, -22.657527923583984, 2.9415018558502197, -1.368995189666748, 11.377477645874023, 4.88216495513916, -14.49367904663086, 23.32939338684082, -20.99241065979004, -2.950524091720581, -18.832843780517578, 5.415190696716309, -22.55748748779297, -1.5637924671173096, -18.60877799987793, -1.9041197299957275, -20.459707260131836, 30.55331802368164, -19.734453201293945, 1.1280829906463623, 10.40272045135498, 19.917911529541016, -17.187137603759766, -6.850730895996094, 21.041505813598633, 21.950862884521484, 14.497309684753418, 16.64101791381836, -20.6498966217041, -20.459896087646484, -14.493700981140137, 12.645503044128418, 17.3554744720459, -19.36943244934082, -21.033235549926758, -17.120468139648438, -1.8207168579101562, -14.489670753479004], [-12.63807201385498, 21.96673011779785, -14.221236228942871, 3.611867904663086, 1.819778323173523, -28.94706153869629, -12.938708305358887, -20.82257652282715, 19.26247215270996, -13.128987312316895, 20.643203735351562, 19.78468132019043, -12.93809700012207, -4.119989395141602, -10.37425708770752, 3.202528238296509, -28.158903121948242, -14.394644737243652, 4.122128486633301, -17.66143798828125, 19.736886978149414, 14.991212844848633, 16.663362503051758, 22.977828979492188, -1.642149567604065, -21.039897918701172, 4.872567653656006, 4.207076549530029, -19.434001922607422, 3.2030885219573975, -18.41020393371582, -18.88203239440918, 20.997886657714844, -27.59018325805664, -5.4141974449157715, -12.71423053741455, -18.410051345825195, 19.37004280090332, -17.357919692993164, 12.689966201782227, 19.754440307617188, 33.04753875732422, 14.496480941772461, -30.706186294555664, 21.638338088989258, -0.7883557081222534, 27.58123207092285, 19.777334213256836, -22.0809383392334, 29.03034210205078, 6.825747013092041, 17.451581954956055, 18.5393009185791, -1.370996117591858, 29.420804977416992, -14.997503280639648, 27.76786231994629, -28.16028594970703, -13.125930786132812, -17.188657760620117, 24.08949851989746, 22.129169464111328, -4.117027759552002, -21.038660049438477], [-22.565153121948242, 34.3267707824707, -19.777034759521484, 1.700749397277832, 14.509817123413086, -4.1052045822143555, 6.90205717086792, -21.007036209106445, -22.6758975982666, -12.653263092041016, 6.840813636779785, -19.784162521362305, 23.323497772216797, 22.72872543334961, 21.93048667907715, -22.644811630249023, -17.621492385864258, -16.657577514648438, 27.591144561767578, -20.651411056518555, -21.032560348510742, -5.415932655334473, -17.623828887939453, -19.761730194091797, -0.37007465958595276, -12.732827186584473, 16.64075469970703, 14.550278663635254, 12.736050605773926, 13.45993423461914, 20.99570655822754, 1.364593267440796, -21.639690399169922, 10.400625228881836, -4.7597832679748535, 22.274457931518555, -17.661561965942383, -15.85937213897705, -19.809202194213867, 30.553281784057617, 17.626985549926758, -19.71803855895996, -17.357519149780273, -27.505901336669922, 27.475557327270508, 0.785474419593811, -4.88433313369751, -21.65118408203125, 29.099584579467773, -29.030094146728516, 27.507211685180664, -4.207156658172607, -13.4313325881958, 19.726896286010742, -10.744258880615234, 4.126595973968506, -19.78148078918457, -18.40031623840332, -21.568103790283203, -16.08110237121582, -16.147132873535156, -19.805622100830078, 19.731447219848633, -8.850057601928711], [-21.007509231567383, -21.650667190551758, 16.109529495239258, -21.039798736572266, -14.504935264587402, -15.013408660888672, 16.65791130065918, 10.368796348571777, -16.0823974609375, -14.396048545837402, -17.62989616394043, -21.644628524780273, 11.872344970703125, -21.641218185424805, -1.5626282691955566, 1.0324000120162964, 6.453243732452393, -4.109650135040283, 2.048931121826172, 17.665264129638672, 6.8249030113220215, -17.621179580688477, -20.643457412719727, 1.132121205329895, 19.443889617919922, -1.708389163017273, 12.691311836242676, 19.37073516845703, -3.2076940536499023, 18.88438606262207, 22.564756393432617, -25.89980125427246, -12.724358558654785, -2.9402103424072266, 20.64258575439453, 5.414521217346191, 21.029645919799805, -1.6443395614624023, -33.59540557861328, -21.035900115966797, 16.085824966430664, 31.33165168762207, 18.554065704345703, -15.817611694335938, -8.082634925842285, 10.741625785827637, 24.088531494140625, -14.170385360717773, -19.74183464050293, 1.0514521598815918, 22.65707778930664, 0.7862311005592346, 22.267087936401367, 16.095386505126953, -4.121272087097168, -14.509053230285645, 10.6807861328125, 27.676746368408203, 16.079181671142578, -2.047774076461792, -13.518503189086914, -6.323707103729248, -20.9946231842041, -1.8210079669952393], [22.978984832763672, -8.935284614562988, 4.1182451248168945, -19.44486427307129, 21.636064529418945, 6.508434295654297, -21.644420623779297, 0.7871187925338745, 1.3666523694992065, -21.928205490112305, -23.392505645751953, 4.114119529724121, 0.8328402042388916, -12.711203575134277, 19.84914779663086, 18.398853302001953, 19.84547233581543, -19.440397262573242, -21.92723274230957, -20.996082305908203, -3.2071120738983154, -19.717641830444336, -33.59920120239258, -19.71348762512207, 40.45940017700195, 16.145734786987305, -5.4145283699035645, -13.09292221069336, -25.942089080810547, 12.68622875213623, -18.39750862121582, -1.7084836959838867, 13.5211763381958, 14.491016387939453, -0.7874316573143005, 3.8021016120910645, -21.648826599121094, -20.99622344970703, 14.49039077758789, 12.644342422485352, 21.646472930908203, -19.45315933227539, 28.160995483398438, 21.966032028198242, -19.727468490600586, -31.203475952148438, 12.924047470092773, -18.96182632446289, 19.735267639160156, -4.121553421020508, -1.8071672916412354, 13.518349647521973, 1.903086543083191, 27.767492294311523, 27.676353454589844, 21.607776641845703, -19.434982299804688, -11.66710090637207, -12.723783493041992, 28.945890426635742, -14.507023811340332, 12.712957382202148, 21.969655990600586, -1.6286053657531738], [-17.66326332092285, -24.377880096435547, 16.649799346923828, -0.783586323261261, -12.928488731384277, 21.649152755737305, 29.02613639831543, 19.71086311340332, -20.996692657470703, -0.281158983707428, -27.591901779174805, -4.207192897796631, -8.629134178161621, 34.32653045654297, -14.444195747375488, 13.06547737121582, 0.27747005224227905, -16.651058197021484, -7.493085861206055, 19.261919021606445, -2.8024821281433105, -19.718524932861328, -15.819998741149902, -20.64568519592285, -13.091612815856934, -15.819183349609375, -2.925924301147461, -4.88258695602417, -17.24329376220703, -12.71699047088623, -16.148283004760742, 14.510043144226074, -13.51900863647461, 18.96381187438965, 30.67209815979004, 15.431276321411133, -22.240280151367188, 1.8128246068954468, -27.50716781616211, 7.53570556640625, -16.658952713012695, 29.030559539794922, -14.490965843200684, 16.641141891479492, -20.650938034057617, 13.58975601196289, 21.644412994384766, 28.94647979736328, -17.66025161743164, 13.179155349731445, 7.652872085571289, -19.31733512878418, 1.3664413690567017, -18.885913848876953, 14.485363006591797, -29.096942901611328, -3.2958805561065674, -19.718645095825195, -6.8946027755737305, 23.326990127563477, -27.592985153198242, -23.325658798217773, 14.395124435424805, 13.090069770812988], [-13.59228801727295, -18.649208068847656, -1.8198583126068115, -20.636375427246094, -21.640270233154297, -17.662412643432617, 8.931696891784668, -24.235960006713867, -25.93561363220215, 4.1098103523254395, -27.504541397094727, -1.6357685327529907, 6.803700923919678, 15.81578540802002, 8.944157600402832, 21.92776107788086, 21.65119743347168, -4.8834381103515625, -17.509458541870117, -25.937511444091797, -21.966411590576172, -1.3871923685073853, 3.2678754329681396, 13.907818794250488, 25.444679260253906, -21.647058486938477, 14.496211051940918, -4.11710786819458, -19.718605041503906, -18.399763107299805, 16.944068908691406, -25.90032386779785, -4.089029788970947, -27.59588050842285, -16.083955764770508, -5.339735507965088, 21.003816604614258, 6.85032320022583, 27.453388214111328, 7.648746967315674, -13.263359069824219, -20.6441707611084, -17.828123092651367, -12.916898727416992, 19.733840942382812, -13.587718963623047, -17.82915496826172, 21.04118537902832, 0.8977872729301453, 14.497543334960938, -14.486221313476562, 13.837040901184082, -31.102846145629883, 4.124594688415527, -15.999412536621094, 19.917068481445312, -17.356821060180664, 6.32320499420166, -16.62737464904785, -12.546298027038574, 9.986639022827148, 19.9158878326416, -14.551755905151367, -13.435811042785645], [21.645057678222656, 13.09378433227539, 1.6262733936309814, -17.66036033630371, -28.162261962890625, 12.693334579467773, -21.951610565185547, -25.898162841796875, 16.649747848510742, 7.534148693084717, 6.335174083709717, -25.925498962402344, 14.51434326171875, 19.73666000366211, -0.740698516368866, -10.743080139160156, 27.453031539916992, 16.62706184387207, -20.995466232299805, 25.20553207397461, -19.883596420288086, 14.509002685546875, -18.845619201660156, 21.03628158569336, -12.69526481628418, 17.110048294067383, -25.942642211914062, -7.650900363922119, 13.509346008300781, 12.679695129394531, 21.950899124145508, 16.629085540771484, -21.644561767578125, -6.318553447723389, -18.38982391357422, -16.9429874420166, -17.233795166015625, -12.285290718078613, -18.39821434020996, 15.008613586425781, -19.73242950439453, -30.446949005126953, 23.391029357910156, 6.3265604972839355, -19.78177833557129, -7.41009521484375, 18.883956909179688, 14.495250701904297, -12.646689414978027, 1.8225722312927246, -1.0590373277664185, 22.56108283996582, -21.040098190307617, 0.7681466937065125, -4.876176834106445, -19.22988510131836, 12.285749435424805, -31.33184814453125, -6.8312764167785645, -22.557174682617188, 20.643356323242188, 19.731948852539062, 13.530675888061523, 16.659643173217773], [-2.8414084911346436, 21.926956176757812, -12.644678115844727, 3.2093803882598877, -16.081321716308594, 1.813355803489685, 21.03742027282715, 13.525403022766113, 21.030628204345703, -3.5725769996643066, 18.84612274169922, 13.51881217956543, 21.04268455505371, -14.476879119873047, -4.085348129272461, -19.713315963745117, -16.081846237182617, 17.242944717407227, -19.883371353149414, 19.453500747680664, -20.643953323364258, 18.396963119506836, 0.900384783744812, -19.453035354614258, -12.546589851379395, -21.030431747436523, 11.871994972229004, 27.596324920654297, 28.148513793945312, -0.3688814043998718, -1.3655754327774048, -4.121832370758057, 29.026107788085938, 17.450403213500977, -19.433963775634766, -4.086876392364502, -12.740394592285156, -31.10382080078125, -23.39536476135254, 13.523853302001953, 17.237031936645508, -19.72095489501953, -27.506591796875, -17.452354431152344, -13.092966079711914, 1.6377257108688354, -0.9401809573173523, 1.3889094591140747, 22.55971336364746, -19.91240882873535, -12.706459999084473, -19.72623062133789, -19.739681243896484, 1.8449640274047852, 20.638092041015625, -6.841744899749756, 1.6347644329071045, 29.02835464477539, -0.7694491147994995, -8.962733268737793, 12.545767784118652, -19.435768127441406, 12.737774848937988, -21.96881866455078], [-0.03030546009540558, -0.011225849390029907, -0.033179719001054764, -0.025782130658626556, -0.057252436876297, -0.025482092052698135, -0.029068944975733757, -0.02944650873541832, -0.031008178368210793, -0.024405905976891518, -0.023984646424651146, -0.02414185367524624, -0.06446000933647156, -0.02880273014307022, -0.0025854846462607384, -0.0288696251809597, -0.030782299116253853, -0.026397166773676872, -0.028745068237185478, -0.030927499756217003, -0.0009714452316984534, -0.023023393005132675, -0.017604192718863487, 0.0011961531126871705, 0.013568906113505363, -0.02920524775981903, -0.02987007237970829, -0.03902776166796684, -0.023996612057089806, -0.0009156220476143062, -0.027595054358243942, -0.018180131912231445, -0.020857512950897217, -0.141418918967247, -0.028396733105182648, -0.02114058844745159, -0.04302426055073738, -0.02423524484038353, -0.10981272161006927, -0.027010129764676094, -0.02937575802206993, -0.025176076218485832, -0.039251141250133514, -0.023417429998517036, -0.02901420369744301, -0.014585345052182674, -0.027813127264380455, -0.02466515824198723, 0.002779733156785369, -0.027371078729629517, -0.012561694718897343, -0.12757737934589386, -0.0016257192473858595, -0.025629373267292976, -0.02603774517774582, 0.0014926795847713947, -0.022614380344748497, -0.030194789171218872, -0.025576183572411537, -0.028685281053185463, -0.026055848225951195, -0.027117112651467323, -0.028818625956773758, -0.05522693693637848], [0.8400955200195312, 0.36851081252098083, 0.7675819993019104, 0.8659427762031555, 0.7807207703590393, 0.8920482397079468, 0.8874359130859375, 0.8839287757873535, 0.8500885367393494, 0.8953810334205627, 0.8020386099815369, 0.8432350158691406, 0.7355448603630066, 0.9184154272079468, 0.35159429907798767, 0.8310057520866394, 0.8373251557350159, 0.911350667476654, 0.8067502975463867, 0.8268497586250305, 0.4075792133808136, 0.8414274454116821, 0.9274358749389648, 0.332572877407074, 0.34782105684280396, 0.8494791984558105, 0.8886052966117859, -0.1125941351056099, 0.8391354084014893, 0.3385638892650604, 0.8655993342399597, 0.9362151026725769, 0.8911435008049011, 0.7666085362434387, 0.8945995569229126, 0.758645236492157, 0.7890430092811584, 0.8193512558937073, 0.7796940803527832, 0.8477090001106262, 0.8146960735321045, 0.26976144313812256, -0.06119932234287262, 0.9086726307868958, 0.8005008697509766, 0.4233970642089844, 0.8510634899139404, 0.7897316813468933, 0.3225025236606598, 0.8057157397270203, -0.12555919587612152, 0.8175790309906006, 0.31013137102127075, 0.8525851368904114, 0.8464688062667847, 0.3290494382381439, 0.8775854706764221, 0.8912129402160645, 0.8364537954330444, 0.8603845238685608, 0.8280450105667114, 0.8723590970039368, 0.8177327513694763, 0.7444594502449036], [-1.6420586109161377, 14.221171379089355, -18.399829864501953, 6.852433204650879, -14.396397590637207, -22.083412170410156, 21.646617889404297, 17.825685501098633, -23.31926155090332, -1.3658665418624878, -29.38173484802246, -0.36990731954574585, -3.8020217418670654, 4.113520622253418, -15.007659912109375, 12.691719055175781, -19.752504348754883, -19.260995864868164, -16.64902114868164, -20.6422176361084, 21.04071617126465, 0.7694782018661499, -30.449234008789062, -1.130440354347229, -18.386178970336914, -7.659143924713135, -1.849387764930725, -1.7486761808395386, 22.128538131713867, 25.44651222229004, -12.292818069458008, 17.63139533996582, 13.907971382141113, 23.326297760009766, 2.049010992050171, 4.892787933349609, -13.458428382873535, -19.786569595336914, -10.398529052734375, -20.642534255981445, -19.732975006103516, 18.53821563720703, 19.730770111083984, 7.5350799560546875, 23.39366340637207, -6.449080467224121, -12.928281784057617, -22.675607681274414, -18.839332580566406, 8.949207305908203, 2.04717755317688, -14.495993614196777, -20.82161521911621, 0.5241296291351318, -27.768430709838867, -23.38589859008789, 19.7092342376709, 14.495025634765625, 12.645889282226562, -3.5803041458129883, -21.950498580932617, 17.66582489013672, -13.128630638122559, -18.846921920776367], [-0.24869325757026672, -14.511127471923828, 12.714936256408691, 17.243061065673828, 1.8196618556976318, 1.5638360977172852, 3.209853172302246, 22.683753967285156, 18.386993408203125, -18.408071517944336, -12.70867919921875, -1.635382890701294, -20.649141311645508, 12.929780960083008, -16.627017974853516, 10.741952896118164, 3.6172540187835693, -16.989046096801758, 12.285807609558105, 2.0468428134918213, -10.682168006896973, -1.6411635875701904, 20.820276260375977, 13.520710945129395, -3.617079257965088, -18.3909969329834, 1.8228486776351929, -12.286046981811523, 12.716158866882324, -12.693596839904785, 7.408502101898193, -6.848111152648926, -16.085941314697266, 16.988929748535156, -19.712726593017578, -31.101062774658203, -30.7088565826416, -21.637243270874023, -21.977643966674805, -14.477127075195312, 23.329023361206055, 1.3833287954330444, 19.36872673034668, 25.90060806274414, -16.115144729614258, -30.449539184570312, -1.8225140571594238, 20.638273239135742, -19.7193546295166, 19.73379135131836, -14.477221488952637, 6.841395378112793, -14.395663261413574, 22.128610610961914, 12.716154098510742, 14.395539283752441, 13.42684268951416, 19.761322021484375, 10.163176536560059, 19.78458023071289, -17.22510528564453, -29.031091690063477, -20.45867347717285, 12.739107131958008], [16.627702713012695, 18.409461975097656, 4.125121116638184, 20.63724708557129, 12.548182487487793, -15.009995460510254, 19.9175968170166, -8.407777786254883, -17.188396453857422, -10.40506362915039, 12.737892150878906, 18.40068817138672, 29.026906967163086, -2.048283576965332, -13.131591796875, 10.40390682220459, 21.036685943603516, 16.629470825195312, 21.926389694213867, -21.635955810546875, -31.333616256713867, -14.957663536071777, -19.720401763916016, -1.703710675239563, -29.007211685180664, 13.51856803894043, 22.560543060302734, 20.807947158813477, 19.261024475097656, -14.426251411437988, -21.950359344482422, -27.598922729492188, 14.49413776397705, 4.105182647705078, 6.323801517486572, -12.925749778747559, 29.028820037841797, -29.0244197845459, 17.120010375976562, -30.44731330871582, -19.798593521118164, -3.736666440963745, -7.620279788970947, 16.076337814331055, -14.478625297546387, 15.824545860290527, -21.041603088378906, -27.769012451171875, -10.37490463256836, -28.14861488342285, 0.9021528363227844, 17.664159774780273, -14.489699363708496, -0.16514746844768524, -4.111558437347412, -34.329463958740234, -27.70625877380371, -21.644874572753906, -23.39816665649414, -21.645105361938477, 19.783390045166016, 12.681732177734375, 14.502060890197754, -4.118186950683594], [-19.780920028686523, -29.043649673461914, -5.08898401260376, -15.363151550292969, 8.956581115722656, -1.7066502571105957, -1.5638651847839355, 12.96335220336914, -19.809856414794922, 17.661409378051758, -20.635923385620117, 16.65810775756836, 1.812293529510498, 13.520157814025879, 31.206262588500977, 19.70464324951172, 7.652908802032471, 19.91229248046875, 16.645404815673828, 18.851848602294922, 1.7067011594772339, -21.926301956176758, 20.646215438842773, 0.16530753672122955, 40.45840835571289, 7.343452453613281, 12.546371459960938, -8.912405014038086, 12.709421157836914, -17.50876808166504, -1.5625555515289307, 17.44901466369629, -13.499007225036621, 21.644208908081055, -8.928488731384277, 14.95294189453125, 4.759885311126709, -21.042375564575195, -2.9246654510498047, 0.2798420190811157, 13.904180526733398, -19.786075592041016, -22.67409324645996, -0.8352012634277344, 1.9042288064956665, 21.02949333190918, -18.61136817932129, 19.735612869262695, 14.506135940551758, -4.139161109924316, -7.544647693634033, 19.7830810546875, 12.694433212280273, 17.107698440551758, -22.273855209350586, 18.398286819458008, -19.260995864868164, 1.70415461063385, 13.906341552734375, 33.59065628051758, 17.869606018066406, -21.636165618896484, -22.245147705078125, 16.111610412597656], [27.765745162963867, 19.785675048828125, -10.40526008605957, -27.647598266601562, -3.2049801349639893, -3.1540279388427734, -20.822633743286133, 17.23333740234375, -1.567236065864563, -23.383251190185547, -6.3367018699646, -16.080215454101562, -19.731082916259766, -19.79864501953125, -6.853270053863525, -6.507925033569336, 17.242647171020508, -1.8201639652252197, -3.116886615753174, 23.318519592285156, 14.497637748718262, 22.67308235168457, -22.72943115234375, 1.6381549835205078, 1.5432146787643433, -15.01513957977295, 21.64056396484375, -19.728174209594727, -1.3600530624389648, -16.10455894470215, 14.508471488952637, 19.81004524230957, 12.693953514099121, -16.64544105529785, -2.0466392040252686, 18.646465301513672, -12.645930290222168, 19.916187286376953, -23.32324981689453, 14.452431678771973, -17.80915641784668, -6.328109264373779, -22.977596282958984, -20.995939254760742, -13.59369945526123, 3.1995160579681396, -12.712636947631836, 12.712891578674316, 20.650020599365234, -31.341205596923828, -13.5910005569458, -15.818826675415039, 22.557538986206055, -0.27746278047561646, 33.589630126953125, 20.992578506469727, 21.03059959411621, 17.119857788085938, -3.802443742752075, -5.462463855743408, 19.43389129638672, -20.99469566345215, 17.66462516784668, 27.506118774414062], [-12.678268432617188, -21.647472381591797, -21.006444931030273, 27.707489013671875, -30.673974990844727, -4.883270740509033, 19.8519344329834, 10.400981903076172, -7.622636795043945, -4.084664344787598, -4.12367057800293, -18.831344604492188, 2.942993402481079, 19.76237678527832, -23.3602294921875, -9.9853515625, -6.895599842071533, -33.5997314453125, 17.52412223815918, 1.3691625595092773, 19.809892654418945, -6.894741058349609, 19.64392852783203, 14.50845718383789, -1.8122789859771729, -15.12590217590332, -12.737826347351074, 4.20693826675415, 21.011030197143555, -23.326807022094727, 17.238611221313477, -27.593626022338867, -10.681316375732422, 26.430828094482422, -20.63675308227539, 30.44602394104004, -21.64370346069336, 19.694499969482422, -1.6435391902923584, 12.645670890808105, 20.65047836303711, -8.950007438659668, 27.507444381713867, 6.511730194091797, 22.641111373901367, -28.157085418701172, -13.90908432006836, -25.90041160583496, 24.38433074951172, 13.096134185791016, -20.994739532470703, -19.369556427001953, 20.80730438232422, -27.598995208740234, 21.598670959472656, 32.455039978027344, 22.078704833984375, 17.1872615814209, 1.5650875568389893, -0.8999409675598145, 10.682313919067383, 10.370662689208984, -17.66384506225586, -21.02960205078125], [35.09196853637695, -10.052569389343262, -29.581565856933594, 35.38787078857422, -27.547199249267578, 34.51864242553711, 34.686058044433594, 33.871009826660156, 34.8841667175293, 34.412601470947266, 34.09286117553711, 35.04267883300781, -25.9542293548584, 35.022010803222656, -12.997908592224121, 27.143699645996094, 34.65394592285156, 35.03120040893555, 33.44749069213867, 36.12506103515625, -11.330753326416016, 34.051082611083984, 34.4693603515625, -12.303808212280273, -11.017001152038574, 33.37531280517578, 34.739749908447266, -0.716373085975647, 35.010746002197266, -13.047957420349121, 34.00079345703125, 34.56763458251953, 33.42561721801758, -34.34223556518555, 33.874881744384766, 35.59046936035156, -25.102136611938477, 34.09965896606445, -30.611234664916992, 35.487892150878906, 34.036109924316406, 22.794288635253906, -0.5336350202560425, 34.42854690551758, 34.20701599121094, 28.048988342285156, 33.002593994140625, 33.47719955444336, -11.223491668701172, 34.39022445678711, -1.2540407180786133, -28.20986557006836, -11.721303939819336, 34.600460052490234, 34.36713790893555, -10.989038467407227, 33.90970230102539, 34.79649353027344, 33.463584899902344, 34.590919494628906, 34.50039291381836, 35.15742111206055, 34.459373474121094, -30.597091674804688], [24.77083396911621, -14.761399269104004, -18.34733772277832, 25.210405349731445, -19.289661407470703, 26.372591018676758, 26.60057258605957, 23.970495223999023, 25.65251350402832, 25.219900131225586, 25.296161651611328, 25.870080947875977, -22.24315643310547, 24.788484573364258, -16.19112777709961, 15.275466918945312, 26.147157669067383, 25.36941909790039, 24.977981567382812, 26.01380729675293, -13.728544235229492, 26.62725257873535, 25.975040435791016, -13.134849548339844, -14.254364967346191, 25.117279052734375, 26.026622772216797, 8.483173370361328, 26.888818740844727, -14.88796615600586, 25.381643295288086, 25.720714569091797, 25.451086044311523, -20.578758239746094, 24.891748428344727, 25.498882293701172, -20.80631446838379, 25.575639724731445, -19.903881072998047, 26.332244873046875, 24.896732330322266, 17.933000564575195, 8.06311321258545, 26.284961700439453, 26.371627807617188, 21.12590980529785, 24.39105796813965, 25.55896759033203, -13.485075950622559, 25.709487915039062, 6.915225505828857, -21.232372283935547, -15.486278533935547, 25.93158721923828, 26.551450729370117, -14.213712692260742, 25.9072322845459, 26.095373153686523, 25.80099105834961, 24.403926849365234, 25.375038146972656, 26.095911026000977, 25.542150497436523, -20.95640754699707], [0.01524699293076992, -0.0011297204764559865, 0.01487689558416605, 0.01558134239166975, 0.014998062513768673, 0.015898019075393677, 0.015799270942807198, 0.014418702572584152, 0.015485783107578754, 0.015518820844590664, 0.015041977167129517, 0.015798408538103104, 0.015437580645084381, 0.015372736379504204, -0.001421815250068903, 0.006678995676338673, 0.01528341043740511, 0.015461845323443413, 0.015077888034284115, 0.015422058291733265, -0.0005326807731762528, 0.015761928632855415, 0.015709921717643738, -0.0010771503439173102, -0.0023674569092690945, 0.015315827913582325, 0.016149690374732018, 0.010946061462163925, 0.014942744746804237, -0.0011027511209249496, 0.015389962121844292, 0.015550234355032444, 0.014997790567576885, 0.015043573454022408, 0.015342280268669128, 0.01379047054797411, 0.014657294377684593, 0.01554357074201107, 0.012925784103572369, 0.015712853521108627, 0.015450255014002323, 5.525158849195577e-05, 0.011125125922262669, 0.015057560056447983, 0.014703236520290375, 0.007448370568454266, 0.015263757668435574, 0.015576519072055817, -0.0022318444680422544, 0.015066392719745636, -0.006273727398365736, 0.015176817774772644, -0.0019495589658617973, 0.01573643647134304, 0.015640022233128548, -0.0011440521338954568, 0.015687694773077965, 0.015367107465863228, 0.014795460738241673, 0.014941281639039516, 0.015381344594061375, 0.01595723070204258, 0.015949200838804245, 0.014799057506024837], [0.014654559083282948, -0.011169827543199062, -0.014988161623477936, 0.014757730066776276, -0.014368527568876743, 0.014849480241537094, 0.01582413539290428, 0.014435898512601852, 0.014953846111893654, 0.015356330201029778, 0.014278735965490341, 0.015185258351266384, -0.014992010779678822, 0.014576162211596966, -0.012130456045269966, 0.0026315022259950638, 0.015248396433889866, 0.014724550768733025, 0.015087044797837734, 0.015959884971380234, -0.011255588382482529, 0.01528205070644617, 0.015468157827854156, -0.011959283612668514, -0.012079418636858463, 0.014948469586670399, 0.015134694054722786, -0.0029194874223321676, 0.015062945894896984, -0.011849076487123966, 0.015039275400340557, 0.015390200540423393, 0.014520381577312946, -0.015316521748900414, 0.014796867966651917, 0.014266202226281166, -0.014250298961997032, 0.015168917365372181, -0.012851058505475521, 0.01487038005143404, 0.015256833285093307, 0.007616147864609957, -0.0050606559962034225, 0.015485589392483234, 0.015069367364048958, 0.011381298303604126, 0.014827064238488674, 0.014702597633004189, -0.01150024589151144, 0.015291818417608738, -0.00864116009324789, -0.015367024578154087, -0.012100531719624996, 0.015450711362063885, 0.01569317653775215, -0.01207820512354374, 0.015171113424003124, 0.014961617067456245, 0.014641297981142998, 0.01495313085615635, 0.014861593954265118, 0.015013046562671661, 0.015725519508123398, -0.014367546886205673], [10.921164512634277, 12.317770004272461, 14.13215446472168, 11.830120086669922, 14.428585052490234, 9.408366203308105, 12.544788360595703, 10.425113677978516, 7.191237926483154, 10.416271209716797, 9.885205268859863, 9.090035438537598, 14.577759742736816, 9.279070854187012, 12.529255867004395, 10.82137393951416, 12.50065803527832, 6.524343013763428, 10.179556846618652, 2.5316948890686035, 11.22209644317627, 6.0167765617370605, 9.340841293334961, 12.734588623046875, 10.830729484558105, 8.775733947753906, 12.937214851379395, 11.74738883972168, 7.1293439865112305, 12.583827018737793, 9.662976264953613, 9.36948013305664, 8.726336479187012, 14.520854949951172, 11.524169921875, -9.321345329284668, 14.294278144836426, 12.692323684692383, 12.569552421569824, 8.854121208190918, 10.599248886108398, -12.186134338378906, 12.226157188415527, 9.434915542602539, 7.516476154327393, -11.752975463867188, 12.207537651062012, 7.738646984100342, 11.230855941772461, 6.875245094299316, -3.3778469562530518, 14.963232040405273, 13.024347305297852, 13.197734832763672, 11.082558631896973, 12.667627334594727, 11.32717514038086, 7.286430835723877, 7.773610591888428, 11.235312461853027, 8.768430709838867, 11.530186653137207, 6.308103084564209, 13.742202758789062], [-0.18015140295028687, 0.1032685711979866, -0.14261867105960846, -0.17705903947353363, -0.15015479922294617, -0.17759519815444946, -0.17830373346805573, -0.17648854851722717, -0.1746457815170288, -0.17581187188625336, -0.17155513167381287, -0.17735353112220764, -0.15253575146198273, -0.17934416234493256, 0.11557368189096451, -0.051347460597753525, -0.17589129507541656, -0.17912423610687256, -0.17069780826568604, -0.1769554615020752, 0.09115832298994064, -0.1743064820766449, -0.14165449142456055, 0.10458496958017349, 0.08998865634202957, -0.1682610958814621, -0.17773188650608063, -0.15911179780960083, -0.18501269817352295, 0.10430210083723068, -0.1741858869791031, -0.15785495936870575, -0.17673832178115845, -0.12945139408111572, -0.17965541779994965, -0.17775161564350128, -0.14811517298221588, -0.17270159721374512, -0.13405904173851013, -0.17898350954055786, -0.17695856094360352, -0.16905944049358368, -0.15562701225280762, -0.1813451647758484, -0.17440521717071533, -0.1679844707250595, -0.17746970057487488, -0.1674162596464157, 0.0984843373298645, -0.18082337081432343, -0.006360205821692944, -0.151111900806427, 0.1084594801068306, -0.17992755770683289, -0.17718128859996796, 0.10098457336425781, -0.17121140658855438, -0.1714124083518982, -0.16706785559654236, -0.17483815550804138, -0.17624244093894958, -0.17536336183547974, -0.1813630312681198, -0.14717479050159454], [-0.057302676141262054, 0.0512331984937191, -0.05508274957537651, -0.057963594794273376, -0.05751565098762512, -0.0573040209710598, -0.05712520331144333, -0.054613348096609116, -0.058278366923332214, -0.055694784969091415, -0.05361210182309151, -0.05703017860651016, -0.0571138821542263, -0.058105070143938065, 0.049000732600688934, 0.021956630051136017, -0.05555044114589691, -0.05544963479042053, -0.056719809770584106, -0.054505351930856705, 0.05125134810805321, -0.05667240545153618, -0.030617771670222282, 0.05013880878686905, 0.050624217838048935, -0.05823533982038498, -0.058263011276721954, -0.05642825365066528, -0.058357905596494675, 0.050764910876750946, -0.056089792400598526, -0.04018398001790047, -0.05815926939249039, -0.05616915225982666, -0.058128029108047485, -0.051250919699668884, -0.05894606187939644, -0.05475861206650734, -0.056780193001031876, -0.05667368695139885, -0.05677029862999916, -0.023785509169101715, -0.05485717952251434, -0.05595812574028969, -0.059618137776851654, -0.04472954571247101, -0.05837757885456085, -0.05791414901614189, 0.050304777920246124, -0.05867405980825424, 0.04169120267033577, -0.05704239010810852, 0.04927584156394005, -0.05770139768719673, -0.05528685450553894, 0.05203881114721298, -0.05540931969881058, -0.054625775665044785, -0.05548913776874542, -0.05719004198908806, -0.05747169256210327, -0.057167258113622665, -0.05759049952030182, -0.057191554456949234], [-0.05673370137810707, 0.04665819928050041, -0.052388835698366165, -0.05490489676594734, -0.0555843748152256, -0.057509519159793854, -0.05614033713936806, -0.05474626645445824, -0.057973623275756836, -0.05529871955513954, -0.05337310954928398, -0.0542198047041893, -0.05489775165915489, -0.05668959766626358, 0.046795230358839035, 0.014895371161401272, -0.056676916778087616, -0.05605702847242355, -0.05494628846645355, -0.05514563247561455, 0.047580838203430176, -0.05506835877895355, -0.03759307414293289, 0.04705800861120224, 0.04841497913002968, -0.05559050291776657, -0.05647542327642441, -0.05267134681344032, -0.057696811854839325, 0.04757874086499214, -0.0537823848426342, -0.04348352178931236, -0.05599241703748703, -0.05217995494604111, -0.05679628998041153, -0.049617841839790344, -0.05534049868583679, -0.05370757728815079, -0.05239085108041763, -0.05435160547494888, -0.05621113255620003, -0.03131307661533356, -0.05305198207497597, -0.056620318442583084, -0.056732770055532455, -0.04499078914523125, -0.05459843948483467, -0.05632688105106354, 0.046740975230932236, -0.05667326599359512, 0.038878925144672394, -0.0552128404378891, 0.049399472773075104, -0.05464756861329079, -0.05672398954629898, 0.048879414796829224, -0.056612126529216766, -0.05476554483175278, -0.05522286146879196, -0.05295635759830475, -0.053945671766996384, -0.05611501634120941, -0.05484350025653839, -0.05453784391283989], [-6.032727241516113, 6.128810882568359, 6.88701057434082, -6.200946807861328, 7.305741310119629, -6.77997350692749, -6.786610126495361, -6.469661235809326, -6.897336959838867, -6.325528621673584, -6.2988433837890625, -6.0366339683532715, 7.524802207946777, -6.263647079467773, 6.255346298217773, 2.180257797241211, -6.48079776763916, -6.123685359954834, -6.3049187660217285, -6.306065559387207, 5.381532192230225, -6.830275535583496, -6.144338607788086, 6.45421838760376, 5.071863174438477, -6.313327312469482, -5.553334712982178, 0.21266646683216095, -6.788980960845947, 6.760707855224609, -5.899667263031006, -5.597999095916748, -6.449985027313232, 7.2410173416137695, -6.6060919761657715, -6.499442100524902, 6.814045429229736, -6.405394077301025, 5.902072906494141, -6.479254245758057, -6.326609134674072, -5.157942771911621, 1.089025855064392, -6.398692607879639, -6.154400825500488, -5.6512298583984375, -6.606917858123779, -6.2278313636779785, 5.660769462585449, -6.157618522644043, -2.208441972732544, 7.557044982910156, 6.789008140563965, -4.764076232910156, -6.659721851348877, 6.345820426940918, -6.710120677947998, -6.645688533782959, -6.339385509490967, -6.6650214195251465, -6.730013847351074, -6.78549861907959, -6.733700275421143, 7.017490386962891], [0.46541526913642883, -0.2927922010421753, -0.4217885732650757, 0.4925829768180847, -0.4342847764492035, 0.4858994483947754, 0.47937604784965515, 0.45297127962112427, 0.47675275802612305, 0.4961984157562256, 0.47431573271751404, 0.48245877027511597, -0.4606980085372925, 0.4632633924484253, -0.33872416615486145, 0.1271386295557022, 0.48829764127731323, 0.44772103428840637, 0.4848285913467407, 0.47665372490882874, -0.24314317107200623, 0.4943520128726959, 0.5008273720741272, -0.3268725872039795, -0.3125598132610321, 0.47034746408462524, 0.5059573650360107, -0.06707995384931564, 0.49233463406562805, -0.34816253185272217, 0.4904197156429291, 0.48639073967933655, 0.4526619613170624, -0.46031105518341064, 0.46212220191955566, 0.43784403800964355, -0.44196027517318726, 0.48157429695129395, -0.3649483919143677, 0.4702873229980469, 0.4699210226535797, 0.11517664045095444, -0.11480943858623505, 0.48790794610977173, 0.4521065056324005, 0.2845345437526703, 0.4614150822162628, 0.47264331579208374, -0.2917211651802063, 0.4644872546195984, -0.24618597328662872, -0.46734049916267395, -0.3294907808303833, 0.49697163701057434, 0.46612513065338135, -0.3352271616458893, 0.4751179814338684, 0.46157118678092957, 0.4694555103778839, 0.4864129424095154, 0.4777109920978546, 0.47420749068260193, 0.47530311346054077, -0.43288394808769226], [-9.983357429504395, 10.774544715881348, 11.872786521911621, -10.036685943603516, 12.536943435668945, -11.004551887512207, -10.726035118103027, -10.345247268676758, -10.986984252929688, -10.330020904541016, -10.305295944213867, -8.856982231140137, 13.230265617370605, -10.06615924835205, 11.685481071472168, 5.31376838684082, -10.31869125366211, -9.762351036071777, -10.426424980163574, -10.438088417053223, 8.953235626220703, -11.552221298217773, -8.13559627532959, 11.799227714538574, 8.522751808166504, -10.850756645202637, -6.673562049865723, 0.13669177889823914, -11.063700675964355, 11.66099739074707, -8.74145793914795, -6.838735580444336, -10.312596321105957, 12.750028610229492, -11.416715621948242, -10.129010200500488, 11.998429298400879, -9.804535865783691, 10.127310752868652, -9.68822956085205, -9.594700813293457, -8.33200740814209, 1.1879476308822632, -10.47646713256836, -10.494193077087402, -9.88922119140625, -10.910099983215332, -9.621346473693848, 9.438364028930664, -9.705557823181152, -5.056304454803467, 12.982126235961914, 11.763371467590332, -4.12972354888916, -10.3667573928833, 11.434880256652832, -10.42534351348877, -10.514076232910156, -10.696244239807129, -10.644010543823242, -10.378826141357422, -10.642955780029297, -11.262659072875977, 12.575033187866211], [0.014670544303953648, -0.009656231850385666, -0.014351116493344307, 0.014902181923389435, -0.013992751948535442, 0.015045229345560074, 0.015384853817522526, 0.014802251011133194, 0.015241572633385658, 0.014917746186256409, 0.014347930438816547, 0.014880909584462643, -0.014955134131014347, 0.014531527645885944, -0.010759060271084309, 0.0034868652001023293, 0.01585536077618599, 0.014261354692280293, 0.014602115377783775, 0.015108520165085793, -0.009054349735379219, 0.01513614971190691, 0.015540753491222858, -0.01042408961802721, -0.010320308618247509, 0.014463966712355614, 0.015239380300045013, -0.0022718587424606085, 0.01490026619285345, -0.011084552854299545, 0.01497328095138073, 0.015139997936785221, 0.014692290686070919, -0.014957290142774582, 0.015092226676642895, 0.013647550716996193, -0.013647313229739666, 0.014735715463757515, -0.012071380391716957, 0.015302805230021477, 0.01479137409478426, 0.005013230722397566, -0.0034332277718931437, 0.015116085298359394, 0.014408932067453861, 0.009714934974908829, 0.014281004667282104, 0.014526196755468845, -0.010055246762931347, 0.014926291070878506, -0.008212309330701828, -0.01529842521995306, -0.010980481281876564, 0.015706799924373627, 0.014623265713453293, -0.010652263648808002, 0.014782484620809555, 0.015389823354780674, 0.01449649315327406, 0.014597299508750439, 0.015054808929562569, 0.014928176999092102, 0.015151357278227806, -0.014514440670609474], [0.04143448546528816, -0.019409263506531715, -0.034281205385923386, 0.04074202477931976, -0.03586088493466377, 0.04160303622484207, 0.041535183787345886, 0.03883256018161774, 0.04169495776295662, 0.04038691148161888, 0.040099937468767166, 0.041789691895246506, -0.03368327394127846, 0.040008921176195145, -0.027389587834477425, 0.03632934018969536, 0.039999935775995255, 0.04086156189441681, 0.039025384932756424, 0.0415765643119812, -0.01945159025490284, 0.0412047915160656, 0.04119553789496422, -0.020982619374990463, -0.02449588105082512, 0.04045172408223152, 0.040339671075344086, -0.030887622386217117, 0.04116116836667061, -0.023780837655067444, 0.0407220833003521, 0.040909525007009506, 0.039209265261888504, -0.04004569724202156, 0.03981142118573189, 0.041173774749040604, -0.0329572930932045, 0.040383435785770416, -0.03602635860443115, 0.041090283542871475, 0.04020703211426735, 0.026286419481039047, -0.03268441557884216, 0.04222358018159866, 0.040466029196977615, 0.03080035001039505, 0.03868328779935837, 0.03902069106698036, -0.022098172456026077, 0.04051578417420387, -0.01907242275774479, -0.032517604529857635, -0.022471943870186806, 0.04096522554755211, 0.04172053933143616, -0.02301851660013199, 0.03955378383398056, 0.040014613419771194, 0.0404658317565918, 0.03967011719942093, 0.039760101586580276, 0.0415785051882267, 0.04161176085472107, -0.03643149137496948], [22.082233428955078, -20.645509719848633, -21.95063591003418, -21.643863677978516, -29.302303314208984, -31.331222534179688, -21.988187789916992, -22.678298950195312, -19.807971954345703, 21.003969192504883, -21.938100814819336, -19.882564544677734, 21.607988357543945, -7.408029079437256, 26.42757225036621, 14.493446350097656, 21.63780975341797, -13.519539833068848, -12.967185974121094, 26.428443908691406, 18.390413284301758, 24.382766723632812, -3.814223051071167, -1.6341168880462646, -17.24135398864746, 19.436002731323242, -21.004396438598633, -29.414228439331055, -5.463831901550293, 17.631591796875, -28.94214630126953, -33.60182189941406, 1.363065242767334, -21.94382667541504, 21.031944274902344, -14.488265991210938, -30.4536190032959, 19.740074157714844, -20.457923889160156, -0.3698127269744873, 23.328718185424805, -1.365080714225769, -19.782812118530273, 13.52031135559082, -15.819110870361328, -17.6331844329834, -6.330713748931885, -12.723899841308594, 11.919238090515137, 16.65110969543457, 1.3669142723083496, -1.624992847442627, 27.4808349609375, -17.661409378051758, -17.108972549438477, 16.641279220581055, 4.1098246574401855, 25.898317337036133, 17.667295455932617, 15.009210586547852, 21.047060012817383, 12.917305946350098, -17.63188362121582, -5.465963363647461], [29.024499893188477, -25.439895629882812, 17.238510131835938, -1.9023152589797974, -16.93997573852539, 3.2999114990234375, 4.883598327636719, 12.693480491638184, -15.997906684875488, -6.334846496582031, 31.237977981567383, -1.6429499387741089, -22.131250381469727, 3.168342113494873, -27.45320701599121, -10.393563270568848, 0.3687722682952881, -22.557828903198242, 3.5717294216156006, 12.693967819213867, -20.641599655151367, 14.955022811889648, 13.59158992767334, -40.459007263183594, 14.507220268249512, -23.319765090942383, -4.139619827270508, 4.122171878814697, -27.7048397064209, -14.362615585327148, 19.709604263305664, 18.40869903564453, -4.1250410079956055, -3.4986467361450195, -30.67409896850586, 21.64685821533203, -1.8422755002975464, -12.291820526123047, -27.45342445373535, 12.693014144897461, -20.64222526550293, -1.8202366828918457, 21.64232063293457, -3.209562301635742, 22.56476402282715, -17.229944229125977, 21.039461135864258, -11.918678283691406, -12.706401824951172, 13.590018272399902, 20.651105880737305, 12.717388153076172, 23.379642486572266, 23.327877044677734, 31.332706451416016, 20.64536476135254, -19.734066009521484, -21.00128173828125, -19.80931854248047, 20.644628524780273, 29.02606964111328, -19.71882438659668, 14.507874488830566, 16.939626693725586], [-6.832258701324463, 8.912041664123535, 22.6758975982666, -7.652628421783447, -27.6474609375, -6.374196529388428, -10.368359565734863, 21.643943786621094, -29.415054321289062, -12.691872596740723, 14.493169784545898, -4.124201774597168, 21.002317428588867, 1.3683840036392212, -29.031192779541016, 2.940181255340576, 15.802681922912598, -23.396106719970703, 26.427810668945312, 13.179096221923828, 14.50681209564209, 20.645858764648438, 19.85030746459961, -27.646894454956055, -1.6405211687088013, -6.325555324554443, 21.64096450805664, -6.901045799255371, 31.333871841430664, -1.0853333473205566, 27.59686279296875, -4.092100620269775, -13.503437995910645, 13.2630033493042, -27.705196380615234, -27.705007553100586, 11.376895904541016, 21.633390426635742, 30.614927291870117, 19.736900329589844, -13.517826080322266, -12.96060848236084, -23.36033821105957, 18.386295318603516, -12.286323547363281, 6.318262577056885, -30.45020866394043, 12.692461967468262, -1.36939537525177, 4.874459743499756, 6.337131500244141, -19.78594398498535, 21.63036346435547, 14.489961624145508, 3.128084182739258, 30.61281394958496, 20.64528465270996, 1.3706032037734985, -19.864839553833008, 21.642993927001953, 13.837077140808105, 4.892634868621826, 9.98619556427002, -21.568618774414062], [-22.563344955444336, 7.495137691497803, 19.851581573486328, -12.692606925964355, 21.927881240844727, -6.322673797607422, -23.386831283569336, 34.33014678955078, 17.191038131713867, -24.08888816833496, 17.82914161682129, 4.778678894042969, -19.73249626159668, 20.992694854736328, 0.9429894685745239, 1.557160496711731, 1.5645564794540405, -3.2032268047332764, 22.08296012878418, -2.9258806705474854, 1.3666669130325317, -13.13114070892334, 8.933777809143066, 23.37693214416504, 3.6148746013641357, -10.37470817565918, -1.3665649890899658, 33.597408294677734, 14.361742973327637, -28.15199851989746, 14.519166946411133, 16.115478515625, 14.49303913116455, -28.155302047729492, 3.117723226547241, -27.677059173583984, -19.36982536315918, -6.854404926300049, 16.66010856628418, 28.152137756347656, -19.726900100708008, 14.957576751708984, -12.693021774291992, 14.593785285949707, 17.72886848449707, 18.397958755493164, 27.765884399414062, 28.943971633911133, -22.24520492553711, 14.488149642944336, -2.048945665359497, 17.45193099975586, 12.687211036682129, -16.08648109436035, -1.6363869905471802, 18.83365821838379, -19.780614852905273, -10.370837211608887, -20.456127166748047, 19.645050048828125, -7.654742240905762, -20.997610092163086, -18.411157608032227, 13.17956256866455], [2.8035190105438232, -34.32768630981445, 1.36561918258667, -22.054439544677734, 12.967353820800781, -3.154297351837158, 26.427608489990234, -15.82148265838623, -6.82588529586792, 20.646869659423828, -3.616497278213501, 14.507489204406738, 0.941676139831543, 6.374858379364014, 17.631431579589844, -16.64493179321289, -1.3666232824325562, 3.2010512351989746, -21.0040340423584, 8.929725646972656, -22.12726402282715, -21.037452697753906, -28.162385940551758, 16.077136993408203, 17.659879684448242, 26.10710906982422, 19.444660186767578, 0.7403856515884399, -21.968454360961914, -16.94137191772461, -22.67268180847168, 14.47641372680664, 21.576168060302734, 19.645544052124023, 14.506689071655273, 14.488506317138672, -14.510785102844238, -22.67279815673828, 13.519495964050293, 18.84814453125, -15.006540298461914, 14.422351837158203, 27.66027069091797, 21.94544219970703, 14.546292304992676, 1.0513429641723633, -17.621740341186523, 40.459346771240234, -8.932381629943848, -5.4142045974731445, -4.1183762550354, 18.39991569519043, 17.66354751586914, -1.6355211734771729, -17.24338150024414, 6.809165000915527, 21.92740821838379, 26.515851974487305, 