{"layers": [{"w": [[0.009616939350962639, 0.15046370029449463, -0.1271868646144867, -0.18954244256019592, 0.0858616828918457, -0.0429256297647953, -0.02228870801627636, -0.4100249111652374, -0.043791163712739944, 0.1758953183889389, -0.2583647072315216, 0.18884305655956268, 0.1646680235862732, -0.1394372284412384, 0.0651114210486412, 0.03975473716855049, 0.033487655222415924, 0.19545023143291473, -0.233232319355011, 0.14388786256313324, 0.22666709125041962, 0.1111229658126831, -0.07390624284744263, 0.10129274427890778, 0.2828698456287384, 0.13154204189777374, -0.12977924942970276, 0.10218758881092072, -0.07126279920339584, 0.16106796264648438, 0.10344860702753067, -0.13147315382957458, 0.2451351433992386, 0.054840702563524246, 0.20475247502326965, 0.13547739386558533, 0.18404483795166016, 0.12324659526348114, -0.12488625943660736, -0.008353768847882748, 0.055864445865154266, -0.0012614399893209338, 0.03149939700961113, 0.05927842855453491, -0.2480195313692093, 0.04191712662577629, -0.2643197476863861, -0.023203104734420776, 0.21969138085842133, 0.02035728096961975, 0.23268988728523254, -0.5331529974937439, 0.2184506058692932, -0.03989234194159508, -0.05028114467859268, -0.019963338971138, 0.09563019126653671, -0.053284481167793274, 0.19106332957744598, 0.01990416646003723, -0.058589573949575424, 0.24038241803646088, -0.04286007955670357, -0.09872498363256454, -0.18258486688137054, 0.3132110834121704, 0.008518463000655174, -0.0875144675374031, -0.39481320977211, -0.0943683534860611, -0.33936890959739685, -0.09675680100917816, 0.10689134895801544, -0.06268976628780365, -0.05957665294408798, 0.25045040249824524, 0.15246383845806122, -0.17177492380142212, -0.21620966494083405, 0.16939949989318848, 0.17622749507427216, 0.1886497139930725, -0.20185799896717072, 0.007052751258015633, -0.05901670083403587, -0.13728995621204376, 0.2184910625219345, -0.3415396809577942, 0.18609175086021423, -0.17500554025173187, -0.20669333636760712, -0.02757929638028145, 0.22206513583660126, 0.3616519868373871, 0.0390726663172245, -0.07529614120721817, -0.09304260462522507, -0.011569447815418243, 0.0431998185813427, 0.06345159560441971, -0.24975275993347168, -0.16057460010051727, -0.04068129509687424, -0.07779300212860107, -0.12129770964384079, -0.2115662395954132, -0.30964452028274536, 0.11025821417570114, -0.15673579275608063, 0.11885464191436768, -0.24921399354934692, -0.216144397854805, -0.1351323425769806, -0.13157333433628082, 0.09653010219335556, 0.07291258871555328, -0.040589116513729095, 0.10420719534158707, 0.06716995686292648, -0.0007591661415062845, 0.20712296664714813, 0.354287713766098, -0.27517804503440857, -0.087084099650383, -0.1634557843208313, -0.13469216227531433, -0.07467816025018692, 0.34912532567977905, -0.3081600069999695, 0.09477990120649338, -0.29502391815185547, -0.0545341856777668, -0.32622790336608887, 0.164496511220932, -0.03196460008621216, 0.15278513729572296, -0.011681105010211468, -0.04358118399977684, 0.04484598711133003, 0.3141619861125946, 0.14060646295547485, -0.03668024763464928, 0.17670612037181854, 0.07362519949674606, 0.15524068474769592, 0.16969947516918182, 0.1090492531657219, 0.05356885865330696, -0.07592987269163132, 0.08301408588886261, -0.18179096281528473, 0.13596369326114655, -0.064256951212883, 0.39189326763153076, 0.011679143644869328, -0.10417216271162033, 0.11797576397657394, -0.09079647809267044, 0.17693085968494415, -0.14694008231163025, -0.21598787605762482, 0.008878545835614204, -0.19069388508796692, 0.2722167372703552, 0.05542220547795296, 0.2567517161369324, 0.08540556579828262, -0.21271757781505585, 0.1303008794784546, 0.1277085244655609, -0.2519944906234741, 0.10529893636703491, 0.009571829810738564, 0.0034372571390122175, -0.12270144373178482, 0.14755214750766754, -0.06255920976400375, -0.005328236147761345, 0.03548204526305199, -0.035338498651981354, -0.16049985587596893, 0.0333077609539032, -0.11951176822185516, 0.02396070584654808, -0.006345489993691444, -0.026102716103196144, -0.37523630261421204, 0.02775259129703045, 0.2101253718137741, -0.15538142621517181, 0.10896021127700806, -0.03935389965772629, 0.044565822929143906, 0.21675267815589905, 0.0498611256480217, 0.044763121753931046, -0.23104968667030334, 0.055006787180900574, -0.13740701973438263, 0.1373005509376526, 0.06806740164756775, 0.004160052165389061, 0.045278698205947876, -0.42674848437309265, -0.15578940510749817, -0.0832211896777153, -0.40592193603515625, -0.08606678992509842, 0.10141484439373016, 0.061735477298498154, -0.07584463059902191, -0.09496121853590012, -0.05833803117275238, 0.35519173741340637, -0.07974052429199219, 0.23527106642723083, 0.07102220505475998, 0.04876011982560158, 0.09876182675361633, 0.14021550118923187, 0.15457195043563843, 0.18864022195339203, 0.09740810096263885, -0.005801355466246605, -0.14165277779102325, 0.004478830378502607, 0.08865724503993988, 0.04641257971525192, -0.18999773263931274, 0.20092055201530457, 0.22250480949878693, -0.2631877362728119, -0.09577450901269913, 0.20498964190483093, -0.26472440361976624, -0.13653497397899628, -0.14704439043998718, -0.23365530371665955, 0.10604001581668854, -0.10003144294023514, -0.1637018471956253, -0.10159562528133392, 0.05547214299440384, -0.030309850350022316, -0.06907746195793152, 0.0799584835767746, -0.07465840131044388, -0.14239120483398438, 0.08979035913944244, -0.009636647067964077, 0.030233066529035568, 0.07754828035831451, 0.11778134852647781, 0.02660365402698517, -0.08787214010953903, 0.11694014072418213], [0.319839209318161, 0.18327927589416504, -0.912003755569458, -0.7239689826965332, 0.045562829822301865, -0.5336264371871948, 0.08350007981061935, -0.06976140290498734, 0.20612192153930664, -0.06474165618419647, 0.6709670424461365, -0.8389320969581604, -0.2779989540576935, -0.18471775949001312, 0.0013996943598613143, 0.05522911623120308, 0.05591674521565437, 0.13290895521640778, -0.5624956488609314, 0.47454559803009033, 0.3001077175140381, -0.08958370983600616, -0.146694615483284, 0.2749819755554199, 0.09198138117790222, 0.2401200830936432, 0.046235520392656326, -0.1575668305158615, 0.02691892348229885, -0.06908389180898666, -0.2021474689245224, 0.24684013426303864, 0.13994614779949188, -0.10669582337141037, 0.06783972680568695, 0.7933093905448914, -0.07583507895469666, 0.23749330639839172, 0.047317881137132645, -0.06651528179645538, 0.27825525403022766, 0.2750241160392761, -0.6034311056137085, 0.023710045963525772, -1.1249886751174927, -0.2635054886341095, -0.7069830894470215, 0.6078158020973206, 0.2966531217098236, -0.30616864562034607, 0.6168498396873474, -1.3206673860549927, 0.4500472843647003, -0.2149188369512558, -0.5700096487998962, 0.16743627190589905, 0.16345064342021942, -0.18955780565738678, 0.3640098571777344, -0.4403539001941681, -0.3561977744102478, -0.12011650204658508, 0.3682314455509186, 0.05619348958134651, 0.11744149774312973, 0.5558260083198547, 0.4258365333080292, -0.045873913913965225, -0.40904736518859863, -0.15105411410331726, -0.7774048447608948, 0.059690702706575394, -0.6987636089324951, -0.34114187955856323, -0.19892215728759766, 0.10600714385509491, 0.16583962738513947, 0.570889413356781, 0.6317508220672607, -0.24305883049964905, 1.0347461700439453, 0.010803776793181896, -0.9417871832847595, -0.10491929203271866, -0.14723268151283264, -0.47003406286239624, -0.5124329924583435, -0.2625056803226471, -0.03129713982343674, -0.279411643743515, 0.5035339593887329, 0.04880508407950401, 0.06622080504894257, 0.3065031170845032, -0.35605794191360474, 0.21431457996368408, -0.03833109140396118, 0.45364171266555786, -0.17693382501602173, -0.20666199922561646, -0.14018888771533966, -0.18438786268234253, -0.6035962104797363, -0.08432693034410477, -0.3190804421901703, -0.036699529737234116, -0.06019221991300583, 0.23714971542358398, -0.058233801275491714, 0.3020976781845093, -0.4932570159435272, -0.24205836653709412, -0.35834771394729614, 0.41724446415901184, 0.08016184717416763, 0.1374891847372055, 0.018210245296359062, -0.5080143809318542, -0.1371527463197708, 0.3604309558868408, 0.61457759141922, -0.41189494729042053, 0.06195259466767311, -0.28644976019859314, -0.1434941291809082, -0.7486035823822021, -0.15116539597511292, 0.3808194696903229, -0.4846981465816498, -0.5627735257148743, -0.5711366534233093, -0.810792863368988, 0.16098684072494507, 0.23179732263088226, -0.05657820403575897, -0.7604904770851135, 0.692565381526947, -0.04721855744719505, 0.35647109150886536, 0.48124656081199646, -0.24552223086357117, -0.03214450925588608, 0.025691112503409386, 0.3540037274360657, 0.6877147555351257, 0.29993265867233276, -0.14326439797878265, 0.2102944254875183, -0.49329525232315063, 0.3462170362472534, -0.3147207498550415, 0.15509413182735443, -0.1848677694797516, 0.1192995235323906, 0.24063685536384583, -0.9504812955856323, 0.09738384187221527, -0.14479821920394897, -0.5515562891960144, 0.29675552248954773, -0.43977341055870056, 0.15231841802597046, 0.43478307127952576, -0.3219515085220337, -0.407686710357666, -0.05255189910531044, -0.047921113669872284, -0.3504747748374939, 0.12423453480005264, 0.021838629618287086, 0.26601141691207886, 0.6392713785171509, -0.02515515871345997, -0.26967403292655945, 0.06652102619409561, 0.03546996787190437, 0.5326849222183228, 0.3086175322532654, 0.0617484487593174, -0.15262223780155182, -0.030736206099390984, -0.6002704501152039, -0.04901433363556862, 0.11856132000684738, 0.17867597937583923, -0.10745768994092941, -0.11742348968982697, 0.20011596381664276, 0.03924517706036568, 0.01516593899577856, 0.08799674361944199, -0.19387991726398468, 0.019913118332624435, 0.12805713713169098, -0.14726245403289795, -0.48314517736434937, -0.039327915757894516, 0.05773334577679634, 0.2015613615512848, 1.058191180229187, 0.15777818858623505, 0.09537807106971741, 0.20527631044387817, -0.6286495327949524, -0.009571440517902374, -0.17779138684272766, 0.0386049821972847, 0.6377650499343872, 0.30084359645843506, -0.11947572976350784, 0.09029795229434967, 0.038681838661432266, -0.1512226164340973, 0.39516937732696533, -0.5931439399719238, 0.007481595501303673, -0.21104207634925842, 0.6122717261314392, 0.2489335536956787, -0.31292924284935, 0.586773693561554, -0.3410365879535675, -0.15617959201335907, 0.11325573176145554, -0.6488020420074463, 0.14558272063732147, 0.008759723976254463, 0.047718871384859085, 0.19042745232582092, 0.01122185681015253, -0.899326503276825, -0.4902888834476471, -0.24253758788108826, -0.09077032655477524, 0.11666658520698547, -0.3894498348236084, 0.13453985750675201, -0.7152111530303955, -0.09326588362455368, -0.47479069232940674, 0.019414277747273445, 0.21139858663082123, -0.44445568323135376, -0.19129304587841034, -0.5272760391235352, 0.19689124822616577, 0.022128000855445862, -0.24037842452526093, -0.26474517583847046, 0.16038931906223297, 0.38717812299728394, -0.3345074951648712, 0.14931848645210266, 0.39500269293785095, -0.3857237696647644, -0.07294188439846039], [-0.11238792538642883, 0.0297843124717474, 0.19561046361923218, -0.15461859107017517, -0.01821625418961048, -0.1196056380867958, -0.14820721745491028, -0.0802391916513443, -0.21155589818954468, -0.062059853225946426, 0.2180745005607605, 0.04874792322516441, 0.26456236839294434, -0.1885259598493576, -0.1453493982553482, -0.05778725817799568, 0.20691312849521637, 0.19026407599449158, -0.15164589881896973, 0.1194094568490982, 0.016699695959687233, 0.2626050114631653, -0.05409638583660126, -0.23185250163078308, -0.05247057229280472, 0.08981646597385406, -0.03658608719706535, 0.17696455121040344, 0.16972796618938446, -0.06072890758514404, 0.05450045317411423, 0.34662938117980957, -0.1438622623682022, -0.29763734340667725, 0.026379823684692383, -0.04666345193982124, -0.06787960231304169, -0.08133116364479065, -0.30187079310417175, -0.2745600640773773, -0.10992515087127686, -0.10906703025102615, -0.19708164036273956, -0.02970143035054207, -0.09972719103097916, 0.2680664658546448, -0.02702600322663784, -0.08086241036653519, -0.2513270080089569, 0.19480696320533752, -0.14101625978946686, 0.07219954580068588, -0.10903121531009674, 0.18573957681655884, -0.11324352025985718, 0.0071058510802686214, 0.10589355230331421, -0.03314033895730972, -0.008249163627624512, -0.13650579750537872, 0.055682506412267685, 0.11956606060266495, -0.25144585967063904, 0.17964519560337067, -0.17784804105758667, -0.023954443633556366, 0.02176479436457157, -0.0432540662586689, -0.25067731738090515, -0.16101686656475067, 0.1443852037191391, 0.18835663795471191, 0.015532908961176872, -0.03864475339651108, -0.2979031205177307, 0.2024235725402832, 0.18599411845207214, -0.1378905028104782, 0.30774152278900146, 0.05754980817437172, 0.2076050490140915, 0.18395055830478668, 0.03746858239173889, -0.018166327849030495, 0.018817193806171417, -0.029367832466959953, 0.003159375162795186, 0.039704982191324234, -0.33429154753685, 0.07510846853256226, -0.26937904953956604, 0.13999518752098083, -0.016386138275265694, -0.21781034767627716, 0.10267117619514465, 0.18917690217494965, -0.013800365850329399, -0.11221623420715332, -0.07226576656103134, -0.02222788892686367, -0.0354856438934803, 0.1009819433093071, 0.04778642579913139, 0.06623268872499466, -0.2083820104598999, -0.058596935123205185, -0.2517859637737274, -0.0013866391964256763, -0.2797752916812897, -0.04666535556316376, -0.050823524594306946, 0.09756026417016983, -0.1283685863018036, -0.1550212800502777, 0.06988571584224701, 0.01807268150150776, -0.061096519231796265, -0.16416649520397186, -0.19350065290927887, 0.01427542045712471, -0.2687798738479614, 0.022559208795428276, -0.04798378422856331, -0.05803016573190689, 0.14229045808315277, -0.017896363511681557, -0.12923568487167358, -0.03758256137371063, -0.2383766919374466, 0.04650092497467995, -0.001784913125447929, -0.01880146749317646, -0.1446039378643036, 0.08585421741008759, 0.20121777057647705, 0.09812131524085999, -0.10670718550682068, -0.040942609310150146, 0.13153930008411407, -0.07580431550741196, 0.032966796308755875, -0.012998467311263084, -0.10785797238349915, 0.04368678480386734, 0.20364515483379364, -0.038505636155605316, 0.27114665508270264, -0.07142852246761322, 0.07385193556547165, 0.1729847490787506, 0.11224856227636337, 0.01515231467783451, -0.034393373876810074, -0.08911257237195969, 0.00267591280862689, -0.06571061164140701, 0.0013133855536580086, -0.032910700887441635, -0.16543953120708466, -0.11543354392051697, -0.25495123863220215, -0.21160030364990234, -0.2588087320327759, -0.003034472931176424, -0.0298677496612072, -0.039815738797187805, 0.02921232394874096, -0.021565230563282967, -0.3523253798484802, -0.14567087590694427, 0.09191183000802994, 0.14354641735553741, 0.047316599637269974, -0.08361437171697617, -0.13219629228115082, 0.059006016701459885, -0.19368894398212433, 0.08512977510690689, -0.10492647439241409, -0.02241078019142151, -0.11006982624530792, 0.16481605172157288, 0.08231985569000244, 0.005236613564193249, 0.2469046711921692, -0.13371260464191437, 0.15713082253932953, 0.17941324412822723, -0.0804709866642952, 0.000394938193494454, 0.13127373158931732, 0.005205100402235985, -0.23043422400951385, -0.2024122029542923, 0.16750873625278473, 0.036471765488386154, -0.17474927008152008, -0.16207440197467804, 0.022453587502241135, -0.15444573760032654, -0.17785334587097168, 0.05858255550265312, 0.07002553343772888, -0.022445043548941612, -0.15686409175395966, -0.11658870428800583, -0.17928896844387054, 0.09101840853691101, 0.14235608279705048, -0.22044791281223297, 0.06382802128791809, 0.1828034669160843, -0.014476124197244644, 0.21980243921279907, 0.14486448466777802, 0.00364650203846395, -0.3312753438949585, -0.0994209423661232, -0.02508002519607544, -0.16811871528625488, -0.05948660522699356, -0.15209795534610748, -0.11166374385356903, -0.24559219181537628, 0.14041458070278168, 0.015814119949936867, 0.13897213339805603, -0.04849792644381523, 0.0909656435251236, 0.06605367362499237, -0.16272395849227905, -0.20962634682655334, -0.1979207843542099, -0.02951727621257305, 0.1413719356060028, -0.17710237205028534, -0.22567982971668243, -0.09163254499435425, -0.24362345039844513, -0.3195226192474365, 0.4566238224506378, 0.11927161365747452, 0.2941007614135742, -0.08451095968484879, 5.3727260819869116e-05, -0.11536214500665665, 0.07793065160512924, -0.026747623458504677, -0.25958752632141113, -0.1327037513256073, 0.03683854639530182, 0.048994433134794235, -0.30948081612586975, -0.1635623425245285, -0.2803274095058441, -0.07492130994796753], [0.16377706825733185, 0.07821071892976761, 0.21048545837402344, -0.028706101700663567, -0.08586841076612473, -0.3012100160121918, 0.030458219349384308, 0.06108586862683296, 0.0542416013777256, -0.10751163214445114, -0.00811148714274168, -0.3271588981151581, -0.5574833154678345, -0.13267868757247925, 0.20124593377113342, 0.11056238412857056, -0.21724475920200348, -0.0834670141339302, -0.12460170686244965, -0.02437959797680378, -0.003764855908229947, 0.09371761232614517, -0.07422008365392685, 0.31808096170425415, 0.3884766101837158, 0.07104558497667313, 0.2543172240257263, 0.4148924946784973, -0.19968333840370178, -0.31521421670913696, -0.14147643744945526, -0.44220250844955444, 0.17808426916599274, 0.03890100121498108, -0.052598703652620316, -0.2033565491437912, -0.06518591940402985, -0.13531717658042908, -0.16428691148757935, -0.10680615156888962, 0.09703431278467178, 0.056449033319950104, 0.0371265709400177, 0.06527096033096313, 0.15719543397426605, -0.16440702974796295, -0.17480933666229248, -0.29379379749298096, 0.19817939400672913, -0.31607139110565186, -0.10022062808275223, 0.12324384599924088, 0.23292018473148346, -0.11430024355649948, -0.1760438233613968, -0.5125685334205627, -0.23274032771587372, 0.05608354136347771, -0.1817176640033722, -0.028395434841513634, -0.19635149836540222, 0.16016818583011627, 0.2027622014284134, 0.1790037900209427, 0.4533546566963196, 0.4020353853702545, -0.8350792527198792, -0.01722048409283161, -0.16235531866550446, 0.47048914432525635, 0.1528744399547577, 0.21822397410869598, -0.2542785406112671, 0.11444017291069031, 0.4089715778827667, 0.12903189659118652, -0.36087942123413086, -0.17060905694961548, -0.22688759863376617, -0.04134272038936615, 0.19349218904972076, 0.20073337852954865, 0.009485296905040741, -0.05603627488017082, -0.15612784028053284, 0.012193123809993267, 0.27816811203956604, -0.1221030056476593, -0.015179933048784733, -0.014208928681910038, 0.1450536698102951, -0.35548093914985657, -0.18662038445472717, -0.08672614395618439, -0.6748611330986023, -0.30405518412590027, 0.10730697214603424, -0.39786577224731445, -0.061816830188035965, -0.020071206614375114, 0.23643799126148224, -0.06216607242822647, -0.07819724828004837, -0.035625752061605453, 0.03782230615615845, 0.10832778364419937, -0.08048733323812485, 0.06252887845039368, -0.06975449621677399, 0.10332389175891876, 0.4156683683395386, 0.03780210018157959, 0.3121640384197235, 0.16519251465797424, 0.07945861667394638, 0.05943666771054268, -0.08859836310148239, 0.22710777819156647, 0.3091416656970978, -0.2730405628681183, -0.11296480149030685, 0.1555546224117279, -0.39779263734817505, 0.025796568021178246, 0.3516213297843933, -0.13974814116954803, 0.22547325491905212, -0.37183135747909546, -0.0533766970038414, -0.15155060589313507, 0.11105573922395706, -0.2515190839767456, -0.2565622329711914, -0.1558188498020172, -0.48777586221694946, -0.16757456958293915, -0.08271327614784241, -0.015399087220430374, -0.07527633011341095, 0.062302812933921814, 0.010426532477140427, 0.24938873946666718, -0.05408544838428497, 0.08811447024345398, -0.2348727285861969, -0.09054072201251984, -0.46492764353752136, 0.2113821804523468, -0.005931014195084572, -0.3087671995162964, 0.28311923146247864, -0.2789689004421234, 0.37772661447525024, -0.47379231452941895, 0.16050371527671814, 0.06932629644870758, -0.3243965804576874, 0.3162916600704193, -0.113001748919487, 0.6516079306602478, -0.33964404463768005, -0.3575342893600464, -0.0009337309165857732, 0.11384902894496918, -0.21763809025287628, -0.03973400965332985, 0.25027763843536377, 0.07582563906908035, 0.16772691905498505, 0.2926419675350189, 0.028287548571825027, 0.10352890938520432, 0.03295353427529335, -0.0337095633149147, 0.01101167593151331, 0.3766794800758362, -0.03367041423916817, -0.5866197943687439, -0.08304335176944733, 0.05336325243115425, -0.18130551278591156, 0.1492467075586319, -0.24891072511672974, 0.045855551958084106, -0.12327907234430313, 0.1754065752029419, -0.23549258708953857, -0.14864057302474976, -0.11143060773611069, 0.2627306282520294, -0.02710581198334694, -0.14802637696266174, -0.06647836416959763, -0.052877239882946014, 0.08189275115728378, -0.0834764838218689, -0.1409151256084442, -0.29373398423194885, 0.032690711319446564, 0.019933419302105904, 0.1189134418964386, 0.18370714783668518, 0.04710056632757187, 0.06714314222335815, -0.21905314922332764, -0.10726771503686905, -0.15624001622200012, -0.07750954478979111, 0.15905432403087616, -0.2508338689804077, -0.18581601977348328, -0.34548166394233704, -0.14945103228092194, -0.27522897720336914, -0.03018999472260475, -0.0843363106250763, 0.08156619220972061, -0.1709355264902115, 0.0066254111006855965, -0.22624768316745758, -0.10929753631353378, -0.13631875813007355, -0.18857301771640778, 0.245408833026886, -0.1707776039838791, 0.07714788615703583, -0.1976686269044876, -0.2331276535987854, 0.204487606883049, 0.10720860958099365, -0.08873538672924042, -0.026725493371486664, 0.2208828330039978, 0.1599382758140564, -0.048835624009370804, 0.27568888664245605, -0.028407445177435875, -0.14240403473377228, 0.12237852066755295, -0.20055317878723145, -0.44774460792541504, -0.060524504631757736, -0.06130949780344963, 0.1453048139810562, 0.23290258646011353, 0.20708759129047394, 0.13254313170909882, -0.06143420934677124, -0.07359839975833893, -0.03590232878923416, 0.2957296073436737, 0.024511544033885002, -0.15914294123649597, 0.04732624068856239, -0.11930373311042786, -0.1387971192598343], [-0.09863758832216263, 0.04662274196743965, 0.24321132898330688, -0.09626910090446472, 0.06630177795886993, -0.11576678603887558, -0.12571300566196442, -0.22081543505191803, 0.07671520113945007, -0.022669058293104172, 0.1765662580728531, -0.11544861644506454, 0.3040449917316437, -0.08329841494560242, -0.014244838617742062, -0.04685267433524132, 0.24836166203022003, 0.3328875005245209, -0.08972527831792831, 0.18693916499614716, 0.10568206012248993, 0.1830163598060608, 0.0959966853260994, -0.19569216668605804, 0.02550380863249302, 0.04902753233909607, -0.052600737661123276, -0.01582147926092148, 0.17320896685123444, 0.046366967260837555, 0.12141406536102295, 0.3179078996181488, -0.13988400995731354, -0.05767129734158516, 0.025353390723466873, -0.020506601780653, -0.2214067578315735, 0.006341422442346811, -0.2139449566602707, -0.16621209681034088, -0.09260717779397964, 0.026619721204042435, -0.040992677211761475, -0.03983547165989876, -0.043212343007326126, 0.10748410224914551, -0.2992517948150635, 0.07121924310922623, -0.07836794853210449, 0.12990573048591614, -0.01326003484427929, -0.11175278574228287, -0.08551736921072006, 0.03004358895123005, -0.0009427175973542035, -0.012632999569177628, 0.05972745642066002, -0.04350759834051132, 0.02812955528497696, -0.0555083267390728, 0.07515046000480652, 0.14363934099674225, -0.16616018116474152, 0.15549153089523315, -0.058654531836509705, -0.20396587252616882, -0.011709719896316528, -0.0027751708403229713, -0.2469835728406906, -0.036070697009563446, 0.00489287031814456, 0.0762968584895134, -0.07995451986789703, 0.10717012733221054, -0.31766897439956665, 0.07765688747167587, -0.017435593530535698, -0.11276373267173767, 0.48350441455841064, -0.05118048936128616, 0.24187132716178894, 0.24112007021903992, 0.07346455752849579, -0.054073870182037354, 0.01691250130534172, -0.06297039985656738, 0.044572602957487106, 0.11336996406316757, -0.2145080715417862, 0.06567312777042389, -0.296835333108902, 0.04664286598563194, -0.09533656388521194, -0.10804810374975204, 0.0645567923784256, 0.1796390265226364, -0.062377315014600754, -0.08443480730056763, -0.09939378499984741, -0.0088913943618536, 0.12013618648052216, 0.0440303273499012, 0.14009462296962738, -0.11799044162034988, -0.16811992228031158, 0.09424222260713577, -0.43958380818367004, -0.13773225247859955, -0.25316697359085083, 0.07076572626829147, -0.1309814751148224, 0.24389497935771942, -0.16888776421546936, -0.08617403358221054, -0.024413952603936195, 0.1691151112318039, -0.07798759639263153, -0.15919966995716095, -0.25858068466186523, 0.06427852809429169, -0.10591737926006317, 0.02835800312459469, -0.1878170222043991, -0.18082654476165771, 0.13315482437610626, -0.01352989673614502, 0.055433399975299835, 0.16119204461574554, -0.2331194132566452, -0.0026718806475400925, -0.07283076643943787, -0.25198912620544434, 0.02630051225423813, 0.11560393869876862, 0.16617077589035034, 0.10899268090724945, -0.056136004626750946, 0.04350058734416962, 0.2381674349308014, -0.07150601595640182, 0.12753039598464966, -0.03892572596669197, -0.15928547084331512, 0.005619462113827467, 0.1854548305273056, -0.0671781674027443, 0.0967629998922348, 0.08991885185241699, -0.012703357264399529, 0.2031293511390686, 0.0810917317867279, 0.24763360619544983, 0.018446184694767, 0.06301452219486237, 0.070111945271492, -0.12764185667037964, 0.0363013856112957, 0.08483116328716278, 0.04654805734753609, -0.2819328010082245, -0.17086254060268402, -0.19772864878177643, -0.06724931299686432, -0.11821954697370529, 0.07300207763910294, 0.014084470458328724, 0.1643013209104538, 0.05106030032038689, -0.33715078234672546, -0.11494788527488708, 0.11786320060491562, 0.12443223595619202, 0.14660587906837463, 0.0530436672270298, -0.11340931802988052, 0.05080008879303932, -0.2809078097343445, 0.04387519136071205, -0.22891400754451752, -0.1401946246623993, -0.15121005475521088, 0.20035746693611145, -0.015477253124117851, 0.03501979634165764, 0.37719494104385376, -0.05559374392032623, -0.022636139765381813, 0.13610748946666718, -0.19984498620033264, 0.017292974516749382, 0.1961386501789093, 0.22573626041412354, -0.1427966058254242, -0.09921422600746155, 0.4052721858024597, 0.05825429782271385, -0.020855816081166267, -0.23834644258022308, 0.08926434069871902, 0.034983258694410324, -0.15023118257522583, 0.15353038907051086, 0.14039848744869232, 0.06381657719612122, -0.16757343709468842, -0.12306094914674759, -0.0858021229505539, -0.001971771940588951, -0.11863374710083008, -0.19539502263069153, 0.10376016795635223, 0.12090863287448883, 0.08157075196504593, 0.24865494668483734, 0.1952522099018097, -0.06711659580469131, -0.12086084485054016, 0.037704046815633774, 0.001819609198719263, -0.04706331714987755, 0.01314848754554987, -0.17284581065177917, -0.15801580250263214, -0.43899452686309814, 0.021750647574663162, 0.045057740062475204, 0.04784509539604187, -0.16498221457004547, 0.09461317956447601, 0.05417146533727646, -0.2006601244211197, -0.11779319494962692, -0.08591850101947784, -0.05534546449780464, 0.052158862352371216, -0.3252401053905487, -0.07247927784919739, 0.1602400243282318, -0.16492517292499542, -0.277925580739975, 0.39723438024520874, -0.1539185792207718, 0.11224634945392609, 0.003408166579902172, -0.02632766030728817, -0.12808430194854736, 0.05118366703391075, -0.014367826282978058, -0.12412704527378082, -0.03762799873948097, 0.12141051888465881, 0.059914134442806244, -0.29794740676879883, -0.0710398405790329, -0.30953776836395264, -0.03677370399236679], [0.8813803195953369, -2.5054664611816406, 0.2655802071094513, -0.3204004764556885, 0.19910870492458344, 0.5201839208602905, -0.03187694773077965, 0.13643565773963928, 0.03737901896238327, -0.9901069402694702, -0.450676292181015, 0.4530808627605438, 0.026194926351308823, -0.1261904090642929, -0.9279645085334778, -0.02672055922448635, 0.11728867888450623, 0.19299538433551788, 0.3217420279979706, -0.059550072997808456, -0.3430793881416321, -3.488565683364868, 0.5266226530075073, -0.049158528447151184, -1.5710034370422363, -2.824833869934082, -0.6133822202682495, -2.4154956340789795, -0.6089491248130798, -0.17893144488334656, 0.012152069248259068, -1.1599540710449219, 0.2396402657032013, 0.3802955150604248, -0.5471372604370117, 0.03266763687133789, 0.026479505002498627, 0.22397266328334808, -0.06239430978894234, 0.42435422539711, 0.06439510732889175, 0.13630157709121704, 0.3024963438510895, 0.05866125971078873, 0.3803287446498871, -3.0023672580718994, 0.3188296854496002, 0.41522347927093506, 0.21637338399887085, -1.8630098104476929, -0.15234069526195526, -0.21465842425823212, 0.03733370453119278, -0.20660549402236938, -0.053576987236738205, 0.322213351726532, -1.3881020545959473, -0.4492979645729065, 0.5707427859306335, -0.790158748626709, 0.10313349217176437, 0.42542195320129395, 0.932273805141449, 0.18257854878902435, -0.04379398003220558, 0.19697053730487823, 0.07572072744369507, 0.02825566567480564, -0.18846744298934937, -0.233867809176445, -0.38427162170410156, 0.1522408127784729, 0.26947730779647827, -0.3791978359222412, -0.27177324891090393, -3.072601318359375, -0.1682339310646057, 0.23881050944328308, 0.005831123795360327, -2.647136688232422, -0.2422611266374588, -0.09904111176729202, -1.470403790473938, 0.5823609232902527, 0.058451343327760696, 0.08823505789041519, 0.08168931305408478, -0.07507719844579697, 0.43964117765426636, 0.028727931901812553, 0.009107919409871101, 0.1531190127134323, -0.03329557552933693, -0.841799795627594, 0.29835155606269836, -2.2073235511779785, 0.2099848836660385, 0.26864561438560486, 0.6973340511322021, 0.21105729043483734, -0.07465267181396484, 0.11571788787841797, -0.046610716730356216, 0.15294334292411804, -1.7846163511276245, 0.21883445978164673, 0.2298257201910019, 0.6658279895782471, -0.2003673017024994, 0.175063818693161, -0.11349333077669144, 0.10901951789855957, -0.1774381697177887, -0.2931370735168457, 0.31037789583206177, -2.816744327545166, 0.4134722352027893, -0.49004319310188293, -0.2697598934173584, 0.36994150280952454, 0.16942721605300903, -0.17827118933200836, 0.7385455369949341, 0.8659204244613647, -0.29040804505348206, -2.1768367290496826, 0.28144747018814087, 0.3333544135093689, 0.09744293987751007, -0.24224446713924408, -0.43245160579681396, -0.505281925201416, 0.2825346887111664, 0.24723000824451447, -0.4315849840641022, 0.40773487091064453, -0.08569974452257156, 0.20052014291286469, 0.19418536126613617, 0.4134257733821869, 0.2765066921710968, 0.04758869484066963, 0.274074912071228, 0.3241874873638153, -1.7963610887527466, -0.4677034020423889, 0.018847880885004997, -0.5885900259017944, -0.003797364654019475, 0.2762693762779236, 0.2703191339969635, 0.03584201633930206, -0.4859098494052887, 0.25663959980010986, -0.2301167994737625, 0.6905485391616821, 0.09186167269945145, -0.025062622502446175, 0.04580792784690857, -0.10727938264608383, 0.13378272950649261, 0.11413463205099106, 0.40124401450157166, -0.390935480594635, 0.2745889127254486, -0.3747301995754242, -2.0210635662078857, -0.10230426490306854, -0.0796523466706276, -0.05126619338989258, 0.2841176986694336, 0.0036893754731863737, -0.40513572096824646, 0.539750874042511, 0.036750975996255875, -3.3650567531585693, 0.8619484901428223, -0.08033217489719391, -0.5874991416931152, -0.03443954512476921, 0.5798582434654236, -3.252551794052124, 0.13080458343029022, 0.3141755163669586, 0.2844533324241638, 0.28734293580055237, -0.1296215057373047, 0.1519256979227066, 0.6761937737464905, -0.01985968090593815, -0.4601036608219147, -0.19394251704216003, -0.08991989493370056, -0.13509774208068848, -0.14558427035808563, 0.3875780403614044, 0.18113771080970764, -0.3849433958530426, -0.23204666376113892, -0.1709313690662384, 0.13750828802585602, -2.8260245323181152, -0.0935530811548233, 0.1291438788175583, 0.6511269211769104, 0.7053244709968567, 0.09265035390853882, -0.2811807096004486, 0.5589655637741089, 0.4530623257160187, -0.0499260313808918, -0.6609293818473816, 0.49456334114074707, -0.08064339309930801, -1.9440826177597046, 0.35914403200149536, 0.1540612429380417, 0.21227335929870605, -0.16509506106376648, -0.04320065304636955, -0.15261191129684448, 0.24830546975135803, -0.6998842358589172, 0.042496953159570694, -0.44492509961128235, 0.002802235307171941, 0.07907884567975998, 0.2691352963447571, -0.040040381252765656, -0.8353211283683777, -0.3268522620201111, 0.08780092000961304, 0.04484501853585243, 0.08186404407024384, 0.2223425805568695, 0.01104388851672411, 0.21139337122440338, 0.14804714918136597, -0.32877010107040405, 0.27656206488609314, -0.08427656441926956, 0.23236264288425446, -2.7785909175872803, 0.4377451539039612, -0.5101009607315063, 0.3814201354980469, -0.08197904378175735, 0.029880091547966003, 0.09936197847127914, 0.2915513813495636, -3.3557333946228027, -0.03198493644595146, -0.24353764951229095, 0.6259713768959045, 0.1371116191148758, 0.2104726880788803], [-0.04491540044546127, -0.03421473503112793, -0.0009056091075763106, 0.05060878023505211, -0.07651745527982712, -0.08028116077184677, 0.07378724962472916, 0.017686573788523674, -0.029149748384952545, 0.07214874029159546, 0.0888824537396431, 0.02988663874566555, -0.08167203515768051, -0.005310132168233395, -0.01563289947807789, 0.07945270836353302, 0.048555806279182434, 0.013518178835511208, 0.04263921082019806, -0.03174375742673874, -0.0706411674618721, -0.06232507526874542, 0.019389193505048752, 0.006549302022904158, -0.07695995271205902, -0.052227359265089035, -0.05077407881617546, 0.005742190405726433, -0.08679146319627762, 0.02246902696788311, -0.022811442613601685, -0.04952528327703476, 0.07596989721059799, -0.05831075832247734, 0.06643416732549667, 0.01758350245654583, 0.04138538986444473, -0.048831868916749954, 0.06291215121746063, 0.02945246919989586, -0.06745174527168274, 0.07174623012542725, 0.07823546230792999, 0.04115809127688408, 0.03047679364681244, 0.02170519158244133, 0.05148599296808243, -0.06620673835277557, 0.01922818459570408, -0.03504091128706932, -0.03134067729115486, 0.06785596907138824, 0.0032787974923849106, -0.03714743256568909, 0.07367370277643204, -0.046572763472795486, 0.07307565212249756, 0.037528734654188156, 0.06836502254009247, 0.03562401980161667, 0.003586208214983344, 0.08516073226928711, 0.07822321355342865, -0.01310186181217432, 0.02865292690694332, -0.031022528186440468, -0.06178627535700798, 0.0826568752527237, -0.007618648000061512, 0.01876480132341385, 0.07651243358850479, 0.0016381480963900685, 0.06779344379901886, 0.005642899312078953, 0.05742643401026726, 0.07341346889734268, 0.062016040086746216, -0.009122684597969055, 0.04323902353644371, 0.06236811727285385, 0.05163142457604408, 0.058408547192811966, -0.013466821052134037, 0.013691259548068047, 0.0695209726691246, 0.006572402082383633, -0.07271602749824524, 0.013246717862784863, 0.0807754397392273, -0.0029505768325179815, 0.05937416851520538, -0.07393792271614075, 0.017057545483112335, 0.011886079795658588, -0.06008323282003403, 0.02794780768454075, -0.02940221130847931, -0.010685139335691929, -0.0037850569933652878, -0.02250637859106064, 0.06598968803882599, 0.08516476303339005, -0.062065109610557556, 0.05248658359050751, -0.015693994238972664, -0.01946849748492241, 0.04395433887839317, 0.08025919646024704, 0.052054278552532196, 0.044539012014865875, -0.005369115155190229, -0.06635766476392746, -0.033725906163454056, 0.012472332455217838, -0.043766770511865616, 0.031808141618967056, -0.05679551512002945, -0.08273552358150482, 0.04586707800626755, -0.02075236663222313, 0.037310343235731125, 0.03219958022236824, -0.048078592866659164, 0.07707809656858444, 0.0035024911630898714, 0.08138330280780792, 0.037390682846307755, 0.03872419521212578, -0.0004354908596724272, 0.023468440398573875, -0.07041006535291672, -0.02265986055135727, -0.08126614987850189, -0.06738550961017609, 0.012761312536895275, -0.06887384504079819, -0.04421910643577576, -0.06472354382276535, 0.0905628427863121, 0.020929159596562386, -0.008951203897595406, -0.0711895152926445, 0.03138690069317818, 0.07414361834526062, -0.03293989598751068, 0.0713464766740799, 0.044944778084754944, -0.061035823076963425, -0.06695303320884705, 0.02978137880563736, 0.012198070995509624, 0.027287520468235016, 0.0567232146859169, -0.06903897225856781, -0.08871130645275116, 0.07188184559345245, -0.020430805161595345, -0.07988698780536652, 0.06024875491857529, -0.0024287765845656395, 0.08157776296138763, 0.03650781139731407, -0.08766727149486542, -0.015452385880053043, -0.017550375312566757, 0.05403842031955719, -0.021435942500829697, 0.07813115417957306, -0.08318465948104858, 0.0842314139008522, -0.060691773891448975, 0.04629213362932205, -0.08478911221027374, 0.017505276948213577, -0.03403475135564804, -0.04093607887625694, 0.08184179663658142, -0.05622680485248566, 0.06293738633394241, -0.0325128510594368, -0.05466527119278908, -0.07319314777851105, -0.015620856545865536, -0.022602789103984833, 0.052116066217422485, -0.018007401376962662, -0.05290956050157547, 0.061995286494493484, -0.03651367127895355, -0.0735967755317688, 0.04275155067443848, 0.0849991887807846, -0.023467672988772392, -0.015122231096029282, 0.029027290642261505, 0.012333356775343418, -0.06930714100599289, -0.08223248273134232, -0.016096672043204308, 0.013161677867174149, -0.04155338928103447, -0.023524755612015724, 0.0843467265367508, -0.07142575830221176, 0.029268203303217888, 0.02713133580982685, -0.00998188741505146, 0.0662294402718544, -0.04964642971754074, 0.016757914796471596, -0.06726999580860138, 0.05895991623401642, 0.042671989649534225, 0.009158378466963768, -0.06740095466375351, 0.07668998092412949, -0.03914949670433998, -0.03223983198404312, -0.029748762026429176, -0.010220476426184177, -0.0012466200860217214, -0.08646221458911896, 0.011155559681355953, -0.00879217404872179, -0.07891827076673508, 0.016686704009771347, 0.05787231773138046, -0.0027431908529251814, 0.04255859553813934, -0.0828728899359703, -0.08963707089424133, -0.04955460876226425, 0.07896418124437332, 0.017162371426820755, 0.01558933686465025, 0.05397162213921547, 0.06392213702201843, -0.03580237179994583, -0.002700470620766282, -0.05089748278260231, -0.051042161881923676, 0.04998515546321869, 0.07072508335113525, -0.07627509534358978, 0.031510233879089355, -0.06200355663895607, -0.08663106709718704, 0.03359823673963547, -0.03730321675539017, -0.0456162728369236, 0.08714734762907028, 0.04646819457411766, -0.017242232337594032, 0.004261862952262163, 0.01394626870751381, 0.015510877594351768], [0.054280322045087814, -0.006401354912668467, -0.06994941830635071, 0.06991345435380936, -0.05045003816485405, 0.011281163431704044, 0.07698211818933487, 0.025053204968571663, 0.055775146931409836, 0.0014881333336234093, 0.06299092620611191, -0.0277294609695673, 0.025690248236060143, 0.01785290613770485, -0.011151113547384739, 0.044556763023138046, 0.02203151024878025, -0.027075743302702904, 0.00768043240532279, -0.010235206224024296, -0.07483946532011032, 0.010150955058634281, 0.056069083511829376, 0.022545618936419487, 0.026703601703047752, -0.08508679270744324, 0.06339293718338013, -0.016331681981682777, 0.08404160290956497, 0.048272207379341125, 0.010557456873357296, 0.08993963897228241, 0.07420152425765991, -0.029825521633028984, -0.08881455659866333, 0.07734207808971405, 0.06712652742862701, -0.05033271759748459, -0.06840347498655319, -0.038294605910778046, -0.025258401408791542, -0.08467845618724823, 0.0854109674692154, -0.009763573296368122, -0.03579888120293617, 0.057961370795965195, 0.0638854056596756, 0.05044008791446686, -0.016852660104632378, 0.007633510511368513, -0.02603154256939888, 0.06276305764913559, -0.08441004157066345, 0.029255442321300507, 0.03105090744793415, -0.029538298025727272, -0.08567305654287338, 0.0850464403629303, 0.07172181457281113, -0.03562062978744507, -0.05990488454699516, -0.06314470618963242, -0.08563585579395294, -0.06157085299491882, -0.008683900348842144, -0.04494590312242508, -0.07176201045513153, 0.05444962531328201, -0.026996705681085587, -0.034045178443193436, 0.09209534525871277, 0.005399996414780617, 0.07950254529714584, -0.048210565000772476, 0.0751904547214508, 0.06410421431064606, 0.061113227158784866, -0.08970987796783447, -0.07573788613080978, 0.008962864987552166, 0.006439405959099531, 0.037585318088531494, -0.007690637372434139, -0.0637345016002655, -0.04335535690188408, -0.04247500002384186, 0.002478555543348193, 0.06624683737754822, 0.004087492357939482, 0.03836391493678093, -0.05993960052728653, -0.07729693502187729, -0.08352713286876678, 0.06067071855068207, -0.06949120759963989, -0.07394086569547653, 0.006286834832280874, 0.04560672491788864, 0.002571910386905074, 0.03322464972734451, -0.015392813831567764, -0.007164446171373129, -0.08796096593141556, 0.06734127551317215, 0.031838398426771164, 0.007453003898262978, 0.07951610535383224, -0.03712552413344383, 0.0008814199827611446, 0.030227098613977432, -0.07343322783708572, 0.028939316049218178, 0.044426023960113525, -0.0006956995348446071, 0.0007540713413618505, -0.07075021415948868, 0.026382306590676308, -0.04758593067526817, -0.007977713830769062, 0.0127366678789258, -0.038855958729982376, -0.03155620023608208, 0.07561532407999039, 0.08065306395292282, 0.013787971809506416, 0.0036417788360267878, -0.03756897523999214, -0.046794258058071136, 0.05626433342695236, 0.0294658076018095, -0.08294165879487991, 0.09123694896697998, -0.02192462794482708, 0.045762550085783005, -0.08137058466672897, -0.031192518770694733, 0.004316888749599457, -0.08277306705713272, 0.008025892078876495, 0.025294018909335136, -0.08555138856172562, -0.06711980700492859, 0.017360132187604904, -0.0842546597123146, -0.00859127938747406, 0.0828106477856636, 0.02698974683880806, 0.012066653929650784, -0.020395131781697273, -0.04284588247537613, -0.054280735552310944, 0.056832797825336456, 0.07788906246423721, -0.07070877403020859, 0.05904870480298996, 0.01927671954035759, 0.07739140838384628, 0.05802542343735695, 0.016886552795767784, 0.07619335502386093, -0.06877962499856949, 0.050637658685445786, -0.0742751955986023, -0.09197453409433365, 0.0682361051440239, -0.07182734459638596, 0.03444870188832283, -0.02954987995326519, 0.030489075928926468, -0.026596195995807648, -0.0868925005197525, 0.0633443295955658, 0.01085747592151165, -0.05272744968533516, 0.05849828943610191, -0.020353345200419426, 0.072616346180439, -0.009542825631797314, -0.031061651185154915, 0.04997767135500908, -0.016748422756791115, -0.09005673974752426, -0.03062308393418789, -0.067331962287426, 0.006348752416670322, 0.08137977123260498, -0.06652399152517319, 0.047785189002752304, -0.05919862911105156, -0.04152870923280716, 0.07400357723236084, 0.03167611360549927, -0.04518383741378784, 0.09178099036216736, 0.0069365836679935455, 0.027757761999964714, 0.0800880715250969, 0.07604999095201492, -0.0743962898850441, -0.021529819816350937, -0.055790700018405914, 0.08228390663862228, -0.07603900879621506, -0.046186815947294235, -0.00606626458466053, -0.009775001555681229, 0.04157218709588051, 0.03128134831786156, 0.07700827717781067, 0.03533665090799332, 0.056361209601163864, -0.03849388659000397, -0.06571900099515915, -0.0350305400788784, -0.02081953175365925, 0.02387833222746849, 0.06680621206760406, -0.019057804718613625, 0.031064379960298538, -0.08449506014585495, -0.06989973038434982, 0.07535722106695175, -0.024674205109477043, 0.04209653288125992, -0.0071029397659003735, -0.019205506891012192, -0.008008739911019802, -0.03856733441352844, 0.035823091864585876, -0.06204276531934738, 0.031102431938052177, -0.08484580367803574, 0.08275657892227173, 0.02991199493408203, 0.048689212650060654, 0.009168683551251888, -0.03459141403436661, 0.05883052572607994, 0.01126857940107584, -0.062424227595329285, 0.04827278479933739, -0.0807206779718399, -0.06589570641517639, 0.003643168369308114, -0.06124594435095787, -0.06164401024580002, -0.06386379152536392, -0.04581601172685623, -0.08921406418085098, 0.030739039182662964, -0.08162166178226471, -0.0568791963160038, 0.07043630629777908, -0.024914652109146118, -0.057051822543144226, -0.028171712532639503], [0.08123616874217987, -0.06236058101058006, -0.07892628759145737, 0.05144471675157547, 0.08896350115537643, 0.08140765875577927, -0.05171044170856476, 0.03536815568804741, -0.03379977494478226, 0.019396241754293442, -0.07166188955307007, 0.03195623308420181, -0.018738800659775734, -0.055309537798166275, 0.0902196615934372, -0.025260379537940025, 0.06517577171325684, -0.017522018402814865, 0.03948789834976196, -0.017778417095541954, -0.025026369839906693, 0.03265760466456413, 0.030646394938230515, -0.057482004165649414, -0.06904687732458115, -0.07505980134010315, -0.08978062868118286, 0.044649530202150345, -0.04642288386821747, -0.033984262496232986, -0.0007055930909700692, -0.0730799213051796, -0.01341611985117197, -0.07358868420124054, -0.06863126903772354, -0.06902587413787842, -0.06050999090075493, 0.062136754393577576, -0.04872714355587959, 0.0166652612388134, 0.005339323543012142, -0.03343464806675911, -0.03222603723406792, 0.08112392574548721, 0.07262441515922546, -0.04943287372589111, -0.06085618585348129, 0.004645387176424265, -0.023189520463347435, -0.08914916962385178, 0.02788039855659008, 0.0008603656315244734, 0.040368445217609406, -0.003455447033047676, -0.09178415685892105, 0.0494077168405056, -0.012648237869143486, -0.07861529290676117, -0.00776402885094285, -0.06471367180347443, -0.07864014804363251, -0.0072554112412035465, 0.04128500819206238, 0.020333437249064445, -0.01605045050382614, -0.020643826574087143, -0.0181431882083416, -0.044480450451374054, -0.04963148757815361, 0.06295331567525864, -0.04027135297656059, -0.026334917172789574, -0.07181001454591751, 0.06701119989156723, 0.014848803170025349, -0.008541055954992771, 0.09174249321222305, 0.0489959791302681, -0.02650451846420765, -0.057791758328676224, -0.03170498088002205, -0.06217079237103462, 0.0362565703690052, 0.07804001122713089, -0.08414924144744873, 0.0318727046251297, -0.031221525743603706, -0.06248708441853523, 0.03791585937142372, -0.03702862188220024, 0.05300435796380043, 0.009392144158482552, -0.04272548481822014, 0.09179804474115372, 0.033098723739385605, -0.01464915368705988, -0.027905765920877457, 0.062159858644008636, 0.008307057432830334, 0.013240670785307884, -0.09037883579730988, -0.044289615005254745, 0.025569459423422813, -0.08331102877855301, 0.022858109325170517, -0.08873875439167023, 0.06354199349880219, 0.07006118446588516, 0.06375914812088013, -0.07503286004066467, -0.0011584898456931114, 0.07529941946268082, -0.02011055499315262, 0.04560552164912224, 0.0045721083879470825, -0.07666871696710587, 0.04010632261633873, 0.05908780172467232, 0.08101698756217957, -0.03204045072197914, -0.05497515946626663, -0.08188070356845856, -0.018619222566485405, 0.05876004695892334, 0.005395194049924612, 0.07378639280796051, 0.08816013485193253, 0.04775235056877136, 0.07634474337100983, -0.06765992194414139, -0.02487621083855629, -0.0715835839509964, -0.07462908327579498, 0.08486191183328629, -0.047823406755924225, 0.03874095901846886, 0.022060202434659004, -0.08885077387094498, 0.03530959412455559, -0.01015311200171709, -0.0640997514128685, -0.029662244021892548, 0.06751760095357895, 0.039676208049058914, -0.004485790152102709, 0.08845384418964386, 0.08294461667537689, 0.026437776163220406, 0.045231278985738754, 0.04155338928103447, 0.05723137408494949, -0.08800775557756424, -0.04876940697431564, 0.052194200456142426, -0.048090800642967224, 0.0032658246345818043, 0.08823586255311966, 0.004383453167974949, 0.03916923701763153, -0.07551006972789764, 0.0570761002600193, -0.041987113654613495, 0.036767467856407166, -0.01720914989709854, -0.06279207766056061, 0.06779991090297699, -0.02985733561217785, 0.05299241840839386, -0.056636884808540344, 0.05015168711543083, 0.007822908461093903, -0.08362674713134766, 0.0516059473156929, 0.045653678476810455, -0.013202397152781487, 0.019877122715115547, 0.033066220581531525, 0.06940736621618271, -0.03858534246683121, -0.03483329340815544, -0.001967538148164749, -0.03906714543700218, -0.06362783163785934, -0.08530239760875702, 0.02258160151541233, -0.06028469651937485, 0.07399208098649979, 0.005105958785861731, 0.025619925931096077, 0.060774147510528564, -0.004625222180038691, -0.006282399408519268, -0.036093782633543015, 0.05314631387591362, -0.08129782229661942, -0.011442283168435097, 0.004905264358967543, -0.028464950621128082, -0.06237401068210602, 0.06868734955787659, -0.06527674198150635, -0.009757081978023052, 0.045849815011024475, 0.029014641419053078, -0.08595311641693115, 0.013235324062407017, -0.05121450871229172, -0.09087881445884705, -0.03332166373729706, 0.09056366235017776, 0.025950947776436806, -0.07084621489048004, 0.030580008402466774, -0.012573291547596455, -0.04913150891661644, 0.04726632311940193, 0.06171676516532898, -0.056062791496515274, 0.06392223387956619, -0.04363719001412392, -0.017198700457811356, 0.08204756677150726, 0.08220510184764862, -0.07226277142763138, -0.06140165030956268, -0.08264712989330292, -0.08058727532625198, 0.008724319748580456, 0.0808243378996849, -0.027332007884979248, -0.047989264130592346, 0.030519546940922737, 0.046800605952739716, -0.07561716437339783, 0.05190573260188103, -0.0627608671784401, 0.03429515287280083, 0.022156257182359695, -0.026950528845191002, -0.07980170845985413, -0.03055928647518158, 0.07667854428291321, -0.020354479551315308, 0.04546225443482399, -0.08507417887449265, -0.04867444932460785, -0.07394014298915863, -0.05290850251913071, 0.05543316528201103, -0.017701447010040283, -0.06967325508594513, 0.052523743361234665, -0.05313743278384209, 0.07365140318870544, -0.013251397758722305, 0.06811492890119553], [0.24195043742656708, -0.49582618474960327, -0.6717555522918701, 0.1351999193429947, 0.3750467002391815, -0.08387841284275055, 0.2956467568874359, 0.5325461030006409, -0.18689054250717163, -0.8822953701019287, -0.09219048172235489, 0.07444111257791519, -0.09935582429170609, -0.0540715754032135, -0.048291467130184174, 1.1392921209335327, -0.3052552044391632, -0.6269543170928955, -0.2782578468322754, 0.6744967699050903, 0.8003928661346436, -1.0215867757797241, 0.18025822937488556, -0.39527788758277893, -0.8773244023323059, -0.7187491059303284, -0.9892934560775757, -0.5399031043052673, -0.21681952476501465, 0.2340679168701172, -0.26762697100639343, -0.11903633922338486, 0.15500816702842712, -0.21100151538848877, -0.822757363319397, 0.014197844080626965, 0.6059545874595642, -0.17996548116207123, -0.38786473870277405, 0.30773046612739563, -0.08215265721082687, -0.4712675213813782, -0.2555616497993469, 0.03728209808468819, -0.15281091630458832, -0.7383552193641663, 0.501140832901001, 0.05392074957489967, -0.37076622247695923, -0.16295745968818665, 0.11616658419370651, -0.5789361000061035, 0.6014020442962646, -0.2497795671224594, 0.9673939943313599, -0.640980064868927, 0.09142998605966568, -0.0812610387802124, -0.16937457025051117, 0.33390915393829346, -0.24711382389068604, -0.36063048243522644, -0.6015779972076416, -0.7116705775260925, -0.7757052183151245, 0.1673295795917511, 0.5040426850318909, 0.08665449917316437, 0.8330038785934448, 0.29426172375679016, -0.24152763187885284, -0.010006241500377655, -1.4771243333816528, 0.49103668332099915, 0.6694554686546326, -0.7532537579536438, -0.2743760645389557, -0.2704416513442993, -0.16785265505313873, -0.34654152393341064, 0.08241644501686096, 0.6460307836532593, 0.09743347764015198, -0.4575117230415344, 0.11445051431655884, -0.16223284602165222, -0.32195547223091125, -0.028996746987104416, 1.2574114799499512, 0.12145539373159409, -0.21347899734973907, -0.6591833233833313, -0.39512088894844055, 0.9725841879844666, -0.6204066872596741, -0.3497418463230133, -0.27856841683387756, -0.6283045411109924, -0.5165561437606812, -0.6375067234039307, -0.4442358911037445, 0.6107022762298584, -0.11200619488954544, -0.5396005511283875, 0.5123539566993713, 0.224680095911026, 0.037144072353839874, 0.050268422812223434, -0.06667794287204742, -0.0981580838561058, 0.6319404244422913, -0.3024516999721527, -0.27462464570999146, -0.2770802974700928, 0.04491938650608063, -0.6816195249557495, -0.17531804740428925, -0.13549992442131042, -0.36803776025772095, 0.20118454098701477, 0.7448883652687073, -1.1004033088684082, -0.587044358253479, 1.0123683214187622, -0.5898377299308777, 0.45647507905960083, 0.010379103943705559, -0.3738275170326233, 0.5515947341918945, 0.5722869038581848, 0.23664945363998413, -0.13485263288021088, 0.46912163496017456, 0.2873021960258484, -0.2763212323188782, 0.2674030363559723, 0.280154824256897, -0.1416722685098648, 0.3067966401576996, 0.3304138481616974, -0.7813678979873657, 0.2014622986316681, -0.27773869037628174, -0.08351302891969681, -0.2092565894126892, 0.15431220829486847, 0.17757830023765564, 0.040624357759952545, 0.6040259599685669, -0.2890697121620178, -0.27955561876296997, -0.04572056978940964, -0.019141431897878647, 0.02819124050438404, -0.49688661098480225, 0.18048906326293945, 0.15292572975158691, -0.3364405035972595, 0.15645292401313782, 0.06661158055067062, -0.12044405937194824, -0.06525867432355881, 0.6107421517372131, 0.3277748227119446, -0.13334998488426208, 0.32130640745162964, 0.8050171136856079, -0.34933945536613464, 1.2763934135437012, 0.8578805327415466, -0.1301475465297699, -0.2900765538215637, -0.050883956253528595, -0.8363832235336304, -0.703813910484314, -0.12956105172634125, 0.8820162415504456, -0.7119161486625671, 0.12953804433345795, 0.12095996737480164, 0.7898235321044922, -1.6852161884307861, 0.3855465054512024, 1.582698106765747, -0.6132772564888, 0.5228123068809509, 0.07120544463396072, 0.2870773375034332, -0.03811712935566902, -0.5902267694473267, -0.47914937138557434, -0.1911880522966385, -0.756621778011322, -0.07483995705842972, 0.16288502514362335, 0.1981787383556366, 0.9383174777030945, -0.5161980390548706, 0.27605271339416504, -0.06351342797279358, -0.012421232648193836, -0.02093532495200634, -0.08338689059019089, 0.10648096352815628, 0.5700482130050659, 0.48344603180885315, -0.6947647333145142, 0.9659371972084045, 0.8451520204544067, 0.045465368777513504, -0.39664870500564575, -1.03533935546875, 0.4700545370578766, 0.4531629979610443, -0.1963036209344864, 0.7975212335586548, 0.793218731880188, -0.6444069743156433, 0.18267066776752472, -0.7570841312408447, -0.24826015532016754, 0.008493602275848389, -0.6414384245872498, -0.3581295907497406, 0.18157047033309937, 0.6392025351524353, 0.28351616859436035, 1.0224672555923462, 0.598665714263916, -0.2712823450565338, -1.126056432723999, 0.1281377226114273, -0.2929117977619171, -0.2705080509185791, -0.6729731559753418, -0.25752192735671997, -0.009290224872529507, 0.13469822704792023, 0.4791204035282135, 1.3284262418746948, -0.5577393174171448, -0.05283738300204277, -0.6521686315536499, -0.648832380771637, 0.03305696323513985, -0.007884910330176353, 0.005051375832408667, -0.9275981187820435, 0.02235620655119419, 0.12031833082437515, -0.7652711272239685, 0.8204153776168823, 0.03835374861955643, -1.0265181064605713, -0.4533451795578003, -0.2720967233181], [0.2782335877418518, -0.051200248301029205, 0.17463473975658417, -0.15252988040447235, 0.02477247826755047, 0.1182069405913353, 0.09019465744495392, -0.0796213448047638, 0.2577107846736908, 0.24982640147209167, 0.29050102829933167, 0.158772811293602, 0.12297242879867554, 0.010074656456708908, 0.017482595518231392, -0.4035148620605469, 0.1667569875717163, -1.2132434844970703, 0.0197446346282959, -0.238407164812088, -0.08286285400390625, 0.0776820182800293, 0.08696793764829636, -0.010618017986416817, -0.06088258698582649, 0.20870530605316162, 0.30438032746315, 0.0005746651440858841, -0.24123044312000275, 0.05575487017631531, 0.21299216151237488, 0.27436667680740356, -0.08092574030160904, -0.182742640376091, -0.2523927390575409, -0.17937986552715302, 0.3079584538936615, 0.07668597996234894, -0.2793312072753906, -0.07500029355287552, -0.37028875946998596, 0.07463955879211426, 0.09770620614290237, 0.08413065969944, -0.15710186958312988, -0.4699397087097168, 0.0491131991147995, -0.05463751405477524, 0.043407004326581955, 0.04075956344604492, -0.09069740772247314, -0.05678512901067734, 0.14810918271541595, -0.1450134962797165, -0.013350024819374084, 0.27945831418037415, -0.26288461685180664, -0.03789517283439636, 0.0015148797538131475, -0.29574650526046753, 0.3730122447013855, 0.08120772242546082, 0.2520918548107147, 0.18851681053638458, 0.0971979945898056, 0.16838130354881287, -0.04892365261912346, -0.013610911555588245, -0.09023479372262955, -0.23066242039203644, -0.031570564955472946, -1.5237704515457153, -0.3775562644004822, 0.07596166431903839, -0.1890840083360672, -0.23372697830200195, 0.24021928012371063, 0.2989766597747803, -0.31592053174972534, -0.06762022525072098, 0.1958455890417099, -0.2643241882324219, -0.4274742901325226, -0.05268219858407974, -0.4631558954715729, -0.3527234196662903, -0.11089865863323212, -0.059919096529483795, 0.061101604253053665, 0.10767866671085358, 0.08625081181526184, -0.05950860679149628, 0.11546998471021652, 0.0730462297797203, -0.42416369915008545, -0.16731023788452148, 0.214463010430336, 0.16790182888507843, -0.03720664605498314, -0.13464006781578064, -0.5505987405776978, -0.0786031037569046, 0.04404713958501816, 0.05841781198978424, -0.18832248449325562, 0.034918200224637985, -0.6862715482711792, -0.2769479751586914, 0.08222416043281555, 0.009531829506158829, 0.293316125869751, -0.004243834409862757, -0.10549747198820114, 0.4643026292324066, -0.24981890618801117, -0.18920935690402985, 0.0997534990310669, 0.1260816603899002, 0.02388010360300541, 0.2210942953824997, -0.17735084891319275, 0.1109640821814537, 0.267453670501709, 0.16682229936122894, 0.05743222311139107, 0.03128524869680405, 0.27686426043510437, 0.027352426201105118, 0.43997371196746826, 0.08165377378463745, 0.21937228739261627, 0.12804827094078064, 0.24624291062355042, 0.12901797890663147, 0.026739969849586487, -0.1260889172554016, -0.4453865885734558, 0.1408616453409195, -0.20477375388145447, 0.008820624090731144, -0.04738835617899895, -0.0724714919924736, 0.16807101666927338, -0.038929980248212814, 0.04738873243331909, 0.22868268191814423, -0.03190237656235695, 0.17012616991996765, -0.06511184573173523, 0.2095581740140915, 0.012504532933235168, 0.03302313759922981, -0.594946563243866, 0.13220049440860748, -0.25120118260383606, 0.12677907943725586, 0.03178981691598892, -0.1069229394197464, 0.4278215169906616, -0.3587581217288971, 0.26681116223335266, 0.25727957487106323, 0.07337669283151627, -0.2399470955133438, 0.31548047065734863, -0.09192193299531937, 0.02298647165298462, -0.23000285029411316, -0.0553034283220768, 0.1809632033109665, 0.32068952918052673, 0.17273107171058655, 0.09576914459466934, 0.008610723540186882, 0.2714100778102875, -0.044874418526887894, -0.2055777758359909, -0.35652658343315125, 0.03148328512907028, 0.24666903913021088, -0.22238309681415558, -0.07894140481948853, -0.13867899775505066, 0.01012949924916029, 0.16160444915294647, 0.21776026487350464, -0.029397599399089813, -0.10559885203838348, -0.06307752430438995, -0.3708288371562958, 0.005866925232112408, 0.10416869819164276, 0.1263836920261383, -0.018564915284514427, 0.02375878021121025, -0.012310273014008999, 0.19986848533153534, 0.030312133952975273, -0.13830997049808502, -0.09020078182220459, -0.13358891010284424, 0.12830068171024323, 0.08124173432588577, 0.07710974663496017, 0.207370787858963, 0.2665497660636902, 0.04104969650506973, 0.09663014858961105, 0.26838240027427673, 0.10857126861810684, 0.044205598533153534, -0.12188448756933212, -0.162520170211792, -0.10394486784934998, -0.005750462878495455, 0.3171553909778595, -0.057296596467494965, 0.10798882693052292, -0.12842433154582977, 0.039431340992450714, 0.01922748051583767, 0.10201496630907059, -0.026338808238506317, -0.04295995458960533, 0.14351855218410492, 0.04827820509672165, -0.00026398341287858784, -0.103753000497818, 0.23246386647224426, 0.22634509205818176, 0.39516061544418335, -0.14438563585281372, 0.30642181634902954, 0.276187926530838, 0.25017935037612915, 0.23335148394107819, 0.24382342398166656, 0.22237670421600342, 0.41233712434768677, 0.043696269392967224, -0.21517416834831238, -0.2574828565120697, -0.5288158655166626, 0.05831452086567879, 0.19922780990600586, -0.2643401026725769, -0.12262830138206482, -0.37557896971702576, 0.11547645181417465, 0.3564687967300415, -0.3323988914489746, -0.1520794779062271, -0.3031550943851471, 0.1405542641878128, -0.3314242362976074, 0.03920342028141022], [-0.050769153982400894, -0.12482418119907379, -0.31554853916168213, 0.052441783249378204, 0.10956719517707825, -0.38428550958633423, -0.21161864697933197, 0.11690653860569, -0.37149256467819214, 0.21178629994392395, -0.31906402111053467, -0.08092065155506134, -0.20548082888126373, 0.29350462555885315, -0.1027277335524559, 0.20918746292591095, -0.3596227765083313, -0.2779562473297119, 0.10176626592874527, -0.3934805691242218, 0.0007524318061769009, -0.022784072905778885, 0.19783906638622284, -0.09773576259613037, -0.040884848684072495, 0.011257125996053219, 0.0866374745965004, -0.09944703429937363, 0.018254224210977554, -0.3520832657814026, -0.3235480785369873, -0.23017121851444244, 0.011532380245625973, -0.25584936141967773, 0.2849557101726532, -0.05316983908414841, 0.0035956581123173237, -0.5447885990142822, 0.004385604988783598, -0.09062130749225616, -0.3705819249153137, -0.19100145995616913, -0.09740331023931503, 0.26174142956733704, -0.24719290435314178, -0.03427789732813835, 0.17514637112617493, -0.15029583871364594, -0.5784479379653931, -0.21855928003787994, -0.18563374876976013, 0.17955298721790314, -0.5147911906242371, -0.10660015791654587, -0.2572620213031769, 0.13442574441432953, 0.1366817206144333, -0.06793036311864853, -0.442597895860672, 0.28428512811660767, -0.5732218623161316, -0.18622513115406036, -0.032221242785453796, -0.005452508106827736, -0.2608945965766907, -0.19502350687980652, 0.3294864296913147, -0.05315222218632698, 0.5989130139350891, -0.15778031945228577, 0.1501130312681198, -0.2038007378578186, 0.18545210361480713, -0.4736609160900116, -0.24691489338874817, 0.22929173707962036, -0.43945765495300293, -0.10907021164894104, -0.5387262105941772, 0.14284369349479675, -0.21995902061462402, -0.41877758502960205, 0.12703268229961395, -0.0892084613442421, -0.4589180648326874, 0.019782138988375664, -0.13808424770832062, -0.362967312335968, 0.22235044836997986, -0.04250367358326912, -0.30439311265945435, -0.21975918114185333, -0.2372937649488449, -0.04684947803616524, 0.24177825450897217, -0.1455695927143097, -0.17073267698287964, 0.3238716423511505, -0.0059106675907969475, 0.028459686785936356, -0.03919104114174843, -0.10349227488040924, -0.2813360393047333, -0.07479743659496307, 0.1007789820432663, -0.08234027028083801, 0.1484605371952057, 0.2990168631076813, 0.12230278551578522, -0.419620156288147, 0.06290788948535919, -0.02060452289879322, 0.08991371095180511, -0.1770835965871811, 0.23815861344337463, -0.14788265526294708, -0.3987891972064972, -0.32892927527427673, 0.1688103824853897, -0.2111862748861313, 0.11368658393621445, -0.13389329612255096, 0.016353154554963112, 0.032862965017557144, -0.06957347691059113, 0.021365929394960403, 0.047292400151491165, -0.21453511714935303, 0.016242749989032745, 0.12046433985233307, 0.04444894194602966, 0.283180832862854, -0.16963499784469604, 0.03954309597611427, -0.6701030135154724, -0.15241913497447968, 0.2266295850276947, -0.346377432346344, 0.10698149353265762, 0.009503654204308987, -0.0737287849187851, -0.0586375817656517, -0.0063761575147509575, -0.3498086631298065, -0.30130645632743835, 0.06194164976477623, -0.26817378401756287, 0.1441488415002823, 0.06440850347280502, -0.04763590916991234, -0.17799441516399384, -0.4606916606426239, -0.14274336397647858, -0.1979251205921173, -0.360169917345047, -0.003693200182169676, 0.12858180701732635, -0.12473578006029129, 0.2694053649902344, 0.12210028618574142, 0.12301196157932281, 0.2770892381668091, -0.31010445952415466, -0.16673243045806885, -0.15852110087871552, -0.24702681601047516, -0.46495771408081055, 0.2467430979013443, 0.19849318265914917, -0.0010772740934044123, 0.03807631507515907, 0.35969626903533936, -0.12178106606006622, -0.6831393241882324, 0.012587177567183971, -0.02200409583747387, 0.14209973812103271, 0.11914103478193283, 0.03212922438979149, -0.0607181116938591, -0.11152558773756027, -0.0682603120803833, 0.14742812514305115, 0.12026039510965347, -0.36799541115760803, -0.018853705376386642, 0.2089083343744278, -0.16243158280849457, -0.1625625193119049, 0.01444203220307827, -0.011893818154931068, -0.24197587370872498, 0.35778355598449707, -0.28422674536705017, -0.6328535079956055, -0.27420204877853394, 0.15430504083633423, 0.28439801931381226, -0.18085071444511414, 0.020250927656888962, 0.23334258794784546, 0.09600964933633804, 0.1156073585152626, 0.06873690336942673, -0.08227656781673431, 0.1719285100698471, -0.0509021170437336, -0.10239631682634354, 0.19126762449741364, -0.25875136256217957, -0.2868456542491913, 0.019777528941631317, 0.029896141961216927, 0.02945808134973049, -0.02414090745151043, 0.20805074274539948, -0.16877996921539307, -0.12852749228477478, 0.013533931225538254, 0.12065033614635468, 0.15888728201389313, 0.06049977242946625, -0.002807518234476447, 0.20027662813663483, 0.18808530271053314, -0.16201485693454742, -0.026860879734158516, -0.0024455308448523283, -0.5206275582313538, 0.0832529291510582, 0.3166062831878662, -0.10111299157142639, -0.23908400535583496, -0.5092148780822754, 0.11250405758619308, 0.010626260191202164, -0.0764632448554039, 0.029152678325772285, -0.09233646094799042, 0.10914962738752365, -0.02426479011774063, 0.15778441727161407, 0.06968435645103455, -0.3562707304954529, -0.3319089412689209, -0.274844765663147, -0.1406552493572235, 0.15102563798427582, -0.2072320282459259, -0.3353908956050873, -0.048349253833293915, 0.0313706137239933, 0.32237306237220764, 0.15484614670276642, -0.07645562291145325, 0.04285102337598801], [0.24524706602096558, -0.02396273799240589, 0.11214572936296463, -0.10366792976856232, -0.09683117270469666, -0.1325012594461441, -0.08568328619003296, 0.06854510307312012, -0.26490455865859985, 0.05450790002942085, 0.3104136288166046, 0.18035678565502167, 0.10137754678726196, -0.26560190320014954, -0.18917344510555267, 0.031988948583602905, 0.12985247373580933, 0.026294387876987457, -0.11742603033781052, 0.005502126179635525, -0.08501368016004562, -0.0069242739118635654, -0.17354877293109894, 0.04685905575752258, -0.035448793321847916, -0.10379765927791595, 0.029862413182854652, 0.15738068521022797, -0.1617734581232071, 0.10198380053043365, 0.03364720195531845, 0.05158359929919243, -0.12204545736312866, -0.41049814224243164, 0.11288430541753769, 0.14050006866455078, 0.04423147439956665, 0.027342945337295532, -0.3159030079841614, -0.18373389542102814, 0.05515150725841522, -0.10124716907739639, 0.17065061628818512, 0.1344505101442337, 0.06795786321163177, 0.12896448373794556, 0.002547124633565545, -0.20588234066963196, -0.007134197745472193, 0.18642418086528778, 0.1152750626206398, 0.1053498163819313, -0.014950737357139587, -0.032997988164424896, 0.0319349467754364, -0.011519190855324268, 0.08730827271938324, 0.2248029112815857, -0.010591378435492516, -0.26210713386535645, -0.17492906749248505, 0.03511929512023926, 0.1502027064561844, 0.35176581144332886, 0.22436507046222687, 0.19988469779491425, -0.2576201558113098, 0.03437237814068794, -0.2721198499202728, 0.13504727184772491, -0.05809575319290161, 0.2393152117729187, -0.0014124398585408926, 0.12276532500982285, 0.1437893509864807, -0.10248125344514847, 0.20333710312843323, -0.1793309897184372, 0.15038546919822693, -0.05045482516288757, 0.22167406976222992, 0.18629543483257294, -0.34946757555007935, 0.10632401704788208, 0.12811718881130219, -0.019561398774385452, 0.1528075784444809, -0.046323202550411224, 0.020784428343176842, -0.2122524380683899, -0.375895619392395, -0.090207539498806, 0.1730772703886032, -0.07820136845111847, -0.1703992635011673, 0.00927057396620512, 0.045814041048288345, -0.1215353012084961, 0.13029856979846954, -0.0993393063545227, -0.14333200454711914, -0.14779359102249146, 0.0625101625919342, 0.06510309129953384, -0.14084839820861816, 0.11871861666440964, -0.5194259285926819, 0.03125450015068054, -0.35375428199768066, 0.3378964364528656, 0.16757312417030334, -0.043899618089199066, -0.19313016533851624, 0.05892045050859451, 0.28115135431289673, -0.053328920155763626, -0.00934203527867794, 0.11279968917369843, -0.42477861046791077, 0.18050096929073334, -0.25280889868736267, 0.1442863494157791, -0.5045877695083618, 0.1755143105983734, 0.37464573979377747, -0.11081203818321228, -0.053350552916526794, -0.35601162910461426, 0.06242888793349266, -0.15162646770477295, 0.018517667427659035, -0.1231737732887268, -0.11403127014636993, -0.12362677603960037, 0.012634733691811562, -0.1883363276720047, -0.038167279213666916, 0.1847732812166214, -0.27370306849479675, -0.0534508191049099, -0.1447012722492218, 0.2601044476032257, -0.06131261587142944, 0.09638543426990509, 0.08276519179344177, -0.5411145687103271, 0.08023172616958618, 0.06121746078133583, 0.12391586601734161, 0.05592416226863861, 0.22991789877414703, 0.37689289450645447, 0.046351540833711624, -0.09372182190418243, 0.1591918021440506, 0.03430973365902901, -0.18836553394794464, 0.07830560207366943, -0.3223944902420044, 0.09862122684717178, -0.5859712362289429, -0.5824028253555298, 0.23231421411037445, 0.09639922529459, -0.024274051189422607, -0.0032947950530797243, 0.21189509332180023, -0.17960341274738312, -0.2809920608997345, 0.17040523886680603, 0.19034847617149353, 0.017993370071053505, -0.04474756121635437, 0.0361555851995945, 0.08909707516431808, 0.12498579919338226, -0.25746726989746094, 0.026889029890298843, -0.14162850379943848, -0.27934500575065613, -0.12869054079055786, 0.07898808270692825, -0.02010185457766056, 0.13024532794952393, -0.12495284527540207, 0.06372832506895065, 0.0980878546833992, -0.17650671303272247, 0.04184165224432945, 0.1357840895652771, 0.028542183339595795, -0.08902399986982346, -0.05567951127886772, -0.036003049463033676, -0.10708524286746979, 0.137802854180336, -0.4399770200252533, 0.05431486666202545, 0.143208846449852, 0.13599823415279388, -0.3163295090198517, 0.10650765150785446, -0.10436461865901947, -0.3243906497955322, -0.35605737566947937, -0.028081825003027916, -0.1703311949968338, 0.022621605545282364, 0.14239762723445892, -0.13153544068336487, -0.15133313834667206, 0.11277134716510773, -0.20127791166305542, 0.15668398141860962, 0.20509211719036102, -0.2511097192764282, -0.17494840919971466, -0.1819523125886917, -0.10130836814641953, -0.27223625779151917, 0.06846433877944946, 0.07964293658733368, -0.025091717019677162, -0.20736368000507355, 0.22351229190826416, 0.3077411949634552, 0.05708411708474159, 0.007702445611357689, 0.2538633346557617, 0.024846630170941353, -0.2918408513069153, -0.18023860454559326, -0.04209674894809723, 0.15532076358795166, -0.027477100491523743, -0.04555317386984825, -0.35880622267723083, -0.7179974317550659, 0.04895898699760437, -0.12055861949920654, -0.0006611636490561068, 0.196141317486763, -0.008731230162084103, 0.0223066508769989, 0.1127086654305458, 0.07866477966308594, 0.12863051891326904, 0.09863121062517166, -0.09364385902881622, 0.0026876393239945173, -0.1422826200723648, -0.1534987837076187, -0.2575685381889343, 0.042895518243312836, -0.36222460865974426, -0.030844472348690033], [0.041564855724573135, 0.05486961826682091, 0.010446039028465748, -0.021586066111922264, 0.07851267606019974, 0.028134815394878387, 0.036040328443050385, 0.06839003413915634, 0.046660371124744415, 0.07995303720235825, 0.24478931725025177, 0.1017078161239624, 0.09724368900060654, -0.028920890763401985, 0.1253846138715744, -0.04677863419055939, 0.22641003131866455, -0.061666250228881836, 0.1499066799879074, 0.10244223475456238, 0.13875669240951538, -0.03995983302593231, 0.13542011380195618, 0.13639451563358307, 0.03245485946536064, -0.005309875588864088, -0.07356897741556168, 0.026135524734854698, 0.13823673129081726, -0.07112827897071838, 0.14799639582633972, 0.10294602811336517, 0.01059575192630291, 0.13228528201580048, 0.001322855008766055, 0.15498316287994385, 0.20492233335971832, -0.5302666425704956, 0.12936189770698547, -0.016734689474105835, 0.21414858102798462, 0.16838563978672028, -0.07234293967485428, 0.011641821824014187, -0.0919933170080185, -0.08459261059761047, 0.06112275272607803, -0.009026962332427502, 0.3242879807949066, -0.19183875620365143, 0.07969515025615692, -0.010437613353133202, 0.13074049353599548, -0.08562152832746506, -1.2890321016311646, -0.12235590070486069, -0.08292615413665771, -0.05824156478047371, 0.20003756880760193, -0.3930314779281616, 0.17123106122016907, 0.023834651336073875, 0.11628934741020203, -0.061846207827329636, -0.09848654270172119, 0.18165820837020874, -0.05156536400318146, -0.017666857689619064, 0.049170494079589844, 0.21543781459331512, 0.1881871372461319, -0.06727510690689087, 0.10521285235881805, 0.023991545662283897, 0.3115720748901367, -0.07514150440692902, -0.1295333057641983, 0.06366179883480072, 0.13659259676933289, -0.058021605014801025, 0.03440459817647934, 0.17985661327838898, -0.11927159130573273, 0.10133107751607895, 0.03263997286558151, -0.12368925660848618, 0.03982819244265556, 0.11483588814735413, 0.1029626652598381, 0.05999619513750076, -0.0198447797447443, -0.005459344945847988, -0.4119001030921936, 0.11606316268444061, -0.10810918360948563, -0.20446594059467316, 0.23058612644672394, 0.07765919715166092, 0.09333063662052155, 0.13628453016281128, -0.05101850628852844, 0.2826897203922272, 0.062102168798446655, 0.06575676798820496, 0.25089213252067566, -0.14257332682609558, 0.3119657635688782, -0.09821950644254684, 0.15311063826084137, -0.06608825922012329, 0.12733148038387299, 0.32542309165000916, -0.01217592041939497, 0.0036375285126268864, 0.11332174390554428, -0.002822119276970625, 0.13226382434368134, 0.05023229122161865, 0.1581060290336609, 0.11050539463758469, -0.020176950842142105, -0.0784875750541687, -0.0369914174079895, -0.16826003789901733, 0.09361132979393005, -0.06734536588191986, 0.0717385932803154, 0.09688284248113632, -0.047389451414346695, -0.09500204771757126, 0.14345243573188782, -0.07153858244419098, 0.08188784122467041, 0.025149324908852577, 0.23710037767887115, -0.06980215758085251, -0.06239683926105499, 0.17948153614997864, 0.08592420071363449, -0.019028468057513237, 0.1368839293718338, 0.11933950334787369, 0.08612868189811707, 0.07908684760332108, -0.13792070746421814, 0.17983800172805786, -0.017912792041897774, 0.014663631096482277, 0.08845941722393036, 0.057909369468688965, 0.1927487701177597, 0.12415766716003418, 0.22179149091243744, 0.05129297077655792, 0.23845240473747253, -0.23146970570087433, -0.004252686630934477, -0.005469950381666422, -0.16353768110275269, 0.23432746529579163, -0.04026995226740837, -0.008510755375027657, 0.06887823343276978, 0.12082032114267349, 0.03282587230205536, -0.03298361971974373, 0.03786880522966385, 0.008502976037561893, -0.14747513830661774, 0.195366770029068, 0.02634143829345703, 0.1307092010974884, 0.11691134423017502, 0.0855892226099968, -0.10887721180915833, -0.011649672873318195, 0.03767445683479309, -0.07620128244161606, -0.044767070561647415, 0.14305725693702698, -0.21734203398227692, -0.0263296440243721, 0.02027284726500511, 0.1630007028579712, -0.22325173020362854, 0.2994858920574188, 0.006910099647939205, 0.14917686581611633, 0.11259753257036209, -0.10417594015598297, 0.04850926622748375, -0.002535428386181593, -0.057593610137701035, 0.2788196802139282, 0.1485786736011505, 0.20399372279644012, 0.10914415121078491, -0.0050269016064703465, 0.10981526225805283, 0.10730587691068649, 0.14156070351600647, 0.1798977255821228, 0.00997435674071312, 0.11818796396255493, 0.019821226596832275, 0.0724475160241127, -0.08572179079055786, 0.11638332903385162, -0.0644930824637413, 0.11245374381542206, -0.03277672454714775, -0.017095832154154778, 0.017390379682183266, -0.13468313217163086, -0.09460245817899704, -0.15353593230247498, 0.029638642445206642, 0.1000390499830246, 0.07996437698602676, 0.005390642676502466, 0.11436518281698227, -0.012547777965664864, -0.11146805435419083, -0.1646207720041275, -0.0534549281001091, 0.2961983382701874, -0.04244111105799675, 0.05455995351076126, 0.05545802414417267, -0.024442000314593315, -0.32651278376579285, -0.06518837809562683, 0.09710085391998291, 0.13207760453224182, -0.00028764360467903316, 0.07378550618886948, -0.048682719469070435, -0.08909931778907776, 0.09227266162633896, 0.05018660053610802, -0.4467045068740845, 0.17688657343387604, -0.03398699685931206, -0.2569311559200287, 0.11968979239463806, -0.033720407634973526, 0.1406334489583969, -0.7461751103401184, 0.09700936824083328, 0.03374896198511124, 0.03736935183405876, -0.0164512749761343, 0.14529350399971008, 0.09344975650310516, -0.13781559467315674, 0.05194803327322006], [0.13326333463191986, 0.10881069302558899, -0.4893381893634796, 0.1873716115951538, 0.09342989325523376, 0.40319252014160156, 0.008085611276328564, -0.0752028301358223, -0.3700318932533264, -0.3514596223831177, 0.1430990844964981, 0.10850317031145096, 0.41221532225608826, -0.022457240149378777, 0.3711673319339752, -0.11319835484027863, -0.02166886441409588, 0.1309748888015747, 0.14860886335372925, 0.22533531486988068, -0.330763578414917, 0.0787297859787941, -0.5950721502304077, 0.003912393469363451, -0.21807456016540527, 0.0624908022582531, 0.01749633066356182, 0.05236364156007767, -0.22386875748634338, -0.500700056552887, 0.382203608751297, 0.17786046862602234, -0.020366186276078224, -0.07534749805927277, 0.11851109564304352, -0.08708496391773224, 0.07348380237817764, -0.12323221564292908, 0.25542473793029785, 0.2901918590068817, 0.23364031314849854, -0.21467632055282593, 0.1896611452102661, -0.44282233715057373, -0.3967754542827606, -0.11091788858175278, 0.001221566111780703, -0.16382509469985962, 0.4890070855617523, 0.007063149008899927, -0.40937545895576477, -0.06464267522096634, -0.08027733862400055, 0.20724700391292572, -0.13222108781337738, 0.45770859718322754, -0.05838048830628395, 0.4329344630241394, 0.1633046716451645, 0.21262450516223907, -0.4144766926765442, 0.16589364409446716, -0.12315378338098526, 0.2988244295120239, 0.3885914981365204, -0.2338184118270874, 0.22929787635803223, 0.08636695891618729, -0.1773839294910431, 0.0884300246834755, 0.43777069449424744, 0.10482103377580643, 0.28352266550064087, 0.09715660661458969, 0.25054842233657837, -0.6507364511489868, 0.20855258405208588, -0.10026009380817413, -0.18665605783462524, 0.05650339275598526, 0.29459384083747864, 0.22596926987171173, 0.22530925273895264, -0.1393243670463562, 0.15020164847373962, 0.08315853029489517, 0.20231807231903076, 0.23456057906150818, -0.17209577560424805, -0.7323875427246094, -0.1903272569179535, -0.2656797766685486, -0.06299371272325516, -0.18118706345558167, 0.274842232465744, -0.03463447466492653, -0.05210081487894058, -0.35581934452056885, 0.03461255133152008, 0.4765414595603943, -0.17671804130077362, 0.06307467818260193, -0.09400975704193115, 0.011360649950802326, 0.40866219997406006, -0.39239150285720825, 0.3052460551261902, -0.1507345587015152, 0.1921653002500534, -0.22889840602874756, -0.03292723000049591, -0.41670534014701843, 0.08848852664232254, 0.012530483305454254, -0.5164026618003845, -0.42662861943244934, 0.4919075071811676, -0.29757505655288696, -0.14155101776123047, 0.33920979499816895, -0.36456289887428284, 0.1919497698545456, 0.42828884720802307, 0.01285499520599842, -0.3391261696815491, 0.22590547800064087, 0.2816546559333801, 0.18619652092456818, 0.4137405753135681, -0.2916741669178009, -0.15142375230789185, 0.5828787684440613, 0.20343516767024994, -0.1776852160692215, 0.29122570157051086, 0.07130210846662521, -0.41358402371406555, -0.2150832861661911, -0.1925479620695114, 0.25665053725242615, -0.18683159351348877, 0.040843553841114044, 0.1635647565126419, -0.10114838927984238, -0.03576738014817238, 0.06423591822385788, 0.08935371041297913, -0.23262403905391693, -0.3166656792163849, 0.30865707993507385, 0.07705782353878021, -0.05019780993461609, 0.08998429775238037, 0.3899804651737213, 0.4198387563228607, -0.13505835831165314, 0.27715185284614563, -0.2766794264316559, 0.02202168107032776, 0.13140366971492767, -0.02474479377269745, -0.057224467396736145, 0.07222575694322586, 0.12276812642812729, 0.242600217461586, -0.27930766344070435, 0.5793410539627075, 0.01381240226328373, 0.19370868802070618, -0.11609277129173279, 0.14511984586715698, -0.5966694355010986, -0.28750374913215637, -0.374512642621994, -0.11973400413990021, 0.016053112223744392, 0.16044290363788605, -0.16302426159381866, 0.3522014319896698, -0.27923300862312317, -0.10489494353532791, -0.18918554484844208, -0.54526686668396, -0.9954134225845337, 0.2575370967388153, 0.2355368286371231, -0.1003190129995346, 0.07432342320680618, -0.28233590722084045, -0.09738874435424805, 0.031363051384687424, -0.05029161646962166, 0.23291900753974915, 0.10999304056167603, 0.27564555406570435, -0.24706175923347473, 0.303479939699173, 0.20063352584838867, -0.45836877822875977, -0.19890624284744263, 0.12152526527643204, -0.01625067926943302, 0.10791724175214767, 0.3197014331817627, 0.3592647314071655, -0.07537916302680969, 0.11368211358785629, -0.05538684129714966, -0.08725335448980331, 0.026746032759547234, -0.6863260865211487, 0.27852413058280945, 0.05292773246765137, -0.1030687689781189, 0.21370568871498108, 0.09805440157651901, 0.23482511937618256, 0.01539718359708786, 0.0456000491976738, -0.5369174480438232, -0.7273595929145813, 0.2786983847618103, -0.08233148604631424, 0.22974523901939392, -0.358299195766449, -0.450542688369751, 0.16806335747241974, 0.058147430419921875, -0.07262001186609268, 0.30209773778915405, -0.1204322800040245, 0.2400575429201126, 0.5102432370185852, 0.3346606492996216, -0.6055935621261597, -0.30455368757247925, -0.4923667907714844, -0.03726893290877342, 0.14220893383026123, 0.3452305793762207, 0.20773299038410187, 0.5593894720077515, -0.03269951045513153, -0.027685992419719696, 0.4121408462524414, 0.11528176814317703, -0.0720871314406395, 0.34564208984375, -0.1081707701086998, -0.05886445194482803, -0.046222101897001266, -0.11891359090805054, 0.03604039177298546, -0.22242803871631622, -0.043040331453084946, 0.05922131985425949], [-0.080356165766716, -0.08394570648670197, -0.1432429552078247, -0.18754015862941742, -0.12544755637645721, -0.4058777391910553, 0.013698355294764042, 0.37116217613220215, -0.01865055412054062, 0.06957109272480011, 0.07321658730506897, -0.33317798376083374, -0.0578763484954834, 0.08522962033748627, -0.10680593550205231, -0.0991693064570427, 0.005098821595311165, 0.16561006009578705, 0.014027802273631096, -0.25451210141181946, -0.15402160584926605, -0.09353631734848022, -0.3136295974254608, -0.22677554190158844, -0.03462602570652962, 0.16765464842319489, 0.14630328118801117, 0.04242459312081337, 0.05469854548573494, 0.054910823702812195, -0.26262620091438293, -0.148647740483284, -0.08035241067409515, 0.18445122241973877, -0.21137075126171112, 0.1448676884174347, -0.2534216046333313, -0.0735565647482872, -0.009082370437681675, 0.14047443866729736, -0.1715485006570816, -0.06503605097532272, 0.13267339766025543, -0.08762521296739578, -0.18459148705005646, 0.18002891540527344, 0.15547363460063934, 0.15741540491580963, -0.07175648957490921, -0.03867655619978905, 0.18011344969272614, 0.11651363968849182, -0.31852754950523376, -8.381165389437228e-05, -0.016252757981419563, -0.14914344251155853, 0.16197040677070618, 0.07393702119588852, 0.022440006956458092, -0.015185141004621983, 0.05014140531420708, -0.18700020015239716, -0.26120617985725403, -0.19095608592033386, 0.11899599432945251, -0.05668772757053375, 0.35024788975715637, 0.00865089800208807, -0.17975372076034546, 0.009619303047657013, -0.3003278076648712, 0.015242671594023705, -0.06666233390569687, 0.24101702868938446, 0.16885162889957428, -0.044178448617458344, 0.026399381458759308, -0.04088076576590538, -0.15187281370162964, 0.11871696263551712, -0.023347599431872368, 0.019303208217024803, 0.1820484697818756, -0.022434543818235397, -0.04848407581448555, -0.19765163958072662, -0.13848520815372467, 0.23764492571353912, -0.0612599141895771, -0.26161232590675354, -0.32751888036727905, 0.04177674278616905, 0.2775171399116516, 0.13840442895889282, 0.12562939524650574, -0.039783328771591187, -0.22705434262752533, -0.24777348339557648, -0.04493255540728569, -0.12046404182910919, -0.2148541957139969, 0.005649845581501722, 0.030445033684372902, -0.12618523836135864, -0.05334974080324173, -0.11361372470855713, 0.2899034917354584, -0.048135846853256226, 0.09092865884304047, 0.05143017694354057, -0.007055908907204866, -0.2649860680103302, -0.18295665085315704, -0.046473562717437744, -0.32680729031562805, 0.21625983715057373, 0.35278987884521484, 0.2909063696861267, -0.22026146948337555, -0.3808446526527405, -0.15048232674598694, 0.026533028110861778, 0.059281110763549805, 0.158876433968544, -0.1355590671300888, -0.25005653500556946, 0.06752870976924896, 0.1639789491891861, 0.2005915343761444, 0.1117636114358902, 0.27541711926460266, -0.28079238533973694, -0.15309977531433105, -0.12117099016904831, 0.06980493664741516, 0.4214721918106079, 0.13430379331111908, -0.12740956246852875, 0.0566985160112381, 0.05827036127448082, 0.3033059537410736, 0.10777506232261658, -0.10284014791250229, -0.2041211575269699, -0.45201584696769714, -0.13972970843315125, 0.07280829548835754, -0.1895447075366974, 0.07892033457756042, 0.08085574209690094, 0.07440219074487686, -0.22492049634456635, -0.4034579396247864, 0.417654424905777, 0.1728944629430771, 0.44968074560165405, 0.030940650030970573, -0.06629720330238342, 0.054929815232753754, -0.29527369141578674, -0.3679162263870239, -0.2023114711046219, -0.23079346120357513, -0.24546895921230316, -0.09887834638357162, -0.05187946557998657, -0.04902740195393562, 0.02645750157535076, -0.08810369670391083, 0.21902869641780853, -0.2274099737405777, 0.018290044739842415, -0.15423761308193207, -0.22778326272964478, 0.22866331040859222, 0.11260876804590225, 0.16021902859210968, 0.14214807748794556, -0.0526190921664238, 0.0758281722664833, 0.2511315941810608, 0.12483939528465271, 0.2540495991706848, 0.08112793415784836, 0.11539087444543839, 0.34925052523612976, 0.16935668885707855, -0.11696145683526993, 0.10842815041542053, 0.046727024018764496, 0.05631108582019806, -0.1917087584733963, 0.08133194595575333, -0.028757771477103233, -0.0021230897400528193, 0.03464357182383537, 0.29406923055648804, 0.0467098169028759, 0.09357801824808121, -0.25682973861694336, -0.2604227066040039, -0.1268562525510788, 0.16716553270816803, -0.6062111258506775, 0.22200745344161987, -0.06032482162117958, -0.228529691696167, -0.09454216063022614, 0.009676364250481129, 0.012629897333681583, 0.31760668754577637, -0.1539863646030426, 0.045526351779699326, 0.24572649598121643, 0.007444059941917658, -0.2714650630950928, 0.05144356191158295, -0.31148695945739746, 0.01632705330848694, -0.06206095963716507, 0.0796220451593399, -0.02982841432094574, 0.07573852688074112, 0.03569541499018669, -0.10506927967071533, -0.04975125938653946, -0.021666329354047775, 0.07587756216526031, -0.04404919221997261, 0.224127396941185, -0.08705070614814758, -0.007290450390428305, 0.1498490869998932, 0.3975030183792114, 0.17249484360218048, 0.20858652889728546, -0.0701962485909462, -0.16005046665668488, 0.1437961459159851, 0.04066401720046997, -0.19748249650001526, 0.26059025526046753, 0.18133607506752014, 0.2745416462421417, -0.16107088327407837, -0.08882451802492142, 0.06521473079919815, 0.09621746838092804, -0.04243059456348419, -0.05969877168536186, -0.02501744218170643, 0.22534552216529846, -0.012160410173237324, -0.2751118242740631, -0.2505709230899811, 0.16238917410373688], [0.08794860541820526, 0.06946838647127151, -0.07914306223392487, -0.07001149654388428, -0.024327989667654037, 0.1355615109205246, 0.026801319792866707, 0.11266715824604034, -0.136361762881279, 0.06844741106033325, -0.007213431876152754, -0.142079159617424, 0.07261382788419724, -0.00661140400916338, 0.13118401169776917, -0.09310367703437805, -0.30198243260383606, 0.061965592205524445, -0.022207722067832947, -0.18197663128376007, -0.055608075112104416, -0.05537101998925209, -0.12080008536577225, -0.10995830595493317, -0.10150902718305588, 0.04651500657200813, 0.13052718341350555, -0.0029084549751132727, -0.04620005935430527, 0.21058966219425201, -0.08065632730722427, -0.09821094572544098, -0.49056118726730347, -0.003016201313585043, -0.05794387683272362, 0.06192409619688988, 0.08007539063692093, -0.20671723783016205, -0.0030294223688542843, -0.04100912809371948, -0.02737983874976635, 0.0977054014801979, -0.028486190363764763, 0.02409719116985798, 0.11410168558359146, 0.1313806027173996, -0.11772489547729492, -0.0846274271607399, -0.35984063148498535, 0.004934511613100767, 0.030172383412718773, 0.04261665791273117, 0.025025006383657455, 0.15379147231578827, -0.017471112310886383, 0.13135457038879395, -0.0418400838971138, 0.08168183267116547, -0.12392766028642654, 0.07178910821676254, 0.02893475815653801, -0.23417562246322632, -0.09061948210000992, 0.04867272824048996, -0.014812306500971317, -0.17029863595962524, 0.24781273305416107, 0.05957680568099022, 0.26119282841682434, 0.02202332206070423, -0.08063074946403503, -0.015506794676184654, 0.10180985182523727, -0.08183558285236359, -0.0050229220651090145, 0.02545339986681938, -0.024910230189561844, -0.0403757244348526, 0.10619150102138519, -0.03442908450961113, -0.09863968938589096, -0.24628405272960663, -0.08815152943134308, 0.007792357821017504, -0.12171301245689392, 0.0112852668389678, -0.1980815976858139, -0.20243172347545624, 0.07373306900262833, -0.13946403563022614, 0.051540207117795944, 0.08011853694915771, 0.2958437204360962, 0.07352134585380554, 0.20454221963882446, 0.16098594665527344, -0.177178755402565, 0.1706182211637497, 0.0200751144438982, 0.22066418826580048, -0.08716227859258652, 0.18796947598457336, 0.13584654033184052, 0.0559125579893589, 0.024655800312757492, -0.13404127955436707, -0.34215885400772095, -0.10154099762439728, 0.048423558473587036, 0.09006297588348389, -0.32006755471229553, 0.1450892835855484, -0.23069721460342407, -0.17210854589939117, 0.046439770609140396, -0.2140832394361496, 0.0615137442946434, -0.043093182146549225, 0.046309661120176315, 0.1875530183315277, 0.1977253258228302, 0.12303648889064789, 0.057862307876348495, 0.31589940190315247, -0.2812572121620178, 0.035907432436943054, 0.06229473277926445, 0.02989007532596588, -0.06465516984462738, 0.033395301550626755, -0.11624578386545181, 0.42093101143836975, -0.20457465946674347, 0.11148939281702042, 0.03028862737119198, 0.026136597618460655, 0.04892773926258087, 0.040141429752111435, 0.10284431278705597, 0.02306203730404377, -0.20184321701526642, -0.0026318319141864777, -0.22928719222545624, 0.022839033976197243, -0.05038115009665489, 0.023008398711681366, 0.265597403049469, -0.11308366060256958, -0.3353256583213806, 0.09329111129045486, -0.07315878570079803, 0.03612057864665985, -0.002853380749002099, 0.10824614763259888, 0.18171089887619019, -0.002275574952363968, 0.3660813570022583, 0.034119863063097, 0.24356424808502197, -0.2748218774795532, 0.2668580412864685, 0.17179162800312042, 0.031782206147909164, -0.336622416973114, -0.033417049795389175, 0.08119647204875946, 0.02251063473522663, 0.06027497723698616, 0.27449944615364075, -0.048786625266075134, -0.09605053067207336, 0.07692129909992218, 0.008878789842128754, -0.09129468351602554, 0.00799823272973299, 0.19563710689544678, 0.11740972101688385, 0.30947229266166687, -0.0714520812034607, -0.04209691286087036, 0.056046195328235626, 0.09228707104921341, 0.1439661830663681, 0.06043399125337601, -0.2223540097475052, -0.08987035602331161, -0.11250419169664383, -0.10820402204990387, -0.07822059839963913, -0.06578764319419861, 0.253699392080307, -0.01754310354590416, -0.0865720883011818, 0.10012970864772797, -0.2489095777273178, -0.0873880386352539, -0.09132245182991028, -0.06860389560461044, 0.09489846974611282, 0.052999574691057205, 0.18140307068824768, 0.10475563257932663, 0.0032073594629764557, -0.1480334997177124, -0.07897461950778961, -0.04370607063174248, 0.2454574555158615, 0.0506848506629467, 0.08157408982515335, 0.09701275080442429, -0.026615232229232788, 0.16760848462581635, -0.18672505021095276, -0.10981197655200958, 0.06717962771654129, 0.025339558720588684, 0.014308326877653599, -0.022592684254050255, 0.003123566508293152, 0.11390352994203568, -0.16518686711788177, -0.09010893106460571, 0.11362078040838242, -0.23511125147342682, 0.24147650599479675, -0.07554855197668076, -0.009904559701681137, 0.05375196412205696, 0.08114452660083771, 0.021291660144925117, -0.00506890844553709, -0.06970919668674469, -0.3392930328845978, -0.02539888583123684, -0.0901738852262497, -0.2962746322154999, 0.051442377269268036, -0.016063764691352844, -0.1526181548833847, 0.06914740055799484, 0.012379894964396954, -0.08668839931488037, 0.0722552090883255, -0.025751590728759766, 0.006233683321624994, -0.08087912946939468, -0.24090315401554108, -0.08221415430307388, 0.037698548287153244, 0.043144699186086655, -0.06597720831632614, 0.16384285688400269, -0.030036618933081627, 0.0028967121616005898, 0.3404897153377533, -0.04170259088277817], [0.22155484557151794, 0.10570810735225677, 0.18810424208641052, -0.11163660138845444, -0.1481197327375412, -0.5200711488723755, 0.5340613126754761, 0.284492552280426, 0.15923959016799927, -0.2049042135477066, -0.1610291749238968, 0.13079361617565155, -0.24660556018352509, 0.07667126506567001, 0.29339736700057983, -0.13669803738594055, -0.008771101012825966, -0.3170241415500641, -0.0959697887301445, -0.12461575865745544, -0.2103835791349411, -0.027118859812617302, -0.06277728825807571, 0.15124154090881348, 0.3669538199901581, -0.2841775715351105, 0.43494534492492676, 0.26011621952056885, -0.19359011948108673, -0.20192880928516388, -0.238567054271698, -0.26906752586364746, 0.31787922978401184, 0.06397515535354614, -0.24002119898796082, -0.20814532041549683, -0.27975577116012573, 0.05201181769371033, 0.019927173852920532, 0.28530609607696533, -0.39731207489967346, 0.21342851221561432, 0.2928451895713806, 0.19856233894824982, 0.06289709359407425, -0.35027188062667847, 0.4565314054489136, -0.18322192132472992, 0.4552866816520691, -0.46474307775497437, -0.16828887164592743, 0.02129473350942135, 0.3949570655822754, -0.005844717379659414, 0.06812380999326706, -0.04707162827253342, 0.028465131297707558, -0.22587116062641144, 0.11592873185873032, 0.26740723848342896, -0.188054159283638, 0.2550535500049591, 0.29606106877326965, -0.03873320668935776, 0.27050602436065674, 0.3337143063545227, -0.9782823324203491, 0.02376846969127655, -0.7543373107910156, 0.5163183808326721, 0.10249059647321701, -0.013430622406303883, -0.04621467739343643, 0.21885983645915985, 0.2148125171661377, 0.10713528096675873, 0.19669726490974426, -0.1300973892211914, -0.0699479803442955, -0.10036812722682953, 0.015946531668305397, 0.39979231357574463, 0.11097454279661179, -0.13100197911262512, 0.12640324234962463, -0.029988490045070648, 0.30793535709381104, 0.356139600276947, 0.05262516438961029, -0.07085315138101578, 0.2277326136827469, -0.25106295943260193, -0.3445996940135956, 0.03741879388689995, -0.9614025354385376, -0.32416850328445435, 0.11548864096403122, -0.5717310905456543, -0.13793128728866577, 0.009693527594208717, -0.03265118598937988, 0.23287975788116455, -0.37478411197662354, 0.16014620661735535, 0.39358359575271606, 0.04055202752351761, 0.03664654493331909, -0.0017761336639523506, 0.2191247045993805, 0.036568500101566315, 0.49283459782600403, 0.12692727148532867, 0.41143524646759033, 0.3950762450695038, -0.24682801961898804, -0.040478307753801346, -0.24152792990207672, 0.22580957412719727, 0.22007833421230316, -0.49047571420669556, 0.15252146124839783, 0.10000181198120117, -0.1227748841047287, -0.0019877119921147823, 0.26199182868003845, -0.07711442559957504, 0.01074165292084217, -0.6191678047180176, 0.22168052196502686, -0.018940772861242294, 0.11625421792268753, -0.4330735504627228, -0.18573324382305145, -0.3383060693740845, -0.16406795382499695, -0.5816505551338196, -0.16132530570030212, 0.034478187561035156, -0.5184358954429626, 0.43052592873573303, 0.3176529109477997, -0.020450571551918983, 0.27131667733192444, 0.11452184617519379, -0.4300430417060852, 0.3401617407798767, -0.08590108901262283, 0.17155465483665466, 0.16006186604499817, -0.020083507522940636, 0.2503795027732849, -0.4867265224456787, 0.23843632638454437, -0.16982591152191162, 0.06164248287677765, 0.08952676504850388, -0.582887589931488, 0.1157214343547821, -0.22927534580230713, 0.6305450797080994, -0.5095088481903076, -0.1740250140428543, 0.1588531732559204, 0.3142063319683075, -0.17383484542369843, -0.015804089605808258, 0.14198043942451477, 0.0322902575135231, -0.07286742329597473, 0.20469096302986145, 0.11993648111820221, 0.09643937647342682, 0.22404900193214417, 0.31209397315979004, 0.07879310846328735, 0.012879908084869385, 0.1519555002450943, -0.917986273765564, 0.5798144936561584, 0.15251469612121582, -0.3190684914588928, 0.07775280624628067, -0.0918862596154213, -0.07552949339151382, -0.036681730300188065, 0.21562467515468597, -0.1318439543247223, -0.02100946567952633, 0.387990266084671, 0.14650565385818481, -0.07590126246213913, -0.16908933222293854, -0.5501376986503601, 0.17656047642230988, 0.06855057179927826, 0.2656875252723694, -0.23211945593357086, -0.10523093491792679, 0.2690703272819519, -0.15072280168533325, 0.030817775055766106, 0.17744168639183044, -0.10186809301376343, -0.2627772390842438, 0.07437890022993088, 0.11550437659025192, -0.279596209526062, -0.18954084813594818, 0.3912980556488037, 0.2527273893356323, -0.15100882947444916, -0.35702913999557495, 0.2938315272331238, 0.01185105461627245, -0.27935436367988586, -0.2676837742328644, -0.013660532422363758, 0.04556712508201599, 0.1371545046567917, -0.07497363537549973, -0.0521872416138649, 0.5241735577583313, -0.11169008165597916, 0.322620153427124, -0.49388280510902405, 0.12575358152389526, -0.32969677448272705, -0.06278971582651138, -0.05031928792595863, 0.31753650307655334, -0.6694720387458801, 0.016590788960456848, 0.1129235327243805, 0.2231493443250656, -0.4074189364910126, 0.13135479390621185, -0.1757781058549881, -0.12537434697151184, 0.44657307863235474, 0.10542063415050507, -0.06212979927659035, -0.11436254531145096, -0.1239689290523529, 0.3161078989505768, 0.26668480038642883, -0.1710130274295807, -0.07357047498226166, -0.04005533084273338, -0.014049663208425045, -0.012250851839780807, -0.08478350192308426, 0.1289110630750656, 0.2571395933628082, -0.008875894360244274, 0.001745477318763733, -0.2937331795692444], [-0.09725432097911835, -0.08540859073400497, -0.10666811466217041, 0.00883621908724308, 0.21414950489997864, -0.1432945877313614, -0.15388548374176025, 0.15019124746322632, 0.1173524558544159, -0.10966453701257706, -0.07030848413705826, 0.06773286312818527, -0.016076533123850822, -0.23512372374534607, -0.4436582028865814, 0.0898096114397049, 0.0029332293197512627, -0.18966317176818848, 0.07229161262512207, -0.11115816980600357, 0.11545766890048981, 0.13032276928424835, -0.03818453848361969, -0.4208452105522156, 0.025981862097978592, 0.049894191324710846, -0.22252732515335083, 0.0008364580571651459, 0.017423046752810478, 0.03787146508693695, 0.005985963623970747, 0.27018237113952637, 0.02213762141764164, 0.03624129295349121, 0.10845975577831268, 0.2730596959590912, 0.26757675409317017, -0.19554054737091064, 0.22382712364196777, 0.1642460823059082, 0.01790967956185341, -0.16977150738239288, -0.09620524942874908, 0.1564023494720459, 0.06247647479176521, 0.011991620063781738, 0.17961372435092926, -0.13985316455364227, 0.20565934479236603, 0.21948082745075226, 0.013918666169047356, 0.13223052024841309, -0.000898166501428932, -0.11555050313472748, -0.3123222887516022, -0.2426777482032776, 0.13487690687179565, 0.24074605107307434, 0.030138729140162468, 0.030166061595082283, -0.04583527892827988, 