{"layers": [{"w": [[0.16431766748428345, -0.04862700030207634, -0.07342440634965897, -0.03630279749631882, 0.04707692191004753, -0.34756261110305786, 0.059958215802907944, -0.062291987240314484, -0.009327694773674011, 0.17553205788135529, -0.0705464631319046, 0.19703857600688934, 0.09404287487268448, -0.3974950313568115, 0.08976075053215027, 0.08508662134408951, -0.11149124801158905, -0.0484897643327713, -0.014034108258783817, 0.017550550401210785, -0.08921271562576294, -0.042405057698488235, 0.07555541396141052, 0.04412301629781723, 0.09399766474962234, 0.017557278275489807, -0.07706064730882645, 0.10121801495552063, 0.10273661464452744, 0.22890661656856537, 0.04771736264228821, -0.04943983629345894, -0.14201582968235016, -0.0175704974681139, 0.16183578968048096, -0.10358534008264542, 0.07734215259552002, 0.2265055775642395, 0.10304360091686249, -0.038598787039518356, 0.10477709770202637, 0.013624890707433224, 0.07248065620660782, -0.15518638491630554, -0.14090602099895477, 0.189527690410614, -0.036071278154850006, -0.2244739830493927, 0.06202718988060951, 0.06535256654024124, 0.21572759747505188, -0.31713631749153137, 0.14447110891342163, -0.12064818292856216, 0.024142321199178696, -0.0053026494570076466, 0.2868276834487915, -0.08224690705537796, 0.0335165373980999, 0.1610235571861267, 0.04660928249359131, -0.03763766214251518, 0.1785014569759369, -0.23405316472053528, -0.24252285063266754, 0.10734307765960693, 0.036244504153728485, -0.17036299407482147, 0.12179743498563766, -0.09888578951358795, -0.12964272499084473, -0.10109397768974304, 0.06507045775651932, -0.07086880505084991, -0.03350153565406799, 0.07532661408185959, 0.20429719984531403, -0.21232099831104279, -0.0625261515378952, 0.10426624119281769, 0.215373232960701, 0.011203139089047909, -0.15049566328525543, -0.04645843803882599, -0.022968318313360214, 0.05800369754433632, 0.15291674435138702, 0.057149920612573624, 0.19547739624977112, -0.07990701496601105, -0.008236940018832684, -0.062359582632780075, -0.07619936019182205, -0.06536403298377991, 0.02180672623217106, 0.10535011440515518, -0.024305934086441994, 0.11019988358020782, 0.07068296521902084, 0.22199422121047974, -0.42592260241508484, 0.11934179067611694, 0.08712881803512573, -0.0623089037835598, -0.17740775644779205, -0.10549761354923248, 0.0276722963899374, 0.006227629724889994, -0.06847957521677017, 0.21196407079696655, -0.12757587432861328, 0.03569407761096954, 0.06110932677984238, 0.16287149488925934, 0.03591158986091614, 0.08992979675531387, 0.09977514296770096, 0.07147227972745895, 0.011705690994858742, -0.025914577767252922, 0.09873180836439133, 0.04145429655909538, -0.041728660464286804, -0.0738559290766716, -0.17737171053886414, -0.27215662598609924, -0.20032714307308197, 0.07928960025310516, -0.2773490846157074, -0.1638999730348587, -0.10323331505060196, -0.15333598852157593, -0.4102230668067932, -0.06744585931301117, -0.00039556430419906974, 0.1499757617712021, -0.17559541761875153, 0.04877748340368271, 0.09458940476179123, 0.17726720869541168, -0.047428809106349945, -0.031231410801410675, 0.37519118189811707, 0.21597622334957123, 0.07652778178453445, 0.25580254197120667, -0.017368115484714508, -0.12808923423290253, 0.12894688546657562, -0.0952901840209961, -0.09651977568864822, 0.04800323024392128, -0.1781996786594391, 0.31335505843162537, 0.12687690556049347, -0.06001634523272514, -0.0031634648330509663, 0.0334637276828289, 0.09719986468553543, -0.19963234663009644, -0.08834440261125565, -0.10008123517036438, -0.06445571780204773, -0.0698816180229187, -0.027846800163388252, -0.0017530233599245548, 0.05157727003097534, 0.0035027693957090378, -0.14979921281337738, 0.05339667573571205, -0.33584144711494446, -0.08287037163972855, -0.012142145074903965, -0.009714442305266857, -0.08007259666919708, 0.11512941867113113, -0.3115916848182678, -0.0053040636703372, -0.06930641829967499, 0.005327837076038122, -0.1493721902370453, 0.040377430617809296, -0.07523948699235916, 0.16122747957706451, 0.3247491419315338, 0.10557039082050323, -0.24435558915138245, -0.10405528545379639, 0.1961480975151062, 0.06036413088440895, 0.1856541633605957, 0.05722497031092644, -0.32892972230911255, -0.02841986157000065, -0.12978743016719818, 0.11640903353691101, -0.08634013682603836, -0.03332091495394707, -0.15839174389839172, 0.08587130159139633, 0.3069489300251007, 0.1481633186340332, 0.08617400377988815, -0.18926061689853668, 0.13680322468280792, -0.09315531700849533, -0.18793125450611115, 0.22147086262702942, 0.08921463042497635, -0.03937818855047226, 0.02718229405581951, -0.053024787455797195, 0.06636781245470047, 0.07032911479473114, -0.06626183539628983, 0.062125030905008316, -0.07282283157110214, 0.2135287970304489, 0.07827620208263397, 0.077407106757164, -0.11813457310199738, 0.21568530797958374, -0.08854396641254425, 0.15363362431526184, -0.06604991853237152, 0.2892850935459137, 0.15126575529575348, 0.08417652547359467, -0.10835390537977219, 0.1147092804312706, 0.1565380096435547, -0.39346978068351746, -0.2998283803462982, 0.02400410734117031, -0.0740387812256813, -0.12990768253803253, -0.03204352781176567, -0.019681384786963463, -0.0210746880620718, -0.10899931937456131, -0.08258359879255295, 0.05239683762192726, 0.08044356107711792, -0.13128699362277985, -0.0768645703792572, -0.12574081122875214, 0.009756170213222504, -0.03278527408838272, 0.04941362887620926, 0.02925845980644226, -0.21625052392482758, -0.031560156494379044, 0.08464803546667099, -0.07880761474370956, 0.1064515933394432, 0.004616915713995695], [0.2500222325325012, -0.0015981224132701755, -0.1140536442399025, -0.004667780362069607, 0.08247745782136917, -0.1942596137523651, 0.4597388505935669, -0.2409805804491043, 0.015308692120015621, -0.32281962037086487, -0.012663030065596104, 0.14511050283908844, -0.27937614917755127, -0.024132221937179565, -0.19189128279685974, 0.4395357370376587, -0.19737304747104645, 0.05079447478055954, 0.2811868488788605, -0.4037717282772064, 0.12427308410406113, -0.34497129917144775, -0.532412588596344, 0.019977249205112457, -0.39834606647491455, 0.35605838894844055, -0.2951067388057709, 0.1644059121608734, -0.27825361490249634, 0.3071155250072479, -0.39678066968917847, -0.754637598991394, -0.8266652226448059, -0.6551291346549988, -0.0016117756022140384, -0.6363739967346191, 0.007331859786063433, 0.3621863126754761, -0.011000861413776875, 0.32072484493255615, 0.07649889588356018, 0.12719833850860596, -0.34907516837120056, -0.1787639707326889, -0.7489501237869263, 0.2518559396266937, 0.18285128474235535, -0.2420998364686966, 0.06960541754961014, 0.06189236044883728, -0.17248530685901642, -0.1391279548406601, -0.04511187598109245, 0.2765929698944092, -0.12972719967365265, -0.4088713824748993, 0.4413425028324127, -0.11666044592857361, 0.13321949541568756, -0.18441487848758698, 0.23895059525966644, 0.14505763351917267, 0.528387725353241, 0.4775540232658386, 0.27916258573532104, 0.2159195840358734, -0.2708582580089569, -0.25347134470939636, -0.10924775153398514, -0.19110023975372314, -0.20863476395606995, -0.2413552701473236, -0.21742954850196838, 0.026987632736563683, 0.22797207534313202, 0.2113237977027893, -0.11655918508768082, -0.005078320857137442, 0.1431404948234558, 0.1927165389060974, 0.5121458172798157, 0.12330729514360428, -0.24686385691165924, 0.19049571454524994, 0.19358637928962708, 0.3057020306587219, -0.09401912987232208, -0.2423776090145111, 0.2593419551849365, 0.1844906061887741, -0.10936594754457474, 0.15426190197467804, 0.49627822637557983, 0.17412827908992767, -0.299808531999588, -0.1343582272529602, -0.011135416105389595, -0.21296294033527374, -0.4227644205093384, 0.09186067432165146, -0.7647113800048828, 0.05006140470504761, 0.021633313968777657, 0.2860497534275055, 0.09741982072591782, 0.18026499450206757, -0.05857207626104355, -0.16935867071151733, -0.1163591518998146, -0.0909721702337265, -0.8522017598152161, 0.03480657562613487, 0.16323606669902802, 0.21664376556873322, 0.16344648599624634, -0.20833930373191833, 0.04129154235124588, -0.29667407274246216, -0.3080090284347534, -0.02614024095237255, 0.17174409329891205, -0.11961784213781357, 0.08043737709522247, -0.5178955793380737, 0.46364232897758484, 0.15834534168243408, -0.37001535296440125, -0.04199406877160072, -0.07573021203279495, 0.09152927249670029, 0.13163231313228607, -0.07696234434843063, 0.02198297716677189, -0.19751952588558197, 0.08390535414218903, 0.2390654981136322, -0.5588470101356506, -0.050078634172677994, 0.25545358657836914, 0.09153617918491364, 0.28913891315460205, 0.42458266019821167, 0.5027401447296143, 0.0064474549144506454, -0.0349426344037056, 0.13460804522037506, 0.12216998636722565, -0.8220128417015076, -0.7915942072868347, 0.42798087000846863, 0.35172146558761597, 0.20636071264743805, 0.0493936613202095, 0.3525780737400055, 0.24662843346595764, -0.49726757407188416, -0.1784403771162033, -0.11121299117803574, 0.1367887258529663, -0.055290356278419495, -0.1373053342103958, -0.03714712709188461, -0.05496035888791084, -0.3272882401943207, -0.4151057004928589, 0.010607816278934479, 0.07786522805690765, -0.15430492162704468, -0.17315936088562012, -0.25536367297172546, 0.23309731483459473, 0.28410637378692627, 0.10755528509616852, -0.47934743762016296, -0.09417079389095306, -0.23403704166412354, 0.2989005446434021, -0.26133742928504944, 0.06193137168884277, 0.32188692688941956, 0.16188417375087738, -0.22389887273311615, 0.05429874360561371, 0.030854586511850357, 0.0919267013669014, 0.2669050693511963, -0.034038182348012924, -0.15803098678588867, 0.10053369402885437, 0.2048075944185257, -0.1611335575580597, 0.009311493486166, -0.41864827275276184, 0.3615361452102661, -0.04253802075982094, -0.8600943088531494, 0.011796439066529274, -0.39275914430618286, 0.055301234126091, -0.14164525270462036, 0.3393173813819885, 0.16599911451339722, 0.0050621940754354, 0.03603017330169678, 0.5478654503822327, 0.03581039607524872, -0.4377131760120392, 0.1708153486251831, 0.18647129833698273, 0.10100020468235016, 0.051987022161483765, -0.031300246715545654, 0.07269854843616486, 0.03379201889038086, -0.075592540204525, 0.13567794859409332, -0.13341520726680756, 0.34012290835380554, 0.09112608432769775, -0.05352567136287689, 0.5319209098815918, -0.13274018466472626, 0.2098129838705063, 0.11195952445268631, 0.22095957398414612, 0.1916709840297699, 0.1029885783791542, -0.05536952242255211, -0.4434787631034851, -0.15640686452388763, 0.44101426005363464, 0.25541648268699646, -0.04008113220334053, -0.004076432436704636, 0.6111232042312622, -0.37257689237594604, 0.09424750506877899, 0.30004918575286865, -0.12184515595436096, -0.37720274925231934, -0.36694571375846863, 0.06138543039560318, 0.1844131350517273, -0.03955155983567238, -0.09287885576486588, -0.0945872887969017, -0.24165061116218567, -0.01809662953019142, -0.11994569003582001, 0.17031602561473846, -0.09347635507583618, 0.08699681609869003, -0.10509464889764786, -0.2555665373802185, 0.13989314436912537, -0.33320844173431396], [-0.0018697804771363735, -0.10464678704738617, -0.2453380674123764, -0.17045564949512482, 0.012104161083698273, -0.11716055124998093, -0.0736149400472641, 0.14340588450431824, -0.2250029593706131, 0.05982594192028046, -0.1981983333826065, -0.016890116035938263, 0.15660622715950012, -0.11330712586641312, 0.009148459881544113, -0.19349271059036255, 0.25540903210639954, 0.15954998135566711, 0.10472322255373001, 0.17928139865398407, -0.06561148911714554, 0.19073687493801117, -0.09715929627418518, -0.11605287343263626, -0.2056930661201477, 0.18211138248443604, -0.19192402064800262, 0.1869463324546814, -0.09983537346124649, 0.010137095116078854, -0.055412039160728455, 0.18281146883964539, 0.07626723498106003, -0.12548620998859406, -0.0185053963214159, -0.20507054030895233, -0.1923009306192398, -0.09419064223766327, -0.32977157831192017, -0.32303309440612793, -0.0003685255069285631, -0.17366471886634827, -0.18070051074028015, -0.029314031824469566, -0.2098795771598816, 0.15940427780151367, -0.0675041452050209, -0.1997794359922409, -0.20360982418060303, 0.10938560217618942, -0.10836794227361679, 0.0030916810501366854, -0.12030176818370819, 0.08540599048137665, -0.12101408839225769, -0.10752123594284058, 0.0681702122092247, -0.0651940181851387, -0.08882221579551697, -0.08288074284791946, 0.04470858722925186, 0.03768877312541008, -0.11063200235366821, 0.04873902350664139, 0.05418750271201134, 0.15006250143051147, 0.04720422998070717, -0.15059085190296173, 0.030505264177918434, -0.09996572136878967, 0.06988365203142166, 0.01354366447776556, -0.11532102525234222, 0.030337214469909668, 0.002215885091573, 0.06214851513504982, 0.30443236231803894, -0.014022674411535263, 0.05406402051448822, 0.16689538955688477, 0.06370948255062103, 0.09271977096796036, 0.1185189038515091, -0.1430540680885315, -0.1597617268562317, -0.21414156258106232, 0.1513686329126358, -0.02652166597545147, -0.31811827421188354, 0.24852024018764496, 0.14017784595489502, 0.19132746756076813, -0.09186918288469315, -0.21101661026477814, -0.0006073752301745117, -0.04293233901262283, -0.10442863404750824, 0.01811850257217884, -0.16009072959423065, -0.06327547132968903, -0.07874314486980438, -0.15582230687141418, 1.0091678632306866e-05, 0.041747141629457474, 0.06706712394952774, -0.09418009966611862, -0.1167106181383133, -0.013489843346178532, -0.2160005122423172, -0.07063360512256622, -0.19255037605762482, -0.09005987644195557, -0.20243769884109497, 0.017618661746382713, 0.08120626211166382, -0.007251990959048271, -0.05096065253019333, -0.13795645534992218, -0.21698413789272308, -0.08087723702192307, -0.37993040680885315, -0.013302491046488285, 0.023038795217871666, -0.22153882682323456, -0.034225672483444214, -0.06212916597723961, 0.07990214973688126, 0.037500083446502686, -0.26993057131767273, -0.22595088183879852, 0.19686825573444366, -0.07324143499135971, -0.25863662362098694, -0.02466520667076111, 0.1699218451976776, 0.04218301549553871, 0.04781284183263779, 0.05021747201681137, -0.009205695241689682, -0.29908815026283264, 0.005859431345015764, -0.32275328040122986, -0.12413407117128372, 0.11807277798652649, 0.17769251763820648, -0.12428555637598038, 0.03807191923260689, -0.15516026318073273, 0.12336724251508713, 0.12889491021633148, 0.02746918424963951, 0.007885195314884186, 0.018254943192005157, -0.13599003851413727, 0.14409945905208588, 0.1667509824037552, 0.03398310765624046, -0.07171965390443802, -0.02723974920809269, -0.2437431812286377, -0.14335735142230988, -0.2595168352127075, -0.1507369875907898, -0.28129443526268005, -0.10439007729291916, 0.0018486212939023972, -0.17417044937610626, -0.11591465026140213, -0.252223938703537, -0.20227208733558655, -0.05844886228442192, -0.0025451520923525095, 0.09971108287572861, -0.1893600970506668, -0.05548635870218277, -0.06844287365674973, -0.11891358345746994, -0.026884255930781364, -0.07011831551790237, -0.0900890901684761, -0.14562228322029114, 0.07486933469772339, -0.038488730788230896, 0.051604367792606354, -0.14918281137943268, 0.016805527731776237, -0.028144195675849915, 0.06964340060949326, 0.007002761587500572, -0.11468377709388733, -0.27482613921165466, -0.16227638721466064, -0.1797674149274826, -0.29752835631370544, 0.2708875834941864, 0.10689171403646469, -0.08348583430051804, 0.1696142703294754, -0.043866947293281555, -0.08923663198947906, -0.09570976346731186, -0.12947534024715424, -0.09150869399309158, 0.029375402256846428, -0.19915412366390228, -0.19347794353961945, -0.088628388941288, 0.1889948546886444, 0.10928425192832947, -0.2998144328594208, -0.1342923641204834, 0.057846590876579285, -0.01238804031163454, -0.13177786767482758, -0.17832349240779877, 0.031936127692461014, -0.14854788780212402, -0.11439026892185211, 0.14836767315864563, -0.18595795333385468, -0.18035803735256195, -0.18757233023643494, -0.13797950744628906, -0.06102709844708443, 0.06040789559483528, -0.0394752211868763, 0.16170504689216614, -0.12189362198114395, 0.07060656696557999, -0.10098447650671005, -0.2887954115867615, -0.27335411310195923, -0.03825567662715912, -0.13301149010658264, 0.025043629109859467, 0.038169145584106445, 0.13630592823028564, -0.08717911690473557, -0.12832187116146088, -0.30199068784713745, 0.17216354608535767, 0.03613167628645897, 0.1765325367450714, 0.08016177266836166, 0.12154820561408997, -0.10054806619882584, 0.21530479192733765, 0.11045914143323898, -0.07336761802434921, -0.06738168746232986, 0.04179280251264572, 0.07698407024145126, -0.02313399687409401, -0.08760835230350494, -0.12770459055900574, -0.1468513160943985], [0.021578103303909302, -0.09856748580932617, 0.19932334125041962, 0.07405412197113037, -0.1279047280550003, -0.28311532735824585, -0.019219432026147842, -0.1725524514913559, -0.10291676968336105, -0.08847527205944061, 0.39316925406455994, 0.09025928378105164, -0.3443116247653961, -0.20888982713222504, 0.06254437565803528, 0.19917577505111694, -0.18235930800437927, 0.05325782299041748, -0.4593227803707123, -0.22994035482406616, 0.11828666180372238, -0.09662692993879318, -0.06075790524482727, 0.2839050889015198, 0.13991312682628632, 0.20322969555854797, 0.38893622159957886, -0.004987037740647793, -0.11837201565504074, -0.1705658882856369, -0.35248255729675293, -0.05852709710597992, -0.1970512419939041, -0.05481811985373497, 0.005121687892824411, -0.2097400426864624, -0.1653316617012024, 0.10926570743322372, 0.2320123165845871, -0.19521819055080414, 0.11251074820756912, -0.031879451125860214, -0.04738149791955948, 0.023695940151810646, 0.23036085069179535, 0.09663800150156021, -0.1802297830581665, 0.036198943853378296, 0.25226151943206787, -0.0838487297296524, -0.23517124354839325, 0.1416875272989273, 0.150444895029068, 0.07772485911846161, -0.26556727290153503, -0.2656828463077545, -0.10559166967868805, 0.07526601105928421, -0.02803908661007881, 0.0495264008641243, -0.059426527470350266, -0.1329329013824463, 0.10250013321638107, 0.15032759308815002, 0.1559290587902069, 0.23735971748828888, -0.6335092186927795, 0.15337489545345306, -0.2182866334915161, 0.11580850929021835, -0.050729479640722275, 0.3284611999988556, -0.5246901512145996, 0.22260305285453796, -0.4674248993396759, -0.02169431373476982, -0.36986905336380005, -0.41073551774024963, -0.019960220903158188, -0.0014868322759866714, 0.1032150536775589, 0.020281599834561348, 0.3207252323627472, -0.2630137503147125, -0.17715220153331757, 0.038089483976364136, -0.21392494440078735, -0.1251876950263977, 0.12101002782583237, 0.07216455787420273, 0.04766025021672249, -0.0650913417339325, -0.3561035692691803, -0.067621149122715, -0.13460776209831238, 0.143413707613945, 0.10127247869968414, -0.03980186581611633, -0.30316582322120667, -0.25788313150405884, 0.2045607715845108, 0.0944594293832779, -0.05699913948774338, 0.1801161766052246, -0.09879349172115326, 0.18746913969516754, -0.3858932554721832, 0.045776259154081345, 0.2877606749534607, 0.07216992974281311, -0.133734792470932, 0.35706284642219543, -0.12765251100063324, -0.19542089104652405, -0.01959836855530739, -0.2997775077819824, -0.17607146501541138, 0.19297932088375092, 0.019918378442525864, 0.1770550012588501, -0.08475083112716675, 0.4723471999168396, -0.6814709901809692, 0.1535254567861557, 0.14813895523548126, -0.15292911231517792, 0.0264582522213459, -0.16946586966514587, -0.04043756052851677, 0.029576243832707405, -0.19528734683990479, -0.18370673060417175, -0.049955662339925766, -0.08828961104154587, -0.3310382664203644, -0.14624959230422974, 0.1709708571434021, -0.09929496794939041, -0.06674923747777939, 0.18535323441028595, 0.03919330611824989, 0.0893198549747467, -0.07366079092025757, -0.07893307507038116, -0.08029721677303314, 0.22450752556324005, -0.11638869345188141, 0.3060961067676544, -0.17683613300323486, -0.258961021900177, -0.05475790798664093, -0.15289898216724396, 0.0034247904550284147, -0.3064666986465454, -0.016219090670347214, 0.07582556456327438, -0.2083916813135147, 0.29096636176109314, -0.053938694298267365, 0.43468594551086426, -0.4533645212650299, 0.023178718984127045, -0.3087228238582611, 0.0014269286766648293, -0.13487738370895386, -0.49082738161087036, 0.2025969922542572, -0.14125891029834747, 0.09611929953098297, 0.14747287333011627, 0.04563109949231148, 0.11668795347213745, -0.10569944977760315, -0.18028776347637177, 0.08164920657873154, -0.14525830745697021, 0.1701289266347885, -0.18853068351745605, 0.37257304787635803, -0.004353419877588749, 0.018524426966905594, 0.1163351982831955, -0.06100444123148918, 0.03531525284051895, -0.11796156316995621, 0.003234711941331625, -0.04352228716015816, 0.14339204132556915, -0.18474940955638885, -0.07188041508197784, 0.1541995108127594, 0.034050051122903824, -0.5322397351264954, -0.2766919434070587, -0.25105488300323486, -0.050715912133455276, 0.23293860256671906, -0.006614925339818001, -0.3007391691207886, -0.05372682958841324, 0.16245277225971222, -0.02827245183289051, -0.3568075895309448, 0.2796498239040375, -0.3526197671890259, -0.1687319576740265, 0.040714338421821594, 0.14766934514045715, -0.08652222901582718, -0.20098336040973663, 0.10676891356706619, 0.14979492127895355, -0.14340242743492126, 0.014342175796627998, 0.13106589019298553, -0.0749853178858757, -0.2574884593486786, -0.12472119927406311, -0.11027026921510696, -0.3182504177093506, -0.11337736248970032, -0.1751968264579773, -0.3253498375415802, -0.01965249329805374, -0.11437279731035233, -0.014784752391278744, -0.0645611584186554, 0.18659204244613647, 0.1977582424879074, 0.07603063434362411, -0.10360405594110489, 0.29757362604141235, -0.021777251735329628, 0.10912490636110306, -0.12211769074201584, 0.03772466629743576, -0.32640036940574646, 0.00962053518742323, -0.041809700429439545, -0.12257341295480728, -0.20438022911548615, 0.0984499603509903, 0.04003655165433884, -0.5753812193870544, 0.2214554250240326, 0.11063099652528763, 0.06680070608854294, -0.10566434264183044, -0.11740022897720337, -0.13011570274829865, 0.1955632120370865, -0.010971512645483017, -0.48654454946517944, 0.12299862504005432, -0.24994082748889923, -0.19615773856639862], [0.047135401517152786, -0.050396084785461426, -0.28767871856689453, -0.06324315816164017, 0.02287493832409382, -0.07434340566396713, 0.05348581820726395, 0.11490841209888458, -0.003687218064442277, 0.18326157331466675, -0.18904875218868256, -0.12186199426651001, 0.1796531081199646, -0.016795845702290535, 0.1868869811296463, -0.17673300206661224, 0.08216549456119537, 0.2352123260498047, 0.2629716694355011, 0.04097637161612511, 0.14015278220176697, 0.10619037598371506, 0.06040455773472786, -0.21922586858272552, -0.14523522555828094, 0.1649073362350464, -0.2960376739501953, 0.06133287027478218, -0.1304992437362671, 0.1396879106760025, -0.017926666885614395, 0.15982051193714142, 0.0005608908832073212, 0.03958093002438545, 0.020906446501612663, -0.09541935473680496, -0.24449753761291504, -0.019619883969426155, -0.27602002024650574, -0.17278914153575897, -0.06508637964725494, -0.2187943458557129, 0.01062939316034317, -0.14900027215480804, -0.17648489773273468, 0.07624969631433487, -0.3280389606952667, -0.07915893942117691, -0.07621248066425323, 0.15961553156375885, -0.074485182762146, -0.18820041418075562, -0.14644306898117065, -0.16352835297584534, -0.04577872157096863, -0.10206201672554016, 0.0580226331949234, -0.11032838374376297, -0.006045718211680651, -0.07639310508966446, 0.05333143100142479, 0.06882689148187637, -0.08332347124814987, 0.006486888509243727, 0.3385455906391144, 0.05540727078914642, 0.09620904177427292, -0.0392141230404377, 0.14064157009124756, 0.12208621203899384, -0.04502424597740173, -0.12904098629951477, -0.057832613587379456, 0.16522687673568726, 0.034972190856933594, 0.08526322990655899, 0.1776626855134964, 0.03067544847726822, 0.30774205923080444, 0.04080944508314133, 0.16102638840675354, 0.24673068523406982, 0.20951668918132782, -0.07252156734466553, -0.15285730361938477, -0.20750115811824799, 0.22838406264781952, -0.031064143404364586, -0.10584551841020584, 0.209828183054924, -0.01883247122168541, 0.09817352890968323, -0.13465334475040436, -0.0492795929312706, -0.02768561989068985, -0.0947723388671875, -0.14821453392505646, 0.039248570799827576, -0.13919393718242645, 0.011072930879890919, -0.0719534307718277, -0.21200016140937805, 0.094634048640728, -0.11404909938573837, 0.1551065593957901, 0.03991817682981491, -0.12267757952213287, 0.003337554633617401, -0.2516328692436218, 0.014549768529832363, -0.06718547642230988, 0.08547776937484741, -0.1420983523130417, 0.07483300566673279, -0.0021910315845161676, 0.09329954534769058, -0.08626070618629456, -0.14120669662952423, -0.12003062665462494, 0.05999614670872688, -0.2348593771457672, -0.03325081989169121, -0.14227570593357086, -0.3803516626358032, -0.14689667522907257, -0.16808973252773285, 0.22827400267124176, 0.1224290281534195, -0.20939895510673523, -0.3378755450248718, 0.14355847239494324, -0.34300363063812256, -0.13338284194469452, -0.03964117914438248, 0.024202341213822365, 0.043428145349025726, -0.04218309000134468, -0.015833349898457527, 0.09004638344049454, -0.2911331355571747, 0.06433022767305374, -0.3607853651046753, -0.04232234135270119, 0.047854095697402954, 0.07891257107257843, -0.16128885746002197, -0.13792669773101807, -0.11637267470359802, 0.0011685825884342194, 0.2372896671295166, 0.013293581083416939, 0.15893101692199707, 0.20275482535362244, -0.14361931383609772, 0.17199592292308807, 0.07425002753734589, 0.04852048680186272, 0.058488018810749054, 0.21724499762058258, -0.4756842851638794, -0.0853869840502739, -0.34738731384277344, -0.03609812259674072, -0.22807590663433075, -0.018649663776159286, -0.19501452147960663, -0.1193552017211914, -0.09460940957069397, -0.18722081184387207, -0.14196144044399261, -0.1618962287902832, 0.020040608942508698, 0.17373575270175934, -0.012939708307385445, 0.09475333243608475, 0.02457015961408615, -0.30567213892936707, 0.01863439939916134, -0.19011056423187256, -0.22599247097969055, -0.11339358240365982, 0.09332315623760223, -0.05586867406964302, 0.05887298658490181, 0.024691598489880562, 0.07865355908870697, -0.23267288506031036, 0.005109960678964853, -0.0959806814789772, -0.027874324470758438, -0.22730125486850739, -0.06263310462236404, 0.01928197778761387, -0.21985071897506714, 0.2679763734340668, -0.02310584858059883, -0.11363554000854492, 0.18375393748283386, 0.016852708533406258, 0.04244667664170265, -0.05271206796169281, 0.11246687918901443, -0.0025822746101766825, 0.007814082317054272, -0.25878196954727173, -0.2849479615688324, -0.025186536833643913, -0.011969284154474735, 0.003937774337828159, -0.30531781911849976, -0.19458338618278503, 0.03898254781961441, 0.11038975417613983, -0.037227813154459, -0.16306288540363312, 0.030580025166273117, -0.05900490656495094, 0.0901230052113533, 0.21146468818187714, -0.035200122743844986, 0.014767125248908997, -0.1327500343322754, -0.1499365270137787, -0.11290963739156723, -0.09834116697311401, -0.024971308186650276, 0.15956467390060425, -0.2530467212200165, -0.0663021132349968, -0.02848523110151291, -0.4199969172477722, -0.2812942862510681, 0.03448563441634178, -0.2312106043100357, 0.051746662706136703, -0.10947088152170181, 0.22055885195732117, -0.010696174576878548, 0.01664145290851593, -0.4231346845626831, 0.05640055239200592, -0.005628806073218584, 0.07459362596273422, 0.13247935473918915, 0.12382867932319641, -0.06033219024538994, 0.21506310999393463, 0.04494646564126015, -0.01226097159087658, -0.04593142122030258, 0.13943298161029816, 0.18672138452529907, 0.09473468363285065, 0.018549075350165367, -0.029942823573946953, -0.10575385391712189], [-0.7065712213516235, -0.37295693159103394, 0.04840722680091858, -0.5217604637145996, 0.3116268217563629, 0.37580472230911255, 0.43284204602241516, -0.12134608626365662, -0.05911676958203316, -0.5403937697410583, -0.05049607902765274, 0.3705833852291107, -0.11432884633541107, 0.34512877464294434, -1.9813573360443115, -0.14937449991703033, 0.08687706291675568, -0.16952764987945557, 0.11608080565929413, 0.1418805718421936, 0.17803993821144104, -1.6935323476791382, 0.28530019521713257, -0.3682054281234741, -0.07733764499425888, -2.870872974395752, -0.09646044671535492, -1.934654951095581, 0.09130669385194778, 0.12390348315238953, -0.12887534499168396, -0.8627296686172485, -1.3881405591964722, -0.2622639536857605, -1.7658944129943848, 0.4702816903591156, -0.04887400195002556, -0.9478093981742859, 0.24159252643585205, 0.2146054357290268, -1.0947175025939941, 0.23222702741622925, 0.1401389241218567, 0.07537544518709183, 0.23178289830684662, -2.8238844871520996, -0.21728305518627167, 0.2233809530735016, 0.5313112139701843, 0.1638280749320984, -0.15256279706954956, -0.10873553156852722, 0.323910117149353, 0.20515866577625275, -0.033176157623529434, 0.38350823521614075, -1.5373181104660034, -1.4117021560668945, 0.5010533928871155, 0.19730103015899658, -1.2173219919204712, 0.1575707644224167, 0.12233654409646988, -0.035743553191423416, 0.11304948478937149, -0.5473272800445557, 0.2832942008972168, 0.1491871178150177, 0.07967154681682587, -0.30100151896476746, 0.04257771372795105, 0.19020375609397888, 0.11260983347892761, -0.25804394483566284, 0.11657900363206863, -1.0426143407821655, 0.08351972699165344, 0.12876182794570923, -0.08798550069332123, -2.703669309616089, -0.14251814782619476, 0.48286229372024536, -1.051007866859436, 0.0564371757209301, 0.40028196573257446, 0.26337680220603943, -0.23355305194854736, 0.050757963210344315, -0.3059708774089813, 0.16830678284168243, -0.8799412250518799, 0.1766139268875122, -0.7673625946044922, 0.2527683675289154, 0.11476556211709976, 0.2535792291164398, 2.8350582122802734, -2.1174211502075195, 0.3220837414264679, -0.0724921002984047, -0.22065715491771698, -0.12838084995746613, 0.6338547468185425, 0.17456217110157013, -0.8365674614906311, 0.12914492189884186, 0.30260148644447327, 0.20353707671165466, -0.26433730125427246, 0.28674501180648804, 0.4788013696670532, 0.061267249286174774, 0.025419088080525398, -0.1689620316028595, -1.8889133930206299, 0.04507221654057503, 0.11685722321271896, -0.1448574811220169, 0.12719155848026276, 0.334812730550766, 0.2780326008796692, -2.663896083831787, -0.030794678255915642, 0.33891287446022034, -0.09960082173347473, -1.1218332052230835, -1.8058606386184692, 0.28578823804855347, 0.27646404504776, 0.24663953483104706, -0.055724386125802994, 0.05416267737746239, 0.6412823796272278, -0.06017618626356125, 0.22543245553970337, 0.37478843331336975, -0.8341520428657532, 0.34080371260643005, -0.12439391016960144, 0.11391767859458923, 0.18895035982131958, 0.8849289417266846, 0.02517060935497284, -0.04745812341570854, -1.4882808923721313, -0.22741608321666718, 0.1858700066804886, -0.2587110102176666, 0.025866471230983734, -0.5189321637153625, -0.39412808418273926, 0.6038550138473511, 0.3545494079589844, 0.505251407623291, 0.21975117921829224, -2.5487892627716064, 0.1899491250514984, -0.33947744965553284, 0.09917198866605759, 0.539683997631073, -0.26865172386169434, 0.20831722021102905, -0.19789183139801025, 0.11100316047668457, 0.12887956202030182, 0.1735154092311859, -0.12525369226932526, -0.9335954189300537, 0.2548551857471466, 0.19993966817855835, 0.25331708788871765, 0.004039467312395573, -1.2646129131317139, -0.042814452201128006, 0.1869242936372757, -0.40069812536239624, 0.12102119624614716, 0.37697526812553406, -0.2174399048089981, 0.09647766500711441, 0.470394104719162, -2.948347330093384, 0.1590494066476822, 0.008379649370908737, 0.4811280071735382, -0.03967871144413948, 0.45613884925842285, 0.44250136613845825, 0.19909287989139557, 1.4413838386535645, -0.7744413018226624, 0.4401110112667084, 0.33067935705184937, -0.005898791365325451, -1.461399793624878, -1.697031855583191, -1.1284775733947754, -2.8879623413085938, 0.11697293817996979, 0.08246227353811264, 0.1472863405942917, 0.012661377899348736, 0.2917284071445465, 0.1530679166316986, -0.0012988981325179338, 0.0004255810345057398, -1.2304617166519165, -2.5773985385894775, 0.27431032061576843, 0.21496503055095673, -0.1445603370666504, -1.6605346202850342, 0.05872790142893791, 0.3474358320236206, 0.3982970416545868, -0.011372646316885948, 0.26928192377090454, 0.05688554048538208, 0.16968102753162384, 0.1323530673980713, 0.21939237415790558, 0.21189871430397034, -0.07768771797418594, 0.2028914988040924, 0.3970167636871338, -0.10709915310144424, -0.16132500767707825, 0.009898219257593155, -0.13751783967018127, -0.5622336864471436, 0.02681327424943447, 0.282213419675827, 0.0803489238023758, 0.2599915564060211, 0.01034408900886774, 0.28731346130371094, 0.1596701294183731, -0.05335761234164238, 0.04225577041506767, -0.06356612592935562, -1.4288411140441895, 0.11926639825105667, -2.5350968837738037, 0.4431828558444977, -0.09148022532463074, 0.33247503638267517, -2.3208541870117188, -0.10082679986953735, -0.25977668166160583, 0.6828455924987793, -0.1524612009525299, 0.6021683812141418, 0.2581213712692261, 0.6366616487503052, 0.3349263370037079, 0.13935157656669617], [-0.04500012472271919, -0.03429945930838585, -0.0009069329244084656, 0.05069350451231003, -0.07668690383434296, -0.08045060932636261, 0.073956698179245, 0.017728935927152634, -0.029192110523581505, 0.0723181888461113, 0.08905190229415894, 0.02992900088429451, -0.08184148371219635, -0.0053207227028906345, -0.015675261616706848, 0.07962215691804886, 0.04864053055644035, 0.013539359904825687, 0.04272393509745598, -0.03182848170399666, -0.07081061601638794, -0.06240979954600334, 0.01943155564367771, 0.0065598925575613976, -0.07712940126657486, -0.052312083542346954, -0.05085880309343338, 0.005752780940383673, -0.08696091175079346, 0.02251138910651207, -0.022853804752230644, -0.04961000755429268, 0.07613934576511383, -0.05839548259973526, 0.06660361588001251, 0.01762586459517479, 0.04147011414170265, -0.048916593194007874, 0.06308159977197647, 0.02949483133852482, -0.06762119382619858, 0.07191567867994308, 0.07840491086244583, 0.041242815554142, 0.0305191557854414, 0.02174755372107029, 0.05157071724534035, -0.06637618690729141, 0.01927054673433304, -0.03512563556432724, -0.03142540156841278, 0.06802541762590408, 0.0032840927597135305, -0.037232156842947006, 0.07384315133094788, -0.046657487750053406, 0.0732451006770134, 0.037613458931446075, 0.0685344710946083, 0.03570874407887459, 0.003591503482311964, 0.08533018082380295, 0.07839266210794449, -0.0131230428814888, 0.02869528904557228, -0.031064890325069427, -0.0618709996342659, 0.08282632380723953, -0.007629238534718752, 0.01880716346204281, 0.07668188214302063, 0.0016407957300543785, 0.0679628923535347, 0.005653489846736193, 0.05751115828752518, 0.07358291745185852, 0.062100764364004135, -0.009143865667283535, 0.04332374781370163, 0.06245284155011177, 0.051716148853302, 0.058493271470069885, -0.013488002121448517, 0.013712440617382526, 0.06969042122364044, 0.006582992617040873, -0.07288547605276108, 0.013267898932099342, 0.08094488829374313, -0.0029558720998466015, 0.0594588927924633, -0.07410737127065659, 0.017099907621741295, 0.011907260864973068, -0.060167957097291946, 0.027990169823169708, -0.02944457344710827, -0.010706320405006409, -0.0037903522606939077, -0.022548740729689598, 0.06615913659334183, 0.08533421158790588, -0.062149833887815475, 0.05257130786776543, -0.015736356377601624, -0.01951085962355137, 0.04403906315565109, 0.08042864501476288, 0.052139002829790115, 0.044623736292123795, -0.005379705689847469, -0.0665271133184433, -0.033810630440711975, 0.012493513524532318, -0.043851494789123535, 0.031892865896224976, -0.05688023939728737, -0.08290497213602066, 0.04595180228352547, -0.02079472877085209, 0.037395067512989044, 0.03228430449962616, -0.048163317143917084, 0.07724754512310028, 0.0035077864304184914, 0.08155275136232376, 0.037475407123565674, 0.0388089194893837, -0.00043615276808850467, 0.023510802537202835, -0.07057951390743256, -0.02270222268998623, -0.08143559843301773, -0.06755495816469193, 0.012782493606209755, -0.06904329359531403, -0.044303830713033676, -0.06489299237728119, 0.09073229134082794, 0.020971521735191345, -0.008972384966909885, -0.07135896384716034, 0.031471624970436096, 0.07431306689977646, -0.0330246202647686, 0.07151592522859573, 0.04502950236201286, -0.061120547354221344, -0.06712248176336288, 0.02982374094426632, 0.012219252064824104, 0.027329882606863976, 0.05680793896317482, -0.06920842081308365, -0.088880755007267, 0.07205129414796829, -0.020473167300224304, -0.08005643635988235, 0.060333479195833206, -0.0024340718518942595, 0.08174721151590347, 0.03659253567457199, -0.08783672004938126, -0.015473566949367523, -0.017592737451195717, 0.05412314459681511, -0.021478304639458656, 0.0783006027340889, -0.08335410803556442, 0.08440086245536804, -0.060776498168706894, 0.04637685790657997, -0.08495856076478958, 0.017547639086842537, -0.03411947563290596, -0.04102080315351486, 0.08201124519109726, -0.056311529129743576, 0.06310683488845825, -0.03259757533669472, -0.054749995470047, -0.07336259633302689, -0.01565907523036003, -0.022645151242613792, 0.052200790494680405, -0.01804976351559162, -0.05299428477883339, 0.062080010771751404, -0.03659839555621147, -0.07376622408628464, 0.042836274951696396, 0.08516863733530045, -0.023510035127401352, -0.015143412165343761, 0.029069652780890465, 0.012354537844657898, -0.06947658956050873, -0.08240193128585815, -0.016139034181833267, 0.013182858936488628, -0.04163811355829239, -0.023567117750644684, 0.08451617509126663, -0.0715952068567276, 0.029310565441846848, 0.02717369794845581, -0.01000306848436594, 0.06639888882637024, -0.04973115399479866, 0.016800276935100555, -0.06743944436311722, 0.05904464051127434, 0.042756713926792145, 0.009179559536278248, -0.06757040321826935, 0.07685942947864532, -0.0392342209815979, -0.03232455626130104, -0.029791124165058136, -0.010241657495498657, -0.0012492677196860313, -0.0866316631436348, 0.011176740750670433, -0.00881335511803627, -0.07908771932125092, 0.016729066148400307, 0.05795704200863838, -0.0027484861202538013, 0.04264331981539726, -0.08304233849048615, -0.08980651944875717, -0.04963933303952217, 0.07913362979888916, 0.017204733565449715, 0.01561051793396473, 0.05405634641647339, 0.06409158557653427, -0.03588709607720375, -0.002705765888094902, -0.05098220705986023, -0.051126886159181595, 0.05006987974047661, 0.07089453190565109, -0.07644454389810562, 0.031594958156347275, -0.06208828091621399, -0.08680051565170288, 0.03368296101689339, -0.03738794103264809, -0.04570099711418152, 0.08731679618358612, 0.04655291885137558, -0.017284594476222992, 0.004272453486919403, 0.013967449776828289, 0.015532058663666248], [0.054365046322345734, -0.0064119454473257065, -0.07011886686086655, 0.0700829029083252, -0.05053476244211197, 0.011302344501018524, 0.07715156674385071, 0.025095567107200623, 0.055859871208667755, 0.0014907809672877192, 0.06316037476062775, -0.02777182310819626, 0.025732610374689102, 0.01789526827633381, -0.011172294616699219, 0.044641487300395966, 0.02207387238740921, -0.027118105441331863, 0.00769102293998003, -0.010256387293338776, -0.07500891387462616, 0.010172136127948761, 0.056153807789087296, 0.022587981075048447, 0.026745963841676712, -0.08525624126195908, 0.06356238573789597, -0.016374044120311737, 0.08421105146408081, 0.048356931656599045, 0.010578637942671776, 0.09010908752679825, 0.07437097281217575, -0.029867883771657944, -0.08898400515317917, 0.07751152664422989, 0.06729597598314285, -0.05041744187474251, -0.06857292354106903, -0.038379330188035965, -0.0253007635474205, -0.08484790474176407, 0.08558041602373123, -0.009784754365682602, -0.03588360548019409, 0.058046095073223114, 0.06405485421419144, 0.05052481219172478, -0.016895022243261337, 0.007644101046025753, -0.02607390470802784, 0.06293250620365143, -0.08457949012517929, 0.029297804459929466, 0.03109326958656311, -0.02958066016435623, -0.08584250509738922, 0.08521588891744614, 0.07189126312732697, -0.03570535406470299, -0.05998960882425308, -0.06331415474414825, -0.08580530434846878, -0.06165557727217674, -0.008705081418156624, -0.045030627399683, -0.07193145900964737, 0.05453434959053993, -0.027039067819714546, -0.034129902720451355, 0.09226479381322861, 0.005410586949437857, 0.07967199385166168, -0.048295289278030396, 0.07535990327596664, 0.0642736628651619, 0.061197951436042786, -0.08987932652235031, -0.07590733468532562, 0.008984046056866646, 0.006449996493756771, 0.03767004236578941, -0.007701227907091379, -0.06390395015478134, -0.043440081179142, -0.04255972430109978, 0.002483850810676813, 0.06641628593206406, 0.004098082892596722, 0.03844863921403885, -0.06002432480454445, -0.07746638357639313, -0.08369658142328262, 0.06075544282793999, -0.06966065615415573, -0.07411031424999237, 0.006297425366938114, 0.04569144919514656, 0.002577205654233694, 0.03330937400460243, -0.015413994900882244, -0.007175036706030369, -0.0881304144859314, 0.06751072406768799, 0.03192312270402908, 0.0074635944329202175, 0.07968555390834808, -0.03721024841070175, 0.0008827437995932996, 0.030269460752606392, -0.07360267639160156, 0.028981678187847137, 0.044510748237371445, -0.0006970233516767621, 0.0007553951581940055, -0.07091966271400452, 0.026424668729305267, -0.04767065495252609, -0.007998894900083542, 0.01275784894824028, -0.038940683007240295, -0.031640924513339996, 0.07578477263450623, 0.08082251250743866, 0.013809152878820896, 0.0036470741033554077, -0.03765369951725006, -0.046878982335329056, 0.05634905770421028, 0.02950816974043846, -0.08311110734939575, 0.09140639752149582, -0.02196699008345604, 0.045847274363040924, -0.08154003322124481, -0.031234880909323692, 0.004327479284256697, -0.08294251561164856, 0.008047073148190975, 0.025336381047964096, -0.08572083711624146, -0.06728925555944443, 0.017402494326233864, -0.08442410826683044, -0.00861246045678854, 0.08298009634017944, 0.02703210897743702, 0.012087834998965263, -0.020437493920326233, -0.04293060675263405, -0.05436545982956886, 0.056917522102594376, 0.07805851101875305, -0.07087822258472443, 0.05913342908024788, 0.01931908167898655, 0.07756085693836212, 0.05811014771461487, 0.016928914934396744, 0.07636280357837677, -0.06894907355308533, 0.050722382962703705, -0.07444464415311813, -0.09214398264884949, 0.06840555369853973, -0.0719967931509018, 0.03453342616558075, -0.02959224209189415, 0.030531438067555428, -0.026638558134436607, -0.08706194907426834, 0.06351377815008163, 0.01087865699082613, -0.05281217396259308, 0.05858301371335983, -0.020395707339048386, 0.07278579473495483, -0.009564006701111794, -0.031104013323783875, 0.050062395632267, -0.016790784895420074, -0.0902261883020401, -0.03066544607281685, -0.06750141084194183, 0.006359342951327562, 0.08154921978712082, -0.06669344007968903, 0.04786991328001022, -0.05928335338830948, -0.04161343351006508, 0.07417302578687668, 0.03176083788275719, -0.04526856169104576, 0.0919504389166832, 0.0069471742026507854, 0.027800124138593674, 0.08025752007961273, 0.07621943950653076, -0.07456573843955994, -0.021572181954979897, -0.055875424295663834, 0.08245335519313812, -0.0762084573507309, -0.046271540224552155, -0.00607685511931777, -0.009796182624995708, 0.04165691137313843, 0.031366072595119476, 0.07717772573232651, 0.035421375185251236, 0.05644593387842178, -0.03857861086726189, -0.06588844954967499, -0.03511526435613632, -0.020861893892288208, 0.02392069436609745, 0.0669756606221199, -0.019100166857242584, 0.031106742098927498, -0.08466450870037079, -0.07006917893886566, 0.07552666962146759, -0.024716567248106003, 0.04218125715851784, -0.007113530300557613, -0.01924786902964115, -0.008029920980334282, -0.03865205869078636, 0.035907816141843796, -0.0621274895966053, 0.031144794076681137, -0.08501525223255157, 0.08292602747678757, 0.02995435707271099, 0.04877393692731857, 0.009189864620566368, -0.03467613831162453, 0.05891525000333786, 0.01128976047039032, -0.06251790374517441, 0.048357509076595306, -0.08089012652635574, -0.06606515496969223, 0.003648463636636734, -0.06133066862821579, -0.06172873452305794, -0.06403324007987976, -0.04590073600411415, -0.08938351273536682, 0.030781401321291924, -0.08179111033678055, -0.05696392059326172, 0.07060575485229492, -0.024957014247775078, -0.057136546820402145, -0.028214074671268463], [0.08140561729669571, -0.06244530528783798, -0.0790957361459732, 0.05152944102883339, 0.08913294970989227, 0.0815771073102951, -0.05179516598582268, 0.03545287996530533, -0.033884499222040176, 0.0194386038929224, -0.07183133810758591, 0.03204095736145973, -0.018781162798404694, -0.055394262075424194, 0.09038911014795303, -0.025302741676568985, 0.06534522026777267, -0.017564380541443825, 0.03957262262701988, -0.017820779234170914, -0.025068731978535652, 0.03274232894182205, 0.030688757076859474, -0.05756672844290733, -0.06921632587909698, -0.07522924989461899, -0.0899500772356987, 0.044734254479408264, -0.04650760814547539, -0.034068986773490906, -0.0007069169078022242, -0.07324936985969543, -0.01343730092048645, -0.07375813275575638, -0.06880071759223938, -0.06919532269239426, -0.06059471517801285, 0.062221478670835495, -0.04881186783313751, 0.01670762337744236, 0.005349914077669382, -0.03351937234401703, -0.032310761511325836, 0.08129337430000305, 0.0727938637137413, -0.04951759800314903, -0.06094091013073921, 0.004655977711081505, -0.023231882601976395, -0.08931861817836761, 0.02792276069521904, 0.0008616894483566284, 0.040453169494867325, -0.003460742300376296, -0.09195360541343689, 0.04949244111776352, -0.012669418938457966, -0.07878474146127701, -0.00777461938560009, -0.06488312035799026, -0.07880959659814835, -0.0072660017758607864, 0.0413697324693203, 0.020375799387693405, -0.0160928126424551, -0.020686188712716103, -0.018185550346970558, -0.04456517472863197, -0.04971621185541153, 0.06312276422977448, -0.04035607725381851, -0.026377279311418533, -0.07197946310043335, 0.06718064844608307, 0.014869984239339828, -0.008562237024307251, 0.09191194176673889, 0.049080703407526016, -0.02654688060283661, -0.05787648260593414, -0.03178970515727997, -0.06225551664829254, 0.03634129464626312, 0.07820945978164673, -0.08431869000196457, 0.03195742890238762, -0.03127777576446533, -0.0626436173915863, 0.03800058364868164, -0.03711334615945816, 0.05308908224105835, 0.009413325227797031, -0.04281020909547806, 0.09196749329566956, 0.033183448016643524, -0.014670334756374359, -0.027948128059506416, 0.062244582921266556, 0.008328238502144814, 0.013261851854622364, -0.09054828435182571, -0.044374339282512665, 0.025611821562051773, -0.08348047733306885, 0.022900471463799477, -0.08890820294618607, 0.06371144205331802, 0.070230633020401, 0.06392859667539597, -0.07520230859518051, -0.0011611374793574214, 0.07546886801719666, -0.020152917131781578, 0.04569024592638016, 0.004582698922604322, -0.0768381655216217, 0.04019104689359665, 0.05917252600193024, 0.0811864361166954, -0.03212517499923706, -0.05505988374352455, -0.0820501521229744, -0.018661584705114365, 0.05884477123618126, 0.005405784584581852, 0.07395584136247635, 0.08832958340644836, 0.04783707484602928, 0.07651419192552567, -0.06782937049865723, -0.02491857297718525, -0.07175303250551224, -0.07479853183031082, 0.08503136038780212, -0.047908131033182144, 0.038825683295726776, 0.022102564573287964, -0.08902022242546082, 0.03539431840181351, -0.01017429307103157, -0.06426919996738434, -0.029704606160521507, 0.06768704950809479, 0.039760932326316833, -0.004496380686759949, 0.0886232927441597, 0.08311406522989273, 0.026480138301849365, 0.045316003262996674, 0.04163811355829239, 0.05731609836220741, -0.08817720413208008, -0.04885413125157356, 0.052278924733400345, -0.04817552492022514, 0.0032711199019104242, 0.0884053111076355, 0.004394043702632189, 0.03925396129488945, -0.07567951828241348, 0.05716082453727722, -0.042071837931871414, 0.036852192133665085, -0.0172515120357275, -0.06296152621507645, 0.06796935945749283, -0.02989969775080681, 0.05307714268565178, -0.056721609085798264, 0.05023641139268875, 0.007844089530408382, -0.0837961956858635, 0.05169067159295082, 0.045738402754068375, -0.013223578222095966, 0.019919484853744507, 0.033150944858789444, 0.06957681477069855, -0.03867006674408913, -0.03491801768541336, -0.001972833415493369, -0.0391518697142601, -0.06379728019237518, -0.08547184616327286, 0.02262396365404129, -0.06036942079663277, 0.07416152954101562, 0.0051165493205189705, 0.025662288069725037, 0.060858871787786484, -0.0046358127146959305, -0.006292989943176508, -0.036178506910800934, 0.05323103815317154, -0.08146727085113525, -0.011463464237749577, 0.0049158548936247826, -0.028507312759757042, -0.06245873495936394, 0.06885679811239243, -0.06544619053602219, -0.009778263047337532, 0.045934539288282394, 0.029057003557682037, -0.08612256497144699, 0.013256505131721497, -0.05129923298954964, -0.09104826301336288, -0.03340638801455498, 0.0907331109046936, 0.025993309915065765, -0.07101566344499588, 0.030622370541095734, -0.012594472616910934, -0.04921623319387436, 0.04735104739665985, 0.0618014894425869, -0.05614751577377319, 0.06409168243408203, -0.043721914291381836, -0.017241062596440315, 0.0822170153260231, 0.08237455040216446, -0.07243221998214722, -0.0614863745868206, -0.08281657844781876, -0.08075672388076782, 0.008745500817894936, 0.08099378645420074, -0.027374370023608208, -0.048073988407850266, 0.030561909079551697, 0.046885330229997635, -0.07578661292791367, 0.05199045687913895, -0.06293031573295593, 0.034379877150058746, 0.022198619320988655, -0.02699289098381996, -0.07997115701436996, -0.03060164861381054, 0.07684799283742905, -0.020396841689944267, 0.04554697871208191, -0.08524362742900848, -0.04875917360186577, -0.07410959154367447, -0.052993226796388626, 0.05551788955926895, -0.017743809148669243, -0.06984270364046097, 0.052608467638492584, -0.053222157061100006, 0.07382085174322128, -0.013272578828036785, 0.06828437745571136], [-0.35918128490448, -0.052647195756435394, 0.06411228328943253, -0.18523353338241577, -0.127750962972641, 0.5947463512420654, -0.49730703234672546, 0.12098736315965652, -0.3659800589084625, -0.31377410888671875, 0.9415372014045715, 0.2756536602973938, -0.6553305387496948, 1.2763735055923462, -0.163020059466362, 0.11005833745002747, -0.15663200616836548, -0.12470249086618423, 0.5168406367301941, -0.39679527282714844, 0.1758953034877777, -0.8308161497116089, -0.2250255048274994, 0.30491721630096436, -0.15920661389827728, -0.6307165026664734, 0.14093291759490967, -0.4157441556453705, 0.27735796570777893, -0.28562626242637634, -0.5761960744857788, -0.28973063826560974, 0.30693313479423523, -0.5185984969139099, -0.9189592003822327, -0.5409939885139465, 1.0623424053192139, 0.41933637857437134, -0.13508866727352142, 0.9081282615661621, -0.10883767157793045, -0.3368852436542511, -0.23314543068408966, -0.5923759937286377, 0.38897883892059326, -0.3342922031879425, 0.447064608335495, -0.08109865337610245, 1.4739294052124023, -0.5844270586967468, -0.3560451865196228, -0.7822622656822205, 0.5918043255805969, 0.49172356724739075, -0.05271781608462334, -0.3480960726737976, -0.0318569652736187, 0.11401545256376266, -0.47841739654541016, -0.08930598199367523, 0.43459516763687134, 0.44975459575653076, -0.42210960388183594, 0.14230316877365112, -0.2638609707355499, 0.5692873597145081, -1.0505404472351074, 1.0402377843856812, -0.7424295544624329, 0.5025622248649597, 0.014414984732866287, -0.8889021277427673, -0.26532137393951416, 0.7352139949798584, -0.03969290480017662, -0.17539764940738678, -0.9930781722068787, -0.732837438583374, 0.7487156987190247, -0.8700000643730164, 0.30323004722595215, 1.2082250118255615, -0.7910933494567871, -0.1046314612030983, -0.05977384001016617, 0.25448015332221985, 0.029498690739274025, 0.05731191486120224, -0.3464624583721161, -0.24283121526241302, 0.3816993534564972, -0.4501786231994629, 0.3241279125213623, 0.02826591767370701, -0.39355140924453735, 0.23959188163280487, -0.41334235668182373, -0.40597397089004517, 0.495421826839447, 1.2184507846832275, 0.5471014380455017, 0.6400741338729858, -0.19855624437332153, -0.5132174491882324, 0.7326748967170715, -0.17271266877651215, 0.043767254799604416, -0.06665882468223572, 0.2733715772628784, 0.1461888551712036, 1.4720499515533447, -0.07329781353473663, -0.2534439265727997, -0.20748266577720642, -0.03454616665840149, 0.1477869600057602, -0.1837155818939209, -0.35155966877937317, -0.11052127182483673, -0.07677540183067322, 0.9097609519958496, -0.9947249293327332, -0.590604841709137, -0.03663317859172821, 0.22489939630031586, -0.06311996281147003, -1.0640860795974731, -0.18610626459121704, -0.3195391893386841, 0.10483776777982712, -0.34694284200668335, -0.04287012666463852, -0.15573804080486298, 0.12802794575691223, 0.017946677282452583, -0.4230588674545288, 0.004116280470043421, -0.3897438049316406, -0.19760674238204956, 0.9470202922821045, -0.04229503124952316, 0.6240748763084412, 0.11817056685686111, -0.020825393497943878, -0.7379172444343567, 0.003342714859172702, 0.12398476153612137, 0.37065160274505615, -0.15919579565525055, -0.7800320982933044, 0.7535218000411987, -0.06217356026172638, 0.04878351837396622, 0.418316513299942, -0.3353862166404724, -0.6080314517021179, 0.5085879564285278, 0.5348815321922302, 0.8165414929389954, -0.15638495981693268, -0.16765905916690826, -0.33401840925216675, 0.03135136887431145, -0.4438374638557434, 0.028976639732718468, 0.31019920110702515, -0.38207823038101196, -0.14318998157978058, -0.30663344264030457, 0.3282049298286438, 0.07095006853342056, -0.12172254920005798, -0.14068754017353058, 0.03964190185070038, -0.5804687738418579, -0.1523139476776123, -0.15438173711299896, -0.011858138255774975, -0.14729641377925873, 0.7333641052246094, 0.30833446979522705, -0.5965662002563477, -0.2232331782579422, 0.46163007616996765, -0.05743734911084175, -0.08208046853542328, 0.06723271310329437, -0.11242539435625076, 0.3871482014656067, 0.3274025619029999, 0.03303643688559532, 0.5859038829803467, -0.43371352553367615, -0.008595893159508705, 0.21425552666187286, -0.40907078981399536, -0.4019499123096466, -0.062044888734817505, -0.24927133321762085, 0.14969490468502045, -0.23334525525569916, -0.443224161863327, -0.0033657848834991455, 0.19033731520175934, -0.14691416919231415, -0.40502461791038513, -0.45494410395622253, -0.5297122597694397, 0.6127699017524719, -0.033210061490535736, -0.8085755705833435, -0.7449433207511902, -0.27347812056541443, -0.24300867319107056, 0.4446467459201813, 0.3096068501472473, 0.20295332372188568, -0.4399374723434448, -0.5885988473892212, 0.11368763446807861, -0.16658319532871246, -0.06442487984895706, -0.6504679918289185, -0.5522241592407227, -0.7970274090766907, 1.0382179021835327, -0.021629376336932182, 0.9446849226951599, -0.6184865832328796, 0.23137494921684265, 0.360485702753067, 0.2056419998407364, -0.18039964139461517, 0.227491557598114, -0.06677946448326111, 0.42217379808425903, 0.48611190915107727, -0.5838364362716675, 0.4025464653968811, -0.16872724890708923, -0.42375677824020386, -0.11276179552078247, -0.8799170851707458, 0.2419949769973755, 0.1405278891324997, 0.5318106412887573, -0.8124186396598816, 0.07125764340162277, -0.6188505291938782, 0.180357426404953, -0.5750487446784973, -0.0030657281167805195, -0.9510663151741028, -0.4495800733566284, -0.15811856091022491, -0.30035480856895447], [0.19343878328800201, -0.24717092514038086, 0.2979345917701721, -0.34357190132141113, 0.19299934804439545, -0.40485480427742004, 0.1850891262292862, 0.170552596449852, 0.12604212760925293, -0.487812340259552, 0.18363523483276367, 0.10747191309928894, 0.13291947543621063, -0.12581482529640198, -0.37407514452934265, 0.10074351727962494, 0.1383693963289261, -0.7699470520019531, -0.2209749072790146, -0.7414026260375977, 0.06868292391300201, 0.13011842966079712, 0.09278377890586853, -0.2466243952512741, -0.3062245547771454, 0.09619741141796112, -0.02164646051824093, -0.04776150733232498, -0.3291032016277313, -0.02147226221859455, 0.0927676185965538, -0.03435299172997475, 0.0419178381562233, 0.16569484770298004, 0.1976078450679779, 0.05327751114964485, -0.04922378063201904, 0.06305492669343948, -0.13930100202560425, 0.05511368066072464, -0.009433700703084469, 0.28425174951553345, 0.19210398197174072, -0.2889632284641266, -0.050630178302526474, -0.04410446807742119, 0.14619693160057068, 0.1804777830839157, 0.011900690384209156, -0.0027404455468058586, 0.0372501015663147, -0.047911860048770905, 0.2739195227622986, -0.16350382566452026, -0.022081157192587852, 0.3381340801715851, -0.16532188653945923, -0.33497926592826843, 0.09304221719503403, -0.22822274267673492, 0.1008322685956955, 0.09468810260295868, 0.15466661751270294, 0.04549755901098251, -0.1422489583492279, -0.059211503714323044, -0.03597751259803772, 0.034936316311359406, -0.07533679902553558, -0.13234782218933105, 0.2125510573387146, 0.05284034088253975, 0.081297867000103, 0.265997976064682, 0.3261496126651764, -0.015451589599251747, 0.12782400846481323, 0.2666163742542267, -0.14701668918132782, 0.055015601217746735, -0.08376610279083252, 0.10037961602210999, -0.8817061185836792, 0.2643658518791199, -0.2716131806373596, 0.09830880910158157, -0.020640376955270767, -0.25425779819488525, 0.16624188423156738, -0.10209526866674423, 0.1666535884141922, 0.02948533557355404, 0.135715514421463, 0.22942280769348145, -0.2806186079978943, 0.06595488637685776, 0.04172113910317421, -0.0321764200925827, 0.15647681057453156, -0.4162888824939728, -0.69367915391922, 0.27510738372802734, 0.2242724895477295, 0.14897623658180237, 0.05580078065395355, 0.5126631259918213, -0.12155574560165405, -0.019391639158129692, 0.15637587010860443, 0.10487239807844162, 0.07136373966932297, -0.05138137936592102, 0.06368070840835571, 0.09101928770542145, 0.2595357298851013, -0.11752333492040634, 0.034712374210357666, 0.3667702078819275, 0.045288342982530594, 0.05421244353055954, -0.15948492288589478, 0.009590836241841316, 0.19355683028697968, 0.20657441020011902, -0.12990938127040863, 0.0844598114490509, -0.29857373237609863, 0.021240854635834694, -0.08143197745084763, -0.33100152015686035, 0.019138803705573082, -0.9553846716880798, -0.11123286932706833, 0.051059070974588394, 0.2959277927875519, 0.015520572662353516, -0.13789114356040955, -0.012435170821845531, -0.10032878816127777, 0.021423356607556343, 0.0477774403989315, 0.3979026973247528, 0.03547468036413193, 0.1528117060661316, 0.18642458319664001, 0.15547281503677368, -0.11564113944768906, 0.2444171905517578, 0.1619759052991867, 0.187533900141716, 0.2377592772245407, 0.022340266034007072, -0.48343533277511597, -0.15591365098953247, -0.015080755576491356, 0.09608826041221619, 0.12101858109235764, -0.08533120155334473, -0.07042750716209412, -0.29689887166023254, 0.06855283677577972, -0.02648955211043358, -0.4225552976131439, 0.08951380103826523, 0.1207004189491272, -0.19130867719650269, 0.11545822024345398, -0.24666576087474823, -0.037868477404117584, 0.18348829448223114, 0.10481227934360504, 0.0996687188744545, 0.07104939967393875, -0.03775978460907936, 0.20899927616119385, -0.21416594088077545, -0.21941141784191132, -0.17767153680324554, 0.2604202628135681, 0.0888976901769638, -0.04338671267032623, -0.021691061556339264, -0.04863869771361351, 0.18120501935482025, 0.07222749292850494, 0.2070028930902481, -0.003064482007175684, 0.1863442063331604, 0.09323852509260178, -0.031343623995780945, -0.13755007088184357, -0.0712546855211258, 0.07909062504768372, 0.039205972105264664, -0.24118198454380035, -0.2143886387348175, -0.21430626511573792, -0.029562197625637054, -0.19574932754039764, -0.19552941620349884, -0.08495455235242844, 0.1570754051208496, -0.08605068176984787, -0.14043448865413666, -0.19044415652751923, 0.15594062209129333, 0.06219092011451721, -0.096127450466156, 0.06849129498004913, 0.023087993264198303, 0.10696887224912643, -0.0002652683178894222, 0.07617533206939697, 0.25079697370529175, 0.03250730782747269, 0.06341928243637085, 0.0783921629190445, -0.12129388004541397, -0.2644077241420746, 0.19414910674095154, -0.04470888152718544, -0.04537726938724518, 0.18225809931755066, -0.159653440117836, 0.24081730842590332, -0.25637656450271606, -0.12541545927524567, -0.27430763840675354, -0.14139212667942047, 0.010448255576193333, -0.14887546002864838, 0.19735723733901978, 0.21282224357128143, -0.03473743796348572, 0.16095027327537537, 0.07797931134700775, 0.014543769881129265, 0.2123832106590271, 0.19653448462486267, -0.19905075430870056, 0.024581288918852806, 0.04711248353123665, -0.004099584184587002, 0.007053126581013203, 0.19165652990341187, 0.030871903523802757, -0.05364083871245384, 0.1579670011997223, -0.04761121794581413, 0.09784543514251709, 0.004842662718147039, 0.13862623274326324, -0.3473425507545471, 0.06384722888469696, -0.0885654017329216, -0.008117994293570518], [-0.07496240735054016, -0.15690119564533234, 0.18529027700424194, -0.0345161072909832, -0.18305520713329315, 0.027831153944134712, -0.11075729131698608, -0.3228277266025543, -0.40282291173934937, -0.10828336328268051, -0.15835915505886078, -0.22260744869709015, -0.007733902428299189, -0.01672745682299137, -0.23926660418510437, 0.15938198566436768, -0.2370801717042923, -0.4475440979003906, -0.10803977400064468, 0.012182189151644707, -0.16118134558200836, -0.14174778759479523, 0.21179386973381042, 0.007332098204642534, -0.015336495824158192, -0.005087129771709442, 0.13730266690254211, -0.1540347933769226, -0.023821977898478508, -0.1818752884864807, -0.6254468560218811, -0.11724354326725006, 0.2668704688549042, -0.24032482504844666, -0.0452444963157177, -0.03861613944172859, -0.04580181837081909, -0.2761385142803192, 0.04962153732776642, -0.16242355108261108, -0.20889753103256226, 0.06965973228216171, -0.38696035742759705, 0.1254797726869583, -0.2646819055080414, -0.2433505654335022, -0.038488857448101044, -0.07783330976963043, -0.07607601583003998, -0.06323029845952988, -0.3180747628211975, 0.046672675758600235, -0.3146846294403076, 0.025366680696606636, -0.10966849327087402, 0.13354426622390747, 0.18709534406661987, 0.3942776620388031, -0.051067184656858444, 0.19657032191753387, -0.09558642655611038, -0.16876891255378723, 0.09628383815288544, 0.12983384728431702, 0.0007383080082945526, -0.06241269037127495, 0.011965934187173843, -0.2828850746154785, 0.006592654623091221, -0.18976575136184692, 0.07875589281320572, -0.24869601428508759, 0.13417328894138336, -0.3518502712249756, 0.11432774364948273, -0.0875055119395256, -0.3015594184398651, -0.31389567255973816, -0.5651564002037048, -0.03559967875480652, 0.02411142736673355, -0.2742973864078522, -0.20469561219215393, 0.0007759325089864433, -0.2302449345588684, 0.10130564868450165, -0.3607034981250763, -0.05003434419631958, -0.2142544686794281, -0.10035376995801926, 0.10768142342567444, -0.005627951119095087, 0.22722893953323364, 0.04309340566396713, 0.3643511235713959, -0.2495422065258026, -0.006611265707761049, 0.07019202411174774, -0.04965393617749214, -0.18023982644081116, -0.0237223282456398, -0.06392775475978851, -0.24534912407398224, 0.05046321824193001, -0.11045587062835693, -0.3209781348705292, -0.10227374732494354, 0.03125890716910362, 0.0015007852343842387, 0.004685731139034033, -0.058202408254146576, -0.3159480690956116, -0.12463390082120895, 0.09844087064266205, 0.10498784482479095, -0.18515276908874512, -0.007519233971834183, -0.30133163928985596, 0.09163014590740204, -0.22068654000759125, 0.008484949357807636, 0.1379443109035492, 0.09370995312929153, 0.055688176304101944, 0.043155036866664886, 0.16784940659999847, -0.10170929878950119, -0.43527233600616455, -0.04667236655950546, 0.040761224925518036, 0.040418267250061035, -0.06332810968160629, 0.1308898627758026, 0.037948548793792725, 0.009670634754002094, 0.1516576111316681, 0.1914462000131607, -0.19377385079860687, 0.0194857120513916, -0.1049734503030777, -0.0943637564778328, -0.025521770119667053, 0.030557718127965927, 0.15818189084529877, -0.04658501222729683, -0.012368346564471722, -0.2653222382068634, 0.15145699679851532, 0.07528262585401535, -0.19804851710796356, -0.07344535738229752, -0.21138907968997955, -0.404053270816803, 0.09549745172262192, -0.4347952902317047, 0.16542741656303406, -0.3524433374404907, -0.05461033806204796, -0.14782461524009705, 0.027888573706150055, 0.11395438760519028, -0.11354281008243561, -0.25653454661369324, -0.28706854581832886, -0.2036234587430954, 0.03836629539728165, -0.14753951132297516, 0.10414641350507736, -0.08137917518615723, -0.647625207901001, 0.12069475650787354, 0.3086901903152466, -0.23692123591899872, -0.29143083095550537, -0.2864927053451538, -0.1483135223388672, -0.08392374962568283, -0.3365470767021179, -0.1323390156030655, 0.18368273973464966, 0.009975513443350792, 0.19693046808242798, -0.15321972966194153, -0.1341857612133026, -0.14450305700302124, -0.015413251705467701, 0.14781062304973602, -0.2221004217863083, -0.07413029670715332, 0.09145691245794296, -0.12121166288852692, 0.01437436230480671, 0.008591960184276104, -0.06222109869122505, -0.034088410437107086, 0.15804506838321686, 0.01250938605517149, 0.11798036098480225, 0.011842243373394012, -0.23993688821792603, -0.03741850331425667, -0.32249340415000916, -0.06755533069372177, -0.12204903364181519, 0.12526625394821167, -0.0798041969537735, -0.10672853887081146, -0.170212522149086, 0.013523600064218044, -0.07398270815610886, -0.050043635070323944, -0.14151355624198914, -0.111461341381073, 0.009015065617859364, -0.031336940824985504, -0.24511343240737915, -0.2583254873752594, -0.11810924857854843, -0.37964367866516113, 0.13915865123271942, 0.16340602934360504, 0.11516391485929489, 0.2327928990125656, -0.22922511398792267, 0.034394629299640656, -0.2131098210811615, -0.2648078203201294, -0.05273376405239105, -0.07726437598466873, 0.09972997009754181, 0.07944852113723755, -0.2872700095176697, -0.26718297600746155, 0.22419141232967377, -0.07260116934776306, 0.34101977944374084, 0.004307873081415892, 0.13665561378002167, -0.08687683194875717, 0.3324420750141144, -0.07661271840333939, -0.04066343605518341, -0.031197236850857735, -0.0735749900341034, -0.2278870791196823, -0.32962319254875183, 0.06627577543258667, 0.08537542074918747, 0.03687310963869095, -0.0724864974617958, -0.25705456733703613, -0.4036506712436676, 0.05777795985341072, -0.15963411331176758, -0.16564877331256866, -0.025525951758027077], [0.10169371962547302, -0.39523619413375854, -0.13855552673339844, 0.08365283906459808, 0.25872740149497986, -0.6092175245285034, -0.05208266153931618, 0.23440423607826233, -0.15138109028339386, 0.028188712894916534, 0.13556264340877533, 0.05129223316907883, 0.05270359292626381, 0.14034204185009003, 0.04712751880288124, -0.026166699826717377, 0.3414309322834015, 0.33335399627685547, -0.14391237497329712, -0.0923098549246788, -0.00021388746972661465, 0.22824883460998535, -0.5025880932807922, -0.001791908172890544, -0.018290407955646515, 0.0807139128446579, 0.059412479400634766, -0.06133029982447624, -0.13015443086624146, 0.08820082992315292, 0.2044687271118164, -0.04938559979200363, -0.20506972074508667, -0.022244194522500038, 0.09834122657775879, 0.16099248826503754, -0.36805424094200134, -0.0684397965669632, -0.25579971075057983, -0.07732478529214859, 0.1610124707221985, -0.026487315073609352, 0.03512480482459068, 0.0031233134213835, -0.10084696859121323, 0.057367030531167984, -0.19776803255081177, -0.09657226502895355, 0.04403214529156685, 0.006818172987550497, 0.2282327562570572, 0.12702958285808563, 0.059963345527648926, 0.031221548095345497, 0.1901133954524994, -0.3241136074066162, 0.11617162823677063, 0.03285275027155876, -0.1336565464735031, -0.10057245939970016, -0.28144779801368713, 0.24552206695079803, 0.17015402019023895, 0.03485129401087761, 0.06170830875635147, 0.09065676480531693, -0.164976105093956, -0.13604989647865295, -0.29702532291412354, 0.025339286774396896, -0.18752101063728333, 0.12796828150749207, -0.44636499881744385, 0.1769876778125763, -0.05149837210774422, -0.20644918084144592, 0.2528560161590576, -0.2676140367984772, 0.118353933095932, 0.05762162432074547, 0.13561001420021057, 0.0033498345874249935, 0.06051136553287506, -0.41164472699165344, 0.061318036168813705, -0.17523916065692902, -0.02214161306619644, -0.052420154213905334, 0.13412275910377502, -0.12478889524936676, 0.10813907533884048, 0.032786812633275986, -0.029466258361935616, -0.4064328670501709, -0.35176369547843933, -0.01674293912947178, 0.024043045938014984, -0.02563449926674366, -0.16541805863380432, -0.032184675335884094, -0.0976080670952797, 0.05603490397334099, -0.07828647643327713, 0.012044712901115417, -0.3823678195476532, 0.23686212301254272, -0.6056044697761536, -0.059311140328645706, 0.04796670749783516, 0.1955287754535675, -0.0322682149708271, 0.21484243869781494, -0.2699388563632965, -0.10870996117591858, 0.024670425802469254, 0.049156177788972855, -0.0729798898100853, 0.22159872949123383, -0.25843411684036255, 0.04404749721288681, -0.17667698860168457, -0.05044465884566307, -0.19162973761558533, 0.1587737649679184, 0.21560470759868622, -0.11329317092895508, -0.0023771412670612335, -0.08444806188344955, -0.18750262260437012, -0.26162517070770264, -0.21689142286777496, 0.10008753091096878, -0.22658731043338776, 0.061539821326732635, -0.05293438211083412, -0.09590765833854675, 0.11326418817043304, 0.27552279829978943, -0.12587137520313263, -0.10865325480699539, -0.08680735528469086, 0.10060731321573257, -0.07938091456890106, -0.002322858665138483, 0.16146549582481384, -0.1307484209537506, -0.156756192445755, -0.08002103120088577, 0.12291449308395386, 0.03623087704181671, 0.019789157435297966, 0.13879676163196564, -0.05173366889357567, 0.04584265127778053, 0.022932814434170723, -0.08499668538570404, -0.19775666296482086, 0.12485580891370773, 0.007176530547440052, -0.0006835552048869431, -0.4058021306991577, -0.06302535533905029, 0.10271549969911575, -0.0573139488697052, 0.0892108902335167, 0.11725775897502899, 0.09673649072647095, -0.1623671054840088, -0.08665705472230911, 0.16516610980033875, 0.18617033958435059, 0.05528615042567253, 0.10877645760774612, 0.059726983308792114, 0.008953280746936798, -0.17088446021080017, -0.026854580268263817, 0.10504121333360672, 0.08843041211366653, -0.15386256575584412, -0.1609838306903839, -0.03158622607588768, -0.21471282839775085, 0.014305096119642258, -0.3447902500629425, 0.15080416202545166, -0.16073311865329742, -0.15000790357589722, 0.08040028065443039, -0.029199132695794106, -0.07064563781023026, 0.09210706502199173, -0.06420622766017914, -0.18969784677028656, 0.11919698119163513, 0.10531509667634964, 0.11648473888635635, 0.11586576700210571, -0.16255590319633484, -0.028614072129130363, -0.0995587557554245, 0.20620189607143402, -0.2602258324623108, 0.3167562484741211, -0.2104436457157135, -0.18665768206119537, -0.024064600467681885, 0.005249824374914169, 0.11488063633441925, -0.030664384365081787, 0.15076565742492676, 0.06248212978243828, -0.16553863883018494, 0.23075221478939056, -0.049069151282310486, 0.24674716591835022, -0.3383518159389496, 0.0820181742310524, 0.10383401811122894, -0.1577511727809906, -0.0025580194778740406, 0.0578291118144989, -0.5833421945571899, 0.04893804341554642, 0.19354549050331116, 0.24205432832241058, -0.05317700654268265, -0.2038438320159912, 0.15290036797523499, -0.23506216704845428, -0.21718256175518036, 0.0668240413069725, 0.11500239372253418, -0.07094934582710266, -0.022517476230859756, -0.12669602036476135, -0.43682625889778137, -0.203251451253891, -0.07963542640209198, -0.2211674302816391, -0.026874108240008354, 0.2702944874763489, 0.154034823179245, -0.16015729308128357, 0.1836029291152954, 0.09855134040117264, -0.09845274686813354, 0.04413095861673355, -0.03247814625501633, -0.005397677421569824, 0.1399373561143875, 0.10766371339559555, -0.5753690004348755, 0.19554781913757324, -0.27249228954315186, -0.1240987777709961], [0.13511081039905548, 0.1939714550971985, -0.6503859162330627, 0.007867876440286636, 0.06180218979716301, 0.04646715521812439, 0.04705170914530754, -0.08955373615026474, 0.06361857056617737, 0.11691240221261978, 0.24822905659675598, 0.09526535123586655, -0.08667392283678055, 0.09376134723424911, 0.22968938946723938, -0.14600814878940582, 0.18975737690925598, 0.21593064069747925, 0.02031872235238552, 0.07110588997602463, 0.24149002134799957, 0.03657114505767822, 0.09576167911291122, 0.14236530661582947, 0.13631370663642883, -0.04257538542151451, -0.2531260550022125, 0.02141951583325863, 0.16154752671718597, -0.020057817921042442, 0.16865618526935577, 0.07017093896865845, -0.26469406485557556, 0.1128133088350296, 0.1501801759004593, 0.1358007937669754, 0.12422998994588852, 0.15156391263008118, 0.13062067329883575, 0.15192387998104095, -0.045462824404239655, -0.054517220705747604, -0.08697991818189621, 0.034631066024303436, -0.023209547623991966, 0.012619787827134132, 0.11128593981266022, 0.16279996931552887, 0.2338220775127411, -0.07940573990345001, 0.04491773992776871, 0.05771706625819206, 0.03674830123782158, 0.052393391728401184, 0.009458237327635288, -0.09329359978437424, -0.039621785283088684, -0.12916415929794312, 0.08310407400131226, 0.052820656448602676, 0.050466883927583694, 0.17813459038734436, -0.07149621099233627, -0.23806004226207733, -0.02602245844900608, 0.17591340839862823, -0.43856504559516907, 0.1129027009010315, 0.026405474171042442, 0.1605108678340912, 0.1689905822277069, 0.28670933842658997, -0.05200859159231186, 0.10940708965063095, 0.02616831101477146, 0.022394128143787384, -0.36384308338165283, 0.044706232845783234, 0.10715797543525696, -0.010126505978405476, 0.06466159969568253, 0.2572071850299835, -0.16618070006370544, 0.025391576811671257, -0.013779266737401485, -0.023538025096058846, -0.11056779325008392, -0.0714404433965683, 0.1542932391166687, 0.14966344833374023, 0.17015108466148376, 0.05377865582704544, -0.17117412388324738, 0.04646380618214607, -0.043228037655353546, -0.0791701003909111, 0.19563448429107666, 0.0521065928041935, 0.10978224128484726, 0.04405765235424042, -0.06847891956567764, 0.05262313410639763, 0.07116749882698059, 0.1291855424642563, 0.1432088315486908, -0.0865120068192482, 0.16089901328086853, 0.0223693810403347, 0.04891687631607056, -0.048255451023578644, 0.18131819367408752, 0.13935594260692596, 0.07709144800901413, -0.08961666375398636, 0.025682371109724045, -0.05505197122693062, 0.037378162145614624, 0.10086113214492798, 0.12308180332183838, 0.10438947379589081, 0.04991256073117256, 0.00874648429453373, -0.13883070647716522, -0.07961161434650421, 0.1536640226840973, -0.24179574847221375, -0.10301844775676727, 0.26179781556129456, -0.014202871359884739, -0.08016432076692581, 0.08153249323368073, 0.22838202118873596, 0.1570100635290146, 0.000665895699057728, 0.03173842281103134, -0.044513948261737823, -0.059013254940509796, 0.0698201060295105, 0.09692501276731491, 0.09921251237392426, 0.087791807949543, 0.05663127079606056, 0.02711038663983345, -0.23001688718795776, 0.027449186891317368, 0.09317131340503693, -0.4187380373477936, -0.03433704748749733, 0.013684368692338467, 0.12815506756305695, 0.15832234919071198, 0.04754664748907089, 0.14503777027130127, 0.0853128433227539, 0.1877412050962448, -0.03547798469662666, 0.10906103998422623, 0.0491306446492672, -0.2830817997455597, 0.1380855143070221, -0.07513907551765442, -0.39896485209465027, -0.16198554635047913, 0.14856402575969696, -0.013629965484142303, -0.16937486827373505, 0.08135377615690231, 0.19298991560935974, 0.1315721571445465, -0.1774711310863495, 0.06881283968687057, 0.020312631502747536, 0.09415709972381592, 0.08879061788320541, -0.10478196293115616, 0.16835902631282806, -0.01013839803636074, 0.14575690031051636, -0.34163719415664673, 0.06675248593091965, 0.013848922215402126, -0.09178747981786728, 0.06646431982517242, 0.05413663759827614, 0.09757228195667267, 0.1434824913740158, -0.029614949598908424, 0.1686154156923294, 0.1825660914182663, 0.05663663148880005, 0.34442031383514404, 0.11133772879838943, 0.03916298598051071, 0.20518624782562256, 0.08926966786384583, -0.035835783928632736, 0.12368644028902054, -0.08608885109424591, 0.04043273627758026, 0.18199315667152405, 0.08064457774162292, 0.22309398651123047, 0.07856167107820511, 0.3200221061706543, -0.03561310097575188, -1.3755549192428589, -0.021133501082658768, 0.04297478497028351, -0.03402186557650566, 0.06375137716531754, -0.10051077604293823, -0.018285728991031647, 0.15754559636116028, 0.22621414065361023, -0.00045026675797998905, 0.04928865656256676, 0.03608330711722374, 0.013231664896011353, 0.05851815268397331, -0.017341801896691322, 0.16492679715156555, 0.06275104731321335, 0.19013375043869019, -0.25167223811149597, -0.05683298781514168, 0.20669607818126678, -0.10908829420804977, 0.134504035115242, 0.12289398908615112, 0.04304058104753494, -0.3205174505710602, 0.025565775111317635, 0.02934424765408039, 0.12115216255187988, 0.07507801055908203, -0.11968643963336945, -0.11282978951931, -0.06894432753324509, -0.07238508760929108, 0.10201229155063629, -0.06539494544267654, 0.021850019693374634, -0.024358516559004784, -0.0519975908100605, 0.05338029935956001, 0.17968691885471344, -0.018360070884227753, 0.051102012395858765, 0.07885080575942993, 0.014337594620883465, 0.005180614069104195, -0.19883933663368225, 0.011188539676368237, 0.06113212928175926, -0.052657097578048706, 0.027536796405911446], [-0.01286057848483324, 0.12890927493572235, 0.18425479531288147, 0.18790072202682495, -0.14520668983459473, 0.3997666835784912, -0.08133349567651749, 0.12554456293582916, -0.4403429329395294, -0.09176354110240936, -0.03525951877236366, 0.165336012840271, -0.10792222619056702, 0.09185601770877838, 0.33595672249794006, -0.18996886909008026, -0.1668320596218109, 0.2346612960100174, -0.28435018658638, 0.1431828886270523, -0.0837356299161911, 0.2705034017562866, -0.23707246780395508, 0.08815724402666092, -0.08176880329847336, 0.031800463795661926, 0.026451846584677696, -0.09379320591688156, -0.2069496065378189, -0.6500769853591919, -0.18780800700187683, 0.2109270691871643, 0.3394685685634613, 0.0748334527015686, 0.29685333371162415, -0.3016691207885742, 0.12579193711280823, -0.15429174900054932, 0.11374922096729279, 0.25043192505836487, 0.14912991225719452, -0.21439167857170105, 0.2759626805782318, -0.15885914862155914, 0.163530170917511, 0.10899711400270462, 0.26956671476364136, -0.0047673070803284645, -0.3264184594154358, 0.027280665934085846, 0.055134695023298264, -0.2577771544456482, -0.0009548712987452745, 0.18092140555381775, 0.04458020254969597, -0.23000526428222656, -0.07473382353782654, 0.12425296753644943, -0.016847070306539536, 0.20844368636608124, -0.3240201473236084, -0.03361879289150238, 0.07291743159294128, -0.18288230895996094, -0.33111482858657837, -0.016235696151852608, 0.07926665991544724, 0.07355369627475739, -0.11035223305225372, 0.12684406340122223, -0.11317647248506546, 0.32067006826400757, 0.5061757564544678, 0.2685734033584595, -0.034821413457393646, -0.34917911887168884, 0.07803484052419662, -0.34019264578819275, -0.13038702309131622, 0.1068730279803276, -0.05998888611793518, 0.47512999176979065, 0.01353430561721325, 0.2873794734477997, 0.12314172834157944, 0.16475841403007507, 0.15267246961593628, -0.09983565658330917, -0.5089303255081177, -0.39941462874412537, -0.2928817868232727, -0.5054876208305359, 0.10778477042913437, 0.182074174284935, 0.25034692883491516, 0.3985242247581482, 0.0552598275244236, -0.183974027633667, 0.03683155030012131, 0.30003637075424194, -0.1589013934135437, 0.06424445658922195, -0.27081435918807983, 0.17728792130947113, 0.21970173716545105, -0.3111182749271393, 0.001523223822005093, -0.44389086961746216, 0.14865870773792267, -0.163140669465065, -0.028254004195332527, 0.20402537286281586, 0.14463761448860168, -0.09716550260782242, 0.03469423949718475, -0.24314092099666595, 0.35117772221565247, -0.28107503056526184, 0.033818166702985764, 0.2959803342819214, -0.3072947561740875, -0.0428137332201004, 0.4606829881668091, -0.18982942402362823, -0.22985051572322845, 0.315083384513855, 0.32747018337249756, 0.2450042963027954, -0.08203424513339996, 0.1476304829120636, -0.6354516744613647, 0.5032333135604858, 0.2413502037525177, -0.5470394492149353, 0.35716164112091064, -0.062326811254024506, -0.04444161430001259, 0.01889701746404171, -0.003143912646919489, 0.18800316751003265, -0.23047056794166565, -0.08431577682495117, 0.11100219190120697, 0.3013080358505249, -0.34117764234542847, -0.037407781928777695, -0.011065347120165825, -0.19067274034023285, -0.10737010836601257, -0.11118948459625244, 0.1638769954442978, 0.013297365978360176, -0.0766899511218071, -0.01630958914756775, 0.06124419718980789, 0.026818836107850075, -0.2558222711086273, 0.046252984553575516, 0.3898716866970062, 0.15569283068180084, -0.11416994780302048, 0.0823114812374115, 0.2709106206893921, 0.14377948641777039, -0.17595648765563965, -0.1253119260072708, 0.08929663151502609, 0.3004855215549469, 0.016367044299840927, 0.08094778656959534, -0.24256207048892975, -1.2096357345581055, -0.2042662501335144, -0.449328750371933, 0.12938810884952545, 0.25610101222991943, -0.005921423900872469, -0.04214784875512123, 0.09870345890522003, -0.2558440864086151, 0.02015085145831108, -0.01768573187291622, -0.05825277417898178, -0.19331687688827515, 0.3384575843811035, 0.1961750090122223, -0.06860727816820145, 0.44248709082603455, 0.027574745938181877, -0.1914912611246109, 0.16349393129348755, -0.21200108528137207, 0.20555129647254944, -0.12695817649364471, 0.25204041600227356, -0.2832423746585846, -0.038788340985774994, 0.0543292835354805, -0.3090027868747711, -0.022265153005719185, -0.6328840255737305, -0.49679237604141235, 0.09837264567613602, -0.08510128408670425, 0.33462071418762207, -0.11146742105484009, 0.14340798556804657, -0.18060538172721863, -1.2848397493362427, 0.14789427816867828, -0.5095089673995972, 0.11495944857597351, -0.24485251307487488, -0.24944809079170227, 0.35163843631744385, -0.06299276649951935, 0.1064755767583847, -0.17210596799850464, 0.047318052500486374, 0.2838788330554962, -0.7824473977088928, 0.0868920087814331, 0.05965765565633774, 0.36669549345970154, 0.3759196102619171, 0.033961862325668335, -0.04173086956143379, -0.09976611286401749, -0.014437487348914146, 0.4386853873729706, -0.0724836140871048, 0.2790120542049408, 0.38243743777275085, 0.11997024714946747, -0.29773539304733276, -0.37147241830825806, -0.18552909791469574, -0.3935686945915222, -0.07720725983381271, 0.17294539511203766, -0.34787851572036743, 0.388661652803421, -0.393411785364151, 0.1468973606824875, -0.022772515192627907, 0.3849566578865051, -0.062009576708078384, 0.16144292056560516, -0.3624415993690491, 0.13030089437961578, -0.152761310338974, 0.42832663655281067, 0.2660287916660309, 0.035635847598314285, -0.14286749064922333, -0.10439284890890121], [0.03650953620672226, 0.13868528604507446, -0.040410857647657394, -0.2891211211681366, 0.028961926698684692, -0.21535781025886536, -0.1375734657049179, 0.026352301239967346, 0.11669424176216125, 0.30808836221694946, 0.21939989924430847, 0.06388204544782639, -0.0870898962020874, 0.2236141562461853, 0.018765227869153023, 0.06982538104057312, -0.13305403292179108, -0.20673595368862152, 0.15075738728046417, -0.03633923456072807, 0.06275375187397003, -0.1543383002281189, -0.28806012868881226, -0.2880937159061432, -0.001523392042145133, 0.04106222093105316, 0.08922018855810165, -0.0545087605714798, -0.07448243349790573, 0.07798363268375397, -0.18934202194213867, -0.13735482096672058, 0.09179002046585083, 0.1279097944498062, 0.2147635966539383, -0.20864172279834747, 0.12722353637218475, -0.1997864842414856, -0.21085171401500702, -0.17475631833076477, -0.3012091815471649, 0.15994635224342346, -0.02911359630525112, 0.02346724458038807, 0.0976058766245842, -0.029948517680168152, -0.0697772353887558, 0.22887402772903442, 0.1736932098865509, -0.1087011769413948, 0.1694347858428955, -0.06591731309890747, -0.20510804653167725, 0.4180278778076172, -0.14196383953094482, -0.05710933357477188, 0.03550701588392258, 0.03418359160423279, -0.2392066866159439, -0.1677737832069397, 0.05880528688430786, -0.21869872510433197, -0.3666858971118927, -0.17619672417640686, 0.06159203499555588, -0.06496373564004898, 0.05844186618924141, 0.06987746059894562, 0.0578794851899147, 0.059140004217624664, 0.021586792543530464, 0.1539801061153412, 0.14132893085479736, 0.15548186004161835, -0.17065885663032532, 0.13016217947006226, 0.10496561974287033, -0.08689452707767487, 0.18173538148403168, 0.012555706314742565, -0.03770218789577484, -0.003167401533573866, -0.433366060256958, -0.004490216262638569, -0.03470030426979065, -0.19147934019565582, -0.042042721062898636, -0.2019515335559845, -0.10600531101226807, -0.35622093081474304, -0.39340895414352417, 0.004174292553216219, 0.026211895048618317, 0.0742717906832695, -0.03201628476381302, 0.11209653317928314, 0.009271355345845222, -0.10312430560588837, 0.35480204224586487, 0.204522043466568, -0.04564159736037254, 0.05180869624018669, -0.004041573498398066, -0.09444437175989151, 0.06079956144094467, 0.12634915113449097, 0.025859935209155083, 0.2440495640039444, 0.18222744762897491, 0.020517498254776, 0.09818489104509354, 0.011601699516177177, -0.10653666406869888, 0.011484558694064617, -0.0005827068234793842, 0.11860112100839615, 0.3641633093357086, 0.14054591953754425, 0.13208360970020294, -0.1301003098487854, -0.15648208558559418, 0.016532963141798973, 0.0749407634139061, 0.0482766218483448, -0.06576337665319443, 0.1722479611635208, -0.11476467549800873, -0.06363677233457565, -0.07709622383117676, 0.24265705049037933, 0.3046623170375824, 0.08332283049821854, 0.02766304276883602, 0.21326997876167297, 0.08225516229867935, -0.07444793730974197, 0.27778443694114685, 0.030387308448553085, 0.04802306741476059, -0.1510823518037796, -0.10626872628927231, 0.257891982793808, 0.17865030467510223, 0.23123668134212494, -0.48953527212142944, -0.13815031945705414, -0.017753127962350845, 0.05511892959475517, -0.3140467703342438, 0.19075772166252136, 0.0207098126411438, -0.02238764613866806, 0.05686666816473007, 0.010431881062686443, -0.07386153936386108, 0.0019720327109098434, 0.1366555094718933, -0.06849910318851471, 0.11320549994707108, -0.17709390819072723, -0.29295894503593445, -0.20880088210105896, 0.178289532661438, -0.10985348373651505, -0.12158821523189545, -0.2802508473396301, -0.15184055268764496, 0.004514616448432207, 0.14479273557662964, 0.22573621571063995, -0.060824204236269, -0.08982139825820923, -0.037116412073373795, 0.11292261630296707, 0.14095161855220795, 0.31830304861068726, 0.08315908163785934, 0.296104371547699, -0.14979924261569977, 0.049054622650146484, 0.2521141767501831, -0.04440218582749367, -0.1064663678407669, 0.010503933764994144, 0.25706249475479126, -0.10599158704280853, 0.25846025347709656, -0.46679919958114624, 0.053680334240198135, 0.05529693141579628, -0.03891961649060249, -0.10900141298770905, 0.043267618864774704, -0.1374696046113968, -0.012768692336976528, 0.05225663632154465, 0.026860224083065987, 0.030017413198947906, -0.04406869783997536, -0.1345892697572708, -0.27321866154670715, 0.08136045187711716, 0.3711189925670624, -0.630005419254303, -0.20644663274288177, -0.10255642980337143, -0.07670680433511734, -0.14997071027755737, -0.08547693490982056, 0.1543329358100891, -0.02933632768690586, 0.042600516229867935, -0.06003045290708542, -0.07142569869756699, 0.18968284130096436, 0.08345822244882584, 0.09110234677791595, -0.009365730918943882, 0.010161573998630047, 0.15246079862117767, 0.03195014223456383, 0.31716638803482056, -0.18034490942955017, -0.024843081831932068, -0.22618606686592102, -0.13419769704341888, 0.01571756601333618, 0.1421309858560562, -0.07585582882165909, 0.03731730952858925, 0.04956447333097458, 0.17063462734222412, 0.05140029639005661, 0.2562963664531708, 0.13123510777950287, -0.3452450633049011, 0.037015315145254135, -0.3263587951660156, 0.11491546779870987, -0.12263647466897964, -0.05905453488230705, 0.05255768448114395, 0.2554272413253784, -0.08719655871391296, 0.07891328632831573, -0.1725655496120453, -0.15613974630832672, -0.4437269866466522, 0.10628437250852585, -0.21348042786121368, 0.12706473469734192, 0.02055969275534153, -0.07608965784311295, -0.3049956262111664, -0.019464924931526184, -0.03813451901078224], [0.1099812239408493, -0.17417804896831512, -0.10944683849811554, -0.007574101909995079, -0.1918642371892929, 0.08233729749917984, 0.08094602078199387, -0.2659134566783905, -0.054368507117033005, -0.0814526230096817, -0.3601341247558594, 0.07575731724500656, 9.8380733106751e-05, 0.033683210611343384, -0.013119424693286419, -0.0902962014079094, -0.14876875281333923, 0.17946946620941162, -0.06745128333568573, -0.07777969539165497, -0.031052567064762115, -0.04810256138443947, -0.17701146006584167, -0.38330864906311035, -0.1391695737838745, -0.04028229042887688, -0.33275896310806274, 0.022764667868614197, 0.1237940564751625, 0.16917631030082703, -0.10141827911138535, -0.04640408232808113, 0.05759378895163536, 0.06455107033252716, -0.17665646970272064, 0.17441724240779877, 0.01085751224309206, 0.09429014474153519, 0.033174093812704086, -0.10485902428627014, 0.025039833039045334, 0.11627889424562454, -0.08534174412488937, -0.07929638028144836, 0.01883479580283165, 0.08065223693847656, -0.1311500072479248, -0.1578352302312851, -0.23142357170581818, 0.2297460436820984, 0.061912573873996735, -0.03032291680574417, -0.026087958365678787, -0.04952853545546532, -0.011652622371912003, 0.07730500400066376, -0.03795412555336952, 0.18952664732933044, -0.09816612303256989, 0.22659973800182343, 0.04126103222370148, -0.06212308630347252, -0.2796481251716614, -0.16272953152656555, -0.04013008251786232, -0.06748979538679123, 0.07682937383651733, 0.07166091352701187, 0.02875811979174614, 0.13754096627235413, -0.03621372953057289, -0.17560966312885284, 0.24423831701278687, -0.1453714668750763, 0.0272030271589756, 0.04407772794365883, 0.007144288159906864, -0.054848089814186096, 0.00817794818431139, -0.0917702168226242, 0.04622931778430939, -0.2814517617225647, -0.20768460631370544, -0.030139721930027008, -0.11662481725215912, -0.049021098762750626, -0.14557795226573944, -0.02542918734252453, 0.01780390553176403, -0.19272270798683167, 0.014194267801940441, 0.06902119517326355, 0.09767526388168335, -0.053177423775196075, -0.07110501825809479, 0.012028857134282589, -0.06994562596082687, 0.1493946611881256, 0.011656420305371284, 0.23155143857002258, -0.21305641531944275, 0.0542847104370594, 0.08206206560134888, -0.07030397653579712, 0.05312727019190788, -0.247496098279953, -0.00865254458039999, 0.09746907651424408, -0.14726197719573975, 0.06397629529237747, -0.12207641452550888, -0.08904896676540375, -0.03823671489953995, 0.1553887277841568, 0.05338449776172638, 0.06530749052762985, -0.10849049687385559, 0.05494418367743492, -0.02530127391219139, -0.11945156008005142, 0.1505674421787262, 0.09512472152709961, 0.17765013873577118, 0.24619179964065552, -0.19088666141033173, -0.04987873509526253, -0.00012758835509885103, -0.057867567986249924, 0.009364582598209381, -0.028461558744311333, -0.1171940267086029, 0.19550669193267822, -0.19268250465393066, 0.06991002708673477, 0.051373373717069626, 0.046429093927145004, -0.09651392698287964, -0.016400255262851715, 0.07990620285272598, 0.17310784757137299, -0.09082072228193283, -0.007505318615585566, -0.03191189840435982, -0.056004565209150314, -0.2395983189344406, 0.2586660385131836, 0.3304567039012909, -0.08427152037620544, -0.21484658122062683, 0.028250426054000854, 0.15464448928833008, -0.08911269903182983, -0.11062334477901459, -0.03695432096719742, -0.01835119165480137, 0.07144318521022797, 0.12709933519363403, -0.07663070410490036, -0.013225618749856949, -0.4720899164676666, 0.2711864113807678, -0.09878020733594894, 0.07014532387256622, -0.09162618219852448, -0.010440699756145477, -0.08839515596628189, -0.15086357295513153, 0.1162802204489708, 0.16524364054203033, -0.16474482417106628, -0.02463577501475811, -0.038382094353437424, 0.03997022286057472, 0.04062621295452118, -0.12782901525497437, 0.09907251596450806, -0.1090734675526619, 0.14209452271461487, -0.29797184467315674, -0.10222611576318741, -0.10387227684259415, 0.0630715936422348, 0.1080254390835762, 0.10729764401912689, 0.06786501407623291, -0.26060613989830017, -0.08504656702280045, -0.14311707019805908, 0.055169396102428436, -0.058928292244672775, -0.06370437145233154, 0.01761544682085514, -0.05438369885087013, 0.07693202048540115, -0.06719266623258591, -0.18914812803268433, -0.11835693567991257, 0.11662902683019638, 0.1712743043899536, -0.06576676666736603, -0.01432692538946867, 0.08498997241258621, 0.15855920314788818, -0.47002336382865906, -0.02826249785721302, -0.10090478509664536, 0.07709912210702896, -0.13035361468791962, 0.08273809403181076, 0.08083143830299377, -0.19670532643795013, 0.03691522404551506, 0.13292667269706726, -0.07334119826555252, 0.03352297097444534, 0.1675398349761963, -0.10396518558263779, -0.1888146549463272, -0.0359291173517704, 0.08973009139299393, -0.016338936984539032, -0.12313675880432129, 0.0675264447927475, -0.14606697857379913, 0.0419391393661499, -0.04815848916769028, 0.08002696186304092, -0.13420218229293823, -0.10193976014852524, -0.14045217633247375, -0.2817349433898926, -0.06898048520088196, -0.16534772515296936, -0.04194066300988197, -0.01117412094026804, -0.06705556064844131, 0.15429003536701202, 0.09997445344924927, -0.15541088581085205, 0.1856445074081421, 0.045176006853580475, -0.0588468499481678, -0.006308365613222122, -0.10990385711193085, -0.15542930364608765, -0.09105989336967468, -0.008389378897845745, -0.22786086797714233, 0.08878490328788757, 0.11169537156820297, -0.04550744965672493, -0.04231194406747818, 0.06766986101865768, -0.22381709516048431, 0.15140017867088318, -0.11902080476284027], [0.09295324236154556, 0.21349211037158966, 0.3243480920791626, -0.06671320647001266, 0.02551058679819107, -1.778652310371399, 0.17515242099761963, -0.06338322907686234, 0.009484573267400265, -0.20107100903987885, 0.3934815227985382, 0.11927821487188339, -0.21136799454689026, 0.008516832254827023, 0.00234584859572351, 0.22534458339214325, -0.04723399505019188, -0.3675023019313812, -0.4992229640483856, 0.059349436312913895, 0.09248164296150208, -0.011761924251914024, -0.05008286237716675, 0.1608988493680954, 0.3540380895137787, -0.011621923185884953, 0.5432657599449158, 0.10444916039705276, 0.3005440831184387, 0.10443355143070221, 0.19765235483646393, -0.009868007153272629, -0.3358714282512665, 0.05865180492401123, 0.21787603199481964, -0.01648245006799698, -0.08281006664037704, 0.1370895802974701, 0.3638295829296112, 0.027621030807495117, -0.2986345589160919, 0.13455478847026825, 0.3509272038936615, -0.30416056513786316, 0.28009361028671265, -0.06843799352645874, 0.3203665018081665, 0.43942391872406006, 0.25218406319618225, -0.13264018297195435, -0.3661310076713562, 0.17201606929302216, 0.2839532196521759, 0.03229740634560585, 0.05333036184310913, 0.16223308444023132, 0.011900516226887703, -0.08354511111974716, -0.03137252852320671, -0.20701691508293152, 0.040957339107990265, 0.22495204210281372, 0.08574111759662628, 0.0730326846241951, -0.13897894322872162, 0.25954559445381165, -0.8784246444702148, 0.1619100421667099, -0.5088300108909607, 0.0021136775612831116, 0.04761950299143791, -0.034990232437849045, -1.0444917678833008, 0.2175711840391159, -0.37674105167388916, -0.07704037427902222, -0.011855165474116802, -0.526835024356842, 0.03774028643965721, -0.051624495536088943, 0.08135048300027847, 0.3053785562515259, 0.05936402827501297, -0.01261147391051054, 0.09874721616506577, 0.10619349777698517, -0.22853150963783264, 0.1775858998298645, -0.1222638487815857, -0.046216681599617004, 0.13736796379089355, -0.0860801488161087, -0.6513781547546387, 0.3314647078514099, -0.6628837585449219, -0.09628239274024963, 0.1756044179201126, -0.34609469771385193, -0.1496235728263855, -0.24330683052539825, 0.11318158358335495, 0.1316872388124466, -0.39810648560523987, 0.3464834988117218, 0.03556668013334274, 0.2742270529270172, -0.2008397877216339, -0.4464479982852936, 0.6017419099807739, 0.23084822297096252, 0.5088589191436768, 0.21587607264518738, 0.13366840779781342, -0.40998202562332153, -0.12311841547489166, -0.1517166644334793, -0.17752332985401154, 0.22901248931884766, -0.45416563749313354, 0.05085878074169159, 0.06009808927774429, 0.41741129755973816, -0.4701407253742218, 0.16282476484775543, -0.072634257376194, 0.08066941797733307, 0.020535806193947792, 0.0012159188045188785, -0.02673036977648735, 0.3339197337627411, -0.38426098227500916, 0.03791968524456024, -0.06511734426021576, -0.23731428384780884, -0.38485634326934814, -0.17202579975128174, 0.24655646085739136, 0.04896659031510353, -0.31290340423583984, 0.380344033241272, 0.09739521890878677, 0.14193609356880188, 0.10997351258993149, 0.016946638002991676, 0.13757330179214478, 0.0109154237434268, -0.007711191661655903, -0.1807253509759903, -0.257065087556839, -0.31855854392051697, 0.15091098845005035, -0.09611300379037857, 0.1693015843629837, -0.03734226152300835, 0.2130059003829956, 0.19316944479942322, -0.23700101673603058, 0.10404890030622482, -0.07305344194173813, 0.29607078433036804, -0.5285369753837585, 0.2988221347332001, 0.11158131808042526, 0.27337270975112915, -0.12641850113868713, 0.049247369170188904, 0.12915241718292236, 0.06522445380687714, -0.12454316020011902, 0.05629638582468033, -0.20914581418037415, 0.2804468870162964, -0.12865599989891052, 0.12332680821418762, 0.09633669257164001, -0.10156145691871643, 0.08836410194635391, -0.1840006709098816, 0.47621095180511475, -0.29011914134025574, 0.012382138520479202, -0.04619903489947319, -0.2655806243419647, 0.1403866708278656, -0.3358408510684967, 0.0645531639456749, 0.23591311275959015, 0.15633629262447357, 0.2059653401374817, 0.031095776706933975, 0.5398796200752258, 0.034649867564439774, -0.6349706649780273, 0.2479788213968277, -0.020324524492025375, 0.12100774049758911, 0.21677371859550476, -0.009840277023613453, -0.10203833132982254, 0.18900048732757568, 0.05181959643959999, 0.04800370708107948, -0.39002951979637146, 0.5490725636482239, -0.23118102550506592, 0.1891024112701416, 0.02762354165315628, 0.02222534455358982, 0.14567360281944275, 0.2672879993915558, -0.05903494358062744, 0.24076031148433685, -0.29554253816604614, 0.13129766285419464, 0.22303028404712677, -0.20893272757530212, -0.04357096552848816, 0.08623048663139343, -0.014139503240585327, -0.8867402076721191, 0.00528508797287941, 0.24760308861732483, -0.1949433833360672, -0.00909100379794836, -0.2366090565919876, 0.19171330332756042, -0.09295188635587692, 0.39697265625, -0.08312446624040604, 0.353471040725708, 0.029573794454336166, 0.3231247663497925, -0.018159933388233185, 0.30413490533828735, -0.08809078484773636, 0.059612665325403214, -0.34533876180648804, -0.16804437339305878, 0.04271268844604492, 0.28111761808395386, -0.3153114914894104, -0.2834910452365875, 0.027974072843790054, -0.07205568999052048, 0.033769868314266205, 0.1608617752790451, 0.07930479943752289, -0.1296807825565338, -0.34216561913490295, -0.1481965333223343, -0.010782885365188122, 0.3519795536994934, -0.20106732845306396, 0.24487340450286865, -0.3623468279838562, -0.08306082338094711], [0.2236851304769516, -0.01923920400440693, -0.06712044775485992, -0.09646586328744888, 0.1351567804813385, 0.138926163315773, -0.44705092906951904, 0.08617989718914032, -0.1794985979795456, -0.20414409041404724, -0.46288061141967773, -0.36860278248786926, 0.028961263597011566, 0.23848620057106018, 0.04979877173900604, 0.2477269321680069, 0.11909346282482147, 0.061660286039114, -0.15262463688850403, -0.14626748859882355, -0.14807184040546417, 0.12492064386606216, -0.0014050909085199237, -0.09460160881280899, 0.08247117698192596, 0.027428187429904938, 0.2540987432003021, -0.08662401139736176, 0.12580056488513947, 0.02344699390232563, 0.13104918599128723, 0.0711865946650505, -0.06520329415798187, 0.08069750666618347, 0.04294385388493538, -0.0626087561249733, 0.03002048097550869, -0.10864003002643585, -0.041330210864543915, 0.2752680480480194, 0.05982336401939392, 0.13169527053833008, -0.13454733788967133, 0.19175167381763458, -0.1166631281375885, -0.004942005500197411, 0.04517858847975731, 0.17485466599464417, 0.253003865480423, -0.027115818113088608, 0.0928322896361351, 0.08674375712871552, 