{"layers": [{"w": [[-0.006650474388152361, -1.9180510207661428e-05, -0.04558059945702553, 0.009273464791476727, -6.0538481193361804e-05, 0.19228196144104004, -0.035548098385334015, -0.04767560213804245, 0.1574023813009262, 0.16420480608940125, 0.029687589034438133, 4.144633930991404e-05, -0.0003975842264480889, -0.0071474104188382626, -0.03925985097885132, 0.005832300987094641, 1.8428041812512674e-06, -0.0380244255065918, 0.150758758187294, 0.1497078537940979, -0.03890674188733101, -0.00014779246703255922, 0.16245317459106445, 0.09957346320152283, 0.13377797603607178, -0.05843166261911392, 0.19545234739780426, 0.11974553763866425, 0.2051551192998886, -0.03554122895002365, 0.18213124573230743, 0.03232643008232117, -0.03595888242125511, -0.058817923069000244, 0.0006654316675849259, 0.06506996601819992, -0.02988397143781185, 6.25400116405217e-06, -0.07324192672967911, -2.7886002499144524e-05, 0.21129551529884338, 0.19660909473896027, -0.045059725642204285, -0.048246514052152634, -3.587295577744953e-05, 0.21889269351959229, 3.4779390261974186e-05, 0.23917695879936218, -0.01278854999691248, 0.20212960243225098, -0.015678826719522476, 0.0005629329243674874, 0.21232953667640686, -0.061297591775655746, 0.17044766247272491, -0.05149408057332039, 8.220167364925146e-05, -0.031684067100286484, -0.05452876165509224, -0.00522291986271739, 0.20165488123893738, 0.1588784009218216, 0.1944436877965927, 0.00012053567479597405], [-0.06709490716457367, -5.5412397159670945e-06, -0.0977819412946701, 0.0097860898822546, -0.10218530893325806, 0.19851940870285034, -0.1353083997964859, 0.000786022050306201, 0.1995055377483368, 0.1734009087085724, 0.00020694664272014052, -0.06450866162776947, -0.14039449393749237, -0.13865281641483307, -0.14424632489681244, 0.07325997948646545, 4.7754634579177946e-05, -0.16829785704612732, 0.15257298946380615, 0.20113742351531982, -0.04605938866734505, -0.07465310394763947, 0.16565918922424316, 0.14654117822647095, 0.12772758305072784, -0.14183463156223297, 0.16298969089984894, 0.27451515197753906, 0.20954489707946777, -0.11128455400466919, 0.22748948633670807, 0.03290979191660881, -0.0795733705163002, -0.13022716343402863, 1.748160138959065e-05, 0.06496788561344147, -0.026946822181344032, 4.6559849579352885e-05, -0.10900996625423431, -0.05021946504712105, 0.2283657342195511, 0.1984429806470871, -0.087800033390522, -0.04542432352900505, -0.09855246543884277, 0.1867232471704483, -0.11539645493030548, 0.22029173374176025, -0.07141648977994919, 0.19123215973377228, -0.15409065783023834, 2.7535877961781807e-05, 0.1377105563879013, -0.06136227026581764, 0.11228005588054657, -0.1753934770822525, -1.0456463250818615e-08, -0.0001075238615158014, -0.0494227409362793, -0.111596018075943, 0.12732850015163422, 0.16079990565776825, 0.2139325588941574, -0.08984265476465225], [6.253022729652002e-05, 8.04940500529483e-05, -2.3034597688820213e-05, 0.00892688613384962, 7.117865607142448e-05, 0.10228024423122406, -4.2002070586022455e-06, -3.235576150473207e-05, 0.12654531002044678, 0.09977573901414871, 0.015973282977938652, 2.1716225091950037e-05, -1.874100780696608e-05, 2.3027867428027093e-05, -7.203088898677379e-05, 0.006533047650009394, 3.751461463252781e-06, 2.4084413325908827e-06, 0.14254102110862732, 0.012107789516448975, 9.151814992947038e-06, -1.7691309039946645e-05, 0.15175080299377441, 4.961493323207833e-05, 0.08854285627603531, -3.949909296352416e-05, 0.025755438953638077, 0.08206535130739212, 0.1399926096200943, 0.0003993413702119142, -0.0007975738844834268, 0.03235996887087822, -0.00010929905693046749, 0.012634942308068275, -0.02350332960486412, 0.06409119814634323, -0.010379960760474205, 2.8870275855297223e-05, 0.03804865479469299, -6.599449989153072e-05, 0.056836314499378204, -0.0007205887814052403, -3.770546391024254e-05, -0.09192925691604614, -2.528529330447782e-05, 0.11660537868738174, -4.1640309063950554e-05, 0.1524629294872284, 8.691281436767895e-06, 0.16734355688095093, 0.0001979286753339693, 8.422499377047643e-05, 0.00589617807418108, -0.029640356078743935, 0.1464666724205017, 6.662923988187686e-05, 3.214672324247658e-05, -0.0030040801502764225, -0.03309563919901848, -3.721514804055914e-05, 0.06163688376545906, 0.1503417193889618, 0.03535528481006622, -0.0007691193022765219], [7.454519072780386e-05, 5.744249210692942e-05, -4.799447924597189e-05, 2.0604451492545195e-05, -3.662295057438314e-05, 4.822244227398187e-05, -3.077782821492292e-05, -4.855218867305666e-05, 5.3301970183383673e-05, 4.178549352218397e-05, 5.112340659252368e-05, 6.038221181370318e-05, 4.592675395542756e-05, -3.563890277291648e-05, 5.309280095389113e-05, 2.2790783987147734e-05, 2.061046188828186e-06, -6.239068898139521e-05, 7.374471169896424e-05, 2.7753003450925462e-05, -2.134378519258462e-05, -6.122092599980533e-05, -5.7519093388691545e-05, 4.889666161034256e-05, -5.721976776840165e-05, 5.319658521329984e-05, -1.4168312191031873e-05, -4.157351577305235e-05, 2.5645060759416083e-06, -2.0130539724050323e-06, -1.6829873175083776e-06, 6.0593571106437594e-05, 2.235840838693548e-05, -6.04326487518847e-05, -3.5844346712110564e-05, 1.7831335981099983e-06, 5.085403608973138e-05, 8.258338901612206e-09, 2.2348978745867498e-05, -5.074371074442752e-05, 5.5026146583259106e-05, 5.8506753703113645e-05, 4.598909436026588e-05, 4.58342328784056e-05, -6.0561760619748384e-05, 4.586828436003998e-05, -5.733051511924714e-05, -4.2478550312807783e-05, -5.2022711315657943e-05, -2.2774660465074703e-05, 5.341321866580984e-06, -4.00465251004789e-05, 4.827613884117454e-05, 1.4131641364656389e-05, -2.7813481210614555e-05, 7.901193748693913e-05, -2.1407384338090196e-05, 5.7401484809815884e-05, -6.052328535588458e-05, 2.134591568392352e-06, -2.0748705082951346e-06, 5.271608097245917e-05, -2.2805656044511124e-05, -2.2674612409900874e-05], [-2.4499533992639044e-06, -2.2763339075027034e-05, 4.225156953907572e-05, 2.2783362510381266e-05, -5.848873843206093e-05, 5.7333134463988245e-05, 6.210083665791899e-05, 2.2918104605196277e-06, 3.085373100475408e-05, -1.1885425692526042e-06, 5.264896753942594e-05, 5.516586679732427e-05, -5.199145380174741e-05, 2.654378704392002e-06, 4.553661710815504e-05, -7.90418271208182e-05, 6.040502921678126e-05, 4.815559077542275e-05, 2.275222141179256e-05, 4.870581324212253e-05, -4.5546395995188504e-05, 4.8210975364781916e-05, 1.0485395307568979e-07, -1.975121813302394e-05, 3.567784369806759e-05, 4.86543431179598e-05, 2.7825675715575926e-05, 4.52480890089646e-05, -2.7890926503459923e-05, -1.671142058512487e-06, 5.094167499919422e-05, -4.2344701796537265e-05, -2.38432426158397e-06, 9.49050263443496e-06, -1.0316729230908095e-06, 4.853821883443743e-05, -7.379343151114881e-05, 4.567483119899407e-05, 5.8464524045120925e-05, 2.1516785636777058e-05, -4.518766945693642e-05, -2.1950984319119016e-06, -4.596103826770559e-05, -5.176491686142981e-05, 6.238809874048457e-05, -1.3931866305938456e-05, 2.6348654500907287e-05, 5.1273233111714944e-05, -9.126673603532254e-07, 4.861476190853864e-05, -3.0759521905565634e-05, 2.6193667963525513e-06, 5.872885958524421e-05, 5.275045259622857e-05, 5.262777995085344e-05, 4.565538984024897e-05, -7.382119656540453e-05, -5.337365291779861e-05, -1.4158154954202473e-05, 4.844290378969163e-05, -2.7787375074694864e-05, -2.65635776486306e-06, 2.7831729312310927e-05, 6.1659564380534e-05], [-6.118455348769203e-05, -5.053318454883993e-05, -4.869216354563832e-05, 8.032462210394442e-05, 2.2523456664202968e-06, -2.1291223674779758e-05, 2.598208311610506e-06, 3.2919040677370504e-05, 2.3812665972400282e-07, 2.2557440388482064e-05, 5.096569293527864e-05, -1.15347245355224e-06, 5.086123201181181e-05, -5.32005142304115e-05, 5.1016799261560664e-05, -2.7957225029240362e-05, 4.820396134164184e-05, -7.578646909678355e-05, -5.5115400755312294e-05, -6.13310985499993e-05, 2.2716576495440677e-05, 2.7784086341853254e-05, -2.778661837510299e-05, -2.3170362055680016e-06, 2.8826148991356604e-05, -6.074686098145321e-05, -5.297615280142054e-05, 5.852325557498261e-05, 1.818980592815933e-07, 2.043234644588665e-06, 2.0977461190341273e-06, -2.3649120066693285e-06, 4.0707058360567316e-05, -7.558323704870418e-05, -2.283537105540745e-05, 5.1058386685287616e-11, 5.531671195058152e-05, -6.199245399329811e-05, -5.084537042421289e-05, -8.788778131929575e-07, -4.5616769057232887e-05, 1.7703279127090354e-06, 8.033716585487127e-05, -1.4881528898058605e-07, 3.591112829326448e-07, -1.073698854270333e-06, -1.145934561463946e-06, 4.492162770475261e-05, -2.2681469999952242e-05, -2.244173265353311e-05, -5.034611967857927e-05, 5.0836319132940844e-05, 4.7972505853977054e-05, -6.0130609199404716e-05, 1.7681019016890787e-05, 4.631657793652266e-05, -4.632469790522009e-05, -0.00012113832781324163, -6.024487083777785e-05, -3.570886838133447e-05, 5.290479020914063e-05, 7.387969526462257e-05, -5.091842103865929e-05, 5.5143980716820806e-05], [-0.0061502535827457905, -7.566141903225798e-06, -1.0978232239722274e-05, 0.007227722555398941, 7.283492595888674e-05, 0.19625256955623627, 6.175751332193613e-05, 0.04722687974572182, 0.20867249369621277, 0.14527730643749237, 0.07221747934818268, 6.77282441756688e-05, -4.7853820433374494e-05, 5.651463197864359e-06, 5.1327235269127414e-05, 0.0563637875020504, -2.3626666916243266e-06, -2.736399255809374e-05, 0.1387454867362976, 0.18110291659832, -1.3887380191590637e-05, -6.284156552283093e-05, 0.15169848501682281, 0.1716557741165161, 0.14046931266784668, 1.0601778740237933e-05, 0.20879581570625305, 0.24798724055290222, 0.20939728617668152, 3.5603385185822845e-05, 0.12427622079849243, 0.028270849958062172, -9.614737791707739e-05, -3.5317116271471605e-05, 2.7373105695005506e-05, 0.058567192405462265, -2.1311307136784308e-05, 4.836744847125374e-05, -0.0006407061591744423, -0.0030766213312745094, 0.2553050220012665, 0.2152024209499359, -0.021079624071717262, 1.040960614773212e-05, -3.971601836383343e-05, 0.21696746349334717, 2.597621460154187e-05, 0.15995652973651886, -2.2058367903809994e-05, 0.20775771141052246, 1.482605148339644e-05, 3.644727257778868e-05, 0.12088051438331604, -6.070315430406481e-05, 0.1544141322374344, 0.00018762149557005614, -1.6731402865843847e-05, 0.014227241277694702, -8.346095273736864e-05, -0.0002657872100826353, 0.13678552210330963, 0.14732281863689423, 0.2226741760969162, -0.005256971810013056], [0.13915880024433136, 2.6225767214782536e-05, 0.07435064017772675, 5.187678834772669e-05, 0.046309757977724075, 0.041772451251745224, 0.1523321121931076, 0.06723067164421082, 0.014774193987250328, 0.03515508025884628, 3.443465175223537e-05, 0.07876332104206085, 0.04216847941279411, 0.09514471888542175, 0.09687652438879013, -0.03480857238173485, -4.780851668328978e-05, 0.08532258123159409, 2.8636839488171972e-05, 0.00014932533667888492, 0.09856478869915009, 0.03617764264345169, 2.2240705220610835e-05, 6.518976442748681e-05, 0.00010215455404249951, 0.11707443743944168, 0.00023352263087872416, 0.030879521742463112, 0.040480837225914, 0.04231695830821991, 0.03034958802163601, -0.0014182614395394921, 0.07256041467189789, 0.17500054836273193, 0.017330583184957504, -0.024868890643119812, 0.030765816569328308, -6.586971721844748e-05, 0.09236700087785721, 0.11627887934446335, 0.009069939143955708, 7.404908683383837e-05, 0.00841042771935463, 0.054288797080516815, 0.1316053867340088, 0.0012693250318989158, 0.11294716596603394, 6.538048182846978e-05, 0.07474295794963837, 0.025469139218330383, 0.17215146124362946, 0.00053699518321082, 0.014732143841683865, 0.06791979819536209, 0.025718793272972107, 0.1286550611257553, 2.0300818505347706e-05, 0.05646321177482605, 0.05393707752227783, 0.1377696394920349, 4.606761285685934e-05, -7.99599292804487e-05, 0.07355407625436783, 0.18228109180927277], [1.917513509397395e-05, 3.1845086141402135e-06, -2.9075739803374745e-05, 0.006955709774047136, -2.6688181606004946e-05, 0.1816035360097885, -0.006418130826205015, 0.022967230528593063, 0.18663960695266724, 0.15706709027290344, 0.030799953266978264, -2.7084701287094504e-05, -2.9727494620601647e-05, 5.914082794333808e-05, -0.026459934189915657, 0.025581413879990578, 6.636042235186324e-05, 4.390217873151414e-05, 0.13876958191394806, 0.18106921017169952, -2.4482022126903757e-05, -3.5742585168918595e-05, 0.15166085958480835, 0.14429552853107452, 0.10926438122987747, 0.00015220363275147974, 0.12172915786504745, 0.2358146458864212, 0.1913619190454483, 4.4081876694690436e-05, 0.19104252755641937, 0.028539657592773438, -0.010255533270537853, -2.3530848920927383e-05, 0.02976510114967823, 0.058716822415590286, 2.898910861404147e-05, 1.636390879866667e-05, -4.400181205710396e-05, 1.7244627088075504e-05, 0.16041460633277893, 0.12237098067998886, 3.336706504342146e-05, 0.030735185369849205, -3.1594485335517675e-05, 0.213672935962677, 2.877840779547114e-05, 0.22138647735118866, -5.611018059425987e-05, 0.18119235336780548, 1.8265754988533445e-05, 3.6709905543830246e-05, 0.17299970984458923, 1.4345313502417412e-05, 0.1544853299856186, 6.022306934028165e-06, 4.317720959079452e-05, 0.03421952947974205, -8.314430306199938e-05, -0.0016812129179015756, 0.1356276273727417, 0.1473287045955658, 0.1302131712436676, -0.03769977018237114], [-0.02185203693807125, 3.457374623394571e-05, -1.1598262972256634e-05, 0.0070573133416473866, 3.5317605124873808e-06, 0.24199114739894867, -0.015538596548140049, 0.009402402676641941, 0.16447539627552032, 0.17209771275520325, -2.2228896341403015e-05, -0.00011750164412660524, -0.008805397897958755, 4.310878284741193e-05, 8.616723062004894e-05, 0.06450767070055008, -1.861065720731858e-05, -0.03975776210427284, 0.13841623067855835, 0.21293441951274872, -0.0001067131306626834, -6.204591045388952e-05, 0.15169064700603485, 0.129420205950737, 0.10911430418491364, -8.543470175936818e-05, 0.2345868945121765, 0.18092232942581177, 0.19140394032001495, -0.0040732924826443195, 0.19336660206317902, 0.0285511314868927, -0.007278439588844776, -0.028743192553520203, 2.4424442017334513e-05, 0.05857207253575325, -0.00012550363317131996, 4.1248811612604186e-05, -0.00040419187280349433, -3.3626361982896924e-05, 0.20127277076244354, 0.18490511178970337, 1.591867476236075e-05, 0.02987716719508171, -1.0875996849790681e-05, 0.17356178164482117, 9.905477782012895e-06, 0.19712911546230316, -0.009964706376194954, 0.18364013731479645, -0.039197735488414764, -2.096189518852043e-06, 0.11679717153310776, -3.021047177753644e-06, 0.15453779697418213, -0.0038095193449407816, 4.635646837414242e-05, 0.03020692616701126, -8.429914305452257e-05, -2.7181426048628055e-05, 0.12029477953910828, 0.14735712110996246, 0.18280933797359467, -0.028859473764896393], [1.8274426111020148e-05, -2.918139762186911e-05, 0.01760856620967388, 1.9325731045682915e-05, -2.096245952998288e-05, 0.03399452194571495, -3.372962601133622e-05, 0.07623661309480667, 1.1734149666153826e-05, -0.00076903315493837, -0.013737413100898266, 8.470664033666253e-05, 6.811529601691291e-05, 8.698695637576748e-06, 1.281703771383036e-05, -0.01447802409529686, -2.7406649678596295e-05, 2.9936158171040006e-05, 5.246449291007593e-05, 0.002953825518488884, -0.00036123691825196147, -0.0005259339231997728, 1.3630457033286802e-05, -2.214692904090043e-05, 6.534894782816991e-05, -1.4768253095098771e-05, 0.007067184429615736, -2.1874706362723373e-05, 0.030884426087141037, -8.494994108332321e-05, 0.04671313986182213, -0.00212465925142169, -3.8430109270848334e-05, 7.686549361096695e-05, 0.059392720460891724, -0.02868247777223587, 0.026776066049933434, 2.0132860299781896e-05, -5.303623402141966e-05, 0.013537525199353695, 0.07418917864561081, -0.00010004115029005334, 0.013021022081375122, 0.029974553734064102, 8.591307960159611e-06, -5.3718144044978544e-05, -2.036904788838001e-06, 0.011998717673122883, 0.02505069598555565, 0.023425940424203873, 0.00020959235553164035, -0.0006854868261143565, -1.3631788533530198e-05, 0.05701558664441109, 0.0035955444909632206, 3.549941902747378e-05, 1.0423247658764012e-05, 0.05022213235497475, 0.04713454842567444, 1.2664826499531046e-05, 7.936973815958481e-06, 1.4362322872329969e-05, -8.759985576034524e-06, -5.3836803999729455e-05], [-4.810268001165241e-05, -5.517698446055874e-05, -3.230466609238647e-05, 7.579819794045761e-05, -6.235315959202126e-05, 2.278021929669194e-05, 3.2890606235014275e-05, 4.5808796130586416e-05, 2.2714968508807942e-05, 3.278055373812094e-05, 2.2934169464861043e-05, -4.5714266889262944e-05, -6.15183962509036e-05, -4.863677895627916e-05, -3.281373210484162e-05, -5.291841080179438e-05, -5.323666118783876e-05, -6.0174555983394384e-05, 5.103506919112988e-05, -5.265651907393476e-06, -4.597617225954309e-05, -2.287902680109255e-05, -4.097378041478805e-05, 5.3296353144105524e-05, 2.4229677819676e-07, 2.772343395918142e-05, -4.1413270082557574e-05, -2.0675945506809512e-06, 5.0781429308699444e-05, 0.00012099673767806962, 5.0456481403671205e-05, -3.584510341170244e-05, -5.213438271312043e-05, 2.281009074067697e-05, -9.764047490534722e-07, -7.366595673374832e-05, 2.534643783747015e-07, 4.7515237383777276e-05, -4.633261414710432e-05, -5.323605000739917e-05, -4.5519125706050545e-05, -1.9720368072739802e-05, -4.237593020661734e-05, -9.102963360874128e-08, 2.12213512895687e-06, 7.343918696278706e-05, 5.288482498144731e-05, 4.87414508825168e-05, -1.2552483212857624e-06, 5.072473504696973e-05, 7.359182927757502e-05, -1.4202961438058992e-06, -5.8733341575134546e-05, -6.121767364675179e-05, -6.125996151240543e-05, -0.00012118733866373077, 4.859080945607275e-05, -2.28865937970113e-05, 4.830841498915106e-05, 5.120394689583918e-06, -1.40344864121289e-05, 5.2106355724390596e-05, 3.2909232686506584e-05, 4.141475437791087e-05], [-7.564173574792221e-05, -5.304870865074918e-05, 5.041893746238202e-05, 5.7513825595378876e-05, 4.876175080426037e-05, 4.632196214515716e-05, 1.6921841279327055e-06, 1.9579360014176928e-05, -5.325458914740011e-05, -5.849738226970658e-05, -1.049106117534393e-06, -2.2931471903575584e-05, 5.052266351412982e-05, -5.201642488827929e-05, 4.5557892008218914e-05, 5.866995343239978e-05, 5.8626690588425845e-05, -4.876470484305173e-05, -2.1490180301952932e-07, 6.0443388065323234e-05, -2.584122057669447e-06, -4.570448800222948e-05, -5.136111269621324e-08, 5.102326031192206e-05, 2.0432055407582084e-06, -2.1188167011132464e-05, 4.5554137614089996e-05, 2.509905527858791e-07, 6.145681982161477e-05, 1.0112129302797257e-06, 5.045316356699914e-05, 5.046764272265136e-05, -5.309739935910329e-05, 5.195367702981457e-05, 1.993059640881256e-06, 8.262604387709871e-05, 4.52735839644447e-05, -3.107407167135534e-07, -2.2818578145233914e-05, 3.2875170290935785e-05, -4.154988346272148e-05, 1.2572860441650846e-06, -1.0496297591089387e-06, 4.8535948735661805e-05, -7.070427818689495e-05, 5.101225906400941e-05, 4.5171749661676586e-05, 6.144622602732852e-05, 2.241373522338108e-06, 2.2235037704376737e-06, 4.5647066144738346e-05, -5.198895087232813e-05, 5.314373265719041e-05, 5.104019146529026e-05, -5.7423399994149804e-05, -4.7899222408887e-05, 1.403626174578676e-05, -6.04387023486197e-05, -9.976505452868878e-07, -4.250515121384524e-05, 7.580774399684742e-05, 1.042324925037974e-06, 2.4674156975379447e-06, -7.344486220972613e-05], [-6.122852209955454e-05, 4.5162931201048195e-05, 5.2701208915095776e-05, -7.59126924094744e-05, -2.7826228688354604e-05, 2.2772564989281818e-05, 2.1204901713645086e-05, 3.2865798857528716e-05, -1.9673540009534918e-05, 3.282272518845275e-05, 4.553655890049413e-05, -1.018285161080712e-06, 6.132353155408055e-05, -2.789942482195329e-05, -5.318508920026943e-05, -5.183514440432191e-05, -2.0531299469439546e-06, 4.8510541091673076e-05, -6.03816588409245e-05, -4.871374403592199e-05, 5.0906255637528375e-05, -6.140801269793883e-05, -5.861024692421779e-05, -5.0784106861101463e-05, 6.236563058337197e-05, -4.139461452723481e-05, 5.2829440392088145e-05, 6.13080701441504e-05, 5.08304983668495e-05, -4.567957512335852e-05, 5.1902461564168334e-05, 1.2242531965966919e-06, -4.8573638196103275e-05, -5.322691140463576e-05, 6.128292443463579e-05, -4.5693865104112774e-05, -5.270745077723404e-06, 5.072426938568242e-05, 6.122986815171316e-05, -4.862294008489698e-05, 0.00012089481606381014, 4.1571420297259465e-05, -6.116947770351544e-05, -5.7416793424636126e-05, -1.6048726365625043e-06, -4.603551496984437e-05, -2.1137642761459574e-05, -1.495616857027926e-06, -6.0315593145787716e-05, -7.580282544950023e-05, 4.525830445345491e-05, 4.836889274884015e-05, 2.1639282294927398e-06, -4.594570054905489e-05, -2.2113965769676724e-06, -4.792614345205948e-05, -1.3919031516707037e-05, -7.372244726866484e-05, 5.2755472097487655e-06, -5.2165698434691876e-05, 5.0844635552493855e-05, 2.3065661025611917e-06, 4.041625288664363e-05, 5.289419641485438e-05], [4.7919304051902145e-05, -6.14513483014889e-05, 2.1329029550543055e-05, 1.961480847967323e-05, 7.070355059113353e-05, -2.2862874175189063e-05, -5.215123383095488e-05, 4.8153058742173016e-05, -6.035467959009111e-05, 2.777378358587157e-05, 2.1269337594276294e-05, 1.5921542626529117e-06, -5.5281554523389786e-05, -5.283822974888608e-05, 1.415381848346442e-05, 5.3182644478511065e-05, 2.108467379002832e-05, 9.88017177405709e-07, -6.0158432461321354e-05, 4.828588862437755e-05, -4.795181303052232e-05, 2.1152864064788446e-05, -4.860271292272955e-05, 7.3517847340554e-05, 5.864748527528718e-05, 2.542881929912255e-06, 5.351653726393124e-06, -2.1257550542941317e-05, 4.5874745410401374e-05, -4.55861518275924e-05, -2.2989408989815274e-06, 3.575991649995558e-05, 5.196616257308051e-05, -6.023026071488857e-05, -8.959483238868415e-06, 4.85557975480333e-05, -4.87321667606011e-05, 1.0041406994787394e-06, -4.825573705602437e-05, -7.063223165459931e-05, 7.457083120243624e-05, -1.3999445400258992e-05, 6.118676537880674e-05, -5.045939178671688e-05, -5.1978066039737314e-05, -5.0517686759121716e-05, -2.378649014644907e-06, 2.1510237274924293e-05, 2.0992886220483342e-06, -0.00012126842193538323, -5.8614932640921324e-05, 7.588809967273846e-05, 5.3012823627796024e-05, -1.985521748792962e-06, 7.56805602577515e-05, 4.849508695770055e-05, 6.0217600548639894e-05, -5.3201882110442966e-05, -5.52267229068093e-05, 3.5843531804857776e-05, -5.0438931793905795e-05, -2.305014561443386e-07, -1.1810337809947669e-06, 2.787777157209348e-05], [4.5899163524154574e-05, 5.2644631068687886e-05, 5.3175252105575055e-05, 5.508877075044438e-05, -5.327584858605405e-06, -5.517782847164199e-05, 5.032036278862506e-05, -7.076146721374243e-05, 5.026104918215424e-05, 2.529144921936677e-06, 4.286628609406762e-05, 2.112253787345253e-05, 6.0376361943781376e-05, -0.00012124187924200669, 2.7839936592499726e-05, -4.572820762405172e-05, 7.587820437038317e-05, -4.28247258241754e-05, 1.1059747748731752e-06, -5.5266857089009136e-05, -1.9862202407239238e-06, -2.2704811271978542e-05, 6.055084668332711e-05, 5.332292494131252e-05, 3.6586337159860705e-07, -5.2746843721251935e-05, 5.078777394373901e-05, -2.4161929559340933e-06, -5.735355080105364e-05, -5.853923357790336e-05, 5.314626469044015e-05, 2.1224401280051097e-05, -5.3066898544784635e-05, 1.1908417718586861e-06, 2.7908912670682184e-05, 2.7723288440029137e-05, -5.749185220338404e-05, 5.3292773372959346e-05, -4.8542089643888175e-05, 4.142025500186719e-05, -4.585891292663291e-05, 4.8162080929614604e-05, -1.2083622777936398e-06, -5.507686728378758e-05, -3.509573434712365e-05, -4.8683854402042925e-05, 5.0928381824633107e-05, 3.080303213209845e-05, -0.000121197612315882, 6.126074731582776e-05, -2.2919433831702918e-05, -2.115996539941989e-05, -2.78435464906579e-07, 2.340572973480448e-05, 1.3955062058812473e-05, 6.025121547281742e-05, -1.0734078159657656e-06, 4.630449984688312e-05, -5.2706651331391186e-05, 4.498775160755031e-05, 4.09081949328538e-05, 2.7825588404084556e-05, -5.0531161832623184e-05, 5.524319567484781e-05], [-2.1460760763147846e-05, -4.5985572796780616e-05, 3.681459929794073e-05, -1.1656960623440682e-06, -7.562753307865933e-05, 2.1176845621084794e-05, 4.861362685915083e-05, -2.1236741304164752e-05, -2.236856562376488e-05, 5.741015775129199e-05, 5.742709618061781e-05, 5.2793002396356314e-05, 4.8790869186632335e-05, 6.0354534070938826e-05, 5.078499088995159e-05, 5.036884977016598e-05, 1.0427032748339116e-06, -5.278066237224266e-05, 2.15679779103084e-06, -5.294862057780847e-05, -2.7850035621668212e-05, -4.572625766741112e-05, 6.119220779510215e-05, -1.5446568113475223e-06, 5.868706648470834e-05, -3.07719201373402e-05, -1.0202639941780944e-06, 5.32307822140865e-05, 4.5992965169716626e-05, -5.2045063057448715e-05, 5.193330434849486e-05, -5.848300497746095e-05, 1.3943798876425717e-05, 3.2793446735013276e-05, 5.5158881878014654e-05, -4.801965405931696e-05, -5.506403249455616e-05, -4.8629852244630456e-05, -5.508024332812056e-05, -2.1072630715934793e-06, 1.4020545677340124e-05, 4.5117936679162085e-05, -4.56596098956652e-05, -1.2237584314789274e-06, 1.054199060490646e-06, -5.853271431988105e-05, -2.4109542664518813e-06, -5.2786570449825376e-05, -3.087957520619966e-05, -2.1694288534490624e-06, 5.269271059660241e-05, -1.6084524077086826e-06, 5.1256120059406385e-05, -3.091691542067565e-05, 5.308404070092365e-05, 4.2493160435697064e-05, 5.868965672561899e-05, -7.352899410761893e-05, 2.3561808575323084e-06, -4.861199704464525e-05, -4.833024286199361e-05, 5.734563455916941e-05, -4.5079083065502346e-05, -2.4253606625279645e-06], [-5.315415182849392e-05, 6.044638575986028e-05, 5.321352364262566e-05, -2.1370944978116313e-06, 5.854348273715004e-05, -6.165225931908935e-05, 2.1282958186930045e-05, 4.573114711092785e-05, 5.375080945668742e-05, 5.078914182377048e-05, 5.102470822748728e-05, -2.7791886168415658e-05, 1.2133099289712845e-06, -2.098095364999608e-06, -5.106808021082543e-05, 4.581874964060262e-05, 5.035015055909753e-05, 6.122620106907561e-05, 1.9675868315971456e-05, 2.7796972062787972e-05, -4.558664659271017e-05, 4.829476529266685e-05, -6.166509410832077e-05, 6.0369318816810846e-05, 5.752284778282046e-05, 5.5192816944327205e-05, 2.872539255349693e-07, 5.195679113967344e-05, 1.4037105756870005e-05, -2.78579809673829e-05, 5.741597851738334e-05, -2.513836307116435e-06, -5.075215085525997e-05, 4.856895247939974e-05, 5.081597555545159e-05, -9.952346999853035e-07, 1.4032216313353274e-05, 4.5193752157501876e-05, 1.4258766896091402e-05, -5.319705087458715e-05, 4.0066286601359025e-05, 5.7418394135311246e-05, -5.119831985211931e-05, -3.577918323571794e-05, -2.2721207642462105e-05, 4.8114845412783325e-05, 7.586665014969185e-05, 5.072113708592951e-05, 3.2593768992228433e-05, -6.144843791844323e-05, 4.808149242307991e-05, -5.0894759624497965e-05, 5.529505870072171e-05, 4.245021773385815e-05, 5.212504038354382e-05, -4.630265902960673e-05, 5.8541940234135836e-05, 1.1470696108517586e-06, -4.585550777846947e-05, 5.0480986828915775e-05, 6.126886728452519e-05, 5.1939823606517166e-05, -1.76577359525254e-05, 4.599008389050141e-05], [4.597957740770653e-05, 7.345667836489156e-05, 9.824491826293524e-06, 0.00012083314504707232, -1.28315889469377e-06, -4.49475301138591e-05, 1.7704040146782063e-05, -4.0598821215098724e-05, 5.0887629186036065e-05, 5.081699418951757e-05, 2.1326090063666925e-05, 5.504657747223973e-05, -1.5056285747050424e-06, -6.12907824688591e-05, 5.036166112404317e-05, -7.142956519601285e-07, 5.853611946804449e-05, -4.5731088903266937e-05, 5.097608300275169e-05, 2.751804822764825e-05, -3.281739111571369e-07, 5.0755945267155766e-05, -4.863318463321775e-05, 5.7565513998270035e-05, -6.044449401088059e-05, -7.362000178545713e-05, -4.7913599701132625e-05, -5.0762802857207134e-05, 2.65787116404681e-06, 1.3264653944133897e-06, 2.1210897102719173e-05, -1.0083898587254225e-06, -7.459175685653463e-05, 4.114566820589971e-08, -2.7766449420596473e-05, -5.872440669918433e-05, -2.48924180823451e-07, -5.2718409278895706e-05, -4.5838190999347717e-05, -6.142829806776717e-05, 7.20465664016956e-07, 5.684103962266818e-05, -2.0813315586565295e-06, -3.65750165656209e-05, 3.6804615888286207e-07, -6.0392310842871666e-05, 5.075840817880817e-05, 4.085190812475048e-05, -6.059799488866702e-05, 0.00012129336391808465, -2.510111016817973e-06, 5.513184441952035e-05, 2.2708594769937918e-05, 2.2764212189940736e-05, 1.413626887369901e-05, -5.198954022489488e-05, 4.5649219828192145e-05, -2.883944944187533e-05, -5.270467227092013e-05, -6.0543832660187036e-05, -3.0791419703746215e-05, 2.786714867397677e-05, -2.67088057626097e-06, 8.264580537797883e-05], [1.4134609955362976e-05, -5.0791761168511584e-05, -2.1661153368768282e-05, -1.9712044377229176e-05, -6.131514237495139e-05, 2.661247208379791e-06, -3.271722380304709e-05, 2.2701533453073353e-05, -5.106973912916146e-05, -7.457379979314283e-05, -3.2361288049287396e-07, 8.920327445594012e-07, 1.3978781680634711e-05, 5.127748227096163e-05, -6.058498547645286e-05, -5.113617589813657e-05, 2.1261043002596125e-05, -6.0177146224305034e-05, 6.025462062098086e-05, -2.768271770037245e-05, 5.846044950885698e-05, -8.614224498160183e-06, 4.587122384691611e-05, -3.087611185037531e-05, -4.5637723815161735e-05, -8.951392374001443e-06, 6.022406159900129e-05, 9.310318773714243e-07, 7.072791049722582e-05, -1.3731188346355339e-06, -5.196409620111808e-05, -5.852188769495115e-05, 4.55184854217805e-05, -5.031154432799667e-05, -4.812121915165335e-05, -5.50730837858282e-05, -2.097134938594536e-06, -4.8014997446443886e-05, 2.630455355756567e-06, 1.2103995459256112e-06, -5.038709787186235e-05, 3.9555579860461876e-05, 5.208155926084146e-05, 2.717124800710735e-07, -2.1101734546391526e-06, 2.3591476860929106e-07, -5.949645128566772e-05, -5.303468060446903e-05, -2.061831992250518e-06, -1.4214208931662142e-05, -6.138350727269426e-05, -1.1023076922356267e-06, -5.321657954482362e-05, -6.238387868506834e-05, -6.063484033802524e-05, -4.256250031176023e-05, 2.2463415007223375e-05, 5.972008511889726e-05, -4.587512376019731e-05, -9.816400961426552e-06, -0.00012072618847014382, -4.839069151785225e-05, 2.285140726598911e-05, -4.8538538976572454e-05], [-3.0883297768014017e-06, 3.089110032306053e-05, -1.7077255733966012e-06, 6.137582386145368e-05, 2.121278885169886e-05, 1.6434844951618288e-07, -4.5860135287512094e-05, -4.0318231185665354e-05, -5.3116258641239256e-05, -4.597867518896237e-05, -5.2190116548445076e-05, -2.291461214554147e-06, -2.1235198801150545e-05, -2.1940215901850024e-06, 1.6632258166282554e-06, -5.043325654696673e-05, -5.51435150555335e-05, 5.5082513426896185e-05, 5.858742952113971e-05, 4.560987144941464e-05, 0.00012115957360947505, 5.272105772746727e-05, -1.9678225726238452e-05, -4.516197077464312e-05, -5.7524885050952435e-05, -5.510346818482503e-05, -1.4823455103396554e-06, -6.129296525614336e-05, 2.293979559908621e-05, -5.335793684935197e-05, -5.028354644309729e-05, 1.97417593881255e-05, 6.147319072624668e-05, -2.2902970613358775e-06, 5.079574839328416e-05, -5.214232805883512e-05, 2.856614855772932e-07, -1.4187986380420625e-05, 4.250506390235387e-05, 4.5745262468699366e-05, 5.1260922191431746e-05, -6.128324457677081e-05, 4.580643872031942e-05, -4.811758117284626e-05, -1.3988007594889496e-05, 4.575603088596836e-05, -5.2005336328875273e-05, 5.213572148932144e-05, -4.8042093112599105e-05, 5.0485614337958395e-05, 4.5212378608994186e-05, -2.771141407720279e-05, -2.2558167984243482e-05, -4.809156234841794e-05, -1.1831874644485652e-06, -6.139401375548914e-05, 5.179140134714544e-05, -2.3223039988806704e-06, 3.5730376112041995e-05, -2.185772063967306e-05, -2.2801039449404925e-05, -5.0946622650371864e-05, 4.549761797534302e-05, -5.521057028090581e-05], [-2.2744712623534724e-05, 4.56820780527778e-05, 6.0614584072027355e-05, -2.7900443456019275e-05, 1.9792720195255242e-05, 5.867280560778454e-05, -4.555268242256716e-05, -4.822098708245903e-05, -3.0860192055115476e-05, 6.69650376039499e-07, 6.024687900207937e-05, -1.4144767192192376e-05, 2.2923526557860896e-05, 4.25831058237236e-05, 2.28550452447962e-05, -3.2713444397813873e-07, 1.567416006764688e-06, 3.577240204322152e-05, -5.129704004502855e-05, 4.83697367599234e-05, 2.7510714062373154e-05, 2.280195985804312e-05, 6.040508742444217e-05, -6.133229180704802e-05, 5.51363846170716e-05, 2.7782922188634984e-05, -2.630018798299716e-06, 8.005639392649755e-05, 5.520693230209872e-05, 3.0768427677685395e-05, -5.31809700987651e-06, -0.00012103602784918621, -2.7952219170401804e-05, 5.2870593208353966e-05, 5.318893090588972e-05, 4.793621337739751e-05, 1.0720690397647559e-06, -5.847660213476047e-05, -1.171720555248612e-06, 4.039366831420921e-05, 2.1361334034963875e-08, -1.166918423223251e-06, -4.236827589920722e-05, -5.1173610700061545e-05, -4.550570884020999e-05, 5.510492337634787e-05, -1.4208242646418512e-05, -4.2857758671743795e-05, 5.030292959418148e-05, -3.536397628067789e-07, -2.637589568621479e-05, 5.861336103407666e-05, 5.199910810915753e-05, 2.27405712394102e-06, 2.278964893775992e-05, 2.2789503418607637e-05, -9.424696827409207e-07, -5.3208314056973904e-05, -1.8682123481994495e-05, 5.982319999020547e-05, -7.346747588599101e-05, 5.75245067011565e-05, 2.1400894183898345e-05, -6.011070217937231e-05], [4.559942317428067e-05, 2.356559207328246e-06, 6.118446617620066e-05, 1.403885198669741e-05, 5.052574852015823e-05, -7.588219159515575e-05, -5.5332544434349984e-05, -5.085875091026537e-05, -4.097351848031394e-05, -6.05404275120236e-05, 5.2109295211266726e-05, 5.200236773816869e-05, 4.629894101526588e-05, -6.137166201369837e-05, 5.208868969930336e-05, 5.197807331569493e-05, 2.0085428786842385e-06, -7.457080209860578e-05, -1.5811639968887903e-05, -2.0628506263165036e-06, -5.755806341767311e-05, 0.00012102764594601467, 3.273131005698815e-05, 4.571938916342333e-05, 4.5641740143764764e-05, 5.060018156655133e-05, -2.1294017642503604e-05, 4.559884109767154e-05, 2.072542201858596e-06, 6.011390360072255e-05, 2.1220501366769895e-05, 4.248572440701537e-05, -5.685527139576152e-05, 6.0440332163125277e-05, -6.018058047629893e-05, 4.049689960083924e-05, 6.0576632677111775e-05, 7.355809793807566e-05, 5.277344462228939e-05, 6.0582424339372665e-05, -5.214136763243005e-05, 1.842749406932853e-05, -5.217754369368777e-05, 5.053110362496227e-05, -4.581115354085341e-05, -4.5740285713691264e-05, -5.305921513354406e-05, 5.300144403008744e-05, 7.88728502811864e-05, -4.591042670654133e-05, -2.5030387860169867e-06, -7.353111868724227e-05, 7.268102990565239e-07, -5.2695882914122194e-05, -6.0301157645881176e-05, 7.372675463557243e-05, 1.3767568134426256e-06, 3.260005541960709e-05, 6.238035712158307e-05, 6.0509344621095806e-05, -4.5621251047123224e-05, 7.456538878614083e-05, 1.6918031178647652e-05, -4.551455640466884e-05], [6.137774471426383e-05, 8.013538899831474e-05, 4.5068576582707465e-05, -6.149985711090267e-05, 3.352752457885799e-07, -5.086906094220467e-05, -1.8617542082211003e-05, 5.319259798852727e-05, 5.08233679283876e-05, 6.0602564190048724e-05, -6.205112731549889e-05, -4.246520620654337e-05, 0.00012832469656132162, -7.387713412754238e-05, 5.36719517185702e-06, -6.153680442366749e-05, 5.685573705704883e-05, -4.5853965275455266e-05, -4.863570211455226e-05, 4.572247416945174e-05, 5.328180122887716e-05, -2.2648603135166923e-06, 2.267890886287205e-05, 7.384392665699124e-05, 4.877886385656893e-05, -3.289970891273697e-07, 3.0827595765003935e-05, 5.312787106959149e-05, -0.00012072060053469613, -5.103187504573725e-05, 6.117136945249513e-05, 3.2910571462707594e-05, -4.1481169319013134e-05, -9.362123591927229e-07, 3.6550918594002724e-05, -5.5098986194934696e-05, -5.19270179211162e-05, -4.7978297516237944e-05, 1.4237622963264585e-05, -2.114069866365753e-05, -6.051752279745415e-05, -3.2767806260380894e-05, -1.2173262575743138e-06, -4.52701497124508e-05, 7.24431301932782e-05, 8.963499567471445e-06, 8.975915761766373e-07, -3.657667548395693e-05, -6.0454018239397556e-05, -3.07710470224265e-05, -2.3022636014502496e-05, -4.5811299060005695e-05, -2.3999821223696927e-06, -3.080038368352689e-05, -2.788071105896961e-05, -1.4236473361961544e-05, 2.2041788270144025e-06, 5.265013169264421e-05, -1.5220425808593063e-08, 5.858795339008793e-05, -5.7410303270444274e-05, -1.5410591004183516e-05, 4.251494465279393e-05, 5.5270174925681204e-05], [4.798583540832624e-05, 6.127361120888963e-05, 5.2005685574840754e-05, -4.805449134437367e-05, 2.2700191038893536e-05, 5.308514664648101e-05, -2.2789707145420834e-05, 5.0836493755923584e-05, -2.283368303324096e-05, 5.2818468248005956e-05, -6.055745325284079e-05, 6.059304723748937e-05, 3.2596970413578674e-05, -5.8626166719477624e-05, 5.296101880958304e-05, 1.0926161166935344e-06, -7.347431528614834e-05, -5.861400131834671e-05, -4.84704360133037e-05, -5.3079471399541944e-05, 5.307824903866276e-05, -2.2567694486497203e-06, -5.7421420933678746e-05, 1.0914228596448083e-06, -4.096277916687541e-05, -3.630351056926884e-05, 4.520780930761248e-05, 1.1067314744650503e-06, 6.124060018919408e-05, 1.5720632291049697e-05, -4.6026842028368264e-05, 5.530201451620087e-05, 4.55934859928675e-05, 4.153335248702206e-05, -6.852209253338515e-07, 5.037702794652432e-05, -5.321928620105609e-05, 4.877637547906488e-05, 6.056589336367324e-05, 3.2916886993916705e-05, -5.172524834051728e-05, -2.1956223008601228e-06, 2.1304407709976658e-05, 5.1943927246611565e-05, -1.469526438313551e-07, 3.5854678571922705e-05, -4.810340760741383e-05, 2.1376650693127885e-05, 6.0581609432119876e-05, -4.863989306613803e-05, -2.1427262254292145e-05, 4.510632425080985e-05, 5.030310421716422e-05, -5.3114745242055506e-05, -3.539016972808895e-07, 5.047301237937063e-05, -4.562736285151914e-05, 5.086643432150595e-05, -5.20002722623758e-05, -6.072875839890912e-05, 5.3165793360676616e-05, 4.592724872054532e-05, -0.00012089010124327615, 4.255964813637547e-05], [1.7674150512902997e-05, 6.121074693510309e-05, 0.00012074708502041176, -1.586100665917911e-06, -6.142628990346566e-05, 1.975049053726252e-05, 5.187845090404153e-05, -0.00012119970779167488, 4.560445813694969e-05, 2.076704049613909e-06, -9.952640311894356e-07, -6.020168075338006e-05, 1.7514977344035287e-06, 2.635523196659051e-05, -6.13914817222394e-05, 4.573792830342427e-05, 1.8422226276015863e-05, 5.509895709110424e-05, 5.079467155155726e-05, -8.912178373066126e-07, 2.2412366888602264e-05, -5.137769676366588e-06, -4.596726648742333e-05, 2.0729205516545335e-06, -5.25438872500672e-06, -2.7885804229299538e-05, 5.864632112206891e-05, 8.943301509134471e-06, -2.572393213995383e-06, -4.52420354122296e-05, -5.061208503320813e-05, -2.2749718482373282e-05, 4.827136581297964e-05, 5.8726764109451324e-05, 6.0408725403249264e-05, -4.850847471971065e-05, 0.0001210528498631902, 6.136110459920019e-05, 5.52703786524944e-05, 6.238102650968358e-05, -4.8489178880117834e-05, 1.9668999811983667e-05, 3.0885948945069686e-05, 5.856394272996113e-05, -2.818115092395601e-07, -5.7561497669667006e-05, -4.5783504901919514e-05, -5.237164441496134e-05, 5.214826524024829e-05, -7.352657848969102e-05, 3.563264544936828e-05, 3.292797555332072e-05, -5.6962780945468694e-05, 2.1347656002035365e-05, 3.084741547354497e-05, -2.778352609311696e-05, -5.268837412586436e-05, -2.1956514046905795e-06, -8.264426287496462e-05, -7.37425871193409e-05, -6.033311365172267e-05, 6.133124406915158e-05, -5.8519413869362324e-05, -5.273013812256977e-05], [-1.0342631640014588e-06, -4.587078728945926e-05, -5.0702557928161696e-05, 1.2781687530605268e-07, 3.28991336573381e-05, -3.658051639376936e-07, -2.1325886336853728e-05, -3.557074160198681e-05, 1.1899841467766237e-07, 5.5140866606961936e-05, -4.589162563206628e-05, 4.1496739868307486e-05, 4.583341797115281e-05, -4.565582639770582e-05, -2.2832809918327257e-05, 5.074740693089552e-05, -2.2748030460206792e-05, 2.3194227196654538e-06, 5.326850077835843e-05, 5.129706914885901e-05, -5.072573549114168e-05, -6.053774995962158e-05, -1.5769038554935833e-06, 5.710668119718321e-05, 1.2849924360125442e-06, -5.736167076975107e-05, 4.560506931738928e-05, -5.084603981231339e-05, -4.559427179628983e-05, 2.1184063371038064e-05, -5.33714410266839e-05, 8.008547592908144e-05, 4.5494620280805975e-05, 5.2660302571894135e-06, 7.905061647761613e-05, -4.5575790863949805e-05, -2.7790365493274294e-05, 6.120274338172749e-05, 4.936223558615893e-05, 2.6822002041626547e-07, -5.08199336763937e-05, -6.048224895494059e-05, -3.1036236691761587e-07, -2.461158373989747e-06, -5.092427818453871e-05, 6.145705265225843e-05, -5.8450088545214385e-05, -2.276427039760165e-05, -2.1185664081713185e-05, 5.209945811657235e-05, -4.795900167664513e-05, 2.6402051389595727e-06, -4.5622211473528296e-05, 6.0109334299340844e-05, -3.2865100365597755e-05, -9.950894082066952e-07, 4.5995380787644535e-05, 6.1683778767474e-05, -5.504759610630572e-05, 7.390548125840724e-05, 7.375291897915304e-05, -6.04985179961659e-05, 5.037472874391824e-05, 2.5904084850481013e-06], [5.321646312950179e-05, 7.077005284372717e-05, -5.20347966812551e-05, 4.795795393874869e-05, -7.377468864433467e-05, -5.501462146639824e-05, -5.8506317145656794e-05, -4.871080454904586e-05, 6.0488418966997415e-05, -7.459283369826153e-05, 4.799546877620742e-05, -3.955412466893904e-05, -2.2799264115747064e-05, 5.084909571451135e-05, 4.54960172646679e-05, 6.05099558015354e-05, -3.2888918212847784e-05, -5.330671410774812e-05, 1.3957390365249012e-05, -9.317594731328427e-07, -4.791365790879354e-05, -1.6109844409584184e-06, -2.2252500002650777e-06, -5.105879608890973e-05, 2.2362221443472663e-06, 2.1147683582967147e-05, 5.052887718193233e-05, 5.30795005033724e-05, 2.123755621141754e-05, -6.235771434148774e-05, 1.995271531995968e-06, 4.835690197069198e-05, 2.0308655166445533e-06, 7.455363083863631e-05, -3.083184492425062e-05, -4.910848292638548e-05, -6.137343734735623e-05, -4.50097541033756e-05, -5.1939212426077574e-05, 6.122070044511929e-05, 4.5053064241074026e-05, -2.190238092225627e-06, 5.3357034630607814e-05, 7.038764806566178e-07, 5.0931146688526496e-05, 2.7724656320060603e-05, -2.1324751287465915e-05, 5.527331813937053e-05, -1.6978593748717685e-06, -4.175574940745719e-05, -5.7554454542696476e-05, -4.921869913232513e-05, 5.31668119947426e-05, 3.076417851843871e-05, 4.798219742951915e-05, -2.7728032364393584e-05, 5.3037590987514704e-05, -6.0349906561896205e-05, 4.8602858441881835e-05, -4.911235373583622e-05, 1.4015132364875171e-05, 4.8033420171123e-05, -1.3921243407821748e-05, -5.265286745270714e-05], [6.0524333093781024e-05, 2.0634909105865518e-06, 2.772727566480171e-05, 1.9649034584290348e-05, -5.096990571473725e-05, -2.638471414684318e-05, 4.558929504128173e-05, -2.3786960809957236e-05, -0.00012124068598495796, -5.2889772632624954e-05, 4.913528755423613e-05, 5.327891994966194e-05, -7.379311136901379e-05, -1.8496586562832817e-05, 1.0474469718246837e-06, -1.8393621985524078e-06, -3.090614700340666e-05, 2.524633828215883e-06, -5.211139068705961e-05, -5.868025618838146e-05, -4.555632040137425e-05, 5.334550951374695e-05, 4.880577034782618e-05, -2.7868079996551387e-05, -2.7867818062077276e-05, -7.375914719887078e-05, 0.00012834876542910933, -6.059138831915334e-05, 3.2589927286608145e-05, 5.307172978064045e-05, 5.7534954976290464e-05, 6.206771649885923e-05, 5.037285154685378e-05, 4.560856177704409e-05, 1.2315291542108753e-06, -4.583842382999137e-05, 4.8730464186519384e-05, 2.108252601829008e-06, 4.1566705476725474e-05, 1.5000697430878063e-06, -4.803074261872098e-05, -5.874093767488375e-05, -5.525408050743863e-05, 5.200108716962859e-05, -3.9600865420652553e-05, -4.5066888560540974e-05, 1.768535548762884e-05, 2.2933887521503493e-05, 4.003243884653784e-05, -5.08413249917794e-05, 5.14594785272493e-06, 1.9789926227531396e-05, 4.604392597684637e-05, -7.13800886842364e-07, -5.293354479363188e-05, -4.9489510274725035e-05, 6.03055814281106e-05, 1.112494260269159e-06, -7.375876884907484e-05, 5.108426194055937e-05, -4.5858330850023776e-05, -5.0869992264779285e-05, -5.7420373195782304e-05, -5.282073834678158e-05], [-4.089684443897568e-05, -5.2016453992109746e-05, -1.971175333892461e-05, -2.1278941858327016e-05, 2.779954047582578e-05, -2.441920742057846e-06, 5.071000850875862e-05, 3.27766829286702e-05, -5.0510607252363116e-05, -7.452851423295215e-05, 4.858274769503623e-05, -4.8625501221977174e-05, -8.918854291550815e-06, 3.2856194593477994e-05, 4.8517933464609087e-05, -5.515678640222177e-05, -5.506953311851248e-05, 2.1518939320230857e-05, 4.5494445657823235e-05, 5.0605740398168564e-05, 3.2786141673568636e-05, 4.583266127156094e-05, 6.0446327552199364e-05, 6.209975981619209e-05, -5.198107101023197e-05, -4.628872557077557e-05, 1.1021624004570185e-06, 7.214842980829417e-07, 6.0247693909332156e-05, -6.010482320562005e-05, -6.073489930713549e-05, 4.552567406790331e-05, -4.5596192649099976e-05, -2.6068212832797144e-07, -6.143673817859963e-05, 2.1091920643812045e-05, 5.082645293441601e-05, -4.857058229390532e-05, 6.028759526088834e-05, -2.7904285161639564e-05, -6.119520548963919e-05, -2.628272568472312e-06, 4.600699321599677e-05, -4.2508469050517306e-05, -7.350865053012967e-05, -2.0314766970841447e-06, -6.14723758189939e-05, -6.129351822892204e-05, 6.029452197253704e-05, 2.40615213442652e-06, -4.863638605456799e-05, 4.8387402785010636e-05, 2.7801170290331356e-05, 5.745887756347656e-05, 5.698868335457519e-05, -2.0822337774006883e-06, 1.1067023706345935e-06, -5.174186662770808e-05, 2.5419797111680964e-06, -0.00012130052346037701, 4.789171362062916e-05, -5.120885543874465e-05, 4.4783795601688325e-05, -5.328283350536367e-06], [-1.3530749129131436e-05, 5.4161855587153696e-06, -3.1866718927631155e-05, 0.007798428181558847, -2.957427204819396e-05, 0.2601538896560669, 4.8174500989262015e-05, 0.09374137222766876, 0.1879016011953354, 0.12639644742012024, 0.07740157097578049, 4.8159177822526544e-05, 9.884611245070118e-06, -4.490067658480257e-05, -2.653013689268846e-05, 0.04723237827420235, -6.196086178533733e-05, 0.00022798719874117523, 0.1405823975801468, 0.15770991146564484, -0.02670692466199398, -0.024615755304694176, 0.15352529287338257, 0.2311244159936905, 0.12106049805879593, 0.0007369933882728219, 0.2280658334493637, 0.19662317633628845, 0.18614478409290314, -5.3169485909165815e-05, 0.24417127668857574, 0.028580455109477043, -3.2144282158697024e-05, -0.01087190117686987, 6.359299732139334e-05, 0.06016714498400688, -8.043185516726226e-06, -4.369943781057373e-05, 1.645370684855152e-05, 7.011105481069535e-05, 0.22929860651493073, 0.19577109813690186, 5.7613571698311716e-05, -1.8552784240455367e-05, -0.02230728045105934, 0.1649232804775238, -4.866038216277957e-05, 0.17267389595508575, -6.867904176033335e-06, 0.17769581079483032, 0.000887684291228652, -2.846116512955632e-05, 0.15119756758213043, 1.8975987359226565e-06, 0.140471413731575, -0.003065005410462618, -2.854066906365915e-06, 0.01527564600110054, -1.1236902537348215e-05, -3.635108805610798e-05, 0.13140235841274261, 0.14891746640205383, 0.1279919147491455, 1.3331608897715341e-05], [-0.16119010746479034, -1.22946803458035e-05, -0.13476872444152832, 0.008912171237170696, -0.03261313587427139, 0.1670849472284317, -0.03565211966633797, 3.141867637168616e-05, 0.18971489369869232, 0.1730366349220276, 0.010202266275882721, -0.09056601673364639, -0.12907347083091736, -0.11917215585708618, -0.1525036245584488, 0.060410596430301666, -7.637876478838734e-06, -0.07475771754980087, 0.14466360211372375, 0.17543186247348785, -0.014678900130093098, -0.12124218046665192, 0.15808458626270294, 0.19036047160625458, 0.15011286735534668, -0.13871805369853973, 0.1333979219198227, 0.14030669629573822, 0.19257941842079163, -0.10075182467699051, 0.24831101298332214, 0.0302877239882946, -0.11608205735683441, -0.17996510863304138, 0.008090345188975334, 0.061856675893068314, 8.980365237221122e-06, -8.048852032516152e-05, -0.1512831747531891, -0.10067757964134216, 0.2462679147720337, 0.20758403837680817, -0.11784122884273529, -6.937266880413517e-05, -0.03294268995523453, 0.18075086176395416, -0.06259598582983017, 0.23254990577697754, -0.07106579095125198, 0.19257564842700958, -0.11025941371917725, -7.05771308275871e-05, 0.15684683620929718, -0.0207957923412323, 0.10099188983440399, -0.1583734005689621, -3.75994568457827e-05, -7.102345989551395e-05, -0.0004725003964267671, -0.13052639365196228, 0.23249806463718414, 0.15284685790538788, 0.17535585165023804, -0.08516215533018112], [0.034516334533691406, 5.607782077277079e-05, -0.0006312901969067752, 0.007280697114765644, 9.879782965072081e-07, 0.191067174077034, -0.00010256923269480467, 0.008325675502419472, 0.16796423494815826, 0.15076348185539246, 0.001163424109108746, 0.005674875341355801, 1.855148730101064e-05, 0.005690784193575382, 4.045332025270909e-05, 0.019420737400650978, -8.394490578211844e-05, -3.820496203843504e-05, 0.1382611244916916, 0.12695136666297913, 0.016735756769776344, 2.546566611272283e-05, 0.1489187330007553, 0.031005077064037323, 0.07669162005186081, -0.00037778535624966025, 0.12622207403182983, 0.12784096598625183, 0.18999285995960236, 0.0012995314318686724, 0.12612491846084595, 0.029257873073220253, 0.008281152695417404, 0.06107547506690025, 0.06283444911241531, 0.06000084802508354, -7.38250746508129e-05, 9.971122199203819e-05, 3.901398667949252e-05, 0.011141695082187653, 0.16108320653438568, 0.11722812056541443, -7.09965024725534e-05, -1.5837578757782467e-05, -7.010094850556925e-05, 0.10874540358781815, 0.0021176005247980356, 0.20144779980182648, -3.909212682629004e-05, 0.17774437367916107, 0.0016760171856731176, 6.026910341461189e-05, 0.0715847909450531, -1.691725992714055e-05, 0.1473216563463211, 0.0023898358922451735, 1.187313591799466e-05, 0.025421028956770897, 1.3253703400550876e-05, 0.00012518996663857251, 0.19435271620750427, 0.14634960889816284, 0.12684114277362823, 2.6340389922552276e-06], [4.023452856927179e-05, -5.189988951315172e-05, 5.309237167239189e-05, 0.0074178073555231094, 2.3025037080515176e-05, 3.258774449932389e-05, -2.5563624149071984e-05, -6.282816684688441e-07, -4.7677931434009224e-05, 1.8818169337464496e-05, 0.030188949778676033, -0.0001071231672540307, -1.3758660315943416e-05, 0.002987671410664916, 4.740416261483915e-05, 0.09456191956996918, -5.8941117458743975e-05, -0.00010262594878440723, -8.07436226750724e-05, 2.6084386263391934e-05, -1.5078773685672786e-05, 9.342112753074616e-05, -2.319675149919931e-05, 0.006575439590960741, -1.80655624717474e-05, -0.00016343484458047897, -0.00013675914669875056, -4.326268481236184e-06, 8.97410573088564e-05, -4.021802851639222e-06, -3.647904668468982e-05, 0.027537614107131958, -2.2419841116061434e-05, -4.576730589178624e-06, -4.056383841088973e-05, 0.060494985431432724, -2.097530523315072e-05, -3.759820174309425e-06, -8.85930876393104e-06, -6.106638466008008e-05, -5.494123979588039e-05, -3.7723850255133584e-05, -1.5039745449030306e-05, -2.422532816126477e-05, 1.2752325346809812e-06, 7.741079753031954e-05, -1.4611776350648142e-05, -4.889244519290514e-05, 7.619140524184331e-05, 3.0330140361911617e-05, 0.018261481076478958, 4.2064199078595266e-05, 0.006249967031180859, -4.1734201658982784e-05, 0.12195128947496414, 9.02116244105855e-06, 1.7778611436369829e-06, -9.69462143984856e-06, 1.2591769518621732e-05, 5.278012758935802e-05, 0.009955312125384808, -8.424143743468449e-05, -1.1068912499467842e-05, -7.738657586742193e-06], [-0.12108960002660751, -1.056598648574436e-05, -0.043894212692976, -7.591449684696272e-05, -0.09752525389194489, 0.08143731206655502, -0.016902757808566093, 6.919240695424378e-05, 0.14673340320587158, 0.11244966089725494, -1.79432154254755e-05, -0.03796405717730522, -0.11318399757146835, -0.10256379097700119, -0.10310359299182892, -3.152543285978027e-05, 8.319774497067556e-05, -0.10990582406520844, 0.09197814762592316, 0.10671594738960266, -0.10340513288974762, -0.03780188411474228, 0.0943104699254036, 0.11273402720689774, 0.06788867712020874, -0.13179337978363037, 0.18599051237106323, 0.11303047090768814, 0.14890630543231964, -0.026742419227957726, 0.12984296679496765, 1.95349202840589e-05, -0.08349625021219254, -0.1828010231256485, 6.170949200168252e-05, 3.569899945432553e-06, 0.00015359072131104767, 4.370854003354907e-05, -0.12195374071598053, -0.07543428242206573, 0.14512713253498077, 0.03438885137438774, -0.11882773786783218, 0.00011973549408139661, -0.1152649074792862, 0.1469535529613495, 0.0007046318496577442, 0.09521403908729553, -0.06745725870132446, 0.14775240421295166, -0.1261301189661026, 4.919220009469427e-05, 0.11340561509132385, -0.006168218795210123, 3.847567495540716e-05, -0.11475981026887894, -4.6964392822701484e-05, -3.32740273734089e-05, -0.019249554723501205, -0.07263187319040298, 0.09933054447174072, 0.09580496698617935, 0.12504467368125916, -0.11936473846435547], [-4.498484486248344e-05, 1.018182319967309e-05, -5.030609463574365e-05, 0.007734555285423994, -5.748123294324614e-05, 0.1359030306339264, 2.1647712856065482e-05, -1.8741091025731293e-06, 0.17163169384002686, 0.17435142397880554, 0.00410236231982708, 2.647442124725785e-05, 5.290961780701764e-05, -3.29878821503371e-05, 5.103613875689916e-05, 0.03364892676472664, -4.93973602715414e-05, 8.943538705352694e-05, 0.1469516009092331, 0.0849524438381195, 0.00010655431833583862, 7.868731336202472e-05, 0.15598808228969574, -0.0004784126649610698, 0.10804018378257751, -7.201903827080969e-06, 0.06454230844974518, 0.08645563572645187, 0.20826543867588043, 4.1537983634043485e-05, 0.03931301832199097, 0.027267705649137497, -0.00033497129334136844, 8.228621300077066e-05, 5.4991945944493636e-05, 0.060335710644721985, -3.9383692637784407e-05, -7.348588405875489e-05, 1.8432137949275784e-05, -0.0040602912195026875, 0.2209029495716095, 0.12251884490251541, 3.4549821066320874e-06, 7.607693532918347e-07, -1.9487333702272736e-05, 0.16648206114768982, 3.89268207072746e-05, 0.15732981264591217, 1.468746177124558e-05, 0.19093619287014008, -0.00020510052854660898, 1.4025433301867452e-05, 0.03301258012652397, 3.532632763381116e-05, 0.1668887585401535, -0.00010035688319476321, 6.0902380937477574e-05, -2.043894346570596e-05, -1.8575688955024816e-05, 0.00014901648683007807, 0.041874296963214874, 0.15259596705436707, 0.13333742320537567, -2.327791844436433e-05], [3.119260509265587e-05, 8.110507042147219e-05, -2.612128810142167e-05, 0.007148918230086565, 9.845944441622123e-05, 0.21917247772216797, 4.928999987896532e-05, 0.02334417961537838, 0.14891228079795837, 0.1456557810306549, 9.546004548610654e-06, 0.00010703620500862598, 0.00010920008207904175, -0.007545399479568005, 9.833775402512401e-05, 2.304086410731543e-05, 2.6442243324709125e-05, -5.4573924899159465e-06, 0.13873820006847382, 0.14132127165794373, -6.414949893951416e-05, -0.023940954357385635, 0.15189805626869202, 0.1793440282344818, 0.10838882625102997, 6.120239504525671e-06, 0.22754891216754913, 0.1776341050863266, 0.21024686098098755, -4.150076711084694e-05, 0.18190567195415497, 0.029848167672753334, -0.00010707799810916185, -0.019938521087169647, 0.013272557407617569, 0.058570850640535355, -6.372345524141565e-05, 2.9686963898711838e-05, -0.020557520911097527, -5.4850985179655254e-05, 0.2209584265947342, 0.22157660126686096, 4.632678974303417e-05, 0.0003719469823408872, -5.366719051380642e-05, 0.11798029392957687, -8.37760089780204e-05, 0.18626271188259125, -5.338917253538966e-05, 0.1994054913520813, -2.3160320779425092e-05, -3.39906255248934e-05, 0.20505362749099731, 6.231514817045536e-06, 0.15491318702697754, 0.00010032980208052322, -1.7222091628354974e-05, 0.01058562658727169, -6.438365380745381e-05, 3.3260585041716695e-05, 0.22361023724079132, 0.14729741215705872, 0.23743274807929993, 9.968186986952787e-07], [0.12000491470098495, 7.735204417258501e-05, 0.04325409606099129, -2.4937078705988824e-05, 0.045740026980638504, 0.06028793379664421, 0.05127358064055443, 0.008869911544024944, 0.009301640093326569, 0.06951586902141571, 9.704672265797853e-05, 0.08979669213294983, 0.10830474644899368, 0.12212904542684555, 0.044986873865127563, 2.3036338461679406e-05, -1.894929664558731e-05, 0.06498613208532333, 0.05385274812579155, 1.0384588676970452e-05, 0.0636037215590477, 0.01757555454969406, 0.0678858682513237, 3.113288767053746e-05, 2.479893919371534e-05, 0.07657710462808609, -4.224983786116354e-05, 0.07657650858163834, 0.08342750370502472, 0.023386318236589432, 0.00044356691068969667, -3.8179678085725754e-05, 0.08177860826253891, 0.1366114318370819, 0.005675114691257477, -1.8822265701601282e-05, 0.02360144630074501, -1.9417611838434823e-05, 0.11429277062416077, 0.04605148360133171, 0.07293086498975754, 0.010994957759976387, -0.0004778778238687664, 0.016023756936192513, 0.06837812811136246, 0.05848294869065285, 0.09638442099094391, 0.053720712661743164, 0.10674349963665009, 0.05519843474030495, 0.07652755826711655, 0.0001488065317971632, 0.04008697345852852, 0.05972736328840256, 0.08813031017780304, 0.08511487394571304, 2.055652112176176e-05, 0.011754579842090607, 0.045547667890787125, 0.10484335571527481, 0.012757940217852592, 0.06141499802470207, 0.038151975721120834, 0.08501220494508743], [1.1976209862041287e-05, -7.249333430081606e-05, 1.4453074982156977e-05, 0.007093083579093218, -2.4070068320725113e-05, 0.22074978053569794, 0.00015346662257798016, 0.07987593859434128, 0.17074111104011536, 0.17187407612800598, 0.03211398422718048, 7.041008211672306e-05, -3.39121870638337e-05, 2.8037056836183183e-05, 7.512918091379106e-05, 4.464713128982112e-05, -5.240796599537134e-05, -0.003656602930277586, 0.138753741979599, 0.23749589920043945, -0.028495725244283676, -3.136901432299055e-05, 0.15162646770477295, 0.19405561685562134, 0.07503586262464523, -5.6935623433673754e-05, 0.22716665267944336, 0.23875539004802704, 0.19133113324642181, -4.408554741530679e-05, 0.1584828943014145, 0.02855130285024643, -3.8009955460438505e-05, -0.01446223072707653, 0.007829020731151104, 0.05848507583141327, -3.5107127587252762e-06, 7.391932740574703e-05, -7.379259477602318e-05, -0.012773682363331318, 0.2356065958738327, 0.1637309044599533, 0.00023847217380534858, -0.00012138371675973758, 0.00026522917323745787, 0.1524830162525177, 8.05078525445424e-06, 0.23517507314682007, 1.8477880075806752e-05, 0.17645889520645142, -0.03528067469596863, -1.4046522665012162e-05, 0.14868131279945374, -7.196599472081289e-05, 0.15447475016117096, -4.708083906734828e-06, -5.971306563878898e-06, 0.01478197518736124, -6.53634051559493e-05, -1.3449440302792937e-05, 0.1630876511335373, 0.14727044105529785, 0.22320540249347687, -2.470187610015273e-06], [3.872879096888937e-05, 1.9007098671863787e-05, 2.3389258785755374e-05, 0.007074553985148668, 0.000600838044192642, 0.1440296620130539, 3.9588826439285185e-06, 0.07034170627593994, 0.12406691163778305, 0.20548975467681885, 0.01493425015360117, 2.489604776201304e-05, -0.03372428938746452, 1.6412896002293564e-05, -0.00027392490301281214, 0.015321510843932629, 7.184671994764358e-05, -4.841912959818728e-05, 0.13876084983348846, 0.1732134371995926, 3.160231062793173e-05, -8.943964530772064e-06, 0.15161734819412231, 0.1889222413301468, 0.12708429992198944, -1.5464006537513342e-06, 0.14107158780097961, 0.13630418479442596, 0.19136635959148407, -0.013846543617546558, 0.2292281687259674, 0.02864864282310009, -6.063974979042541e-06, -0.04356180503964424, -2.850235796358902e-05, 0.05805953964591026, 1.80007718881825e-05, -1.4067873962630983e-05, -2.974736526084598e-05, 1.0255086635879707e-05, 0.14117097854614258, 0.15135571360588074, -3.746526635950431e-05, 4.317881030146964e-05, 2.385914558544755e-05, 0.17949515581130981, 4.0791557694319636e-05, 0.1968117654323578, 6.807262252550572e-05, 0.16390728950500488, -0.00010024918447015807, -5.654695087287109e-06, 0.17785653471946716, -6.597200263058767e-05, 0.15440170466899872, -7.076337351463735e-05, -2.502210918464698e-05, -0.0005898483213968575, 2.7401294573792256e-05, -0.0005245471838861704, 0.22995877265930176, 0.1474759578704834, 0.2224825918674469, 2.5171042580041103e-05], [-5.053811764810234e-05, -3.467295755399391e-05, -0.00044511095620691776, 0.00014107961033005267, -4.079193786310498e-06, 0.08361255377531052, -0.0008860417874529958, 0.04219089448451996, 0.06901498883962631, 0.03568509221076965, 7.004691724432632e-05, 0.007622073870152235, -0.0010287300683557987, 5.560405406868085e-05, 1.9234526916989125e-05, 0.00020165476598776877, 2.1638923044520197e-06, 1.299750783800846e-05, 7.492249278584495e-05, 0.04719848930835724, -8.595237886765972e-06, 1.719104875519406e-05, 0.0012700497172772884, 0.08808702230453491, 6.666794797638431e-05, -2.5429197194171138e-05, 0.050480831414461136, 0.07097990810871124, 0.03519462049007416, -7.963970710989088e-05, 0.07032625377178192, 2.056523589999415e-05, 8.056244041654281e-06, -5.8184359659207985e-05, 0.02278101071715355, -2.600965672172606e-06, 0.01867937110364437, -2.1793977794004604e-05, -1.2237018381711096e-05, -7.483272929675877e-05, 0.06258174031972885, 4.735948459710926e-05, 1.726139453239739e-05, 0.003908348735421896, 9.49153836700134e-05, 0.02691618725657463, 5.280752884573303e-05, 0.013116630725562572, 0.00015268061542883515, 0.03368821740150452, -3.39619473379571e-05, 0.0002479182439856231, -4.318966966820881e-05, 0.044834863394498825, 0.051664579659700394, -1.5483298057006323e-06, -1.1346729479555506e-05, 0.0332629457116127, 0.038682371377944946, -1.1945928235945757e-05, 5.214548764342908e-06, 4.6301887778099626e-05, 0.08001633733510971, 0.0009206659160554409], [-5.0518763600848615e-05, 9.261133300242363e-07, 2.677661768757389e-06, -3.288992593297735e-05, -2.795920408971142e-05, -3.110484669832658e-08, 4.0866489143809304e-05, -5.181302549317479e-05, 4.569811426335946e-05, 8.951858035288751e-06, -5.273153510643169e-05, 2.1944290438113967e-06, -4.794919368578121e-05, -5.283616337692365e-05, -4.553923645289615e-05, 5.8739773521665484e-05, 6.04539891355671e-05, -2.1519083475141088e-06, 8.026257773963152e-07, -3.0897532269591466e-05, -4.178467861493118e-05, -4.844054637942463e-05, -2.7863394279847853e-05, -5.2651761507149786e-05, 2.241810079794959e-06, 4.810981045011431e-05, 2.3364193566521863e-06, -5.3051182476338e-05, 5.198712460696697e-05, 5.1388174142630305e-06, -4.1533206967869774e-05, -6.0630969528574497e-05, 5.496543599292636e-05, 5.091163984616287e-05, -5.075555600342341e-05, -2.77482013189001e-05, -5.0834391004173085e-05, 1.147477064478153e-06, -4.58320791949518e-05, -2.3793567379470915e-05, -0.0001208935645991005, -3.4949127439176664e-05, 8.920338586904109e-06, -4.2692041461123154e-05, 5.518647230928764e-05, 8.26249088277109e-05, 2.404871565886424e-06, 6.0580183344427496e-05, 2.6525451630732277e-06, 5.501104169525206e-05, -4.2463387217139825e-05, -2.120647332048975e-05, 2.277396197314374e-05, 2.2828735382063314e-05, 1.1126979870823561e-06, -4.6055072743911296e-05, -1.1124069487777888e-06, -5.080258779344149e-05, -6.132553971838206e-05, -2.787020457617473e-05, 8.263189374702051e-05, -1.6295146565425966e-07, 3.560770346666686e-05, 4.5587461499962956e-05], [5.684217467205599e-05, -5.058411625213921e-05, 7.588353037135676e-05, -2.0096106823075388e-07, -3.295006536063738e-05, -4.150995300733484e-05, 4.872593854088336e-05, 2.3204122499009827e-06, 2.416775032543228e-06, 6.154098082333803e-05, 2.6166310362896184e-06, -2.268061734866933e-06, -1.0603401960906922e-06, 5.085124939796515e-05, 2.275821680086665e-05, 5.263700586510822e-05, -5.747934483224526e-05, 2.7886095267604105e-05, 5.532314389711246e-05, 6.0407299315556884e-05, -3.287994331913069e-05, 5.503502325154841e-05, -5.51960474695079e-05, -2.1420772100100294e-05, -5.740069900639355e-05, -5.217696161707863e-05, -2.8834327167714946e-05, 0.00012112386320950463, 4.865754453931004e-05, 7.582852413179353e-05, 5.312363555276534e-06, -8.921269909478724e-06, -4.837657616008073e-05, 5.8521363826002926e-05, 4.560931847663596e-05, -4.804756463272497e-05, 5.500920815393329e-05, -4.507602716330439e-05, -1.3980702533444855e-05, 4.8671034164726734e-05, 4.573391197482124e-05, 2.279855470987968e-05, -5.325947859091684e-05, 5.2023409807588905e-05, 2.3032705939840525e-05, -4.573213664116338e-05, -0.00012100526510039344, -6.199658673722297e-05, -5.307935498422012e-05, 9.778042112884577e-06, 5.2844312449451536e-05, 5.957281973678619e-05, -7.588958396809176e-05, 5.52580677322112e-05, 5.32685880898498e-05, -5.315487942425534e-05, -5.1016886573052034e-05, 2.209912281614379e-06, -2.2896285372553393e-05, 5.5248143326025456e-05, 1.4191973605193198e-05, -4.4996337237535045e-05, -2.12769336940255e-05, -5.2732495532836765e-05], [2.277940438943915e-05, 6.054700497770682e-05, 5.3221672715153545e-05, -6.123289495008066e-05, -4.867956158705056e-05, -1.138470366868205e-07, 5.2175593737047166e-05, 1.3988124010211322e-05, -1.2513779665823677e-06, 6.041614688001573e-05, -5.518370744539425e-05, -6.0330290580168366e-05, -2.6358686682215193e-06, -7.359369192272425e-05, 1.5146507621466299e-06, -0.00012098017759853974, -5.314189911587164e-05, 5.846525164088234e-05, 5.322891956893727e-05, -2.270414915983565e-05, 2.7743370083044283e-05, 8.261696348199621e-05, 2.5030387860169867e-06, -2.2446592993219383e-05, -4.569977318169549e-05, 2.2917996830074117e-05, 2.0349109490780393e-06, -2.772797415673267e-05, -5.3234420192893595e-05, 2.244723327748943e-05, -4.005374285043217e-05, -7.388286758214235e-05, 5.112303824716946e-06, 5.132995647727512e-05, -5.857948417542502e-05, 1.7238110672224138e-07, 6.133718125056475e-05, -1.4005091543367598e-05, 6.138379831099883e-05, -5.303147918311879e-05, -5.202463216846809e-05, 3.0872939532855526e-05, 1.9744495148188435e-05, 2.281272827531211e-05, 5.302239878801629e-05, -3.076729262829758e-05, -5.014955240767449e-05, 5.748288822360337e-05, -2.1092037059133872e-05, -1.1772793868658482e-06, 1.5727420077382703e-06, -2.7821950425277464e-05, -6.044894689694047e-05, -7.058243500068784e-05, 2.5874107905110577e-06, 2.272896745125763e-05, 2.451001137160347e-06, -4.0060320316115394e-05, 1.4165838365443051e-05, 5.0810485845431685e-05, 1.976253952307161e-05, 4.511528823059052e-05, 4.478696791920811e-05, 5.7383731473237276e-05], [2.7937521736021154e-05, -2.1152165572857484e-05, -5.866753781447187e-05, 6.05443274253048e-05, -6.137538730399683e-05, 4.596557846525684e-05, -2.070475829896168e-06, 7.58368187234737e-05, -3.282217221567407e-05, -0.00012125226930947974, -7.577669020975009e-05, 4.836935841012746e-05, -2.279116233694367e-05, 2.4256517008325318e-06, -1.1173837037858902e-06, -6.036314880475402e-05, -4.605242429533973e-05, -2.2601163891522447e-06, -4.863356298301369e-05, -5.040504038333893e-05, 4.9233203753829e-05, -5.0844373618019745e-05, -5.082112693344243e-05, 5.3214018407743424e-05, 4.79467780678533e-05, -7.231558265630156e-05, -5.8668643760029227e-05, 1.4773016232538794e-07, -1.9589459043345414e-05, -6.123868661234155e-05, 2.2414957129512914e-05, -5.203449836699292e-05, -5.3015501180198044e-05, 4.855806764680892e-05, 6.078748992877081e-05, 2.1268726413836703e-05, 4.0069924580166116e-05, 2.1138253941899166e-05, 6.130402471171692e-05, 1.4200937584973872e-05, 5.2725714340340346e-05, -5.527107714442536e-05, -5.174460238777101e-05, 5.107159449835308e-05, 5.201840394875035e-05, 1.650914896345057e-06, -5.13659579155501e-05, -2.267275931444601e-06, -4.875221929978579e-05, 1.3060470926973267e-08, 5.063242861069739e-05, -1.1564410442588269e-06, -4.514337342698127e-05, -5.739214248023927e-05, 4.819616151507944e-05, -4.147008075960912e-05, -5.325261008692905e-05, -3.563046266208403e-05, -5.123877417645417e-05, 4.5067237806506455e-05, 4.789625381818041e-05, -2.2851960238767788e-05, -5.854380287928507e-05, -8.265776705229655e-05], [-3.296749184755754e-08, -4.5656262955162674e-05, -1.864484147517942e-05, -4.816729051526636e-05, 6.04805609327741e-05, -5.733799480367452e-05, -1.4141653082333505e-05, -3.282586840214208e-05, 4.154627458774485e-05, 4.564272967400029e-05, 5.314895588526269e-06, -4.509305290412158e-05, -1.9680874174810015e-05, 2.2505228116642684e-05, -5.018860974814743e-05, 1.9922447336284677e-06, -4.147115760133602e-05, -2.2786505724070594e-05, -2.6797572445502738e-06, 7.231080962810665e-05, -4.157086732448079e-05, 4.590937896864489e-05, -5.2706738642882556e-05, -6.0251972172409296e-05, -2.9150308478165243e-07, 5.2700597734656185e-05, -5.079152833786793e-05, 5.761272041127086e-05, -4.491429353947751e-05, 1.0503284784135758e-06, -6.053562537999824e-05, 1.0966035688397824e-06, -1.2625247336472967e-06, -5.061848787590861e-05, 6.0586149629671127e-05, -4.597157385433093e-05, 4.585661372402683e-05, -4.5610540837515146e-05, 2.1426151874948118e-07, -6.117302837083116e-05, -5.0383867346681654e-05, 1.9677119780681096e-05, 5.863223486812785e-05, 6.121613114373758e-05, -3.284213744336739e-05, 1.1537925956872641e-06, -5.3405405196826905e-05, -1.0887744110732456e-06, 1.4224802725948393e-05, -4.0870476368581876e-05, 4.8539062845520675e-05, -5.082528878119774e-05, 2.963052168070135e-07, -1.4227538486011326e-05, 2.7896776373381726e-05, 5.201054591452703e-05, 7.580777310067788e-05, 3.2932486647041515e-05, 1.065345827555575e-06, 1.0663062539606472e-06, 6.031294469721615e-05, 4.808710946235806e-05, 4.2365365516161546e-05, -2.3456743747374276e-06], [-6.125034997239709e-05, 2.150953878299333e-05, -1.5416247167721053e-09, 4.601662658387795e-05, 5.181794404052198e-05, 1.3915917406848166e-05, 7.376144640147686e-05, -7.889486732892692e-05, -4.257070759194903e-05, -5.532698560273275e-05, 4.789348895428702e-05, -5.195457924855873e-05, 4.872972203884274e-05, 5.741941276937723e-05, -6.015694816596806e-05, 7.584700506413355e-05, -3.0805767892161384e-05, 5.5288510338868946e-05, 1.9700635675690137e-05, -4.568606527755037e-05, 3.084793934249319e-05, 1.2343813295956352e-06, -2.479610202499316e-06, -6.0825848777312785e-05, -1.564103331475053e-05, 4.504770913626999e-05, 1.0095403979448747e-07, -2.4897092316678027e-06, 5.207853246247396e-05, 5.310613050824031e-05, 5.3019051847513765e-05, -2.2677540982840583e-05, -7.88936740718782e-05, -3.281122917542234e-05, 2.178120666940231e-05, 1.1422674788263976e-06, -7.248891051858664e-05, -5.212073301663622e-05, 1.3982477867102716e-05, 5.317251634551212e-05, -5.8618308685254306e-05, 1.8735936464508995e-05, -4.796432767761871e-05, -6.128225504653528e-05, 2.4159601252904395e-06, 5.850771412951872e-05, -4.513324529398233e-05, -4.5077482354827225e-05, -1.0791412705657422e-06, -2.7829080863739364e-05, 6.144232611404732e-05, 7.583935075672343e-05, 6.0613245295826346e-05, -2.292375938850455e-05, 4.808416997548193e-05, -2.6070267722388962e-06, 1.9603283362812363e-05, 4.0839480789145455e-05, -1.7683551050140522e-05, 4.853583232033998e-05, 2.7900094210053794e-05, 5.099703048472293e-05, 2.7846543162013404e-05, -1.9558958229026757e-05], [-2.2967581116972724e-06, 1.926091727000312e-06, 1.1251835303482949e-06, -4.63251635665074e-05, 1.1479427257654606e-06, -7.166821660575806e-07, 1.4456164763032575e-06, -5.7563476730138063e-05, -6.0229271184653044e-05, -4.836723383050412e-05, -1.9711520508280955e-05, -2.2706011804984882e-05, -4.806022479897365e-05, -8.032916230149567e-05, -4.5556553232017905e-05, 1.834518843679689e-05, 6.236248736968264e-05, -3.25018305602498e-08, 5.0354472477920353e-05, 1.0013174005507608e-06, 5.103760850033723e-05, -5.733635771321133e-05, -1.9591205273172818e-05, 2.774660060822498e-05, 2.779030728561338e-05, -1.413091376889497e-05, 4.5850938477087766e-05, -5.2675481128972024e-05, -4.8181929741986096e-05, 5.5088654335122555e-05, 8.264126518042758e-05, -5.755948950536549e-05, 4.150969107286073e-05, 5.036531365476549e-05, -8.602728485129774e-06, -4.8316302127204835e-05, -6.044635665602982e-05, 5.298156611388549e-05, -7.346415804931894e-05, 5.085453813080676e-05, -2.774499989754986e-05, -5.504180444404483e-05, -2.0740264972118894e-06, 4.856135637965053e-05, -2.6481795885047177e-06, 3.4835855331039056e-05, -7.370288949459791e-05, 5.113685256219469e-05, 2.2841890313429758e-05, 1.5798048480064608e-05, -7.241091225296259e-05, -3.407758697449026e-07, -2.773367850750219e-05, 6.139520701253787e-05, -3.572094647097401e-05, 2.021261252593831e-06, 4.872783028986305e-05, -5.089551632408984e-05, 4.237182656652294e-05, -2.1813614239363233e-06, -1.5867409501879592e-06, 4.144909689784981e-05, 4.5657223381567746e-05, -4.8490692279301584e-05], [-5.327554390532896e-05, 5.209934170125052e-05, 4.608184826793149e-05, 4.562692629406229e-05, -6.130969995865598e-05, 7.580989768030122e-05, -6.0360674979165196e-05, -7.091773295542225e-05, -5.0530783482827246e-05, 5.0833292334573343e-05, 5.3237359679769725e-05, 8.605988114140928e-06, 6.0196558479219675e-05, 5.757436156272888e-05, -4.832506238017231e-05, 5.1043516577919945e-05, 1.569734922668431e-05, -4.5879110984969884e-05, 6.159757322166115e-05, 4.156426075496711e-05, 5.4035167522670235e-06, -2.2375113985617645e-05, 5.5040145525708795e-05, -5.7483994169160724e-05, -7.370257435468375e-07, -4.592110781231895e-05, -2.076907776427106e-06, -8.932242053560913e-06, -6.0322548961266875e-05, -4.4780768803320825e-05, -5.69094336242415e-05, 6.121667684055865e-05, 2.274867074447684e-05, -7.45909710531123e-05, -2.1233627194305882e-05, -4.5593340473715216e-05, 5.148810669197701e-05, 0.00012106600479455665, -2.349457872696803e-06, -6.022074376232922e-05, 4.860166518483311e-05, 3.0909755878383294e-05, -4.60101364296861e-05, 8.91399395186454e-06, 1.2654055581151624e-06, -2.4035036858549574e-06, -2.2044116576580564e-06, -2.634327029227279e-05, 1.6686391290932079e-06, 3.660962022422609e-07, -8.94848199095577e-06, 2.7545376724447124e-05, -7.069595449138433e-05, -4.243821240379475e-05, 1.190317902910465e-06, 5.742363282479346e-05, -4.1497205529594794e-05, 7.231264316942543e-05, 6.123032653704286e-05, -2.7791042157332413e-05, 4.5140201109461486e-05, -5.270502151688561e-05, 6.146316445665434e-05, -4.7998873924370855e-05], [-7.374357664957643e-05, 6.0504891735035926e-05, -6.048265640856698e-05, 4.527294368017465e-05, -4.584392445394769e-05, 6.0221762396395206e-05, 5.942846473772079e-05, 4.813108535017818e-05, -1.0502409395485302e-06, 5.184423116588732e-06, -5.2002658776473254e-05, 2.2721698769601062e-05, 5.1260223699500784e-05, 2.2696574887959287e-05, 3.28294190694578e-05, 7.354127592407167e-05, 0.0001210744449053891, -4.5912784116808325e-05, -5.757340113632381e-05, -2.149172723875381e-05, 6.0108082834631205e-05, -5.73340366827324e-05, -2.2561282094102353e-05, 2.5969277430704096e-06, -2.0321460851846496e-06, -1.0442748816785752e-06, 3.6590732634067535e-05, -4.031890057376586e-05, -4.802361218025908e-05, 4.5038104872219265e-05, 2.1432936136989156e-06, 2.286860762978904e-05, -5.0749531510518864e-05, 4.028287003166042e-05, -1.096923483601131e-06, 2.8617708380807017e-07, 1.0474471991983592e-06, 4.87671495648101e-05, 2.2861506295157596e-05, -2.4996627416840056e-06, 1.3910649613535497e-05, 6.127078813733533e-05, -5.201002204557881e-05, -4.558647196972743e-05, -4.932408046443015e-05, 4.801083559868857e-05, 2.0490845145104686e-06, 5.9334663092158735e-05, -2.27078162424732e-05, -1.204840714308375e-06, -5.50304539501667e-05, -6.042319000698626e-05, 7.890287088230252e-05, -6.17363111814484e-05, 2.140645165127353e-06, 1.300417466154613e-06, 1.3992489584779833e-05, -0.00012098372826585546, -2.5541160084685544e-06, 2.6861957991286545e-08, 5.263895582174882e-05, -5.71423806832172e-05, -1.06659751963889e-06, -2.4070834570011357e-06], [-5.867888830835e-05, -2.1332696633180603e-05, -9.274521062252461e-07, -3.079281668760814e-05, -2.281319393659942e-05, -5.73810248170048e-05, -7.366525824181736e-05, -5.1134371460648254e-05, -2.6681739200284937e-06, 3.090789323323406e-05, -1.9793808405665914e-06, -7.375108543783426e-05, -5.1314560550963506e-05, 2.5873525828501442e-06, 5.0714956159936264e-05, 1.4026803000888322e-05, 5.3132935136090964e-05, 5.178025458008051e-05, -1.983455376830534e-06, -2.133691668859683e-05, 7.455904415110126e-05, -5.332243017619476e-05, 4.145072671235539e-05, -1.9566292394301854e-05, -4.513114981818944e-05, -4.572037869365886e-05, -2.2848496882943437e-05, 4.585917486110702e-05, 6.029161158949137e-05, 1.4150355127640069e-05, -2.294165824423544e-05, 1.4016005479788873e-05, -4.7490906581515446e-05, -3.2799529435578734e-05, -4.599124804371968e-05, 4.5003293053014204e-05, -1.1873784160343348e-06, -3.506923818008545e-08, -5.217376019572839e-05, -3.483640753643158e-08, 2.2871779947308823e-05, 4.254736631992273e-05, 5.2859999414067715e-05, -5.265650543151423e-05, 6.0153164668008685e-05, 5.3243325965013355e-05, -1.4867983963995357e-06, -5.2781506383325905e-05, 5.30793977304711e-06, -2.459092002027319e-06, 6.12708754488267e-05, -1.0284132940796553e-06, -2.2772876491217175e-06, 5.511059862328693e-05, -4.633174103219062e-05, 6.121452315710485e-05, 7.070759602356702e-05, 5.273648275760934e-05, 7.05872371327132e-05, 4.5684406359214336e-05, -7.577858195872977e-05, -2.5279516648879508e-06, -1.404045269737253e-05, -5.1028644520556554e-05], [4.7986039135139436e-05, -6.16598263150081e-05, -5.265117943054065e-05, -2.7785272322944365e-05, -7.346171332756057e-05, 3.081158865825273e-05, -2.1850008124602027e-05, -1.7335988786726375e-06, 5.506040179170668e-05, 8.261285984190181e-05, -5.2753537602256984e-05, -6.167053652461618e-05, 6.130160909378901e-05, 4.177408482064493e-05, 5.736586172133684e-05, -1.9729157429537736e-05, -2.7854634026880376e-05, 4.141213503316976e-05, -4.8606787458993495e-05, -0.00012122843327233568, -6.047276110621169e-05, 4.863667709287256e-05, 4.5584609324578196e-05, 6.124939682194963e-05, -2.7784719350165688e-05, -3.657146589830518e-05, 6.017004488967359e-05, -6.045733607606962e-05, 2.2779811843065545e-05, -2.270851837238297e-05, 4.59502698504366e-05, -3.293260306236334e-05, 4.8195404815487564e-05, 4.554750194074586e-05, 6.157522147987038e-05, 6.120381294749677e-05, -5.749499541707337e-05, -0.00012125564535381272, 8.913411875255406e-06, -5.196118581807241e-05, -2.2716656530974433e-05, -5.868604785064235e-05, 7.588958396809176e-05, 1.8622378092914005e-06, -2.089044073727564e-06, 5.072281419415958e-05, 4.59584771306254e-05, -1.0930820053545176e-06, 9.808659342525061e-06, -8.266329678008333e-05, 2.289579060743563e-05, -2.118115298799239e-05, 4.4979398808209226e-05, 2.882565422623884e-05, 1.0568475090622087e-06, -5.3032672440167516e-05, 9.6680048500275e-07, 1.4245539205148816e-05, -4.58149952464737e-05, 5.17949229106307e-05, 7.368371007032692e-05, 3.2810385164339095e-05, 4.583720146911219e-05, -1.2308888699408271e-06], [6.139325705589727e-05, 1.9885485471604625e-06, 5.033826164435595e-05, -2.2849049855722114e-05, -5.2085501920373645e-06, 4.00203607568983e-05, -5.326171958586201e-05, -1.2141830438849865e-06, 5.1317150791874155e-05, 4.152523251832463e-05, -6.12644143984653e-05, -6.031038356013596e-05, -5.501022678799927e-05, -5.3987146202416625e-06, -5.1053761126240715e-05, 5.327001417754218e-05, -2.2741569409845397e-05, 5.279145989334211e-05, 1.5801919289515354e-05, 6.032269448041916e-05, -6.177597970236093e-05, 5.111758582643233e-05, -2.2856267605675384e-05, 2.6565905955067137e-06, -5.521080311154947e-05, 1.3980848052597139e-05, 4.5214532292447984e-05, 5.531796341529116e-05, -2.279037653352134e-05, -5.200894520385191e-05, -4.5494271034840494e-05, 1.5892147757767816e-06, -6.061525346012786e-05, -2.3201212115964154e-06, -3.683562681544572e-05, -1.8695428707360406e-06, -4.156213617534377e-05, 2.033630380537943e-06, -5.052257620263845e-05, -2.198125230279402e-06, 5.334690649760887e-05, -6.0274003772065043e-05, 4.5550121285486966e-05, -2.4959665552160004e-06, -1.5430206985911354e-05, -5.119791239849292e-05, -1.3954829228168819e-05, -5.3251620556693524e-05, 1.2593519613801618e-06, -2.2777163394493982e-05, 5.750561831519008e-05, -3.089907477260567e-05, -5.268042878014967e-05, 5.044316640123725e-05, 1.3908612345403526e-05, -5.758489714935422e-05, -5.211948155192658e-05, -2.271788616781123e-05, -2.783597847155761e-05, -4.5589789806399494e-05, -5.282076745061204e-05, 1.770668234257755e-07, 8.03547736722976e-05, -0.00012098075967514887], [2.287119787069969e-05, 4.14438582083676e-05, 5.0511982408352196e-05, -4.815090505871922e-05, -4.568231088342145e-05, 4.5749366108793765e-05, -1.3924008271715138e-05, -1.770468043105211e-05, -4.851284029427916e-05, 8.91390664037317e-06, -5.3374031267594546e-05, -3.082477269344963e-05, 1.125503672483319e-06, -8.26201940071769e-05, 5.863127444172278e-05, 4.588554293150082e-05, -9.776877959666308e-06, 8.614137186668813e-06, 2.6164855171373347e-06, 3.2741700124461204e-05, 1.0393563343313872e-06, -7.245346205309033e-05, 1.7690361346467398e-05, 4.5772008888889104e-05, 2.0946029053448e-06, -6.0101301642134786e-05, 2.5765841655811528e-06, -5.526985478354618e-05, -9.771319128049072e-06, 5.497699021361768e-05, -4.51352825621143e-05, -4.141827594139613e-05, 1.2266974636077066e-06, -4.801729664904997e-05, 4.5044886064715683e-05, 1.6805134919195552e-06, 1.977563624677714e-05, 5.215551209403202e-05, -8.156933972713887e-07, -2.8831911549787037e-05, 4.880597407463938e-05, 7.232521602418274e-05, -0.00012116233847336844, 2.145109829143621e-05, 5.08030534547288e-05, 7.054366869851947e-05, 2.2556567273568362e-05, 5.290772969601676e-05, -5.2035582484677434e-05, -7.056698086671531e-05, 2.0743175355164567e-06, 5.275598232401535e-05, -4.2289026168873534e-05, -2.7854721338371746e-05, -5.330653948476538e-05, -7.38882808946073e-05, -5.985873576719314e-05, -6.134678551461548e-05, 6.130128895165399e-05, 4.552870086627081e-05, -5.1999719289597124e-05, -1.0025106575994869e-06, -2.28286771744024e-05, -1.11293081772601e-06], [-1.2058884522048174e-06, -7.574074697913602e-05, 2.2480286133941263e-05, 5.202044121688232e-05, 4.85058844788e-05, 4.49874896730762e-05, -5.1107836043229327e-05, -1.8381946574663743e-05, -7.367570651695132e-05, 5.200080977374455e-06, 1.4189965440891683e-05, -1.5725382809250732e-06, 3.95354836655315e-05, 5.0952763558598235e-05, 6.179067713674158e-05, -4.049657945870422e-05, -6.0357560869306326e-05, -5.2183102525305e-05, 5.264567880658433e-05, 4.525530675891787e-05, 5.1769777201116085e-05, -6.177187606226653e-05, 0.00012829279876314104, -2.7745931220124476e-05, -3.089944868861494e-07, -2.771301478787791e-05, -4.175432331976481e-05, -7.57754678488709e-05, -1.4177043340168893e-05, 5.5196833272930235e-05, 2.1181735064601526e-05, 5.282047641230747e-05, -4.921843719785102e-05, 5.282920756144449e-05, 2.3022636014502496e-05, -2.1320938685676083e-05, 7.38097878638655e-05, 5.851830792380497e-05, 0.00012831221101805568, -2.2068272755859653e-06, -7.072799780871719e-05, 7.454169826814905e-05, 5.298293399391696e-05, -4.5098611735738814e-05, -6.133721035439521e-05, -7.523634621975361e-07, 2.775978464342188e-05, 5.756295286118984e-05, -5.080145274405368e-05, 1.6546692904739757e-06, 3.286149149062112e-05, 5.0862425268860534e-05, -5.512771167559549e-05, -4.830521356780082e-05, -4.562902176985517e-05, 5.103062358102761e-05, 5.2703275287058204e-05, -5.508382309926674e-05, -4.583781264955178e-05, 2.0865702481387416e-06, -5.7450844906270504e-05, 4.865728260483593e-05, 4.87284705741331e-05, -4.584692214848474e-05], [-1.9557648556656204e-05, 4.5642525947187096e-05, 4.864220682065934e-05, 5.849336594110355e-05, -3.579885742510669e-05, -5.0788483349606395e-05, 4.8608038923703134e-05, -2.496577735655592e-06, 7.34732675482519e-05, 7.353024557232857e-05, -2.7992803097731667e-07, -5.181076176086208e-06, -4.836720472667366e-05, 2.6528944090387085e-06, 1.56361438712338e-05, -1.768634501786437e-05, 1.4167701010592282e-05, 1.766798050084617e-05, -2.2429829186876304e-05, 7.905358506832272e-05, 5.0792110414477065e-05, 4.858472675550729e-05, -1.3995079825690482e-05, -2.1896560156164924e-06, -4.8486937885172665e-05, 1.1302475968477665e-06, -5.026288272347301e-05, 2.5922420263668755e-06, -5.3313553507905453e-05, -5.5179807532113045e-05, -5.945777229499072e-05, 4.507291305344552e-05, 2.280676199006848e-05, -1.9665973013616167e-05, -4.500501017901115e-05, -1.5976548866092344e-06, 6.0435530031099916e-05, 2.2779608116252348e-05, 6.118076998973265e-05, -2.2946276658331044e-05, 5.3046147513668984e-05, -7.378446753136814e-05, -7.381036994047463e-05, 4.8679488827474415e-05, 4.633826029021293e-05, 0.00012112237891415134, -5.3034826123621315e-05, 1.9553410766093293e-06, -5.027790029998869e-05, 2.2935313609195873e-05, 4.5875618525315076e-05, -7.457016181433573e-05, -5.936472734902054e-05, -2.7918953492189758e-05, 3.3344997518724995e-07, 5.738536128774285e-05, 4.580120003083721e-05, 6.057482823962346e-05, -4.494307722779922e-05, 8.025413262657821e-05, -4.914989767712541e-05, 1.681415710663714e-06, -5.072255225968547e-05, 5.1076403906336054e-05], [-5.16600039190962e-06, 7.565151463495567e-05, -4.879357584286481e-05, -7.74569684836024e-07, 1.9706165403476916e-05, -5.0340997404418886e-05, -1.0126390179721056e-06, 5.7334298617206514e-05, 7.073440065141767e-05, -1.3963705896458123e-05, -5.3036776080261916e-05, 5.51860939594917e-05, 2.284721631440334e-05, 1.3436523715881776e-07, 4.949009235133417e-05, 2.340173750781105e-06, 4.5626402425114065e-05, 9.816255442274269e-06, 1.402502766723046e-05, 6.135924195405096e-05, 7.453788566635922e-05, -5.498208338394761e-05, -7.889920379966497e-05, 5.039131792727858e-05, -5.03714254591614e-05, -5.210638482822105e-05, 5.0228569307364523e-05, -5.5105767387431115e-05, -6.073062104405835e-05, 5.054534994997084e-05, 0.00012088596849935129, -2.639024387462996e-05, -4.2837618821067736e-05, 4.5161767047829926e-05, -4.574645572574809e-05, 6.015092367306352e-05, 2.351960802116082e-06, -2.635459168232046e-05, -1.3984864381200168e-05, 1.096166784009256e-06, -1.9612945834523998e-05, 3.282191028119996e-05, -2.281747219967656e-05, 6.0624915931839496e-05, -2.7485481041367166e-05, 4.559491208055988e-05, 7.578920485684648e-05, -5.335234891390428e-05, -5.2654613682534546e-05, -5.018229421693832e-05, -4.0753042412688956e-05, 5.516540113603696e-05, 4.864524817094207e-05, -4.809610254596919e-05, -5.523414438357577e-05, 5.199584848014638e-05, 4.280988287064247e-05, -2.574168547653244e-06, -4.602201079251245e-05, 4.572008765535429e-05, 5.7103217841358855e-05, -8.007962605915964e-05, 5.088329271529801e-05, -5.308441905071959e-05], [5.097227040096186e-05, 5.3405492508318275e-05, -4.7495010221609846e-05, 1.0708755553423543e-06, -5.3021816711407155e-05, 5.863788101123646e-05, -4.568193253362551e-05, 7.589019514853135e-05, 1.9712393623194657e-05, 4.5663568016607314e-05, 7.380452007055283e-05, 6.0330756241455674e-05, 3.27581146848388e-05, 6.130952533567324e-05, -3.0825907742837444e-05, -4.559901572065428e-05, 4.092140807188116e-05, -6.011695950292051e-05, 1.3959485841041896e-05, 2.7840460461447947e-05, -4.5880537072662264e-05, 2.3332452769864176e-07, 5.743998917751014e-05, -5.065646837465465e-05, 4.8279602196998894e-05, 7.359730079770088e-05, -5.304285878082737e-05, 5.755841266363859e-05, -2.024870127570466e-06, -1.5797815649420954e-05, -4.04377315135207e-05, 2.245008545287419e-05, 6.053774995962158e-05, -1.3942867553851102e-05, -3.0410504336941813e-07, -6.131409463705495e-05, 1.4435411799240683e-07, -1.4174249372445047e-05, 5.273173883324489e-05, 1.342821747130074e-06, 4.565178096527234e-05, -5.4990057833492756e-05, -3.276623465353623e-05, 4.499622082221322e-05, -4.515262844506651e-05, -2.2799340513302013e-05, -3.090227619395591e-05, 2.3319955744227627e-06, 4.582864494295791e-05, 5.1759270718321204e-05, 3.960461981478147e-05, -5.935276567470282e-05, -3.578005635063164e-05, -5.0741975428536534e-05, 3.96546492993366e-05, 2.7954867618973367e-05, -2.1336538338800892e-05, 5.073827924206853e-05, 4.0489827370038256e-05, 2.275943916174583e-05, -4.4919794163433835e-05, 5.8527708461042494e-05, 3.28037203871645e-05, 5.2169611990393605e-06], [4.019291009171866e-05, -4.4361855543684214e-05, 0.00010084460518555716, -0.00014576534158550203, 3.931949322577566e-05, 4.8005855205701664e-05, -2.1009405827498995e-05, 0.06769879907369614, -4.565421477309428e-05, -6.591516284970567e-05, -1.2435525604814757e-05, -4.508982328843558e-06, -0.0008090363699011505, 0.00010800089512486011, -1.0752277148640133e-06, -3.1799681892152876e-05, 2.767769001366105e-05, 0.00012169335241196677, -6.366484285535989e-06, 0.0034166104160249233, -2.8936705348314717e-05, -9.385708108311519e-05, -1.835167313402053e-05, -1.7653022950980812e-05, 2.539988054195419e-05, -2.1298823412507772e-05, 4.198277110845083e-06, 4.435051778273191e-06, 0.0003624742676038295, -1.1378398994565941e-05, -2.648612280609086e-05, -0.01412190217524767, -1.2687955859291833e-06, -7.404390635201707e-05, 0.04445737972855568, -0.04647697135806084, 0.020555656403303146, 1.222898208652623e-05, -4.6336863306351006e-05, -9.942619362846017e-05, -7.828890375094488e-05, -2.000219865294639e-06, -7.623070268891752e-05, 0.047474659979343414, 7.209844739008986e-07, 0.007798412814736366, 4.622606502380222e-05, 6.243517418624833e-05, 1.3583471627498511e-05, 9.144929208559915e-06, -1.6158352082129568e-05, 0.000158536116941832, 3.101554830209352e-05, 0.05786631628870964, -3.1237013899954036e-05, 1.7109312466345727e-05, -5.9606769355013967e-05, 0.045203644782304764, 0.04833605885505676, -1.8649403500603512e-05, 8.544664888177067e-05, 5.4475389333674684e-05, 5.6525590480305254e-05, -1.7582124200998805e-07], [0.00012090904783690348, -9.941871894625365e-07, 4.5789383875671774e-05, -4.562055255519226e-05, -7.399790774798021e-05, -5.04526833537966e-05, 5.333325680112466e-05, 5.0519840442575514e-05, -1.1027444770661532e-06, 6.0801605286542326e-05, 1.958066968654748e-05, -6.031812517903745e-05, -8.036391227506101e-05, 4.579011147143319e-05, 4.821289621759206e-05, -1.419772274857678e-06, 2.7773900001193397e-05, 2.2644489945378155e-05, 2.883848901547026e-05, 5.519159458344802e-05, 2.270350159960799e-05, -5.272836278891191e-05, 5.846004205523059e-05, 4.806234937859699e-05, 1.9915753455279628e-06, -5.279739707475528e-05, 4.642297426471487e-05, 9.908111451295554e-07, 5.036490620113909e-05, -4.5581320591736585e-05, -3.083929550484754e-05, 4.522137169260532e-05, 2.4859257337084273e-06, -5.273162241792306e-05, -4.583385452860966e-05, -1.1454397963461815e-06, 6.237296474864706e-05, 5.0798251322703436e-05, -5.0313465180806816e-05, -5.0524206017144024e-05, 6.121453043306246e-05, -8.265474025392905e-05, -5.952465289738029e-05, 5.295583832776174e-05, 4.601447290042415e-05, 2.1218114852672443e-05, -5.760090425610542e-05, -3.5957694421995257e-07, -2.5060073767235735e-06, -5.105154195916839e-05, 5.11342914251145e-05, -5.525498272618279e-05, 6.031180964782834e-05, 1.3952908375358675e-05, -1.3526132214281006e-08, 1.0231840406049741e-06, -5.519706610357389e-05, 5.07287222717423e-05, 0.00012837682152166963, -1.2070817092535435e-06, 2.2894742869539186e-05, -2.2825941414339468e-05, -6.125099753262475e-05, 4.866757080890238e-05], [0.05668187141418457, 8.354390956810676e-06, 0.015603526495397091, 0.0004111632297281176, 0.036843013018369675, 4.876439561485313e-05, 0.04984773322939873, 6.974058487685397e-05, -0.02336956560611725, -0.0028348530177026987, 0.020080195739865303, 0.04807000979781151, 0.03836783766746521, 0.05991676449775696, 0.05378926917910576, -0.00013221291010268033, -5.145467002876103e-05, 0.09615352004766464, 4.395293944980949e-05, 2.1847918105777353e-06, 0.07478966563940048, 0.03429442271590233, 5.277674426906742e-05, -0.016482504084706306, -5.339831477613188e-05, 0.04999144747853279, -0.00023624885943718255, -3.724263297044672e-05, -0.03664981946349144, 6.135987496236339e-05, -0.0035788649693131447, 0.00879907701164484, 0.04269195348024368, 0.008226891048252583, -8.517439709976315e-05, 0.03468216955661774, 0.009602832607924938, -6.067199865356088e-05, 0.03332287818193436, 0.0561336949467659, -0.0002669743844307959, -0.02338533103466034, 1.99673722818261e-05, 6.97482937539462e-06, -0.0007145646377466619, -7.840398211556021e-06, 0.06442750990390778, 3.682970782392658e-05, 9.442245527679916e-07, -0.03872686251997948, 0.05153900757431984, -4.382220868137665e-05, -0.004126488696783781, 0.040439359843730927, 0.07850515097379684, 0.04947025328874588, 6.276500062085688e-05, -5.183138637221418e-05, 0.030136317014694214, 0.0002865206333808601, 4.522237213677727e-05, 2.1672967704944313e-05, -3.6273252135288203e-06, 0.014740625396370888], [-6.873207894386724e-05, -1.1822951819340233e-05, 1.046092529577436e-05, 0.0017111734487116337, -1.8970402379636653e-05, 0.08651995658874512, 0.06693220883607864, -0.030773693695664406, 0.07340981066226959, 0.1529611349105835, -0.0002802185481414199, 5.220250750426203e-05, -0.00011197346611879766, -4.976403943146579e-05, 0.019878806546330452, 0.038653381168842316, -2.6608719053911045e-05, 0.014214926399290562, 0.12674696743488312, 0.12303077429533005, 3.1001658499008045e-05, 0.02175489254295826, 0.13563452661037445, -5.1874914788641036e-05, 0.05836539342999458, 0.016997847706079483, 2.0601009964593686e-05, 0.15924808382987976, 0.15194210410118103, 0.05166413635015488, 0.06037217006087303, 0.01960417442023754, -0.0008623349713161588, -2.3534816136816517e-05, -0.017948215827345848, 0.04902924597263336, 0.00013674295041710138, -5.0879339141829405e-06, 0.011024442501366138, 6.656841833319049e-07, 0.182974711060524, 0.09942423552274704, 0.008236727677285671, 2.6443049137014896e-05, 0.008563956245779991, 0.16119563579559326, 0.01979406550526619, 0.1344427466392517, 1.5465760952793062e-05, 0.15093393623828888, -2.6926763894152828e-06, 6.571312405867502e-05, 0.07185827940702438, 0.03011384792625904, 0.1292572170495987, 0.021850312128663063, 5.028077066526748e-05, -4.8460307880304754e-05, 0.013795660808682442, 0.02577187679708004, 0.10873279720544815, 0.13496814668178558, 0.2052946239709854, 0.016581472009420395], [0.013895693235099316, -4.267724580131471e-05, -6.608028343180194e-05, 0.008930089883506298, 0.005411104764789343, -0.01540431845933199, -4.4216198148205876e-05, -0.14963334798812866, -4.0252343751490116e-05, -3.4145545214414597e-05, 0.041483424603939056, 4.4464428356150165e-05, -7.770317097310908e-06, 0.00010902486246777698, 0.004034528508782387, 2.206798490078654e-05, -1.846618602030503e-06, -9.13862168090418e-05, 5.361525836633518e-05, -3.6975470720790327e-05, 4.593667108565569e-05, -1.723777927509218e-06, 0.016059644520282745, -2.2277785319602117e-05, -7.668143553019036e-06, 0.0010248300386592746, 6.665371620329097e-05, -5.59596310267807e-06, 0.0002365637628827244, 5.674283602274954e-05, 1.5869161870796233e-05, 0.03234124556183815, 0.03717006370425224, 0.04699729010462761, -0.048078011721372604, 0.06360247731208801, -0.0022083092480897903, -2.8217900762683712e-05, -0.00016814937407616526, -0.00023128892644308507, -7.534852920798585e-05, 5.45398288522847e-05, 4.95129861519672e-05, -0.08546671271324158, 3.584184014471248e-05, -4.762016033055261e-05, -0.0008144755847752094, 5.946072633378208e-05, -6.371376366587356e-05, -3.425776958465576e-05, 2.7953588869422674e-05, 0.00014518217358272523, 0.02060161903500557, -0.02302762120962143, 0.11605438590049744, 0.007176149170845747, 5.8723424444906414e-05, -0.0761231854557991, -0.02127773128449917, 0.00013165653217583895, -1.189433805848239e-05, -5.967765173409134e-05, -1.2464673091017175e-05, -4.548531069303863e-05], [-3.524608109728433e-05, 4.317337879911065e-05, -6.232779560377821e-05, 0.007733421865850687, -0.00013060570927336812, 7.52557534724474e-05, 6.224097433005227e-06, -0.06369508802890778, -3.481110616121441e-05, 4.722393350675702e-05, 0.026935361325740814, -8.3919643657282e-05, 3.7943759707559366e-06, 3.373793151695281e-05, -9.528722875984386e-05, 0.1131717637181282, -4.021309723611921e-05, 1.538049582450185e-05, -6.8161448325554375e-06, 6.139694596640766e-05, -4.522920062299818e-05, -5.6547291023889557e-05, 0.03855572268366814, -7.935828034533188e-05, 5.737191895605065e-05, -0.00013284114538691938, -1.0720535783548257e-06, -1.8561726392363198e-05, 1.594866807863582e-05, 2.822388705681078e-05, -7.541408558608964e-05, 0.0281627606600523, 2.997015144501347e-05, 0.024179726839065552, -0.055570654571056366, 0.06199096515774727, 1.844972575781867e-05, 1.1964235454797745e-05, 0.012674422934651375, 2.1000285414629616e-05, 1.9737830371013843e-05, 5.1480978981999215e-06, -1.5545398127869703e-05, -0.02326837182044983, -1.999802225327585e-05, -1.7735765140969306e-05, 0.00015904185420367867, 0.009033450856804848, -6.361319537973031e-05, 4.099879879504442e-05, 0.00010840795584954321, -5.166853952687234e-05, 0.01748930849134922, -0.01065575610846281, 0.1321711540222168, -9.962135663954541e-05, -4.3088261008961126e-05, -0.0169586930423975, -0.00393208721652627, -3.999546606792137e-05, 3.858827767544426e-05, 2.9810171326971613e-05, 2.84660800389247e-05, -4.0633069147588685e-05], [-0.12334516644477844, 3.721915345522575e-05, -0.07010854780673981, 0.0051057361997663975, -0.12533661723136902, 0.23928777873516083, -0.07098259031772614, -0.04216726869344711, 0.20707190036773682, 0.16256912052631378, 0.08695099502801895, -0.128575399518013, -0.1371736228466034, -0.1901727318763733, -0.19361062347888947, 0.023152930662035942, 7.563568942714483e-05, -0.11081650853157043, 0.15356913208961487, 0.20524762570858002, -0.05445833504199982, -0.0511973537504673, 0.16413895785808563, 0.19352948665618896, 0.1365218460559845, -0.1971520632505417, 0.15597869455814362, 0.16461941599845886, 0.2074408084154129, -0.12905924022197723, 0.16579300165176392, 0.02588467299938202, -0.19617792963981628, -0.2047470659017563, -0.042316585779190063, 0.06096768006682396, -0.023582493886351585, -1.8573538909549825e-05, -0.2058986872434616, -0.11481840908527374, 0.2008298635482788, 0.16330234706401825, -0.04022285342216492, -0.029362596571445465, -0.1732732653617859, 0.18341581523418427, -0.14329782128334045, 0.17490136623382568, -0.10501675307750702, 0.20513629913330078, -0.18597771227359772, 0.00044763219193555415, 0.1119985282421112, -0.05701812729239464, 0.03318720683455467, -0.1643422394990921, -6.058633152861148e-05, -0.04818253591656685, -0.04692409560084343, -0.18922939896583557, 0.16857083141803741, 0.16150902211666107, 0.17232950031757355, -0.18585269153118134], [-5.51076591364108e-05, 1.5391206034109928e-05, 7.459792686859146e-05, 0.00860484316945076, 8.552760118618608e-05, 0.007151393219828606, -5.1689996325876564e-05, -0.10543905198574066, 0.018895119428634644, 0.06738169491291046, 0.043669991195201874, 4.0695078496355563e-05, 4.768966164192534e-07, 4.8084102672874e-06, 3.73777438653633e-05, 0.01435928139835596, 5.033108755014837e-05, -1.049946149578318e-05, 0.14576011896133423, 0.0003237568016629666, 1.9748988052015193e-05, -2.8696818844764493e-05, 0.15361140668392181, 5.555012830882333e-05, 0.09302669763565063, -3.6371864553075284e-05, 1.9165587218594737e-05, 0.09503563493490219, 0.14748989045619965, 9.034766117110848e-05, 0.042877618223428726, 0.029911117628216743, -5.453707854030654e-05, 0.02519844099879265, -0.08839795738458633, 0.06324737519025803, -0.008856244385242462, -2.0135972533807944e-07, -0.00014309307152871042, 6.368463800754398e-05, 0.02265627682209015, -5.351082290872e-05, -4.80834387417417e-05, -0.04904680699110031, 3.738650048035197e-05, 0.07507723569869995, -4.861307388637215e-05, 0.04421909153461456, 7.97446264186874e-05, 0.16364075243473053, 0.00017844181274995208, 3.261841629864648e-05, 0.05479125678539276, -0.04231885448098183, 0.15158969163894653, 8.871316822478548e-06, 4.2600222514010966e-05, -0.07598045468330383, -0.032728616148233414, 0.00024795386707410216, 0.07097046077251434, 0.1508627086877823, 0.0808444619178772, 0.00012608272663783282], [2.4271837901324034e-05, -5.774353849119507e-05, -4.9334135837852955e-05, 0.009223917499184608, -0.00013267291069496423, 0.22103743255138397, -0.07733049988746643, -0.16027995944023132, 0.1515834778547287, 0.21271957457065582, 0.055489975959062576, -0.03974675014615059, -2.706571285671089e-05, -0.0006091109826229513, -0.05087106674909592, 0.08680815249681473, -9.283652616431937e-05, 0.00015438988339155912, 0.14977112412452698, 0.17279522120952606, 0.0005775600438937545, -0.00023099739337339997, 0.16086998581886292, 0.146528422832489, 0.1280035674571991, -0.01836351305246353, 0.22701185941696167, 0.19133815169334412, 0.20750442147254944, 8.593848178861663e-05, 0.25802382826805115, 0.03326689451932907, -0.04325541853904724, -0.01950305514037609, -0.04781016707420349, 0.0646464005112648, -0.01503575686365366, -1.7440719375372282e-06, -0.028147904202342033, -0.0633455440402031, 0.14996053278446198, 0.14538119733333588, -9.110329119721428e-05, -0.07817629724740982, 2.5106530301854946e-05, 0.24070300161838531, -0.043845225125551224, 0.1442308872938156, -0.016137465834617615, 0.1959237903356552, -1.825656545406673e-05, -9.239406790584326e-05, 0.2348368614912033, -0.035842813551425934, 0.15976764261722565, -0.01767445169389248, 6.4418425608892e-05, -0.14852692186832428, -0.035902656614780426, -0.05783049017190933, 0.12935611605644226, 0.1579555869102478, 0.19775208830833435, -0.021061403676867485], [-0.17514169216156006, 4.138808071729727e-05, -0.048929065465927124, 0.009489553980529308, 